solver_type L2R_L2LOSS_SVC
nr_class 2
label 1 -1
nr_feature 32354
bias -1
w
0.1771469321468009 
0.06191988789119451 
0.03735844684753611 
0.001120768514591915 
-0.000721913433060229 
0.03735844684753611 
0.6620568622007657 
0.003607054366529392 
0.03735844684753611 
0.03735844684753611 
0.06488105729306956 
0.01147017593179885 
0.0009360525852176638 
0.004267548295531681 
0.004896828696167727 
0.004736442563699377 
0.003607054366529392 
0.001157288318487815 
0.06827074968956695 
0.1735213756740462 
-0.0006541255708990253 
0.003720487528596439 
0.004015510915976869 
0.0001211410233276731 
-0.01009488578248216 
0.02158127998071176 
-0.0006541255708990253 
0.0001211410233276731 
0.02237878405956569 
0.02368236375233064 
-0.007288335449154583 
0.01474585274885569 
0.003720487528596439 
0.04931062138960366 
0.008483399963476173 
0.02158127998071176 
0.0001211410233276731 
0.02158127998071176 
0.02158127998071176 
0.0001333968288714233 
0.0001211410233276731 
0.6867375552679883 
0.0007986017587484683 
0.0007986017587484683 
0.0007986017587484683 
0.06355413781911612 
0.00891875424346872 
0.0007986017587484683 
0.008333243577975078 
-0.03442081016027187 
0.0437534684284147 
0.0437534684284147 
0.0007986017587484683 
0.001845187008917078 
0.00891875424346872 
0.1203397890849433 
0.0437534684284147 
0.0437534684284147 
0.01424088927606611 
0.009759070344444221 
0.0007986017587484683 
-0.03172500399642771 
0.03190225402447034 
0.6436073501812027 
0.0437534684284147 
0.0437534684284147 
0.0349964229027343 
0.02761926557706459 
0.02165077240553221 
0.6576630488442896 
0.002723678065766607 
0.04276943423272066 
0.1640855550355667 
0.002497879770515034 
-0.002299037361508026 
0.007190008713126199 
0.002503512566121846 
0.007299153323938616 
-0.001250159192586119 
0.002497879770515034 
-0.001250159192586119 
0.002497879770515034 
0.0101271879082909 
0.03317546933398736 
0.00400103790502648 
-0.001250159192586119 
-0.001250159192586119 
0.002166444467511714 
0.002166444467511714 
0.00400103790502648 
0.00400103790502648 
0.002497879770515034 
-0.00412732105003895 
-0.00104887816892191 
-0.001352798137214334 
0.01768718335143091 
0.0128305353754992 
-0.00104887816892191 
-0.00405427410862717 
0.03413585799883919 
0.01768718335143091 
-0.00104887816892191 
0.03413585799883919 
0.01768718335143091 
0.05304177887351752 
-0.00104887816892191 
-0.003683799008522482 
0.03413585799883919 
0.01134477298420635 
0.03309898570263186 
0.04233609244180329 
-0.00104887816892191 
0.03101428233864237 
0.03919047779453062 
0.009215397258690097 
0.001600839402235903 
0.009659606487412537 
-0.0002463756142189431 
-0.0002463756142189431 
0.001600839402235903 
0.001600839402235903 
0.003035667338093766 
0.01379473953605068 
0.009215397258690097 
0.001600839402235903 
0.02533230068792672 
0.01379473953605068 
-0.0002463756142189431 
0.0008517329834164951 
0.008078224458082818 
0.06101868431854439 
0.01109991967223744 
0.1832960667196536 
0.09255598442741444 
0.09255598442741444 
0.01030933621128849 
0.09255598442741444 
0.09255598442741444 
0.09255598442741444 
0.008078224458082818 
0.03872274146635233 
0.09255598442741444 
0.0126610066402264 
0.008658723645729447 
0.09255598442741444 
-1.42718541097952e-05 
0.03459552557112248 
0.001146724848734593 
0.0184778411288817 
0.02329793255956804 
0.009843616696116348 
-2.990892630021723e-05 
-2.990892630021723e-05 
-0.002278413033057371 
-2.990892630021723e-05 
-2.990892630021723e-05 
-0.001765009788170717 
0.02190884444609679 
-0.008817171552082784 
-2.990892630021723e-05 
0.001401742073358329 
0.01000070909752806 
0.001401742073358329 
0.03754826298259347 
0.02202365232452512 
0.01167200371716231 
0.0005084375240632102 
0.02517917466098642 
0.02676145326863638 
-0.00365482815732383 
0.03184534002584782 
0.02676145326863638 
0.0009894580601024485 
0.02202365232452512 
0.02676145326863638 
0.001401742073358329 
0.02202365232452512 
0.01036303105669869 
0.006287392203145815 
0.02202365232452512 
0.006287392203145815 
0.06780730898080195 
0.006287392203145815 
0.02676145326863638 
0.001161964877554422 
0.00295699426147357 
0.01557175396812438 
0.04181231029167346 
0.01798260944142551 
0.03023176026258094 
0.01463922388765903 
0.002515953210456477 
0.001161964877554422 
0.02290229166594443 
0.0194044580540018 
0.01463922388765903 
0.008689089539229583 
0.03023176026258094 
0.005366941299262105 
0.04181231029167346 
0.04181231029167346 
0.001934784497127281 
0.03023176026258094 
0.04052213600448397 
0.04181231029167346 
0.001161964877554422 
0.001161964877554422 
0.01357865583581938 
0.03378762647902735 
0.01488294253251705 
0.01556031549836281 
-0.0002442048611795459 
0.02504876715702732 
-0.004334338358944648 
-0.0002442048611795459 
-0.001724498960002324 
0.02504876715702732 
-0.0002442048611795459 
-0.0002442048611795459 
0.01715031917902056 
-0.000227673026499309 
0.007009766345121355 
-0.0002442048611795459 
-0.0002442048611795459 
0.03021182593847236 
-0.02666048766092728 
-0.003746150168721877 
-0.1085477971872939 
-0.003746150168721877 
-0.7208450742240038 
-0.001646059414310373 
-0.05999778477042741 
-0.05181679886042649 
-0.2542013321707826 
-0.003746150168721877 
-0.003746150168721877 
-0.001646059414310373 
-0.03835010828720781 
0.0326676665347403 
0.02183679954704145 
0.02183679954704145 
0.0701355597890785 
0.009835318406536286 
0.02183679954704145 
0.02183679954704145 
0.002498840738311286 
0.002498840738311286 
0.2492378629941709 
0.002498840738311286 
0.01050640793697736 
0.2929234429346039 
0.04215568144586512 
0.009835318406536286 
0.009835318406536286 
0.002498840738311286 
0.02183679954704145 
0.04278387975517091 
0.0539476184049657 
0.02183679954704145 
0.0002847966354175416 
0.06574638909117253 
0.0002847966354175416 
0.001532525710902344 
0.05391644767251783 
0.0002847966354175416 
2.456394607639409e-05 
0.001154755205440502 
0.03713182531812201 
-0.0007324423362041234 
0.0004380333468498878 
0.0002847966354175416 
0.03241291727656736 
0.03076689855251953 
0.0002847966354175416 
0.001327543595423137 
0.1249969330267151 
0.03713182531812201 
0.002037693464746994 
0.0002847966354175416 
0.0002968094039638719 
0.03713182531812201 
0.0002847966354175416 
2.456394607639409e-05 
0.0008047582664448884 
0.0005457655253658714 
0.0003708288339774021 
0.0005457655253658714 
0.0005457655253658714 
0.0004448354713440983 
0.05453786718807575 
0.01488298616776268 
-8.493024817601834e-05 
0.07933074455635908 
0.0005457655253658714 
0.02505285406078994 
0.001196296403994709 
-0.002086030325438613 
0.0005457655253658714 
0.0005457655253658714 
-0.006980917173373267 
0.01902057593041129 
0.004898539756495185 
-8.493024817601834e-05 
0.01376805113754694 
0.0005457655253658714 
0.01376805113754694 
-0.01345133849185854 
-0.005813339604219723 
-0.005813339604219723 
0.01568456878086697 
-0.005813339604219723 
-0.005813339604219723 
-0.01345133849185854 
0.04196534362852797 
-0.005813339604219723 
-0.0002993608904954886 
-0.005813339604219723 
-0.005813339604219723 
-0.3675033670737045 
-0.0002993608904954886 
0.0119036789122 
-0.002099197779067675 
-0.007223360640745858 
-0.005813339604219723 
-0.005292763355064928 
-0.005813339604219723 
-0.005813339604219723 
-0.005813339604219723 
0.05239534354747235 
-0.005813339604219723 
-0.6353109000563522 
0.04537273014061242 
0.004656559121831109 
-0.003608664001068545 
0.00573906218587575 
-0.005948804912470835 
-0.005948804912470835 
0.01734715424894036 
-0.003608664001068545 
-0.005948804912470835 
-0.0001915521395812304 
-0.1027053833357175 
-0.003608664001068545 
-0.001675489397844926 
-0.003608664001068545 
-0.001675489397844926 
-0.001675489397844926 
-0.001675489397844926 
-0.007580791630908164 
0.03186204779936377 
-0.02268507945433473 
-0.001675489397844926 
-0.001675489397844926 
-0.002728819974332869 
-0.0008555637402452782 
0.0028526025417512 
-0.0005958521379160725 
-0.0008555637402452782 
-0.0008555637402452782 
0.0552919132228941 
-0.006045411235355255 
-0.0005958521379160725 
0.03324265610748351 
-0.006045411235355255 
-0.0008555637402452782 
0.01575425807596039 
-0.0008555637402452782 
-0.006045411235355255 
-0.0008555637402452782 
-0.0008555637402452782 
-0.0008555637402452782 
-0.0008555637402452782 
-0.0008555637402452782 
-0.0008555637402452782 
-0.0008555637402452782 
0.02574178935784547 
0.008751394484435316 
0.008751394484435316 
0.05040315200364261 
0.0006752859133534681 
0.08122464496382109 
0.008751394484435316 
0.01864855272830964 
0.0006752859133534681 
-0.01341666424545698 
0.03194486407062513 
0.0006752859133534681 
9.937136201863628e-05 
0.0006752859133534681 
0.0006752859133534681 
6.293062636288994e-06 
6.293062636288994e-06 
6.293062636288994e-06 
0.01654643585579219 
0.05436287292617575 
6.293062636288994e-06 
6.293062636288994e-06 
6.293062636288994e-06 
0.007408353643592771 
0.005594565255238926 
0.02280358829324672 
0.001813516058950618 
-0.006562396837654628 
6.293062636288994e-06 
6.293062636288994e-06 
0.009089585742482613 
0.007408353643592771 
0.01106448949313522 
0.007408353643592771 
0.05623318020745859 
0.03618815337316589 
0.03618815337316589 
0.03014219263802383 
0.03618815337316589 
0.02298567311609189 
0.118356370081795 
0.03618815337316589 
0.0304194763819904 
0.03184239474261612 
0.03791714373771966 
0.03842333015359809 
0.03618815337316589 
0.03618815337316589 
0.03618815337316589 
0.03727764323038502 
0.03618815337316589 
0.03190066202475324 
0.03842333015359809 
0.02449540681952891 
0.02286902730719108 
0.03618815337316589 
0.03842333015359809 
0.03618815337316589 
0.03791714373771966 
0.002518422768156294 
0.0002268965955780213 
0.03540769569281471 
0.009213908302911144 
-0.01053105700942936 
-0.01094799260932081 
0.009213908302911144 
0.009396725312096212 
0.07297389761622557 
0.0008533384010908848 
0.02504739129225072 
0.0008533384010908848 
0.156569180199716 
0.005380516977773101 
0.156569180199716 
0.02058666331514245 
0.005380516977773101 
0.003838982521507704 
0.005380516977773101 
0.01726002623384626 
0.005380516977773101 
0.005870175499553675 
0.02534865951327021 
0.07705455959884638 
0.005380516977773101 
0.005380516977773101 
0.01726002623384626 
0.07705455959884638 
0.07705455959884638 
0.06321057002394784 
0.01726002623384626 
0.005380516977773101 
0.003279190359193543 
0.07705455959884638 
0.005380516977773101 
0.07705455959884638 
0.07705455959884638 
0.001001896157223927 
0.001001896157223927 
0.04800194177167889 
0.001001896157223927 
0.06769941395661901 
0.01228615786847248 
-0.01641839688828163 
0.0006867974650166244 
0.01305710952152771 
0.04134365829123663 
0.001001896157223927 
0.001001896157223927 
0.001001896157223927 
-0.001163266939699514 
-0.0004450547676864577 
0.001001896157223927 
0.0276948611539655 
0.02840078534918796 
0.002203441510427895 
-0.0005886748147675293 
0.002142795784144636 
0.005980397240126712 
-0.0005886748147675293 
0.0001162177717527649 
0.0009930649366780586 
0.03666444978796624 
0.003196358060067265 
0.0009930649366780586 
0.0009930649366780586 
0.0009930649366780586 
0.003952727615106106 
0.0001162177717527649 
0.0009930649366780586 
-0.001959581030003606 
0.002420855152469499 
0.0001162177717527649 
0.0420990310990519 
0.01720181157190841 
0.0300593276972613 
0.0001162177717527649 
0.003952727615106106 
0.02869895781234875 
0.0009930649366780586 
0.01570083028643501 
-0.01616085788901284 
-0.01616085788901284 
-0.007390533680591696 
-0.01616085788901284 
-0.01616085788901284 
-0.01417856271685989 
0.001721183026335973 
-0.01616085788901284 
-0.02238402368708555 
-0.07660255907337692 
-0.01616085788901284 
-0.01616085788901284 
-0.01616085788901284 
-0.02238402368708555 
-0.01616085788901284 
-0.01616085788901284 
-0.01616085788901284 
-0.01055759991734512 
-0.01616085788901284 
-0.01616085788901284 
0.001117576988397734 
0.01633348764775944 
0.008898179373652591 
0.001457523346929576 
0.001117576988397734 
0.001457523346929576 
0.001457523346929576 
0.002977227844681191 
0.001457523346929576 
-0.006516468403926812 
0.0009216028921121233 
-0.004780777500923046 
0.0155536777532873 
0.04577243107598182 
0.01633348764775944 
0.05551211589580884 
0.001117576988397734 
0.001924498402941901 
0.005581099788377188 
0.008898179373652591 
0.01633348764775944 
-0.001265124038926661 
-0.03525247103443214 
0.004262556282533814 
-0.04741761116284546 
-0.04741761116284546 
-0.04741761116284546 
0.03963385976952644 
-0.1217013411216059 
-0.04741761116284546 
0.004262556282533814 
-0.006127720257697637 
-0.1217013411216059 
0.004262556282533814 
-0.196994610661602 
0.004262556282533814 
0.1179328492325793 
-0.1217013411216059 
0.06837105305705526 
-0.1862803596310646 
-0.04741761116284546 
0.009152739215346177 
0.0610527546816583 
0.1909964608198335 
0.007294900309185397 
0.07938837380609649 
0.003709950712506046 
0.0610527546816583 
0.0610527546816583 
0.0610527546816583 
0.01111550361845587 
0.2494282991208065 
0.0504657362375922 
0.0008566353543048245 
0.009607607939994477 
0.0610527546816583 
0.0008566353543048245 
0.0610527546816583 
-0.1113701110058644 
-0.003258925346908172 
0.01775485222134814 
-0.048427004178411 
-0.003258925346908172 
-0.048427004178411 
-0.005949010372104615 
0.01144854358352325 
-0.048427004178411 
-0.048427004178411 
0.01426430443966511 
-0.003258925346908172 
0.01144854358352325 
-0.003258925346908172 
0.01144854358352325 
0.01775485222134814 
-0.003258925346908172 
0.01775485222134814 
-0.003258925346908172 
0.01775485222134814 
-0.7569708760219512 
-0.01547209403424474 
-0.06363475632306215 
0.01111401681118611 
0.007684791003361549 
0.04811152309042193 
-0.001377797650043937 
0.04295642345371768 
-0.0008300393347558373 
0.01051644211660667 
-0.001377797650043937 
-0.001377797650043937 
-0.02046587553868301 
-0.001236175926427225 
-0.001377797650043937 
0.01249560093316913 
0.02823625026869066 
0.002621774002943182 
0.01451480276127215 
0.03486585179203745 
-0.003044585649436774 
0.01375785599632883 
-0.003044585649436774 
-0.003044585649436774 
0.01375785599632883 
0.1696964487240416 
0.002621774002943182 
0.01344660552156591 
0.6829262853394213 
0.02823625026869066 
0.0002992581757368488 
0.01375785599632883 
0.002115473473732553 
0.002621774002943182 
0.005529038791836428 
0.04311930869016934 
0.0006947691985765542 
0.01010230550640642 
0.0006947691985765542 
0.006164175213910141 
0.01876947079260946 
0.006164175213910141 
0.04475841372546269 
0.01010230550640642 
0.008284890119283628 
0.006164175213910141 
0.0006947691985765542 
0.01010230550640642 
0.04551421456721813 
0.004589758385128283 
0.01143396778407723 
-0.004146370749332005 
0.002002600459395192 
0.06545109493308597 
0.01143396778407723 
-0.0005608314015295255 
0.01606876663309484 
0.01143396778407723 
0.002002600459395192 
0.02041475408210277 
0.003493637142347459 
0.01143396778407723 
0.003493637142347459 
0.07449690434183508 
0.01744005487137985 
0.0277129356162587 
0.03886748829559125 
0.002002600459395192 
0.008443641009769036 
0.008403516965551241 
0.10032926428672 
0.008443641009769036 
0.10032926428672 
0.008443641009769036 
0.10032926428672 
0.1979189743248616 
0.03461794394353211 
0.10032926428672 
0.00943629084124897 
0.10032926428672 
0.10032926428672 
0.001153623189428337 
0.01174845992403382 
0.10032926428672 
0.008443641009769036 
0.08216821670862906 
0.08216821670862906 
0.08216821670862906 
0.03215299674323185 
0.01814466111628651 
0.01814466111628651 
0.04271289360498675 
0.04069421232925029 
0.004880803932954671 
0.004880803932954671 
0.08216821670862906 
0.01814466111628651 
0.004880803932954671 
0.01599856677423207 
0.08216821670862906 
0.03215299674323185 
0.08216821670862906 
0.08216821670862906 
0.01814466111628651 
0.08216821670862906 
0.02438720179608685 
0.02282063544291475 
0.05292912149917776 
0.05292912149917776 
0.01655571189155926 
0.008289101671104354 
0.008289101671104354 
0.008503811209061763 
0.000112952725915206 
0.008289101671104354 
0.008503811209061763 
0.05292912149917776 
0.008503811209061763 
0.05292912149917776 
0.000112952725915206 
0.05292912149917776 
0.05292912149917776 
0.000112952725915206 
0.05292912149917776 
0.01628571752564972 
0.07288177720953808 
-0.004215228505028895 
0.008326464716294576 
0.008326464716294576 
0.07288177720953808 
-0.004215228505028895 
-0.004215228505028895 
0.263313546631451 
0.07288177720953808 
0.177913716554899 
0.008326464716294576 
0.07288177720953808 
0.005754040058399307 
0.01339549775961269 
0.01339549775961269 
-0.004215228505028895 
0.07288177720953808 
0.01339549775961269 
0.01339549775961269 
0.008326464716294576 
-0.003430762831423627 
-0.006161934136461662 
0.02562635948100243 
0.006408372361577911 
-0.006161934136461662 
0.008383958874613105 
-0.003430762831423627 
0.006160039186740992 
-0.00267590643795562 
0.0392720068965183 
-0.006161934136461662 
0.006722345098241983 
0.09280541072879565 
-0.003430762831423627 
0.006160039186740992 
-0.003430762831423627 
-0.004330201651577063 
0.02726122394167009 
0.02726122394167009 
-0.004330201651577063 
-0.004659955687213724 
0.02726122394167009 
0.02726122394167009 
-0.004330201651577063 
-0.004330201651577063 
-0.004330201651577063 
-0.004330201651577063 
-0.004330201651577063 
-0.004447922235280362 
-0.004330201651577063 
-0.004330201651577063 
-0.01659831412081837 
-0.004330201651577063 
0.05417209073344697 
-0.004330201651577063 
-0.003699727456374963 
-0.004330201651577063 
0.002767118958788737 
-0.004823318533250782 
-0.0136954344025169 
-0.0082865462428402 
-0.0082865462428402 
-0.001893924046293737 
-0.01444999424431311 
-0.004823318533250782 
-0.001893924046293737 
-0.08150320421623071 
-0.0227666292542419 
-0.2678075329826484 
-0.01592454513047902 
-0.02735894923281912 
-0.001893924046293737 
-0.01444999424431311 
-0.008981461964697863 
0.004601393133267122 
-0.01411271199174524 
0.006699145643365738 
-0.0009759816414122795 
0.004601393133267122 
0.001643539269055678 
0.03064212062007421 
0.003708259587182965 
0.001643539269055678 
0.002475074932256423 
0.001643539269055678 
0.006699145643365738 
0.006699145643365738 
0.004601393133267122 
0.06800809265430076 
0.005060507466694696 
0.001643539269055678 
0.03064212062007421 
0.03064212062007421 
-0.002555626757727556 
0.02052871505590467 
0.01386297666899322 
-0.002555626757727556 
0.02052871505590467 
0.01386297666899322 
0.02052871505590467 
0.03284295337161584 
0.02532955128221991 
0.01386297666899322 
-0.01665241231771203 
-0.008231210467250906 
0.01647357707119498 
-0.002555626757727556 
-0.001860559823283385 
-0.002555626757727556 
0.04553689962665918 
-0.008231210467250906 
0.09119485932658561 
-0.00326630871785039 
0.05075333076971537 
0.01386297666899322 
0.02532955128221991 
-0.004227895335275768 
-0.0003825961636234847 
0.0238949747588449 
-0.004227895335275768 
0.0007472086680655643 
0.007585436626501432 
0.04176813376596902 
0.0007472086680655643 
0.05207244946632651 
0.0007472086680655643 
-0.004423210732037285 
0.0007472086680655643 
0.0007472086680655643 
0.00463295085840377 
0.00463295085840377 
0.007609050763323444 
0.00463295085840377 
0.02904471728867249 
0.00463295085840377 
0.007609050763323444 
0.00463295085840377 
0.01236531224594229 
0.007609050763323444 
0.01224206553167656 
0.007609050763323444 
0.007330465540965609 
0.01432000062916487 
0.00463295085840377 
0.00463295085840377 
0.00463295085840377 
0.00463295085840377 
0.00363926655868735 
0.02039756060851924 
0.008198075579946274 
0.004499047612396647 
-0.00458548873538008 
0.02039756060851924 
0.02039756060851924 
0.02039756060851924 
0.02039756060851924 
0.07157082185803186 
0.00363926655868735 
0.00363926655868735 
-0.01435962536367241 
-0.00356938383083508 
-0.003115420757976344 
0.01073468783413303 
0.00152564663413981 
0.01118251799676306 
0.01118251799676306 
0.0151559083741628 
0.0151559083741628 
0.01655908184242208 
0.01118251799676306 
0.06085883746730784 
0.00152564663413981 
0.00634378152202646 
0.01008907257146641 
0.0009788949104077374 
-0.007012472590186633 
0.0009788949104077374 
0.005384362986275104 
0.005384362986275104 
0.02218580536503711 
0.03234533979793349 
0.0165814637080289 
0.04481929391639768 
0.009023639278985248 
0.0009788949104077374 
0.0009788949104077374 
0.0009788949104077374 
0.02218580536503711 
0.01286385782698976 
0.005588805457061003 
0.005384362986275104 
0.0133484996579329 
0.05323571867627727 
0.001645879935250778 
0.01434435300372535 
0.03491889768844507 
-0.0003381008008946772 
0.005367380086904504 
-0.00585830552325277 
-0.007615497941988104 
0.0002420124594718007 
0.002616834113858965 
0.0002420124594718007 
0.0133484996579329 
0.007582962109337843 
0.01475635735474141 
0.05816923980306759 
0.05816923980306759 
0.05104463355242581 
-0.0007487704594115261 
0.02874554610269652 
0.01475635735474141 
0.02874554610269652 
0.01677942924279529 
0.06668951817022312 
0.02874554610269652 
0.04908698915313166 
0.01766185709139878 
0.0005637810812304334 
0.1086574001380021 
0.01475635735474141 
0.02188507645914907 
0.06014132006689987 
-0.01319782904012863 
-0.003991451914360172 
-0.003991451914360172 
-0.003991451914360172 
-0.16546199480638 
-0.07951326705304328 
-0.01319782904012863 
-0.01319782904012863 
-0.003991451914360172 
-0.01319782904012863 
0.004254362966636781 
-0.008072035351505991 
0.01116568659591829 
0.01116568659591829 
0.01476153286583141 
0.01189726941258272 
0.01189726941258272 
0.01116568659591829 
0.01578665626228131 
-0.004220766913889598 
0.03325634875615403 
0.0345000745388352 
0.03325634875615403 
0.01254405025183879 
-0.006194866818992433 
-0.006194866818992433 
0.03325634875615403 
0.03325634875615403 
0.03325634875615403 
0.04540091165273715 
0.03325634875615403 
0.01254405025183879 
0.01254405025183879 
0.02608078727842677 
-0.002496141444408477 
1.571842573131544e-05 
0.02081311539834721 
0.0003254460285347766 
-7.780803580328824e-05 
0.02400191548692214 
1.571842573131544e-05 
0.004448370427310984 
1.571842573131544e-05 
-7.780803580328824e-05 
0.01197081303926808 
0.01027109858473416 
0.00986183717617713 
0.01483648056193565 
0.00986183717617713 
0.01076650756579466 
0.01483648056193565 
0.0001868573945674541 
0.02438809415563752 
0.01197081303926808 
0.00986183717617713 
0.01083446976121438 
0.01197081303926808 
-0.0004959753949140104 
-0.002115874690960598 
0.003567219552147121 
-0.002115874690960598 
0.01197081303926808 
0.0001868573945674541 
0.006830978546569329 
0.0907063815567123 
0.06962627951898123 
0.1863037694582648 
0.01042450997898609 
0.006830978546569329 
0.01913802919483198 
0.06962627951898123 
0.1863037694582648 
0.06962627951898123 
0.06962627951898123 
0.01042450997898609 
0.06962627951898123 
0.01042450997898609 
0.006830978546569329 
0.04064191530240834 
-0.004527490814378502 
-0.002849364023257587 
0.001325710326055904 
0.0003188661803737062 
0.04456124455168824 
0.04760033479787819 
-0.007336525913198867 
0.001325710326055904 
-0.002299757136210966 
-0.0138724739263465 
0.04266134062703554 
0.01479130649988786 
0.01479130649988786 
-0.007861353267669419 
0.02977698237287263 
-0.003587852584058071 
0.01479130649988786 
-0.002159931415501372 
-0.001019264017675256 
0.02666031531393231 
-0.006879411531538936 
-0.006879411531538936 
-0.003495455955354647 
0.001025123396449932 
0.02695553061709045 
0.03478830970691844 
0.01876571114898017 
-0.0006654199327920894 
0.08112343023923922 
0.0005319407958942122 
0.003798420047003566 
0.04919848693093026 
-0.0002140276174092351 
0.002143788603634958 
0.009174701644140368 
0.009174701644140368 
0.009174701644140368 
-0.00448235070441681 
-0.00448235070441681 
0.03259801744770343 
-0.00448235070441681 
-0.00448235070441681 
0.01479546781243413 
0.05989421423777461 
0.009663484180019437 
0.009174701644140368 
-0.003294947502687399 
0.0006376334803111854 
0.0006376334803111854 
0.007104816639286465 
0.0215185211202313 
0.0006376334803111854 
0.003293814385352633 
0.002242651491856318 
0.003293814385352633 
0.01655415695524251 
0.003293814385352633 
0.005971556245827713 
0.003293814385352633 
0.0006376334803111854 
0.01974286540272666 
0.02035264324341932 
0.02035264324341932 
0.04044163480883226 
0.02472309350933806 
0.01571114261703236 
-0.1004849572630221 
0.00706255260733508 
0.00706255260733508 
-0.001141224968009104 
-0.001141224968009104 
0.00706255260733508 
-0.1004849572630221 
-0.1004849572630221 
-0.1004849572630221 
-0.2559187653831196 
-0.004273315514625909 
-0.1004849572630221 
-0.1641899174349725 
-0.001141224968009104 
-0.1004849572630221 
-0.01402224266692442 
0.00107382806731534 
0.009282303473603436 
0.009282303473603436 
0.02208723954196495 
0.02208723954196495 
0.002065989408235005 
0.003001948677761389 
0.02192922090258213 
0.07503324393071058 
0.003287066873603212 
0.009282303473603436 
-0.01553407025311223 
0.003287066873603212 
0.02208723954196495 
0.00107382806731534 
0.02020452706776549 
0.003287066873603212 
-0.002360826600626938 
0.03565836146021899 
-0.002360826600626938 
-0.002360826600626938 
0.02614353396229277 
-0.002360826600626938 
-0.002360826600626938 
-0.002360826600626938 
0.007466854295117047 
0.009503091065394808 
-0.002360826600626938 
-0.002360826600626938 
0.01170354712693333 
0.01170354712693333 
-0.000824301913102447 
-0.002360826600626938 
0.01170354712693333 
-0.002360826600626938 
0.01567672779509473 
0.005962884013664409 
0.005307393486495904 
0.01170354712693333 
0.003162952318116563 
0.007206745396241798 
0.007206745396241798 
0.007206745396241798 
0.003162952318116563 
0.01476862804970625 
0.007206745396241798 
0.007206745396241798 
0.01652731560601992 
0.007206745396241798 
0.007206745396241798 
0.007206745396241798 
0.003162952318116563 
0.007206745396241798 
0.003898518465554464 
0.008326908276584255 
0.08153511120413545 
0.003811142667236049 
0.1443455774765414 
0.08153511120413545 
0.08153511120413545 
0.02267187638429969 
0.08153511120413545 
0.003898518465554464 
0.003811142667236049 
0.08153511120413545 
0.01248626138674649 
0.003898518465554464 
0.02267187638429969 
0.01248626138674649 
0.08153511120413545 
0.08153511120413545 
0.003898518465554464 
0.001051162893496316 
0.01237523276816491 
0.01237523276816491 
0.00918038682917317 
0.003986361581006196 
0.001051162893496316 
0.01237523276816491 
0.02015453346438437 
0.007496929026464553 
0.01237523276816491 
0.001051162893496316 
0.007496929026464553 
0.007496929026464553 
0.01731438975595211 
0.01128182176209176 
0.003656353306067467 
0.003656353306067467 
0.01027035920980396 
0.007563469997281342 
0.01027035920980396 
-0.001111066827625357 
-0.02117812253378859 
-0.01676074417110832 
-0.00273895224630931 
-0.01676074417110832 
-0.01676074417110832 
-0.06126910900262406 
-0.02802141538134319 
0.004016292450127166 
-0.006273776011111196 
-0.006273776011111196 
-0.00273895224630931 
-0.003809071391372364 
-0.03998215292675739 
-0.004626668994931797 
-0.001848194661154827 
-0.0001995532120769902 
-0.001848194661154827 
-0.003108956993095018 
-0.003833104510703958 
-0.0001995532120769902 
-0.02605322107380342 
-0.02605322107380342 
-0.1360088773788763 
0.04818004236401654 
-0.02605322107380342 
-0.01207497202144315 
-0.07184527829854692 
-0.01207497202144315 
-0.01207497202144315 
0.04818004236401654 
-0.01207497202144315 
0.007724687595452583 
0.1320400718208787 
0.007724687595452583 
0.007724687595452583 
0.04090765570951549 
0.02947138890697562 
0.04563762364660574 
0.004892417908651753 
0.001769398923469275 
0.004892417908651753 
0.008486674005267807 
0.004892417908651753 
0.007724687595452583 
0.007724687595452583 
0.007724687595452583 
0.001932481469548682 
0.001723062885041005 
0.001723062885041005 
0.001723062885041005 
0.001597739882680781 
0.00600166883690571 
0.007173218192479892 
-0.006691097362116049 
0.001723062885041005 
0.01292816843269263 
0.04739272358149921 
0.001135503221706363 
-0.002681375589655981 
-0.002111635965716441 
0.01413987669810014 
0.01292816843269263 
0.00997547605006897 
0.00997547605006897 
-0.005073701777832557 
0.00997547605006897 
0.00997547605006897 
0.01762474409102941 
0.001427389566016563 
-0.003146662617268823 
0.001984432184466328 
0.03828172548326414 
0.0007534127578038872 
0.01425472302093558 
-0.000368271907768767 
0.002671001781311729 
0.0001165346289900175 
0.002199170029416933 
-0.000368271907768767 
0.02653381470213462 
0.005982928851855839 
0.02148443979584591 
0.01381184775522385 
0.002197996459312575 
0.001918659704630473 
0.02674994953821162 
0.005982928851855839 
0.009642280424256675 
0.1159951688296337 
0.02658192721653322 
0.01225801858551584 
0.005982928851855839 
0.001129789965404128 
0.002488188678256818 
0.02938723578068569 
0.004847583545326089 
0.004847583545326089 
0.001847200572795154 
0.003799155963797623 
0.001293830135064687 
0.05882408463883395 
0.003799155963797623 
0.02879706345007646 
0.02078563896576927 
0.0004142845567876107 
0.0004142845567876107 
0.005699084998448161 
0.005604664072200859 
0.0004142845567876107 
0.02862595593431031 
0.0004142845567876107 
0.0004142845567876107 
0.0004333941510987373 
0.0004142845567876107 
0.0004142845567876107 
0.0004142845567876107 
0.008456030977979428 
0.005699084998448161 
0.005699084998448161 
0.00266992187851422 
0.001358980769086166 
0.0004142845567876107 
0.003592041383471321 
-0.003290810225285313 
-0.003290810225285313 
0.006268513310599803 
0.006548198103323285 
0.007966111511211561 
0.007966111511211561 
0.01143305911834037 
0.007966111511211561 
0.01143305911834037 
0.006548198103323285 
0.00179592367369705 
0.007966111511211561 
0.03211255235772324 
0.00179592367369705 
0.00179592367369705 
0.01143305911834037 
0.006548198103323285 
0.01143305911834037 
0.08865270290538739 
0.01400080850539134 
0.007966111511211561 
0.04230122747912181 
0.06468959299618909 
0.01002473924039892 
0.01002473924039892 
0.01002473924039892 
0.01002473924039892 
0.06468959299618909 
0.01002473924039892 
0.06468959299618909 
0.06468959299618909 
0.01002473924039892 
0.004830060512861278 
0.1199958436384464 
-0.007239950681611105 
0.04065620852779847 
0.02040554146866121 
-7.108712431310261e-05 
-7.108712431310261e-05 
0.04089693523277049 
-0.006830841464135493 
-0.007239950681611105 
0.0005305431445919249 
0.0005305431445919249 
0.001014178393616169 
-0.008573668020674181 
0.0005305431445919249 
0.003658417585615723 
0.04537812312509226 
0.03105070221095652 
0.04015229274127798 
0.03339032485388341 
0.03339032485388341 
0.03339032485388341 
0.03105070221095652 
0.003658417585615723 
0.03105070221095652 
0.03339032485388341 
0.003658417585615723 
0.09785139564804339 
0.04291863993185908 
0.009022675083613669 
0.01317891631995235 
0.09785139564804339 
0.09785139564804339 
0.09785139564804339 
0.008979593627924521 
0.008979593627924521 
0.009022675083613669 
0.09785139564804339 
0.06133515006556731 
0.01317891631995235 
0.008979593627924521 
0.008979593627924521 
0.01333954124234999 
0.09785139564804339 
0.09785139564804339 
0.009022675083613669 
0.01666055486088622 
0.09032652906781957 
0.01666055486088622 
0.09032652906781957 
0.01973858653419132 
0.02955193126809915 
0.09032652906781957 
0.01666055486088622 
0.002758297649666812 
0.002758297649666812 
0.02688745368202944 
0.09032652906781957 
0.09032652906781957 
0.09032652906781957 
0.09032652906781957 
0.09032652906781957 
0.02955193126809915 
0.007687946937888721 
0.02955193126809915 
0.09032652906781957 
0.002758297649666812 
0.01142790378792642 
0.01872218345919904 
0.01258357944798953 
0.01161629884735711 
0.02863887290216877 
0.003421849966231501 
0.01330320926143592 
0.0177922284510426 
0.02048032547314514 
0.01258357944798953 
0.00979264767153366 
-0.00342616236482218 
0.02398051796137997 
-0.00342616236482218 
0.00979264767153366 
0.007060027873696821 
0.00979264767153366 
0.01161629884735711 
-0.00368953518364268 
0.0009504335517022657 
0.07701458463899731 
0.07701458463899731 
0.04072969936970801 
0.07701458463899731 
0.07701458463899731 
0.07701458463899731 
0.07701458463899731 
0.03533035616515568 
0.07701458463899731 
-0.001032794957169091 
0.001755236720626074 
-0.002575718089480682 
-0.01029384491660448 
0.004606823117569924 
0.0006103451578802878 
0.001005529207762126 
-0.003198283803649108 
0.001755236720626074 
0.0005157897633234167 
-0.003198283803649108 
0.005909882118543605 
0.004584540556128925 
0.004584540556128925 
0.0005157897633234167 
0.001755236720626074 
0.0001230364255460913 
0.04255638676305056 
0.008437298239466212 
0.008437298239466212 
0.01240876169396673 
-0.0003430207966737109 
-0.0003430207966737109 
0.04034819184858296 
0.03295491014416621 
0.04034819184858296 
0.001831800480388556 
0.001831800480388556 
0.001831800480388556 
0.03295491014416621 
-0.005846349540568276 
0.0003451308106388243 
-9.209284849721253e-05 
0.004095742506089665 
0.0003451308106388243 
0.006815429439502372 
0.0003451308106388243 
-0.0002676630280545239 
0.0003451308106388243 
-9.209284849721253e-05 
0.006264774695694238 
0.0004336312700794267 
0.0004336312700794267 
0.01905979152288522 
0.0004336312700794267 
-0.01945790817136252 
0.02270743152568239 
0.0004336312700794267 
0.0004336312700794267 
0.0004336312700794267 
0.0004336312700794267 
-0.003447953019307852 
-0.005089054195980661 
-0.003864848257630244 
-0.0038445546959756 
-0.005089054195980661 
-0.005089054195980661 
-0.005451914754972698 
-0.00288003049588931 
0.01171412223956953 
0.01171412223956953 
-0.0038445546959756 
0.01171412223956953 
-0.01766911280627716 
0.01171412223956953 
-0.01163722271616168 
-0.0038445546959756 
0.001016543274330744 
-0.004793322522920636 
-0.006749849689865028 
-0.0009705689554101884 
0.00385903356646795 
-0.0265875813021518 
-0.001247798086703315 
0.00408059434712697 
-0.001247798086703315 
-0.001247798086703315 
0.001642911613143569 
-0.002630171097068223 
0.007436951234285871 
0.000971361755411975 
0.007436951234285871 
0.001642911613143569 
0.01835839145108912 
-0.002630171097068223 
-0.003282377398423421 
0.01299584370530621 
0.01006469253359597 
-0.0007993120885052393 
-0.009374698643189065 
-0.003282377398423421 
0.00571785377865341 
0.01320136554637315 
0.01006469253359597 
-0.0002584841178761802 
0.003255618587844669 
0.003255618587844669 
0.003255618587844669 
0.01324008812048706 
0.003255618587844669 
0.003255618587844669 
0.01378718217207815 
0.01378718217207815 
0.0106793142166208 
0.003231503054386394 
0.01612264026918453 
0.0106793142166208 
0.03897613023900787 
0.03108617566640969 
0.001479379353155598 
-0.002295661559777636 
0.003348025972321487 
0.0159257283369949 
-0.00151392299493003 
0.003348025972321487 
0.02429526612009469 
-0.00261846654001775 
-0.002061295791983015 
0.0003479322474644198 
0.007269586834624727 
0.007098752468544801 
-0.001068488871620492 
-0.001068488871620492 
-0.001068488871620492 
-0.0004140140278797619 
0.001717344602819712 
0.02543153663251325 
0.007382827299128899 
0.004613902759891124 
0.002452118772073847 
0.004731457338105044 
-0.0009951015928858669 
0.004613902759891124 
-0.001068488871620492 
0.004613902759891124 
0.004613902759891124 
0.001225130378679207 
0.004613902759891124 
0.003407605668376828 
-0.001068488871620492 
0.01737359692075964 
0.0007529487334778175 
0.001803162478483627 
0.008157685804079495 
0.0103654790359959 
-0.007981091118253012 
0.007448022224471282 
-0.01629556484040339 
-0.007981091118253012 
-0.007981091118253012 
0.0007529487334778175 
0.0007529487334778175 
0.0007529487334778175 
-0.001789203004654461 
-0.01016142360053271 
-0.001789203004654461 
-0.001789203004654461 
0.00388109498956545 
-0.001789203004654461 
-0.001789203004654461 
-0.01328444258571519 
-0.001789203004654461 
-0.001789203004654461 
-0.001789203004654461 
-0.01044340341527778 
-0.001789203004654461 
-0.002869296138252098 
0.01433977677229357 
0.009632318932088255 
0.02969326688694563 
0.001541877706395009 
-0.002869296138252098 
0.03966686240788878 
0.005138379047106263 
5.940130733478018e-05 
0.0262468337572306 
5.940130733478018e-05 
0.005138379047106263 
5.940130733478018e-05 
-0.00296092226797834 
-0.004152825223688497 
-0.003155821866840585 
-0.002869296138252098 
0.009529192773271659 
-0.002869296138252098 
0.002471330588788952 
0.04307920349822533 
0.008215058480822365 
0.006681627391157159 
0.009650797648025672 
0.009426456137728667 
0.01047222707818875 
0.006681627391157159 
0.002707539314525359 
0.05291195839516272 
0.006681627391157159 
0.006681627391157159 
0.006681627391157159 
0.009571574775226528 
0.008215058480822365 
0.009571574775226528 
0.006681627391157159 
-5.917512114347488e-06 
0.011268862790806 
0.0005259712051857593 
0.0005259712051857593 
0.0005259712051857593 
0.0005259712051857593 
0.04234363448899695 
0.001787691379327453 
0.0005259712051857593 
0.013592705216226 
0.0005259712051857593 
0.01799011383046296 
0.009902924609576147 
0.0005708226599382104 
-0.005147993597649719 
0.0005259712051857593 
-0.005147993597649719 
0.01014222060208366 
-0.004790150165544141 
-4.48514547524514e-05 
-0.003933367266765928 
-0.005304447012962446 
-0.003933367266765928 
-0.004995940968673289 
-0.003933367266765928 
0.02929167364891081 
0.0441558868054849 
0.04269806923560122 
0.01160452538336593 
0.0441558868054849 
0.02153193372969017 
0.01008424119016666 
0.0441558868054849 
0.0441558868054849 
0.02153193372969017 
0.01008424119016666 
0.01097537098598568 
0.01097537098598568 
0.005301622287884565 
0.005301622287884565 
0.001905235239793871 
0.01648301948660004 
0.01606607829575044 
0.04264462310113429 
0.02896821817439984 
-0.02873925023815908 
0.00533855845255757 
0.01648301948660004 
0.008406720662615849 
0.005301622287884565 
0.03181680715914454 
0.01694815825274205 
0.01606607829575044 
0.00533855845255757 
0.005301622287884565 
0.01298719160863216 
0.01009904538175393 
0.008739404702318833 
0.009486018075993963 
0.006544826714505732 
0.09906538326644264 
-0.001208378874701222 
-0.002464245490340434 
-0.002464245490340434 
-0.001580662111337982 
-0.001580662111337982 
-0.002464245490340434 
0.00625512340112649 
0.01302303162296293 
0.0003904525315849791 
0.0003904525315849791 
0.0003904525315849791 
-0.08136092022449745 
0.006289324352646486 
0.005602438414471566 
0.005602438414471566 
0.005602438414471566 
0.005602438414471566 
0.005602438414471566 
0.01818950273120168 
0.005602438414471566 
0.005602438414471566 
0.005602438414471566 
0.02067592781280467 
0.01945929214161746 
0.01945929214161746 
0.005602438414471566 
0.01945929214161746 
0.01213731424213499 
0.01392437867741596 
0.04637183099252969 
0.01159662665349 
0.000121297293105099 
0.0008339866283354245 
0.03985691045136745 
0.000121297293105099 
0.01159662665349 
0.01194122069110121 
0.000121297293105099 
0.000121297293105099 
0.01213731424213499 
0.01159662665349 
-0.00689809377310981 
0.01194122069110121 
-0.01185750966984127 
0.0002054543283684477 
-0.01185750966984127 
0.0002054543283684477 
0.01933868178085514 
0.0006522424848635824 
0.002310041797902892 
-0.005033874790869734 
0.006072529078166963 
-0.003216563550818093 
0.006920726396488388 
0.01951961332409482 
0.006920726396488388 
-0.02279993096756333 
0.06707092709961225 
0.002221074916267433 
0.002221074916267433 
0.02489592928839033 
-0.01504676614055326 
0.002221074916267433 
0.006920726396488388 
0.006383186252050419 
0.002221074916267433 
0.006920726396488388 
0.05534994458935855 
0.1037520462065683 
-0.003525018979268865 
0.002221074916267433 
0.002221074916267433 
-0.004176697339547296 
0.006920726396488388 
0.0006221353095048415 
0.0006221353095048415 
0.005422939158755023 
0.01030799386750126 
0.009062367333708009 
-0.006506918606571461 
0.01100000503707402 
0.004304837488364635 
0.001079505725735978 
0.005422939158755023 
0.001079505725735978 
-0.005585931538083176 
0.02176056665373157 
0.005422939158755023 
0.01849839959180481 
0.005314298527670637 
-0.005585931538083176 
-0.002692511554069973 
0.01376203232831741 
0.0006364167357501654 
0.009083292679846314 
-0.0004110630676794326 
0.009083292679846314 
0.009083292679846314 
-0.0004110630676794326 
-0.004690716687395531 
0.001244652985171367 
-0.0004110630676794326 
-0.0004110630676794326 
0.0327221133477676 
0.0004573704162311363 
0.0004573704162311363 
0.0004573704162311363 
0.002361773495303383 
-0.00303259072011612 
0.002361773495303383 
0.001412705998390167 
-0.00303259072011612 
0.0004573704162311363 
-0.0001557965323332454 
0.0004573704162311363 
-0.00303259072011612 
0.002361773495303383 
0.0004573704162311363 
0.002361773495303383 
0.02519228349853815 
-0.01107458748253011 
0.1051834216355954 
-0.01154577066313883 
-0.01043076137797763 
-0.01107458748253011 
0.02708692895502965 
0.02342763401325766 
0.01024173405463952 
-0.0001132382489352142 
0.001024146729074395 
0.01101172471065675 
0.01024173405463952 
0.01024173405463952 
0.001024146729074395 
0.02253356778414911 
0.01856783853107695 
0.04690904146553553 
0.006934786762647865 
0.0129466037533555 
0.02214230199252212 
0.0129466037533555 
0.001627672880679481 
0.0129466037533555 
0.006934786762647865 
0.001627672880679481 
0.001627672880679481 
0.006934786762647865 
0.009113354244835141 
0.009113354244835141 
0.009113354244835141 
0.009113354244835141 
0.02935780150963403 
0.009113354244835141 
0.009113354244835141 
0.00158572571533629 
0.0154346051535338 
0.0009019652124509847 
0.01526701317483008 
0.0009019652124509847 
0.001244664414410583 
0.0009019652124509847 
0.0009019652124509847 
0.0009019652124509847 
0.01526701317483008 
0.0009019652124509847 
0.0009019652124509847 
0.003614064884279625 
0.0009019652124509847 
0.0009019652124509847 
0.01944035091485156 
0.0009019652124509847 
0.007251571655256464 
-0.005106765598758362 
0.002748671732236284 
-0.004220860826194772 
0.002748671732236284 
0.005023566680763118 
-0.0001174149572002094 
0.002729164066720832 
0.002508332871269002 
0.0004593566236172536 
0.0004593566236172536 
0.002508332871269002 
0.01586335617695055 
-0.0001174149572002094 
0.002748671732236284 
-0.004555397307376481 
0.003192965476317869 
0.002508332871269002 
0.04750833957435202 
0.002508332871269002 
0.005021084026588273 
0.012097568192304 
0.005021084026588273 
-0.001804681277996574 
0.008852665947886961 
0.009959288885455575 
0.009922913024629562 
0.0137918085947318 
-0.001804681277996574 
0.009922913024629562 
0.005021084026588273 
0.009922913024629562 
0.009922913024629562 
0.01508154893413258 
-0.01031758158715753 
-0.006939141101846102 
-0.009349227258537526 
-0.001640177728710828 
-0.009349227258537526 
-0.009349227258537526 
0.000776327156101932 
0.000776327156101932 
0.0164461396326736 
0.000776327156101932 
0.000776327156101932 
0.000776327156101932 
0.000776327156101932 
0.00440406713769793 
0.0164461396326736 
0.000776327156101932 
-0.001251992499028412 
0.0164461396326736 
-0.0007382777910243009 
0.0160269461886361 
-0.002843163093929515 
0.01754936607196503 
0.01583119819270954 
0.005020371185258464 
-0.005168071460249078 
-0.001430865294319663 
-0.001430865294319663 
0.01636703836590565 
-0.001430865294319663 
-0.001430865294319663 
-0.002425105463958686 
0.005020371185258464 
0.005020371185258464 
-0.002425105463958686 
-0.002843163093929515 
-0.004745248169354387 
0.0005767715808174628 
-0.007452637348070102 
0.00761979710958878 
0.001247241566661263 
-0.0232119499138043 
0.004714065379071938 
-0.0004044147542305018 
0.0005767715808174628 
0.01577614793671318 
0.01577614793671318 
0.01997899839144048 
0.00516270918348584 
0.00516270918348584 
0.00516270918348584 
0.01347094764771964 
0.01347094764771964 
0.01347094764771964 
0.00516270918348584 
0.00516270918348584 
0.005855593580637766 
0.00516270918348584 
0.00516270918348584 
0.00516270918348584 
0.00516270918348584 
0.00516270918348584 
0.00822780944796116 
0.00516270918348584 
0.008382705160049801 
0.01291425946665688 
0.00516270918348584 
0.0009942401696390218 
0.001192611591750684 
0.001434827935857862 
0.001192611591750684 
0.001192611591750684 
0.002240861755335264 
0.001192611591750684 
0.0009942401696390218 
0.0009942401696390218 
0.002162040964846484 
-0.001315422465928277 
0.01931503947559559 
0.00876326815847542 
-0.001315422465928277 
0.009984064426539268 
0.002162040964846484 
-0.001315422465928277 
-0.001315422465928277 
-0.001315422465928277 
0.00876326815847542 
-0.001893429654605988 
0.02262171213574784 
0.00876326815847542 
0.002162040964846484 
0.001871739438922946 
0.0002538935525902078 
0.02010101668953953 
-6.15296225518187e-05 
0.0002538935525902078 
0.01466141020844832 
0.001548788064957988 
0.001548788064957988 
0.004075599815727499 
0.0007548304501566563 
-0.005058953663365773 
0.01223733951170018 
0.04149311820850619 
0.002455766410691106 
-0.005058953663365773 
0.002455766410691106 
0.01240623423696251 
-0.005058953663365773 
-0.005058953663365773 
0.001718008894621209 
0.002114467966340045 
0.0005985435628718413 
0.007706052848031079 
0.0005985435628718413 
0.0005985435628718413 
0.0005985435628718413 
0.0005985435628718413 
0.002114467966340045 
0.0005985435628718413 
-0.01146398171074034 
0.0005985435628718413 
0.0005985435628718413 
-0.01146398171074034 
0.0007238108837361145 
0.001645814430477745 
-0.00473591781510131 
-0.004485724851105054 
-0.004485724851105054 
0.02768075524602296 
0.000499206717291564 
0.01327602406590742 
0.01327602406590742 
0.01568377722975317 
0.01327602406590742 
0.002359806974008967 
-0.001354192269266184 
-0.001354192269266184 
0.005485885899336372 
0.01220276288562199 
0.005500439168314916 
0.002359806974008967 
0.0176855439941252 
0.01592211757477049 
0.01070568643171432 
0.01070568643171432 
0.01422137471734028 
0.008354598779830488 
0.01599144948479464 
0.01070568643171432 
0.01070568643171432 
0.01070568643171432 
0.01070568643171432 
0.01056606614135625 
0.01592211757477049 
0.01105505918204511 
0.02026858112614583 
0.01070568643171432 
-0.003270117873209643 
0.01070568643171432 
0.01070568643171432 
-0.001029454733570622 
-0.001414120248558554 
-0.001974150945869167 
-0.001029454733570622 
-0.003465357890991932 
-0.001414120248558554 
-0.001974150945869167 
-0.001414120248558554 
0.02455094894097037 
-0.001974150945869167 
-0.001029454733570622 
-0.003768449503578394 
0.001885972880345618 
0.01620434449234984 
0.01620434449234984 
0.01832135402718301 
0.01832135402718301 
0.01440355625940033 
-0.0008535849285141445 
-0.003911255734479605 
-0.0008145525819375434 
-0.0008145525819375434 
-0.0008145525819375434 
-0.00241157705395843 
-0.01069395082507626 
-0.0008145525819375434 
-0.0008145525819375434 
0.007641686839056468 
-0.0008145525819375434 
-0.0008145525819375434 
-0.0008145525819375434 
0.003830051817885456 
-0.01568923654671568 
-0.0008145525819375434 
2.465171084910399e-05 
-0.0008145525819375434 
-0.002914787548934643 
-0.0001416647787206202 
0.006858178005831793 
0.0160520016338663 
0.0006131837632989853 
0.0006131837632989853 
0.0006131837632989853 
0.0006131837632989853 
0.0006131837632989853 
0.0006131837632989853 
-0.008057798947922799 
0.0006131837632989853 
0.0006131837632989853 
0.0006131837632989853 
0.01573518838917958 
0.0006131837632989853 
0.0006131837632989853 
0.06808345781094854 
0.006405288793678881 
0.005013747538152531 
0.007897032786129231 
0.01222248955776404 
0.001806524538008476 
0.01541334531024775 
0.001806524538008476 
-0.01248501532060925 
0.006405288793678881 
0.01222248955776404 
0.01222248955776404 
0.006405288793678881 
0.002225213173115872 
0.007897032786129231 
0.0004309413559689665 
0.007897032786129231 
0.008573347655271808 
0.0009646197878925903 
0.001462653041562952 
0.0009646197878925903 
0.01078874582505418 
0.0009646197878925903 
0.0009646197878925903 
0.0009646197878925903 
0.0009646197878925903 
0.01128976023282841 
0.01126743381988848 
0.01126743381988848 
0.0009646197878925903 
0.0009646197878925903 
0.00930934565801466 
0.002310921735326449 
0.001077342951790387 
0.001077342951790387 
0.001077342951790387 
0.001077342951790387 
0.001077342951790387 
0.001077342951790387 
0.001077342951790387 
0.0003193849547571131 
0.001077342951790387 
0.002260906778666837 
0.01769269937113812 
-0.002779380714823713 
0.006504615765052422 
0.01769269937113812 
0.02263946649400991 
-0.006471987465284953 
0.007128642134247192 
0.02027122652084538 
0.007128642134247192 
0.01480170682266294 
0.02434413798317736 
0.006504615765052422 
0.006504615765052422 
0.03596196895495413 
0.01882292323408373 
0.05176407013205103 
0.0009626907517466465 
0.00149426678916049 
0.0009370331909055978 
0.01882292323408373 
5.959778250121644e-05 
5.959778250121644e-05 
5.959778250121644e-05 
0.00600608708730261 
0.00361449254912257 
5.959778250121644e-05 
0.00600608708730261 
0.001999271003012154 
0.001999271003012154 
0.003776531827154562 
0.00046815822927789 
0.003423840263839925 
0.001999271003012154 
0.001999271003012154 
0.001999271003012154 
0.001999271003012154 
0.001999271003012154 
0.003423840263839925 
0.001999271003012154 
-0.005812142390883335 
0.001999271003012154 
-0.005675024198654234 
0.0009012863599834756 
0.0009012863599834756 
0.001480070451720542 
0.009785003609810895 
0.005150860663382544 
0.0009012863599834756 
0.0009012863599834756 
0.0009012863599834756 
0.02227529785914361 
0.01815405963074739 
0.0009012863599834756 
0.0009012863599834756 
0.00918772483918223 
0.01414876290788315 
0.01414876290788315 
0.01013180164871323 
0.01013180164871323 
0.04045761736549586 
0.01013180164871323 
0.0123728015186311 
0.01013180164871323 
0.01013180164871323 
0.01013180164871323 
0.01013180164871323 
0.01117966119692119 
0.01013180164871323 
0.01414876290788315 
0.01050149006798593 
0.009021195969163152 
-0.004019066912263797 
-0.000407056596453322 
-0.004019066912263797 
-0.004019066912263797 
-0.004019066912263797 
-0.004019066912263797 
-0.004019066912263797 
-0.000407056596453322 
-0.004019066912263797 
-0.004019066912263797 
-0.004019066912263797 
-0.000407056596453322 
-0.004019066912263797 
-0.004019066912263797 
0.001401171009765213 
0.0007221274251805292 
0.001401171009765213 
0.001401171009765213 
0.02660906895838435 
0.07540873320761732 
0.06395741684928735 
0.02232677359589065 
0.009624597130215335 
0.001401171009765213 
0.002123264138304844 
0.02232677359589065 
0.0007221274251805292 
0.001558287248088364 
0.001595721535905184 
0.01049189252937283 
0.0007221274251805292 
0.009048769658217465 
0.008001724448615674 
0.008001724448615674 
0.03336962517498915 
0.003125037032768314 
0.001457981936397916 
0.008001724448615674 
0.008001724448615674 
0.01732145869561129 
-0.01009244096408478 
0.001457981936397916 
0.004833141633441031 
0.02331446080000362 
0.009048769658217465 
0.009048769658217465 
0.001457981936397916 
0.009048769658217465 
-0.01009244096408478 
0.009048769658217465 
-0.01009244096408478 
0.009048769658217465 
0.006298480550578674 
0.006552937243593416 
0.001134182994375303 
-0.0004921147177467474 
-0.0006473654014384339 
-0.0007062730643119157 
-0.001174377550969126 
0.0009557698650003606 
0.06310127813591103 
0.002402490843974221 
0.0006560619001345739 
0.004411506563116684 
0.002348763726140913 
0.004411506563116684 
0.03354440865257414 
0.00337530218607678 
0.02318969877645724 
0.01299748938336971 
0.03688660465533054 
0.006491132866242455 
0.006491016894403259 
0.005661547651793664 
-0.004162654687477877 
0.01564382761022456 
-0.004162654687477877 
0.007813269092619507 
-0.004162654687477877 
0.006274498327718001 
0.00256931952350029 
0.007058314795413961 
-0.01275191649469537 
-0.01244200628784458 
-0.0004729182261814442 
-0.0004729182261814442 
0.02415022283172032 
0.010269833120831 
-0.0004729182261814442 
-0.0004729182261814442 
-0.0004729182261814442 
0.01754185296007656 
0.0001783703226040197 
0.01754185296007656 
0.010269833120831 
-0.0004729182261814442 
-0.0004729182261814442 
-0.0004729182261814442 
0.009685271592170685 
0.0103711443594114 
-0.007494935443023532 
-0.008646730672871009 
-0.1584656943179653 
-0.009796427404732595 
-0.008646730672871009 
-0.009796427404732595 
-0.001638952602682924 
-0.009873596771487997 
-0.02923725440982731 
-0.001638952602682924 
-0.001638952602682924 
-0.009796427404732595 
-0.001638952602682924 
-0.01592520094786759 
-0.001638952602682924 
-0.001638952602682924 
-0.001638952602682924 
0.002551932474179063 
0.007629306633941768 
-0.0003039476972683903 
0.008514191325987217 
-0.01453843109854922 
-0.0003039476972683903 
-0.001982580359457148 
0.04211983911513299 
-0.01125410406503821 
-0.01125410406503821 
-0.0003039476972683903 
-0.0003506671223412168 
-0.0003039476972683903 
-0.0003039476972683903 
-0.0003039476972683903 
0.002551932474179063 
-0.03241480726133707 
-0.05127633341691929 
0.01069425548434987 
0.01069425548434987 
0.01069425548434987 
0.01069425548434987 
0.00485075483011287 
0.00485075483011287 
0.01069425548434987 
0.01069425548434987 
0.006218799213699415 
0.00485075483011287 
0.00485075483011287 
0.00315277698468316 
0.03941650627403976 
0.020714665777669 
0.0008754441570240287 
0.0008754441570240287 
0.0008754441570240287 
0.02480189016794338 
-0.005423222236898658 
0.001496343745588389 
0.001496343745588389 
0.05556075978836768 
0.03941650627403976 
0.02505768321527975 
0.01967004888481371 
-2.313464795971142e-05 
0.0004422145963276352 
0.0002487232562758139 
-2.313464795971142e-05 
-2.313464795971142e-05 
-2.313464795971142e-05 
0.01353292446555793 
0.02260013207879982 
-0.001779122905071978 
0.001052427112226187 
0.0005096940157799482 
0.001210043843135452 
0.001052427112226187 
0.0009158852575048643 
0.004021597369094698 
0.004021597369094698 
-0.002742361597181298 
0.004021597369094698 
0.0005096940157799482 
0.002145419946539032 
0.0005096940157799482 
0.00918816556574284 
0.03806606078458431 
0.007254557412856597 
0.00272371724228692 
0.01577591994880084 
0.00272371724228692 
0.00272371724228692 
0.008386353244998188 
0.00272371724228692 
0.00272371724228692 
0.005105586308981305 
0.00281576085614187 
0.00281576085614187 
0.00281576085614187 
0.01319855495664196 
0.05073515938966458 
0.01319855495664196 
0.004519049784273487 
-0.01210560828264484 
-0.0178763761627878 
0.0535771277494185 
0.01319855495664196 
0.01319855495664196 
0.007671579122441742 
-0.005784132030141031 
0.004587885598609406 
0.007915781739026162 
0.01045836973959385 
0.004587885598609406 
0.03836615582069897 
0.004587885598609406 
0.01783281193228749 
0.002000091395074831 
0.007915781739026162 
0.005941978489225484 
-0.005784132030141031 
0.005779280734454848 
0.004253112028619225 
0.004253112028619225 
0.05520186938989446 
0.005779280734454848 
-0.0008519912930825107 
0.005779280734454848 
0.005779280734454848 
0.005779280734454848 
0.005779280734454848 
0.005779280734454848 
0.005779280734454848 
0.0109949727096429 
0.005779280734454848 
0.0109949727096429 
0.005779280734454848 
0.003998242485339996 
0.005779280734454848 
0.00023605244322112 
0.00023605244322112 
0.01463344778261731 
0.001371272393407588 
0.01463344778261731 
0.00023605244322112 
0.00023605244322112 
0.00023605244322112 
0.03401956176861815 
0.01670562079876638 
0.00023605244322112 
0.03353516206231088 
-0.004257708488131373 
-0.006964558530816374 
-0.006964558530816374 
0.009305211168367362 
0.001590468055141896 
0.0004205428635606817 
-0.006964558530816374 
0.01064406814766847 
-0.006964558530816374 
0.01015741840636395 
0.0004205428635606817 
-0.004257708488131373 
0.0007741439230606684 
-0.01557851052840371 
-0.0019831327312708 
-0.01539949875226325 
-0.006968974714219212 
-0.007358101637271966 
-0.01557851052840371 
-0.006968974714219212 
-0.007358101637271966 
-0.006968974714219212 
-0.07306274871861278 
-0.0001752458895409705 
-0.008875327331495339 
-0.05659605968388817 
-0.0001752458895409705 
-0.05659605968388817 
-0.008368171922980751 
0.01886588009985476 
0.00540347333725913 
-0.05659605968388817 
-0.08601355533032563 
0.00540347333725913 
-0.0004746668466920367 
0.005080864178811356 
-0.05659605968388817 
-0.005632394012828897 
-0.001200925338666011 
-0.001200925338666011 
0.003013855790761207 
-3.874947540362748e-05 
-0.00049756388475929 
-0.00049756388475929 
0.02471817587156162 
-0.00049756388475929 
-0.00049756388475929 
-0.00049756388475929 
-0.003790441758126158 
-0.00049756388475929 
-0.00049756388475929 
-0.00049756388475929 
0.0153702683537797 
0.0153702683537797 
0.004914783951635334 
0.03370944013925827 
0.0153702683537797 
0.03697160618713547 
0.01317466892038498 
0.0153702683537797 
0.0153702683537797 
0.004914783951635334 
-0.02872454432411407 
-0.0280234408801066 
-0.001830488544700196 
-0.002307035960259678 
-0.001830488544700196 
-0.0280234408801066 
-0.001830488544700196 
-0.002307035960259678 
-0.0292853169240039 
-0.0280234408801066 
-0.05728887261229238 
-0.004834677246239465 
-0.01638842651606435 
0.006066924013436573 
-0.003275462685921043 
-0.005122829823081972 
-0.01811125743523043 
-0.003275462685921043 
0.006705600194742233 
-0.001596830023732287 
-0.003275462685921043 
-0.001596830023732287 
-0.003275462685921043 
-0.001716564304255582 
-0.001596830023732287 
-0.001716564304255582 
-0.001596830023732287 
-0.001596830023732287 
-0.002053208793864798 
-0.002053208793864798 
-0.002053208793864798 
-0.002053208793864798 
-0.002053208793864798 
-0.002053208793864798 
-0.002053208793864798 
-0.002053208793864798 
-0.002053208793864798 
-0.002053208793864798 
-0.002053208793864798 
-0.002053208793864798 
-0.001458001374898639 
0.201231913905648 
-0.1020257380254393 
0.0457546108641334 
0.08472469878313241 
0.04553300780657975 
0.04268809588616323 
0.04553300780657975 
0.04553300780657975 
0.04268809588616323 
0.04553300780657975 
0.04553300780657975 
0.04553300780657975 
0.04553300780657975 
0.04553300780657975 
0.04268809588616323 
0.02361367335830408 
0.04553300780657975 
-0.08264811497433457 
0.04553300780657975 
0.04553300780657975 
0.02361367335830408 
0.04553300780657975 
0.04268809588616323 
0.02361367335830408 
0.02646073693066552 
0.002324533823003247 
0.00646835563104825 
0.002324533823003247 
-0.01145882634603169 
0.002324533823003247 
-0.009827483292377478 
0.002324533823003247 
-0.004194768561577048 
0.003042785182456754 
-0.009520666758007673 
-0.009825313932267711 
-0.009827483292377478 
-0.005319084747020088 
0.00346554214134787 
0.003277315449475766 
-0.01538176085978779 
0.003277315449475766 
-0.008582811340424523 
0.003277315449475766 
0.02807628449066696 
-0.0154833196141632 
0.01000144496868029 
-0.0154833196141632 
0.003277315449475766 
0.003277315449475766 
0.004106305913977543 
0.003277315449475766 
-0.005319084747020088 
-0.00429799544259159 
0.003277315449475766 
-0.00429799544259159 
-0.00429799544259159 
0.04066464155501123 
-0.0154833196141632 
-0.005319084747020088 
-0.003668172695013082 
-0.003668172695013082 
-0.003668172695013082 
0.01299537047701036 
-0.003668172695013082 
-0.003668172695013082 
-0.01472833112515244 
-0.003668172695013082 
-0.003668172695013082 
-0.003668172695013082 
-0.01775668633346393 
-0.01472833112515244 
-0.01472833112515244 
0.005926014522961411 
0.01299537047701036 
0.01299537047701036 
-0.002209499039581429 
-0.001692492559529313 
-0.001692492559529313 
-0.001692492559529313 
-0.001692492559529313 
-0.005582662776451534 
-0.001692492559529313 
-0.001692492559529313 
-0.001692492559529313 
-0.001692492559529313 
-0.005741835483170444 
-0.008672794336130562 
-0.007575310892067359 
-0.008071705528254387 
-0.007575310892067359 
-0.007575310892067359 
-0.008672794336130562 
-0.007575310892067359 
-0.008672794336130562 
-0.007575310892067359 
-0.007821775947937119 
-0.007575310892067359 
0.04526156663207702 
0.04526156663207702 
-0.0004777853152050376 
0.04526156663207702 
0.0006250676972564307 
0.02772370160216274 
0.02772370160216274 
0.008284051655356032 
0.00156653162881571 
0.001764905367132871 
0.00156653162881571 
0.00156653162881571 
0.003008334609477835 
0.003008334609477835 
0.003008334609477835 
0.01924686711568632 
0.003008334609477835 
0.003243772736388124 
0.0009485753037366098 
0.003008334609477835 
0.0009485753037366098 
0.001638288250713103 
0.01161783097177677 
0.001638288250713103 
0.003008334609477835 
0.001764118422586968 
0.01834171058866388 
0.0007639847367404059 
0.0007639847367404059 
0.0007639847367404059 
0.0007639847367404059 
0.0007639847367404059 
0.004011770168778702 
0.004011770168778702 
0.002177247021206102 
0.0007639847367404059 
0.0007639847367404059 
0.0007639847367404059 
0.0007639847367404059 
-0.01515119812024557 
0.001161322194809378 
0.0006829061609459392 
0.001161322194809378 
0.004908473881233792 
0.0006829061609459392 
0.0006829061609459392 
0.01382639209026357 
0.0006829061609459392 
0.001445216633145928 
0.0006829061609459392 
0.0006829061609459392 
0.00211415644112985 
0.0006829061609459392 
0.006151448248626091 
0.000290987316306513 
0.001750359224770361 
0.000290987316306513 
0.000290987316306513 
0.002520311009351107 
-0.00105486941182707 
0.000290987316306513 
0.000290987316306513 
0.000290987316306513 
0.000290987316306513 
0.000290987316306513 
0.000290987316306513 
0.000290987316306513 
0.000290987316306513 
0.01070576319504589 
0.02907643856578979 
0.02907643856578979 
0.02907643856578979 
0.02907643856578979 
0.02907643856578979 
0.02907643856578979 
0.149575863738495 
0.02907643856578979 
0.02907643856578979 
0.02907643856578979 
0.06933063073217204 
0.02907643856578979 
0.02907643856578979 
0.02907643856578979 
0.0008705142837649224 
0.0008705142837649224 
0.01091786801690127 
0.0008705142837649224 
0.0008705142837649224 
0.01091786801690127 
0.00335571715587978 
0.0008705142837649224 
0.02760778638170844 
0.0008705142837649224 
0.0008705142837649224 
0.00335571715587978 
0.0008705142837649224 
0.0008705142837649224 
0.0008705142837649224 
0.0008705142837649224 
0.01128386072531655 
-0.003595046563200705 
0.009560277258636622 
0.005885066849808115 
-0.01045104409099769 
-0.005335282040416256 
-0.003595046563200705 
-0.005017454813549709 
-0.003595046563200705 
-0.005335282040416256 
-0.003595046563200705 
0.004843085273731408 
0.001120729310231948 
-0.005335282040416256 
-0.003595046563200705 
-0.003595046563200705 
-0.002110343913256529 
0.0006390936660612359 
0.02661264629475171 
-0.006947384901803615 
0.0009807309588393516 
0.02661264629475171 
0.01945899252613146 
-0.004328692048122551 
0.0009807309588393516 
0.0006390936660612359 
0.0009807309588393516 
0.02055021601435375 
0.0006390936660612359 
0.001167721563337002 
0.0006390936660612359 
0.004697993600237212 
-0.004328692048122551 
0.02661264629475171 
0.0009807309588393516 
0.0006390936660612359 
0.04007364271339742 
0.01716904932296516 
-0.004636067902202565 
0.01716904932296516 
-0.006653225836701528 
0.001098186873169302 
0.02489427046414659 
-0.004636067902202565 
0.0005277027746943187 
0.0005277027746943187 
-0.0003015348248646005 
0.0005277027746943187 
0.04137739168945852 
0.0005277027746943187 
0.001284854245749598 
0.03091454767301265 
0.0005277027746943187 
0.0140213162413365 
0.0005277027746943187 
0.03091454767301265 
0.04071441183258123 
0.03545335132428012 
0.01584626649054009 
0.01584626649054009 
0.01584626649054009 
0.001187489975800591 
0.004011473583652664 
-0.001050537982491869 
0.01584626649054009 
0.0005906912941065844 
0.002490951861591449 
0.002490951861591449 
0.002490951861591449 
0.002490951861591449 
0.002490951861591449 
-0.001241514750241766 
0.01168586781904448 
0.002490951861591449 
-0.0080969538269544 
0.001660708629478879 
2.764158044996458e-05 
-0.01835693172472115 
0.01734983010382526 
-0.003144797023926619 
0.003425358114759374 
0.002157962369971467 
0.005384764375783926 
-0.004734745935180161 
-0.004734745935180161 
-0.006017964905848557 
0.007512316212899632 
-0.006017964905848557 
0.005384764375783926 
-0.0007507202182799037 
0.005384764375783926 
0.002157962369971467 
0.002813033481278746 
-0.002764367108221772 
0.005384764375783926 
0.01846306289303688 
0.002157962369971467 
0.0192632972210675 
-0.001511241052907575 
-0.001511241052907575 
-0.001511241052907575 
-0.001511241052907575 
-0.001511241052907575 
-0.001511241052907575 
-0.001511241052907575 
-0.001511241052907575 
-0.001511241052907575 
-0.001511241052907575 
-0.001511241052907575 
-0.001511241052907575 
0.0113197640183425 
0.005258813010681201 
0.005330139095850405 
0.0113197640183425 
0.005258813010681201 
0.01190381611833255 
0.003292866783543429 
0.0113197640183425 
0.0113197640183425 
0.0113197640183425 
0.0113197640183425 
0.0113197640183425 
0.005258813010681201 
0.0001069804230821562 
0.004352774231129313 
-0.01126748322884245 
0.0001069804230821562 
0.004352774231129313 
0.0001069804230821562 
0.0008981830730463441 
0.0001069804230821562 
0.0001069804230821562 
-0.0003168029617549502 
0.005536389679498221 
-0.0003168029617549502 
0.0001069804230821562 
0.006103714042873746 
0.0009725706273293179 
0.0009725706273293179 
0.0009725706273293179 
0.001065152200808568 
0.01539003915295397 
0.0009725706273293179 
0.001065152200808568 
0.001282620934176147 
0.0005870707095922295 
0.004776137761346592 
0.006103714042873746 
0.0012862681558213 
0.0009725706273293179 
0.05953377226872213 
0.0009725706273293179 
0.001065152200808568 
0.0009725706273293179 
0.006479967814404975 
0.006479967814404975 
0.004238843094511066 
-0.0001178567663816322 
-0.0001178567663816322 
0.0031783444824188 
0.006479967814404975 
-0.0001178567663816322 
0.0031783444824188 
-0.001377195289417128 
0.01476314384179199 
-0.004088985213722075 
0.01476314384179199 
0.01446812277753611 
-0.005432283749810947 
-0.001377195289417128 
-0.004088985213722075 
-0.0040584447580477 
0.01476314384179199 
0.024107943335856 
-0.004346016581767884 
0.03205682223550013 
-0.004346016581767884 
-0.009130021138960076 
-0.008787726289660644 
-0.00275200650051428 
-0.00275200650051428 
-0.006190332508277692 
-0.004498019514413448 
-0.0256486257734438 
0.01000497846086962 
0.009230841068616803 
0.01013353109083173 
0.009230841068616803 
-0.01809170641677137 
-0.002816800042452112 
0.009230841068616803 
-0.01072568185109551 
-0.006190332508277692 
-0.002816800042452112 
0.005042802137787362 
0.01041709324967585 
0.008112515606495804 
0.00267191027653454 
0.004381410927046805 
0.01041709324967585 
0.008826025193875356 
0.03355001072495351 
0.004381410927046805 
0.004381410927046805 
0.0007925859992091594 
0.004381410927046805 
0.008112515606495804 
0.00267191027653454 
0.004498763194446974 
0.004381410927046805 
0.004813395882317308 
0.01412870721739174 
0.01004663718034237 
0.004813395882317308 
0.01412870721739174 
0.004813395882317308 
0.01106194793165062 
0.01396589967426982 
0.002586136909973294 
0.01624473093124695 
0.01412870721739174 
0.01624473093124695 
0.004813395882317308 
0.04960966455063814 
0.01435096851484005 
0.03108407668427628 
0.03108407668427628 
0.01467487735349313 
0.01435096851484005 
0.01517907922729727 
0.03108407668427628 
0.03108407668427628 
0.03108407668427628 
0.03108407668427628 
0.0003524262432842521 
-0.001131447105691173 
-0.001984822913371943 
-0.004248043360528909 
-0.0004105189444903281 
0.01695739977663019 
0.003858106522108779 
0.0001945505261399696 
0.0001217567179439582 
0.0001217567179439582 
0.0001217567179439582 
0.0001945505261399696 
0.0001945505261399696 
-0.001908175871286318 
-0.008609927895337535 
0.02101801419210837 
0.001968137300984952 
0.002980960323370788 
0.0001217567179439582 
-0.000964820382076954 
0.0004373354359434598 
-0.000417062066788857 
-0.000964820382076954 
-0.000964820382076954 
0.01764067010263072 
-0.000964820382076954 
-0.000964820382076954 
0.03005804637478703 
0.007806118755163315 
-0.003609142944847626 
0.007806118755163315 
0.007806118755163315 
0.007806118755163315 
0.0188513385367927 
0.007806118755163315 
0.01165819923773328 
-0.06387133154036963 
0.02318484171920306 
0.007806118755163315 
0.007806118755163315 
0.007806118755163315 
-0.06387133154036963 
0.007806118755163315 
0.007806118755163315 
0.007806118755163315 
0.0003768828910427181 
0.009719888799118451 
0.0003768828910427181 
0.0003768828910427181 
0.0003768828910427181 
0.000170976737620689 
0.0003768828910427181 
0.0003768828910427181 
0.02399356424747983 
-0.01474209229516146 
0.0003768828910427181 
0.009719888799118451 
0.0003768828910427181 
0.000170976737620689 
0.003526588504980235 
0.0003122709114562207 
0.0003122709114562207 
0.0003122709114562207 
0.0003122709114562207 
0.0003122709114562207 
0.0003122709114562207 
0.0003122709114562207 
0.0003122709114562207 
0.0003122709114562207 
0.0003122709114562207 
0.007661650262891625 
-0.006047089679544193 
0.0003122709114562207 
0.0003122709114562207 
0.0003122709114562207 
0.0003122709114562207 
-0.007780636808612715 
-0.005752018545083743 
0.003083654743110326 
-0.007822933398557792 
0.03591881180069055 
0.003083654743110326 
0.003083654743110326 
-0.007003487915814652 
-0.005752018545083743 
-0.007672459880239922 
-0.005384835587351645 
0.003083654743110326 
-0.005752018545083743 
-0.005752018545083743 
-0.005752018545083743 
-0.001634755573521211 
0.009561496619104878 
0.004852706643198416 
0.003794953595900254 
0.003794953595900254 
0.001959822951961579 
0.003702457601660246 
0.001959822951961579 
0.001959822951961579 
0.001959822951961579 
0.001959822951961579 
0.02248673312822648 
0.04004295284271144 
0.02248673312822648 
0.02248673312822648 
0.02248673312822648 
0.02248673312822648 
0.02248673312822648 
0.02248673312822648 
0.002714084064193351 
0.00201241394688296 
0.005583375030926836 
-0.002867243119828485 
-0.0001240418973425567 
0.01565697287696694 
-0.03839105660438864 
-0.009086241254563076 
-0.0001240418973425567 
0.003559667628709135 
-0.0007179811280642329 
-0.0001240418973425567 
0.005583375030926836 
0.005583375030926836 
0.02942620577820104 
0.003286588358415 
0.00962450725046669 
0.03489549569029324 
0.00962450725046669 
-0.003087543334169991 
-0.001222579513135354 
0.004192868280966349 
0.02188947987134065 
0.003286588358415 
0.003286588358415 
0.00962450725046669 
0.00962450725046669 
0.004940086695807332 
0.001201479546757211 
0.003286588358415 
0.003286588358415 
0.003286588358415 
0.003286588358415 
-0.0002798343880731419 
-0.0002798343880731419 
-0.0002798343880731419 
-0.0002798343880731419 
-0.0002798343880731419 
0.0004954282262754489 
-0.0002798343880731419 
-0.0002798343880731419 
0.002744930526032531 
-0.001230899323594996 
0.001635212439945711 
0.002071030422405321 
0.002071030422405321 
0.000278167351844628 
0.003596730101988337 
0.000278167351844628 
0.001101001150246814 
0.001642473275406764 
0.003559976462404454 
0.001013294800899712 
0.000278167351844628 
0.01756480152001133 
-0.0002883425882282475 
0.004471622836242063 
-0.004822358047713258 
0.004471622836242063 
0.002203639743847076 
-0.0001422021250849265 
0.009542542085343449 
-0.0001422021250849265 
-0.002314694306772804 
0.009542542085343449 
0.01309228780937092 
-0.0001422021250849265 
0.005947807330239091 
0.01156744380566361 
-0.0001422021250849265 
0.001591452181761818 
0.001591452181761818 
0.007628392646392347 
0.001591452181761818 
-0.0001422021250849265 
-0.0001262912416116935 
-0.0001262912416116935 
-0.0001262912416116935 
-0.0001262912416116935 
-0.0001262912416116935 
-0.0001262912416116935 
0.003294942796745099 
0.01926934054065513 
0.009970246236945732 
-0.0001262912416116935 
0.004036692990646578 
0.004036692990646578 
0.0002487854894961733 
0.0002487854894961733 
0.00093079361403275 
0.01084657116683983 
0.0002487854894961733 
0.004036692990646578 
0.0002487854894961733 
0.0006630482587629816 
0.001493757900540742 
0.0002487854894961733 
0.007797623706893194 
0.00388486529288109 
0.009486211513841604 
0.007797623706893194 
0.00388486529288109 
0.008471565948720047 
0.00388486529288109 
0.009486211513841604 
0.00388486529288109 
0.00388486529288109 
0.007797623706893194 
0.00388486529288109 
-0.002615233992192494 
0.0004942627462886261 
0.0004942627462886261 
0.0004942627462886261 
0.001736573156029083 
-0.002463243106551398 
-0.003258989047269611 
0.0003572941361313055 
0.01091309236812581 
0.0009765346800350112 
0.0003572941361313055 
0.0009765346800350112 
0.0009765346800350112 
-0.003966228248419535 
0.0009765346800350112 
0.01818569571450303 
0.01765430640918615 
0.01885212905551408 
-0.01112411349230676 
0.004988993262786059 
-0.000141814093131694 
-0.000141814093131694 
0.007020198701541147 
0.01818569571450303 
-0.000141814093131694 
-0.000141814093131694 
0.0005857984748839485 
0.0008140673114662854 
0.0005857984748839485 
-0.001437018897938482 
0.0008108601348479811 
-0.0002207694807549025 
0.0005857984748839485 
-0.0002207694807549025 
0.0008140673114662854 
0.02128092447103175 
0.0005857984748839485 
0.0002757137707870647 
0.0008140673114662854 
0.01173031123964034 
-0.0002207694807549025 
-0.004096873280308079 
-0.004072073726482587 
-0.01437360139823629 
-0.004096873280308079 
-0.00396319656702067 
0.0006319939756921564 
0.0006319939756921564 
-0.0001131705266807524 
0.003014585446812991 
0.0006319939756921564 
0.009435352036009655 
0.0004245002004253682 
0.0115109972346417 
0.009564247886071795 
-8.9495465495416e-05 
0.00018266929625555 
3.372686136339806e-05 
0.02066051513598153 
-8.9495465495416e-05 
0.008640268199653847 
0.006215704517300607 
-8.9495465495416e-05 
-8.9495465495416e-05 
0.01103750449559963 
0.02642762101378082 
0.0008774055117022181 
0.0008774055117022181 
-0.002065444151867204 
0.04573530505821927 
0.0008774055117022181 
6.794412076048809e-05 
0.001523960735019063 
0.02542973016056085 
-0.001034798929857224 
-0.004390883520324264 
1.529552108793959e-05 
-0.005039001621211322 
-0.01751987573848355 
-0.002304305799395607 
1.529552108793959e-05 
-0.002304305799395607 
-0.002304305799395607 
-0.002274645774130238 
-0.002274645774130238 
-0.002274645774130238 
0.003511088101656516 
0.0001735547549359408 
0.003511088101656516 
-0.006140542861725124 
-0.005916028012359823 
-0.001323672535699116 
-0.002274645774130238 
-0.0004005101553721354 
-0.0004005101553721354 
-0.0004005101553721354 
-0.0004005101553721354 
-0.0004005101553721354 
-0.0004005101553721354 
-0.0004005101553721354 
-0.0004005101553721354 
0.01214809127547514 
-0.0004005101553721354 
-0.002459741871830544 
0.0004681480020219862 
-6.323632792307524e-05 
0.01006756603714035 
0.0004681480020219862 
0.01006756603714035 
0.003260398542573062 
0.02073219536752087 
0.0221717777787901 
0.0004681480020219862 
0.009240420329381549 
0.0005497567778016035 
0.009407688961213054 
0.0004681480020219862 
0.004227063625391975 
0.01028213129788501 
0.004368614033461453 
-0.0001360361648232265 
0.01217765614953082 
0.004227063625391975 
-0.0003330414835984146 
0.009844897413537616 
0.01071081035531471 
0.01071081035531471 
0.004337327401296061 
-0.0001360361648232265 
0.01949506831966762 
0.01071081035531471 
-0.0001360361648232265 
-0.001408689207874693 
0.0002361455209585269 
0.0103958128257811 
0.002252918916913352 
-0.005745514484109105 
0.0103958128257811 
-0.003915706159769303 
0.0564593395678991 
0.09229746131456364 
0.01175940018098649 
0.0103958128257811 
0.0103958128257811 
0.0103958128257811 
-0.001408689207874693 
-0.005745514484109105 
-0.0005746854636613417 
-0.0008751601479376144 
-0.005658066732233097 
0.008052694237370111 
0.0001035308833595043 
0.0001035308833595043 
-0.005721334234185132 
0.01736733477787257 
0.01050333650148898 
0.01050333650148898 
-0.0008751601479376144 
0.01257536011500757 
0.00486033259887877 
0.005868424462121383 
0.0003243842033375238 
0.01856804147657242 
0.001196113239859586 
0.0003243842033375238 
0.001390533470130102 
0.02490301954035589 
0.005868424462121383 
0.005868424462121383 
0.001196113239859586 
0.001509088053464541 
0.01829276079470621 
-0.00165232484460582 
-0.001464141496865861 
-0.001464141496865861 
-0.00208510881165779 
-0.00203798520243504 
-0.00208510881165779 
-0.00203798520243504 
-0.00208510881165779 
-0.001464141496865861 
-0.001464141496865861 
0.007656420374932109 
0.007656420374932109 
0.01310488254647262 
0.007656420374932109 
0.007656420374932109 
0.008831433038777035 
0.01130857052710975 
0.007656420374932109 
-0.07224781381224592 
-0.01664071082107049 
-0.01664071082107049 
-0.01664071082107049 
-0.009530223461041152 
-0.005953633155955482 
-0.01612635342521256 
0.01183254577041479 
-0.009530223461041152 
-0.01664071082107049 
-0.03180945894209635 
-0.009530223461041152 
-0.01664071082107049 
0.007962678422910919 
-0.009530223461041152 
-0.01664071082107049 
-0.01431825386521677 
-0.01664071082107049 
-0.01664071082107049 
-0.0005850419053768923 
0.004508461241528031 
0.004508461241528031 
-8.392764194537656e-05 
0.007826168347156935 
0.007826168347156935 
0.1908668904039042 
0.007826168347156935 
-0.01030426248209889 
0.008235425672950263 
0.002182517253370087 
0.00843671062244401 
-0.0005131673559713101 
0.0003363119649956523 
-0.0005131673559713101 
0.0003363119649956523 
-0.0005131673559713101 
0.0003363119649956523 
0.0003363119649956523 
0.00063048618799057 
0.0006281983093058529 
0.00677189337414978 
5.194499097545015e-05 
5.194499097545015e-05 
5.194499097545015e-05 
5.194499097545015e-05 
-3.074768327013931e-05 
5.194499097545015e-05 
0.002055096813610078 
5.194499097545015e-05 
5.194499097545015e-05 
0.002086485965297124 
0.002086485965297124 
0.004476836556788206 
0.004146164076757843 
0.004402813078557334 
0.007627287101978101 
0.007627287101978101 
0.001202902586294673 
0.002086485965297124 
0.001202902586294673 
-0.008606122543136974 
-0.008606122543136974 
-0.008606122543136974 
-0.008606122543136974 
-0.008606122543136974 
-0.008606122543136974 
-0.01190459672541362 
0.0060995781179102 
0.04571164565017149 
0.003525556443698359 
0.003525556443698359 
0.003991028669440426 
0.00427764875677337 
0.0060995781179102 
-0.001781569144825727 
0.003870420444528944 
-0.001781569144825727 
-0.001781569144825727 
-0.008660211175623997 
-0.008660211175623997 
-0.001781569144825727 
-0.001781569144825727 
-0.0009854237877040457 
-0.001781569144825727 
-0.001781569144825727 
-0.001781569144825727 
0.004126936575563022 
0.004126936575563022 
0.004126936575563022 
0.004126936575563022 
0.004126936575563022 
0.003324946619642704 
0.004126936575563022 
0.005235854978350549 
0.004126936575563022 
0.02031212171947401 
0.01547933355704909 
0.004126936575563022 
0.004126936575563022 
0.004126936575563022 
-2.779438620927402e-05 
-2.779438620927402e-05 
-2.779438620927402e-05 
0.001891577731820554 
0.002769013140224935 
0.002769013140224935 
-2.779438620927402e-05 
0.0009560366611446477 
0.0009560366611446477 
0.01194838185970914 
0.003501897743900574 
0.01343398979505863 
0.003501897743900574 
0.01194838185970914 
0.0009560366611446477 
0.017556219714485 
0.017556219714485 
0.007418459235617675 
0.017556219714485 
0.006424384515683429 
0.017556219714485 
-0.001577660545683315 
0.01084360652831691 
0.01084360652831691 
0.01568524255584675 
0.01171320078067823 
0.01430463910251797 
0.01171320078067823 
-0.005518006231479903 
0.008443197197478748 
0.007917385449044074 
0.007917385449044074 
0.01487158931788927 
-0.03715864599017587 
-0.05682050217793322 
0.008443197197478748 
0.007917385449044074 
-0.03715864599017587 
0.007917385449044074 
-0.06294596435856724 
-0.006992363478990548 
-0.006992363478990548 
-0.006992363478990548 
-0.006992363478990548 
-0.0004122227508529805 
-0.006992363478990548 
0.004430742285301956 
0.004430742285301956 
0.01038929169638424 
0.004430742285301956 
0.004430742285301956 
0.004430742285301956 
0.02016257851745891 
0.006489707772759718 
0.004430742285301956 
0.004430742285301956 
0.006980557775201676 
0.006980557775201676 
0.006980557775201676 
0.004430742285301956 
0.006980557775201676 
0.006489707772759718 
-0.003180230469264609 
-0.001332218690687167 
-0.003180230469264609 
-0.001332218690687167 
-0.001332218690687167 
0.00926534198967597 
-0.001332218690687167 
-0.002434414491985771 
-0.002434414491985771 
-0.002434414491985771 
-0.020506340062718 
-0.002434414491985771 
-0.002434414491985771 
-0.002643871402228173 
-0.002643871402228173 
-0.002643871402228173 
0.02658318598389106 
0.0001957711574120751 
0.0001957711574120751 
0.0156766323574208 
0.0001957711574120751 
0.0001957711574120751 
0.0001957711574120751 
0.0001957711574120751 
0.0001957711574120751 
0.0001957711574120751 
0.001309068873848466 
0.01151700112300182 
0.001118896819178785 
0.006931329780898854 
0.008115457318213273 
0.006931329780898854 
0.001309068873848466 
0.001118896819178785 
0.008115457318213273 
0.008115457318213273 
0.001309068873848466 
0.001309068873848466 
0.001309068873848466 
0.001118896819178785 
0.0006062875735020078 
0.005682391631511616 
0.005682391631511616 
0.005682391631511616 
-0.001178082474943382 
-0.001178082474943382 
0.003698862677486185 
-0.001178082474943382 
-0.001178082474943382 
-0.001178082474943382 
-0.001627034016537786 
-0.001627034016537786 
0.001726984648949645 
-0.001178082474943382 
-0.001178082474943382 
0.01565763240226966 
0.01575318016576709 
0.002180537471556283 
-0.001178082474943382 
0.002180537471556283 
0.05016247681762586 
0.03548628474001974 
0.0003996822714521937 
0.04252555757746372 
0.0262583365861448 
0.03548628474001974 
0.04252555757746372 
0.04252555757746372 
0.006640197848186249 
0.003117221502641867 
0.003117221502641867 
0.003117221502641867 
0.003117221502641867 
0.007383619814276552 
0.0117401496909126 
0.007383619814276552 
0.0001901720546696812 
-0.0005422827010105177 
0.0001901720546696812 
0.0001901720546696812 
0.0008293162632728745 
0.008255907297936833 
0.0001901720546696812 
-0.001219519929297884 
-0.0007579579970332733 
0.01965290728510242 
-0.0007579579970332733 
-0.001219519929297884 
-0.001219519929297884 
-0.0007579579970332733 
-0.001219519929297884 
-0.0007579579970332733 
-0.0007579579970332733 
-0.0007579579970332733 
0.04515150416871156 
0.01073511426114165 
0.005678050105410976 
0.005678050105410976 
0.01401577075543316 
0.005678050105410976 
0.01073511426114165 
0.008982625891729629 
0.008982625891729629 
0.009901024625410102 
-0.002260710048522163 
0.005678050105410976 
0.008982625891729629 
0.01073511426114165 
0.002009766107907017 
0.002172681351619115 
0.0005172459694927538 
0.002989024684832757 
-0.0005655150379826124 
0.0005172459694927538 
-0.00514664877052378 
0.00596303626223833 
0.00596303626223833 
0.005434028828239419 
-0.0005452117813263221 
0.00596303626223833 
0.00596303626223833 
-0.01071865230094821 
0.003576926281347526 
0.005707076386213304 
0.01773318710618998 
0.06598027926079755 
-0.0005452117813263221 
-0.0005452117813263221 
0.03702056560955315 
0.01777628070070092 
0.01777628070070092 
-0.005512552620347715 
0.01868024409011682 
-0.008281137515574263 
0.01777628070070092 
0.01777628070070092 
-0.008281137515574263 
0.002975067191611698 
-0.0001850496530377202 
-0.007853269740160559 
0.01777628070070092 
-0.008281137515574263 
0.01777628070070092 
0.009269904462768121 
0.009586954621634581 
0.003777137589911006 
0.001345146333844194 
0.0007654962235022885 
0.006007338979643561 
0.0005078594348505379 
-0.005291598581528041 
-0.005291598581528041 
-0.004192157229695417 
0.003777137589911006 
0.003777137589911006 
0.0007115387612301075 
-0.000200647210762385 
0.0001514166773856512 
-0.006163448001472911 
-0.006163448001472911 
-0.006163448001472911 
0.0001514166773856512 
0.0001514166773856512 
0.0001514166773856512 
0.01029963538610376 
0.0002950233873804306 
0.0002950233873804306 
0.0002950233873804306 
0.0002950233873804306 
0.0002950233873804306 
0.005584387807650196 
0.0002950233873804306 
0.0002950233873804306 
-0.001714568911130426 
0.0009404368932588098 
0.009269660015158469 
0.005584387807650196 
0.005584387807650196 
0.0008947015586298992 
-0.0002327152411918086 
0.0003237397862538456 
-0.001910986100924792 
0.0008947015586298992 
0.0008947015586298992 
-0.01460528263669561 
0.0004401015509590391 
0.0008947015586298992 
0.0008947015586298992 
0.0001853423887790248 
0.0005114314386593385 
0.0005114314386593385 
0.0005114314386593385 
0.0005114314386593385 
0.008661999796718139 
0.00828433431953802 
-0.0006182013266873954 
0.009608835313110678 
0.000401710504978443 
0.000401710504978443 
0.000401710504978443 
0.000401710504978443 
0.01756158306366907 
0.003805996822528945 
0.0003888849610416304 
0.009339288470694948 
0.003483620913955667 
0.03108819084414454 
0.0003888849610416304 
0.0003888849610416304 
0.0003888849610416304 
0.003036504701733852 
0.0003888849610416304 
0.0003888849610416304 
0.0003888849610416304 
0.0003888849610416304 
0.0003888849610416304 
0.0003888849610416304 
0.0003888849610416304 
-0.001868524301260307 
0.006234162765792698 
-9.428908130584986e-05 
-0.01054559388055292 
-0.01054559388055292 
0.006508287205622773 
0.0005485274462803325 
0.0002569205698969859 
0.0005485274462803325 
-0.01054559388055292 
0.0002569205698969859 
0.01353761523458672 
0.0002569205698969859 
0.006508287205622773 
0.005612626773369867 
0.005338095239064447 
0.002938574992057634 
0.004008044645702676 
0.004008044645702676 
0.004008044645702676 
-0.004227724096272432 
0.002938574992057634 
-0.004759390855380574 
-0.004759390855380574 
0.004008044645702676 
0.02083638117569468 
-0.004759390855380574 
0.005612626773369867 
-0.0005186906845118098 
0.007489944477333601 
-0.0005186906845118098 
0.007634292393481346 
-0.002200598780802175 
-0.0005186906845118098 
-0.0005186906845118098 
-0.004427953373204322 
-0.0005186906845118098 
0.00578637405868752 
0.01607256698767379 
-0.0005186906845118098 
0.005115284528246448 
-0.003196168887620868 
-0.003196168887620868 
-0.002674051781312238 
-0.003128632520765762 
-0.002316073399213775 
-0.003196168887620868 
-0.003128632520765762 
-0.003128632520765762 
-0.003128632520765762 
0.004063838089163423 
0.004063838089163423 
0.004063838089163423 
0.004063838089163423 
0.003364824291336757 
0.003364824291336757 
0.003364824291336757 
0.002810273849913578 
0.001230364021083536 
0.001230364021083536 
0.003364824291336757 
-0.0004423390490392339 
-0.0004423390490392339 
-0.0004423390490392339 
-0.0004423390490392339 
0.00431099524035235 
-0.0004423390490392339 
-0.0004423390490392339 
0.01284113047075494 
0.001272280123161601 
0.004011013880932666 
0.006426561168505775 
0.001272280123161601 
-8.141392351154377e-05 
0.006426561168505775 
0.001272280123161601 
0.001198760364756155 
0.001272280123161601 
-0.01293360048436216 
-0.01356352772929496 
0.004011013880932666 
0.001272280123161601 
-0.01314775883092732 
0.002627565252732144 
6.194304798684398e-06 
0.0004154461006252513 
0.0004154461006252513 
0.002627565252732144 
0.002627565252732144 
-0.003897938272731923 
0.001025335007409027 
0.001025335007409027 
0.005300637050654849 
0.002620767296374238 
0.003735201839831529 
0.005300637050654849 
0.001025335007409027 
-0.003897938272731923 
0.003735201839831529 
0.01144159458851686 
0.005300637050654849 
0.001025335007409027 
0.001025335007409027 
0.005237740665411927 
0.001887542549627643 
0.001122561365603844 
0.007783133956945043 
5.608632777021276e-05 
0.01238739834225304 
0.0001042201753358844 
0.0002786424706250476 
-0.02455125645803634 
0.02201030972151644 
-0.02455125645803634 
-0.09853119636457158 
0.02201030972151644 
0.005511349630067517 
0.02201030972151644 
0.02201030972151644 
0.02088561085091616 
0.02201030972151644 
0.02201030972151644 
-0.02455125645803634 
-0.024791293761771 
0.02753077364875464 
0.02201030972151644 
0.02265313112684951 
-0.001022923889473252 
-0.0004364638362429186 
-0.001022923889473252 
-0.001022923889473252 
-0.001022923889473252 
-0.001022923889473252 
-0.001022923889473252 
-0.001022923889473252 
-0.001022923889473252 
-0.001022923889473252 
-0.001022923889473252 
-0.001022923889473252 
0.0002531511219398675 
0.0002531511219398675 
0.0002531511219398675 
0.0002531511219398675 
0.0002531511219398675 
0.0002531511219398675 
0.001159431044491217 
0.0002531511219398675 
0.0002531511219398675 
0.0002531511219398675 
0.0002531511219398675 
0.02357924284392402 
0.002934693067344377 
0.0002531511219398675 
0.0002531511219398675 
0.0002531511219398675 
0.0110830529451048 
0.0002531511219398675 
0.006339608901835907 
0.003691965238726744 
0.01071724154078397 
0.01071724154078397 
0.003691965238726744 
0.008309329555206732 
0.01246530133043814 
0.01147558411887855 
0.003691965238726744 
0.003691965238726744 
0.008309329555206732 
0.008309329555206732 
0.003691965238726744 
-0.00185938546686928 
0.008309329555206732 
0.001121108232933884 
0.001121108232933884 
0.001121108232933884 
-0.06762417889173455 
0.0008588532116739515 
0.001121108232933884 
0.001121108232933884 
0.001121108232933884 
0.001121108232933884 
-0.01038456923306565 
-0.03200906375599623 
-0.03200906375599623 
-0.03200906375599623 
0.002327703544545635 
-0.03200906375599623 
0.007029542602417674 
-0.03200906375599623 
-0.006927820215889316 
-0.00538263256157219 
-0.004580518636071016 
-0.0008737399539770364 
0.002327703544545635 
-0.004832529141273512 
0.002327703544545635 
-0.03200906375599623 
-0.00538263256157219 
-0.03200906375599623 
-0.0239574102050836 
-0.001745767134579988 
-0.001745767134579988 
0.01459903405396831 
-0.001745767134579988 
0.01459903405396831 
-0.001745767134579988 
-0.0239574102050836 
-0.003269794785321971 
-0.003269794785321971 
-0.001011128572294547 
0.01459903405396831 
0.01459903405396831 
0.0001079697412984322 
-0.003633438930484167 
0.008825857488555895 
0.008825857488555895 
0.00923969206569451 
-0.009133353107438666 
-0.003668687701176232 
0.009669875710322174 
0.008825857488555895 
-0.003633438930484167 
0.009956871974266349 
0.01143270353176625 
0.0006955575821398499 
0.0006955575821398499 
0.0006955575821398499 
0.0006955575821398499 
0.0006955575821398499 
0.0006955575821398499 
0.001369246163764575 
0.00217333465381662 
0.03115738462745928 
0.0008004014396849474 
-0.0009567783960079527 
-0.00348250995356239 
0.01366558528790261 
-0.00348250995356239 
-0.00348250995356239 
0.009887220153837752 
0.007291141348879929 
-0.005110129596840557 
0.01095403464913298 
0.006226969210364066 
0.006657375591751457 
-0.005110129596840557 
0.007625087926733841 
0.00693147471751711 
0.006337638065923714 
-0.005110129596840557 
0.006226969210364066 
0.009887220153837752 
-0.006038140518055508 
-0.005110129596840557 
0.007625087926733841 
0.05011725945146885 
0.001586506721774692 
0.0002427975619559461 
0.0002427975619559461 
0.0522992551600879 
0.0067467530946217 
0.0002427975619559461 
0.04019493734129927 
0.004716838928679617 
0.0002427975619559461 
0.003779865931511974 
0.0002427975619559461 
0.008631310457384616 
0.0009816884436670834 
0.005420384898821969 
-0.0009420334457297499 
0.0002427975619559461 
-0.0008631850381588196 
-0.01927850268199772 
-0.02166776523335081 
-0.001272560050640649 
0.005321074910719471 
-0.006694754384665729 
-0.001272560050640649 
-0.0005633189659511741 
-0.01927850268199772 
-0.0008631850381588196 
-0.001272560050640649 
-0.0008631850381588196 
-0.001817837462045466 
-0.00545185097942676 
0.003118896199181692 
-0.002515733843604278 
0.003118896199181692 
0.003118896199181692 
-0.003859209470258584 
-0.003859209470258584 
-0.003502890400520823 
-0.003859209470258584 
-0.004055991349740668 
-0.005793343088338266 
-0.003859209470258584 
-0.003859209470258584 
0.02837755317214954 
-0.002067383408631392 
0.02321876422717244 
-0.002043701748701146 
-0.01573043827180229 
-0.003124013317827567 
-0.002043701748701146 
-0.002043701748701146 
-0.004497298538729749 
0.01080859061861074 
-0.004520641855250522 
-0.004497298538729749 
-0.002043701748701146 
-0.002043701748701146 
-0.003124013317827567 
0.001986725356515269 
0.0007497430820982469 
0.005696149776014453 
0.000303598669434832 
0.0004465905077963257 
0.006055600016149688 
0.002013019406244744 
0.001690204380588735 
0.0004465905077963257 
0.000303598669434832 
0.0007497430820982469 
-0.0008662895450175157 
-0.004680437185966244 
-0.0003946846319629212 
0.001643548031009784 
0.01274498966670235 
0.004956424704689483 
0.005679571028884518 
0.01274498966670235 
0.001519231884649762 
0.01274498966670235 
0.03120475510280898 
0.004956424704689483 
0.004956424704689483 
0.005679571028884518 
0.01274498966670235 
0.01653098719298804 
4.441670956388484e-05 
0.003974758103921086 
0.01653098719298804 
0.003974758103921086 
0.01653098719298804 
0.003974758103921086 
0.01521847118024025 
0.003974758103921086 
0.0006548553009797237 
0.01521847118024025 
0.01521847118024025 
0.01521847118024025 
0.003974758103921086 
0.003974758103921086 
0.09414616057228714 
0.0134912012349666 
0.0134912012349666 
0.0134912012349666 
-0.0005346616168834952 
-0.0005346616168834952 
-0.0007680690850043037 
-0.0005346616168834952 
0.009573195880613804 
-0.0005346616168834952 
-0.0005346616168834952 
-0.0005346616168834952 
-0.0005346616168834952 
-0.0005346616168834952 
0.01181483404263266 
0.002506875094642054 
0.00263056655076063 
0.002506875094642054 
0.003234142711361224 
0.0008835459398888908 
0.01293900936069409 
0.00924885236243945 
0.00924885236243945 
0.01293900936069409 
0.002277272951315576 
0.003618130972923525 
0.003234142711361224 
0.0001799814068348191 
0.003618130972923525 
0.003338392577125937 
0.000415725889119242 
0.001458107614068058 
0.001458107614068058 
0.001458107614068058 
0.01511978442541195 
0.004084012322873637 
0.01511978442541195 
0.0008118743293011859 
0.01625911303413292 
0.005124748973515718 
0.004579690799591495 
0.01095834377701932 
0.01511978442541195 
0.0008118743293011859 
0.004579690799591495 
0.005309772950478183 
0.0008118743293011859 
0.001654171599336933 
0.0008118743293011859 
0.0008118743293011859 
0.004424986562794571 
-0.000703311473942288 
6.549975175434372e-05 
0.0005129626684762624 
0.0005129626684762624 
0.009812890757401856 
6.549975175434372e-05 
0.01489217621943362 
0.01390499307150291 
0.02261144085584548 
0.0005129626684762624 
0.004358700092202246 
0.002404360440680639 
0.009276646071558932 
0.01309317868376926 
0.009276646071558932 
0.009276646071558932 
0.01309317868376926 
-0.0004235606352490659 
-0.0004235606352490659 
-0.0004235606352490659 
-0.004162628408579621 
-0.004162628408579621 
-0.002404918780323566 
-0.004542758307919954 
0.02072928089781705 
0.001669979301660903 
0.0005349979391980691 
0.008812906167383335 
0.008812906167383335 
0.008812906167383335 
0.008709761553009935 
0.001669979301660903 
0.009135972907035066 
0.01561051698077567 
0.001669979301660903 
0.0005349979391980691 
0.008812906167383335 
0.0005349979391980691 
0.003068758307085277 
0.006419681905308608 
-0.003044186576886133 
-0.002363256102362251 
-0.0006478913993724848 
0.002094761295275969 
0.00285555683470596 
-0.001955817737672278 
0.006419681905308608 
0.00756949727090799 
0.003221778198137611 
0.003221778198137611 
0.006419681905308608 
-0.001955817737672278 
0.002679191917931126 
-0.004024468871201612 
0.002247314539828811 
0.00640435653108204 
0.007118406385199802 
0.006366109483511348 
0.0008323259323812635 
-0.001119908151879607 
-0.00274052345450847 
0.00640435653108204 
0.003816636415252962 
-0.0007188005867635424 
0.006968203846078484 
-0.001119908151879607 
0.004852986364947232 
0.0008684635917902611 
0.01170540717223498 
0.01289553210197589 
0.0008684635917902611 
0.0008684635917902611 
0.0008684635917902611 
0.002916014238459052 
0.01368128745949378 
0.001064555013587691 
0.000654751014014473 
0.001064555013587691 
0.002730468855556452 
0.001407793865383272 
-0.001580394963120166 
-1.546914939855658e-05 
-1.546914939855658e-05 
-1.546914939855658e-05 
-0.01088946856220808 
-1.546914939855658e-05 
0.002847964854393806 
0.007816444779877607 
0.01520635810644576 
0.003984479941981224 
0.002912848244513888 
0.002912848244513888 
0.006034515570972571 
0.0005374130658421868 
0.003506583322710697 
0.003506583322710697 
0.0005374130658421868 
0.002912848244513888 
0.002912848244513888 
0.003382749557709196 
0.001900886529513174 
0.03173231242190681 
0.01211301170583427 
0.003382749557709196 
0.0005241435475587125 
-0.001945947957625394 
-0.001945947957625394 
0.01065970505865086 
-0.0001082646161554585 
0.003382749557709196 
-0.001945947957625394 
-0.001945947957625394 
0.01004166563296565 
0.00309503696988637 
0.006348915535351699 
0.01226212921689791 
0.00309503696988637 
0.00309503696988637 
0.01073597694480324 
0.00309503696988637 
0.00309503696988637 
0.00309503696988637 
0.009094322956162249 
0.0009071400189854414 
0.0009071400189854414 
-0.006907383315227926 
-0.006098545747392747 
0.004508055137862506 
0.0009071400189854414 
0.001056744815621412 
-0.003952405440316748 
-0.007687349010197809 
-0.007687349010197809 
0.001056744815621412 
-0.003723935014906988 
-0.005865332620721151 
0.00172766954341851 
0.007164477330078425 
0.008431300237640407 
9.333670828737652e-05 
-0.01182994718918325 
9.333670828737652e-05 
0.008997818359179954 
-0.003590999271612684 
-0.01182994718918325 
-0.003590999271612684 
-0.002615568616068314 
0.007841105286454571 
4.124881240072578e-06 
0.001785254030429175 
0.005346204422161954 
0.007841105286454571 
0.001785254030429175 
0.0184025192654713 
0.001286742669499274 
0.000397827350391988 
-0.001066907015422645 
0.004705847427592332 
0.009968329616449671 
0.000397827350391988 
-0.004281789346240938 
-0.004702430224119704 
0.000397827350391988 
0.000397827350391988 
0.0005480383188435588 
0.003854778967395138 
0.00930889080510933 
0.008646400118056247 
0.003854778967395138 
-0.02120998656916884 
0.0006665380885176728 
0.0004148932436509645 
-0.004069496018827325 
0.0138044736109827 
-0.008821483675152566 
0.008752598425723856 
0.0004148932436509645 
0.0004148932436509645 
-0.003046594180858898 
0.0004148932436509645 
0.008752598425723856 
0.008752598425723856 
0.0007003498273555032 
0.0006665380885176728 
0.0004148932436509645 
0.0009234936716614504 
0.0009234936716614504 
0.001048023814205224 
0.001048023814205224 
-0.0001596881650529605 
0.01158097180373386 
0.09624702317179461 
0.01181224133921435 
0.09624702317179461 
0.02558828134354976 
0.1863584291623761 
-0.01204908163723056 
0.02640834837255696 
-0.01204908163723056 
0.003765538652465947 
0.01181224133921435 
-0.01204908163723056 
0.01181224133921435 
0.01158097180373386 
0.0600781448948127 
-0.0009748274845771313 
0.02373203635449221 
0.02025869044841267 
0.0008986842489346477 
0.02025869044841267 
0.03487797240330618 
-0.009205630121969895 
-0.009205630121969895 
-0.01109822974522032 
-0.009205630121969895 
0.000115719715971661 
-0.009205630121969895 
0.001781225728368489 
7.360367255777978e-05 
0.000115719715971661 
0.008880831765467865 
0.007497966427098153 
0.01672660822339027 
0.006310899037194441 
-0.0009976717128928111 
0.007497966427098153 
0.006310899037194441 
0.007497966427098153 
0.008880831765467865 
0.01466326381441145 
0.007497966427098153 
-0.0009976717128928111 
-0.0004543001552006558 
0.006310899037194441 
0.0008509596323625294 
0.009766719148933236 
0.00287295134753318 
0.005980426454507408 
0.0004141034015660544 
-0.0008464714864495127 
0.009766719148933236 
0.009766719148933236 
0.002390727733241285 
0.00287295134753318 
0.009766719148933236 
0.00287295134753318 
0.001037271037415888 
0.004305629090920977 
0.004305629090920977 
0.001037271037415888 
0.00439893025556642 
0.001037271037415888 
0.001037271037415888 
0.004305629090920977 
0.01475288660095657 
0.01106527717766618 
-0.005973362379074735 
-0.008711817390794258 
0.005477184151913648 
0.005477184151913648 
0.02139364785574929 
0.005477184151913648 
0.005477184151913648 
0.01354998473834855 
-0.002361000573310049 
0.008280620883099686 
0.007376266814958838 
0.00507325183568077 
0.0005594691167941067 
0.005032472789666073 
0.001781805141067008 
0.00507325183568077 
0.002758190960924036 
0.00507325183568077 
0.0005594691167941067 
0.0005594691167941067 
0.003678060559619169 
0.003678060559619169 
-0.001089769843145593 
0.00178266579628164 
0.009988327825688892 
0.003678060559619169 
0.004894201255841031 
-0.00195019204600899 
0.002615921993795718 
0.003544887924181449 
-0.01079194355983714 
0.0004454916052227379 
0.0004454916052227379 
-0.002824564474313638 
0.0004227759987245801 
0.003132336891701927 
-0.01172054879971072 
0.00095533558215903 
-0.01140195032133358 
0.003132336891701927 
0.007213046525420056 
0.003132336891701927 
0.006743245430796512 
-0.04540668044265516 
-0.09172884794814717 
