solver_type L2R_L2LOSS_SVC
nr_class 2
label 1 -1
nr_feature 159610
bias -1
w
0.01182378208692453 
-0.004991960179041553 
0.138987531327017 
0.03432993320154973 
-0.01496774780396647 
0.9040418776214076 
0.04480927825028289 
0.0118311977119395 
0.01391143744388221 
-0.02472395646423449 
-0.004670904577485794 
0.01391143744388221 
0.01391143744388221 
0.00138963343904814 
0.0007760190926676554 
0.06798253935366472 
0.5819109933317437 
0.03790172734787361 
0.04437000630470013 
0.02671846391059743 
0.0007760190926676554 
0.1476399101781379 
0.0007760190926676554 
0.0987047516444418 
0.03790172734787361 
0.04437000630470013 
0.08293646023362522 
0.1092837303814229 
0.03790172734787361 
-0.004702532305197735 
0.03936556700193269 
0.002133865913295917 
0.002851074658968641 
0.03790172734787361 
0.04437000630470013 
0.00243201138567383 
0.0007760190926676554 
-0.04454721826659691 
-0.004747201185927198 
-0.002691415970657247 
0.2073111429014469 
0.006941376634512308 
0.02185357171205049 
0.01576305530120266 
0.08763518170191477 
0.02511803125008656 
0.02161892342684044 
-0.0006399673989782814 
-0.004993863824582888 
-0.004993863824582888 
0.7874439486280969 
-0.002691415970657247 
0.07374442427367967 
-0.002691415970657247 
0.02511803125008656 
0.006941376634512308 
-0.002691415970657247 
0.006941376634512308 
-0.0004097984932490522 
0.1728130700359742 
0.02137927764198081 
0.006941376634512308 
0.02137927764198081 
-0.09877817305524214 
-0.1234917274986923 
0.07448592829787767 
-0.02998423343524406 
-0.0007174760643284877 
-0.002045990841624947 
-0.02650985304246484 
-0.0006796867530353163 
-0.009802687689902024 
-0.02998423343524406 
-0.02076197273930129 
0.8514587157588518 
0.07514808724267756 
0.3600230040902216 
0.07514808724267756 
-1.990957630677598e-05 
0.01900350378885906 
0.03071632483205269 
-0.04258643867021439 
-0.02650985304246484 
-0.09637821514601864 
0.02483570721387054 
0.02152125661829057 
0.01478776504904995 
0.04111347156167473 
0.05547841832933772 
0.0702565096110401 
0.02483570721387054 
0.007647139806271059 
0.03632637423595551 
0.0004154921904177139 
0.172569521895532 
-0.005055312653437069 
0.8608039326437744 
-0.05572509098154688 
0.0197616138048534 
0.0322780903415012 
0.156014823713094 
-0.0168791966515137 
-0.03214663140679352 
-0.0205402379273943 
0.02483570721387054 
0.000127008878854406 
-0.01197995369761182 
-2.910444892392526e-05 
0.008266409647480669 
0.05615649047332728 
-0.01242196150534672 
0.01122154917437227 
-0.04234118278183358 
-0.04260961322869174 
1.120637646039981 
0.02514695205012645 
0.008783063456130974 
-0.001177440275326981 
0.07204947352805227 
-0.06001495939284823 
-0.04260961322869174 
-0.04234118278183358 
-0.02025743081345218 
0.014065498759064 
-0.008572970233183184 
0.01118934705155188 
0.1869968859378264 
0.1813660232078073 
-0.001159395703391112 
-0.03826544651806037 
0.07757520668834599 
-0.1005768605004132 
-0.0271884796782353 
0.006685852939644825 
0.05642359563703769 
-0.06477081503859609 
-0.01666411403766348 
-0.06477081503859609 
-0.01666411403766348 
-0.06477081503859609 
0.006685852939644825 
-0.003899533209685298 
-0.01702038880241922 
-0.01666411403766348 
0.006757886676154338 
-0.08659458043947649 
0.110198978545015 
-0.01953160263908678 
-0.005170608694062444 
-0.06523523641528393 
0.03647146842613615 
-0.02195992708722729 
-0.02783706639868928 
-0.02363854984145927 
0.01073372597571306 
-0.02244608383648786 
-0.03076964850346434 
-0.01953160263908678 
-0.1391051075505833 
-0.005137327285908247 
-0.004361444346108172 
-0.02849700902647425 
0.02051377039539053 
0.1202428277395155 
0.06758155697860475 
0.0264410838318668 
0.07524712643871964 
-0.01953160263908678 
-0.03746136531895886 
-0.01953160263908678 
-0.4758293648593252 
-0.2300621690546915 
0.01875450308150934 
0.01463060118474698 
0.01297996762876526 
0.02247227506190694 
-1.116355727712206 
0.006034608771235318 
0.02247227506190694 
0.02247227506190694 
-0.2078726098040687 
0.0498424082492756 
-0.001431082791738208 
0.01507174098992359 
-0.007281414938678819 
0.0504280526729856 
0.006034608771235318 
0.01064973451364351 
0.06188735874670794 
0.03187786896019127 
-0.1008495952002566 
-0.2724717971001554 
0.9345689170826728 
0.04961075851432731 
0.003258538328347058 
0.00795659984746341 
-0.006181804012986711 
0.00795659984746341 
-0.007386325216937325 
-0.008941719288213777 
0.05073992188937098 
0.06327542793330015 
0.05255319606895414 
0.008026749923951514 
0.020259309049945 
-0.006181804012986711 
0.00795659984746341 
0.00795659984746341 
0.2111645159466752 
-0.1317626398683489 
0.01719273588010632 
-0.01636062279950135 
-0.01424154207797102 
-0.04455608339607009 
-0.02855265954262861 
0.009623552491457145 
-0.04394388962348064 
0.0293802797905517 
0.009623552491457145 
0.009623552491457145 
-0.0001707957212233712 
0.009623552491457145 
-0.01954427842197317 
-0.01954427842197317 
0.01473764589061122 
0.01122494067891709 
-0.005821264786796425 
0.01789003724418009 
1.132773089743258 
0.1647603101095084 
0.01494069035607876 
0.571413631784625 
-0.2246645668556665 
-0.004252113764910246 
-0.2545168757428304 
0.07209681921836528 
-0.2748232937096255 
0.02632394160746429 
0.01494069035607876 
0.03964881957839585 
-0.004252113764910246 
0.02619933442575147 
0.2879226833514977 
-0.1126124294136391 
0.05409233384076173 
0.0002447331515450308 
0.009007975396595093 
0.1939742116019353 
0.2547043050431492 
0.0661948038458177 
-0.04155257779719303 
0.0216123890652807 
0.04703553903568562 
-0.05342616510625467 
0.01343002066866331 
-0.06443263550300034 
-0.0538040258493941 
0.05810170573598539 
-0.000355150194870808 
0.04711048464358431 
0.009007975396595093 
0.8869959487693817 
0.03862253053121125 
-0.05686589167663825 
0.0002026946777636373 
-0.008790097426709168 
-0.0003746721649473667 
0.1163556999317416 
0.0001519595914495641 
0.0003706602457333874 
-0.03670037606082513 
0.1511822831971184 
0.1694252410124749 
-0.005298771500819194 
0.0009670425268887084 
0.05153230656449288 
-0.004081494669445306 
0.08849193697447995 
0.01492614063333203 
-0.03552580249946963 
-0.07067615338528724 
0.00140586911825769 
0.03888366067891786 
0.02040386055531269 
0.1905014252151398 
0.06005412546304126 
0.04368431596919629 
0.0843541694572908 
0.01807186265045256 
0.04320400408498842 
0.04320400408498842 
-0.00599351322151952 
-0.008897476298354056 
-0.00599351322151952 
0.01804642079922479 
0.07026465449391356 
-0.0159294458140425 
0.01804642079922479 
0.1688627267223555 
0.04453915743073492 
0.1319806742619978 
0.2553316374728571 
0.01777874596510028 
-0.00599351322151952 
-0.03865055138781062 
0.0599857065711353 
0.06801535715279572 
0.01561789992443828 
0.1102708719304058 
-0.008463554204681504 
-0.008114559622191427 
-0.008463554204681504 
-0.04227028905918927 
-0.03269972051536926 
0.01455050296705597 
-0.008463554204681504 
0.07313779863986379 
0.06803936467507173 
-0.009127528565521794 
0.006372004058216675 
-0.07820561187569268 
-0.005896926314955711 
-0.006066627264962557 
-0.005896926314955711 
-0.004174676362629154 
-0.0948510391194174 
0.05386608541736876 
0.005849729860265787 
0.006902474849236062 
-0.007161988826759347 
0.05863234092607036 
0.04969296003706894 
-0.007161988826759347 
-0.01378857746563106 
0.04498158696321843 
-0.007166214846226845 
0.001877525934065457 
-0.007161988826759347 
0.1508474182699511 
-0.01378857746563106 
0.07294731639939141 
-0.204756776999111 
0.07457372929474275 
0.01366166057395661 
0.02314604469272459 
-0.01002112282354396 
-0.05546522885273861 
0.1068371239716424 
0.07457372929474275 
-0.01002112282354396 
-0.01746475883497241 
0.02169935409899879 
-0.1100761827917565 
-0.1418345567585645 
0.01366166057395661 
0.008997154188787711 
0.06743720992795582 
-0.00988518201813747 
0.06743720992795582 
0.06743720992795582 
-0.001654922354113892 
-0.01002112282354396 
-1.256233581999535 
0.3762821778151314 
0.02195343145820534 
-0.02565892427494158 
-0.01535578568032543 
-0.001122758081078945 
0.07090508497690066 
0.05682658368578554 
0.02195343145820534 
0.09538845848415553 
0.036738727626245 
0.3510521654472703 
0.008774493376024435 
-0.01547038035429056 
0.00475916922213494 
0.02195343145820534 
0.06562880557813673 
0.0001720043206652139 
0.02834597498397119 
0.0740534998423788 
0.006382953936777362 
0.05307697977462687 
-0.001122758081078945 
0.09299910270869394 
0.05601710131991738 
-0.04428433662076675 
0.01849948529608912 
0.07726756799171912 
0.01849948529608912 
0.04074151258772201 
-0.1418850455003977 
0.07168029832383839 
0.0204437746900373 
0.01849948529608912 
0.01849948529608912 
-0.01054225627453003 
0.04074151258772201 
-0.1418850455003977 
0.04074151258772201 
-0.1418850455003977 
0.0217054358934592 
-0.07770910361475515 
0.02756126390673254 
0.1762683951684778 
-0.2159601744992251 
-0.2159601744992251 
0.1854635837011652 
0.02318166167247366 
0.03668683689380431 
-0.2085868406484133 
0.0009065189200485164 
-0.001855567559057508 
-0.01391561222256018 
0.1750009167478877 
-0.2159601744992251 
-0.01789124862026472 
0.001153473737274145 
0.05534910392079879 
-0.08480103917072557 
0.0009065189200485164 
0.09895499416818022 
0.01960655809015228 
0.001277957032276025 
0.0009065189200485164 
0.1957111461352235 
-0.0008563847387727151 
-0.1216876640316033 
-0.0008563847387727151 
0.04366304216683767 
0.08003690192513122 
0.113174475185811 
0.008660797728941391 
0.08868288587228176 
-0.0008563847387727151 
0.08913861536427894 
-0.0008563847387727151 
0.1066267091305077 
0.008660797728941391 
0.3114619382832201 
-0.0005865283070311828 
0.007283632996406748 
0.4102215048518891 
-0.03683259706307542 
-0.06710127129411146 
0.1886840635753904 
-0.1614878117596656 
-0.1217567609615823 
0.1706705549912434 
0.00375403512528686 
0.003972648834507243 
0.01575816192106917 
0.002840092014654574 
0.09547776820875295 
-0.1322513607937918 
0.002217733275624319 
0.02830593899852196 
0.1355429428912333 
0.002971644599664402 
-0.144806584293889 
0.00375403512528686 
0.003972648834507243 
0.00162867292586397 
0.00162867292586397 
0.06936119058480084 
0.001530462125878906 
-0.08151361666625209 
-0.004314480520756502 
0.006968158212415449 
0.002643269231866229 
0.002643269231866229 
-0.05218430365661419 
-0.0005735220300376814 
0.001353648646226679 
0.002643269231866229 
0.02464044589616688 
0.002643269231866229 
-0.1958296063059002 
-0.004314480520756502 
-0.004314480520756502 
-0.1248804830761912 
-1.246615077275433 
0.02965316904480852 
-0.004314480520756502 
0.02596943997432841 
-0.01245043406892382 
-0.03353350195257882 
-0.03007957290428339 
-0.002677702524998409 
-0.03342037726040258 
-0.001415323052987528 
-0.1267232633992028 
-0.03342037726040258 
-0.001415323052987528 
-0.001415323052987528 
-0.02301835194701129 
-0.03342037726040258 
0.1019114938999683 
0.04232548168225325 
-0.03342037726040258 
-0.02692478242267626 
-0.04776910388910347 
0.08929262801593132 
-0.07976250643385731 
0.7805355750626426 
0.06829890959146651 
0.00177347937110059 
0.03188650848446219 
0.002996739962398293 
0.02583118899571459 
0.1028939587603613 
0.0250668457238926 
0.02583118899571459 
-0.0001268453980764054 
0.0250668457238926 
0.1028939587603613 
0.004379232765942829 
0.005833900217833718 
0.00177347937110059 
0.03020802544807097 
0.001543847736174794 
0.00177347937110059 
0.1050718425909806 
0.1028939587603613 
0.04855516639508112 
0.02493120646048785 
0.09393820403547785 
0.02426329283154616 
-0.1564685731718763 
0.1577195193748118 
-0.02307191416621936 
-0.1564685731718763 
0.03191821602778896 
-0.004041573405545765 
-0.1562413606400771 
0.02703241061226125 
-0.1149146647333711 
-0.004041573405545765 
0.04131398336767619 
0.896891074219367 
0.02438173407780347 
0.187317905125726 
0.02426329283154616 
0.03191821602778896 
-0.02307191416621936 
-0.02307191416621936 
0.069127338401794 
-0.004041573405545765 
-0.02307191416621936 
-0.004041573405545765 
-0.0007006619337402605 
0.07491195676644843 
-0.00664638784221285 
0.0009303674185372111 
-0.003542834545764918 
-0.00664638784221285 
0.07491195676644843 
0.0625551809424095 
0.009514941232522214 
0.03760067678438467 
0.008336526551225141 
0.02725617985819625 
0.08234286408623337 
0.02618763726732035 
0.1219446911795592 
-0.004026132116459896 
0.01342921941166661 
-0.01630495411855273 
0.1043676861817748 
0.03352262392481668 
-0.00521924582987418 
0.01802349422081522 
-0.01333497480803182 
-0.01013741967135787 
-0.01180120626986994 
-0.0008379229260367365 
0.008599450497745379 
-0.0008379229260367365 
-0.01766596905283553 
-0.05755620335217812 
0.09285216751132828 
-0.0008379229260367365 
-0.01333497480803182 
0.03512020405734859 
0.1003736028355443 
0.006704932267749317 
0.1003736028355443 
-0.0001234777064194957 
0.02960021784603948 
-6.90804946673174e-05 
0.1096327309810864 
-0.006655880005373782 
0.02960021784603948 
0.0005393758029168447 
0.005725291620044849 
0.1003736028355443 
0.02503740157541769 
-0.006655880005373782 
0.1003736028355443 
-0.003456167134597031 
0.00799107724762832 
0.01141405667397349 
0.0001569211098167778 
0.008991330345323215 
0.0372391400334024 
0.06100207601983921 
0.1002472400649794 
0.000726380109240705 
0.04277821147872592 
0.0004694285639015602 
0.04118300496949966 
0.08351594912889533 
-0.01026120274803994 
0.001674923444494712 
0.0404226139352627 
-0.007019850669919931 
-0.007340420779800256 
-0.007340420779800256 
-0.02489902915982684 
0.1129318797694779 
-0.01026120274803994 
0.2143362269855531 
-0.007340420779800256 
-0.007340420779800256 
0.06541111005329654 
-0.01151225687633986 
0.1299606851350228 
0.01243852432492712 
0.147383805338577 
-0.007340420779800256 
0.02908370541884835 
0.1319983591217019 
-0.002286914426484278 
0.01267519019328039 
0.03649344672343216 
0.008078744761812442 
0.03651149503877181 
0.0115968160185151 
-0.01403349112341611 
-0.002972743137829695 
0.1319983591217019 
-0.002286914426484278 
-0.01927539988754616 
-0.004672236144743403 
0.05966989858375453 
-0.002286914426484278 
0.01085760969717492 
0.1319983591217019 
-0.002968534123603429 
-0.008780721274961229 
-0.01224407159447974 
2.289427518489009e-05 
-0.01135932862242636 
0.1902791254149602 
0.08013854167924687 
0.5161142537864651 
0.04620868844105177 
-0.02288141819313136 
-0.01170125364439763 
0.04620868844105177 
0.01983467150004559 
0.1288459853404577 
-0.01453096064980298 
-0.1094476053069054 
-0.01135932862242636 
0.02556974727964849 
-0.02217990513082724 
0.03275347995106349 
0.31134754034945 
0.03288424422436094 
0.04158585787724881 
0.08013854167924687 
0.007684791430023666 
-0.03336902315182088 
0.0423694541276556 
0.01846648752063849 
0.01796168347484316 
-0.2371737166527265 
-0.2371737166527265 
0.02439561888008012 
0.1404126997665884 
0.1242172709185339 
-0.2371737166527265 
-0.03480251848098757 
-0.02223031852217123 
0.1570212090444367 
-0.2371737166527265 
0.01256290742477591 
-0.03480251848098757 
-0.03480251848098757 
0.002718569299769396 
0.09028261542627623 
0.8776274674432519 
0.05495155230344127 
0.0511384746766573 
0.2669796028411142 
0.002909500580983923 
0.0005107749717244336 
0.06661470645543488 
-0.0987799265742391 
0.007759265501147129 
0.002888200808637114 
0.003267832945776335 
-0.0006343362043132835 
0.002909500580983923 
-0.02107900224735457 
0.1753918880671983 
0.03659605068802882 
0.0003210120367565467 
0.001331562547429904 
0.1220936688362768 
0.1634059556207458 
0.04303969507774735 
0.03659605068802882 
0.002909500580983923 
0.09319761337672174 
-0.0289999879886612 
0.03103370454498217 
-0.06282773266162391 
-0.0002158225450700124 
0.03079808373314049 
0.02996460159461392 
-0.0289999879886612 
0.09319761337672174 
0.09319761337672174 
-0.0289999879886612 
0.0005906080403315352 
-0.001357485540323753 
0.001752140464935149 
0.05422653873473445 
0.09447447602764424 
-0.001018873757453382 
0.125273111187288 
0.01063137628587494 
0.001062582514661371 
0.07796469268503797 
0.0001897629349678869 
0.0077048893088653 
0.03063674749345982 
0.0001897629349678869 
0.09684728360684078 
0.06237122638776297 
-0.0002076867889857976 
-0.003225776031474484 
0.09684728360684078 
0.1159377684046899 
0.03171942772857828 
0.0001897629349678869 
0.01564806747426893 
0.02912165517390261 
0.0004386044755626262 
0.1879845600289953 
-0.01734274741344534 
-0.01916473638348831 
0.0004310946267198076 
-0.002202321780117592 
0.02723695866575329 
0.02439009717990418 
-0.09646355424838016 
0.01815316717381989 
0.02503904672946114 
-0.01946423683605164 
0.01323644429766139 
0.1594287692757962 
0.1366661160375388 
0.1594287692757962 
-0.05299061020195095 
-0.01521286261434666 
0.01323644429766139 
0.1594287692757962 
-1.273749191060547 
-0.02607515941961883 
-0.3007062408454922 
-0.1097335883231212 
-0.03097629766993592 
0.01757398980273127 
-0.01521286261434666 
0.01323644429766139 
-0.01478601228988085 
0.0003172579522525601 
-0.02290417024672386 
0.04170846512172308 
0.0003172579522525601 
0.1802106423214599 
0.04468298552747998 
-0.02301783848161244 
0.0003172579522525601 
0.0003172579522525601 
0.0003172579522525601 
0.001132805959680604 
0.00668005078238142 
0.05703676855663719 
0.0524766450454701 
0.03108487155566048 
-0.05586769700021189 
0.00668005078238142 
-0.06168412986362468 
0.004028732406050329 
0.00668005078238142 
0.03108487155566048 
-0.03968862062897581 
0.006933502767408154 
0.02480658371519005 
0.04331761061135644 
0.06665118358276285 
0.05703676855663719 
0.009476072423050994 
0.006933502767408154 
0.00668005078238142 
0.03881223450470288 
-0.02613801807543267 
-0.2401231047255091 
-0.1523552789019483 
-0.2436988987835512 
-0.1504588794762027 
-0.1504588794762027 
0.02382284687698288 
-0.1504588794762027 
-0.1504588794762027 
-0.1504588794762027 
-0.0262975608021144 
-0.2413981982191537 
-0.1504588794762027 
-0.0656225884306199 
-0.05088888518675266 
-0.1504588794762027 
-0.001561835790018908 
-0.01652126922541727 
-0.0001857863376992243 
-0.1086548652052585 
0.006733861581671672 
0.004403752682232396 
-1.374706689616617e-05 
0.06740169547127382 
-0.04251828009304193 
0.01500282398031876 
-0.0009489677104489679 
-0.07107114766592475 
-0.04251828009304193 
0.04483713014120168 
0.1596011340546154 
-0.03976810267352282 
0.02206936925880122 
-0.007770021808846415 
0.0001143741858927395 
-0.06561886006499983 
0.00921936397687062 
0.0392219378282378 
0.004395554981494371 
0.01144975609455448 
0.00457080262958567 
-0.1748851606310305 
0.08203344109978619 
-0.0001853774953931963 
4.404743213633971e-05 
-0.00322388022376433 
0.2143166021440184 
2.102800955687091e-05 
0.05682972003809891 
-0.03201586266065247 
0.1023144831641867 
0.04864006735019221 
2.102800955687091e-05 
0.04440315516783064 
0.04122060675998078 
0.05089327790023166 
0.04864006735019221 
0.005398246326487267 
0.04864006735019221 
-0.006242064296597087 
0.2324688191980784 
0.01530237158661766 
-0.01172326764731812 
0.04576475558138901 
0.0790152981210349 
0.01530237158661766 
0.04576475558138901 
-0.002788538816323131 
0.001886949403239932 
0.02475778006536612 
0.09539141098192608 
0.001886949403239932 
-0.007386069195760406 
-0.02095565663715009 
-0.002563223827652903 
-0.002788538816323131 
-0.00806120101293774 
-0.004036111010273413 
-0.004036111010273413 
-0.009731883110938019 
-0.0003563019663795086 
-0.01471958223359468 
-0.01479787690370317 
0.005478929000940226 
-0.008871522636811477 
0.02349112101927885 
0.02349112101927885 
-0.007583338306372488 
0.003054533958012116 
0.003054533958012116 
0.0472251894973445 
0.02349112101927885 
-0.006010002810402624 
-0.02105486911250109 
0.02349112101927885 
-0.02864114762699776 
0.003118496525058249 
0.04237046975603249 
0.02362652232753903 
0.06045637500249846 
-0.004927099708166811 
-0.001314641457334936 
0.09389352263633029 
-0.0006984275258368998 
-0.001916432253460539 
0.01269085779043621 
-0.02606996654907424 
0.02419123368932832 
-0.001346064833126103 
0.06852399540123599 
0.09029737188835794 
0.04716151983338029 
0.07573902710998609 
0.0007620948668109132 
0.3187981111637709 
0.0007620948668109132 
0.5132247059345024 
-0.001244569984631736 
0.003224042973669692 
-0.008179375663737068 
0.08599787292634339 
0.05855310107965229 
0.09694634618763445 
-0.00467134139390609 
-0.01680036223000003 
-0.01680036223000003 
0.07877423652352419 
0.05190637948966293 
0.05190637948966293 
0.04141638721356795 
0.1938480091303863 
-0.00315598489447707 
-0.03750914877049361 
0.04108599578416001 
0.002013880449765645 
0.002946900785457706 
0.002013880449765645 
0.05190637948966293 
0.06498576075575452 
0.05190637948966293 
-0.01007217791035374 
0.2501861592905773 
0.05190637948966293 
0.2243575538960358 
0.05190637948966293 
-0.00315598489447707 
0.01510202612376998 
0.1174036745310967 
0.01510202612376998 
-0.1122961800032026 
0.04761139887211487 
-0.08252827181371987 
-0.000737455651581128 
0.02533485475705059 
0.0160365572503921 
0.02533485475705059 
0.02533485475705059 
-0.001283228854148403 
0.08958639798668254 
-0.0009604395182339435 
0.03068328688642624 
0.04958480370135299 
-0.003224324927909444 
-0.008757266055918155 
-0.008965496674899957 
-0.008757266055918155 
-0.009074650008526381 
-0.007007961074499552 
-0.008757266055918155 
0.04393514487215643 
0.04393514487215643 
0.1163621800003899 
0.04393514487215643 
-0.002461876020240496 
0.07015137485702518 
0.0004660882525698439 
0.02144075000030777 
0.02150180136492973 
0.08065694201824321 
0.01248279567532508 
0.03915482691641118 
-0.0001712532460797797 
-0.0129488504157353 
0.03231343301959428 
0.03816602190838189 
0.02446697090899681 
0.02412479231331851 
-0.03448248491213966 
-0.02725986340977976 
-0.02725986340977976 
-0.02725986340977976 
0.02446697090899681 
0.0006294656648113415 
-0.04643312552097359 
-0.02364095704351744 
-0.04005371078484458 
0.02336746304205938 
-0.005432521330778827 
-0.04620787191963763 
0.0006294656648113415 
-0.03676808330004675 
0.1296265302924337 
0.05798696639826918 
-0.03250451437942254 
0.02336746304205938 
0.08498656947723579 
-0.00197832408919294 
0.02336746304205938 
5.775661991117661e-05 
0.0006294656648113415 
0.03091959999272236 
3.256689488777293e-05 
-0.04862704922551681 
-0.005955164225525693 
0.01024090019258545 
3.256689488777293e-05 
0.01790839390262258 
3.256689488777293e-05 
0.03095835369140814 
-0.1820147218573136 
-0.09249844303552809 
-0.09249844303552809 
-0.01332235762170829 
0.1625998735180037 
-0.01332235762170829 
-0.03114187162976347 
-0.09249844303552809 
-0.09249844303552809 
-0.07014709014555279 
-0.03254464189394601 
0.1568946528037971 
-0.09249844303552809 
-0.1542211151814894 
-0.09321643563824904 
-0.09249844303552809 
-0.01332235762170829 
-0.01812090093034974 
-0.0733382323685054 
-0.1018115869548292 
-0.09249844303552809 
0.7973699560435378 
0.005622734538111395 
-0.004858707534311797 
0.07626638156184484 
0.7549681051659323 
0.0745547038533062 
-0.07251839251908743 
-0.006480735975114919 
-0.006426928995129089 
0.0001516986789338247 
-0.00904712791826286 
0.0005654701544992293 
0.003015355580144611 
0.1679563418724714 
-0.00904712791826286 
-0.005661192227983727 
0.001645166567097386 
0.3788221528754746 
0.1299768475379933 
0.07021581126527998 
0.0001516986789338247 
0.001027335909439161 
-0.000798433665921951 
0.0274781784124001 
0.1797565526812848 
0.005925628286829259 
0.05103221119421474 
-0.01456804199592466 
0.01287496835584406 
0.01732458152940908 
0.02629382939370799 
0.04243956026975144 
0.2379443716338887 
0.01732458152940908 
0.2449267214697756 
0.002889428992823986 
-0.02128745631023739 
0.03078063703001074 
0.002499574006893133 
-0.001844918708522496 
0.2449267214697756 
0.0001871896290072367 
0.1103790667146568 
0.1496501708065713 
0.07678595091366112 
-0.05405771314332961 
-0.03705828411521175 
-0.03705828411521175 
0.003401708833248554 
0.1458623207492592 
0.1492980051987003 
0.0002793443974492104 
0.1131398933727497 
0.0002793443974492104 
-0.03029936064301303 
-0.03705828411521175 
0.0002727700864711377 
0.0040381700592763 
0.0563000926466722 
0.03185261813548731 
-0.0006626591284537478 
0.00652133427972817 
0.0713492770150862 
-0.01944435097585544 
-0.02522221931152902 
-0.1435550775510523 
0.002847824281755908 
-0.01944435097585544 
-0.01944435097585544 
0.00652133427972817 
0.00652133427972817 
0.1947321306423963 
0.00652133427972817 
0.01607340454417225 
-0.06486880460533159 
-0.05164956199746586 
-0.0001519940586243226 
-0.007446889420382258 
-0.05847382163635045 
0.04665863775183529 
0.2482924763853603 
-0.02427923205341957 
0.0009071001940855229 
0.07605727884786574 
-0.0007317041391910012 
-0.09723731015976128 
-0.02427923205341957 
-0.1349063678428447 
0.07605727884786574 
-0.08115639822084572 
0.0139486952141921 
0.0139486952141921 
0.07605727884786574 
-0.1866795790009507 
0.07605727884786574 
-0.06485728949441175 
0.0139486952141921 
-0.02427923205341957 
-0.09062199846753473 
-0.02427923205341957 
0.003542977569879417 
-0.06485728949441175 
0.011293639976433 
-0.01154796205010148 
0.192691373690086 
0.04879436603216384 
0.05400877860956626 
0.001344995525746849 
0.001344995525746849 
0.04879436603216384 
0.06454247655566245 
-0.01125700790873948 
0.06454247655566245 
-0.02604213215177224 
0.04879436603216384 
-0.03862015858521003 
0.02044208313361284 
0.03722545942338394 
-0.02104100366319798 
-0.001134585404040606 
-0.003853032426930165 
-0.02104100366319798 
-0.0008083369305033367 
-0.001072831724116406 
0.007892491130285373 
0.07428711610780281 
-0.004016084280109959 
-0.001128097540832878 
0.07428711610780281 
-0.0458858743586715 
0.08167693881024024 
-0.2052410341727882 
-0.09162553301897285 
0.1088240594100587 
-0.01116059270489998 
0.03020160791453608 
0.005501504259979547 
0.002435100866538999 
-0.01468184077227377 
0.0007209532917422145 
0.0161022756682845 
0.2008782702420886 
0.2008782702420886 
0.0008701320189091159 
0.2008782702420886 
0.0008701320189091159 
0.2008782702420886 
0.007611250549212992 
0.011456526627599 
-0.1948923813412793 
0.004335162749532841 
-1.245914728970096 
-0.4521494715592277 
-0.09905707778226455 
-0.1143215022213189 
-0.005374689225155107 
0.006957080457410792 
0.004353936461418703 
0.004335162749532841 
-0.07499115743700072 
-0.006698578234791492 
-0.02630927962702632 
0.004353936461418703 
0.004353936461418703 
-0.0009222063338860372 
-0.002133972794082478 
-0.02167525684306095 
0.1201966720704775 
-0.02167525684306095 
0.0685204402859917 
-0.00588012964681732 
-0.05434679274400188 
-0.006905181894556685 
-0.009020884205703225 
-0.02167525684306095 
-3.758231675038387e-05 
0.01644717155001516 
0.01254839607413852 
0.02552963527249368 
-0.0009222063338860372 
-0.02167525684306095 
-0.000104449841100103 
-0.02167525684306095 
0.017616241485988 
0.05625593299517151 
0.06130455777673743 
0.01624816029337951 
0.01624816029337951 
1.877371188586075e-05 
0.01624816029337951 
0.01624816029337951 
-0.06507202231651481 
0.0593866450491488 
0.01253795516636909 
1.877371188586075e-05 
0.03412940255896635 
-0.02064730921881155 
-0.02064730921881155 
0.002617385974113023 
-0.04140218650936332 
0.01450311131466342 
-0.02064730921881155 
-0.02064730921881155 
0.0007060463193792912 
0.01228821728832844 
0.0004249995423671603 
-0.1134381684810632 
0.06161465167580021 
0.06161465167580021 
-0.1134381684810632 
0.06161465167580021 
0.4549196298151708 
0.06161465167580021 
0.06161465167580021 
0.06161465167580021 
0.1653660802642122 
0.1713198718826393 
0.06161465167580021 
-0.1047693859691921 
0.03883280579193568 
0.002929455710569928 
0.1062309650990838 
-0.01043030884605565 
-0.05046171963026087 
-0.05046171963026087 
0.02667758592977609 
-0.05046171963026087 
0.05715508634624741 
0.002978870639691227 
0.002929455710569928 
0.01130352365771988 
0.002978870639691227 
0.01130352365771988 
-0.01032965312544959 
0.002314937348857126 
0.002314937348857126 
0.1292712058861532 
0.002314937348857126 
-0.02302750064570693 
0.8863289591411745 
0.09023544832439349 
0.002314937348857126 
-0.0004003514763765859 
-0.03160784073925067 
0.03374967977292501 
-0.008604339519796335 
0.002314937348857126 
-0.0004003514763765859 
-0.03250289133260689 
-0.0004003514763765859 
0.00158722480115694 
0.002314937348857126 
0.03790376467162444 
-0.02089309389286202 
0.04459833511763486 
-0.006489390540921771 
-0.04767592452648753 
-0.004080879473360662 
-0.0204448757455648 
0.0001361631919897145 
-0.001437257020656787 
0.04123786580828501 
0.0418075240213375 
-0.01558473104224843 
0.02431621814140849 
-0.0206634311874918 
0.05377323331852214 
-0.006489390540921771 
0.01437105324291201 
-0.0001306502564592217 
-0.01555610865408178 
0.0194763500187229 
0.01437105324291201 
0.1574825409958494 
0.00055815466525369 
0.02640834806329172 
-0.003612039420932868 
0.0739260900512191 
0.008467834417961093 
0.02640834806329172 
0.0739260900512191 
0.0739260900512191 
0.03637904476609669 
-0.003612039420932868 
-0.003612039420932868 
0.2416205699554375 
-0.003612039420932868 
-0.002603548841594557 
-0.004718076509939738 
0.02640834806329172 
0.1018175583051589 
0.03763677446324637 
0.0817016603813806 
0.02762027383571351 
-0.08188149324596085 
0.000436521844159954 
0.1284173382107439 
0.006221594141219873 
-0.00302670205457756 
0.0158689851056475 
0.1851600325094119 
0.08941085986453547 
-0.002088508200936664 
0.2534395773101533 
-0.002088508200936664 
0.001278398052489881 
0.1412076095113264 
-0.02683945996161885 
0.1159809139795989 
0.04372086873408354 
-0.02683945996161885 
0.09051102948320223 
0.1502370744489189 
-0.1019025685094693 
0.09051102948320223 
-0.01529340501111687 
0.01231103669317576 
-0.02982472504404684 
2.033413385062133e-05 
0.07121542502239508 
0.02129925388416145 
0.1546042960908666 
-0.004862015039762747 
0.2985560791653176 
6.909578467583126e-05 
0.01399832512821077 
0.01399832512821077 
0.04995208428289712 
0.01399832512821077 
0.05656355771864246 
0.1028588787535257 
-0.01600592807466242 
-0.005309909228458597 
-0.01613136345385511 
0.004631811793958957 
-0.01613136345385511 
0.08548149931957624 
0.1255384854631532 
0.06269422281806922 
-0.01806919765295677 
-0.1160947953608064 
-0.0178440393692287 
0.004631811793958957 
0.1216238841838269 
0.1216238841838269 
-0.07173423606773097 
-0.006364350900354727 
-0.006364350900354727 
0.06934183037018671 
-2.726169502495132e-05 
-0.1277776195289563 
0.06934183037018671 
-2.726169502495132e-05 
0.0559183570494009 
0.06934183037018671 
0.06934183037018671 
0.4778550795867657 
-0.008965530719426979 
-0.1277776195289563 
0.06934183037018671 
-2.726169502495132e-05 
-0.1277776195289563 
-2.726169502495132e-05 
0.05914133764960836 
-0.008151917296123769 
0.03720994986565302 
-0.04052642138154045 
-0.003361003616790921 
-0.04194621854480845 
-0.003361003616790921 
-0.02510555136757836 
-0.006094507385228669 
-0.005439196352595372 
-0.1480887570633202 
-0.006094507385228669 
-0.04194621854480845 
-0.003500228970897992 
-0.005439196352595372 
-0.006094507385228669 
-0.003361003616790921 
0.01848564606529601 
0.01820145097678044 
0.0002754926745896014 
0.03460848494882911 
0.0002754926745896014 
-0.08227095865916878 
0.1058530258861429 
0.09961973184125891 
0.0002754926745896014 
0.00377487385637361 
0.0002754926745896014 
0.1058787906901001 
0.03483437404461947 
-0.06732104641831355 
0.01797176268868799 
0.006524991309072445 
0.001755045853785719 
0.1058787906901001 
0.03483437404461947 
-0.04140129899815614 
0.005380328481571028 
0.003883665998839184 
0.05210882028451131 
-0.0003177877886173797 
-0.1106902140096111 
0.002989777762761493 
0.02409401884405108 
-0.06809789468369096 
0.003883665998839184 
-0.01199704631072849 
0.004745576119222892 
0.03952374309116125 
-0.03817144356211129 
-0.0003177877886173797 
0.02266455175544191 
-0.00219412003101258 
0.02563963084058464 
-0.06809789468369096 
0.0555175576985674 
0.05606908886751907 
0.05606908886751907 
0.06230992054528671 
-0.0006359250999085521 
0.0001056894469886574 
0.05606908886751907 
0.0005574991510218174 
0.0005574991510218174 
-0.01915650162833851 
-0.03779889110388653 
0.0001056894469886574 
0.05606908886751907 
-0.001942866288253248 
-0.001942866288253248 
-0.00139465984457039 
-0.01628476361010554 
-0.05064428111078705 
-0.001942866288253248 
-0.05064428111078705 
0.2328764488193876 
0.06545078858172935 
-0.00139465984457039 
0.06273679628413202 
-0.05064428111078705 
0.1610234979444867 
-0.05064428111078705 
0.01091681957416444 
0.01091681957416444 
-0.03688939790502047 
0.01068572241144722 
0.08735644285499337 
0.01091681957416444 
-0.03688939790502047 
0.01091681957416444 
-0.03688939790502047 
-0.03688939790502047 
0.01091681957416444 
0.01091681957416444 
0.1850627891369282 
-0.0006540130929697211 
0.03784868729943571 
-0.07619508024451117 
0.0007280897008900642 
0.01213124105708437 
-0.0008950865801479805 
0.002123419010209537 
0.002123419010209537 
0.0007280897008900642 
0.01247764218461401 
0.0007280897008900642 
0.0007280897008900642 
0.0007280897008900642 
0.0007280897008900642 
-0.00234939304089337 
0.07359675816352786 
-0.03304797778966399 
0.09741046099157707 
-0.03339634152790088 
0.01421403411316191 
-0.03304797778966399 
0.04780069570347156 
-0.01979117418493158 
-0.005923025091369129 
0.03130454976303922 
-0.1916588352422988 
0.0631808434419027 
-0.009866177442476615 
-0.05713251832005235 
0.0003180679667145207 
0.0003180679667145207 
0.07174567528341402 
0.0003180679667145207 
-0.01822540587144403 
0.05789191533842585 
0.000299073528449507 
0.0009851893060200611 
-0.02725957624186195 
0.05357184876724923 
-0.0009274538682273726 
-0.03622166464235191 
0.007443335644069526 
0.1314019705321715 
-0.0008503630244684091 
-0.01415993654822498 
-0.03659018665166305 
-0.06102582627684631 
-0.02488487814863273 
-0.03659018665166305 
-0.02488487814863273 
-0.0009316138743199536 
-0.02488487814863273 
0.002037118882676366 
-0.03659018665166305 
-0.06145688816274319 
0.1235436519642115 
-0.09130174040848768 
0.21763456127644 
0.04188172667518456 
0.05451169977200387 
4.364400496260072e-05 
0.07812624434425421 
0.03228167462557386 
0.08275627707748194 
0.08327084869941646 
0.00468681342532073 
0.1106570226004368 
0.05451169977200387 
0.1106570226004368 
0.04188172667518456 
0.04188172667518456 
-0.004427444746949235 
-0.07966094517267777 
0.08808473733934072 
-0.03243406160119546 
-0.0121023832431509 
-0.004427444746949235 
-0.004427444746949235 
-0.004427444746949235 
-0.0121023832431509 
0.1106570226004368 
0.03174973921190485 
0.02733036744410051 
0.02609406506211227 
-0.1069322645474665 
-0.1565791450228122 
0.04903834028729055 
0.02609406506211227 
-0.02257943316746579 
-0.02257943316746579 
-0.02257943316746579 
-0.04230344887126314 
0.04903834028729055 
0.02815483063663025 
-0.03325344467935104 
0.03770452524774074 
-0.02542925291570908 
0.0150460625269956 
-0.03325344467935104 
-0.03325344467935104 
0.02688637892280143 
0.04325958305010334 
0.0830956924411308 
0.220134334252355 
0.0830956924411308 
-0.00846063671631226 
0.04948836797296862 
0.0830956924411308 
0.03232649113599904 
0.0830956924411308 
-0.01455966057911489 
0.02688637892280143 
0.02710880093879385 
0.2982178720109862 
0.0721350776040362 
0.1639393349330064 
0.03446615734398156 
-0.0007647717128259633 
0.0830956924411308 
0.0830956924411308 
0.1814313384724089 
-0.1593422540633619 
0.01877373382758304 
-0.03646828546303537 
0.04225919268844568 
0.04225919268844568 
0.05186467734315264 
0.05186467734315264 
0.003610254930809099 
-0.07958011704457543 
-0.03646828546303537 
0.01863924180134127 
0.04225919268844568 
-0.02561012182219852 
0.0518160913533961 
0.1253238825069197 
-0.02533970512872619 
-0.01320419069941981 
-0.02561012182219852 
0.0930097211342342 
0.001664060401624682 
-0.08788971582402394 
0.0930097211342342 
-0.06869574365215188 
0.0930097211342342 
-0.01414720607457413 
-0.05801926276808955 
0.05366346096148375 
0.0930097211342342 
-0.06869574365215188 
-0.06594555272353561 
0.02972503664068813 
-0.01436914057055259 
0.0482602724788117 
0.1151735472952014 
-0.01328678084119871 
0.04814155590432122 
0.05725486207727565 
0.08115366440881809 
0.04814155590432122 
0.08115366440881809 
0.08115366440881809 
0.0482602724788117 
-0.008283861709286269 
0.05725486207727565 
-0.001871342198487437 
0.07807100004275655 
-0.09467882985321929 
-0.2497945665286867 
-0.1238634296500926 
-0.2852117355460065 
0.04648959283645095 
-0.1238634296500926 
-0.1238634296500926 
0.03070211872685743 
0.03070211872685743 
-0.6221952796605018 
0.03070211872685743 
0.04946305921661912 
-0.6384607558205034 
-0.1358272273896451 
0.02336901621393761 
0.02336901621393761 
0.03070211872685743 
-0.1238634296500926 
-0.1167587803407197 
-0.2931077450257227 
-0.1238634296500926 
0.005053657012243432 
0.1130253595416812 
-0.07706957829293942 
-0.07706957829293942 
-0.0854833316857614 
-0.2463061335755652 
0.003243843719152849 
0.005053657012243432 
0.001088104265843089 
-0.2463061335755652 
0.002360262682776627 
-1.096008459257412 
-0.2463061335755652 
-0.1208352633242653 
0.005053657012243432 
0.005053657012243432 
-0.01762456283396405 
-0.01278475352600553 
-0.02179863084314962 
0.05803487228644654 
-0.2463061335755652 
0.0376527814115078 
0.03183280815351784 
0.03204599856596467 
0.03089765239786642 
0.03216853772386685 
0.03465109562135683 
-0.07366696221281251 
0.03216853772386685 
0.03183280815351784 
-0.05832376043831539 
0.0007032813968963552 
0.0007032813968963552 
-0.01115604640080304 
-0.0008569171343627806 
0.02787262223741516 
-0.002388088144686605 
-0.05769856664401188 
0.02434099865674274 
-0.00900935300091066 
-0.01182475512661445 
-0.02192050816682434 
-0.0003737747690837043 
-0.07791133110672836 
-0.00900935300091066 
-0.01920197557053835 
-0.01356963642268032 
-0.03326772030349154 
-0.00695857999123166 
-0.01356963642268032 
0.05046765036445272 
0.07896200576393021 
0.01937365194348939 
0.004097403583034162 
0.07896200576393021 
-0.04336898746870616 
0.07896200576393021 
0.000122830543816137 
0.04548474384501162 
0.0001745992404176481 
0.05046765036445272 
-0.002396509430589911 
0.05046765036445272 
0.0001745992404176481 
0.05046765036445272 
0.03746169175386151 
0.0001745992404176481 
-0.004603257086770516 
-0.009638076808735112 
-0.002396509430589911 
0.0001745992404176481 
0.0001745992404176481 
0.006210979315664811 
0.02644470497291082 
0.007871924742906796 
0.05089322735072133 
0.02979241432360893 
0.1083233949211711 
0.1083233949211711 
-0.06297494012824252 
0.0002841426521199512 
0.000245893689433731 
0.08861441391846624 
0.001506196404989064 
0.005418901806744393 
-0.02015839246087443 
0.03865797472835292 
0.02979241432360893 
-0.07604835644949459 
0.1083233949211711 
-0.01189544420285485 
0.0002841426521199512 
0.000245893689433731 
0.02979241432360893 
0.1131315525842673 
0.1791293225060081 
0.08564460582060673 
0.08564460582060673 
0.08564460582060673 
-0.006679890568922864 
0.03081874723569861 
0.08564460582060673 
0.0986745868921856 
0.001654545632773302 
0.4710089642314003 
0.01974843570050315 
0.08564460582060673 
0.01278866605770074 
0.001654545632773302 
0.001654545632773302 
0.08564460582060673 
0.08564460582060673 
-4.674303994066374e-06 
-0.002654183102904285 
-0.003471315209342101 
0.002020634195879073 
0.06412998991504298 
0.001918520183406017 
-0.003471315209342101 
0.001918520183406017 
0.001918520183406017 
-0.001472066525128238 
-0.003471315209342101 
-0.001472066525128238 
0.001918520183406017 
0.001918520183406017 
0.016137618020835 
0.005252677606225376 
0.01934532515526305 
0.001918520183406017 
-0.001472066525128238 
0.01503970166171843 
0.09310956831398841 
0.06829626332725802 
0.001918520183406017 
-0.0002893947380474355 
0.03003961064505409 
-0.5365911586843339 
-0.02680898787133456 
-0.0002893947380474355 
0.102288706460448 
0.003036241707058047 
-0.0002893947380474355 
-0.05058829185007324 
-0.0002893947380474355 
-0.007766048059766751 
-0.00107437399766008 
0.0004981708045139643 
-0.0005429980052595187 
0.0006537037263999303 
0.001825195317603614 
0.011189481385277 
0.011189481385277 
0.04572614163662596 
0.011189481385277 
0.011189481385277 
0.011189481385277 
0.032724832582603 
0.05224007898741825 
0.01737562531983727 
0.01061649722603866 
0.007282094653008792 
0.01369456366452898 
0.04171423668721667 
0.007160854852779792 
-0.04274131241877295 
0.01369456366452898 
0.04171423668721667 
0.01369456366452898 
-0.004789859256626745 
0.008179848594427698 
0.01369456366452898 
0.01369456366452898 
0.6477617299521389 
0.01864535130027995 
0.006795447738017771 
0.04171423668721667 
0.01369456366452898 
-0.003951331594511713 
0.07949380473712055 
-0.003951331594511713 
0.0005898204756401677 
0.02188984142072551 
0.001898416134159055 
-0.0140550722496617 
0.05960339754998075 
0.0376645008858551 
0.01798690199580759 
0.04167794826663521 
-0.0140550722496617 
-0.0140550722496617 
-0.0140550722496617 
0.02724974578353078 
0.02724974578353078 
-0.0009502027637975949 
0.02724974578353078 
-0.0007629858072538379 
0.14431363154423 
0.0171931735382407 
-0.0008593130457974118 
0.0171931735382407 
0.02724974578353078 
0.02724974578353078 
0.04535031822135393 
0.04121422978146432 
0.1090795863368766 
0.0171931735382407 
-0.0009502027637975949 
0.02724974578353078 
-0.1215305754632395 
0.0001921702724992855 
-0.002081360849843076 
0.009085068606396808 
-0.004170916035004328 
0.003751238433926201 
-0.002651195780101361 
-0.01799582486259585 
0.2308982715740229 
0.0003283558678655433 
-0.002651195780101361 
0.009085068606396808 
0.03106062648732825 
-0.006827609419654187 
0.0003283558678655433 
-0.002651195780101361 
-0.002651195780101361 
-0.002651195780101361 
-0.001151831822166293 
-0.001291634854384307 
-0.009169958904709665 
-0.003405131305514945 
-0.004239971868865687 
-0.01799582486259585 
-0.006827609419654187 
-0.002651195780101361 
0.01286179251301904 
0.3246331749250649 
0.1115984453317077 
0.09856010231342792 
0.04873661310029211 
0.02727293824468585 
0.02727293824468585 
0.001285004466604569 
0.09470234798162055 
-0.009648259744898875 
-0.0653472762292987 
0.09856010231342792 
0.1333237270019265 
0.02727293824468585 
0.09856010231342792 
0.00161473662531567 
0.1732334194545567 
0.04873661310029211 
0.001285004466604569 
0.03243719141570772 
0.00161473662531567 
0.1157562679958022 
0.09856010231342792 
0.09856010231342792 
-0.01076212254440334 
0.1115488760081765 
0.1013566499209772 
-0.0107250324096051 
-0.02045890978959642 
0.009805601177662618 
-0.01045849446873987 
0.09998357421289283 
-0.01056369749831818 
-0.01076212254440334 
-0.003627623215735979 
-0.001760216055237572 
-0.001671212211181784 
0.05439326602256896 
0.02773396156089901 
-0.005044561672912632 
-0.001671212211181784 
-0.003627623215735979 
-0.03706601882685377 
-0.0107250324096051 
-0.02208747403533701 
-0.001760216055237572 
0.06174247415071395 
-0.02261523324159058 
0.006148898254770276 
0.06174247415071395 
0.02850890860174561 
0.006148898254770276 
0.04047462419244355 
-0.007333059690940865 
0.006143822167130074 
0.006148898254770276 
0.06174247415071395 
0.03996735777844964 
0.04343347401838094 
0.00584330317887141 
0.02811368190686252 
0.06174247415071395 
0.04963918995257618 
0.06174247415071395 
0.1050940209808557 
-0.0302565890207056 
0.3113585128707703 
0.02943527075643379 
0.04905844172633554 
0.06174247415071395 
0.06174247415071395 
0.0003712100866053258 
0.0264286862235877 
-0.002475404260911137 
-0.02760760283976263 
0.0003712100866053258 
-0.02530363515654124 
-0.03990188446453548 
0.06652349717407034 
-0.0229345600555984 
0.02730784625440714 
-0.002475404260911137 
-0.008307093228206837 
-0.00243140250802483 
0.0003712100866053258 
-0.0919728749043871 
-0.176654199402614 
0.06003747249309146 
-0.0103461667585184 
-0.002475404260911137 
-0.01344030838755945 
0.05981089392176735 
-0.03161306590448009 
-0.02070526193337202 
0.1013158934924564 
-0.0376687222717107 
0.1013158934924564 
0.1312571913493456 
-0.0376687222717107 
-0.005507925243293807 
-0.03274321105511749 
0.1013158934924564 
-0.005507925243293807 
-0.001457473385813285 
-0.05215044886465892 
-0.005507925243293807 
0.1451372487603067 
0.06024344565005768 
-0.2155389858105247 
-0.008419251739324524 
0.1451372487603067 
-0.001457473385813285 
0.0311878527749515 
0.001870932550213244 
-0.1866107937052334 
-0.01135153595278997 
-0.01713620188712854 
0.03280091910061982 
0.00621224727809431 
0.1355230517239562 
0.001870932550213244 
0.01156831282997983 
0.004240801456856931 
0.001870932550213244 
0.01240570090741616 
0.02078383396890622 
0.004240801456856931 
-0.05313301842933472 
0.001304706863032715 
-0.153963691617997 
0.005837760760328266 
0.004364772406976338 
0.001304706863032715 
-0.1209858837539008 
0.001870932550213244 
-0.06586709983083662 
0.001044909468683995 
0.01024259731544754 
-0.06459454910662628 
0.001128165405155269 
0.03971787422187278 
0.09777555171761462 
0.003461348119877061 
0.001655747732418171 
-0.0003841387231781702 
0.006172381482158325 
-0.06459454910662628 
0.001128165405155269 
0.01021938473240241 
-0.1207527570619071 
-0.05206375466321151 
0.003461348119877061 
-0.01399395378982832 
0.1088132182559547 
0.01939273124972159 
-0.02613017065691036 
-0.002446200207167144 
0.199817510497328 
-0.005412155546096056 
0.02558861056515283 
0.01403263805046393 
0.006082935259237645 
0.0415340326060929 
0.01489596161862808 
-0.002446200207167144 
0.03279601466945919 
-0.02722420350639485 
0.1155814005521822 
0.05649582646669572 
0.001502720271806354 
-0.02594570490239682 
-0.02594570490239682 
0.03332586800631363 
0.1250825905478377 
0.004025066749685601 
0.003862363575237762 
0.008392868348177655 
0.004205293122696773 
0.1250825905478377 
0.1250825905478377 
0.1250825905478377 
-0.06719499775243468 
0.08485430195049413 
0.004025066749685601 
0.008392868348177655 
0.1250825905478377 
0.1250825905478377 
0.01052443801075118 
0.008392868348177655 
0.1250825905478377 
0.2141224066394423 
0.003862363575237762 
0.127499165196899 
0.05731757851287652 
0.05731757851287652 
-0.09401733610804026 
0.04677764575517204 
0.0003003488461674802 
-0.06624034916442637 
0.03985387351681421 
0.04961688646450028 
0.000262439518512932 
0.04979816014596897 
0.0489239315765241 
-0.09536583776070234 
0.04961688646450028 
0.1375389526015831 
0.04713217516762794 
0.1728862651680151 
0.04990436297746861 
0.05774435966242315 
-0.09536583776070234 
0.1679522148028995 
0.04862879232998984 
-0.01723497979502848 
0.01433436255674205 
-0.1493124961641075 
-0.09450669179677547 
-0.1199093358646252 
0.1016648915638401 
0.003407095626701052 
-0.9989891892117909 
0.05722041233594767 
-0.03279039364386135 
-0.1344332941244573 
-0.1412998348122614 
-0.078447429826246 
0.05722041233594767 
0.1016648915638401 
-0.03279039364386135 
-0.07818390136064246 
-0.07843306045612955 
-0.003135949832867366 
-0.02602076926964284 
-0.06821337618538509 
0.05722041233594767 
-0.008101038772679441 
-0.007436420735545918 
-0.007136746576951792 
0.1263091741127889 
-0.007436420735545918 
-0.08605400240139847 
-0.007436420735545918 
-0.007436420735545918 
-0.08605400240139847 
-0.006962384365586609 
-0.06971289053567375 
-0.007436420735545918 
-0.01943383170166831 
0.07652086738469185 
-0.007436420735545918 
0.04256977574828211 
0.008603750455673242 
-0.03030647368365606 
0.0009715613754958623 
0.01649560098499463 
-0.05458940636112375 
0.1117132249381206 
-0.1325831190819011 
0.002712003097602968 
0.02285591332291502 
0.001418372647667632 
0.02285591332291502 
-0.02301612072559502 
-0.009932336086041126 
-0.01737862804400815 
-0.02035159434821623 
-0.001116093025456994 
-0.001116093025456994 
0.01401004199430653 
-0.01737862804400815 
-0.001116093025456994 
-0.03157647353652341 
-0.02005975802639659 
-0.0005246446684106508 
-0.01776424220114258 
-0.0005303880721085599 
-0.0005246446684106508 
0.007335099421756104 
0.04221571281764996 
0.01970806384320458 
-0.0005246446684106508 
-0.0005246446684106508 
-0.003295712388130877 
-0.007099841184976818 
-0.008509421059012198 
-0.001536459359634753 
0.008309635414458326 
-0.008539978187944209 
-0.01745487998605123 
-0.005069744431102537 
-0.01586781791934317 
-0.02873405340762827 
-0.007099841184976818 
-0.01544756832929544 
-0.02075726339368295 
0.08249734038342997 
-0.03113359711474989 
-0.01465941256027548 
-0.01586781791934317 
-0.01745487998605123 
0.05924786602980956 
0.1071254651248281 
0.1071254651248281 
0.0001167333853331678 
0.1140500556283266 
0.1104173038504846 
-0.03996637887159178 
-0.06097081993722497 
0.1071254651248281 
0.05924786602980956 
0.1071254651248281 
0.003908169203796856 
0.03052025909999449 
-0.008142417922274088 
-0.003673907122005793 
0.06698336181644086 
0.03052025909999449 
-0.00719234501253985 
-0.008231938588107701 
-0.002880656971119076 
-0.0026224354349621 
0.06746861027541368 
0.08543517671951305 
0.06697545184571252 
-0.0026224354349621 
-0.008035024090508804 
0.03863000431442196 
-0.0007984170769642098 
0.01286547091693226 
0.01286547091693226 
0.03786657456915116 
0.01286547091693226 
0.1584803101276542 
-0.002813192009309213 
-0.003441385741046184 
0.003179568559163289 
-0.006802817160250075 
0.002895802314298365 
0.02369066825269911 
0.002664610682985678 
-0.007181199984778248 
-0.003441385741046184 
0.1551337532130001 
-0.0009777483458016612 
0.251927685248362 
0.08469810957969617 
0.004879953856944075 
0.09588567753367119 
-0.0009777483458016612 
0.02464760209740604 
-0.0006914696931001222 
0.0005579300259783162 
0.000639858113024424 
-0.0008455952364702654 
0.1238296445628569 
0.01611285290070981 
-0.0005746426865917342 
0.04317797034074183 
0.002836347981492837 
-0.0008455952364702654 
-0.0005746426865917342 
0.1006703638554359 
-0.02469782563436605 
-0.01193171668079042 
0.122370421859403 
0.000639858113024424 
0.000639858113024424 
0.1554889601053846 
0.1554889601053846 
0.3494530832109226 
0.03595496267639088 
0.3494530832109226 
0.3494530832109226 
0.06721350159129869 
-0.006808453291395884 
0.04378622861363255 
0.04378622861363255 
-0.006808453291395884 
-0.04943868480489608 
-0.00908030804676172 
-0.006808453291395884 
0.06368977599909391 
0.07041189557492673 
0.0412184216795073 
0.05777471008887448 
-0.01333336198650562 
-0.09265706203177665 
0.05777471008887448 
0.04378622861363255 
-0.02562790022604624 
-0.008568114615023393 
-0.1176698872991695 
-0.008568114615023393 
-0.1176698872991695 
-0.01955156119462216 
0.02932136226695951 
0.04639602181536995 
-0.02562790022604624 
-0.01472450235193105 
0.01043078693412769 
-0.5549128248328158 
-0.01955156119462216 
-0.008021178498781307 
-0.02562790022604624 
-0.6106402044686492 
-0.02562790022604624 
0.0008483152917203302 
-0.00216818078468591 
-0.07105102561979618 
-0.001279462674073931 
0.0008483152917203302 
7.684962373138624e-06 
-0.00136959850276717 
0.0008013153358825413 
0.002916477502826144 
-0.003177678624355057 
-0.003177678624355057 
-0.002771985938812716 
0.0001159450377976387 
-0.002771985938812716 
0.0001159450377976387 
0.0001159450377976387 
0.002292154842201604 
-0.002999463640876724 
-0.001279462674073931 
0.0006931298417894433 
0.0006931298417894433 
0.0002225700714274277 
0.0006931298417894433 
0.02544424201690014 
-0.00724744826411601 
-0.00724744826411601 
-0.008515313091503158 
0.02544424201690014 
0.01006109690037005 
-0.00654209205300914 
0.05380616889800451 
0.008204758060157255 
-0.00654209205300914 
-0.00654209205300914 
0.2033229829345891 
-0.05472379528897684 
0.006043639277770628 
-0.189634299757472 
-0.05472379528897684 
0.0002912728472357397 
-0.03311159413468313 
0.0006598309781100229 
-0.05472379528897684 
-0.00654209205300914 
0.0003888713997941763 
0.000368426158376621 
-0.0007524242121857011 
0.0003888713997941763 
0.0002912728472357397 
0.0003888713997941763 
0.07763117051254631 
-0.002926486977009322 
0.0214865326268453 
0.04299280539437293 
-0.008071734787034966 
-0.0116170126257443 
0.05685695511000959 
-0.007309174449896143 
-0.007309174449896143 
-0.007309174449896143 
-0.0904784636963723 
-0.0116170126257443 
-0.008359864270078142 
-0.002018480951053515 
-0.003197250913927978 
-0.0002905083956517233 
-0.00990347981327877 
0.008068153966092223 
0.01047346193827737 
-0.03944311049661295 
-0.006496307072186253 
-0.03944311049661295 
-0.006496307072186253 
-0.09442585027217691 
-0.03944311049661295 
-0.005870294738880033 
0.008068153966092223 
0.03088550385479456 
0.009816504427450171 
-0.01967603443917735 
-0.06447168420125389 
-0.03944311049661295 
-0.03944311049661295 
-0.0002209727874401378 
-0.2355899763324496 
-0.09097978944890514 
-0.0002209727874401378 
0.1197386494859618 
-0.07444005883980924 
-0.0002209727874401378 
-0.0063860492365777 
-0.007254037269142125 
-0.0002209727874401378 
0.0001416993897530095 
0.0008557990337718782 
-0.04700587091761309 
0.07944688078269488 
0.01819589841785022 
0.0001416993897530095 
0.0001416993897530095 
-0.05188965081904066 
0.001145423067948208 
0.005825652863947979 
0.002500878841619878 
2.999807087907802e-05 
0.02615931714034162 
0.01694358145223884 
-0.05188965081904066 
0.03211431641956101 
-0.05188965081904066 
0.07637227315368871 
-0.0003262477222505694 
0.07637227315368871 
-0.002169599438057125 
-0.0003262477222505694 
-0.0003262477222505694 
-0.0003262477222505694 
-0.005064686473824066 
0.07637227315368871 
0.008854359887623692 
0.101030190474425 
-0.0829637454615494 
0.02546985241032908 
0.02637895538187321 
0.04432507985188151 
0.1099242042551372 
0.02519453746373051 
0.1099242042551372 
-0.06226585132496994 
0.02546985241032908 
0.03348839591686623 
0.1099242042551372 
0.0283155492904899 
0.02546985241032908 
0.0283155492904899 
0.02546985241032908 
0.02546985241032908 
0.0009792058277582547 
0.09658142113874912 
0.0001806519455020175 
0.005786832713341013 
0.005786832713341013 
0.01069998280341746 
0.1187451434549549 
0.103362276435207 
-0.003153525474606245 
-0.005224443823784192 
-0.003153525474606245 
-0.0185687594540168 
0.04423970825042042 
-6.938592050959245e-05 
0.01106996111578569 
0.005786832713341013 
0.04423970825042042 
0.04423970825042042 
0.04423970825042042 
-0.003153525474606245 
0.005786832713341013 
-0.01556756815107736 
-0.000205531092331023 
-0.05675880538607718 
-0.1353713776551819 
-0.3345597210105705 
-0.000205531092331023 
-0.00074917848139925 
-0.00074917848139925 
-0.008893815477435025 
-0.008893815477435025 
-1.373873562690862 
-0.00074917848139925 
0.03719491324986385 
-0.1298635208325194 
-0.008893815477435025 
-0.00502308785766778 
0.1930145339724565 
0.006778292240880877 
0.0003064256080672898 
-0.007603710840116004 
-0.05438666215730847 
0.05367847817698183 
-0.004129191803658554 
-0.007603710840116004 
-0.003312797477843716 
-0.00502308785766778 
0.0001114527496637777 
-0.00502308785766778 
0.05227628141479983 
0.0001114527496637777 
0.03664835837020473 
0.004899100280805965 
0.0269971344575354 
0.03871852824559532 
0.03871852824559532 
-0.03326624716211301 
0.0269971344575354 
0.004899100280805965 
-0.07722052558804399 
0.06265208022125121 
-0.01738981767585022 
0.03461821307109663 
0.1337863906822256 
0.03661282529387309 
0.0269971344575354 
0.03461821307109663 
0.03461821307109663 
0.01285131898383004 
0.08530986482125609 
0.02314042683371744 
0.04761040116138021 
0.01285131898383004 
0.009173859248080479 
0.01285131898383004 
0.005427239702604928 
0.007567098358839214 
0.005427239702604928 
0.3861702261614431 
0.007567098358839214 
0.005427239702604928 
0.04761040116138021 
0.007560471900214262 
0.007560471900214262 
0.007560471900214262 
-0.01670125459777451 
-0.01670125459777451 
0.002335598020905153 
-0.0008756587138949299 
0.02953436142770044 
-0.002155137563772786 
0.06425734952290316 
-0.01670125459777451 
-0.01412881008205318 
0.07950861891649272 
0.01890654236685312 
0.007560471900214262 
0.007560471900214262 
-0.0008756587138949299 
0.07950861891649272 
0.07776289793638338 
0.03976313139278173 
0.2900171469549443 
0.009383397981712659 
0.009383397981712659 
0.009383397981712659 
0.006351908054057763 
0.009383397981712659 
0.01555339599076544 
-0.08031066851186211 
-0.000670762011574981 
0.009383397981712659 
0.009383397981712659 
0.01742915706874953 
-0.003087423179292231 
0.01716151551362709 
-0.005320435395903258 
0.03866913203925634 
0.009383397981712659 
0.006169864177427317 
0.006359975476507343 
0.006174792267279997 
0.006359975476507343 
0.006359975476507343 
-0.02029717758010871 
-0.01065744454979179 
0.02695928976165139 
-0.01507588672961939 
0.02122005574201304 
0.01800661957054874 
0.02337960049904362 
-0.01849099557087967 
-0.02680635767765938 
-0.01822001803985718 
0.02183346524410462 
0.01800661957054874 
0.08475368118505257 
0.03392977259385801 
0.1942017352444344 
0.005723815250136568 
-0.006052095567105259 
0.03222804489000584 
0.02950272254294117 
0.1828503662125134 
0.02923601354531312 
0.03244095788268894 
0.07094973551929971 
-0.03967149309875317 
0.0476641626012116 
0.003302357323326825 
0.1306683817731674 
0.07778486650487941 
0.003256643422142907 
0.1930197050711749 
0.02923601354531312 
0.04729425785988544 
0.03952094020474139 
0.01961274933716869 
0.01961274933716869 
-0.06348096796100017 
-0.0005198549952220973 
0.113135029202547 
0.01961274933716869 
0.01057897873698101 
0.02574301154275095 
0.03372953699868755 
0.07975920562690189 
0.01688712509563326 
0.08633449761244255 
0.01057897873698101 
0.03316464631134915 
0.08779926127940405 
0.03652079000599828 
0.01057897873698101 
0.02043822198704474 
-0.1653497341619227 
0.001522087001711451 
0.000515824184659146 
0.01640590298090662 
0.0002451659683377423 
0.01640590298090662 
0.000515824184659146 
-0.002697775882377398 
0.1138996169172705 
-0.002103343615072755 
0.1402044827554606 
0.05413898644137823 
0.03989826866411891 
0.01691704599383126 
-0.05839336187660839 
-0.0172030104338722 
0.05430067994232051 
-0.004901921246649686 
-0.003515378884051081 
0.0006076730411446884 
0.03290364244131802 
-0.02888402432103976 
-0.02656786339122135 
-0.0001813445414318195 
0.002165774505459431 
-0.0009576957995400068 
-0.0001813445414318195 
-0.0001813445414318195 
-0.0001813445414318195 
-0.07930621848421179 
-0.0142954861061603 
0.05175542946194359 
-0.0001813445414318195 
-0.0001813445414318195 
-0.08024896069377062 
-0.0001813445414318195 
0.06114706513477117 
0.03039919507037163 
-0.0107120413243859 
0.02805996357054974 
0.004753883190220615 
0.0005676833341117127 
0.03974489694645442 
-4.753359971831808e-05 
0.02805996357054974 
-0.0112766377112402 
0.04004304267171878 
0.02805996357054974 
0.0594442404000405 
0.01478260988813791 
0.009054522907728098 
0.1425199746357978 
0.06211289750828478 
0.001146121111152074 
0.1425199746357978 
0.1242951462414282 
0.001146121111152074 
0.1238046004314608 
0.001146121111152074 
0.1286811112673055 
0.08981743237142327 
0.04894411521503602 
0.03311653980589987 
0.07103867715479087 
-0.03782258625047857 
0.08516042534202642 
0.05374254481167107 
-0.05324070639689759 
0.05701844308230313 
0.05010657283182081 
-0.03500375486533223 
0.03307863898282913 
-0.03161262359390445 
0.03307863898282913 
0.07561712517341874 
0.1108959072626856 
0.07223838438624683 
0.03307863898282913 
-0.03782258625047857 
0.005007538184805756 
0.005007538184805756 
0.03079018620287861 
-0.1618412444590174 
0.005007538184805756 
0.04419668147952475 
0.005007538184805756 
0.005007538184805756 
-0.03742447929849491 
0.005007538184805756 
0.005007538184805756 
-0.003843902551304523 
0.03786649259135915 
0.07068334659738039 
-0.0008133337288406852 
0.2248869309302918 
-0.01805340639716712 
0.01617320451049023 
-0.01805340639716712 
0.0005524663687514377 
-0.0006855615270036977 
-0.01823775524155898 
-0.0006855615270036977 
0.01020285209008178 
-0.02679823719528685 
-0.01118620156167051 
0.007947744729925203 
0.003230177164447817 
0.003230177164447817 
0.04912434550299314 
0.1355420844714038 
0.02051676701407078 
0.003230177164447817 
0.0497814034630243 
0.003230177164447817 
0.0498819806454846 
0.04652039874711496 
-0.002550530369077549 
-0.05081886177257469 
0.03032321457199184 
0.06570652258566878 
-0.07048140871637062 
7.111448216378979e-05 
0.02731046806031236 
-0.008073429958024281 
-0.008073429958024281 
0.029939601636479 
-0.003064605425329878 
7.111448216378979e-05 
-0.05081886177257469 
0.06570652258566878 
-0.003938481812770604 
0.06317587556184262 
0.177159129339573 
0.06151550915974536 
0.1788183668360378 
0.04637965859501137 
0.1026426192797516 
0.174590547819998 
0.177159129339573 
0.1516575410911687 
0.1767630131041363 
-0.04796044973086554 
0.03515523393547915 
0.01870361892533041 
0.01194181068758797 
0.01194181068758797 
0.01194181068758797 
0.01870361892533041 
0.02247937157564445 
0.01087413682666073 
0.01545941462215835 
0.01194181068758797 
0.01194181068758797 
0.01194181068758797 
0.1212061732667568 
0.01194181068758797 
0.1522133382492742 
-0.01831551014626319 
-0.0657033031732677 
-0.08116359576924471 
-0.00965410484065232 
-0.002116300304935443 
-0.04420871531046086 
0.1645878736070614 
0.07672837812529636 
0.04313087704589099 
0.003009835188498433 
0.04589446158267555 
0.04714076723062338 
0.004195417353426528 
-0.000363175653360639 
-0.05078797984294307 
-0.1367632925600022 
-0.05078797984294307 
0.007662705266724015 
-0.0657033031732677 
8.477209052492891e-05 
-0.00377129641034179 
-0.002794947636098201 
-0.009436459661087781 
0.04243910795308887 
0.0007623209149290326 
0.02801903246809187 
0.001234011477589524 
-0.1063173795255093 
0.002462164146289147 
0.0007623209149290326 
0.024854229769218 
-0.003783846411823839 
0.004563969763039452 
-0.0001163104834493896 
0.01563631351187585 
0.01588620461013687 
0.01563631351187585 
0.0001266191452598612 
0.001822634541703949 
0.001822634541703949 
0.01563631351187585 
0.01738524605518471 
0.01738524605518471 
-0.0001969234227098562 
-0.0001969234227098562 
0.01738524605518471 
0.0002837478214437017 
-0.1779251219248897 
-0.1748847701945105 
-0.0005914483570463436 
0.0002837478214437017 
-0.07520928435676807 
0.0002837478214437017 
-0.1687274507622645 
0.01738524605518471 
-0.0001969234227098562 
0.00146898734702608 
-0.06098424951518617 
0.01738524605518471 
0.01361105151734826 
6.358090709568772e-05 
-0.02508761966614863 
0.0324496378113572 
-0.001294014810853281 
0.03232458380202374 
0.05823739951760218 
0.009005538012079678 
-0.000141715990018633 
0.02839386786990903 
-0.001204521203950623 
-0.0005984517431126484 
0.002776861240567163 
-0.001204521203950623 
0.04564852805750431 
0.004064395346012274 
-0.001266712889657647 
-0.003963292547303662 
0.002045824487597584 
-0.001204521203950623 
-0.001204521203950623 
0.03665542863095428 
0.004154029864226503 
0.01042650272749838 
0.08501044192366169 
0.08501044192366169 
-0.003172777042646818 
0.006511814347851452 
0.06747659235495208 
0.06493429739064691 
-0.01701400822160192 
-0.003453851743026173 
0.08501044192366169 
0.08571050654673414 
-0.005978212744202238 
0.01831356641424097 
0.08501044192366169 
-0.009651523766552438 
-0.009651523766552438 
-0.009651523766552438 
-0.009651523766552438 
-0.009651523766552438 
-0.009651523766552438 
-0.009651523766552438 
-0.009651523766552438 
-0.009651523766552438 
0.074621739850215 
0.03769681934154216 
-0.04608453544342854 
-0.002423280949313931 
0.0002807228210692773 
0.03769681934154216 
0.0002807228210692773 
-0.04509378500440558 
-0.02112969154655926 
0.0002807228210692773 
0.03769681934154216 
0.0001349552892466764 
0.0001349552892466764 
0.0001349552892466764 
0.0001349552892466764 
-0.003174216212670089 
0.01814940364608295 
-0.006074134329912116 
0.01639269146600252 
0.04493630204838566 
0.01680598214867349 
0.02374089852890608 
-0.003174216212670089 
0.04493630204838566 
-0.009908189764613027 
-0.003174216212670089 
-0.005980310079151341 
0.01399036525788957 
0.1467787780132027 
0.04479724519313386 
0.06445635677941446 
0.04967821621177883 
0.01695126046670428 
0.0198324767230117 
-0.1858153650674113 
0.01569909853362619 
0.05469769111633003 
0.02489365969022881 
0.07941321726505536 
0.02489365969022881 
0.02489365969022881 
0.05015829912254375 
0.02489365969022881 
0.02489365969022881 
0.02489365969022881 
-0.0359517963733928 
0.04706998686692199 
0.0003661185987519173 
0.0003661185987519173 
-0.001653855660866767 
0.001335788977927647 
0.0003661185987519173 
0.04706998686692199 
0.04713249952907901 
0.001335788977927647 
0.001335788977927647 
-0.001653855660866767 
-0.0005386613234887943 
0.04713249952907901 
-0.001653855660866767 
-0.004495972628984421 
-0.001653855660866767 
0.0003661185987519173 
0.01474815494734158 
0.03872866370630216 
-0.005475307107997011 
-0.113016392478297 
-0.0003380249979554352 
-0.02096896813631962 
0.02267496591430774 
0.007215174630281219 
-0.001030889369912924 
0.01474815494734158 
0.007215174630281219 
0.007215174630281219 
-0.05166423600048797 
-0.0177758554841827 
0.001788022505743988 
0.0004573063269272211 
-0.113016392478297 
-0.113016392478297 
0.005709558225572428 
0.009625686839179007 
-0.08107190765438786 
-0.01930028378079287 
-0.002148810902532304 
-0.1124618009133454 
-0.003552370177769609 
0.03566076011424706 
-0.08587107835916505 
-0.007820693974264705 
0.04067976657846038 
0.00904100788511784 
0.0163895924969088 
0.01415226103677343 
0.0163895924969088 
0.02282677349324512 
-0.0005149578761776106 
0.0163895924969088 
0.01605731817031099 
-0.04708818914545258 
-0.002124529810319123 
0.01264702469754109 
-0.002124529810319123 
-0.03544958012482187 
-0.004381036264886658 
0.01264702469754109 
0.004240352463057167 
-0.04305761095555709 
-0.002187235251506607 
0.01264702469754109 
0.01264702469754109 
-0.04305761095555709 
0.04462954117355768 
-0.01487091861893229 
-0.001311163159800294 
0.01057678690592026 
-0.02647198695247082 
-0.02858239877819565 
-0.001003530813879486 
0.004512010112579954 
-0.008911739752966807 
-0.0219166804205317 
-0.0260003798026907 
0.003119628553118543 
0.0313021538102078 
-0.001003530813879486 
-0.07304206853136101 
-0.001339690843784335 
-0.02858239877819565 
0.004914865315224138 
-0.008911739752966807 
0.01466197671265706 
-0.02858239877819565 
0.00883877930531702 
0.09869398238753478 
0.004595519233504652 
0.03683248092937742 
0.04007516759768797 
0.004595519233504652 
0.0725525944763734 
-0.03837771192355096 
0.0001476379774725231 
0.0001476379774725231 
0.03169579018678158 
0.0002119758551914117 
0.0008643209842576512 
0.1134537447249061 
0.03169579018678158 
8.479067572016338e-05 
-0.0001666757043364505 
-0.01746666936147663 
0.03169579018678158 
0.004407442830658741 
8.479067572016338e-05 
-0.0001038214061675109 
-0.02567468940806767 
0.03169579018678158 
-0.03040172041700026 
0.003082834831652995 
-0.0405947670831656 
0.0004511976934581525 
0.1247164467084626 
-0.01657257142351037 
-0.04504999507499071 
-0.01132188873107848 
0.004464141836121874 
-0.01132188873107848 
0.01357861498815389 
0.08264445585882385 
-0.001469020553752332 
0.03843936144304913 
-0.0669027807733962 
-0.04899771879017662 
-0.0004250191140817912 
-0.04899771879017662 
-0.0003238186111740366 
-0.0004250191140817912 
-0.04899771879017662 
-0.1063428764908069 
-0.003545019609155126 
-0.003564953828051046 
0.0001452977568520323 
-0.01005731919385175 
0.0001452977568520323 
-0.003713827843062923 
-0.00056624824349978 
0.0221789212342138 
0.02256394139307633 
0.06401172399398157 
-0.07218369170563886 
-0.01761431235082701 
-0.003888666337365257 
0.06678568016070249 
3.253230978267245e-05 
0.002861347302937227 
-0.0148531823788894 
0.01096088630444484 
0.001306131468712746 
0.00516439764015992 
0.002861347302937227 
0.003694492037012472 
0.002861347302937227 
-0.002135080652961615 
0.07201523915448897 
-0.01599156209961206 
0.04347167983977654 
0.002861347302937227 
-0.06014907618845096 
-0.08923471268840091 
0.002861347302937227 
-0.02522441116776486 
0.1308077547982099 
-0.002199973453109378 
0.0006477325013716676 
-0.003025117311433652 
-0.002199973453109378 
0.0004015770725253204 
-0.07230768850834188 
0.006833615002496725 
-0.05072395051387826 
-0.01139694175029579 
-0.006113957598635024 
0.05690837418466755 
-0.05254014405737197 
0.01644883331988885 
-0.05254014405737197 
0.03543306929268554 
0.01644883331988885 
-0.02222723816880623 
-0.02513562377328834 
0.01644883331988885 
-0.05254014405737197 
0.08113401694879165 
0.05172712866879669 
-0.05254014405737197 
-0.01139694175029579 
-0.05254014405737197 
-0.006113957598635024 
0.08113401694879165 
0.08113401694879165 
0.003403755073406161 
-0.0027942114725069 
0.05055147778585158 
-0.0027942114725069 
0.03788085848966992 
0.003403755073406161 
0.001994316639195323 
0.1117919906081493 
-0.00692718546558444 
0.009817041899235636 
-0.006787789909313269 
-0.01309151519822667 
-0.00692718546558444 
-0.07085111232917193 
-0.07085111232917193 
0.1086269902975488 
-0.08697892802423217 
-0.05165875311281037 
0.0001271851794712483 
0.0001271851794712483 
-0.06054916493868055 
0.0001271851794712483 
-0.001986107233177408 
-0.009122310686563575 
0.00107715047289795 
0.0008172608367293708 
-0.01117841571395395 
0.05084065073370839 
0.001958825804881226 
-0.009122310686563575 
0.04274320084353631 
7.875952238221695e-05 
0.00107715047289795 
0.00107715047289795 
-0.001709085584219988 
-0.01117841571395395 
-0.01050860799945585 
0.04760482866893349 
-0.009122310686563575 
-0.01117841571395395 
0.01592863286379902 
-0.009086585032560539 
-0.0387523182441156 
-0.004886509901254949 
-0.004886509901254949 
-0.0387523182441156 
0.03695272589164694 
0.04129987882089987 
-0.0387523182441156 
-0.004886509901254949 
0.06165959981267748 
-0.0299919437483243 
-0.1482918113798399 
-0.02376127994973882 
0.003120196672498841 
-0.02376127994973882 
-0.0387523182441156 
-0.004304914388658248 
0.058167280520954 
0.02746986640948923 
-0.00588536088091766 
-0.002197502143630028 
-0.004304914388658248 
0.05178297968672897 
0.0521352526664606 
0.03609904723529409 
-0.004304914388658248 
0.01446089159909202 
-0.002197502143630028 
-0.002197502143630028 
0.009018273258522551 
-0.0003962103386030372 
-0.0003962103386030372 
-0.006010594988889837 
0.05471062054966229 
-0.0255918799032715 
-0.01964450358419738 
0.006154149811676319 
0.006262271968675707 
-0.05308379982168341 
-0.001054253111538673 
0.001056969933481584 
-0.001244282090468812 
-0.04345206674862331 
0.01680936950918611 
0.01680936950918611 
-0.05267693171869064 
-0.0204692064006813 
0.008689055331486626 
0.0111216830965334 
0.01196915080628722 
0.003953088303189975 
-0.001859280804255727 
0.01196915080628722 
-0.001859280804255727 
-0.03191397978406231 
-0.009879096411943105 
-0.08593463389415966 
-0.00862436401479969 
-0.0009148619561291266 
-0.08593463389415966 
-0.07779582495478959 
-0.0009148619561291266 
0.001346728995146084 
-0.004352132032856647 
-0.00862436401479969 
0.0306301450816049 
-0.2254816105704503 
0.003331014133519724 
-0.0009148619561291266 
-0.009358109981986622 
0.0306301450816049 
-0.0009148619561291266 
-0.08593463389415966 
0.001409148032871206 
-0.04181697677536106 
-0.0242406916655549 
-0.01465722493720116 
-0.03103728501136065 
-0.04181697677536106 
-0.03808771551052505 
-0.01164763186885348 
0.01658092618562451 
-0.04181697677536106 
0.04394748292076495 
-0.0242406916655549 
0.0955953687694045 
-0.009755935805585534 
-0.03417769934102365 
0.7993967811296915 
-0.05166875574098586 
0.033239553445192 
-0.03417769934102365 
-0.009755935805585534 
0.005695888851641383 
0.00453394468279916 
0.01385829395929615 
0.003743249615655904 
0.01622749394017804 
-0.009755935805585534 
0.08495414728688856 
0.07374674740769931 
0.01988469163881757 
0.2071832760922176 
0.07233759049386169 
-0.03977022229908429 
1.266829908585104e-05 
-0.002079941813142468 
-0.05954503482358114 
-0.03181342308685205 
-0.01940408465274249 
-0.003051729369425774 
0.1879573014141025 
0.065849315064053 
-0.01925149394855116 
-0.003051729369425774 
-0.01557365134121926 
-0.1255449622365974 
-0.002930980249517818 
-0.01940408465274249 
-0.1681984673962667 
0.04645291674002539 
-0.001186788645708944 
0.006902609996291789 
-0.06313678935354951 
0.01371417520042967 
-0.002766039898077922 
-0.001186788645708944 
-0.001186788645708944 
-0.001186788645708944 
-0.001706415290263862 
-0.003212867335637015 
-0.002455277946783857 
-0.001186788645708944 
0.02491487213328935 
0.0964798812736069 
0.0964798812736069 
0.09407042227907832 
0.00649617574729958 
0.0232105514178756 
0.0232105514178756 
0.02491487213328935 
-0.0001230924962742196 
0.09407042227907832 
0.00649617574729958 
0.2044792552325113 
0.008312705187596305 
0.2044792552325113 
0.008312705187596305 
0.004394835299240564 
0.004417812753745618 
0.1174520477115248 
0.004394835299240564 
0.004417812753745618 
0.1174520477115248 
0.1174520477115248 
0.1333419325237103 
0.02258130109514231 
0.028426663596413 
0.1174520477115248 
0.008312705187596305 
0.1174520477115248 
0.1174520477115248 
0.0566002296331484 
-0.005555856578798067 
0.01090281800944542 
0.001779138655533002 
0.04657411049066427 
0.03443830190889889 
-0.03520774852044385 
-0.03520774852044385 
-0.005555856578798067 
-0.03520774852044385 
-0.04910582069957882 
-0.03520774852044385 
-0.03520774852044385 
-0.005555856578798067 
-0.005555856578798067 
-0.04166144005944331 
0.04833655558973379 
-0.008478832856913485 
0.03683912728139807 
0.03683912728139807 
-0.02274556042946973 
-0.008478832856913485 
5.032998502294643e-05 
-0.02308574999059999 
-0.04311944727410151 
-0.008478832856913485 
5.032998502294643e-05 
0.07476834392046595 
0.001647918626115993 
-0.07648312353958808 
8.284155908344188e-05 
0.02807379662764507 
-0.01088289160269903 
0.0004087004804383368 
1.524632230126656e-05 
0.04727518434970489 
1.524632230126656e-05 
0.02599539410324604 
0.0004087004804383368 
0.1174511102415245 
0.02807379662764507 
8.284155908344188e-05 
0.09967442493033075 
0.02919265714516774 
-0.0008340358353284723 
0.02807379662764507 
0.0003379932202644513 
-0.01818530774815937 
-0.1185349053234122 
0.006700416750042917 
0.006700416750042917 
-0.01167331576810971 
0.0554579539162443 
0.001958797823135628 
0.0003379932202644513 
0.09663755820419874 
0.0003379932202644513 
0.05649093502291239 
-0.00471082600322557 
0.02082413682224725 
0.0003379932202644513 
0.0003379932202644513 
-0.0007365067699448566 
-0.0002567508686768768 
0.1445059114036098 
0.0003177058931955976 
-0.0005091730115473783 
0.0103872235279902 
0.0185540047580218 
0.0003177058931955976 
0.007618683496981921 
0.0003177058931955976 
0.02028475228109041 
0.1357504676180873 
0.06586638634815502 
0.0003177058931955976 
0.001564190521117887 
-0.004845593997603592 
0.0006910910005569783 
-0.07393854970756365 
0.0003125205180273497 
0.0003125205180273497 
0.0006725542299084333 
0.0003125205180273497 
0.0003125205180273497 
-0.004845593997603592 
0.0003125205180273497 
-0.07393854970756365 
0.08345426552464869 
-0.01508312149232682 
-0.07393854970756365 
0.01434557346447976 
-0.0006952412529239891 
0.0003125205180273497 
0.0003125205180273497 
0.0002017098480159915 
0.0001666945074752744 
0.0002017098480159915 
0.004933403076644226 
0.04560579526643165 
0.2010760351278668 
-0.02216091536141147 
0.0002017098480159915 
0.0002017098480159915 
0.0002017098480159915 
0.04325576575014426 
0.03765311368732127 
0.0002017098480159915 
0.09326526054218456 
0.08704330217963585 
0.2423031061357943 
0.01795073429162556 
0.01687185934794663 
0.008287819738690576 
0.01795073429162556 
-0.005338230611904846 
0.01391041111228942 
-0.01000700734704348 
0.04909120079763789 
0.009865583064089439 
0.0002235458968150919 
0.0002235458968150919 
0.02159606018182404 
-0.005338230611904846 
0.0002235458968150919 
0.02091399913281674 
0.05624074536487873 
-0.005338230611904846 
0.09125533039569154 
-0.02233056016082674 
-0.005338230611904846 
-0.05702357758299116 
0.0002235458968150919 
0.009567880321428201 
-0.02634220266167563 
-0.0004098862865404846 
0.09868425930671926 
-0.0004098862865404846 
-0.02162413062876926 
0.01544566384746747 
0.0575430345366417 
-0.0004098862865404846 
0.01532408924064513 
-0.0002694801036591994 
-0.0002694801036591994 
0.02105054552634329 
0.01531810413586859 
-0.0003201637577128229 
0.009070931198097959 
-0.001106699642333649 
0.01370324009116609 
0.06394334978580039 
-0.0004098862865404846 
0.08121795278310499 
-0.03988742924888004 
-0.04085398727367805 
0.004584419135294627 
0.00741386169477653 
0.0730814670410055 
0.007370053367420707 
-0.03694531335718849 
-0.03988742924888004 
0.02535936086235191 
0.1241494170515007 
-0.03235025048660289 
-0.03988742924888004 
0.0003417821934694394 
-0.05768552218667739 
0.03631993926214351 
0.04145742527918495 
-0.05768552218667739 
-0.03933336068328596 
0.02803078445868313 
-0.008316081260785584 
-0.005054160246832986 
-0.005610935083341591 
-0.005610935083341591 
0.04527811247474407 
-0.2313026342560373 
-0.005610935083341591 
-0.6370564585866972 
-0.2313026342560373 
-0.3433463278990341 
-0.1474788801418607 
-0.1234858163692892 
-0.3660447580121265 
-0.005610935083341591 
0.07953082728399602 
0.02170749194953816 
-0.001767910410550235 
0.02170749194953816 
0.03293613095518402 
0.02170749194953816 
0.02170749194953816 
-0.09608877642814662 
0.04265154022448635 
-0.02181704782111639 
-0.02633833964464717 
0.03293613095518402 
0.07553104943225634 
0.03293613095518402 
-0.009078704772929968 
0.07553104943225634 
0.02170749194953816 
0.08255352361988859 
0.0003891625446642145 
0.001224307134450358 
-0.007093402181192438 
-0.003154373287699287 
0.001338976530367983 
0.0003891625446642145 
0.001663706424221628 
0.01591076413555751 
-0.05685250315179691 
-0.02148375050246705 
0.0003891625446642145 
-0.003227890221324644 
-0.05685250315179691 
-0.0124525038805917 
-0.003227890221324644 
-0.02148375050246705 
0.07493331751173499 
-0.0428975299788239 
-0.0001338556751081392 
-0.0428975299788239 
-0.0001108477158778211 
0.01069598507445751 
0.04714574176676038 
-0.001921630932481905 
0.01069598507445751 
-0.0428975299788239 
-0.01014833459103603 
0.07493331751173499 
0.01069598507445751 
-0.0001108477158778211 
0.01048908636052147 
0.06158302933234603 
0.06158302933234603 
0.06158302933234603 
0.00686560310012802 
0.06158302933234603 
0.00686560310012802 
0.06158302933234603 
0.06158302933234603 
0.06158302933234603 
0.1208452012913442 
-0.001290164325979838 
0.05096102071452391 
0.07056411088676134 
0.05292569010145749 
-0.006219225685188366 
0.09499565676371544 
-0.004830360137971682 
0.05096102071452391 
0.05096102071452391 
0.03395854418159282 
0.03435415718814724 
0.05319353142641124 
0.03457440596694335 
0.01477538813926698 
-0.005457835068559385 
0.03363124551857922 
-0.004830360137971682 
-0.03927710868287886 
0.0009386259154121483 
-0.006676385273409304 
-0.002266099810819207 
0.06413864577350251 
-0.0008693848937986671 
-0.004381998643099237 
-0.03614154709138149 
-0.006838910014280069 
-0.1133352923295697 
-0.0008693848937986671 
-0.006838910014280069 
-0.0008693848937986671 
-0.006676385273409304 
0.01385699050250854 
-0.0008693848937986671 
-0.001325623890328412 
0.0009970332591786597 
0.01023993391507677 
0.03740632490345779 
0.08781818375526113 
0.01553035679264761 
0.08781818375526113 
-0.00638742141951828 
-3.082365987186278e-06 
0.08781818375526113 
0.0008741400962313876 
0.0790058245370602 
-0.00638742141951828 
0.01814017812089376 
0.08781818375526113 
0.08781818375526113 
0.07138454064835532 
0.08781818375526113 
0.02645047601418887 
0.003157717500788026 
0.003157717500788026 
-0.0007215823007040895 
0.01470005689929734 
0.0215780554743382 
0.00456419836530199 
-0.01254723495682513 
0.003157717500788026 
-0.0003375928555574259 
0.006237965403478258 
-0.01254723495682513 
-0.003077004785799474 
0.01470005689929734 
-0.0574100770849381 
0.003048612601025449 
0.02267010159510921 
0.003377319199647943 
0.003377319199647943 
0.001240078451870694 
-0.001776636927286151 
-0.08721844406762429 
0.003048612601025449 
0.001240078451870694 
0.001240078451870694 
0.003048612601025449 
0.08012768332961964 
0.003377319199647943 
-0.0215351965609254 
-0.05388720725889818 
-0.0214589745241423 
-0.0215351965609254 
-0.02173466810741693 
-0.0214589745241423 
0.005203821737804505 
-0.03286932833476476 
-0.02173466810741693 
-0.0192254161822804 
-0.02173466810741693 
-0.1320162935622581 
0.03115840467184521 
-0.03186811290481705 
-0.0192254161822804 
-0.003991219837222161 
0.009043353290121608 
0.0160327343554327 
0.01175589311270385 
0.009247788132216356 
-0.09402791596855407 
0.01461091843844408 
0.0072957803824355 
0.0002680210356013757 
0.002036692870213446 
-0.02424317126521714 
-0.0001785454106890663 
-0.0001785454106890663 
-0.0001785454106890663 
0.001007339813202582 
-0.004232149084467902 
-0.007421462905184284 
-0.003679974874945258 
-0.0001785454106890663 
-0.2259647002953302 
-0.0001785454106890663 
0.2871463074460847 
0.08903981609160441 
0.08903981609160441 
0.08903981609160441 
0.08903981609160441 
0.08903981609160441 
0.08903981609160441 
0.2503585120833275 
0.08903981609160441 
0.01030129338620974 
-0.01415584596581611 
0.004147379897577168 
0.02173190429793848 
0.05533083482267821 
0.05533083482267821 
0.02479338256089713 
0.03375731312127318 
0.004147379897577168 
0.02971452406930697 
0.04309582224275831 
-0.0006828966556828547 
-0.0006828966556828547 
0.03263861212164994 
-0.0006828966556828547 
0.004234638625170279 
0.0617649449689177 
-0.0006502114412111637 
-0.04442839680900645 
-0.0006502114412111637 
-0.04442839680900645 
-0.04442839680900645 
-0.0006828966556828547 
-0.0006828966556828547 
0.001373306537547806 
-0.0004671559970366463 
-0.0004671559970366463 
0.08086038001303618 
0.001373306537547806 
0.08086038001303618 
-0.02023717259042772 
-0.04378219010804599 
0.08086038001303618 
0.08086038001303618 
-0.0004671559970366463 
-0.0004671559970366463 
-0.2608324258438258 
-0.08333127308540945 
0.06024509807524613 
0.0536044667078226 
0.147922630844137 
0.01512799485614554 
0.09277597260336333 
-0.08333127308540945 
-0.005235785356829824 
0.147325423859878 
0.1444852808243871 
0.06024509807524613 
0.06024509807524613 
0.06024509807524613 
0.1495657309512448 
0.0001404061828812843 
0.006161980165985534 
0.008518718665652292 
0.006161980165985534 
0.006161980165985534 
0.008081848606367322 
0.01106142705885452 
-0.01450980726317004 
0.007837357259393555 
0.01412794801862072 
-0.000611717144740211 
0.007109941508433859 
0.01412794801862072 
0.09638809927367337 
-0.0005535056053515616 
-0.000611717144740211 
0.07125298278906805 
0.0005261273626549479 
-0.04121224259597897 
-0.04089032992390471 
-0.008729670059842601 
-0.001062401718426616 
0.004076594691926691 
0.0005261273626549479 
0.06650259689325475 
0.02084478840165811 
0.01380521971573765 
0.02084478840165811 
0.0002542243169035433 
-0.03685600644680177 
-0.01459614626174309 
0.01464786809458809 
0.0002542243169035433 
-0.001006240197011922 
-0.07407128914624597 
-0.02376101099693717 
-0.01579561052418798 
0.07662580500844761 
-0.02927874351853859 
-0.0346145536259728 
0.1234585000128152 
0.01287193332598811 
0.2330767713698323 
0.06785056534369749 
-0.09486297575664433 
0.005503956388766232 
0.01529219833266536 
-0.01125926323797895 
0.01919409385824163 
0.01287193332598811 
-0.008176147161064223 
-0.07435328091610857 
0.004242140790859878 
-0.01821904499122476 
0.3292324512887185 
-0.06762677423842506 
-0.1999785896514008 
-0.0001901623814567998 
-0.08118427267656189 
0.009042479440393061 
-0.0001901623814567998 
-0.0001901623814567998 
-0.0001901623814567998 
-0.006009532173436348 
-0.008077858967699332 
-0.0001901623814567998 
0.3292324512887185 
-0.08648060133851927 
-0.05768012977202438 
0.01833414158725683 
0.04719239448196899 
0.02099505204730067 
0.000962532804056867 
0.0002078095742436281 
-0.04489148176164163 
0.001410220502656552 
0.001169401396139148 
-0.1882290642734792 
0.08504283246537259 
0.001030779775058396 
0.02099505204730067 
0.03883357018679837 
-0.006843914984440379 
-8.603693867062707e-05 
-7.17885507112845e-05 
0.000746080401410757 
0.004039012120574443 
-7.17885507112845e-05 
-0.08124260507459825 
0.002057700549088634 
-0.08343501403503918 
-0.08014767709581072 
-0.08343501403503918 
-0.08014767709581072 
-0.007617764666062886 
-0.008709999811427312 
-0.20970229305817 
-0.000423346055976727 
-0.008839471897190533 
-0.005974721136746014 
0.06410779314444061 
-0.01949187986218803 
-0.03135766999856996 
0.004540345710413798 
0.05883679511782997 
-0.03402653947782377 
0.05883679511782997 
0.07210714257395558 
0.005708025078287715 
0.005708025078287715 
0.02367952234137784 
0.01196858742216719 
0.03472885300459718 
-2.792209959170643e-05 
0.01196858742216719 
0.01134607046663881 
0.01134607046663881 
0.01134607046663881 
0.01134607046663881 
-0.06054883635124964 
0.07808353775863126 
0.07808353775863126 
0.07808353775863126 
0.07808353775863126 
0.07808353775863126 
0.04353187983118419 
0.07808353775863126 
0.05166465431162225 
0.07808353775863126 
0.04353187983118419 
0.07808353775863126 
0.0341011167089172 
-0.02078131514713387 
0.02489197466135903 
-0.007929770013159679 
0.0005798344181685167 
-0.02463036442662242 
0.005621320585757515 
-0.02078131514713387 
0.08110159533938913 
0.02489197466135903 
0.01707177899770676 
0.04564416513140074 
0.07797408774969027 
0.02659541823014474 
0.008766899820059338 
0.00211268818231243 
-0.01397302169067009 
0.00351021893914769 
-0.0115722355834352 
0.002340841518239713 
0.00100237488918919 
0.001771971765940831 
-0.04482481388490493 
0.03334859807151828 
0.07216944763309577 
-0.04274081856632989 
-0.02398171804760614 
0.04275233224952472 
0.008050345450312373 
0.008050345450312373 
0.02805706434710841 
0.08343578460913215 
0.01651724652438723 
-0.1409949601683859 
0.008050345450312373 
0.008050345450312373 
0.008050345450312373 
0.008050345450312373 
0.08343578460913215 
0.4084128526875545 
-0.01267749145682211 
0.1726917970185731 
0.1528331599290712 
0.1320624575486233 
-0.01083687654751582 
-0.004797509339962489 
-0.01083687654751582 
0.1809466220922607 
-0.004797509339962489 
1.356762019696906e-05 
-0.06863109347652359 
-0.06863109347652359 
0.1596887508283076 
0.02852781585722694 
-0.01824175877134374 
-0.02989561478461142 
-0.06207270387148202 
-0.05839085640013043 
-0.05875028846470584 
-0.05875028846470584 
-0.06386777040101366 
-0.06386777040101366 
-0.04750006034982545 
-0.03078973127265635 
-0.024523086371455 
-0.2940260277881155 
-0.1835008323580192 
-0.1835008323580192 
-0.1835008323580192 
-0.1835008323580192 
-0.04914629464001741 
-0.04914629464001741 
-0.03373290174196977 
-0.198064871197135 
-0.009057147323438135 
-6.149074649422838e-05 
0.06074410185242927 
0.06074410185242927 
0.06170276326289154 
-0.008145249636656398 
0.006989905416803274 
0.06074410185242927 
-0.008145249636656398 
0.004203129032249514 
-0.03993176702539883 
-0.03993176702539883 
-0.03953749399093764 
0.05235473286887885 
0.1630572348712924 
-0.101746517273173 
0.1770045534514535 
-0.005497445614253137 
0.1727483974252993 
-0.005497445614253137 
-0.09686243066540355 
-0.007480535177324011 
-0.09584904688200294 
-0.0496204795166229 
0.1384442362108508 
-0.005078228594693853 
-0.0005637848643100525 
0.0006015331630149483 
-0.02100006612976448 
-0.0005637848643100525 
-0.004705019610783103 
0.01311649956786114 
-0.06653964850845316 
0.003426175223394677 
-0.00292935333099424 
-0.05475990594602564 
0.0102765048804584 
0.003864585615931191 
-0.01908946976233681 
-0.004886598438067057 
-0.0004591606391566198 
0.007516827908669151 
-0.004886598438067057 
-0.01499626863478982 
-0.1043472237505944 
-0.1043472237505944 
-0.1043472237505944 
-0.0002425858713734486 
-0.1043472237505944 
-0.1043472237505944 
-0.01072688199965142 
-0.1043472237505944 
-0.0002425858713734486 
-0.06023306790056156 
0.01251673044816691 
-0.001331852081159049 
-0.001331852081159049 
-0.001331852081159049 
-0.008784694198671422 
-0.001856263404302881 
-0.008309093555368376 
-0.008784694198671422 
-0.008784694198671422 
-0.03254273675583831 
-0.01221943273424919 
-0.01221943273424919 
-0.01221943273424919 
-0.01221943273424919 
-0.007340693938716834 
0.133841237299738 
0.133841237299738 
0.1282073177115144 
-0.0002270792675153987 
0.01184021756110585 
-0.05397097830037488 
-0.0002270792675153987 
0.0489839968063765 
-0.1762763402869064 
0.002752181711489205 
-0.1717245788320362 
-0.1714919104269911 
-0.05241248780505767 
-0.05397097830037488 
0.04866967725134561 
0.07206515920744969 
0.0489839968063765 
-0.03735355543918698 
-0.05397097830037488 
0.02160033596620573 
-0.01158756291004015 
0.02160033596620573 
-0.04096962212264312 
0.02160033596620573 
0.02160033596620573 
0.01375676386921428 
-0.001652395381505948 
-0.09945612516183712 
0.01703166146706989 
0.01972480672779538 
-0.02989150778149554 
0.02025540188974442 
0.0002563025914547094 
0.02008102210074138 
0.01472239844873842 
-0.005657400024311807 
0.1035498031969816 
0.1454597012420989 
0.0004572516758701681 
0.04067384762101101 
0.0002563025914547094 
0.1026635397463637 
0.0002563025914547094 
0.0002563025914547094 
0.0002563025914547094 
-0.0007484828314008704 
-0.01360496129637441 
0.01787072111393536 
0.03725229573388884 
-0.0005659512901823047 
-5.288418255350572e-05 
-0.001954184753136246 
-0.0005659512901823047 
0.03231292573407483 
-0.0005659512901823047 
-5.288418255350572e-05 
-5.288418255350572e-05 
-5.288418255350572e-05 
-5.288418255350572e-05 
-0.003027950360922484 
0.0003272614732566294 
-7.514924018535492e-05 
0.0265954427693179 
-0.001789138775819764 
0.04543385240525318 
-0.005171105147111279 
-0.0002408806002567328 
-0.005249737510458589 
-0.03260649144514294 
0.01109519542771717 
-7.514924018535492e-05 
0.04315253652970138 
0.04137534810711449 
-7.514924018535492e-05 
-0.002879984569615866 
-0.002879984569615866 
-0.0006894700805286988 
-0.002879984569615866 
-0.002879984569615866 
-0.002879984569615866 
-0.03729289489683444 
-0.002879984569615866 
-0.002879984569615866 
-0.004129993848591951 
0.04334930123888041 
0.0001061972678710367 
-0.008962518261341828 
0.0001376005310486706 
0.0001061972678710367 
0.008633926478971307 
0.0001061972678710367 
0.0003765357075781059 
0.05939920661261189 
0.00277130284816284 
0.04763368902962065 
0.04763368902962065 
0.02638735874898465 
0.07928578952517421 
0.00804252961141151 
0.02166806089366994 
0.0003765357075781059 
-0.0009003905633056251 
0.0003765357075781059 
0.0003765357075781059 
0.00804252961141151 
0.02166806089366994 
0.02166806089366994 
-0.03957554533504408 
-0.03040847484901371 
-0.1127282440477864 
-0.01375397807032328 
-0.0002963415218692369 
0.01541039008678958 
-0.03040847484901371 
-0.0006315051235947725 
0.02720664087493085 
0.02720664087493085 
0.02720664087493085 
0.1297943217873477 
0.1289153851009529 
0.1299981510479127 
0.07451154229547274 
0.1299981510479127 
0.08266023891264335 
-0.1081777929809292 
0.08266023891264335 
-0.1177645925327046 
0.08138222965184543 
0.04413958985065454 
0.01505567206009154 
0.1046661349787893 
0.02021581578751622 
0.01505567206009154 
0.104546806191698 
0.104546806191698 
0.104546806191698 
-0.0008991081528233716 
-0.01029549368329779 
-0.005326481107539562 
-0.005513915637316559 
-0.0008991081528233716 
0.04185766989500367 
0.130993652911316 
0.1306638296695759 
-0.0008991081528233716 
0.04088663416429626 
-0.01029549368329779 
-0.001120618143690128 
-5.824919722126794e-05 
-0.02061909545784694 
-0.0008991081528233716 
0.1217438104970129 
0.1306638296695759 
0.004854284783709901 
0.2824731066604401 
-0.0373866278349184 
-0.02735828749816989 
-0.1682659807671649 
0.05837094238232084 
-0.009068459053451258 
-0.0369349300463464 
-0.02429314597429448 
0.05122933670015106 
0.03676590516616389 
0.05122933670015106 
0.06547830085244406 
0.05122933670015106 
-0.0369349300463464 
0.05122933670015106 
-0.09062489066602128 
-0.08093595728274244 
-0.0534124458875318 
-0.01236919206125776 
-0.01646049231597689 
0.001308824681109896 
-0.05009865487361012 
-0.01619233545321026 
-0.05320254172927255 
-0.06401253299152765 
-0.0171012060945826 
-0.01643616941621889 
-0.05567814044846521 
-0.0435199310233361 
-0.08093595728274244 
-0.01646049231597689 
-0.008893368787373859 
-0.008842647575530372 
-0.001405141468731233 
-0.01881473287216441 
-0.2485964868917411 
-0.1173401890981705 
0.04367349080487157 
-0.01881473287216441 
0.0852105677797716 
-0.1173546927176529 
-0.0002512806891067246 
0.01616011643134246 
-0.000235665493479099 
0.02049918813149018 
-0.04771922367812798 
-0.2147696197803458 
0.1076858781230061 
0.1076858781230061 
-0.1553003414162903 
-0.06566115196689584 
-0.2147696197803458 
0.03945459337704049 
0.1269021171023743 
-0.01289278431145658 
0.09852710477844812 
-0.06582886090925452 
-0.02186165758144234 
-0.06566115196689584 
-0.2147696197803458 
-0.2071891770079948 
0.00849210449962211 
0.09175471073760059 
0.1137272927335597 
0.00849210449962211 
0.01229299406026969 
0.00849210449962211 
0.00849210449962211 
0.00849210449962211 
0.00849210449962211 
0.00849210449962211 
0.02134208799519607 
-0.003141602008033584 
0.05541993272847232 
0.03046823515591111 
-0.001902629273584387 
-0.02661431325353097 
0.06137692994051042 
0.01245225225170991 
0.06022749867651631 
-0.04561420759172299 
0.05541993272847232 
0.06375896240734676 
1.97402562716306e-06 
-3.960807291652569e-05 
0.03438036016673798 
0.03438036016673798 
0.0004981628281442449 
0.003195494884369493 
0.01837782380585963 
0.0004981628281442449 
-2.849214360414838e-05 
-0.06828220914134157 
-0.02054709162087069 
-0.004833047465571064 
0.02799704452911439 
0.015269960783587 
0.002592066329859564 
0.002130874262967433 
0.01144157246677789 
0.002130874262967433 
0.08180967015214116 
-0.04705728847852925 
0.01650024058493037 
0.08180967015214116 
-0.01701463455376701 
-0.01701463455376701 
0.08180967015214116 
0.02228694625736693 
0.002130874262967433 
-0.04705728847852925 
0.0001436345263090608 
0.4771612811402278 
0.08645377929487659 
0.1511973973946745 
0.4909978565359952 
0.08645377929487659 
-0.0507499904483537 
0.08645377929487659 
0.08645377929487659 
0.08645377929487659 
0.08645377929487659 
0.489187780775541 
0.08645377929487659 
0.08645377929487659 
0.487857064131186 
-0.0507499904483537 
-0.0507499904483537 
-0.000423423513767205 
0.05745518333018502 
-0.01228358557166348 
0.0726294890084024 
0.0726294890084024 
0.05745518333018502 
0.1042332300566583 
0.07099907062269861 
-0.000423423513767205 
0.05745518333018502 
0.0879813083058755 
-0.01854998310048512 
-0.1378681081942482 
-0.0004377727753699953 
-0.1601665052016161 
-0.01854998310048512 
-0.1543283659765267 
-0.01854998310048512 
-0.002427601598454229 
-0.02364995470115089 
-0.01854998310048512 
-0.014714275316462 
0.0336652785109618 
0.0033628745235191 
-0.1428140787234698 
-0.02808582142847827 
-0.1426345479432453 
-0.1426345479432453 
-0.04912208287046192 
-0.1426345479432453 
-0.1426345479432453 
-0.1426345479432453 
0.001295931320155658 
0.0603595879081348 
0.0603595879081348 
0.08313284438118174 
0.001527553604757798 
0.0603595879081348 
0.09224644948407809 
0.00495516268678131 
0.01136216837184723 
0.0603595879081348 
-0.0228085573750984 
0.0603595879081348 
0.01112061586941647 
0.0383620114769728 
0.08757381558700152 
0.005005652936446123 
0.3920411491047925 
0.08516341308362993 
0.07820116995334793 
0.0878448262449215 
0.005005652936446123 
0.02612407211619992 
0.08175386226604071 
0.08757381558700152 
0.3920411491047925 
0.004329574027644325 
0.0006093166756384991 
0.004660791825128665 
0.09076409328352546 
-0.0006206229607271532 
-0.1560918715898167 
0.09584705092296951 
-0.02069714498566999 
0.04691733408147134 
0.04663493849203395 
-0.1571709661968595 
-0.1571709661968595 
-0.009302044220444573 
-0.01568734938748794 
0.01871631906866814 
-0.1571709661968595 
-0.01687560521267665 
-0.0598883711060575 
-0.02174601420913216 
0.002474544195906023 
-0.02116366645330313 
0.04067158584381678 
-0.06363517782515568 
-0.04181961547356525 
-0.06733403936854834 
-0.01048626531424393 
-0.0001306863765546931 
-0.0001306863765546931 
-0.06456252929255586 
-0.06733403936854834 
-0.06363517782515568 
-0.06456252929255586 
-0.1587040026801003 
-0.11405706681942 
0.04663935291963012 
-6.94866981560648e-05 
-6.94866981560648e-05 
-6.94866981560648e-05 
-0.03752773903484932 
0.0006218916251616094 
-0.05560860979449507 
0.02062599983568061 
3.373559823155979e-05 
-0.1351587291415686 
0.02890423256373321 
-0.03518206974434889 
-0.1369069877211892 
0.001203484002741507 
0.0547647551675074 
0.02863341101815575 
-0.1351587291415686 
-0.05532004878410886 
0.0002845418262271625 
-0.02301658905440851 
0.09493330405075487 
0.1366142580209899 
0.2071273303491317 
0.1366142580209899 
-0.05594968985503207 
0.03165491810763483 
0.1366142580209899 
-0.0149052898074887 
-0.05749535949890832 
-0.01481165522048265 
0.1366142580209899 
0.01143159459202859 
0.1366142580209899 
-0.01135784900180828 
0.1366142580209899 
0.02064834403965366 
-0.0002191861262047033 
-0.0002191861262047033 
0.02048854826811227 
-0.0002191861262047033 
-0.006033675521910654 
0.0543036566186048 
-0.09868872738810908 
0.0543036566186048 
0.0543036566186048 
-0.1395925465320448 
0.0543036566186048 
-0.001839773988063364 
0.1243230052023965 
0.126123549292936 
0.1139378591534598 
-0.001257078855749995 
0.01711033137558476 
0.173430034422945 
0.126123549292936 
-0.06212087249405165 
-0.00308864017191874 
0.005991480826704579 
-0.00970871038825414 
-0.04357860091631896 
0.05295740617571384 
0.05295740617571384 
0.03731520135879517 
-0.0001435503707629715 
-0.00308864017191874 
0.00605242453897271 
0.0006845368012373455 
0.0006845368012373455 
-0.0001435503707629715 
-0.0001435503707629715 
0.005991480826704579 
0.07375550315456085 
-0.009190251128398066 
0.08311429955763891 
-0.01207018861690461 
-0.009972510294239159 
-0.007132205410141413 
-0.04203431482235086 
-0.00965096605066464 
-0.006651030252673384 
-0.01207018861690461 
-0.007132205410141413 
-0.009190251128398066 
-0.00965096605066464 
-0.009040627315612809 
0.02567397867721481 
0.07051307232814169 
0.08769064293260975 
0.07051307232814169 
0.05725872762273222 
0.08802738448980814 
0.05964543169737693 
0.01899384887163267 
0.01899384887163267 
0.07051307232814169 
0.01899384887163267 
0.07051307232814169 
0.05725872762273222 
0.07051307232814169 
0.07051307232814169 
-0.1877146296217608 
-0.02590399915410992 
0.3125842008977145 
-0.03358404074663263 
-0.03358404074663263 
-0.1877146296217608 
-0.1877146296217608 
-0.1877146296217608 
-0.1877146296217608 
-0.1877146296217608 
-0.1877146296217608 
0.3125842008977145 
-0.03677795346650047 
-0.1877146296217608 
-0.03358404074663263 
-0.03677795346650047 
-0.1877146296217608 
0.3125842008977145 
-0.004541503801817519 
-0.05214014069205177 
0.01110885923270963 
-0.0009560825757337431 
-0.0009560825757337431 
-0.001119565069993262 
0.1634771176205619 
-0.0009560825757337431 
-0.0482166477356038 
0.1634771176205619 
0.01110885923270963 
0.1634771176205619 
-0.05824524064945037 
0.0007037294253158396 
0.0007037294253158396 
0.005466100781464952 
0.1138379990957295 
0.05441596460042695 
0.005466100781464952 
0.04376303012526881 
0.005345631437849137 
0.0947333025107828 
0.00598752276242224 
0.03859114938250346 
-0.01563305445938752 
0.02834355325350287 
-0.01563305445938752 
-0.01600831075508567 
-0.01563305445938752 
-0.01066275705532064 
0.0213429564783385 
0.01656250321139536 
-0.008609939283481581 
0.0001304825413087284 
0.001764922988800391 
-0.0004803017510688884 
0.002755862589006815 
0.01542077587990902 
0.0005811271876843391 
0.09031703590457819 
-0.0002592425301955465 
0.000104321396739882 
0.006776809111892249 
0.01137530320117896 
0.01269081096669923 
0.01137530320117896 
-0.03362649776122274 
0.02089117665024005 
0.03162798078731403 
0.004266161615580848 
0.01053354849939292 
0.01269081096669923 
-0.03362649776122274 
-0.05926548392722219 
-0.03362649776122274 
0.08119936609882475 
-0.1334934528882312 
-0.08529663998314177 
-0.1340901126145488 
0.1053336567567279 
0.01336884351733181 
-0.02374645425458106 
0.001499303118227891 
-0.007894155434382202 
-0.02374645425458106 
0.1605317365645409 
-0.02374645425458106 
0.001499303118227891 
-0.001576313703257033 
-0.00564788930403623 
-0.03053180144008653 
