solver_type L2R_L2LOSS_SVC
nr_class 2
label 1 -1
nr_feature 161386
bias -1
w
-0.006218065091154088 
0.0005676712130126106 
0.09008959968248441 
-0.003611650494760484 
0.00115496359046566 
0.9329328385618199 
0.07634975770469357 
0.08480115918746686 
0.01934331679303457 
-0.0002286478235426214 
0.0002530140009301345 
0.01934331679303457 
0.01934331679303457 
-0.003828114627924374 
-0.003618507377882187 
0.1308144662116096 
0.4420039171313609 
0.06686976492830332 
0.008837368339091455 
0.09899657889772845 
-0.003618507377882187 
0.02964436440474193 
-0.003618507377882187 
0.1266728349418322 
0.06686976492830332 
0.008837368339091455 
0.0288159474270516 
0.1298206497900518 
0.06686976492830332 
-0.003974130607411321 
0.02373384565718836 
0.0005271075045990947 
-0.003914528109231964 
0.06686976492830332 
0.008837368339091455 
0.0007568921161159029 
-0.003618507377882187 
-0.05160008154861157 
0.0006825899505566194 
0.02319308467255162 
0.2257270832822653 
0.01588436961493154 
-0.000814582706325271 
0.03062302233503832 
0.02261463066204317 
-0.003451220667875577 
0.009249782393620867 
-0.00346344254308305 
0.0006244139423792199 
0.0006244139423792199 
0.6829730886335998 
0.02319308467255162 
0.0180764925081045 
0.02319308467255162 
-0.003451220667875577 
0.01588436961493154 
0.02319308467255162 
0.01588436961493154 
-0.000501184338345517 
0.02098607264586648 
0.003490267984816928 
0.01588436961493154 
0.003490267984816928 
0.02570671875044857 
0.02703717580567186 
0.02473928400059961 
0.0001990479170491313 
0.0002240143323217478 
-0.001261640279271987 
0.001192711015631199 
0.01704038346122848 
0.07068631461847388 
0.0001990479170491313 
-0.0003817547891851272 
0.5760479210398631 
0.02468316506576724 
0.3964760040349999 
0.02468316506576724 
0.0001115306522210532 
0.1279158755658707 
0.03599912051703763 
0.02656244306825247 
0.001192711015631199 
0.129076950671994 
-0.007205282296585328 
-0.03482642345445418 
0.005570910891733618 
0.009113873415440173 
0.01525602267907947 
-0.03434629809319755 
-0.007205282296585328 
0.001276352634446923 
-0.01277228344508066 
0.02418880616617399 
0.1360115925525062 
-0.00799359287880029 
0.8796213168678063 
-0.02889420958157281 
0.02349297163041928 
-0.02992563770683227 
0.06707297848284383 
-0.0007341292964690817 
0.004836115858574992 
0.001754900163277048 
-0.007205282296585328 
-0.00146267672528548 
-0.01154246183639905 
-0.001424105935927767 
0.03198710875135952 
0.03231471793129128 
0.03434695167008929 
-0.002048118559731027 
-0.008729695331899724 
0.02890090959921818 
0.8947703953191035 
0.05121131341195526 
-0.06052817181922591 
-0.001324883128335683 
0.01740712332219773 
-0.001440656395846011 
0.02890090959921818 
-0.008729695331899724 
0.01641639017947264 
0.01906861274886137 
0.0297409552254499 
-0.01050515034808278 
0.100711100578666 
-0.03052417218051996 
0.007951236425999094 
0.09242649409861418 
0.06213732717541426 
0.04180313673770549 
0.02152655225310442 
0.0006651975267293763 
-0.007171606233156809 
0.03861528651482711 
0.08817231067959963 
0.03861528651482711 
0.08817231067959963 
0.03861528651482711 
0.0006651975267293763 
-0.0003313354666505243 
0.08800953015856978 
0.08817231067959963 
-0.0002135093096485121 
0.01348494907966538 
0.003416862570230715 
-0.01526892526046246 
-1.929603320844068e-05 
0.01642554749315388 
-0.01562226949413509 
0.004316567100882504 
-0.001396157923000256 
0.06823016329298352 
0.06666156867735053 
-0.01455790736007905 
0.03295580225011942 
-0.01526892526046246 
0.04962664277156823 
1.109826276106831e-05 
0.002839042181195713 
0.01971092617617286 
-0.005676602226733226 
0.05467716975965745 
0.08391786559821095 
0.01327569629081668 
0.0051444484604957 
-0.01526892526046246 
0.008446189773056705 
-0.01526892526046246 
0.0246734104973949 
0.001706510446762108 
0.01126513148262386 
0.001706510446762108 
0.01772563135888447 
0.02513957982434442 
0.05151746029170426 
0.009114142658633874 
0.05368436897255407 
0.01051570865739272 
0.009120684391563001 
0.0246734104973949 
0.0246734104973949 
0.02570203280251964 
0.009728389166231475 
0.02162237214382046 
0.008378116652014642 
0.001706510446762108 
0.02162237214382046 
0.007745474103672562 
0.0246734104973949 
0.5382355446884576 
0.01051570865739272 
0.01051570865739272 
0.01051570865739272 
0.2186818562468645 
0.03883955561426325 
0.02686075858371335 
-0.007142067265440604 
-0.002595998785179933 
0.028837839353684 
0.7577983395077088 
-0.007180336415361333 
0.028837839353684 
0.028837839353684 
0.03878012911621329 
0.01395693847385659 
0.00172807125461979 
-0.003040566613302417 
0.0003629135598333805 
-0.02368995833096152 
-0.007180336415361333 
-0.001814348332073783 
0.1038670724269447 
0.003228334092090755 
0.006077973325906577 
0.01545813798512323 
0.6727921777964838 
-0.001334479801326965 
0.03060822656968546 
0.000329911137029309 
0.0006281231610431807 
0.000329911137029309 
-0.002156566030076705 
-0.002684150872942951 
-0.001243039280885856 
0.01437170451037824 
0.02998655683113583 
-0.004429153085640422 
0.002450207059466714 
0.0006281231610431807 
0.000329911137029309 
0.000329911137029309 
0.1764271058296366 
-0.02826802421029962 
-0.003193187825160376 
0.01447608836096684 
0.01231784981834512 
-0.007875136948385911 
0.01191655016695348 
0.01350182589855318 
-0.007929287136004827 
0.01568237277312471 
0.01350182589855318 
0.01350182589855318 
-0.0001363092806580488 
0.01350182589855318 
0.01152089742611351 
0.01152089742611351 
0.01291404310182509 
0.005286452328605622 
0.002564520749840913 
0.01229779046996292 
0.5457844256114712 
0.01380171109369521 
-0.003079678485906695 
0.3440919388519031 
0.0167005192172328 
0.002323874993773026 
0.01662191044006609 
0.0545696065011926 
0.01978868649156392 
-0.0004571916001430154 
-0.003079678485906695 
-0.01097808383705692 
0.002323874993773026 
0.0564630041784291 
0.08767799604672098 
0.01280158699856473 
0.06610426026958659 
0.0001659275282506521 
0.02147324482435476 
0.3405008276290706 
0.1876193476980756 
0.003940835693820062 
0.02204970920670775 
-0.01673660232692432 
0.006929534650074882 
0.01935251744601986 
0.001423514467908057 
-0.003583681391502597 
0.002176085737620742 
0.06752245891344193 
-0.0002292123349691686 
0.007022787140250952 
0.02147324482435476 
0.825593354875461 
-0.008035170666484171 
0.01900033025731585 
0.0001436625556195404 
-5.780142884458675e-05 
0.0001973170321851526 
0.1341206734331575 
0.0002777954015901129 
0.0003562004480020971 
-0.005655401094838179 
0.03654781442944257 
0.06766800881739148 
0.01491073879089425 
0.0003347927461381878 
0.06682515353549402 
0.0696919213064911 
0.01644801507774267 
0.02159277601568138 
-0.004842614140351861 
-0.01878631283999268 
0.006296123566929247 
0.001114448220078806 
0.01020372305339733 
0.108755338384094 
-0.02485403398874488 
0.03344974713000826 
0.127079386699297 
-0.002811278519729784 
-0.03921012052287741 
-0.03921012052287741 
-0.02550662321981826 
-0.02418392419860845 
-0.02550662321981826 
-0.0004024032930740035 
0.1231097620095915 
0.02494939746525283 
-0.0004024032930740035 
0.02838005404034371 
0.03999876728768417 
0.01055085204806998 
0.8480632214048505 
0.001704242768378317 
-0.02550662321981826 
-0.06465067857492175 
0.2790270303870693 
-0.02219406284774496 
0.0002638323806587915 
0.3943217837545671 
-0.02996386162948873 
0.3497998111594118 
0.009682579858841019 
0.01720494168336487 
-0.7463692314989174 
-0.04097750846839635 
0.03644919668177499 
0.01720494168336487 
0.06153101383414415 
0.08627513436868879 
0.008470372710040194 
0.105518880697861 
-0.04830515301297818 
0.1918518926791672 
0.05838020534057627 
0.01567168497984066 
-0.01312537890144838 
0.06200896634617614 
0.02463318996526392 
-0.003623910211871519 
-0.01491286024683734 
-0.003623910211871519 
0.01351604076880673 
-0.007654292997093665 
-0.003623910211871519 
0.001984295673573188 
-0.1090426601438764 
0.0006512523959391164 
0.002428910186432964 
0.01599759036062865 
0.00082570223974063 
0.0002933685467280847 
0.00082570223974063 
-0.01261750595921268 
-0.001867778700032282 
-0.0169577651099369 
0.02100042392584292 
0.02111958972026562 
0.0001233169512930713 
-0.0174494951126916 
0.05593410032951145 
0.0001233169512930713 
-0.006908003885838948 
0.00424367417969879 
0.0003194824498525577 
-0.0002413389236180957 
0.0001233169512930713 
0.193894431238654 
-0.006908003885838948 
0.02413493288970596 
0.1791284294735635 
0.02755746090085738 
-0.03659197682176685 
-0.03514252574879573 
0.002839935037124318 
-0.01821501786565103 
0.05072029066498894 
0.02755746090085738 
0.002839935037124318 
0.02202696702110513 
0.02084168487568046 
-0.02724760284936871 
-0.01849199261882444 
-0.03659197682176685 
0.006163182929821731 
0.03217560759230055 
0.0005260850948394051 
0.03217560759230055 
0.03217560759230055 
-7.642759112020119e-06 
0.002839935037124318 
0.8789556938105018 
0.1037413257348632 
0.01058726661089568 
-0.02080363729010203 
-0.005974191303004289 
-0.001133377151356836 
-0.02266834851463884 
0.0189751476318652 
0.01058726661089568 
0.01811160776023143 
-0.001624156889233877 
0.06864252264430762 
-0.002468681444049051 
-0.005806883548632748 
0.0859416461699805 
0.01058726661089568 
0.01102770990029471 
-0.002168496067426783 
0.02881886248651387 
0.002900050092284694 
0.005059178212184432 
-0.005662898200517855 
-0.001133377151356836 
0.02952441106366783 
0.01127775572734475 
-0.02417149101759581 
0.04401453107520216 
0.0006884797914732482 
0.04401453107520216 
0.007091381329468981 
-0.001923922376322038 
0.04451891889392477 
6.619937380003953e-05 
0.04401453107520216 
0.04401453107520216 
0.01474336959712508 
0.007091381329468981 
-0.001923922376322038 
0.007091381329468981 
-0.001923922376322038 
3.71754213421549e-05 
-0.005783321283523977 
0.03635694879047437 
0.1025325572248043 
0.07255551195416833 
0.07255551195416833 
0.1092556067549665 
-0.009147880492653235 
0.02613181534652088 
0.0726857673652275 
0.0001015946399886431 
-0.0247484593317988 
-0.01370133659801825 
0.05093137355876379 
0.07255551195416833 
-0.01736939730663168 
0.003011740298915759 
0.01025517921484454 
0.006363722456804695 
0.0001015946399886431 
0.03817476077466396 
0.008729946864330131 
-8.810574490821469e-05 
0.0001015946399886431 
0.03712630861420706 
5.317162695560961e-05 
0.02153424377218996 
5.317162695560961e-05 
0.2987315056770742 
0.04819190261070865 
0.03045884802171851 
-0.03056260931585345 
0.01318703848750459 
5.317162695560961e-05 
0.005981751189365008 
5.317162695560961e-05 
0.03376359971661441 
-0.03056260931585345 
0.0359852122635309 
-0.0001284642000887027 
-0.02874357012123412 
0.09870172745570008 
-0.02150247494009058 
0.00702490088656121 
0.4547625938220973 
0.07179027608339872 
0.05051631626327251 
0.4168229414956398 
-0.0006436908324440742 
0.002126589773808891 
-0.006918131752345533 
-0.0004495658445079708 
0.01194349983803898 
0.03828370558802749 
0.005385169925033729 
-3.610941457494153e-05 
0.003128530793782255 
-0.001044451364179455 
0.01995106626005246 
-0.0006436908324440742 
0.002126589773808891 
-0.001249446981075036 
-0.001249446981075036 
0.1668437505848216 
0.003638987653032785 
-0.04175736001217846 
0.05142850873786926 
-0.07583156642403267 
-0.0005772370731943071 
-0.0005772370731943071 
-0.0004504382049761509 
-0.00030603208161819 
0.009634173191916319 
-0.0005772370731943071 
-0.005175673075992255 
-0.0005772370731943071 
0.2243206054500199 
0.05142850873786926 
0.05142850873786926 
0.001161441206317744 
0.7344450428807183 
0.02945456219146693 
0.05142850873786926 
-0.02893863939707551 
0.004937009930998146 
0.02839850219454225 
-0.04250692881205961 
0.001097077495714976 
0.03665285540838002 
-0.0001419134864568618 
0.02806798628223867 
0.03665285540838002 
-0.0001419134864568618 
-0.0001419134864568618 
-0.01484331544874672 
0.03665285540838002 
-0.009079323389388114 
0.01794333090388144 
0.03665285540838002 
0.006094066962760328 
0.01298599820663011 
-0.02723183260755723 
0.04858889945268134 
0.201518822424248 
0.01332474017456879 
0.01410183766037205 
0.0274470739722551 
0.0109244565730571 
0.01435704648852155 
0.03748091878115913 
0.05087387226094219 
0.01435704648852155 
0.01454567639145987 
0.05087387226094219 
0.03748091878115913 
0.01531431571924498 
-0.005921906713109888 
0.01410183766037205 
0.01439772473174728 
0.01547134874008436 
0.01410183766037205 
0.03422896255330939 
0.03748091878115913 
-0.1133185142430003 
-0.003119599942128514 
-0.006922507797613336 
-0.002699552239486671 
-0.001849121550713916 
-0.07672076948875557 
0.008735130709286202 
-0.001849121550713916 
-0.005986836525575804 
-0.03923717063069893 
0.1123068164807652 
0.006703429425843204 
0.03521743024279664 
-0.03923717063069893 
-0.01212231429726312 
-0.8958919046262999 
-0.00255353746156912 
-0.02004126096275467 
-0.002699552239486671 
-0.005986836525575804 
0.008735130709286202 
0.008735130709286202 
-0.07588481722285098 
-0.03923717063069893 
0.008735130709286202 
-0.03923717063069893 
0.0001301097607843371 
0.03519003389807399 
-0.04581271782142839 
0.0001355766048829455 
-0.001330186336599071 
-0.04581271782142839 
0.03519003389807399 
-0.01260387359827797 
0.01467970605085448 
0.03455823458982445 
-0.01020733291990719 
-0.008793788211136555 
0.00360057599400846 
-0.00525687152428078 
0.009606567828727642 
0.0001709765391557936 
0.08088014838292389 
0.01553081043212308 
0.05358016047879298 
0.04218765458783318 
-0.0006338062303151114 
-0.03376160768373208 
0.006091451266967038 
-0.01091139154932488 
-0.005559716832313738 
6.331694461494899e-05 
-0.02156438595731067 
6.331694461494899e-05 
-0.01293918778047596 
0.002532236146139291 
0.06420822351274906 
6.331694461494899e-05 
0.006091451266967038 
0.08809225873169377 
0.01818322585838113 
0.005360632133102761 
0.01818322585838113 
3.071534018937029e-05 
0.03150218645990027 
0.0001298369231291235 
0.03248777286864925 
-0.0005558878927317159 
0.03150218645990027 
0.001285181954133396 
-0.002077920871158843 
0.01818322585838113 
-0.03180330846970485 
-0.0005558878927317159 
0.01818322585838113 
0.0009155562529833508 
0.002383360766193901 
0.001720758445634959 
0.0001741385558272772 
-0.002526891014844872 
0.008674289427539908 
0.04538688601435125 
0.06718072997124999 
0.0004886938922437848 
0.01648854176819558 
0.0002858955535356922 
0.01660592610748834 
0.06410858624760313 
0.008858466246134929 
0.0001257732219303747 
0.08186839585666289 
0.001177105392706791 
-0.007318409629058586 
-0.007318409629058586 
0.01628544624598418 
-0.01073750442765134 
0.008858466246134929 
0.09772588938431578 
-0.007318409629058586 
-0.007318409629058586 
0.06128008436519661 
0.01512383571227216 
0.004678543120209799 
0.0100346394226566 
0.1447235137393692 
-0.007318409629058586 
-0.1392306338527962 
0.03304942625377689 
6.698376407336155e-05 
-0.0071292420627206 
0.01819395050425024 
0.1196215218000746 
0.008299812720220786 
-0.0007965042804987985 
0.02560934498257709 
0.005012473938000419 
0.03304942625377689 
6.698376407336155e-05 
-0.02431538948074659 
-0.002894212662655307 
0.03036587199417303 
6.698376407336155e-05 
0.001002186763006157 
0.03304942625377689 
0.003473684546962064 
0.06246628539186191 
0.08604103200682756 
5.399270633582392e-05 
-0.02015220977082671 
-0.04126543580292413 
0.07998358726129223 
0.8164286263187084 
0.0274106007349329 
0.09086763817263377 
-0.009249512755718548 
0.07128326256897194 
0.01931446156737188 
0.08829538534575918 
0.01460140856804539 
-0.005160504183163306 
-0.02015220977082671 
0.0107617814048193 
0.01419633049752757 
0.0153198436524081 
-0.001680053428684992 
-0.004394305914751958 
-0.03858032679967235 
0.07998358726129223 
0.1032946148093818 
0.01421271112718331 
0.1087046563665988 
0.01285831056781622 
0.01452585057803317 
0.01622415990379747 
0.01622415990379747 
-0.003702440533231051 
0.01674349733609213 
0.02106257961772186 
0.01622415990379747 
0.0007127483279216058 
-0.004455366588863995 
0.02391989913805461 
0.01622415990379747 
-0.0007464988415163606 
0.0007127483279216058 
0.0007127483279216058 
0.02817222854119621 
0.04373269098083906 
0.7894247391271325 
0.05909074825820316 
0.200184737970122 
0.002686036719040266 
0.000743510351568764 
-0.005625476167753743 
0.03538356136179301 
0.02148278799865148 
-0.0006692255976952123 
0.0006994137112612227 
0.0007257878980645497 
0.002686036719040266 
0.008480591563192337 
0.001458568891133118 
0.0006930581638462475 
0.001193133242420429 
-0.06131382134354123 
-0.08261594114502674 
-0.02995538475361018 
-0.0311017971634691 
0.002686036719040266 
-0.005767670563501351 
0.03247295012347931 
0.07531162948612583 
-0.0605002136655739 
-0.0005565147644038678 
0.07541970731401934 
0.07541285120040229 
0.03247295012347931 
-0.005767670563501351 
-0.005767670563501351 
0.03247295012347931 
0.0001421641128384182 
-0.009365400753620585 
0.01909358569543754 
0.02626720947313232 
-0.006054484791873625 
-0.01278526457268262 
0.0408324475879965 
0.06777169741601041 
0.0005663779385453013 
-0.02475738521519426 
5.045218772251551e-05 
0.06930055478482924 
-0.009946193604625923 
5.045218772251551e-05 
-0.02141961257699052 
0.06308776282035233 
0.0001585261002869011 
0.03795305727229232 
-0.02141961257699052 
0.03897904084218591 
-0.01694938900224549 
5.045218772251551e-05 
0.01883041204371054 
0.01467773690351076 
0.0008813432704645149 
-0.01132800560078538 
0.005399921361049075 
0.01051462251930396 
-0.004543228739074309 
-0.0102105547067773 
0.0011101756340055 
-0.01302958305754271 
0.02170995849383053 
0.001616223767483792 
-0.01030816647244572 
0.008070533325187935 
-0.0120231507644726 
0.01009157407692711 
0.02603881861530593 
0.01009157407692711 
-0.08566249870399881 
-0.002862598802340102 
-0.0120231507644726 
0.01009157407692711 
0.8211077923478149 
-0.005009241328822568 
0.1672929409469759 
0.01880915549023685 
0.0007420157304047627 
0.002530194097831192 
-0.002862598802340102 
-0.0120231507644726 
-0.0004806460581332629 
-0.003141217174456779 
-0.001305606992813182 
0.02340466762093433 
-0.003141217174456779 
0.05726008453155813 
0.01876659553612899 
-0.00136432702634327 
-0.003141217174456779 
-0.003141217174456779 
-0.003141217174456779 
-0.001779500698598602 
-0.008810639575630979 
0.05966123043470335 
0.002328889383013216 
-0.02666485865442279 
0.02930368989591904 
-0.008810639575630979 
0.04738613950843405 
0.01764614203356854 
-0.008810639575630979 
-0.02666485865442279 
-0.008769233903359281 
-0.01446894218737136 
0.006960337606671915 
-0.05578526474156458 
-0.02120246688192421 
0.05966123043470335 
0.06513699020380005 
-0.01446894218737136 
-0.008810639575630979 
-0.01164435838532783 
0.01251408637406942 
0.1533895363069617 
0.009075265908083186 
0.1837564351710723 
0.09024241947584236 
0.09024241947584236 
0.02643414673945116 
0.09024241947584236 
0.09024241947584236 
0.09024241947584236 
0.01108111256026394 
0.03642447410985296 
0.09024241947584236 
-0.007001018370807735 
-0.03810724103399615 
0.09024241947584236 
0.006313919348638035 
0.03365862867784538 
-0.003887721223915243 
5.375365806418097e-05 
-0.003677694590990906 
-0.05142706947270328 
-0.004284988294479194 
0.0577600421826646 
-0.02418127257995857 
-0.007872729903581526 
0.004024904868211656 
0.00251809324843362 
-0.02418127257995857 
0.1397508239275699 
0.01323868340452912 
-0.03080130403633624 
-0.006480851987469396 
-0.00205294200232444 
-0.0009225535044033053 
0.03429729676803415 
0.001267184799773064 
0.09750938381855663 
0.0003011141689731983 
-0.01071679248113966 
0.0004168976494819653 
0.0007570020557306922 
0.003779796513728583 
-0.0005039808798135442 
2.457076041703966e-06 
0.02424850859824166 
-0.05083476086344019 
0.002189240049007269 
0.03646426702000041 
0.003116859850900054 
0.03164496713282879 
0.003312385576387208 
0.002189240049007269 
0.006834982550672062 
-0.1647463242885798 
0.01907397684905957 
0.003312385576387208 
0.03276547311268601 
0.003312385576387208 
0.01999054018183766 
0.03263752463880166 
0.01577708552158836 
0.01826149511201292 
0.01966982628188442 
-0.03934983968402186 
0.01577708552158836 
0.01966982628188442 
-0.04992113110457803 
0.001625491735451068 
-0.03970935745472287 
0.0006243669875671508 
0.001625491735451068 
0.01102680961589176 
0.04373226666738274 
0.002994447444284475 
-0.04992113110457803 
-0.0001442824623974224 
-0.004514225742458767 
-0.004514225742458767 
0.0308025172341707 
0.001937066818745989 
-0.03722224773740219 
0.07493911832165276 
0.006681866727047644 
0.01536896919635426 
-0.001045310936364381 
-0.001045310936364381 
-0.03127374774942147 
0.0007310697836456349 
0.0007310697836456349 
-0.004645309576558198 
-0.001045310936364381 
-0.03778776984262715 
0.003223576010969839 
-0.001045310936364381 
-0.02654517360596834 
-0.03438797325402874 
0.06371112012147774 
-0.01130328809537537 
-0.009393847163157658 
-0.00170697701897168 
-7.683356733288663e-05 
0.04207703371670526 
-8.734007349958893e-05 
-0.001859677218523862 
-0.06740521900884786 
0.02002129838441931 
-5.908261836278405e-05 
-0.0008999780704198644 
-0.08164682150644779 
-0.005565460190689624 
0.03146848589815332 
-0.00901732110984545 
-0.4257779097401014 
-0.00901732110984545 
-0.3494035473060927 
-0.001226485535452014 
-0.006939363822206958 
0.04500033260404235 
-0.07690759889070585 
-0.05451086506462856 
-0.1417464928797411 
-0.04233085622768083 
-0.04356450125513835 
-0.04356450125513835 
0.002613852701362074 
-0.03920857202882687 
-0.03920857202882687 
-0.006054149594352897 
0.1416532926553812 
-0.008388221566590635 
0.01360902732288007 
-0.006231517019731538 
-0.006631475974141714 
0.0059683010372306 
-0.006631475974141714 
-0.03920857202882687 
0.04175527100931519 
-0.03920857202882687 
-0.01658404461620559 
0.03809945493319459 
-0.03920857202882687 
0.1488378350029585 
-0.03920857202882687 
-0.008388221566590635 
0.06458469983734078 
0.02751721339548572 
0.06458469983734078 
0.04274920557092623 
0.063070500395976 
-0.006459235977066945 
0.001821000785393029 
-0.01471264106426105 
0.03932187974623338 
-0.01471264106426105 
-0.01471264106426105 
0.001073275759846808 
0.0234045252528981 
0.001321555664281534 
-0.01356774548590737 
0.104434009894791 
0.0001246360653593543 
1.243202104134936e-05 
0.0001376133089915976 
1.243202104134936e-05 
4.086138534594874e-05 
-0.002603373801366717 
1.243202104134936e-05 
0.04156018524228748 
0.04156018524228748 
0.04949770238778189 
0.04156018524228748 
-8.649054833355672e-05 
0.01281258016476345 
-4.829422433507711e-05 
-0.002047631422228235 
-0.001985816219282108 
0.3196578241141255 
-0.003640535710171906 
0.005946526254905993 
-0.0001672329894875798 
0.03637101656750385 
0.04788643760725946 
0.0006029655804367182 
0.006905887617730594 
-0.002158552424745012 
0.01842611609105905 
0.01536015197778628 
0.01536015197778628 
0.01536015197778628 
0.006905887617730594 
8.121172767630419e-05 
0.01810176191578325 
0.01055221275824273 
0.03518499092286895 
0.01909462888614998 
0.00851479224156977 
0.001479386315090901 
8.121172767630419e-05 
0.007695769618602237 
0.0491628377117136 
0.00931594901899585 
0.003169953162912202 
0.01909462888614998 
-0.003333121668922588 
-0.02517007511961087 
0.01909462888614998 
-2.569713321464075e-05 
8.121172767630419e-05 
-0.004670513372758217 
-0.0008531509256349155 
0.02223296921220591 
-0.001248901175864823 
-0.005227673008565309 
-0.0008531509256349155 
-0.03399065316711951 
-0.0008531509256349155 
-0.004648282923295528 
0.03179286275238191 
0.09342113497938613 
0.09342113497938613 
-0.0009597285604439082 
0.05699757986271585 
-0.0009597285604439082 
-0.02243701578666921 
0.09342113497938613 
0.09342113497938613 
-0.001901893419380089 
-0.02294876525160094 
-0.05274561431078695 
0.09342113497938613 
0.1812265966124837 
-0.02163408976818883 
0.09342113497938613 
-0.0009597285604439082 
-0.03329284041401349 
0.1739375994512857 
-0.009504189149533401 
0.09342113497938613 
0.2270520443026314 
0.002488800332032652 
0.04676098700868315 
-0.03779075478541878 
0.9107134978995686 
-0.01243001889755173 
0.04502816956874105 
-0.0001001296904491927 
-5.44574716188496e-05 
8.417833105604031e-05 
-0.02706152082109161 
0.0008520024161884087 
-0.005931305389516875 
0.01647945113342902 
-0.02706152082109161 
-0.003195411800175029 
-0.004103636396993928 
0.01989916522387272 
0.1071259602016864 
-6.233267468053731e-05 
8.417833105604031e-05 
0.1014626724966579 
-0.007428843785405405 
-0.004415401566155676 
0.1708298146615662 
-0.002959037622283361 
0.08008444671249668 
-0.001014916552864514 
0.06581158019338733 
0.06587325207837517 
0.02228585981906092 
-0.03649908431465056 
0.01037733491163417 
0.06587325207837517 
0.03055992051090162 
0.0005854336751027679 
-0.002517505635428623 
0.01858747128998059 
-0.01059025470219978 
0.09595218000010058 
0.03055992051090162 
-0.0003426094476599146 
-0.06192061914351447 
-0.03212392700420088 
0.1375409879299176 
0.06411530830687903 
0.001016546515048965 
0.001016546515048965 
0.03124704244730832 
-0.07475452287912951 
-0.02258209677262692 
-0.00240329805359062 
0.07333055455076348 
-0.00240329805359062 
-0.001664533690329859 
0.001016546515048965 
-0.001843003633774981 
0.04955110737548566 
0.01039551329329318 
0.08493935502444599 
-0.0007416708982956052 
-0.01482847669775636 
-0.01415105032061159 
0.03099258058016094 
0.0298351399431519 
0.1723907232831085 
0.03623134246816889 
0.03099258058016094 
0.03099258058016094 
-0.01482847669775636 
-0.01482847669775636 
0.03039814435832283 
-0.01482847669775636 
-0.01191078575181385 
0.3994237468681476 
0.3841658810181577 
1.726395796678352e-05 
-0.02120769965025792 
0.01627925928958086 
0.002387944709712076 
-0.02265254875521561 
-0.003160702865444982 
0.03694311165584963 
0.02056008933563605 
-0.01129204594585324 
0.05885966163718623 
-0.003160702865444982 
0.06439921742253005 
0.02056008933563605 
0.07924617198500951 
0.01329139267785945 
0.01329139267785945 
0.02056008933563605 
0.0706562164388102 
0.02056008933563605 
0.01748771853422031 
0.01329139267785945 
-0.003160702865444982 
-0.02427187278870738 
-0.003160702865444982 
-0.02703169529933572 
0.01748771853422031 
-0.01521040004567155 
-0.004288653393698049 
-0.0293395456566791 
-0.06056756717050103 
0.08758090032507584 
-0.001020998190481794 
-0.001020998190481794 
-0.06056756717050103 
-0.03050945313181953 
0.007923705051503253 
-0.03050945313181953 
0.01054708642874722 
-0.06056756717050103 
-0.007798780086084174 
0.05656263403039426 
0.009618582210904014 
0.006332891259046168 
-0.0002375873810749045 
-0.005614716534622902 
0.006332891259046168 
-0.002243347488929741 
-7.320066061974762e-05 
-0.005734691051492689 
0.0317777363860787 
-0.01248042383711942 
0.09062835097782382 
0.0317777363860787 
-0.05889028286957576 
-0.08983450025134307 
0.1315114031756374 
-0.009692719871212851 
0.01244722401679874 
0.02219066666309648 
-0.005579153913600088 
-0.005219973815489901 
-0.0007218304477151426 
0.02262167597915123 
-0.001884339846666717 
0.0112100925149282 
0.01311659824471041 
0.01311659824471041 
0.01321562509809253 
0.01311659824471041 
0.01321562509809253 
0.01311659824471041 
0.01984541551232986 
0.006902766966497563 
0.06954496363235509 
4.816529032225428e-05 
0.6560366083656489 
0.226081697863664 
0.08098615133705815 
0.01353501502724274 
-0.01095846239141698 
0.0001296291109713278 
9.899018636781979e-05 
4.816529032225428e-05 
-0.01079105155205342 
0.006788770141284258 
-0.0003682902919098329 
9.899018636781979e-05 
9.899018636781979e-05 
-0.002714625504558033 
0.006612859408602187 
0.001890256967461865 
0.04128538666441482 
0.001890256967461865 
-0.004423716669924463 
-0.0005670892162760496 
0.001293627525480542 
-0.001444580130053538 
-0.01677424843645492 
0.001890256967461865 
-0.002998168262086058 
-0.0007282447029380874 
-0.008393048066680639 
0.06629032488931685 
-0.002714625504558033 
0.001890256967461865 
-2.549652410276171e-05 
0.001890256967461865 
0.004706600272285455 
-0.02196539570383169 
-0.001385658939823479 
0.02079427372410951 
0.02079427372410951 
5.08248960455655e-05 
0.02079427372410951 
0.02079427372410951 
-0.008847049827437063 
0.03839188779505342 
0.005169051742558905 
5.08248960455655e-05 
-0.005963286776321306 
-0.01654067912672325 
-0.01654067912672325 
0.006736163026030445 
0.02986894470045838 
-0.0005620338309087819 
-0.01654067912672325 
-0.01654067912672325 
0.007417952788821099 
-0.01682856694789808 
0.0009178390772013953 
0.001839489134558706 
0.1102805703776292 
0.1102805703776292 
0.001839489134558706 
0.1102805703776292 
-0.01365258173421004 
0.1102805703776292 
0.1102805703776292 
0.1102805703776292 
0.02043874858273937 
0.00800167871569191 
0.1102805703776292 
-0.0386979420478897 
-0.0781196361394442 
-0.009140015846960439 
0.01720660093735587 
-0.009873152108319882 
-0.002324628066940827 
-0.002324628066940827 
-0.01016271511439782 
-0.002324628066940827 
-0.09726993570686333 
0.008862706015614143 
-0.009140015846960439 
-0.009095456631214438 
0.008862706015614143 
-0.009095456631214438 
-0.009336204286746554 
-0.02821774952354196 
-0.02821774952354196 
0.01498218932084863 
-0.02821774952354196 
-0.02608476544137412 
-0.1207933954991617 
-0.02821774952354196 
0.01349748835317113 
-0.0153496498511135 
0.02075386257196963 
-0.01056529007509749 
-0.02821774952354196 
0.01349748835317113 
-0.0309576884717882 
0.01349748835317113 
0.02291611645159467 
-0.02821774952354196 
-0.007768542318851207 
-0.04528696038342635 
0.04002256913339403 
-0.002084687744380423 
0.008675015673127312 
0.04427865608238203 
-0.01603383506374199 
-0.0005272056940690701 
0.002600664012711573 
-0.00209275774154833 
0.01612124486412904 
-0.0002608661023514786 
-0.00860224878351987 
-0.004547259208608621 
0.005023845973951471 
-0.002084687744380423 
-0.001056810657736205 
5.663840091249777e-06 
0.01380693624056403 
-0.01241821108098401 
-0.001056810657736205 
-0.02815035512769062 
0.0004054869596778933 
-0.007038643361480784 
0.01373594271952293 
0.04352211779065996 
0.01036619501348342 
-0.007038643361480784 
0.04352211779065996 
0.04352211779065996 
-0.05590970529194206 
0.01373594271952293 
0.01373594271952293 
0.1242820193166047 
0.01373594271952293 
0.007813284937914767 
-0.04849931249076121 
-0.007038643361480784 
0.03509000569298844 
0.07733991754246772 
0.0750975470694079 
-0.02973741588652016 
0.02885289292571017 
0.002690061377323386 
-0.07950980535848721 
-0.07260554778047619 
-0.009102179909727358 
-0.0987950208334836 
-0.2282514910080196 
-0.02847079960383819 
0.001945458899052405 
0.02518633329168659 
0.001945458899052405 
0.005759676998203247 
-0.1667444674586671 
0.04473733149164241 
-0.05716532734151378 
-0.08458926397535139 
0.04473733149164241 
-0.04110827407033807 
0.02798558396160936 
-0.05800691376072137 
-0.04110827407033807 
-0.04746788260334397 
0.006022861024562409 
-0.04238655988971207 
0.0001585989591766167 
-0.009927513795465075 
0.02717824272022038 
0.06024706745359425 
0.002207444672973965 
0.2525170792271171 
-2.971814649991092e-05 
0.004335847771376676 
0.004335847771376676 
-0.0181765856479325 
0.004335847771376676 
-0.03585422383183722 
-0.1209891602812004 
-0.002011788124775208 
0.02616705472194284 
-0.0893119102838327 
-0.01675370442409026 
-0.0893119102838327 
-0.0709324486370215 
-0.273764956152323 
-0.022533413673689 
0.0006262499063273522 
-0.09480350812737093 
0.006725634162740548 
-0.01675370442409026 
-0.1691939656275978 
-0.1691939656275978 
-0.0331046735242841 
0.004773741135038734 
0.004773741135038734 
0.02466271626285285 
0.007395482030814922 
0.002151402052529257 
0.02466271626285285 
0.007395482030814922 
-0.04138927688083865 
0.02466271626285285 
0.02466271626285285 
0.1771188605701354 
-0.0034881092143958 
0.002151402052529257 
0.02466271626285285 
0.007395482030814922 
0.002151402052529257 
0.007395482030814922 
0.004192331639245823 
0.009883119790328956 
0.1024054673161304 
0.01810895064716982 
-0.002111342301458166 
0.01868961055279158 
-0.002111342301458166 
0.05703262604329323 
0.01141811512955298 
0.003237510978153532 
0.1250282589265558 
0.01141811512955298 
0.01868961055279158 
0.03082882784727307 
0.003237510978153532 
0.01141811512955298 
-0.002111342301458166 
0.01432319289066241 
0.01895330194197599 
8.249224752883332e-05 
-0.05740542394881307 
8.249224752883332e-05 
0.01989540727903082 
0.01571761967666344 
0.06816626342900142 
8.249224752883332e-05 
0.03076590459045474 
8.249224752883332e-05 
0.01554899818717621 
-0.01044719858343154 
0.01466562377153869 
0.01708337398573151 
-0.01030784667753852 
0.003121800806160042 
0.01554899818717621 
-0.01044719858343154 
-0.035091114002564 
-0.01414510752463954 
-0.006425726223065167 
-0.07784729954731896 
-0.01191921769499687 
0.041271584037536 
-0.01063247954280608 
-0.0301860508508055 
-0.03306788692419324 
-0.006425726223065167 
-0.06218363475676282 
-0.005561282104090232 
-0.02282536784665557 
0.07937051911639471 
-0.01191921769499687 
-0.02617155147491509 
-0.0124364894155929 
-0.03800997002449574 
-0.03306788692419324 
0.05716601503383636 
-0.0008234368006554268 
-0.0008234368006554268 
0.003743085249873294 
0.00296812632424671 
-0.004188969252284849 
-0.0008234368006554268 
-0.00660254485357997 
-0.008681410580557259 
0.03510655503134192 
-0.02617186425644649 
-0.004188969252284849 
-0.0008234368006554268 
-9.480543750482226e-06 
-9.480543750482226e-06 
-0.004012649407356658 
0.01239938030386614 
0.1612844651830698 
-9.480543750482226e-06 
0.1612844651830698 
0.02447713629227859 
-0.09385187132122523 
-0.004012649407356658 
0.00349296849260576 
0.1612844651830698 
0.02029496399618298 
0.1612844651830698 
-0.0003646430225212842 
-0.0003646430225212842 
0.09410193280632743 
-0.001726031127586688 
-0.06132774317823109 
-0.0003646430225212842 
0.09410193280632743 
-0.0003646430225212842 
0.09410193280632743 
0.09410193280632743 
-0.0003646430225212842 
-0.0003646430225212842 
0.2175882350060419 
0.004126488469310349 
0.02797832516298793 
-0.02818864057954861 
0.001745493030927605 
0.0323672393235748 
0.004164762081408232 
0.01756841525020541 
0.01756841525020541 
0.001745493030927605 
-0.0115742777020571 
0.001745493030927605 
0.001745493030927605 
0.001745493030927605 
0.001745493030927605 
-0.003364513041541914 
0.14857400371413 
-0.008860115759926533 
0.03792565500235224 
-0.009311351135117803 
-0.01396364891583862 
-0.008860115759926533 
-0.01539751579466474 
-0.009031156948598885 
-0.004076705094251926 
0.0007625257551736727 
-0.01051753210404176 
-0.009612230426017939 
-0.01961042718531765 
-0.009035403599953057 
0.0001270711125126143 
0.0001270711125126143 
0.05096863247672276 
0.0001270711125126143 
-0.0005536749897681206 
0.007517119003851125 
0.0002035098968588202 
-0.0001792435877568615 
-0.0185253212146564 
0.03302831104925914 
0.0003351932700439305 
0.01994411509088685 
-0.00866471341843204 
0.03843691254712987 
7.926209934398848e-05 
-0.0007681426470212675 
0.01173614229527932 
0.02022188320240579 
0.0006792863951860056 
0.01173614229527932 
0.0006792863951860056 
-0.001499484786869572 
0.0006792863951860056 
-0.004385354235879982 
0.01173614229527932 
0.08730334287237386 
-0.08211156473456141 
0.01621575791160029 
0.09300297153698577 
-0.07385174160049061 
-0.05561991538451866 
-0.008868117391472056 
-0.01231959945308559 
-0.08001999110440587 
0.008437643929837285 
0.008838671336154059 
-0.006277604708476582 
-0.04091771899206074 
-0.05561991538451866 
-0.04091771899206074 
-0.07385174160049061 
-0.07385174160049061 
0.05892670433812516 
0.01996655798258376 
0.01926489364574112 
-0.03773721393739237 
-0.03322538634314121 
0.05892670433812516 
0.05892670433812516 
0.05892670433812516 
-0.03322538634314121 
-0.04091771899206074 
-0.009182994544004846 
0.05046349006947719 
0.0001100724387821645 
-0.01220229059707379 
0.003363571110334818 
-0.0005312334209705638 
0.0001100724387821645 
0.01279737802676524 
0.01279737802676524 
0.01279737802676524 
0.01119277548651565 
-0.0005312334209705638 
7.918838979074337e-05 
0.003751518308326259 
0.008651437551109486 
0.01201848639808953 
0.03914783070366631 
0.003751518308326259 
0.003751518308326259 
-0.0005107770330493965 
0.01444107073543756 
0.06444988111380028 
0.2010720282719026 
0.06444988111380028 
-0.006478652153712296 
0.01382411700563349 
0.06444988111380028 
0.0003813307608974268 
0.06444988111380028 
-0.006327982664465496 
-0.0005107770330493965 
0.03115173574743705 
0.2943994850521987 
0.01989239527670629 
0.04940742902518392 
0.01224321855664026 
-0.0003169841308848313 
0.06444988111380028 
0.06444988111380028 
-0.02859961630281162 
0.09878338597377247 
0.04302811309955663 
-0.008545257562563729 
0.07858589871155479 
0.07858589871155479 
-0.04509992343003071 
-0.04509992343003071 
-0.03000290527267041 
0.01599062954802271 
-0.008545257562563729 
0.04327094137290292 
0.07858589871155479 
-0.008522746211275602 
-0.03462640838747585 
-0.03125709746547123 
0.004874666741139494 
0.000905301291908919 
-0.008522746211275602 
0.08714033631287767 
-0.008925060503902063 
0.01041842257086584 
0.08714033631287767 
0.008842858195019527 
0.08714033631287767 
-0.005415831260571784 
0.007122537031147589 
0.002481470178611014 
0.08714033631287767 
0.008842858195019527 
0.009060192677902914 
0.09600617921338409 
-0.01058875125625341 
-0.009051176172031713 
-0.02023069075258379 
-0.01376639095501152 
-0.01517877145750415 
0.02099779363389838 
0.03465619000857252 
-0.01517877145750415 
0.03465619000857252 
0.03465619000857252 
-0.009051176172031713 
0.01277311356274095 
0.02099779363389838 
-0.004329286796682427 
0.04457922041653409 
0.0618168064498875 
0.06893132421587932 
0.03307228032070527 
0.06189154577395103 
-0.008987409914873009 
0.03307228032070527 
0.03307228032070527 
-0.003379655853041544 
-0.003379655853041544 
0.1938042127514513 
-0.003379655853041544 
0.004007955359892033 
0.2361642925422049 
0.09671152506300595 
0.01708640979402587 
0.01708640979402587 
-0.003379655853041544 
0.03307228032070527 
0.09511450220334808 
0.05159785876507342 
0.03307228032070527 
0.0005853532849679806 
-0.0002677132287032936 
0.01353071022141463 
0.01353071022141463 
0.01669262858432626 
0.07477276832169844 
0.000325838921230308 
0.0005853532849679806 
0.0001738410594028355 
0.07477276832169844 
0.02309082768036476 
0.07491987826510754 
0.07477276832169844 
0.01864736320769886 
0.0005853532849679806 
0.0005853532849679806 
0.1261751679508769 
0.0002912677681622184 
0.03040005639313164 
0.02262464617789401 
0.07477276832169844 
-0.005221798490751665 
-0.0004783051037952354 
-0.001793505881972885 
-0.007006912269872778 
-0.006934720006764145 
-0.006353731759528336 
-0.0003967901417131978 
-0.006934720006764145 
-0.0004783051037952354 
0.0003393197102504377 
0.007250152066828037 
0.007250152066828037 
-0.008252402090074761 
-0.003065852807601842 
0.0635056298232152 
-0.003732420950427895 
-0.03206481012032023 
-0.07547311578772639 
-0.0004401506844118327 
0.01952467822181827 
0.001954910586380758 
4.650207631515214e-05 
-0.09063789418410764 
-0.0004401506844118327 
0.02564101039611922 
0.02603111733032327 
-0.003726532190454575 
0.002554418946631242 
0.02603111733032327 
0.07846934676973651 
0.005535839832869786 
0.002577492362486334 
-0.0001343504735352943 
0.005535839832869786 
-0.01224687964996582 
0.005535839832869786 
-0.003317658518065053 
-0.0004442199622758461 
-0.0001595217862732181 
0.07846934676973651 
0.0002131783945132101 
0.07846934676973651 
-0.0001595217862732181 
0.07846934676973651 
-0.01087312528619366 
-0.0001595217862732181 
0.08336244899253413 
0.003773813961686761 
0.0002131783945132101 
-0.0001595217862732181 
-0.0001595217862732181 
0.001326461635334517 
-0.1640543164207856 
-0.01970841246744941 
-0.0184757966711138 
-0.01007619899682138 
-0.02104058403273773 
-0.02104058403273773 
0.03676347445097736 
-0.001629522162873755 
-0.001631059957177797 
0.07811138732085582 
0.009113019033709389 
0.01101829267978691 
0.1784660784224908 
0.1498668163431935 
-0.01007619899682138 
0.060188286680823 
-0.02104058403273773 
-0.0005687725851504749 
-0.001629522162873755 
-0.001631059957177797 
-0.01007619899682138 
0.1432711178488223 
0.01280011687726184 
0.1416480992963992 
0.1416480992963992 
0.1416480992963992 
0.001958167608502988 
0.001301988449276903 
0.1416480992963992 
-0.02639915556919626 
-0.002585398105405879 
-0.206993153592256 
-0.01091441429125695 
0.1416480992963992 
0.01448161886057365 
-0.002585398105405879 
-0.002585398105405879 
0.1416480992963992 
0.1416480992963992 
-0.003958203262888357 
0.0005864226912665972 
0.01468800845492525 
-0.01558496238360255 
0.05824103913595844 
0.0001996699781758247 
0.01468800845492525 
0.0001996699781758247 
0.0001996699781758247 
0.009734552266502702 
0.01468800845492525 
0.009734552266502702 
0.0001996699781758247 
0.0001996699781758247 
0.01078139925928136 
-0.05149814550665157 
-0.02784764436120339 
0.0001996699781758247 
0.009734552266502702 
-0.05149042684542016 
0.0719072494989681 
0.1448901227337688 
0.0001996699781758247 
0.0001843560370938945 
0.02329411665754185 
0.3544589724048386 
0.0240311532777065 
0.0001843560370938945 
-0.125103941030707 
0.01749704133457946 
0.0001843560370938945 
0.01246009892728944 
0.0001843560370938945 
0.0008207659514403843 
0.0006215498212281227 
0.02386338567973465 
0.02688278300079479 
0.01393552976402035 
-0.06403109029844302 
0.0114798396489233 
0.0114798396489233 
-0.03437499357160358 
0.0114798396489233 
0.0114798396489233 
0.0114798396489233 
-0.02041987533504831 
0.0765575781381717 
-0.07228988470198154 
0.01349479980415502 
0.08548576239586307 
0.01194173369066404 
-0.04502873189016298 
0.1169192526833361 
-0.002693217851659901 
0.01194173369066404 
-0.04502873189016298 
0.01194173369066404 
0.006762399689327517 
0.009251424962224655 
0.01194173369066404 
0.01194173369066404 
0.5105575112563704 
0.07830151544632422 
0.01217291759615425 
-0.04502873189016298 
0.01194173369066404 
0.007753262318253071 
0.06146936479551813 
0.007753262318253071 
0.003354619376782447 
0.0404363248704338 
0.0183298164696521 
-0.0008115520336122997 
0.01362381314895026 
0.0181431224192673 
-0.00154931071613021 
0.01642130229383944 
-0.0008115520336122997 
-0.0008115520336122997 
-0.0008115520336122997 
0.01372989853704515 
0.01372989853704515 
-2.876549851630929e-05 
0.01372989853704515 
0.003036354318109312 
0.04286603916314122 
0.013881282792308 
0.003438930167120325 
0.013881282792308 
0.01372989853704515 
0.01372989853704515 
-0.0171292261009685 
0.0139214966172875 
-0.07292707070949989 
0.013881282792308 
-2.876549851630929e-05 
0.01372989853704515 
0.03359529480425193 
0.01370591268339521 
0.04507555847970114 
0.03411093707418678 
-0.00524341581207047 
-0.004346617445208222 
-0.0003163823670415736 
-0.02679736906601054 
0.1960977870464665 
-0.003326730305566895 
-0.0003163823670415736 
0.03411093707418678 
0.2468719345171876 
-0.02521308852683334 
-0.003326730305566895 
-0.0003163823670415736 
-0.0003163823670415736 
-0.0003163823670415736 
-0.01980108724178113 
-0.01126811716506345 
-0.002368410207400846 
-0.005064007207907165 
-0.0001924297942262358 
-0.02679736906601054 
-0.02521308852683334 
-0.0003163823670415736 
0.06431511091850407 
0.2134520729364499 
-0.06906569076334607 
0.1174720694191491 
0.01744655327507413 
0.004716747924853067 
0.004716747924853067 
0.0007858736620328172 
-0.01449198719853672 
-0.007015830837930443 
-0.02194483861512487 
0.1174720694191491 
-0.06726043436547482 
0.004716747924853067 
0.1174720694191491 
0.0009296117350081769 
0.1984661864226316 
0.01744655327507413 
0.0007858736620328172 
0.08232343023395858 
0.0009296117350081769 
0.08907855254373928 
0.1174720694191491 
0.1174720694191491 
-0.003025980438457775 
0.01190552878165771 
0.02815263823396802 
0.02626962199478249 
-0.02661748620004027 
-0.06094414622417127 
0.0002864744105749177 
-0.0004853335718354625 
0.02927419517352728 
-0.003025980438457775 
0.0009682973719340049 
-0.0005249249646547975 
-0.0003263755038209977 
0.1088703760951068 
0.07878202733684762 
0.02152945001384236 
-0.0003263755038209977 
0.0009682973719340049 
-0.002338218375691312 
0.02626962199478249 
0.000850624876577817 
-0.0005249249646547975 
0.06090418478367013 
-0.006495963521967385 
0.003756519783794979 
0.06090418478367013 
-0.02259895273679375 
0.003756519783794979 
-0.00163819101459201 
0.08223899396386135 
0.003911619449873947 
0.003756519783794979 
0.06090418478367013 
0.003908568177129293 
0.005758109104907802 
0.003930554840903722 
-0.02249893106510855 
0.06090418478367013 
-0.005051452464588707 
0.06090418478367013 
0.1071294757662138 
0.1125542762790393 
0.2958630901296265 
0.1213104682821832 
0.004297126092730573 
0.06090418478367013 
0.06090418478367013 
0.0003378018906996421 
0.09801833066266942 
0.005937843485712038 
0.005515647088872388 
0.0003378018906996421 
-0.004132227277380947 
0.01503241470370045 
0.1051233634488201 
0.1206997228042126 
0.004761882813714081 
0.005937843485712038 
0.01846054257014841 
0.05470580705645196 
0.0003378018906996421 
0.01508732746327072 
0.1285810331766701 
0.1087492868979759 
0.0005578746686119495 
0.005937843485712038 
0.01156496903360697 
0.1098797339738194 
0.01855932432105668 
-0.02097203674249935 
-0.05099593851293604 
0.01161004983091264 
-0.05099593851293604 
-0.003614885684408728 
0.01161004983091264 
-0.005943853364848805 
-0.01159437948662504 
-0.05099593851293604 
-0.005943853364848805 
-0.0102709482026028 
0.05440131613054525 
-0.005943853364848805 
0.006007129957516875 
-0.005163581396311082 
-0.04070094022303986 
-0.01051392295522748 
0.006007129957516875 
-0.0102709482026028 
0.02145154966306659 
0.001305160137856139 
0.05776333714974069 
-0.02226804499326048 
0.005073210323143554 
0.02100662738012725 
0.02034716913452615 
0.001305160137856139 
0.017467037446564 
0.006107884118148283 
0.001305160137856139 
-0.005009316898877642 
0.01725824237683854 
0.006107884118148283 
0.008328288694066285 
0.002811806210868005 
0.0988870884914155 
-0.0009755635972759795 
0.005194935068516243 
0.002811806210868005 
0.02409420728108023 
0.001305160137856139 
-0.003581954542059769 
-0.0009280807108687421 
-0.001211500241562446 
0.005238908539153018 
-1.980958242268351e-05 
0.01895609253484403 
-0.005142250957916189 
-0.002733061946037727 
-0.00161068168904798 
0.002315545146265258 
0.01616363913235844 
0.005238908539153018 
-1.980958242268351e-05 
0.07741117233514816 
0.03625720420812484 
-0.003220367311932102 
-0.002733061946037727 
-0.02965123715399667 
-0.004748081506564502 
-0.0477078847122592 
0.08806560369551412 
-0.00163969703199605 
0.02423678632229515 
-0.0021951550205507 
0.03785979718330888 
0.03693565448091835 
-0.003136052911834617 
0.02617797445628055 
0.008530133651645653 
-0.00163969703199605 
0.02994351768476386 
0.08849954298489637 
0.003117473137159939 
4.767087292382064e-05 
0.006165449404014426 
0.08836534912097796 
0.08836534912097796 
-2.021690199018908e-05 
0.08896735079966488 
2.543840674850816e-06 
-0.0004377867423154181 
-0.0028550503218283 
-0.004840793722968076 
0.08896735079966488 
0.08896735079966488 
0.08896735079966488 
0.05806788349494404 
0.07861490404752239 
2.543840674850816e-06 
-0.0028550503218283 
0.08896735079966488 
0.08896735079966488 
0.003631378926983355 
-0.0028550503218283 
0.08896735079966488 
0.1620885048859814 
-0.0004377867423154181 
0.02962296724721194 
-0.002690313260418506 
-0.002690313260418506 
-0.02033191439968927 
-0.1792452985208589 
0.00173624923770748 
0.007996002254043951 
0.04654059433245437 
-0.02201633271396163 
-0.003010710483628607 
-0.02129575743765568 
-0.02014853012969593 
-0.02344652042484495 
-0.02201633271396163 
-0.08126225633925699 
-0.09803452864910442 
-0.009380874168571239 
0.04558055369619059 
-0.002704196381029826 
-0.02344652042484495 
-0.01575227504386504 
-0.1108096866094992 
0.0319624585305229 
0.02363758571560493 
0.01805893336221678 
0.01459699988316115 
0.08016195446352282 
-0.03975595896989764 
-0.0927068782817121 
0.04485537280981973 
0.022591016214582 
0.00328389183231458 
0.05188700362837314 
0.03736362129620999 
-0.01612033660642417 
0.022591016214582 
-0.03975595896989764 
0.00328389183231458 
0.05499097721904422 
-0.01637248464130947 
0.04467832104373473 
-0.01354540420000545 
-0.04228096193168211 
0.022591016214582 
0.005549799840011854 
-0.0005874985482978219 
0.00322287788102594 
0.02041171431623554 
-0.0005874985482978219 
-0.012533713655036 
-0.0005874985482978219 
-0.0005874985482978219 
-0.012533713655036 
-0.001970118511958194 
-0.00583597662517549 
-0.0005874985482978219 
-0.002261034119849346 
0.05623377679754724 
-0.0005874985482978219 
0.01172692154388353 
0.03117319528922674 
-0.007546286085916245 
2.98574905776395e-05 
-0.005168837054590681 
-0.01020654988982619 
0.03543342248590847 
0.05699490242627926 
0.000400084481861366 
-0.02363261170867346 
7.72896769896369e-06 
-0.02363261170867346 
0.05891169113544335 
-0.007786366443643816 
-0.0007932121907007902 
0.08481742203748964 
-0.005261945422364033 
-0.005261945422364033 
0.03110668921946213 
-0.0007932121907007902 
-0.005261945422364033 
-0.0003538986821357602 
-0.0013809658527237 
-0.0003066327646357079 
-0.0005524814684270437 
-0.0002250059407016874 
-0.0003066327646357079 
-0.01059052176813181 
0.02183500670930875 
-0.001758186722023009 
-0.0003066327646357079 
-0.0003066327646357079 
3.794162015559934e-05 
-0.00279306718192982 
0.003507968949869066 
3.625237623330984e-05 
-0.004930589830455719 
0.01174066410641038 
-0.01021443558242979 
0.01471502371291833 
-0.01000416016253175 
-0.003739725501693932 
-0.00279306718192982 
-0.02555607171738912 
-0.02526043304734094 
0.04118372732319582 
0.008511465600169655 
-0.009633407522804409 
-0.01000416016253175 
-0.01021443558242979 
-0.002173034480836392 
0.01277280864454831 
0.01277280864454831 
0.02479051812630501 
0.05132709039147366 
0.01344948038247342 
0.150775826391556 
0.01738969952153525 
0.01277280864454831 
-0.002173034480836392 
0.01277280864454831 
0.02425428356338361 
-0.02179821111042428 
-0.01032743318585454 
-0.006582416657534265 
-0.0228828138002245 
-0.02179821111042428 
-0.009716677996677895 
-0.009737418569772897 
-0.01307648052931156 
-0.01073094257187733 
-0.03042945551663819 
0.04522102576848584 
-0.002030771751745899 
-0.01073094257187733 
0.001307715533196891 
0.0069433237957421 
0.0106024989855932 
0.02293513257611008 
0.02293513257611008 
0.002717582505083394 
0.02293513257611008 
0.3556574085419803 
0.001522179251031917 
0.006736212405432481 
-0.002743796682646471 
0.006767757268436713 
-0.003558281224649833 
-0.006465690614490824 
-0.002620066896969273 
0.006741941316379742 
0.006736212405432481 
0.07643311889198606 
0.000192841811778337 
0.08631176467407893 
0.02951449886887212 
0.0002956066054136274 
0.1423089676665423 
0.000192841811778337 
0.07033827733318535 
0.0001546859216919876 
0.0006278621430750386 
0.002643845047384318 
0.001364746631706953 
0.02358388891821682 
-0.007258403512544152 
0.001558780994829453 
0.03509043895001387 
0.004760724344104017 
0.001364746631706953 
0.001558780994829453 
0.002766984241475791 
-0.04359770649382437 
0.007874931750528027 
0.02327555932491419 
0.002643845047384318 
0.002643845047384318 
0.01612890103757265 
0.01612890103757265 
-0.00840660105988098 
0.007726138066908746 
-0.00840660105988098 
-0.00840660105988098 
-0.02558860498628493 
0.147198300215851 
-0.0005689705999009623 
0.311147921077662 
0.147198300215851 
0.102147186661922 
0.102147186661922 
-0.005701141154099122 
0.102147186661922 
0.1210767744801001 
0.001202096198273318 
-0.004623040735147826 
0.102147186661922 
0.02857426237752124 
0.002208767288315337 
0.001197465182669799 
0.001197465182669799 
0.002208767288315337 
0.01773881400145451 
0.04289507853609185 
0.002208767288315337 
0.006235719958552212 
0.0002565129896662127 
-0.008130519713078599 
0.0325341896571525 
0.05534785961196036 
0.04500307711571091 
0.0325341896571525 
0.0052287729556972 
0.00850678669237641 
0.001938912915075188 
0.04262297873430331 
0.001938912915075188 
0.04262297873430331 
0.03431373137386589 
0.01563486569510638 
0.1255993206969638 
0.00850678669237641 
0.002041465614822412 
0.04008344315822469 
0.2900204675880865 
0.03431373137386589 
0.02734941159985966 
0.00850678669237641 
0.324585148739036 
0.00850678669237641 
0.0002954632778271504 
-0.001088388413677149 
0.05498823238434437 
-0.0009476423174556628 
0.0002954632778271504 
-0.0001576469233626077 
0.03698634340471519 
0.05666287362403871 
0.0001529796127175655 
0.03661450344190818 
0.03661450344190818 
0.01716009223436274 
5.713813368421141e-05 
0.01716009223436274 
5.713813368421141e-05 
5.713813368421141e-05 
-9.818119445295042e-05 
0.03653204162763673 
-0.0009476423174556628 
0.02653047787262707 
0.02653047787262707 
0.02591867275317541 
0.02653047787262707 
-0.03318031392314124 
0.01166970761784813 
0.01166970761784813 
0.01091756097771397 
-0.03318031392314124 
0.04715801610341044 
-0.005254281940235634 
-0.001226328869556575 
0.001930479649681733 
-0.005254281940235634 
-0.005254281940235634 
0.3896508868478074 
0.006380759557444798 
0.0008871354060261461 
0.0377731450820056 
0.006380759557444798 
-0.0002211220025010033 
-0.00379451435885532 
0.01310098980850804 
0.006380759557444798 
-0.005254281940235634 
-0.0002995876646272344 
-0.0002402936801878324 
0.006745867077636539 
-0.0002995876646272344 
-0.0002211220025010033 
-0.0002995876646272344 
-0.02425539748037932 
0.001528857368818753 
0.0991456716727559 
-0.04577900125198534 
0.002174377413221156 
0.0005106611103941257 
-0.009433395591625947 
0.0002213341148547727 
0.0002213341148547727 
0.0002213341148547727 
0.01599941471341342 
0.0005106611103941257 
0.002456803277125957 
0.0113593333753067 
0.001327324836375078 
0.003620135356334809 
-0.00416142241027013 
-0.0007435721556001409 
0.002299473213444558 
0.01484659732890933 
0.001143531675935168 
0.01484659732890933 
0.001143531675935168 
0.02457212570585468 
0.01484659732890933 
0.02184648116746683 
-0.0007435721556001409 
0.01490899549070911 
0.002393660170012126 
0.007199027461932765 
0.05081938535361615 
0.01484659732890933 
0.01484659732890933 
0.0001645972809634094 
0.2494133409903034 
-0.01385689804613197 
0.0001645972809634094 
0.1236405607524065 
0.00880048552161292 
0.0001645972809634094 
-0.001652641194392431 
-0.001089005305372478 
0.0001645972809634094 
0.01273671282390206 
0.01001501786785973 
-0.08964524443815468 
-0.02727918610822244 
-0.0502285587239472 
0.01273671282390206 
0.01273671282390206 
-0.01193464755447979 
0.006525063572544372 
0.02591133160256971 
0.01246484700053616 
0.006653837952640706 
-0.01211312225518623 
-0.08965434329427793 
-0.01193464755447979 
0.05186407655352842 
-0.01193464755447979 
-0.01276645872838023 
-0.0002601599623858128 
-0.01276645872838023 
-0.001744794821304147 
-0.0002601599623858128 
-0.0002601599623858128 
-0.0002601599623858128 
0.01381408775419412 
-0.01276645872838023 
0.02274617709597317 
-0.03448989636977855 
0.003840858040197471 
0.002698215927479479 
0.04828231985408257 
0.0506477918273724 
-0.0303592053725533 
0.04822232383796859 
-0.0303592053725533 
0.06791054695880346 
0.002698215927479479 
0.009148137509310865 
-0.0303592053725533 
-0.03527100362986322 
0.002698215927479479 
-0.03527100362986322 
0.002698215927479479 
0.002698215927479479 
0.05314953827167183 
0.01613886101503512 
0.0001818268416164261 
-0.03866654043387769 
-0.03866654043387769 
0.03867278258365226 
0.0300740531663532 
0.0808068718851841 
-0.0009851887798686594 
0.003494147187986294 
-0.0009851887798686594 
-0.01914120312860562 
0.05257515802046193 
0.0002342758842245913 
-0.03519531331598803 
-0.03866654043387769 
0.05257515802046193 
0.05257515802046193 
0.05257515802046193 
-0.0009851887798686594 
-0.03866654043387769 
-0.003873536544642171 
8.22931231460379e-05 
-0.02689308901334762 
-0.03883612830922716 
0.0006711669295822943 
8.22931231460379e-05 
0.01191304850069338 
0.01191304850069338 
-0.01287895452277947 
-0.01287895452277947 
-1.065329195904317 
0.01191304850069338 
-0.06757413689201407 
-0.03959491497118948 
-0.01287895452277947 
-0.05420904757280313 
-0.02672503527727766 
0.001521912697743027 
0.006039948365544035 
0.005379403934563749 
-0.02565052337932016 
0.04530405468958728 
0.004939496711185891 
0.005379403934563749 
-0.05052859503310601 
-0.05420904757280313 
0.006036921434252199 
-0.05420904757280313 
0.03039590478515884 
0.006036921434252199 
0.02118354195435301 
0.01660911489504286 
-0.01935823520777317 
0.02366581151292612 
0.02366581151292612 
-0.03772558260943792 
-0.01935823520777317 
0.01660911489504286 
0.1557652182549711 
0.04390764074654176 
0.001573667891723914 
0.001152293050631365 
0.01004997458863519 
0.01283272024759596 
-0.01935823520777317 
0.001152293050631365 
0.001152293050631365 
0.01243050941054497 
0.06217233643047708 
0.02510770795618307 
0.06019587369271054 
0.01243050941054497 
0.008835432429859534 
0.01243050941054497 
0.005133350888165361 
0.003161657233088213 
0.005133350888165361 
0.01560064248182534 
0.003161657233088213 
0.005133350888165361 
0.06019587369271054 
-0.002058529998506835 
-0.002058529998506835 
-0.002058529998506835 
0.04965366152715938 
0.04965366152715938 
-0.003690103594236915 
0.0006341798923280772 
0.004274784671917482 
-0.002324578248959803 
-0.02212923724732856 
0.04965366152715938 
0.04662019520646517 
-0.02723225274196061 
0.004241156225317593 
-0.002058529998506835 
-0.002058529998506835 
0.0006341798923280772 
-0.02723225274196061 
0.08241458130845256 
0.003213682865724786 
0.05711920329946173 
0.01894626469977347 
0.01894626469977347 
0.01894626469977347 
0.02700789566485464 
0.01894626469977347 
-0.008823425166124639 
-0.003054152668711663 
0.0006391262333472206 
0.01894626469977347 
0.01894626469977347 
-0.004725482997165954 
-0.004882789635562438 
0.02721660388804212 
0.01165662393030802 
0.04188963377004673 
0.01894626469977347 
-0.001870094900575138 
-0.001723206617385916 
-0.00151509883474509 
-0.001723206617385916 
-0.001723206617385916 
-0.1041028595102516 
-0.1403080184698659 
-0.02161498210509916 
-0.1494119035257359 
-0.02952914612680202 
0.002480160918172132 
-0.05457627288605901 
-0.08966843637019033 
-0.05810343423159316 
-0.02219735942020872 
-0.02574778517627521 
0.002480160918172132 
-0.008403394739126883 
-0.05371679536171772 
-0.03483435341795796 
0.01322944092539279 
0.0007460347276870491 
-0.08157445143884384 
-0.02736396440436743 
0.01529034719783691 
0.0185835268513357 
0.01186008424607969 
-0.01512770901387778 
0.0170031515252217 
-0.07701598907326167 
0.01738194460841682 
0.02244492944647138 
0.008098660194576834 
-0.03485078735731089 
0.01529034719783691 
0.01778019875074818 
0.1316814232596744 
0.008478898583996022 
0.008478898583996022 
0.01193657272709454 
0.0003716229416995215 
0.1050935580385425 
0.008478898583996022 
0.003147814848219619 
-0.01428134449456606 
0.01693697728409973 
0.02146155487202477 
-0.0143635256507157 
0.02082351041720545 
0.003147814848219619 
0.01712947201478209 
0.0207049972380863 
0.01726247502316617 
0.003147814848219619 
0.0258360529153201 
0.01239613775239902 
-0.0003016321598168886 
0.008041601773204293 
-0.0140472442885584 
-0.0003122359736895039 
-0.0140472442885584 
0.008041601773204293 
-0.005189042859389295 
0.03308869226838769 
0.0004737737493066357 
-0.03721819566961221 
-0.008451974615341976 
-0.0255442157318783 
-0.01089454151435636 
0.01176974435099127 
0.005435654220739933 
-0.008796434179726625 
-0.01449687052530803 
0.01246859042384491 
0.00805210544553131 
-0.006923167775114471 
0.3116272925820018 
-0.01044869727194858 
-0.0001335239616729616 
0.0004348381934664602 
-0.00322300748807655 
-0.0001335239616729616 
-0.0001335239616729616 
-0.0001335239616729616 
0.04383183375078496 
0.0002223040179655583 
-0.005329112409724336 
-0.0001335239616729616 
-0.0001335239616729616 
0.005131979297403356 
-0.0001335239616729616 
-0.005771221114867088 
-0.01005875215017941 
-0.01381925318430588 
0.00487620591328922 
-0.04367647398744066 
-0.0004833973990362872 
-0.003848663528633568 
-4.836109685260026e-05 
0.00487620591328922 
0.001198355974554274 
0.02067448865825571 
0.00487620591328922 
0.06091945215104494 
0.1555772501979199 
0.1331609527322198 
0.0003016359640723589 
-0.03729098996445505 
0.0007660239526567753 
0.0003016359640723589 
3.219243113092545e-05 
0.0007660239526567753 
0.000183793348033262 
0.0007660239526567753 
0.003216378373235879 
-0.04412061105689049 
-0.01509657543803421 
0.01263415374504748 
0.0003324074998747541 
0.01476557078724907 
0.02148139734758921 
0.02117847520730219 
0.03359704044050552 
-0.09659888792357406 
0.008679193275106358 
0.007764675922383765 
0.009153331574316128 
-0.006169232782434392 
0.009153331574316128 
0.02202296481776025 
0.004296976381981213 
0.03029675921274439 
0.009153331574316128 
0.01476557078724907 
0.0212542987464288 
0.0212542987464288 
0.02675988426527443 
0.005484260262643922 
0.0212542987464288 
0.04780212963507607 
0.0212542987464288 
0.0212542987464288 
0.04991540048547954 
0.0212542987464288 
0.0212542987464288 
-0.0006733509882941545 
0.001850036504316105 
0.1168273223050471 
-0.000775461863079003 
-0.00863462163885069 
-0.007945205219215094 
0.01970423004261855 
-0.007945205219215094 
0.0002250664729482181 
2.781685594715565e-05 
-0.007126158279133979 
2.781685594715565e-05 
-0.0006053689761957334 
0.01312259810934484 
-0.008519062805573761 
0.003196739608016079 
0.00377271748765408 
0.00377271748765408 
0.03488582907355324 
0.09542985028590981 
0.0002412184590098617 
0.00377271748765408 
0.03535689074247629 
0.00377271748765408 
0.03857868880186749 
0.00670242311868538 
0.003870374767279419 
0.1243868279511989 
0.02426715280131525 
0.01045292029589129 
0.003616918145951525 
-0.000572134863109013 
-0.005113920930301778 
0.1540451760559114 
0.1295022696513657 
0.02695790719796531 
0.05412998088868873 
-0.000572134863109013 
0.1243868279511989 
0.01045292029589129 
-0.002642684025953667 
0.02513006856870388 
-6.319958948516687e-05 
0.02490844379172466 
0.007030525705951056 
0.07140373480866009 
0.02355540969192891 
-0.01133111047832054 
-6.319958948516687e-05 
0.01120295146924758 
0.01572768742425756 
0.01083217395092705 
-0.01367981704335053 
0.0124187705189755 
0.008332098860427694 
0.008332098860427694 
0.008332098860427694 
0.0124187705189755 
0.01019447560983075 
0.008422821828946618 
-0.01037590955912341 
0.008332098860427694 
0.008332098860427694 
0.008332098860427694 
0.04058901749605529 
0.008332098860427694 
0.03025639173208352 
-0.006734725960631356 
-0.03605334744347868 
0.1926560252811328 
0.2399333449532205 
-0.0007618337186625427 
-0.03756235514121265 
0.01159929407726298 
-0.01286821621737573 
0.002070508064775725 
-0.005214191315613843 
-0.000833314151273367 
-0.007470584714221152 
0.03700279136923403 
-0.0004198702269214386 
0.01994296991264779 
0.03828236964304711 
0.01994296991264779 
-0.0009409197007214225 
-0.03605334744347868 
0.001711246629095683 
-0.02369353061675073 
-0.001189913661503044 
-0.02740749713442949 
-0.01105675307046729 
-0.001415781932001845 
0.00632097723554662 
-0.01180042492545238 
-0.04079738258664466 
-0.002577042360743349 
-0.001415781932001845 
0.008718866349320764 
-0.01116330463974776 
0.0840994265735281 
-0.006781212662366675 
-0.0002708978500953352 
-0.01837463892489956 
-0.0002708978500953352 
2.219893270878218e-05 
0.08354458749547732 
0.08354458749547732 
-0.0002708978500953352 
0.04145009978160069 
0.04145009978160069 
-0.003905431648064775 
-0.003905431648064775 
0.04145009978160069 
0.0001213866781916241 
-0.003173618741713651 
-0.00260722281538732 
-0.004955312657728327 
0.0001213866781916241 
0.03870386280196296 
0.0001213866781916241 
-0.004755982119501211 
0.04145009978160069 
-0.003905431648064775 
0.0001322577892921388 
0.09217547730863297 
0.04145009978160069 
0.02632215313536018 
0.0001899635311772506 
-0.004895057185324181 
-0.005983641437525812 
-0.0002811801173791087 
0.001529146029746908 
0.002155978381737255 
0.03053445533535606 
-0.005379207304590003 
0.01964808832818419 
-0.002784689191119881 
-0.005171841697110375 
-0.006613684926548614 
-0.002784689191119881 
-0.01814222540486384 
-0.002588845630610278 
-0.003539974797042081 
0.03219952185057739 
-0.0142235423327369 
-0.002784689191119881 
-0.002784689191119881 
0.015031474882748 
-0.006205311836377209 
-0.01043030820585083 
0.2034980955281721 
0.2034980955281721 
-0.001302186648580824 
0.0003692150148725783 
0.134865144071582 
0.1747097640199582 
-0.01441928425233681 
0.0001347047195197997 
0.2034980955281721 
0.1979607117885397 
0.01301219413989836 
0.005597685050899488 
0.2034980955281721 
-0.06000794974635313 
-0.06000794974635313 
-0.06000794974635313 
-0.06000794974635313 
-0.06000794974635313 
-0.06000794974635313 
-0.06000794974635313 
-0.06000794974635313 
-0.06000794974635313 
0.01300495344880421 
0.04642038138152845 
-0.001896032933379862 
-0.0003495090307115689 
0.004182939238994829 
0.04642038138152845 
0.004182939238994829 
0.02833281484424661 
-0.01770610420590125 
0.004182939238994829 
0.04642038138152845 
0.000172983714722449 
0.000172983714722449 
0.000172983714722449 
0.000172983714722449 
-0.02513438761768139 
-0.04313806491958092 
-0.02486505376713331 
-0.1098954374044998 
0.00323303562873277 
-0.02268338045377284 
0.05041166483852451 
-0.02513438761768139 
0.00323303562873277 
-0.01059336269313864 
-0.02513438761768139 
-0.02646938558449552 
-0.01919759352684434 
-0.006386824173282716 
0.03678516209720741 
0.04365345510315021 
-0.03298021134617662 
-0.0008476023585309959 
0.005365579981536311 
0.0007340514086523498 
0.004031113968140741 
0.04405505406499478 
0.006742276601399064 
0.05096119483357696 
0.006742276601399064 
0.006742276601399064 
0.02824027026219618 
0.006742276601399064 
0.006742276601399064 
0.006742276601399064 
0.006263990772892847 
0.1513250838785477 
-0.0002188340985177087 
-0.0002188340985177087 
0.01105284055180333 
-0.0001265446821304995 
-0.0002188340985177087 
0.1513250838785477 
0.1518922569208109 
-0.0001265446821304995 
-0.0001265446821304995 
0.01105284055180333 
0.01767422426663558 
0.1518922569208109 
0.01105284055180333 
-0.0004598875572753748 
0.01105284055180333 
-0.0002188340985177087 
-0.01112543815687305 
-0.01003385076084817 
0.008602371233432642 
-0.02757739499174053 
0.007386294354264003 
0.0343985162738583 
-0.07467409756286761 
-0.01243106819980697 
-0.08913243388146891 
-0.01112543815687305 
-0.01243106819980697 
-0.01243106819980697 
-0.005907745233685832 
-0.004177363934210498 
0.006695363012575528 
0.007532501986323877 
-0.02757739499174053 
-0.02757739499174053 
-0.0007294862981230802 
0.03218310188082518 
0.1328249634459469 
0.03776444635874958 
-0.00396032009572217 
0.04668969779144212 
-0.004089830329839099 
0.005814045196537951 
0.1257582634196455 
-0.001731358950606407 
0.001195403254051476 
0.0002322480507492874 
0.007097165082584441 
-0.001812176149946569 
0.007097165082584441 
-0.005193851708798514 
0.0001237297856771976 
0.007097165082584441 
-0.02543565357494444 
-0.01226701276524851 
-0.01149529493753017 
-0.01060502082922338 
-0.01149529493753017 
0.01907355606699412 
0.007364715792198002 
-0.01060502082922338 
-0.01467568421214321 
0.006568313362909863 
-0.01194126915329872 
-0.01060502082922338 
-0.01060502082922338 
0.006568313362909863 
-0.006747934944863675 
-0.006466304246952929 
0.01591069410128847 
0.001408084335413529 
0.003555475964669498 
-0.09525202169326114 
8.458071520305545e-05 
0.01826655270618765 
-0.005906478842776959 
-0.004913810529156628 
-0.007952573996590885 
0.0156870106607756 
0.02784878233274974 
8.458071520305545e-05 
0.1271569509759602 
0.0003912447498577832 
-0.09525202169326114 
-0.005004434608505761 
-0.005906478842776959 
0.02327253744398812 
-0.09525202169326114 
0.01206900361234988 
-0.03776408323858504 
0.04843156699680942 
-0.01885958932759012 
-0.01777431915902626 
0.04843156699680942 
-0.09179238397791541 
0.1066551223194067 
0.01796278917136756 
0.01796278917136756 
0.000207359348539921 
-6.98197550935308e-05 
-0.01029168738731789 
-0.02122699411266547 
0.000207359348539921 
0.0001343807232469332 
4.508260310279182e-05 
0.003110957766732565 
0.000207359348539921 
0.005861718011106847 
0.0001343807232469332 
-0.0002732668016813015 
0.02589643507930665 
0.000207359348539921 
-0.06198708435570999 
0.00624854878745666 
-0.0348853605352567 
-0.0007588811548301937 
0.04366910436463165 
0.01619314995893805 
-0.03515171233269622 
-0.01475780491921625 
0.00122396897474797 
-0.01475780491921625 
0.0328691006511197 
0.03603682070488602 
-0.003239000491030617 
-0.05186906777589745 
-0.0113176403367463 
-0.007505067064219548 
0.0001921225007586317 
-0.007505067064219548 
0.0002850036464354705 
0.0001921225007586317 
-0.007505067064219548 
0.03894715872135782 
0.002252678175960245 
4.100307241080536e-05 
-0.000555484994442976 
0.01648826534181157 
-0.000555484994442976 
0.04248454393744091 
-0.0132294714173408 
-0.004621174232383677 
-0.001549213600621914 
0.0511598192286648 
0.0273135859255751 
-0.0003709616892417858 
0.04241739453381205 
0.05489357631302838 
-8.523591214180941e-05 
0.0001565526119184138 
0.02800958184078215 
0.004204854200088585 
0.009884701449533167 
0.008626526492485345 
0.0001565526119184138 
0.001060801718759747 
0.0001565526119184138 
0.00287645341137042 
0.05187736540904083 
-0.003919258426082247 
0.0003626337905366469 
0.0001565526119184138 
-0.0275993496121335 
-0.003951118261864776 
0.0001565526119184138 
0.02144969511741101 
0.03552794440849974 
-0.005836235738247602 
-0.0001367245218136552 
-0.00283952005703657 
-0.005836235738247602 
-0.0003805663035848851 
0.002269621906270685 
-0.009002559009930709 
0.00441129614040248 
0.002320374159015917 
-0.01135241341247636 
0.05594722488508703 
0.001879499925957716 
-0.006647402755866562 
0.001879499925957716 
0.003935782576520985 
-0.006647402755866562 
-0.02300544384437126 
0.002257978437143103 
-0.006647402755866562 
0.001879499925957716 
-0.08212813382534222 
0.08003486447694927 
0.001879499925957716 
0.002320374159015917 
0.001879499925957716 
-0.01135241341247636 
-0.08212813382534222 
-0.08212813382534222 
0.007782612486776612 
0.012831594462237 
0.0001093099726798136 
0.012831594462237 
0.00977229530656341 
0.007782612486776612 
-0.003199558123133825 
0.1412439635787839 
0.008558580879117976 
0.03507195058463204 
0.006662202715067287 
0.002350031594893624 
0.008558580879117976 
0.009579798025173263 
0.009579798025173263 
0.004119202234773611 
0.002033987131890256 
0.003987200691980714 
-0.0002042004783404641 
-0.0002042004783404641 
-0.01822005727803317 
-0.0002042004783404641 
-0.03964086218576054 
-0.00273112595026666 
-0.0006114090835133517 
0.007916748057501125 
0.003228775198074475 
0.05936362553545858 
-0.007251201409957306 
-0.00273112595026666 
-0.002312665870612762 
-0.0009036899398815223 
-0.0006114090835133517 
-0.0006114090835133517 
0.01711547067533517 
0.003228775198074475 
0.002540316759454818 
0.05923711573450689 
-0.00273112595026666 
0.003228775198074475 
0.03575876139471749 
0.0002286988966588996 
0.0353874848930665 
0.00294612536717783 
0.00294612536717783 
0.0353874848930665 
0.1273653103204864 
0.03055880885578419 
0.0353874848930665 
0.00294612536717783 
0.02845013969507404 
0.008074367627171694 
0.08274002771670717 
-0.001217718853969469 
-0.0008666442737527666 
-0.001217718853969469 
0.0353874848930665 
0.01598317118150646 
0.0229068828413733 
0.03226046370663459 
0.01907659326317339 
-0.0002113481699495835 
0.01598317118150646 
0.0104037173357668 
0.01052319227724092 
0.02420521540426207 
0.01598317118150646 
-0.04693483162557672 
-0.0002113481699495835 
-0.0002113481699495835 
-0.0164100676933249 
-0.0002051615587598716 
-0.0002051615587598716 
0.04987075441586702 
0.003753471380281828 
0.009813449248899868 
-0.02336503788663669 
-0.003463039905327274 
-0.01793644605354397 
0.003335103866956349 
-0.006331298057868744 
0.0002731411410918262 
0.0004376079060809456 
0.01911189433891596 
-0.001087441009724215 
-0.001087441009724215 
0.002388290873039278 
-0.02077355934600849 
0.008843390473297796 
-0.05146067225738542 
-0.04879145267497633 
0.01976378802281466 
0.01055138756374715 
0.05667238562206524 
0.01055138756374715 
0.001261716343982218 
-0.05994546366496827 
0.001645282726425475 
-0.002592400569682519 
-0.002177872616609324 
0.001645282726425475 
-0.05132964150169216 
-0.002177872616609324 
-0.05967157864006258 
0.04828965722514818 
-0.002592400569682519 
-0.0002608974977515027 
0.02634986592992337 
-0.01488559030919102 
-0.002177872616609324 
0.02978359057952874 
-0.0002608974977515027 
-0.002177872616609324 
0.001645282726425475 
-0.06085379157052825 
-0.02128642504336441 
0.003863309415774106 
0.009569837985588072 
0.003950830756724978 
-0.02128642504336441 
0.06155817011990001 
0.01024948193416313 
0.02579813553237521 
-0.02128642504336441 
-0.04155507825645566 
0.003863309415774106 
-0.01799091965311867 
-0.0363774824537631 
-0.02755750972329966 
-1.080116326829583 
-0.04136318359277071 
0.01052850836601017 
-0.02755750972329966 
-0.0363774824537631 
-0.0347139230210721 
0.01945943709426531 
-0.04884953124457836 
0.01935168918374377 
-0.04162760840083328 
-0.0363774824537631 
-0.08769422142596191 
-0.05816941680888502 
0.02777156156557171 
-0.007408990237349886 
0.01127961723981452 
0.009250125700788953 
0.01504542515595282 
0.01474627072369208 
-0.02719167412024672 
0.08683944876151331 
-0.005183193309692659 
-7.482986097960332e-05 
0.01843485685855834 
0.04534322734534866 
-0.004029075441894867 
-7.482986097960332e-05 
-0.1020515372428184 
0.01888178213531167 
-0.0006455016567491939 
-0.005183193309692659 
-0.04779520750841539 
0.01689952081970091 
0.01706399385177464 
-0.005609379194715229 
0.02357560008143613 
0.009913246383966278 
0.004423076278294635 
0.01706399385177464 
0.01706399385177464 
0.01706399385177464 
0.01820205901212588 
0.03173473929472539 
0.01909965427661788 
0.01706399385177464 
0.003109648654719663 
0.01191849816891247 
0.01191849816891247 
0.01788174762855458 
-0.003115399091524479 
0.001149870171912049 
0.001149870171912049 
0.003109648654719663 
-0.01516709699320151 
0.01788174762855458 
-0.003115399091524479 
0.1978199550818623 
0.001107050837699523 
0.1978199550818623 
0.001107050837699523 
0.001094199013697261 
0.0008653131733421639 
0.1220950067450177 
0.001094199013697261 
0.0008653131733421639 
0.1220950067450177 
0.1220950067450177 
0.0707759422876354 
-0.002334206784025149 
0.02188376226798894 
0.1220950067450177 
0.001107050837699523 
0.1220950067450177 
0.1220950067450177 
-0.04640517047868947 
0.002983829010286364 
-0.008564238163674309 
8.415305344763478e-06 
-0.023667681992586 
0.01031854948903538 
0.01993310169813478 
0.01993310169813478 
0.002983829010286364 
0.01993310169813478 
0.03193907943152423 
0.01993310169813478 
0.01993310169813478 
0.002983829010286364 
0.002983829010286364 
0.03341549217639027 
-0.02237761392539185 
-0.01987689693137844 
0.1113058990029749 
0.1113058990029749 
0.1138348149908181 
-0.01987689693137844 
5.373299576975045e-05 
-0.04472026249682285 
0.2919176087362316 
-0.01987689693137844 
5.373299576975045e-05 
0.1149111859279587 
0.002407555764194405 
0.01196682661848735 
6.030986875367232e-05 
0.0359256137067748 
-0.00934948328925244 
-0.001028588976642113 
-0.0006494511473618479 
0.05234614001100598 
-0.0006494511473618479 
0.04826142418854849 
-0.001028588976642113 
-0.01387629293050517 
0.0359256137067748 
6.030986875367232e-05 
0.05436407298809465 
-0.01162846818287771 
-0.02476383098411081 
0.0359256137067748 
-0.0002753518181728356 
-0.009689981946660542 
-0.01919565135537745 
-9.008419569280773e-05 
-9.008419569280773e-05 
0.03571122745220498 
-0.001413360090312652 
-0.001735715052189739 
-0.0002753518181728356 
-0.01267270568076101 
-0.0002753518181728356 
0.0965346680824845 
0.06473429241750135 
-0.007276402918243198 
-0.0002753518181728356 
-0.0002753518181728356 
-0.0005490549364940258 
0.01685039147873282 
-0.09780073489779099 
0.0001905674106337556 
0.01552071605440534 
0.02278685033071865 
-0.02692382696343125 
0.0001905674106337556 
0.02158152634825618 
0.0001905674106337556 
-0.02703229454770229 
0.03819694915533335 
0.015509254327393 
0.0001905674106337556 
0.02465052702290152 
0.002766034352186513 
0.005136390821797492 
0.01757818797155594 
0.002145763786640354 
0.002145763786640354 
0.0043160549798924 
0.002145763786640354 
0.002145763786640354 
0.002766034352186513 
0.002145763786640354 
0.01757818797155594 
0.01707217928679271 
0.009275744931102075 
0.01757818797155594 
-0.001746665984018124 
0.07174953232212872 
0.002145763786640354 
0.002145763786640354 
0.0001757036280502163 
0.0002689200516498151 
0.0001757036280502163 
0.02022986047646651 
0.0477887736852557 
0.01418976311092097 
0.02452441776420878 
0.0001757036280502163 
0.0001757036280502163 
0.0001757036280502163 
-0.04172506575820265 
-0.02459218103571617 
0.0001757036280502163 
0.3182842092633402 
0.3586321356742603 
-0.00101044409981219 
-0.0006622756392108333 
0.01033494811398285 
0.002748305210328273 
-0.0006622756392108333 
0.018322162082961 
0.004210203837325914 
0.06266760010855986 
-0.01159124488554539 
0.01233661414212646 
0.0002068117486131807 
0.0002068117486131807 
0.001430832439572474 
0.018322162082961 
0.0002068117486131807 
-0.00669537796834792 
-0.003078778394840453 
0.018322162082961 
-0.01275415851869661 
0.06202943533025335 
0.018322162082961 
-0.07258867590833387 
0.0002068117486131807 
0.01124632745488854 
0.02440480622119258 
0.0006661218790294788 
-0.006608304145586001 
0.0006661218790294788 
0.007643556356448505 
0.001733581678966905 
0.05619638029366057 
0.0006661218790294788 
-0.003702106692603339 
0.0007609083438242507 
0.0007609083438242507 
-0.01240394437886538 
-0.003146728758662298 
0.0007815587686992843 
0.01026392965495409 
0.002720899069171482 
-0.009481303783700249 
0.01330077119454482 
0.0006661218790294788 
0.00184376727629726 
-0.0009646499276487424 
0.01477988530787776 
0.001792829703073067 
0.01367179691073911 
0.03439787659380367 
0.01357675978613084 
-0.004613686077156632 
-0.0009646499276487424 
0.05665843282539174 
0.001674097117588537 
0.01546324806346169 
-0.0009646499276487424 
1.54268272434271e-05 
0.002412936592262887 
0.003686571147838887 
0.01570552987561638 
0.002412936592262887 
-0.01240326849485233 
0.002258780371750481 
-0.009799876570572817 
-0.006155264737840578 
-0.006478738828399764 
-0.006478738828399764 
0.1964222718144391 
0.0675554680603531 
-0.006478738828399764 
0.1417893149767036 
0.0675554680603531 
0.06927135170498058 
0.05268471312083881 
0.4685275027831463 
0.07060202108122927 
-0.006478738828399764 
-0.007420632661451852 
0.006399127940996572 
0.0003352790014524898 
0.006399127940996572 
0.0224700604478355 
0.006399127940996572 
0.006399127940996572 
0.1136304062019768 
0.005302630746539136 
0.02555654042965669 
0.0247977453281338 
0.0224700604478355 
-0.01327854973440743 
0.0224700604478355 
-0.009544787626413113 
-0.01327854973440743 
0.006399127940996572 
0.06016735187977457 
0.0003849014316685897 
0.006289374704396874 
-0.0009898690111818549 
-0.0005115835950810152 
0.006177797195717587 
0.0003849014316685897 
0.006023001590812643 
0.02360356555406955 
-0.02319041839409141 
0.01697212088605636 
0.0003849014316685897 
-0.0005869159899423699 
0.02358176096484118 
0.0518457049434686 
-0.0005869159899423699 
0.01697212088605636 
0.01458302201878098 
0.01873954013559269 
-0.0001145040835465673 
0.01873954013559269 
-0.001004285197220622 
-0.000324943705800354 
0.02680641296271971 
-0.0001461892085552556 
-0.000324943705800354 
0.01873954013559269 
-0.01928421072020369 
0.01458302201878098 
-0.000324943705800354 
-0.001004285197220622 
0.009409027144436149 
0.1104049640607546 
0.1104049640607546 
0.1104049640607546 
0.009721959429190066 
0.1104049640607546 
0.009721959429190066 
0.1104049640607546 
0.1104049640607546 
0.1104049640607546 
0.1892985322280604 
0.00701067191907966 
-0.006071760578868792 
-0.03207590059017577 
-0.00137253235030706 
0.01628670190791384 
0.1277220432094422 
0.008294493692196404 
-0.006071760578868792 
-0.006071760578868792 
-0.05403274306100096 
-0.05216602412880356 
-0.002558261713114907 
-0.05190338201466647 
0.02898654387926738 
0.006530985878343051 
-0.008141515320877805 
0.008294493692196404 
0.02380382915448627 
-0.004500477521885417 
0.004029884916787519 
-0.000977087822729897 
0.0708895206187934 
0.0004915168941054888 
0.01011405901220207 
0.0322874698240776 
0.007692139816042391 
0.0278108141882981 
0.0004915168941054888 
0.007692139816042391 
0.0004915168941054888 
0.004029884916787519 
0.007398544655827496 
0.0004915168941054888 
0.0378493188704755 
0.03250054137415149 
0.02759954383889641 
0.02944776620563033 
-0.0003381458598441816 
-0.001930835858206944 
-0.0003381458598441816 
-0.02756787315708481 
-0.0007363314176814678 
-0.0003381458598441816 
-0.001050717309025044 
-0.0003365458664325496 
-0.02756787315708481 
-0.01240661441185799 
-0.0003381458598441816 
-0.0003381458598441816 
-0.03640428321163223 
-0.0003381458598441816 
0.03074227571305734 
0.01235979801934962 
0.01235979801934962 
0.0003414245758177547 
-0.05510710089220649 
0.01875646039195583 
0.001364543899072493 
-0.001723747080561546 
0.01235979801934962 
-4.323179008576428e-05 
0.01520039059841944 
-0.001723747080561546 
-0.04415104035347348 
-0.05510710089220649 
0.003615034725060594 
0.00219636485556128 
-0.02262747519483245 
0.002308244183107102 
0.002308244183107102 
0.002313632306487963 
0.001228324976246791 
0.008796002728056177 
0.00219636485556128 
0.002313632306487963 
0.002313632306487963 
0.00219636485556128 
-0.01138520571037768 
0.002308244183107102 
-0.0001666378605190652 
0.102125234687561 
-3.684365433601647e-05 
-0.0001666378605190652 
-0.01354099254421612 
-3.684365433601647e-05 
-0.01704037183691568 
0.008281603548155042 
-0.01354099254421612 
0.0002997406045361379 
-0.01354099254421612 
-0.01708321645632062 
0.03430687313240743 
0.08132099566644305 
0.0002997406045361379 
-0.00122377080528349 
0.02640814551865682 
-0.007148930356303454 
-0.002874910019230286 
0.02873297088912354 
0.06423954457000257 
-0.003491308374142129 
0.01765564812602096 
0.0002013604135327547 
0.002354716276306894 
0.03355052126977455 
0.0001495554168785454 
0.0001495554168785454 
0.0001495554168785454 
-0.001737158155161024 
-0.04674759543458629 
0.08564209663043798 
-0.01360755082611473 
0.0001495554168785454 
0.1117859361693927 
0.0001495554168785454 
0.05000668773354799 
0.0731211540863162 
0.0731211540863162 
0.0731211540863162 
0.0731211540863162 
0.0731211540863162 
0.0731211540863162 
0.3251437176116799 
0.0731211540863162 
0.0002226185350461802 
-0.01389647791869934 
-0.002072651037495377 
-0.005323312370648768 
-0.04837444824874634 
-0.04837444824874634 
0.001279577153891837 
-0.00205618184447804 
-0.002072651037495377 
0.03219718545215763 
0.1345995289675002 
-0.02185607972785773 
-0.02185607972785773 
0.1357900662751435 
-0.02185607972785773 
-0.04945495677263469 
-0.1204440522804035 
-0.02168001582043843 
-0.0244814211926135 
-0.02168001582043843 
-0.0244814211926135 
-0.0244814211926135 
-0.02185607972785773 
-0.02185607972785773 
5.467048809627011e-06 
0.0278150043691411 
0.0278150043691411 
0.005990650879333293 
5.467048809627011e-06 
0.005990650879333293 
0.05280390992215912 
0.03119353213717317 
0.005990650879333293 
0.005990650879333293 
0.0278150043691411 
0.0278150043691411 
0.08823577221813032 
-0.06758981465968121 
-0.007691690141243181 
-0.005222561256502731 
0.03202064108106007 
0.09681854149573998 
-0.06758981465968121 
-0.05422944278518722 
0.003799733841307829 
0.005972750742636299 
-0.007691690141243181 
-0.007691690141243181 
-0.007691690141243181 
0.03200842236961455 
9.478646479477183e-05 
0.002393559850642342 
0.002092563930493758 
0.002393559850642342 
0.002393559850642342 
0.0105411788009057 
0.005047244365855398 
0.01784956091522875 
0.01592775386982449 
0.00800872681894407 
0.0006049446516057882 
0.01509177772579899 
0.00800872681894407 
0.1508769622765388 
0.004915506361296087 
0.0006049446516057882 
0.02103099959571839 
0.0001304333935437109 
0.007634003974437928 
0.02064404538511263 
0.0001348477862690741 
0.003713322866275313 
-0.02353981629233621 
0.0001304333935437109 
0.06486902261894172 
-0.004594149825845238 
0.003162926710885014 
-0.004594149825845238 
6.993308751906053e-07 
0.017304669955269 
0.003433511897323008 
-0.006158433690229423 
6.993308751906053e-07 
-0.001775294420178096 
0.0004464148971176858 
-0.001653128818724295 
0.02874419601117636 
0.09810609916837608 
-0.00886438846578641 
-0.01259905048020916 
-0.02481069841106823 
0.05564279091458713 
0.01590832652866868 
0.09140979963505308 
-0.035835427167666 
0.0007521981294408306 
0.0006290678961203046 
0.0001696508584819975 
-0.03127915345310626 
0.05564279091458713 
0.03747548085912451 
0.0008144737806602595 
-0.01282238581165118 
9.621458619239981e-05 
-0.04494856760909997 
-0.01623199719587769 
0.1290074000754686 
0.01267818101990078 
0.06820876976332947 
0.0323489875475096 
0.01267818101990078 
0.01267818101990078 
0.01267818101990078 
0.0328168794346135 
0.0149750878048669 
0.01267818101990078 
-0.04494856760909997 
0.0258420430490268 
-0.06058994757769854 
0.01705302363599943 
0.01044136718012867 
0.02540610647100358 
-0.0003339361522859481 
-0.005507859528048233 
0.1551202916204586 
-0.001634593432398249 
-0.0003518482842898443 
0.1245124430106224 
0.001722448399866526 
-0.0004008458464629667 
0.02540610647100358 
0.016055573634955 
-0.0008005365198471987 
-0.001574637416162945 
0.0001437636479722494 
0.003416460966166251 
-0.0003616023211907727 
0.0001437636479722494 
0.1071480271287262 
0.001333668341008467 
0.006099034149430456 
0.01273213124811503 
0.006099034149430456 
0.01273213124811503 
0.007135066705868436 
0.008485659737635341 
0.03380983591705355 
6.994273146990308e-05 
0.004983314532763026 
0.0001198222487160872 
0.01069619901431766 
-0.007126270148045804 
0.03558729856974906 
-0.007290480977440572 
0.0002185892982937706 
0.03303679932836057 
0.0002185892982937706 
-0.02565392057509401 
0.0007423713376591319 
0.0007423713376591319 
0.01494762519335396 
-0.002411664173001326 
0.03387911983190899 
-0.003862572294547783 
-0.002411664173001326 
0.006299686223824486 
0.006299686223824486 
0.006299686223824486 
0.006299686223824486 
-0.07069752412503956 
0.09332745678029597 
0.09332745678029597 
0.09332745678029597 
0.09332745678029597 
0.09332745678029597 
-0.005550740405430593 
0.09332745678029597 
0.001260743501189389 
0.09332745678029597 
-0.005550740405430593 
0.09332745678029597 
0.03629934214749696 
-0.002326167219859651 
-0.0461508216403323 
0.009198119466951595 
-0.317553858061678 
0.01120246389719344 
-0.03541820029901126 
-0.002326167219859651 
0.00837358425185721 
-0.0461508216403323 
0.005659496832290993 
-0.01641944656455855 
-0.05366560175632742 
0.03639029644510022 
0.02465592872948104 
0.01157304972801042 
0.0002275088526481322 
0.001496277043745883 
-0.001794420905991452 
-0.002193366504299558 
-0.003367358926039707 
0.01119366274179295 
0.03512606883784874 
0.0015201503577348 
0.02216967611963866 
0.03519801573290588 
0.004646120948849406 
-0.007962378790641628 
0.006338724986475108 
0.006338724986475108 
-0.001185754098225858 
-0.00416073342186108 
0.02152182716202739 
0.03148889708702097 
0.006338724986475108 
0.006338724986475108 
0.006338724986475108 
0.006338724986475108 
-0.00416073342186108 
-0.04036598993025284 
0.004114823823808783 
0.02834804058630435 
0.01662843453922531 
-0.004932778526262232 
-0.009411306715088432 
-0.01185048888970866 
-0.009411306715088432 
0.09111602285727489 
-0.01185048888970866 
-0.0008036218427804872 
0.04121274068176271 
0.04121274068176271 
-0.06230821038494862 
-0.02353329781655573 
0.01825509614995216 
-0.002417790456123131 
0.006231515138603726 
-0.001792153101333542 
-0.005724507141142943 
-0.005724507141142943 
-0.00200520525924087 
-0.00200520525924087 
0.0201522243133529 
-0.03117421827964936 
0.04848949962964452 
0.001401939310241016 
-0.0001074450339701567 
-0.0001074450339701567 
-0.0001074450339701567 
-0.0001074450339701567 
-0.03811638197551146 
-0.03811638197551146 
0.03123386514077019 
0.003398297208646133 
-0.009170809847472285 
-7.884209308419338e-05 
-0.01160424848592036 
-0.01160424848592036 
-0.01776921913135036 
-0.0001922371114743587 
0.002752892275663365 
-0.01160424848592036 
-0.0001922371114743587 
0.1034760517709395 
0.0087388829806169 
0.0087388829806169 
0.008588278261653034 
0.08259084219479533 
-0.08218127669145557 
0.007872566176987757 
-0.07765286213475488 
0.001197926863696232 
-0.09159043048797409 
0.001197926863696232 
0.01687616104848707 
-0.004888164280280495 
0.01755403376005355 
0.04809635915279685 
0.01202537887922666 
0.0003897627666365835 
-0.0004892593853388547 
-0.002131657231834144 
-0.01279520943201628 
-0.0004892593853388547 
0.000142030093371078 
-0.05631490813924965 
-0.01964648422061287 
-0.06442533058012949 
0.07904775099170594 
0.1186295344142231 
0.002336528123634597 
-0.001383277212697469 
0.06560563346119569 
0.126238569924691 
0.0003255743738124815 
0.02752660191900633 
0.126238569924691 
-0.05488076915910048 
0.03158625489507192 
0.03158625489507192 
0.03158625489507192 
0.0001030843446269688 
0.03158625489507192 
0.03158625489507192 
0.007500984352739671 
0.03158625489507192 
0.0001030843446269688 
-0.02947345302626772 
-0.1182143478399469 
0.0428576513551753 
0.0428576513551753 
0.0428576513551753 
0.0004806151816710327 
-0.0001209817347274572 
0.003733973883369566 
0.0004806151816710327 
0.0004806151816710327 
0.06958045786371954 
-0.0004052464334443447 
-0.0004052464334443447 
-0.0004052464334443447 
-0.0004052464334443447 
-8.272860873002061e-05 
-0.02411496563771097 
-0.02411496563771097 
-0.01506781201779192 
0.001396105829372157 
-0.005882075731696261 
-0.005534961848318816 
0.001396105829372157 
0.01037992690198852 
-0.04896775053630653 
-0.002029190980937204 
-0.04181045500846226 
-0.04167607794736784 
-0.01138894220378547 
-0.005534961848318816 
0.000299563827015327 
0.01365807088985236 
0.01037992690198852 
-0.00415775570892974 
-0.005534961848318816 
0.001769971054648065 
0.0330940590475482 
0.001769971054648065 
-0.004795138191468108 
0.001769971054648065 
0.001769971054648065 
0.09056327338213079 
-0.02023697593110119 
-0.00283447680907731 
0.01816187328228337 
0.00324597480828527 
0.005338585173536522 
-0.05660614460796758 
-0.0002446007492451607 
0.06753530033767845 
-0.01585944263117588 
-0.008107557928780243 
0.01274985726543201 
-0.02978648213366587 
-0.0005995283804353637 
-0.01437187091434141 
-0.0002446007492451607 
0.01474559480581326 
-0.0002446007492451607 
-0.0002446007492451607 
-0.0002446007492451607 
2.781281190600191e-05 
0.01890780366829479 
0.108251245612644 
-0.0009361465404521797 
-3.286851111477617e-05 
-0.000653189766121554 
-0.0009361465404521797 
-0.0009361465404521797 
-3.286851111477617e-05 
-3.286851111477617e-05 
-3.286851111477617e-05 
-3.286851111477617e-05 
-0.01386853554247613 
0.00522081422946075 
1.684256630080237e-05 
-0.05748438472023852 
-0.005856465288817378 
-0.06403573879799558 
-0.00940140864755316 
-8.30707589587347e-05 
0.001259800653743651 
-0.01383543804524253 
-0.01019453932954148 
1.684256630080237e-05 
-0.06774415962225795 
0.03227856406993165 
1.684256630080237e-05 
0.0003470143801005373 
0.0003470143801005373 
0.004711829578534545 
0.0003470143801005373 
0.0003470143801005373 
0.0003470143801005373 
-0.007343986121193867 
0.0003470143801005373 
0.0003470143801005373 
0.01273592642732486 
0.02536665119894747 
-1.257793612141126e-05 
0.02095144981090585 
-0.0002241309526434043 
-1.257793612141126e-05 
0.0147369129293785 
-1.257793612141126e-05 
0.005778303461836483 
0.02693365931985965 
0.006464697930898912 
-0.05723198127371364 
-0.05723198127371364 
0.005452954038365734 
0.2010147704133665 
0.01187840655754585 
0.006270685088683152 
0.005778303461836483 
0.007316780092167981 
0.005778303461836483 
0.005778303461836483 
0.01187840655754585 
0.006270685088683152 
0.006270685088683152 
-0.00650382649561411 
-0.0175234754018015 
0.01346038020413392 
-0.01657129980843078 
-0.004443731265255596 
-0.004685074857066772 
-0.0175234754018015 
-0.05861778427913046 
0.0397641341977994 
0.0397641341977994 
0.0397641341977994 
9.650126821428083e-05 
-0.00080714336142431 
-0.0001958759317180663 
0.05814991557111826 
-0.0001958759317180663 
-0.01350488933290124 
0.05411806101932943 
-0.01350488933290124 
0.02745840756341954 
0.00188084142457119 
-0.001194039158868808 
0.003066952819389368 
-0.002633816401379639 
-0.002633816401379639 
0.003966747017285212 
-0.003540022357986756 
-0.003540022357986756 
0.003966747017285212 
-0.003540022357986756 
0.003066952819389368 
0.0358739377548724 
-0.04857537572672832 
0.009654455398392761 
0.0358739377548724 
-0.0487007525988457 
-0.0487007525988457 
-0.0487007525988457 
-0.005574436357328405 
-0.00260835187343376 
-0.006234063751887514 
-0.001502037212734272 
-0.005574436357328405 
0.02375205998746873 
-0.04516171819825189 
-0.03651807620091732 
-0.005574436357328405 
-0.0547103948158032 
-0.00260835187343376 
-0.004873020420731505 
-0.004978415477397519 
0.003406754410257701 
-0.005574436357328405 
-0.04441928750708807 
-0.03651807620091732 
0.01691685594228672 
0.03361834619548045 
0.02921019348444851 
0.0221042350215493 
0.06418539260109715 
0.00124692907159758 
-0.02944088953466138 
0.02530378030282078 
0.02497251331564445 
-0.0004569463329222994 
0.0002921728103353239 
-0.0004569463329222994 
0.002012681892013552 
-0.0004569463329222994 
0.02530378030282078 
-0.0004569463329222994 
-0.01063584794279655 
0.09150524717560045 
-0.002515926588857755 
0.000271129682898551 
0.0008874980079921151 
0.03517267359026718 
0.001353716848965486 
-0.0002271917967322768 
-0.01032995856849583 
0.09355331000166511 
0.0002395581566872916 
0.0009961411424795573 
-0.002629719031256349 
0.03080373860804196 
0.09150524717560045 
0.0008874980079921151 
0.001126978959170546 
-0.003208405692196498 
-0.001061227002991091 
0.01006673490244146 
0.05364984475740095 
0.02652537100145979 
-0.008652320158052456 
0.01006673490244146 
0.009365162260480217 
0.02328328665180178 
3.081686783596866e-05 
0.01344211753051021 
8.732728136505864e-05 
0.01858720208355627 
0.02234625464370159 
-0.001491204951008847 
0.03786660723201014 
0.03786660723201014 
0.006180109142563738 
-0.03878811374311326 
-0.001491204951008847 
-0.0272876561131965 
0.04436392149539753 
0.01763092705904884 
0.03481421129634448 
-0.0380726542353684 
0.01081551655273946 
-0.03878811374311326 
-0.001491204951008847 
-0.0005353367141222085 
0.009453292302424487 
0.09618787354958037 
0.07554139972227511 
0.009453292302424487 
0.008074334090620226 
0.009453292302424487 
0.009453292302424487 
0.009453292302424487 
0.009453292302424487 
0.009453292302424487 
0.03633334418389307 
-0.001016073686066904 
-0.002414061199375621 
0.01840130139888371 
0.02542378810265101 
-0.001454414965681421 
0.02144877552100156 
-0.0027804044612734 
0.02756959080691235 
0.004028835989704665 
-0.002414061199375621 
9.461653484035566e-05 
-0.0007353953230964948 
-0.0007097142643081749 
0.04113060928952339 
0.04113060928952339 
-0.001611211515102102 
0.007685696212929756 
0.003646714507805037 
-0.001611211515102102 
-1.379782895859239e-05 
0.007291444964983554 
0.05623356478602459 
-0.004124315302024582 
0.06776795343576227 
0.001892331570192419 
0.02863386687014255 
0.006217260282431573 
0.001840022846418157 
0.006217260282431573 
0.02089545769684004 
-0.001260077002343053 
0.1020119515798334 
0.02089545769684004 
-0.0003232411108958223 
-0.0003232411108958223 
0.02089545769684004 
0.06837390288644633 
0.006217260282431573 
-0.001260077002343053 
-0.0004130747765898958 
0.02032322607299675 
0.1106068962707741 
0.02634171361984796 
0.02071299280910267 
0.1106068962707741 
-0.001374192578113385 
0.1106068962707741 
0.1106068962707741 
0.1106068962707741 
0.1106068962707741 
0.02024580450622731 
0.1106068962707741 
0.1106068962707741 
0.0206167639511316 
-0.001374192578113385 
-0.001374192578113385 
0.0005606613656232774 
-0.03533401681708501 
0.009655264812571146 
0.009768645489470429 
0.009768645489470429 
-0.03533401681708501 
-0.02975632066436142 
0.008761969135820778 
0.0005606613656232774 
-0.03533401681708501 
-0.02624845621343534 
0.0004990661619910649 
0.007018762079845737 
0.0244672197336479 
0.06649748036267096 
0.0004990661619910649 
0.01428249307884367 
0.0004990661619910649 
5.283598421957069e-05 
0.1749768733871916 
0.0004990661619910649 
0.002868750423804385 
0.186630537209868 
0.003374307759351796 
-0.1014829299979826 
-0.0830622473104345 
-0.1383904026893079 
-0.1383904026893079 
-0.06649206436877844 
-0.1383904026893079 
-0.1383904026893079 
-0.1383904026893079 
0.002376023111671578 
0.1307446524721128 
0.1307446524721128 
-0.007093523700596474 
0.002262809883974206 
0.1307446524721128 
0.2436381117746172 
-0.06568111921823357 
0.01145867132144316 
0.1307446524721128 
0.03764654847607368 
0.1307446524721128 
0.04815869567274379 
0.005647375131234726 
0.05783009670663626 
0.002367244194632619 
0.3488564473219198 
0.05344985867468022 
0.05230385069805635 
0.05800656778287309 
0.002367244194632619 
0.01768092839660368 
0.05423086176200176 
0.05783009670663626 
0.3488564473219198 
-0.003218138006356968 
-0.05561543938256779 
-0.002939489614434458 
0.00326845821034669 
-0.0007395996540311518 
0.05546674332879635 
-0.04213656877339148 
-0.1154599803020457 
0.00195806794940984 
0.001316972398006061 
0.0549170802671029 
0.0549170802671029 
-0.0009449629038919869 
0.0725628575122982 
0.1385148096271237 
0.0549170802671029 
0.07867006439294071 
0.06573721053160862 
0.06650921382868191 
0.04332167199166443 
-0.1162353183001206 
0.149208722852267 
-0.0004234727952869858 
0.01826775567732487 
0.007674025687331814 
-0.0006548328699101828 
2.17041916134278e-05 
2.17041916134278e-05 
-0.0008613746176037481 
0.007674025687331814 
-0.0004234727952869858 
-0.0008613746176037481 
0.08645345282120018 
0.06551775178929925 
0.2792890823209234 
-0.0007328313098422448 
-0.0007328313098422448 
-0.0007328313098422448 
-0.02503866706372754 
-0.007529339627627188 
-0.02359449621409856 
0.02264799821399441 
-0.006481117594409835 
0.0268104170696622 
-0.009978228281552221 
-0.003177390567697635 
0.02325467477183825 
-0.0006565643122070188 
0.07880202195093769 
0.01207854916045119 
0.0268104170696622 
-0.01024802459542702 
-0.0004118968299375163 
-0.002500160287678111 
0.03304485166192384 
0.008600819414485912 
0.02922014767618586 
0.008600819414485912 
0.007189183705862729 
0.003049310373040138 
0.008600819414485912 
0.005095143013356668 
0.005088195795585031 
0.005028218905827749 
0.008600819414485912 
-0.001495997715951683 
0.008600819414485912 
0.009989219356992166 
0.008600819414485912 
0.01674023385323561 
-0.0004718845992611595 
-0.0004718845992611595 
-0.06394457019653368 
-0.0004718845992611595 
-0.005985284908436457 
0.00507623380165177 
0.03032072668839476 
0.00507623380165177 
0.00507623380165177 
0.03127765368104493 
0.00507623380165177 
0.0001332285362341536 
-0.00587428123022875 
-0.004934364663740727 
-0.004740238057263831 
0.01309147525366644 
0.02001311514739431 
0.02705049612415714 
-0.004934364663740727 
0.02664192137529754 
0.02225849866482978 
0.00284498712397014 
0.0263317733687392 
0.023585583864933 
0.016149776322517 
0.016149776322517 
0.009196832031650851 
-0.000452297119020355 
0.02225849866482978 
0.002508658147728698 
-0.0008059021657638739 
-0.0008059021657638739 
-0.000452297119020355 
-0.000452297119020355 
0.00284498712397014 
0.01066173116717348 
0.01621071601815746 
-0.00156030740331443 
-0.002218130239309584 
-0.007047952186139779 
-0.0005531721029850488 
-0.0024519309505353 
-0.007148187821286825 
-0.004469035759549432 
-0.002218130239309584 
-0.0005531721029850488 
0.01621071601815746 
-0.007148187821286825 
0.02539436162461552 
0.005174680831154466 
0.02061932826169992 
0.02091052774066007 
0.02061932826169992 
0.01270947254248089 
0.01376583775109769 
0.05038821633942518 
-0.01657268126365006 
-0.01657268126365006 
0.02061932826169992 
