solver_type L2R_L2LOSS_SVC
nr_class 2
label 1 -1
nr_feature 66494
bias -1
w
1.010870609262207 
0.08936326143501577 
-0.0002575694718568486 
-0.01132270237802414 
0.0456817782085687 
0.1344080163744259 
-0.01132270237802414 
0.003836351901388296 
-0.01132270237802414 
-0.01132270237802414 
0.08936326143501577 
-0.01132270237802414 
0.001645263743274412 
0.0009071736321569193 
0.001140040504173143 
0.168586316722818 
0.002063689060880251 
0.001231629544762932 
-0.1179933135116812 
0.156154634368247 
0.1671044431567684 
0.02462981661865368 
0.5199677735249851 
0.1165852139818629 
0.1217287765142195 
-4.93934772598479e-05 
0.156154634368247 
0.07048547217220545 
0.07048547217220545 
0.02462981661865368 
0.156154634368247 
-0.0003280120084356993 
0.00331261904195633 
-0.0002609833843411286 
0.02462981661865368 
0.156154634368247 
0.07048547217220545 
-0.007764074126933846 
-0.01562920282681691 
-6.912905273491695e-05 
-0.1262995165938213 
0.02462981661865368 
-0.004714437864265591 
-0.1416119287608822 
-0.3907374124932749 
0.1058654598652553 
0.2477152997021912 
-0.03580087884083084 
-0.03580087884083084 
0.0816947098209245 
0.4919576600559641 
0.04406762206569493 
0.1673489012995789 
0.1606545587104617 
-0.04978374178291603 
-0.03580087884083084 
0.2477152997021912 
0.04215897094671234 
0.2477152997021912 
0.1673489012995789 
0.0002320671434492486 
0.2536594589299838 
0.6271116072043532 
0.1675586490925947 
0.1675586490925947 
0.2477152997021912 
-0.4232747064808635 
0.1421627205315747 
0.08127807082382062 
0.08127807082382062 
-0.04883636091689825 
0.08127807082382062 
0.08127807082382062 
0.009747056688259268 
-0.04883636091689825 
0.009747056688259268 
-0.0002447402682257419 
-0.04883636091689825 
0.07963748578767726 
0.2192793404355275 
-0.04883636091689825 
0.239650008926855 
0.009747056688259268 
0.239650008926855 
0.009747056688259268 
0.1421627205315747 
0.08127807082382062 
0.07971688817567699 
0.007780245393919213 
0.03741270352787501 
0.09425395950355547 
0.007780245393919213 
0.223567445024868 
0.007759418035262742 
0.007780245393919213 
0.007780245393919213 
0.007780245393919213 
-0.001752840344899745 
0.08060236838234301 
0.006882350514515009 
0.05164491650447774 
0.08722295276352898 
2.441285435750712e-05 
0.05164491650447774 
0.1812227701808733 
0.7335659363038022 
0.02675960473658579 
0.0902658516577485 
0.3725102595822906 
0.02675960473658579 
0.1821632217819867 
0.02675960473658579 
0.05164491650447774 
-0.08193458351983647 
0.2248067148325683 
0.119783097960272 
0.07238308907475689 
0.0378352608887253 
0.1398085883135355 
0.04071029357423749 
-0.1795098870928428 
0.04672900601337685 
0.0378352608887253 
-0.1795098870928428 
0.119783097960272 
-0.08411314309076438 
0.04672900601337685 
0.119783097960272 
-0.2031860922655453 
0.2248067148325683 
0.04489842691445887 
0.0468547428544482 
0.04672900601337685 
0.143699426556827 
-0.01766541525338433 
0.04747281101633351 
0.119783097960272 
0.0378352608887253 
0.09908310281943519 
-0.07951421857715779 
0.3135246693884498 
0.07807414762900189 
0.001110773622144472 
0.008794449432565228 
0.002135667964465416 
0.001041498983918678 
0.01203516789969455 
0.01203516789969455 
0.07580746899547339 
0.07807414762900189 
-0.0004494307055987344 
0.1605637885283427 
0.3286361233157156 
0.05183651351263799 
0.07450372940504246 
0.07807414762900189 
0.001041498983918678 
0.07807414762900189 
0.430113539352335 
0.001041498983918678 
0.2354852885079806 
0.04618962409970908 
0.04372033688859195 
0.03185717819202932 
0.002934032967739852 
-0.0002810026214946605 
0.06458522344990167 
0.0248853117678918 
0.02459223842925514 
0.0248853117678918 
-0.05273120039736232 
-0.003760080217307665 
0.05534480508948248 
0.02116320612746214 
-0.0002810026214946605 
0.04618962409970908 
0.1931930093066404 
0.0248853117678918 
-0.0111410126586938 
0.02116320612746214 
-0.001644781166612753 
0.155649115803223 
0.002844916394682999 
0.06601769821729028 
0.06601769821729028 
0.002204133265288404 
0.155649115803223 
0.003015452216540552 
0.06640744905811065 
0.155649115803223 
0.03078221085515535 
0.002591637433884379 
0.1470250615171093 
0.002023405517348589 
-0.04785921905550662 
-0.04478713422383079 
0.03078221085515535 
0.155649115803223 
0.03078221085515535 
0.06601769821729028 
0.1126334192830397 
-0.1857526843039791 
0.3592460030929825 
9.463321785813156e-05 
0.07533537326094558 
0.07533537326094558 
0.003349763897124159 
0.6150810947621447 
-0.02260338223222354 
-0.02260338223222354 
0.1145764983606592 
9.463321785813156e-05 
0.07533537326094558 
0.07533537326094558 
0.07985872431533766 
0.08406593330026284 
0.1117088747003143 
0.07533537326094558 
-0.06323942487015269 
0.0001918543316062115 
0.1410402417857105 
0.08645737304806406 
0.08651447420499594 
0.008228888802716629 
0.01344153730995688 
0.07251707560128183 
0.05558021233947843 
0.06765375085423361 
0.01090558862054468 
0.01090558862054468 
0.007050454023872523 
0.007972345562591781 
0.08636371920394612 
0.06765375085423361 
0.01090558862054468 
0.1160345254796066 
0.07254800876577616 
0.03191732144105477 
-0.0001239579147380876 
0.1299433406046801 
0.03191732144105477 
0.363063448435872 
0.1128940282439358 
0.2941898497246422 
0.1128940282439358 
0.1178270362315968 
-0.03564494478495597 
-0.03564494478495597 
0.1860806281287211 
-0.08509670539932715 
0.2748634231084942 
0.2291017631359902 
0.05320689068488933 
0.005165602762011363 
0.117683726588956 
0.04652452706771484 
0.04692234256007779 
0.1307128912220165 
-0.01298561638590163 
-0.02120509989757428 
2.145345923589142e-05 
-0.0008184089945651439 
0.01716900978863072 
0.0007166199057178112 
0.03483569059708871 
0.05933365659033523 
-0.02120509989757428 
0.0636162429100761 
0.04127745176355534 
-0.004625984084847198 
0.007100137137413507 
-0.0008184089945651439 
-0.02120509989757428 
0.04981952701182731 
0.0007166199057178112 
0.01431117644098679 
0.00442776148230277 
0.0593003673913188 
0.02734706591372534 
0.0007166199057178112 
0.001954277936521463 
0.06355858909804209 
0.485789184554447 
0.06355858909804209 
-0.003477418755045915 
0.06355858909804209 
0.1166862846565234 
0.2362885458807076 
-0.003477418755045915 
0.06355858909804209 
0.1528805885601811 
0.06355858909804209 
0.1126172647236074 
-0.003477418755045915 
0.0004076061071353764 
0.08278118001125374 
0.06248399127722117 
-0.007835635146015218 
0.06248399127722117 
0.355290401856469 
0.08278118001125374 
4.2832375884637e-05 
0.08278118001125374 
-0.03502779015295063 
0.06248399127722117 
-0.03388437167875336 
0.08278118001125374 
0.05987658707052436 
0.09957899821223 
-0.008500092978786067 
0.1546599013305011 
0.00098171328681855 
0.08278118001125374 
0.4404438030190977 
0.1924068877349385 
-0.1727302540340834 
-0.0330335383002713 
0.099528756926795 
-0.01368638552796634 
0.04355218984776817 
-0.001002091777434676 
0.1992536249942962 
-0.122615158111346 
-0.006678268065767716 
-0.006678268065767716 
0.005994965023354855 
-0.006678268065767716 
-0.006678268065767716 
-0.008433476733864976 
-0.0009152104042174788 
-0.006460046413942995 
0.004625340323503774 
0.07129493897451702 
-0.001002091777434676 
0.004625340323503774 
0.3313289026727511 
0.04585565555355178 
0.001840352861308048 
-0.004373357892064424 
0.04585565555355178 
0.04585565555355178 
0.1180672392107106 
0.09747933501391065 
0.001840352861308048 
0.04585565555355178 
0.1129922911909287 
0.1129922911909287 
0.1872316805011205 
0.0006081355612162431 
-0.03576035148404889 
0.1095263384932881 
0.235556615346559 
0.2423118525403526 
-0.1114471601585706 
0.0001045653620010719 
0.0284447920129872 
-0.03576035148404889 
0.02502887228220184 
0.0003819669459913514 
0.1129922911909287 
0.1872316805011205 
-0.0461866654690986 
0.0284447920129872 
0.0006081355612162431 
0.1129922911909287 
0.1129922911909287 
0.0001045653620010719 
0.1129922911909287 
0.1246930930997149 
0.1032736887282123 
-0.01367795595196945 
0.1595869062169015 
-4.640417750189452e-05 
0.1819288626437001 
-4.640417750189452e-05 
0.1819288626437001 
0.1245686167421292 
-4.640417750189452e-05 
-0.001343878731591618 
0.2473693784973722 
0.1819288626437001 
0.0930261868400791 
0.002336725037851069 
0.003760432891125249 
-0.001343878731591618 
0.05312769555848124 
0.05312769555848124 
3.588940657383205e-05 
0.01444544985944454 
0.06813436547194616 
3.588940657383205e-05 
3.588940657383205e-05 
3.588940657383205e-05 
0.005465807257471249 
0.03008439652532638 
0.05325708985741279 
-0.01650629446201879 
0.2379354584414733 
0.05325708985741279 
0.06297261477330887 
0.01444544985944454 
0.05312769555848124 
0.005465807257471249 
0.01444544985944454 
0.01444544985944454 
0.001638327448427819 
-0.05306812509950214 
0.002413331723568534 
0.002785999808084631 
0.002413331723568534 
-0.04228737669142103 
0.0385840310925332 
0.001638327448427819 
0.001638327448427819 
0.002413331723568534 
0.0487322481920027 
0.001638327448427819 
0.2020502331283654 
0.002413331723568534 
0.001606786907300096 
0.001606786907300096 
0.0006986935569329589 
0.06397787970897963 
0.0009402917028889244 
0.04379031793986251 
0.5874926281434327 
-0.004533029665243929 
0.03845476362318529 
0.0006986935569329589 
0.04379031793986251 
0.207791382697462 
-0.05105666749008037 
0.0006986935569329589 
0.03845476362318529 
0.1332943533228648 
0.07937254798757046 
0.03845476362318529 
0.03138071008053218 
-0.08375721611563322 
0.01439403281604171 
0.3721716574192147 
0.1429903248121978 
-0.08284810826088404 
0.1429903248121978 
0.005068919189119878 
0.2499610571653314 
-0.08284810826088404 
0.2628118661307835 
-0.0005212727817702956 
0.01439403281604171 
-0.08284810826088404 
-0.08378169842481178 
0.01439403281604171 
-0.0001507469601672055 
0.1788625769162845 
0.1972143593365358 
0.2695341827337209 
0.003276979586323487 
0.006611393512964112 
0.06893426962510972 
0.03309499301969246 
0.3632635594886527 
0.006611393512964112 
0.003276979586323487 
-0.02125892633562034 
0.1072518528066572 
-0.06589917338138557 
-0.002019495341071504 
0.1957012935477921 
-0.06656491643931738 
-0.06656491643931738 
-0.004127013821714452 
0.003276979586323487 
-0.003739630816816342 
-0.03993805553506447 
-0.002636807083457799 
0.4088081389479164 
-0.03993805553506447 
0.01878040295941238 
0.3552623673191183 
-0.00114881853591284 
0.4088081389479164 
-0.01388765891967764 
0.1396392499864852 
0.04252143972278611 
-0.01444099599982142 
-0.01444099599982142 
0.04252143972278611 
-0.001359787210080792 
-0.001543251544750083 
-0.00114881853591284 
-0.002625751737394382 
-0.002625751737394382 
-0.00406901993291612 
0.2786090392327114 
-0.03754766879007164 
0.1690592113476658 
0.0950404555319187 
0.0950404555319187 
0.0950404555319187 
0.04050922823807521 
0.03314878767483459 
0.0950404555319187 
0.1690592113476658 
-0.08070025678100302 
0.04273889576679068 
0.0950404555319187 
0.03314878767483459 
-0.05208570000906298 
0.1690592113476658 
0.3628957751942932 
-0.05176968165621824 
0.1690592113476658 
0.03314878767483459 
0.03314878767483459 
0.0473614037997326 
0.2371687113657897 
-0.02755657745180116 
0.09497689386467678 
0.06072270476565263 
-0.07412031556561545 
0.02650448353202851 
0.04160764388783683 
0.422358833744763 
0.1640010647575998 
-0.05102106419763568 
0.05651399094755598 
0.09497689386467678 
0.09497689386467678 
-0.0003195752886671583 
-0.006245135150655033 
-0.02755657745180116 
0.05651399094755598 
0.02650448353202851 
-0.1216043189308506 
0.04160764388783683 
0.05651399094755598 
0.02491878351563533 
0.05651399094755598 
0.05230696038777426 
0.09354724446035215 
0.0002618094299878967 
0.1847486878188843 
0.169055062315591 
0.1696220711198011 
0.1180276952535748 
0.2549061591037932 
0.004073220551989295 
0.0002618094299878967 
0.1610553239446705 
0.1185409574935186 
0.1615255633229606 
0.05230696038777426 
0.05230696038777426 
0.09354724446035215 
-0.005265639439412971 
0.09354724446035215 
0.0007040476410797948 
0.1134002392290225 
0.05230696038777426 
0.173797940028816 
0.0467951257103175 
0.05654269683150039 
-0.062674433662591 
0.2716682849966496 
0.05564689968405521 
0.1114180365470317 
-0.2661285552705719 
0.04824624796261848 
0.04723396860583872 
0.1871911311188418 
0.1141303404296126 
-0.01401708217540672 
0.1141303404296126 
-0.015292074595797 
0.05654269683150039 
0.03520046444879182 
0.0473170510935738 
0.1139774827214418 
-0.5857878881578753 
-0.02077135264098645 
-0.02077135264098645 
0.1946271835670965 
0.1125661482395153 
0.01711151232070053 
0.01711151232070053 
0.01711151232070053 
0.01540018125750417 
0.01711151232070053 
0.01540018125750417 
-0.0002944684313177327 
0.0725296537858468 
0.01540018125750417 
-0.0002944684313177327 
0.08670959261112202 
0.09486579279555896 
0.01540018125750417 
-0.0002944684313177327 
-0.0002944684313177327 
0.01540018125750417 
-0.0002944684313177327 
0.1277583347752429 
-0.0005959574190065265 
0.01540018125750417 
-0.002251888962483337 
0.0005074326995687607 
0.1574111408789786 
-0.006024789320178442 
0.0004209190685130044 
0.1574111408789786 
0.1574111408789786 
-0.009514119374552989 
0.05295188540490053 
-0.01045386230957763 
0.001350257435622573 
0.1574111408789786 
0.1043041764364925 
0.05512297730624598 
0.001350257435622573 
0.03220771948515382 
0.001350257435622573 
-0.01045386230957763 
0.1574111408789786 
0.1570765177795945 
0.001350257435622573 
0.2651454088604486 
0.07399271895004375 
0.1185851790058089 
0.07399271895004375 
0.02296824653918167 
0.0001190612639589952 
0.0001190612639589952 
0.09925310103534628 
0.0416631686170731 
0.1129606592530818 
0.07399271895004375 
0.0001190612639589952 
0.09925310103534628 
0.07399271895004375 
-0.07522048460133023 
0.09925310103534628 
-0.07522048460133023 
0.1542072176357708 
0.09925310103534628 
0.0001190612639589952 
0.0001190612639589952 
0.0001190612639589952 
0.09925310103534628 
0.09925310103534628 
0.03933472299460409 
0.4401100028438847 
0.0001811442644787282 
0.1436366107505066 
0.0004548009698412444 
0.0001934594116650649 
0.1836949958618971 
-0.00337447173279667 
0.02011138476843011 
0.002741629577778518 
0.06003772549467323 
0.0001811442644787282 
0.0003751859658624819 
0.004500147473933394 
0.03646925972503651 
0.1261529406680674 
0.0004548009698412444 
0.000194546168730243 
0.5797459606179372 
0.07268645253254634 
0.0004548009698412444 
0.152099605651933 
0.05724534694667141 
0.07356169011310244 
0.0004548009698412444 
-0.006437989040216039 
0.07268645253254634 
-0.0001954590212137898 
1.466571639649671e-05 
0.08091602205616849 
0.2053878495517452 
0.006982050358388885 
-0.0001954590212137898 
0.006982050358388885 
0.0997657937803002 
0.09944970410965409 
0.09922805846850509 
1.045548062211023e-05 
-0.0001954590212137898 
1.045548062211023e-05 
0.05425601134514971 
0.0001572053519014963 
1.045548062211023e-05 
0.006982050358388885 
5.299757152425391e-05 
0.09948968982768547 
0.08907393310168354 
-0.0001954590212137898 
-0.0001954590212137898 
0.04578300514517127 
0.1190356923024328 
0.1123574716206946 
0.0803803750878281 
0.05601210601845729 
0.1713675984796948 
-3.658199574933859e-05 
-3.658199574933859e-05 
0.01820579720973712 
0.02482350903323978 
-0.01042058836262692 
0.00103039409630427 
-0.01042058836262692 
0.0007589238681617813 
-0.01042058836262692 
-0.01042058836262692 
-0.01042058836262692 
0.02469577791030217 
-0.0005958291361599611 
-3.658199574933859e-05 
-0.006946387682054895 
0.1637890710206433 
0.02901758778430458 
0.0005762889611586913 
0.02950007018024273 
0.07088650755122305 
0.01242198935095838 
0.02901758778430458 
0.02520278600816548 
0.01242198935095838 
-0.005135868242611313 
0.07088650755122305 
-0.001935615437200736 
0.07088650755122305 
-0.001935615437200736 
-0.001935615437200736 
0.01242198935095838 
0.001191693970200319 
0.02397384143264982 
0.0005762889611586913 
-0.001935615437200736 
0.3809056110098387 
0.02901758778430458 
-3.502670659833869e-05 
0.131031711578691 
0.04994311730184096 
-0.0923177607478288 
-0.0001338927949167262 
0.1280216124695112 
-0.0004938738324056293 
-0.0001338927949167262 
0.144946138299557 
-0.01690548262277608 
0.01859886469401143 
-0.0001338927949167262 
-0.0001338927949167262 
0.01483886741014637 
-0.05071764144255442 
-0.0923177607478288 
0.04994311730184096 
0.04994311730184096 
0.04878010518632617 
0.04994311730184096 
-0.0001338927949167262 
-0.0923177607478288 
0.003920911297607615 
0.154565296885728 
0.154565296885728 
0.154565296885728 
0.0004755187594615474 
0.0005811316989898592 
0.154565296885728 
0.154565296885728 
0.2978175562298435 
0.03002279969742399 
0.154565296885728 
0.154565296885728 
0.154565296885728 
-0.003324396779337291 
-0.003896967262095759 
0.1418548026862103 
-0.003324396779337291 
-0.0937052040760509 
-0.05152644630396511 
-0.0001672123394842999 
-0.003324396779337291 
-0.003437235117582722 
-0.003437235117582722 
-0.003437235117582722 
-0.003437235117582722 
-0.003247568810230939 
-0.04137871611573703 
-0.04182045232318706 
0.002209231269878741 
0.003903690836547246 
-0.1414065370479325 
0.002209231269878741 
0.002080752910646992 
0.002080752910646992 
0.002080752910646992 
0.01591962396999511 
0.002080752910646992 
0.002051952593246465 
-0.08038647363186224 
0.161006684211067 
0.002372903870840379 
0.002468876211996758 
0.003903690836547246 
0.07763253733816637 
0.003903690836547246 
0.001667451352368415 
0.05624341571222671 
-0.0008075915577846223 
0.1811248935530907 
0.001194609769399798 
0.1200945049912424 
0.1226015971879692 
-0.01172849478980009 
-0.0008075915577846223 
0.1226015971879692 
0.1226015971879692 
-0.02122900542984064 
0.1226015971879692 
0.2859229218911092 
0.1226015971879692 
0.001329329765993094 
0.001194609769399798 
-0.02122900542984064 
-0.0008075915577846223 
-0.0008075915577846223 
0.1226015971879692 
0.1226015971879692 
0.1226015971879692 
0.001194609769399798 
0.001194609769399798 
-0.0001383876896407133 
0.3450579553275346 
-0.00216561985967337 
-0.1269693909940243 
0.2607360612783857 
0.09637582502764674 
-0.0002568610303753971 
0.2607360612783857 
0.296477643919883 
-0.00216561985967337 
0.002480740680380623 
0.05130195507630272 
0.05074993516620345 
0.03394394416126261 
0.05074993516620345 
0.0572454900362834 
-0.002670035826241359 
-0.002670035826241359 
0.03374730372184898 
-0.002670035826241359 
0.05074993516620345 
0.06169039043552507 
0.1202780615555019 
0.05074993516620345 
0.03374730372184898 
0.07666829537747288 
-2.818190345579913e-05 
0.002229667528715465 
0.002229667528715465 
0.0002473839878800074 
-0.0004451876224118644 
-0.003473148109294336 
0.0002473839878800074 
0.06258226143901291 
-0.07287908295033231 
0.2436368287615533 
0.01414814494459432 
0.05203177218935922 
0.0281364822411902 
-0.03590773712741641 
-0.00020903000785941 
0.01414814494459432 
0.2436368287615533 
-0.01501752159174324 
0.01414814494459432 
0.01414814494459432 
0.1445611261361437 
0.1860257339561245 
0.2414452701610413 
0.1357483446611946 
0.1860257339561245 
0.1586770145351819 
0.1860257339561245 
0.1860257339561245 
-0.0003951689430900986 
0.1156364074344976 
0.2232195077601029 
0.07894913098524522 
6.378602829175323e-05 
0.1657104333460978 
0.03819989325029801 
0.1214941465409969 
0.03995911750442792 
0.03995911750442792 
0.02710781237470401 
0.5932531627093321 
6.378602829175323e-05 
-0.0004809318702315007 
0.03995911750442792 
0.05597988653701264 
0.002609971093072284 
0.1370954984305887 
0.03819989325029801 
0.01818888832505197 
0.0130153350848601 
-0.08414060597625887 
0.005091034358432847 
0.1092633998205403 
-0.08414060597625887 
-0.1018338437763739 
0.1092633998205403 
0.004299865319169221 
4.730920195329913e-05 
0.1092633998205403 
0.01463621556106201 
4.730920195329913e-05 
-0.1512679382339016 
4.730920195329913e-05 
0.1092633998205403 
-4.67564175761719e-05 
0.06151235296533902 
-0.0002085119194063894 
0.02000859204027788 
-4.67564175761719e-05 
0.02747565699626266 
0.006369076730017284 
0.06151235296533902 
0.02146796231996992 
0.02000859204027788 
0.02000859204027788 
-0.0004889569143996258 
-4.67564175761719e-05 
0.2230690811720533 
0.02146796231996992 
0.001464388850903959 
0.02146796231996992 
0.09054828233050696 
-4.67564175761719e-05 
-0.0004889569143996258 
-0.03136293437175575 
0.000164502015001506 
0.4405052246052165 
0.002511286243825696 
0.1569432631014703 
0.05844703174076256 
0.09359556675324339 
8.769945550526552e-05 
0.04588970782601869 
0.155641429858305 
0.0531069448827754 
0.04588970782601869 
0.04588970782601869 
0.002511286243825696 
0.1197797081574748 
0.000164502015001506 
0.000164502015001506 
-0.002209471663101833 
-0.005024604358046967 
0.000164502015001506 
0.09359556675324339 
0.09359556675324339 
0.0531069448827754 
0.09359556675324339 
0.04588970782601869 
0.0788845126060477 
0.110698540755275 
0.110698540755275 
0.110698540755275 
0.0788845126060477 
0.07787420065471765 
0.1298080556315614 
0.110698540755275 
0.0002052384671410978 
0.2153666880811294 
-0.02166397515124662 
0.0009797372357270718 
0.09386189870793937 
0.01622092221384683 
0.000574583315572686 
0.3802225015667668 
0.0009797372357270718 
0.07814143508951522 
0.09386189870793937 
0.0002052384671410978 
0.09386189870793937 
0.0009797372357270718 
0.0002052384671410978 
0.09386189870793937 
0.006711199504693257 
-0.002328198269417898 
0.09386189870793937 
0.0002052384671410978 
0.09386189870793937 
-0.02079499247043035 
0.0002052384671410978 
0.309338061795043 
0.004676812875854913 
0.05305829066063968 
0.003588646729885889 
0.002331810137194948 
0.003588646729885889 
0.05305829066063968 
0.05305829066063968 
0.05115055968241344 
0.00124421905164037 
0.170343985813472 
0.006286157710012778 
0.007595151181964908 
0.170343985813472 
0.002331810137194948 
0.2802620576281235 
0.05305829066063968 
0.0128896080612986 
0.002331810137194948 
0.05305829066063968 
0.03082694835340007 
0.1834783946357928 
0.09018307547395898 
0.1519935085255596 
0.09086840038345589 
0.1090070296771254 
0.09086840038345589 
0.1090070296771254 
0.06906579132623457 
0.09022991755626206 
0.09130546737511103 
0.09311678888319484 
0.09198011499948938 
0.07983079826288861 
0.1822168991518947 
0.03348978242786509 
0.07983079826288861 
0.07983079826288861 
0.07983079826288861 
0.03348978242786509 
0.03348978242786509 
0.1788750947043549 
0.1788750947043549 
0.03348978242786509 
0.07983079826288861 
0.007538916027070245 
0.001763254706236858 
0.09705840073266518 
0.04219498937948 
0.001763254706236858 
0.001763254706236858 
0.1138193655807101 
0.007538916027070245 
0.1138193655807101 
0.06827237625289538 
0.04219498937948 
0.04219498937948 
0.1059034444980358 
0.001320462627147806 
0.02840873451219202 
0.001077540841050947 
0.09731794188353041 
0.04721845870988735 
0.005163122200402243 
0.001276526518155595 
0.004211282806700639 
0.1440736432490157 
0.003735164802697522 
0.001276526518155595 
0.001276526518155595 
0.09731794188353041 
0.003735164802697522 
0.1717454746886085 
0.02840873451219202 
0.001320462627147806 
0.02840873451219202 
0.1059034444980358 
0.001276526518155595 
0.05887064480716497 
0.001320462627147806 
0.001276526518155595 
0.04238389626412364 
0.0727236432240074 
0.05061226177865467 
-0.001534581837197928 
0.006076951007007394 
0.0007460113893040403 
0.01682747883563795 
0.05365894904845148 
0.01682747883563795 
0.0007460113893040403 
-0.008069333368577443 
0.1917605479037053 
0.001331076107644486 
0.0727236432240074 
0.0727236432240074 
0.0007460113893040403 
0.002169139620654242 
0.006076951007007394 
0.006076951007007394 
0.001331076107644486 
0.01682747883563795 
0.0727236432240074 
0.006076951007007394 
0.246673232875637 
0.4285961526224003 
0.0003194305300657449 
-0.02030717588683358 
0.0001099189990596513 
-0.05810542232448904 
0.1522715175691588 
0.1371024428264904 
0.0491284983625034 
0.0003194305300657449 
0.0001099189990596513 
-0.1131013332534757 
0.0491284983625034 
0.0491284983625034 
-0.05810542232448904 
0.0491284983625034 
0.0008663023141541359 
-0.01653537756361098 
0.0491284983625034 
9.570151487886536e-05 
-0.01150739971175249 
0.08212920267176141 
-0.02071334787527888 
0.1784560328182705 
0.425428494943229 
-0.00747648162683672 
0.06253493819621553 
0.07629375923518109 
2.60838523973581e-05 
-0.1312997538159696 
0.1239095302380456 
2.60838523973581e-05 
0.08131094377665006 
0.08131094377665006 
-0.02071334787527888 
0.08453008839075422 
0.08453008839075422 
0.08453008839075422 
0.08131094377665006 
0.1218776951224004 
0.08453008839075422 
0.08453008839075422 
-0.02071334787527888 
0.01270640946506713 
2.60838523973581e-05 
0.08453008839075422 
0.002278525306072728 
0.3441668278322498 
0.002278525306072728 
0.002278525306072728 
0.1251938382158209 
0.002278525306072728 
0.02926192087569621 
0.002278525306072728 
0.002278525306072728 
0.002278525306072728 
0.03090507957191886 
0.002278525306072728 
0.002278525306072728 
0.002278525306072728 
0.03013287007104079 
0.2499858262711593 
0.03090507957191886 
0.002278525306072728 
0.002278525306072728 
0.1295807595735653 
0.002278525306072728 
0.06691931402485285 
0.00421542068847541 
0.1227857599992334 
0.3994681589256129 
0.0003633563958532896 
0.06714445593037366 
0.01097677561830686 
0.0002344323756107074 
0.06714445593037366 
0.111307257385616 
0.0002344323756107074 
0.06714445593037366 
0.1327388077089799 
0.06714445593037366 
0.0003633563958532896 
0.0003633563958532896 
0.0002344323756107074 
0.0002344323756107074 
-0.001014615802302778 
0.06714445593037366 
0.0003633563958532896 
0.1327388077089799 
0.1284834420309434 
0.2226074085274236 
0.03999828655643057 
-0.06017637509894103 
0.0001289240202425823 
0.2226074085274236 
-0.05863394078944502 
0.2226074085274236 
0.2226074085274236 
0.0005582350730205922 
-1.572464741226514e-05 
-0.02980144365808905 
0.005327228312790098 
0.0005582350730205922 
-0.02980144365808905 
0.0005582350730205922 
-0.1929631893950318 
-0.0007044504279081894 
0.0007594851436691705 
-0.02980144365808905 
-0.0007044504279081894 
0.0005582350730205922 
0.0005582350730205922 
0.003046835616228711 
0.08492604646373908 
0.01429020950668348 
0.01389286931319853 
-0.0005781758251140217 
0.08492604646373908 
0.01389286931319853 
0.08492604646373908 
0.08492604646373908 
0.01389286931319853 
0.0207008930512991 
0.01096215117872617 
0.09380551225082762 
0.01171256098283436 
0.08882613530475311 
0.0402580263696461 
0.01580168440462322 
0.01598975434639572 
0.01535513315913886 
0.01580168440462322 
0.01580168440462322 
0.01515541078548257 
0.01598975434639572 
0.01598975434639572 
0.01580168440462322 
0.01580168440462322 
0.01580168440462322 
0.01580168440462322 
0.01470621927251719 
0.01464156118244979 
-0.002262553993714366 
0.05425279126244886 
0.001150672971558857 
-0.08329530317846119 
0.05425279126244886 
0.1181683157554419 
0.05425279126244886 
0.1045416859930353 
0.1163074213841093 
0.05425279126244886 
-0.002262553993714366 
0.05425279126244886 
0.001150672971558857 
-0.01379523844452251 
-0.1441260160463214 
0.05425279126244886 
0.05425279126244886 
-0.002262553993714366 
0.001150672971558857 
-0.1146281199105823 
-0.1614166891839901 
-0.1172310517008783 
-0.1172310517008783 
-0.001751165042803147 
-0.1614166891839901 
-0.0003013976240902622 
-0.1172310517008783 
-0.1172310517008783 
-0.5741551553487665 
-0.001751165042803147 
-0.1172310517008783 
0.03738268591834402 
0.0008282108971614493 
0.003682502582365623 
-0.0002123745321864205 
0.07015221058207156 
-0.07037173905873352 
0.1047726694355466 
0.1707374179813529 
0.1092486189811819 
0.1538468909816925 
-0.002523046034145718 
-0.001878419126045159 
-0.001878419126045159 
-0.001878419126045159 
0.2184225666713922 
0.1092486189811819 
0.1707374179813529 
0.07032846462391475 
0.07032846462391475 
0.1092486189811819 
-0.001878419126045159 
-0.001878419126045159 
0.07032846462391475 
0.1707374179813529 
0.07032846462391475 
0.1218200898123958 
0.06138235315076392 
0.06138235315076392 
0.1218200898123958 
0.1326852729193269 
0.06138235315076392 
0.06138235315076392 
0.06138235315076392 
0.4339433153980912 
0.06899326292036455 
0.0020522309249796 
0.06899326292036455 
0.001549735388226114 
0.03541185036840495 
0.06899326292036455 
-0.0001847561407054686 
-0.0003150776370634399 
0.336833647262046 
0.06899326292036455 
0.0001692045783235239 
0.06739956861163202 
0.108886326097368 
0.1300773990101611 
0.1269091956145489 
0.01139488076054733 
0.002624174395186273 
0.06755337067493238 
0.1269091956145489 
0.108886326097368 
0.09864373242922456 
0.002497577543784973 
0.1273693092738579 
0.1733296091911639 
-0.006778742948059381 
0.108886326097368 
0.108886326097368 
0.1269091956145489 
0.108886326097368 
0.1585397725433229 
0.06739956861163202 
0.02656164496305253 
-0.08795704991058888 
-0.006675242762452233 
-0.01371600059364997 
-0.08795704991058888 
-0.06438721433536825 
0.007196345017509426 
0.1484611569951941 
0.1573346340504516 
0.1086449005031085 
-0.02112947213202077 
0.004480313527578847 
0.0001560473373994606 
0.1986046263674723 
-0.003864038310686164 
0.0001560473373994606 
0.3827608027888094 
-0.02112947213202077 
-0.02112947213202077 
0.3827608027888094 
0.1086449005031085 
0.3813427815273873 
0.0001560473373994606 
0.1086449005031085 
0.006446659632969233 
0.3878283697683347 
0.1086449005031085 
0.005530049817934814 
0.004019164004658568 
-0.1142402559058298 
0.03635672639273765 
0.004019164004658568 
0.08165298493826582 
0.03635672639273765 
0.03635672639273765 
0.08165298493826582 
0.004019164004658568 
0.04755637234522139 
-0.0837369018543858 
0.1719595933779982 
0.1092053011637685 
0.03635672639273765 
0.004019164004658568 
-0.07333966924911151 
-0.07333966924911151 
-0.007686120651852034 
-0.09977172404339363 
-0.008599601943648744 
0.000985023444386572 
0.03118979645578485 
-0.09977172404339363 
-0.06711270788746068 
0.000985023444386572 
-0.004970826844870433 
-0.07333966924911151 
-0.07333966924911151 
-0.07333966924911151 
-0.006953778443560703 
0.05478049773231863 
-0.09977172404339363 
-0.006408696815255379 
-0.07333966924911151 
-0.006953778443560703 
-0.09977172404339363 
-0.006953778443560703 
-0.065524324026157 
0.0609479702747168 
0.5577788906717546 
-0.0004826119858950246 
-1.027757202153429e-05 
-0.06597386096788083 
0.01521035844752295 
-0.0005107125389022533 
0.01718971867237329 
-0.0265280621313912 
0.0001075671700940036 
0.4404656198553312 
-0.008558068686931772 
-0.01964346132915227 
-0.01964346132915227 
0.05614765501823623 
-0.01964346132915227 
-0.003453161396586461 
0.05614765501823623 
0.05614765501823623 
0.2216926002351972 
0.05614765501823623 
0.0001318721242224845 
0.03404971108637576 
0.1217300048969263 
-0.02835093348654945 
0.03404971108637576 
0.0001318721242224845 
0.0371941310273874 
0.05084413337233813 
0.03404971108637576 
0.0001318721242224845 
0.08064412448008026 
0.03404971108637576 
-2.476530560871162e-05 
0.1217300048969263 
0.0001318721242224845 
0.1007602722329197 
0.09904429644146673 
0.09904429644146673 
0.0006547735953755633 
0.1165983040873269 
0.09904429644146673 
0.09904429644146673 
0.1166047141493224 
0.3272487287228925 
-0.0007722793968105377 
0.09904429644146673 
0.0623294557267725 
0.1165983040873269 
0.09608556890884595 
-0.0007722793968105377 
-0.0007722793968105377 
-0.001178059720712331 
0.01587947758513125 
0.006298775767409285 
0.0006547735953755633 
0.0006547735953755633 
0.090566207268095 
0.003606432461199715 
0.00178774538779833 
0.03979065496830906 
0.09551564452287996 
0.003606432461199715 
-0.00843708511449583 
0.03512094306419807 
0.00178774538779833 
0.0958559168784715 
-0.009064608296283881 
0.03917522977012248 
0.09551564452287996 
0.003606432461199715 
0.00178774538779833 
0.001325940380710796 
0.000718935052401259 
0.002744436158414407 
0.08270959130774823 
0.02155359142023815 
0.002744436158414407 
-0.006617123072929845 
-0.02036585423425314 
0.021535791335285 
0.01058855087363016 
0.01058855087363016 
0.002744436158414407 
0.01058855087363016 
0.002744436158414407 
0.01058855087363016 
0.0345020583745621 
0.1137802435133658 
0.0002199668776888059 
0.0003189766384189651 
0.0002199668776888059 
0.0002199668776888059 
0.0002199668776888059 
-0.0240530472889548 
0.0003189766384189651 
-0.02993087607331579 
-4.676347286510259e-05 
0.238625120785555 
0.0003189766384189651 
0.0002199668776888059 
0.007219168691425241 
0.03734760673164616 
0.1086001578359441 
-0.0159605349030693 
-0.01388654369536881 
-0.01388654369536881 
0.1577872390495336 
-0.003844331689012919 
-0.002620787007644551 
0.1086001578359441 
-0.008834271840841483 
0.1086001578359441 
-0.008919587152628475 
-0.002620787007644551 
-0.003844331689012919 
-0.01388654369536881 
0.0333453184066289 
-0.002620787007644551 
-0.003844331689012919 
-0.002620787007644551 
0.003181451220160119 
0.06431614560563 
0.05151978092677508 
0.05151978092677508 
0.06431614560563 
0.05151978092677508 
0.095199386628026 
0.05151978092677508 
0.05151978092677508 
0.05151978092677508 
0.06431614560563 
-0.01567641692938369 
0.1198376227883336 
-0.00160230308617609 
-0.01567641692938369 
-0.008986701043103796 
0.153294779453944 
4.356096849150957e-05 
-0.008986701043103796 
-0.1462356426596266 
0.1131770397799482 
-0.1253378566009632 
0.2431343734808686 
0.2761921761477194 
0.007938801887947274 
0.1131770397799482 
-0.4115228388818192 
0.1131770397799482 
0.1131770397799482 
0.1131770397799482 
0.1131770397799482 
6.491649160494539e-05 
-0.002283006135243947 
6.491649160494539e-05 
6.491649160494539e-05 
0.004228569777510062 
0.1687944051951852 
0.1149869286708819 
6.491649160494539e-05 
0.03526287201808574 
0.03540072888340044 
6.491649160494539e-05 
0.05579095523726413 
0.0001575551309406082 
0.05283433503042775 
0.0015796993683175 
0.0001575551309406082 
0.05696243572260729 
-0.0005192543017915126 
0.0001575551309406082 
0.05696243572260729 
8.077073712994087e-05 
0.05579095523726413 
0.1101481631369456 
0.1332023861747825 
0.05696243572260729 
0.05579095523726413 
-0.01963391915210264 
0.1129470997485465 
0.1129470997485465 
-0.01963391915210264 
0.1534002049651887 
-0.02775972168324076 
0.09562318731464128 
-0.02775972168324076 
-0.02039726632877485 
0.1129470997485465 
-0.02775972168324076 
-0.01951311445533908 
-0.01951311445533908 
4.303290113365266e-05 
-2.905516244483834e-06 
0.01136529215639538 
-0.01951311445533908 
0.0204846554080969 
0.1148578494350685 
0.1467086323098329 
0.002289289049450501 
0.1305562601197393 
0.1148578494350685 
0.01527623073735479 
0.02655061729188045 
-0.0948266070752176 
-0.0948266070752176 
4.162076156836452e-05 
0.004979798477291585 
0.1211692490591644 
0.02655061729188045 
0.00145635315539501 
0.06386038768140878 
0.1220666947131364 
0.1923978366981711 
0.1750517189360273 
0.1750517189360273 
0.0002013322741207945 
-0.002116928190490753 
0.08783049430969957 
0.1750517189360273 
0.03924084454306562 
0.1220666947131364 
0.08783049430969957 
0.0002013322741207945 
0.1220666947131364 
0.05015162054612694 
0.0002013322741207945 
0.0002013322741207945 
0.0007036662313551524 
0.0008970708494701263 
0.03924084454306562 
0.001130259859314992 
0.03924084454306562 
0.1847269390973225 
0.01976887647026451 
0.002071791941007543 
0.03931733298492873 
-0.007665541367367685 
4.255388017511625e-05 
0.01493373975571459 
-0.007665541367367685 
4.255388017511625e-05 
0.00433745159983376 
4.255388017511625e-05 
0.07357729026141076 
0.03078701961742455 
0.07357729026141076 
0.03078701961742455 
0.03078701961742455 
0.0008464989396597676 
0.0004898488605975536 
0.03078701961742455 
0.07993040708005932 
0.07993040708005932 
0.0005730681674957198 
0.07801027521238076 
5.157462154329937e-05 
0.03857614367373491 
-0.001256360848596822 
9.394503524644135e-05 
5.157462154329937e-05 
0.03478384134502849 
5.157462154329937e-05 
-0.01273246924433932 
-0.1067728960492676 
0.0283632307566756 
-0.03808961976483037 
-0.01273246924433932 
-0.03808961976483037 
0.003184702855340159 
0.01163862947582112 
0.01163862947582112 
-0.03808961976483037 
-0.01071670224308305 
0.01163862947582112 
0.03661740377563376 
-0.01273246924433932 
-0.01273246924433932 
0.05602429306175362 
-0.02225970298035794 
0.003184702855340159 
-0.03808961976483037 
0.003184702855340159 
0.00883965249871037 
0.05202077591916568 
0.08103837682957325 
0.0002152386304492657 
0.0670686694660039 
0.002574858642384257 
0.04175078868211642 
0.0001332844162090736 
0.1120193966600462 
0.0670686694660039 
0.0670686694660039 
0.09578504072504976 
0.0535195878040279 
0.02452224057453806 
0.001525049388429948 
0.09578504072504976 
-0.00153246448986311 
0.0670686694660039 
0.1308461860469561 
0.1324777393255166 
0.0670686694660039 
4.21212335562414e-05 
0.009557840474519403 
0.009557840474519403 
0.009557840474519403 
0.06406619921222782 
4.21212335562414e-05 
0.09461694495554251 
4.21212335562414e-05 
4.21212335562414e-05 
0.0286139668877822 
4.21212335562414e-05 
0.03151667578675674 
4.21212335562414e-05 
0.008309486836898222 
2.400966810074219e-05 
0.07272404215791341 
0.003459266017583957 
-0.01049866223209468 
0.05856629179071907 
0.000402868523817594 
0.02187483254748535 
0.001674773802161272 
0.02187483254748535 
0.0001572088905001991 
-0.001778696923027243 
0.0001634785738296738 
0.02187483254748535 
0.02187483254748535 
0.001111981577009946 
0.09658607606607017 
0.09658607606607017 
0.001111981577009946 
0.001111981577009946 
0.001111981577009946 
0.09658607606607017 
0.09658607606607017 
-0.1364254879346372 
0.09658607606607017 
0.09658607606607017 
0.006538022790181785 
0.001111981577009946 
0.001111981577009946 
0.144958154766873 
0.001111981577009946 
0.1812132096039386 
0.09658607606607017 
0.2705947210529457 
0.001111981577009946 
0.006078968137019641 
0.3004999860335763 
-0.001963442400499366 
-0.01106884500700761 
0.02045477521041101 
0.09287460557235418 
-0.001963442400499366 
0.002743334961304118 
0.05566313164295987 
0.09287460557235418 
0.09287460557235418 
0.3018631851689984 
0.09287460557235418 
0.3018631851689984 
0.07780213855485968 
-0.01365931364937153 
0.006078968137019641 
0.002743334961304118 
0.3004999860335763 
0.005680122388266953 
0.09622849095197668 
0.05036647903022799 
0.05117594874939677 
0.05117594874939677 
0.05117594874939677 
0.15744286574103 
0.09447399418634507 
0.1571215006331171 
0.05036647903022799 
0.03859213453274037 
-0.0001551580344899362 
0.0389070673179716 
0.15744286574103 
0.05117594874939677 
0.05117594874939677 
0.04617127882105253 
0.2919819280000369 
-0.0001889360413651654 
0.08722122462632775 
0.344135988201911 
0.344135988201911 
-0.001399091037002733 
0.0001121434700768291 
0.08722122462632775 
-7.249571737308241e-05 
0.0002251075692904515 
0.0002251075692904515 
-0.00133198258042035 
0.0002251075692904515 
0.4424694347485791 
0.344135988201911 
0.08722122462632775 
-0.001312793234926249 
0.0433279558722828 
0.0003777043070549547 
0.08722122462632775 
0.08722122462632775 
0.1049408422107725 
0.03331474399925344 
-5.674651170062468e-05 
-0.003981510865944754 
0.1049408422107725 
0.07210104056118652 
0.03331474399925344 
0.03331474399925344 
0.06713991795279756 
0.01803594983873082 
0.1049408422107725 
0.001144074169570825 
0.06887078746861462 
0.06887078746861462 
0.08191467373697851 
-0.001298914471698122 
0.06887078746861462 
0.001144074169570825 
0.07527379542079041 
0.001144074169570825 
0.06887078746861462 
0.07595527965510342 
0.225451619609776 
0.001144074169570825 
0.08765117806434471 
0.006575222795339176 
0.0001573349976502933 
0.0002165853623704604 
0.006575222795339176 
0.0003232835006061427 
0.0003232835006061427 
0.03874816010967426 
0.006569158571234853 
0.0003232835006061427 
0.01448321935503638 
0.04615562475852684 
0.006575222795339176 
0.1440926025109605 
0.0001573349976502933 
0.006575222795339176 
0.0001573349976502933 
0.03393191382654537 
0.0763802872037421 
0.01448321935503638 
0.1087973603673582 
0.03109624154140212 
0.03109624154140212 
0.05166935214948672 
0.03109624154140212 
0.2818179979316154 
0.03109624154140212 
0.03109624154140212 
0.0009792125442919524 
0.001955140768324376 
0.001955140768324376 
0.00213812562494016 
0.00213812562494016 
0.0009792125442919524 
0.001431826423160017 
0.001431826423160017 
0.001431826423160017 
0.01471770325966585 
0.001668844359237248 
0.04888457403327562 
0.001668844359237248 
0.002077018585045918 
0.001293219284124133 
0.02434233834931748 
0.001668844359237248 
0.01513877711553992 
-0.02054752981872182 
0.002931359323614268 
0.02434233834931748 
0.001668844359237248 
0.09652854685741045 
0.02411406214006638 
0.002077018585045918 
0.002931359323614268 
0.0240546933636711 
-0.01465105366835335 
0.001668844359237248 
0.001293219284124133 
0.1092580076965342 
0.003461039213852836 
0.06188971808721623 
0.06208014387807171 
0.06188971808721623 
0.0001045836573459817 
0.07770111882595612 
-0.1043261426846127 
-0.07562868724762795 
0.06208014387807171 
0.0001045836573459817 
0.06036451299822033 
0.09453543997560555 
0.0591604599308262 
0.01306364559017831 
0.001049381495247173 
0.0002360027810758515 
0.09495645335443981 
0.01306364559017831 
0.0002360027810758515 
3.389473414469563e-05 
0.06044990582352285 
0.0002360027810758515 
3.389473414469563e-05 
0.001494293152055687 
0.001494293152055687 
0.001494293152055687 
0.002504914441732415 
0.002504914441732415 
0.002504914441732415 
0.0162291218695939 
0.002504914441732415 
0.001494293152055687 
0.001494293152055687 
0.001494293152055687 
-0.002542175074572649 
-0.002542175074572649 
0.01372769746039543 
0.04577755472800742 
0.04577755472800742 
0.04577755472800742 
0.0001672566318052141 
0.1464065403892462 
0.2359623883610747 
-0.09929600594514679 
0.07181888955437662 
0.06933572484957841 
0.0002589502497341951 
0.04577755472800742 
0.04577755472800742 
0.06887175994837016 
0.07357620993796939 
0.04577755472800742 
-0.001167250312865896 
0.0001741476210038361 
0.07450174408492684 
-0.002631572385625874 
-3.851222259150828e-05 
-3.851222259150828e-05 
-3.851222259150828e-05 
-3.851222259150828e-05 
0.05560016477756421 
0.007240947023475989 
0.02375775163128761 
0.0002919792163022649 
0.01775336840581706 
0.01775336840581706 
-0.005276908514524612 
-0.06453169590334326 
0.0002919792163022649 
0.004999708702974331 
0.0004021825885871678 
-0.005276908514524612 
-0.0003426863198989183 
0.01775336840581706 
0.004871886544486346 
-0.005276908514524612 
0.001754867959601294 
0.001754867959601294 
0.001754867959601294 
0.09879950667192912 
0.01499799909445041 
-0.1442279168628166 
0.09879950667192912 
-0.004315651098304799 
0.09879950667192912 
0.01120364252441286 
0.09130707138767841 
0.001645682937462952 
0.001645682937462952 
0.09879950667192912 
-0.007296817538408856 
0.004933007987661041 
0.008187246198731686 
0.08849753282130485 
0.004933007987661041 
0.005042183943170587 
-0.0006273072220423976 
-0.0006273072220423976 
-0.0009338595850075054 
0.008187246198731686 
-0.0009338595850075054 
-0.0009211322995928935 
-0.001412800180468415 
-0.09473427177284273 
0.07157347754429658 
0.04815997921804216 
0.001283527712475824 
0.001535072272953553 
0.01411437197809176 
0.07478287349108773 
0.2637594828101054 
0.07548402685592255 
0.003031963449651883 
0.0481648434581273 
0.05809975299317321 
0.07293711126407801 
0.001283527712475824 
0.001535072272953553 
0.05809975299317321 
0.0481648434581273 
0.0481648434581273 
0.07548402685592255 
0.07293711126407801 
0.01411437197809176 
0.1529955953786175 
-0.002912848026156226 
4.704366383531626e-06 
0.01123830222391045 
-0.003089841539248966 
0.2507068069453225 
0.01152657731672806 
-0.003392546416665448 
0.1063041598608019 
0.05697949878392876 
4.704366383531626e-06 
-0.002676762117794241 
-0.003089841539248966 
-0.002676762117794241 
-0.002676762117794241 
0.01585321190140002 
0.01633933266543431 
0.2022015602500652 
0.2022015602500652 
-0.0004384977281100416 
0.01585321190140002 
0.01576561836104516 
0.2022015602500652 
0.01585321190140002 
-0.0004384977281100416 
-0.0004384977281100416 
0.01585321190140002 
-0.0004384977281100416 
0.01585321190140002 
0.2022015602500652 
0.1313538114361071 
0.02860936944846101 
0.07593878750231109 
0.02860936944846101 
-0.1643062564079168 
0.02860936944846101 
0.1019218402551618 
0.02860936944846101 
0.09558476056599551 
-0.001038933213444097 
0.0006572329596732503 
-0.0009792443186569049 
0.16076396662099 
-0.001038933213444097 
0.007448179212155439 
0.1605423962181858 
0.1560688491184615 
-0.001038933213444097 
0.1772649734530557 
-0.001038933213444097 
0.1157740309256156 
0.001195221227677643 
0.1157740309256156 
0.1157740309256156 
0.1157740309256156 
0.009346732804746124 
0.1157740309256156 
0.1157740309256156 
0.001195221227677643 
0.1157740309256156 
0.1157740309256156 
0.001195221227677643 
0.3721031387271271 
0.004251175934816998 
-0.01635582471159981 
-0.005546027628155127 
0.1441880672936163 
-0.0001546904688691193 
-0.01439375638998058 
0.05180518952718228 
0.05180518952718228 
0.01260239077202685 
0.06145280012426152 
0.05180518952718228 
0.01260239077202685 
0.05180518952718228 
0.05180518952718228 
0.01260239077202685 
0.05180518952718228 
0.01260239077202685 
0.05180518952718228 
0.08485836774685938 
-0.002013269729453192 
0.07266506487088091 
-0.002013269729453192 
-0.002111114793636182 
-0.001134522655104295 
-0.001134522655104295 
0.0243341598531912 
-0.002013269729453192 
-0.001134522655104295 
-0.001215431164180872 
-0.001134522655104295 
0.001058903322075939 
0.07178108948894323 
0.06985647747631785 
-0.0002475851210753026 
0.1442143809091699 
0.002398540014327971 
0.07224403400986329 
0.001058903322075939 
0.001058903322075939 
0.07150474288444315 
0.03095150108900317 
-0.003374023952402225 
0.04248918465883446 
-0.003374023952402225 
0.08537365900156765 
-0.003374023952402225 
-0.003374023952402225 
0.04389483676095532 
-0.003374023952402225 
0.08497879183340856 
0.08409745000091308 
-0.05973341686223207 
-0.003374023952402225 
-0.003374023952402225 
-0.003144807691180082 
-0.08041926842351231 
-0.003224562493272395 
-0.003097253634193423 
-0.003224562493272395 
0.07864437365926784 
-0.003374023952402225 
-0.0001810404910017162 
0.006140169605202158 
0.006140169605202158 
0.2051887820525655 
0.2051887820525655 
0.006140169605202158 
0.006140169605202158 
0.0791726803842901 
-0.237178253728546 
0.2051887820525655 
0.02198281518443393 
-0.08039332288744838 
0.02198281518443393 
-0.003912340780409654 
-0.06097218958489311 
0.02198281518443393 
0.07467701594347731 
0.05360214611217966 
0.07467701594347731 
0.07467701594347731 
0.02301541625639067 
0.07752308073189597 
0.04153684714288191 
0.07752308073189597 
0.07467701594347731 
0.1932112958415638 
0.02301541625639067 
0.02301541625639067 
-0.08039332288744838 
0.0001872852815549772 
0.001173190283378467 
0.0736571745033171 
0.0001872852815549772 
0.0001872852815549772 
0.001139901084362048 
0.0007924810399106344 
0.07543302472840113 
0.0001666256761079172 
0.07585604053021314 
0.07543302472840113 
0.0736571745033171 
0.001463105774517407 
0.06104693974375473 
0.0001693096074824758 
-0.005244408715101718 
0.0001693096074824758 
0.0002312851229580136 
-0.005244408715101718 
0.0002186384003295282 
0.1681998416779649 
0.02864600234992627 
0.0001693096074824758 
-0.005223100704106361 
-0.005223100704106361 
0.1336553897531053 
0.04411246057593683 
0.08261758848066762 
0.02685128058536585 
0.008588409642276787 
0.1287213143084208 
0.08627152971582104 
0.0349407618347047 
8.886008185416368e-05 
8.886008185416368e-05 
0.0345343444060943 
8.886008185416368e-05 
0.0349407618347047 
-0.008767074287933814 
0.08627152971582104 
-0.002146507244854452 
0.03545863629532951 
8.886008185416368e-05 
0.0349407618347047 
0.01524229932876469 
0.1341805736658457 
0.01524229932876469 
0.08627152971582104 
0.01524229932876469 
-0.2637062430421243 
-0.004617045314345097 
0.1325990563806831 
0.05937133568732653 
-0.007732895787108045 
-0.1853532530160902 
0.1328711594868615 
-0.3264756677063431 
-0.2637062430421243 
-0.2637062430421243 
-0.2637062430421243 
-0.2637062430421243 
-0.2637062430421243 
0.006901378866704825 
0.1325990563806831 
0.05937133568732653 
0.05937133568732653 
0.05937133568732653 
0.1325990563806831 
-0.2637062430421243 
-0.004251780553298464 
0.001674130704920639 
0.02430046860652421 
0.04408024972788449 
0.01521199852053151 
-0.01534502868655182 
0.0002283651686532334 
-0.0004431292856031796 
0.0693172351971829 
-0.01534502868655182 
0.01537564133689822 
0.001894344567237637 
-0.01534502868655182 
0.2068469978419899 
0.09394387442731036 
0.03898447452890599 
-0.124805262832651 
-0.0009115314870887091 
0.07763344729387757 
0.07763344729387757 
0.03912583415114656 
0.07763344729387757 
-0.004415866398188344 
-0.004860999571295791 
0.1975405820951066 
0.07725090514581087 
0.0008196717093289648 
0.1129964474431836 
0.07873968051771271 
0.07873968051771271 
0.1075505452006292 
0.1129964474431836 
0.1129964474431836 
0.003727439959230869 
0.1129964474431836 
0.07873968051771271 
0.07873968051771271 
0.003727439959230869 
0.0002229027290282959 
0.0002229027290282959 
0.0002229027290282959 
0.2654535664715303 
0.1516240918024622 
0.1516240918024622 
0.1516240918024622 
0.0373165015148361 
-0.002104249079357576 
-0.002046969734448628 
-0.0004500472233123661 
-0.0004500472233123661 
0.01910346267485066 
-0.0004500472233123661 
-0.0004915691626527366 
0.01075790926550205 
-0.0002902737440627864 
-0.0004500472233123661 
0.01209136957868609 
-0.0004915691626527366 
-0.0001705441202870916 
-0.0004915691626527366 
0.01158802591750808 
0.01158802591750808 
0.01158802591750808 
-0.006754398352618148 
-0.0008720536233167796 
-0.006754398352618148 
0.01158802591750808 
0.0001104168661768726 
0.09148020028212173 
0.0001104168661768726 
0.1195225919068105 
0.1195225919068105 
0.1195225919068105 
0.1008635106592488 
0.004998104873084084 
0.2538309616787418 
0.004998104873084084 
0.09148020028212173 
0.01744397374057299 
0.09148020028212173 
0.004998104873084084 
0.09148020028212173 
0.01922344698045978 
0.1161268570643108 
0.1161268570643108 
0.042891025076772 
0.4211267944724746 
-0.001125341441762571 
0.002103673860978452 
-0.003561505799177713 
0.04300140938436312 
0.04318022129970255 
8.845429938580928e-05 
0.04319388411886888 
0.02327061212920047 
0.1427867046648515 
0.001473456290336625 
0.02327061212920047 
0.3118215300059979 
0.0360529939502416 
0.0360529939502416 
0.0004102191296855547 
0.02327061212920047 
0.02327061212920047 
0.003268302212610243 
0.001473456290336625 
0.04197468092720114 
0.00141821950588214 
0.4158465683567525 
0.007682979048096918 
0.007682979048096918 
0.001473456290336625 
0.09258450904182708 
0.3118215300059979 
0.3118215300059979 
0.07790231642464933 
4.948877822983147e-05 
-0.1540140965091283 
0.0009793748087721223 
0.03863096781810621 
4.948877822983147e-05 
-0.06774060839766208 
0.0002442054372123693 
4.948877822983147e-05 
-0.07652107805127771 
-0.0002502227375781243 
0.03395494546278858 
0.01926153361455557 
0.03395494546278858 
0.04846311550681182 
0.03395494546278858 
0.1054909410420826 
-0.07652107805127771 
-0.07615242445723387 
-0.003810734786326241 
0.01899929201826639 
-0.0008894121257792403 
-0.02523220771416009 
-0.02523220771416009 
0.001889621875466576 
0.0976411168394539 
0.001889621875466576 
0.001794943464435218 
0.1010772201550343 
0.0976411168394539 
0.09710761314355427 
0.06816848970504129 
0.1364549788507363 
0.00156723229008476 
0.2120435892719834 
0.0001250873435238462 
0.01020862069207805 
-0.001406483895913982 
0.006281611051526789 
0.001313164658828914 
0.01531981680093575 
1.242401725207844e-05 
0.001889621875466576 
0.007652229122027105 
0.002512848824607106 
-0.005221600148410886 
0.05373844943516953 
-0.00495521600021391 
-0.00865354332127766 
0.0304659875521996 
0.08159417196553027 
0.079603484354108 
0.08018665195090265 
-0.09912832738254368 
0.001972173710398767 
-0.1199543005493581 
-0.1199543005493581 
-0.1199543005493581 
-0.1864618278513686 
0.04723399773955736 
-0.1817621741210984 
0.02476355455037901 
0.04454519775254702 
-0.0004767559681988882 
0.02701289928802816 
0.003686029050828109 
-0.0902206128040485 
0.04789130987076173 
-0.02424733828112075 
-1.873905504431881e-05 
-1.873905504431881e-05 
-1.873905504431881e-05 
0.02552202524255897 
-0.02424733828112075 
0.07254923792301948 
0.0001053040179742 
-0.0005417065317899008 
0.02552202524255897 
0.0001053040179742 
-0.0004145483443517811 
-0.004670428197683832 
0.0001008450022493661 
0.0001008450022493661 
-0.004670428197683832 
0.1024440806118922 
-0.004670428197683832 
0.0001008450022493661 
0.0001008450022493661 
0.08108681872219549 
0.03141478944131287 
0.02508098736640825 
0.0001597142778908454 
-0.001156796728491933 
0.04746012469909163 
-0.001156796728491933 
0.0001597142778908454 
-0.004347044164008065 
0.02407699179762119 
0.0001597142778908454 
0.004960574044236723 
-0.001156796728491933 
0.02341458736696022 
0.03480955022235191 
-0.0095518090054249 
0.1111082309907958 
0.03480955022235191 
0.001881936238628477 
0.03480955022235191 
0.1111082309907958 
0.2547761358075273 
0.2620926137476224 
0.2547761358075273 
0.03480955022235191 
0.3398710567957157 
0.03480955022235191 
0.02332416246439622 
0.002117201468831679 
0.03480955022235191 
0.03480955022235191 
0.03480955022235191 
-0.0095518090054249 
-0.0095518090054249 
0.1111082309907958 
0.001701665894259259 
-0.0009781995666698707 
-0.01311955126349296 
4.832006916549386e-05 
-0.01311955126349296 
4.832006916549386e-05 
0.0002160216892300875 
4.832006916549386e-05 
4.832006916549386e-05 
-0.01198043652318212 
-0.02302639806659875 
0.03365034962732195 
0.03017350924163956 
0.06695642930946065 
-0.001512890913372203 
0.03017350924163956 
0.01514738878009009 
-0.01891566350343002 
-0.03728828851867845 
-0.002606743508435976 
-0.02302639806659875 
0.01514738878009009 
0.0001284783592317481 
0.0001284783592317481 
0.0001284783592317481 
0.0001284783592317481 
0.0005206698034260895 
0.09199877819638989 
0.09993103239178515 
0.0920174539120007 
0.001930931966268059 
0.0005206698034260895 
0.09993103239178515 
0.0005206698034260895 
0.09993103239178515 
0.002175915570855228 
0.1366217506472802 
-0.1012401587633964 
-0.0001542761558526381 
0.08382951980883716 
0.008378345977022472 
0.003611623558288352 
0.0001548474130539945 
-0.009078762431456977 
0.008378345977022472 
0.02058937743053156 
0.192428002912968 
0.008378345977022472 
-0.09063928495326079 
-0.009078762431456977 
0.003611623558288352 
0.02478184774470062 
0.008378345977022472 
-0.009205768251302902 
0.0001548474130539945 
0.2057415208096922 
0.0001548474130539945 
0.2363932667666421 
0.001878064607869737 
0.0574697520480479 
0.0574697520480479 
-0.00129035929776938 
-0.0001403015008690418 
0.01629321274685664 
0.000661929984337162 
0.1066626329514182 
-0.0001403015008690418 
0.1066626329514182 
0.0574697520480479 
0.0574697520480479 
0.01230888458321685 
0.0574697520480479 
0.01230888458321685 
-0.004393066388347776 
-0.0001403015008690418 
0.000661929984337162 
0.0574697520480479 
0.0573169394206736 
0.01230888458321685 
0.000335896050013684 
0.01391965784703778 
0.003489078639593071 
0.0146058671610448 
0.001585775331949193 
-0.03595691205722583 
0.006278069340368984 
-0.0102481900578517 
0.001283535073878522 
0.001283535073878522 
0.001585775331949193 
5.043383342431966e-05 
5.043383342431966e-05 
0.1235170155248601 
5.043383342431966e-05 
0.5525683351087168 
0.1111363708767693 
0.1265643425655499 
0.5525683351087168 
0.0003702680518808077 
-0.005354111139382261 
-0.005354111139382261 
-0.005354111139382261 
0.1183144864908742 
0.1912276467875322 
0.1265643425655499 
0.1488764280726862 
-0.005354111139382261 
0.0003702680518808077 
0.5525683351087168 
0.1908885911296445 
0.0175695748992227 
-0.1749957422126371 
0.07387456428926269 
0.0379030238195669 
0.1348960174413475 
0.03836899614708793 
0.1700548532439341 
0.03836899614708793 
0.1208435831400448 
0.004465430807271348 
0.03858975699899235 
-0.017811362474558 
-0.017811362474558 
-0.017811362474558 
0.04894385845934977 
0.009905340774802422 
-0.017811362474558 
0.07909942672591447 
0.03836899614708793 
0.03836899614708793 
0.03836899614708793 
0.08114458206977034 
-1.382879069624406e-05 
-1.382879069624406e-05 
-1.382879069624406e-05 
-0.0007360903621856053 
0.042435260508001 
0.04238151406220089 
0.04238151406220089 
-0.0128233813254219 
7.130779111302904e-05 
-0.0007360903621856053 
-0.0007360903621856053 
-0.0007360903621856053 
-0.0007360903621856053 
0.0004864383689855183 
-0.01303203086401018 
5.033103491823854e-05 
5.033103491823854e-05 
0.08654390701803479 
-0.0001228387794082323 
-0.0001228387794082323 
0.007507212168435911 
0.001117438616123456 
-0.0001228387794082323 
0.1474374684273116 
0.04842286666547668 
-0.0001228387794082323 
-0.0001228387794082323 
-0.03456305671899143 
0.01870993957547145 
-0.009561650059485383 
-0.01101224846504162 
0.0002852628398621456 
0.0002852628398621456 
0.01829486419652537 
-0.01291981217403167 
-0.01291981217403167 
0.02225547484858366 
-0.01291981217403167 
-0.009561650059485383 
0.1247850639091217 
-0.009561650059485383 
0.02079343032586116 
0.1512055319371363 
-0.05338603314500531 
0.0001928639189311039 
-0.05338603314500531 
0.0001928639189311039 
0.1787505597922344 
0.1787505597922344 
0.01897596889405312 
-0.05338603314500531 
0.01897596889405312 
0.1787505597922344 
0.0191087391490987 
-0.0004107969648820035 
-0.0003654072446841884 
-0.0003654072446841884 
-0.0003654072446841884 
-0.0003654072446841884 
-0.0004314673611042729 
-0.0003654072446841884 
-0.08226169770671853 
0.08572726620416675 
-0.001174770391136023 
-0.08666953769225647 
0.09046909663968079 
-0.001174770391136023 
0.08572726620416675 
-0.001174770391136023 
0.1959204301230945 
0.3682962897890225 
0.1010558560582804 
-0.001174770391136023 
0.09806237344300743 
0.0504943525650437 
0.04904490687259015 
0.04904490687259015 
0.04904490687259015 
0.0004746255849144286 
0.3341126513760444 
0.0004431567927170272 
0.3322514555802108 
0.000387327458642492 
0.0004431567927170272 
0.1511652532549693 
0.001767476980230529 
0.1511652532549693 
0.0004431567927170272 
0.1543042985859035 
0.01442295891340966 
0.0007225807228338213 
0.1511652532549693 
0.0004431567927170272 
0.09703924630588764 
0.06088464970775394 
0.06088464970775394 
0.06088464970775394 
0.06088464970775394 
0.06088464970775394 
0.0009106223322412417 
0.0004724212611376596 
0.1397797115191535 
0.1767090921237737 
0.07159600787038001 
0.0002013888452895513 
-0.000542982855511437 
-0.01761022333227343 
0.2714356125377531 
4.344476081351856e-05 
0.1033397506790431 
-0.01761022333227343 
0.1076881240135119 
4.344476081351856e-05 
0.1034876171973465 
4.344476081351856e-05 
-0.01761022333227343 
0.06867985041197942 
0.269830986191252 
0.269830986191252 
0.0001954948514674189 
0.02063893425496989 
0.005804643633136936 
0.1617567990549949 
0.06864734044680114 
0.269830986191252 
0.005804643633136936 
0.1618421143667819 
0.1618421143667819 
-0.0001221648622930029 
0.06864734044680114 
0.1618421143667819 
0.1618421143667819 
0.02063893425496989 
0.005804643633136936 
0.02063893425496989 
0.02063893425496989 
-0.05688934633431324 
0.01078143491179845 
0.1034157722848847 
0.03765681825325787 
0.0001324183455654799 
0.002027535944402872 
0.01078143491179845 
0.002658174356171951 
0.002027535944402872 
0.01206458180666093 
-0.0003716493191142595 
-0.002104950980330543 
-0.0003716493191142595 
-0.0003716493191142595 
-0.0003716493191142595 
0.03630578059676907 
-0.001393131013036848 
0.0001512524779902648 
0.0007562430893069672 
0.3062884136127028 
0.0759387035002853 
0.0759387035002853 
0.0001512524779902648 
0.01364765017697074 
0.0001512524779902648 
0.0759387035002853 
0.1436733109649354 
0.07750460657194196 
0.0759387035002853 
0.0759387035002853 
0.0001512524779902648 
0.0001512524779902648 
0.1436733109649354 
9.900976073015923e-05 
9.900976073015923e-05 
9.900976073015923e-05 
0.002576248073811005 
0.01883394743713792 
0.05503906674711138 
0.05636298590068168 
0.0759359729723597 
-0.04815463325026436 
0.02614203577053313 
0.0291675735064449 
0.05636298590068168 
0.05503906674711138 
0.01730266907198031 
-0.04815463325026436 
-0.0207512410280482 
0.01730266907198031 
-0.0004305954359836267 
0.05503906674711138 
0.0001926146220749804 
0.04051163886826308 
0.0001926146220749804 
-0.09412327494509759 
-0.1382765809379351 
0.04051163886826308 
0.0361558702108 
0.0361558702108 
6.65608807709762e-05 
0.03719214108084018 
0.06557009147490167 
0.06557009147490167 
0.03719214108084018 
0.06557009147490167 
6.65608807709762e-05 
0.06557009147490167 
0.03719214108084018 
0.01193863480897194 
0.1005387831027281 
-0.03577376207795973 
-0.03577376207795973 
0.01193863480897194 
0.0001926389757384206 
0.01193863480897194 
-0.03517745824509062 
0.0001926389757384206 
0.0001926389757384206 
0.05850334353305507 
6.569982096483517e-05 
6.569982096483517e-05 
0.0855487000158744 
-0.01196072947526393 
0.04163871612441863 
0.003914808069865312 
6.569982096483517e-05 
-0.01288005313012857 
0.0855487000158744 
0.05856336313073183 
0.01125272006270824 
0.0002377085947342128 
0.2593033140480533 
-0.001822212799118315 
0.06141385045827204 
0.0002377085947342128 
0.00365347149205638 
0.1194842533165885 
0.002320790677281954 
0.01397208364411856 
0.0002377085947342128 
0.002253487333497927 
0.1489965920654705 
-0.0008603406101265734 
0.003006520951709243 
-0.03305072915219535 
0.002319255336602208 
-6.2032316091349e-06 
0.002872601336535675 
-0.0008603406101265734 
0.2760184317500265 
-0.03305072915219535 
0.177753716312696 
-0.2211694956982173 
-0.0008603406101265734 
-0.0008603406101265734 
-0.0008603406101265734 
-6.2032316091349e-06 
0.1205249953808504 
0.1483846946520939 
0.00766363739599955 
-0.005237865550399848 
-0.003906764011834592 
0.04651336485409482 
-0.005237865550399848 
-0.000893949898937794 
0.01936922209138116 
0.04651336485409482 
0.01755635238166121 
-0.000893949898937794 
-0.005237865550399848 
-0.005237865550399848 
-0.005237865550399848 
0.01342689233453854 
0.002715018926795111 
-0.000174516640276064 
-0.0007480097957100326 
-0.0002612892512352942 
-0.000174516640276064 
0.02863552977167992 
0.05517635976925184 
0.09684435176026024 
0.002333007075420658 
0.06214457312780421 
0.06214457312780421 
0.04987546423258064 
-0.002669590329209657 
0.09684435176026024 
0.04987546423258064 
0.09684435176026024 
0.05041296465717288 
-0.08155459153431953 
0.06214457312780421 
0.002333007075420658 
0.06214457312780421 
0.003643147547176854 
0.04017440218353297 
0.002051856747983293 
0.003643147547176854 
-0.03723884955988366 
0.04170972766742973 
0.001379208448054546 
0.02350536534233229 
0.001929746479238463 
0.001379208448054546 
0.003643147547176854 
0.01991346866949133 
0.003643147547176854 
0.08320357772347374 
-0.1076610479245425 
0.08320357772347374 
-0.1076579423301698 
0.08363069904006605 
0.08320357772347374 
0.09149996745119014 
0.09149996745119014 
-0.0302301919844325 
0.09149996745119014 
0.04850954907548046 
0.05226555808015163 
0.05973070800274417 
0.03690584231400075 
0.04806255265810804 
0.04850954907548046 
-0.09486102329306367 
0.03667386414686646 
0.09367808119782457 
0.0849366157429791 
0.05338840662594977 
0.05226555808015163 
-0.01832134062681716 
0.000142826089050923 
0.000142826089050923 
-0.01832134062681716 
-0.01832134062681716 
-0.02268420634394862 
0.07525024026580514 
-0.02268420634394862 
0.1386871365200117 
0.000142826089050923 
0.000142826089050923 
-0.01832134062681716 
0.07525024026580514 
-0.02268420634394862 
0.000142826089050923 
-0.02268420634394862 
0.1850819441734951 
0.1850819441734951 
0.1850819441734951 
9.896248412921327e-05 
0.2388620739209051 
3.450130082163942e-05 
-0.05163816586786137 
0.02096401539688483 
0.03736641836012974 
0.1202852461206589 
0.1202852461206589 
-0.0002205565480010342 
0.02096401539688483 
-0.05323912440445341 
0.1911456315082354 
-0.0004350907826998819 
0.02215584646076151 
0.03740110078301682 
-0.05328511399166755 
0.02565351128891535 
0.02070349346907823 
0.02096401539688483 
0.02096401539688483 
0.009551765857404812 
-0.0004350907826998819 
0.1202852461206589 
0.001829375384959867 
-0.002576952547315596 
0.00540850787468908 
0.0122608285509367 
0.00540850787468908 
0.00540850787468908 
0.00540850787468908 
0.00540850787468908 
0.00239410228117604 
0.001829057453526021 
0.00540850787468908 
0.001702349770336502 
-0.002576952547315596 
0.001584461329618004 
0.04253968526632938 
0.00540850787468908 
-0.0004271213165922983 
-0.0004271213165922983 
-0.0004271213165922983 
0.005180278902743487 
-0.1268455947574073 
0.005180278902743487 
-0.0004271213165922983 
0.005180278902743487 
0.03698568125975218 
-0.03608801050248574 
0.0479070882809957 
0.04449761492373561 
-0.0001198890724727492 
-0.0001198890724727492 
-0.0001198890724727492 
0.04449761492373561 
-0.0001198890724727492 
-0.08678562956422239 
-0.000446012275385801 
0.03313215618850193 
0.00319001712499185 
0.02551163846025928 
0.07093919823534733 
0.1003500457949804 
-0.0005638953341847233 
0.000196792101071245 
0.003191494186547879 
0.000196792101071245 
0.05002819586760181 
0.003160200748533672 
0.002510605614414834 
-6.560305542870972e-05 
0.04758643199076449 
0.09651164339143845 
0.1532503924998694 
0.09001364322598693 
0.006579674147924522 
-6.560305542870972e-05 
0.08257266043046207 
0.00566128418221556 
0.0964511859894478 
-0.2053066928847475 
-6.560305542870972e-05 
0.008825456105755631 
0.00788118758452642 
-0.2010511689738621 
0.008825456105755631 
0.008825456105755631 
-0.2017928351670234 
0.06947610856168367 
-0.000849309239198843 
0.02646021652255914 
0.07227887521562214 
-0.005622390730071383 
0.06947610856168367 
0.06085213609877027 
-0.06153401888482699 
-0.000849309239198843 
0.07044151603240481 
0.02646021652255914 
0.06947610856168367 
0.02835342630410739 
-0.000849309239198843 
0.06947610856168367 
-0.1391090704828462 
-0.000849309239198843 
-0.00997352898615176 
0.003805674172142478 
-0.003606934532206969 
-0.003754970217762368 
-0.003754970217762368 
-0.003754970217762368 
-0.006283074777939511 
-0.003606934532206969 
-0.01265609326977714 
-0.0001963694984844183 
0.04966540173377362 
0.04966540173377362 
0.006125182052953156 
0.006125182052953156 
0.001239347691546755 
0.04966540173377362 
-0.0001963694984844183 
0.006125182052953156 
0.08835281578581079 
-0.0001963694984844183 
-0.0002661144782017157 
0.001239347691546755 
0.05764843714077903 
-0.0002661144782017157 
0.04966540173377362 
0.1334506480567486 
-0.00396941198035805 
-0.00396941198035805 
-0.0006048086759922469 
-0.0006048086759922469 
0.002814773199555148 
-0.00396941198035805 
0.01275533110977649 
0.0005206766894652736 
0.0016048552097504 
0.0005206766894652736 
0.0005206766894652736 
0.01366473680466775 
0.0005206766894652736 
0.003068005802668353 
0.0005206766894652736 
0.0005206766894652736 
0.0005206766894652736 
0.0005206766894652736 
0.02592745118155536 
0.03693936022510145 
0.02592745118155536 
-0.001495604932831382 
-0.002499861993921199 
0.02592745118155536 
0.07035045523626407 
0.02235704909303236 
0.04126525682057963 
-0.001389264858455418 
0.02592745118155536 
-0.0008748860780281713 
-0.001123249371931207 
0.009096560314865356 
0.0006162933533905605 
0.02393004021316905 
-0.0008591319312293382 
-0.0008591319312293382 
0.02244693231364147 
0.2801770176547826 
0.1118595395897772 
0.05964660498052692 
-0.0005028333999831197 
0.1118595395897772 
0.1118595395897772 
0.05964660498052692 
-0.0005028333999831197 
-0.03781229491237905 
0.02393004021316905 
0.01068832038406606 
-0.001175224915770751 
-0.04478702720071695 
9.68368558598721e-05 
-0.0004127380513806025 
-0.04478702720071695 
0.001964689241179408 
0.001964689241179408 
-0.03541061521649112 
0.018164011758693 
-0.07618125698995797 
0.0001378767523664336 
0.018164011758693 
0.1343445628334387 
0.006422448057937642 
0.03064235525829074 
-0.001373403901245625 
0.0034482713605376 
0.0001378767523664336 
0.09020270375195019 
0.018164011758693 
0.03064235525829074 
-0.05354460910798492 
0.0002216376519511324 
0.0445824180599402 
0.0002620856741300392 
0.0445824180599402 
5.386929865896238e-05 
0.05964722799642904 
0.0193949039407347 
0.05694357755642039 
-0.1460502033200413 
0.04013700128681578 
0.0360972231212283 
0.01055309307172483 
-0.2050575510428726 
-0.001471319222508887 
-0.003999955006440624 
-6.34305971357256e-05 
-6.34305971357256e-05 
-0.1368384693827131 
0.003953095940433078 
0.01294031665503289 
-0.0007973851487206189 
-0.002119461041745038 
-0.001419264349492311 
-0.001419264349492311 
0.002772854261612023 
0.005849447753280017 
-0.02806424535934874 
-0.084709912184131 
-0.0002900365065705608 
-0.002079644958403672 
0.09642402551508882 
0.005200581988948671 
-0.002079644958403672 
0.0001956593801841906 
-0.03563025631829626 
0.08403471097245079 
0.04627292584402622 
-0.002079644958403672 
0.02082160852671633 
0.09699614969522588 
0.004784774656378553 
0.07511696887132795 
-0.002079644958403672 
-0.03092006399784991 
0.02596390899151177 
0.02596390899151177 
0.02596390899151177 
0.02596390899151177 
0.02596390899151177 
0.02596390899151177 
0.02596390899151177 
-0.000509574907240476 
-0.000509574907240476 
-0.000509574907240476 
-0.000509574907240476 
0.01366259613456116 
0.08693634551661408 
-0.0001200526402163621 
0.004676666489372825 
3.758555543357026e-05 
0.02293757121221886 
0.08693634551661408 
0.04857351577261227 
0.0003582961330986153 
0.08693634551661408 
-0.2053866795721507 
3.758555543357026e-05 
0.002253156109875217 
0.07579716176021044 
0.002253156109875217 
-0.0001717857240692206 
-0.002151328568669043 
-0.0001717857240692206 
0.005759907366277178 
0.07579716176021044 
0.07579716176021044 
-0.0001717857240692206 
0.08018724044912708 
0.03300563215022065 
0.03300563215022065 
0.02837905557282651 
0.03300563215022065 
0.03300563215022065 
0.03300563215022065 
0.08879398546134741 
0.05206516678993827 
0.03300563215022065 
0.03300563215022065 
0.05197107247881993 
0.2364393853063075 
0.02837905557282651 
0.02832522132199179 
0.03474788544138085 
0.02832522132199179 
0.02837905557282651 
0.0001246899511455766 
0.09611201202896423 
0.09611201202896423 
0.09611201202896423 
-0.000346009201857232 
0.0006380012009393501 
0.1333632098026405 
0.09611201202896423 
0.09611201202896423 
0.09611201202896423 
0.09611201202896423 
6.135296142555406e-05 
-0.002674920447844138 
-0.1823421006203274 
0.001979519676910436 
6.135296142555406e-05 
6.135296142555406e-05 
0.01052603131147869 
0.003349570232590496 
-0.004487332926577907 
0.0005182897225921125 
-0.002321324321038741 
0.02246784182289768 
-4.829742785222061e-05 
-0.002004702593646815 
-0.002518315722567845 
0.007568524775715016 
0.02246784182289768 
0.02246784182289768 
-5.172854296260636e-06 
-0.1511461272009628 
0.08718836705486507 
0.08718836705486507 
0.08718836705486507 
0.09215532359760539 
0.08718836705486507 
-0.1511461272009628 
0.08718836705486507 
0.08718836705486507 
0.08718836705486507 
-0.1511461272009628 
-3.270717565113609e-05 
0.09181848984012662 
0.09181848984012662 
-0.033071499688138 
7.820185104563115e-05 
-0.001043105270198551 
0.09181848984012662 
4.310109743513679e-05 
0.003940029691946373 
4.084569757890481e-05 
0.02632518376280086 
0.0008943303753442004 
4.084569757890481e-05 
4.084569757890481e-05 
0.06201566090455021 
4.084569757890481e-05 
0.02145858360274141 
4.084569757890481e-05 
0.02632518376280086 
0.02632518376280086 
-0.001863536429721552 
-0.001449767418712885 
-0.001987743499697862 
-0.001449767418712885 
0.000228130894315777 
0.013064043194434 
-1.685256457122516e-05 
0.013064043194434 
0.02039074655725985 
0.000228130894315777 
0.001444386168695075 
0.001444386168695075 
0.001444386168695075 
0.0003221079264138867 
0.3239068618923041 
0.08903005671250283 
-0.03588916493373645 
0.01717371362875598 
0.01902468820289416 
0.02442937047578343 
2.683370909658316e-05 
-0.03552123987524368 
0.07540216771883358 
0.01902468820289416 
0.00991912608430383 
0.3165428134700057 
0.01902468820289416 
0.08187627686035723 
0.3165406133278532 
0.3165428134700057 
2.683370909658316e-05 
0.0210523544692953 
-0.1026203778592309 
0.1208768704729761 
-0.1026203778592309 
-3.736338590894755e-05 
0.3056910478597555 
0.3121359365159003 
-0.1026203778592309 
-0.3843327363864995 
-0.1524594543293433 
0.0210523544692953 
0.000149278418192354 
0.03861437032616266 
0.03861437032616266 
-0.06728851221225098 
0.03861437032616266 
0.000149278418192354 
0.03861437032616266 
3.645052323423555e-05 
3.645052323423555e-05 
0.01288765565643887 
4.153256929389345e-06 
-0.07940668514666449 
0.05147229476761093 
3.645052323423555e-05 
0.0001525577156904457 
4.153256929389345e-06 
5.850637842653053e-05 
5.850637842653053e-05 
5.850637842653053e-05 
5.850637842653053e-05 
5.850637842653053e-05 
0.1896569562919033 
0.0006837089532176027 
0.0006837089532176027 
0.1038097048913263 
0.001982171150649671 
0.1038097048913263 
0.0005002641697365043 
0.04443845880903879 
0.04564725277430531 
0.0005139099719031514 
0.04273659367542355 
0.04413951019018249 
-0.08257118129204261 
0.0007251911256609955 
0.09825689852774006 
0.1012584970835833 
0.02041550441877858 
0.0005139099719031514 
0.07350321666464853 
0.09663339768276918 
0.04443845880903879 
0.1038097048913263 
-0.0006379713439069924 
-0.06298973829304925 
0.001377256125057542 
-0.002500943998175054 
-0.002500943998175054 
0.0437011454784418 
-0.002500943998175054 
-0.004037263638706555 
-0.002500943998175054 
0.004019486433866624 
-0.132191764617233 
0.004019486433866624 
-0.132191764617233 
0.004019486433866624 
-0.132191764617233 
0.004019486433866624 
0.0001618838534068802 
-0.01529733284254228 
0.01286419097113327 
-0.0922057970051984 
-0.0315302801628995 
-0.0315302801628995 
-0.1426014795284808 
0.01246087734958841 
-0.04284032908948486 
0.01247136377886161 
0.0009325843342338587 
0.05400955219570906 
-0.001693958335621857 
0.00770712282226428 
-0.001693958335621857 
0.0004090702246870569 
4.050363873202563e-05 
-0.001693958335621857 
4.050363873202563e-05 
0.0006921734890635853 
0.0006921734890635853 
0.02333106091745703 
0.0003141812073133177 
-0.0005263998148343017 
0.03378727232722051 
0.02333106091745703 
-0.002045843025701367 
0.06650846946494535 
0.003962260448185629 
0.06650846946494535 
0.0476839338329472 
0.003962260448185629 
0.01661487308221623 
-0.09872142689061704 
0.01983736953476508 
-0.09872142689061704 
-0.09872142689061704 
-0.07177444984800502 
0.01988996711915511 
-0.09772818181476618 
-0.04391102981090472 
-0.03928606656287315 
0.02746135358538711 
-0.0001400052132641584 
0.007316626887503674 
0.02395716952087873 
0.04541469054748588 
0.04541469054748588 
0.03138582698847838 
0.04541469054748588 
0.002141413413507704 
-0.0918776632045141 
-0.0918776632045141 
-0.0918776632045141 
-0.001373682770612289 
0.005743504379909659 
-9.10196127792894e-05 
0.0001818820176463169 
-4.03640594968099e-05 
0.001875516750063222 
-0.006488313131578696 
0.001875516750063222 
-9.10196127792894e-05 
-0.004006678100734937 
5.158943321170025e-05 
0.1411519521396037 
5.158943321170025e-05 
5.158943321170025e-05 
5.158943321170025e-05 
-0.009780512902415625 
-0.004220863593957099 
0.0003613361055666667 
0.0002296888687319464 
0.0002296888687319464 
0.0003491577887388961 
-0.001931689432263536 
0.0005090769282242401 
0.0002296888687319464 
0.0189187319710901 
0.01804509579371803 
-0.0005716483392940413 
-0.01100229444288383 
0.1699457799097799 
-7.980489933098919e-05 
0.2994277489343173 
0.0987735519798292 
-7.980489933098919e-05 
0.0987735519798292 
0.0987735519798292 
0.1699457799097799 
0.04712742725523023 
0.1959525966878769 
0.1699457799097799 
0.1699457799097799 
-0.000534919133463111 
-0.009259386335334897 
0.08132569254933295 
0.03305780266685075 
0.03305780266685075 
0.0768717069957095 
0.007605088367028909 
0.00738603527216854 
0.03305780266685075 
0.1260721495076263 
0.03305780266685075 
0.03305780266685075 
0.01831997493680908 
0.03305780266685075 
-0.2521646595487576 
0.03305780266685075 
0.000551184272408042 
0.000551184272408042 
0.000551184272408042 
0.000551184272408042 
0.000551184272408042 
0.3429442206862071 
0.000551184272408042 
0.1626151026477674 
0.000551184272408042 
0.1626151026477674 
0.000551184272408042 
0.000551184272408042 
0.0003427455501745266 
0.0003427455501745266 
0.06624252402827908 
0.0003427455501745266 
0.05928576942048944 
0.06624252402827908 
0.0002129385538124467 
0.0003427455501745266 
0.0002670665638512785 
0.0002129385538124467 
0.001123820249206751 
0.0002670665638512785 
0.06624252402827908 
6.111086834410017e-05 
-0.006158265427149666 
0.0003427455501745266 
0.005401651790598776 
0.001164888021888061 
0.005401651790598776 
-0.002331345464448884 
-0.002331345464448884 
-0.02064404384985417 
3.95202003531154e-05 
-0.07402436116035714 
-0.04475117564981178 
0.1044315153288545 
0.08057249679681096 
0.1044315153288545 
0.002071392185359364 
3.95202003531154e-05 
0.08057249679681096 
0.1044315153288545 
3.95202003531154e-05 
0.08057249679681096 
0.1028460685767918 
0.08057249679681096 
0.1028460685767918 
6.75332594861364e-05 
6.75332594861364e-05 
-0.0191616194540537 
-0.01144328608504763 
4.393610899221123e-05 
0.06681210303289267 
0.0604433906113091 
0.0002144331602750852 
0.05147300043686338 
0.0525276077640239 
0.0604433906113091 
0.06021627729400159 
8.090850907657697e-05 
-0.0002755688345255258 
-0.001271835456469691 
0.2058763787389896 
0.04851349458252605 
0.0007704586466167063 
0.04851349458252605 
0.04927496177096986 
-0.001271835456469691 
0.04124277363864169 
0.04991587083438355 
0.0007704586466167063 
-0.001271835456469691 
0.01135822698594424 
0.01135822698594424 
-0.01622150342995586 
0.01135822698594424 
-0.01622150342995586 
-0.01020348899028365 
0.001959062428008889 
0.0004256570722839743 
0.03553980567884057 
-0.001471970131461243 
0.0004256570722839743 
0.0002104790558837561 
0.03515323310262149 
0.1412171018299198 
0.0004256570722839743 
0.03651546827679227 
-0.02647694336648162 
-0.02647694336648162 
-0.02647694336648162 
-0.01753679066804457 
-5.495695536584586e-05 
-2.289413803919926e-06 
0.09118931328349354 
3.086124049172908e-05 
-0.07020584043700334 
-0.001976621553872873 
3.086124049172908e-05 
0.002683091227459803 
0.1544721996149244 
0.08211687300512049 
0.08211687300512049 
-7.121245402440607e-05 
-8.038874980636796e-05 
0.08211687300512049 
0.1440946548190358 
0.002377757040120955 
-0.0004693656205087297 
-0.05444711145911126 
0.001187878199223882 
0.02791810171490394 
0.001187878199223882 
-0.1606312023298384 
0.01547509452659557 
6.323238782068471e-05 
0.03683956301721176 
0.001187878199223882 
0.001187878199223882 
0.001187878199223882 
0.01547509452659557 
0.01547509452659557 
-0.04818230311091581 
0.03683956301721176 
0.03683956301721176 
0.03422959613904687 
0.03422959613904687 
0.03211854110078775 
0.03422959613904687 
0.07716325643288519 
0.07716325643288519 
0.03211854110078775 
0.0001511835486753059 
-0.02348644414225371 
0.0001793119183792694 
-0.0005699004305064126 
-0.02530683746335118 
0.03163746651505603 
-0.009302662760267293 
-0.0005699004305064126 
-0.00939553490682859 
-8.274416322260689e-05 
-0.0002431923057459328 
-8.274416322260689e-05 
-0.0006959312637672158 
0.0006435255191062536 
-2.049964399733552e-05 
-8.274416322260689e-05 
-0.09523206670303765 
-8.274416322260689e-05 
-8.274416322260689e-05 
-8.274416322260689e-05 
-8.274416322260689e-05 
0.0001525967377645031 
1.320693520355033e-05 
0.002170176191298535 
0.0001240430730185188 
0.1037714180524655 
-0.0004372872275863277 
-0.0004563825661365375 
-0.0004270909860367894 
0.0001245155412394469 
-0.1100939490823104 
-0.07589739195369809 
-0.120785695489276 
-0.07589739195369809 
-0.05644501103638828 
-0.07589739195369809 
-0.1386413951107189 
-0.07589739195369809 
-0.1387839410249667 
-0.02774970426977707 
0.02374292274774495 
0.007454434158959246 
0.02307825296977566 
-0.0008852095869351418 
-0.02774970426977707 
-0.02774970426977707 
0.05833781661127576 
0.05833781661127576 
-0.1432604893019223 
-0.0001314401639176362 
0.05833781661127576 
-0.0001314401639176362 
-0.0001314401639176362 
-0.1681135865536635 
0.00232814406035876 
-0.1257347068997922 
-0.1383703636799529 
-0.0004959708804970976 
0.05310681895158673 
-0.0004959708804970976 
-0.1254784947350501 
-1.245572782267971e-05 
0.0004798183855700209 
0.07114672637247253 
-1.245572782267971e-05 
0.0008803749824877268 
0.0002836532963426169 
8.429594721142036e-05 
0.01813214056539053 
0.01813214056539053 
0.08176210636269074 
0.04786024974168338 
0.5176428624693332 
0.05274225852448189 
0.01813214056539053 
0.01813214056539053 
0.01813214056539053 
0.0631600634923884 
0.05917317063037171 
0.127909393387646 
0.05274225852448189 
-0.0003987961969190384 
-9.515454610527076e-05 
9.063633697785411e-05 
-0.06614220826356841 
-0.07273268991984805 
-0.0007514092713449788 
-0.06614220826356841 
-0.06614220826356841 
-0.0007514092713449788 
0.02277934250517358 
0.0904804637090325 
0.06844895707084374 
-0.06780313857600491 
0.06844895707084374 
-7.506433186991448e-05 
0.02799551800490938 
-0.009211545333531341 
-1.569139831911465e-06 
0.06167777038964679 
-7.506433186991448e-05 
0.03512244922321891 
9.237184119587465e-05 
0.1432522593441156 
0.1432522593441156 
0.1432522593441156 
0.1063859147291592 
9.237184119587465e-05 
0.1432522593441156 
0.1432522593441156 
0.1446613860335107 
9.237184119587465e-05 
0.1063859147291592 
0.1063859147291592 
-0.0001492885920407066 
0.1432522593441156 
0.1063859147291592 
0.002505561895624025 
0.1432522593441156 
-0.001138553344767547 
-0.001295600919841299 
0.2573359243617322 
0.2575028510824818 
-0.0008952043189159936 
0.2573359243617322 
-0.0001899057512830059 
-0.0004578688375096987 
-0.0001899057512830059 
-0.004663068002902998 
-0.001932912988289393 
-0.00334448612032893 
-0.0009941213738879793 
-0.0005223529868836841 
0.2582831917842332 
-7.365054646865707e-05 
0.05259657366687313 
0.05259657366687313 
0.05259657366687313 
0.05259657366687313 
-0.02946066184461115 
0.05259657366687313 
-0.02030858431546113 
0.04265452167903502 
0.05259657366687313 
-0.1022417042356911 
0.1209087102829632 
0.1343083697719312 
0.04265452167903502 
0.0001733975403625843 
0.19662473703092 
0.0001733975403625843 
0.0001733975403625843 
-0.00602606503064118 
-0.1641492842231379 
-0.0001280487634497761 
-0.05378323126032464 
0.01280112154931189 
-0.0001280487634497761 
-0.0001280487634497761 
0.0002657752031042342 
-0.04337856234899413 
-0.0001280487634497761 
-0.0001280487634497761 
-0.1153347579755817 
-0.1153347579755817 
-0.01026632739021087 
-0.01026632739021087 
0.09250627796605659 
-0.004120964842810074 
-0.1153347579755817 
-0.01026632739021087 
-0.003218116749196106 
-0.001324211794547353 
-0.01026632739021087 
-0.01026632739021087 
-0.01456485046623943 
-0.04062861069992006 
0.002799142568017072 
0.04071950040123248 
-0.04055559021943794 
-0.04062861069992006 
-0.0541872598676261 
0.04071950040123248 
0.003205689945021576 
0.04071950040123248 
0.05298389953481453 
-0.005374172391669868 
0.01821817351398212 
0.01090076779654678 
0.01821817351398212 
0.0001228580174063443 
0.01084398835794246 
-0.000684742858243269 
0.01821817351398212 
0.04270221686653547 
0.008677083613506808 
-0.0001615632030458946 
-0.000684742858243269 
-0.0001615632030458946 
-0.06284197252768517 
-0.06284197252768517 
-0.00110553157223002 
-0.001760978546198096 
-0.00110553157223002 
-0.06284197252768517 
-0.002027232170032657 
0.0001622468429843011 
-0.00216600938998314 
0.004311246393749073 
0.06043773666163191 
0.06043773666163191 
0.0003242883677260486 
0.06043773666163191 
0.01658786413686869 
-0.050785933539579 
0.01702975933525912 
0.06043773666163191 
-0.1098969088496233 
0.01658786413686869 
0.06740210301823397 
0.01395139179196111 
-0.000248660132180347 
-0.000248660132180347 
-0.000248660132180347 
-0.0003310464493071959 
-0.0107279586579162 
0.07789651340570583 
0.1493288613088369 
0.1146939789984548 
0.07789651340570583 
0.1149014951390819 
-0.0003310464493071959 
0.004409716339170487 
0.03850457186300238 
-0.001793278605623628 
0.04158471616279916 
0.03850457186300238 
0.02347617832915006 
-4.18919026250064e-05 
-4.18919026250064e-05 
0.03899234481894777 
0.07227717823502389 
0.02347617832915006 
0.02347617832915006 
0.02347617832915006 
0.0347161423665542 
0.0347161423665542 
0.03803379776247693 
0.0347161423665542 
0.0347161423665542 
0.0347161423665542 
0.0347161423665542 
0.0347161423665542 
0.0347161423665542 
0.0347161423665542 
0.06803552181338043 
-0.05932017857981766 
0.03803379776247693 
0.03803379776247693 
0.03651923359730246 
-0.007838170592853272 
-0.005045337212286287 
0.0001556776028630145 
-0.006966388930357917 
-0.007838170592853272 
0.01415544364159393 
0.01453976389174945 
-0.292235592771034 
0.09278895394798045 
0.0008038786907224818 
0.001097110143371371 
0.09278895394798045 
-6.028694106905668e-05 
0.09278895394798045 
-0.01682826412775046 
0.06021265371052466 
-3.994692887812001e-05 
-3.994692887812001e-05 
-0.000184973425784279 
0.03218608831981634 
-0.05000894428885685 
-0.001041857955611703 
0.03218608831981634 
0.03234361403264054 
0.03218608831981634 
-0.001041857955611703 
0.03790910868551971 
0.03218608831981634 
-0.001041857955611703 
0.08227157512346522 
0.03561555490690865 
-0.01492749609288044 
-0.002488357178951052 
0.00113793920256813 
0.00113793920256813 
0.04853439128129355 
-0.001834745137955908 
0.00113793920256813 
0.0494340825096155 
-0.01492749609288044 
-0.001834745137955908 
-0.01495150241658103 
0.05188422377933096 
0.0494340825096155 
-0.1377965805741168 
-0.007742093114522437 
-0.09884398198608797 
-0.0002275735855744033 
-0.0002275735855744033 
-0.007742093114522437 
-0.0002275735855744033 
-0.1377965805741168 
-0.001210454509412085 
0.1948048503825771 
-9.953241818265861e-05 
0.004443523556174089 
0.1948048503825771 
-0.09380177279032828 
0.1948048503825771 
-0.001437888786363369 
-0.005162668097908626 
0.05999926410049415 
0.0001885632789522014 
0.002188925940777639 
0.0001885632789522014 
0.03199303339292 
-0.1661837036234959 
-0.01154311628587068 
-0.01044484883360167 
-0.155992295514248 
-0.01154311628587068 
0.007676112494026146 
0.03968129611072431 
0.04072498725435173 
0.02230364990366653 
0.06402579789346569 
0.02230364990366653 
-0.1137447663109567 
0.108838698969693 
-0.0001365157909571953 
0.0001479738925646343 
0.0005673364031615495 
-0.1137447663109567 
0.06683572619591202 
0.108838698969693 
0.0005673364031615495 
0.0156797311560653 
-0.1137447663109567 
0.01828561663765547 
0.2495006386737401 
0.202020039196776 
0.1862564807700839 
-0.002360746879165308 
-0.0003645724022740347 
-0.001809783219617978 
-0.001809783219617978 
0.1409413788288731 
-0.01057951718039508 
0.1410034819804971 
0.03219142531401494 
0.02678386361002124 
0.1410034819804971 
0.02678386361002124 
-0.0003402970457976482 
0.01982089112058776 
0.000162193255354764 
0.0061641099890959 
-0.01242018483108502 
-0.07058837265287395 
0.01982089112058776 
0.01982089112058776 
-0.07058837265287395 
-0.0125693363840479 
0.01982089112058776 
0.000162193255354764 
0.001639800138586868 
0.1651649125153144 
0.002370061365832843 
0.03324892142535589 
0.01704146038479615 
0.1651649125153144 
0.008539818964331748 
0.03728474649825949 
0.002370061365832843 
0.03728474649825949 
0.03324892142535589 
0.1651649125153144 
0.002370061365832843 
0.002370061365832843 
0.008539818964331748 
0.008539818964331748 
0.001639800138586868 
0.03316266536544767 
0.01704146038479615 
0.1651649125153144 
0.01042488520593234 
-0.000415519060502267 
5.986790941879034e-05 
5.986790941879034e-05 
5.986790941879034e-05 
0.09729214279814843 
0.09729214279814843 
0.09729214279814843 
-0.02293158059289704 
-0.02293158059289704 
0.09729214279814843 
-0.02293158059289704 
-0.02293158059289704 
-0.02141730425435398 
0.01326764447845593 
0.01326764447845593 
0.01326764447845593 
0.01326764447845593 
-0.0008693482145191978 
0.01048027901857669 
-0.0008693482145191978 
-0.001254448902554452 
-0.02025342949048732 
0.0760340158457897 
0.01048027901857669 
0.002117139963698514 
0.01048027901857669 
-0.02025342949048732 
-0.009587416584698607 
-0.01020700294437663 
-0.000315349752318883 
-0.000315349752318883 
0.3767632826288244 
0.0001490467023994283 
0.05208421057620136 
-0.0001433096426407003 
0.01017013677219538 
-0.0001433096426407003 
0.02438223188343311 
-0.003608017241303974 
-0.0001118671466042808 
0.01017013677219538 
-0.0001433096426407003 
-0.0001118671466042808 
0.101433449644267 
-0.111437009004464 
-0.0001118671466042808 
0.008870007388581774 
-8.161312584360616e-05 
-0.002525232677933582 
-8.161312584360616e-05 
-8.161312584360616e-05 
-8.161312584360616e-05 
-0.002525232677933582 
-0.002525232677933582 
-0.03265130870394942 
-0.002525232677933582 
-0.001697938772473698 
-8.161312584360616e-05 
-0.002525232677933582 
0.003586095767910575 
-0.05725042233085411 
0.0003309838522920956 
0.029479013306154 
0.0003309838522920956 
0.0003309838522920956 
0.0003309838522920956 
-0.09316421554794933 
0.007059099635944683 
0.0001390792004650112 
0.08009766779967552 
-0.0001368420736915325 
-0.2208464919046896 
-4.431553778730152e-05 
-0.2208464919046896 
0.01451301857279274 
0.07080452202776073 
-4.431553778730152e-05 
0.01546776081316686 
0.04715614085776422 
0.01451301857279274 
-4.431553778730152e-05 
0.01451301857279274 
0.07149720421756679 
0.07080452202776073 
0.0005761800628647433 
-0.001959961039403091 
0.1002226094990625 
0.0002707141276707405 
0.007441418900295595 
-0.002051324377111439 
0.001561398677749392 
0.001007495376971879 
0.000538455548724401 
0.0002707141276707405 
-0.002051324377111439 
0.05574356336352029 
0.002003373795956546 
-0.002051324377111439 
0.0543052636660785 
0.0002707141276707405 
-0.002051324377111439 
-0.002051324377111439 
0.01851006259444934 
0.01851006259444934 
0.01851006259444934 
0.01851006259444934 
6.804967668549102e-05 
0.0004805092843781343 
0.01851006259444934 
0.0001407707611008956 
0.0004805092843781343 
0.001672633586242787 
0.06138030128205342 
0.07169357362231681 
0.001027046455864289 
-0.000327259822892195 
0.001027046455864289 
-0.000327259822892195 
0.05441800133222127 
-0.0001772800335136904 
-0.0001772800335136904 
0.001027046455864289 
0.05441800133222127 
0.06138030128205342 
0.07217969438635111 
0.07217969438635111 
-0.0001772800335136904 
0.0009699315063474974 
0.06497770811736125 
-0.000327259822892195 
-0.0001772800335136904 
0.005081701493186644 
0.001027046455864289 
0.06138030128205342 
0.0009699315063474974 
-0.1287045713408961 
-0.005076941963560525 
-0.00269726056694633 
0.05482993079126122 
-0.01020407352260475 
0.08377996631964511 
0.09664405853920671 
-0.01073062934456863 
0.05201094918569022 
0.05201094918569022 
0.05201094918569022 
0.05201094918569022 
0.05787927179954947 
0.01119454325042979 
0.05813055033421768 
0.05791329724263776 
0.02894226938241616 
0.02894226938241616 
0.1168659065568558 
-0.0001539077826512729 
0.02894226938241616 
0.02894226938241616 
-0.0001539077826512729 
-0.0001539077826512729 
0.05590377367006727 
0.02706578741683009 
0.02894226938241616 
0.02894226938241616 
0.0001332668292769761 
0.0004049176212091619 
0.0487446179247041 
0.02183686600707239 
0.004328377364556262 
0.02183686600707239 
0.1249633573908016 
0.0001332668292769761 
0.009064035339644869 
-0.06754930127373901 
-0.06862529878051546 
-0.05415147361961978 
-0.06799604888353274 
-1.72412976683982e-05 
-0.05415147361961978 
0.01286744352599835 
-0.05415147361961978 
0.002411858790677496 
-0.002874062027706549 
-0.1077126262480401 
0.04750429602777408 
0.01896146703911516 
0.002411858790677496 
1.046428235571868e-05 
-0.002874062027706549 
-2.741271610630707e-05 
0.05260754118790057 
-0.003523034339541853 
0.002411858790677496 
0.05260754118790057 
-0.002874062027706549 
0.0001091231176352308 
0.001978482480381381 
-0.0002728757377615781 
0.002865594104725391 
0.03701080748376938 
-0.1465286646037714 
-0.1076034954794832 
-0.1465286646037714 
0.4386789076256304 
-0.1008563827137106 
0.2965136134415908 
0.2959948601908756 
0.03469977863245602 
0.03469977863245602 
0.001973973491674457 
0.03469977863245602 
0.03469977863245602 
0.0374188652378217 
0.002547620716449827 
0.2035475339777476 
0.0496320763319219 
-0.00122743832162989 
-0.0007466200776551083 
-0.0007466200776551083 
0.06486310718497311 
0.01730985006754771 
0.06486310718497311 
0.06486310718497311 
0.06486310718497311 
0.06486310718497311 
0.01730985006754771 
0.01730985006754771 
0.1833481206563725 
0.01365073137517606 
0.01609905052731262 
0.02110505561323939 
0.007682916100953667 
0.01609905052731262 
0.007682916100953667 
0.003511842055080765 
0.06486310718497311 
0.1315174662520412 
0.01350512507818163 
0.01350512507818163 
0.007682916100953667 
0.01350512507818163 
0.1169281904147784 
-0.08439944470635316 
-0.1376688478907487 
-0.006017916269618732 
-0.007610001694040903 
0.08682468675575278 
-0.006017916269618732 
-0.007463344769561273 
-0.006017916269618732 
-0.1301614316571755 
0.009636278845512379 
0.08711380661428003 
-0.0002566236313795333 
0.0003064179055573626 
0.0002007436837902936 
0.1006289856612388 
0.0002007436837902936 
0.129730633815224 
0.1296066650619719 
0.1006289856612388 
0.1006289856612388 
0.00344620426694314 
0.0002007436837902936 
0.1006289856612388 
0.1296066650619719 
0.0494161384851713 
0.09111816225139717 
0.09466864046197239 
0.04986070343709904 
0.02006068661062172 
0.1408090752614303 
0.02703033441264423 
0.02174373687193377 
0.02636892903611762 
0.09111816225139717 
0.02703033441264423 
0.01948035722739806 
0.1946282508443542 
0.1946282508443542 
-0.007651467474993261 
0.2808053759606967 
0.1946282508443542 
0.1946282508443542 
0.1946282508443542 
0.03306387270938397 
0.001648868250572282 
-0.01623645193990746 
2.700865352376255e-05 
2.700865352376255e-05 
2.700865352376255e-05 
2.700865352376255e-05 
0.0002373715438143443 
0.0002373715438143443 
0.07283228207698594 
0.0002373715438143443 
0.0002373715438143443 
0.005963384967309967 
0.005271609970724745 
0.0002373715438143443 
0.0002373715438143443 
0.005271609970724745 
0.0002147096516724732 
0.05612692695676987 
-0.02593202279289073 
0.001086591147616544 
-0.02593202279289073 
0.03952874616626319 
0.001086591147616544 
0.05659801247238375 
-0.001324038131214191 
-0.02593202279289073 
-4.529528720459492e-05 
-0.0002670903962566302 
0.0001375811374797901 
-0.001498120344656994 
0.03724064391995482 
-4.529528720459492e-05 
-4.529528720459492e-05 
0.04921018259423149 
0.03296071196166478 
0.001044004366167505 
-4.529528720459492e-05 
0.0009911286919508568 
-4.529528720459492e-05 
0.0001375811374797901 
0.05640265893648161 
0.1113942414034038 
-0.0038144785213697 
-0.0009421493520653305 
0.007739724515942576 
0.03425223509383185 
0.03425223509383185 
0.03425223509383185 
0.007739846872164256 
0.03425223509383185 
0.007739724515942576 
0.007739724515942576 
0.03425223509383185 
0.03425223509383185 
-0.00118795854170255 
0.08394524379872824 
-0.03312518764203531 
-0.04983516422627886 
-0.0002465520770304597 
-0.02748823481029102 
-0.002072228685251311 
0.04545546375605086 
0.02444073012410888 
-0.04921219074108156 
0.0001691478459356781 
0.03319914840797081 
0.03095536516840425 
-0.0763131316918572 
0.04545546375605086 
-0.102000034581141 
-0.001185084648874711 
-0.0005173434169291142 
-0.004670418597875859 
-0.0763131316918572 
0.03095536516840425 
-0.04921219074108156 
0.03473359802682249 
-0.0005506317246605559 
0.03095536516840425 
-0.03550763772857169 
-0.03550763772857169 
-0.03550763772857169 
0.0008944783054828051 
0.02432769284736759 
0.0003901814630351655 
0.00177658578363468 
0.0008944783054828051 
0.009273860556314512 
0.08182162483209997 
0.08171067614074175 
0.009273860556314512 
0.02265488334694622 
0.009273860556314512 
0.0006806676172283933 
0.0006806676172283933 
-0.04947928395929994 
0.1163302835183954 
0.02278755907745399 
0.02278755907745399 
0.001229350440878793 
0.02278755907745399 
0.02278755907745399 
0.001229350440878793 
0.000972557554788408 
0.02278755907745399 
0.231030830038794 
0.001229350440878793 
0.02278755907745399 
0.231030830038794 
0.001382786065726701 
0.001229350440878793 
-0.0004978037203868412 
0.007233468218089734 
0.0004472676707550187 
0.0005169310570380463 
0.0004472676707550187 
0.0004472676707550187 
0.0004472676707550187 
6.305515531073339e-06 
0.0004472676707550187 
0.003917681424793163 
0.0005818814956429071 
0.06086230717524845 
0.06086230717524845 
0.06086230717524845 
0.06086230717524845 
0.1942426119880062 
0.06086230717524845 
0.06086230717524845 
0.06086230717524845 
0.04486879457056446 
0.04486879457056446 
0.04486879457056446 
0.001859551225295965 
0.04486879457056446 
0.1247452195373588 
0.1247452195373588 
0.1247452195373588 
0.1247452195373588 
0.1520952928506457 
0.002802400579926908 
0.05386043542625263 
0.002802400579926908 
0.05386043542625263 
-0.006276533105283854 
0.05386043542625263 
-0.003254487325416672 
0.05386043542625263 
0.3206971422337507 
0.002688405704761549 
0.05373281115041234 
0.1026179408499274 
0.05386043542625263 
0.002688405704761549 
-0.006344396557983072 
0.002688405704761549 
0.1828615576142224 
0.002677968095586465 
0.002844692509331174 
0.002677968095586465 
0.02081121704223158 
0.006948716468966932 
0.0002449140553418596 
0.005254398598248959 
0.02081121704223158 
0.002677968095586465 
0.006948716468966932 
0.002677968095586465 
0.006948716468966932 
0.1121212964985001 
0.07212160838943994 
0.003711201876416256 
0.05415005965709958 
0.1680315534223587 
0.003711201876416256 
0.1096711552287846 
0.07212160838943994 
0.07212160838943994 
0.003711201876416256 
0.07212160838943994 
-0.001597181419932656 
-0.001809991627176303 
-0.001809991627176303 
-0.2272243476944523 
0.1253837491537144 
-0.2258384330730819 
-0.2272243476944523 
-0.001597181419932656 
-0.138567522438491 
-9.77610956525132e-05 
0.1033421200457928 
-0.0001569561155901599 
0.001498107609867505 
0.003787177967170871 
0.001498107609867505 
0.001498107609867505 
0.001498107609867505 
0.001498107609867505 
-0.001400859051606742 
0.07760715760830685 
0.0007992619134535383 
0.1484954397066934 
0.1484954397066934 
0.1829112994551188 
0.01276539519699198 
0.1546377476680157 
0.01276539519699198 
0.1484954397066934 
0.01276539519699198 
0.1465560155792786 
0.01276539519699198 
0.04200026995049127 
0.01431480362145845 
0.002141334876907828 
0.002141334876907828 
0.002141334876907828 
0.0006408324424828164 
0.002141334876907828 
0.0006408324424828164 
0.002141334876907828 
0.03012958025138584 
0.0002059885132850759 
0.03012958025138584 
0.0002059885132850759 
0.03012958025138584 
0.001344836805294446 
0.001441727937037183 
0.001344836805294446 
0.001441727937037183 
0.1346876968267293 
-9.465398984255328e-06 
-0.03616117373184515 
0.0259847187782375 
-0.004635121099096101 
-0.0219346754569365 
-0.03892917390943133 
0.0243075868580448 
0.0194156581736579 
-0.004954680042763228 
-0.03616117373184515 
0.0204491393009627 
-0.05487229334603011 
-0.03616117373184515 
0.009897741800940775 
-9.465398984255328e-06 
-9.465398984255328e-06 
0.008151912400740317 
0.1779460945606078 
0.0005432599915862515 
0.1779460945606078 
0.1779460945606078 
0.1779460945606078 
0.001118125243650143 
0.001118125243650143 
0.0005432599915862515 
0.0005432599915862515 
0.1518844225395835 
0.07470336111540017 
0.1518844225395835 
0.07470336111540017 
0.1518844225395835 
0.1503772341127984 
0.07470336111540017 
0.07470336111540017 
0.07470336111540017 
-0.0002980975341662796 
0.007509561644447389 
-0.001698540257756859 
-0.001346076163084112 
-0.009723482356665238 
-0.001346076163084112 
0.05927045894416835 
-0.0002980975341662796 
-0.009723482356665238 
-0.0004347434736858458 
-0.009723482356665238 
-0.009723482356665238 
0.03512358590317237 
0.06058479557071789 
-0.0005954704773630043 
-0.0005954704773630043 
0.03512358590317237 
-0.0005954704773630043 
0.06058479557071789 
-0.0005954704773630043 
0.03512358590317237 
0.08734946865118712 
0.08734946865118712 
-0.0005954704773630043 
0.06058479557071789 
-0.1371498540910281 
0.006059191037267243 
