solver_type L2R_L2LOSS_SVC
nr_class 2
label 1 -1
nr_feature 5417
bias -1
w
0.1792576763255354 
-0.0003117427377316544 
0.09009110849851641 
0.09009110849851641 
-3.631105116767945e-05 
-0.0003117427377316544 
-3.631105116767945e-05 
-3.631105116767945e-05 
0.09009110849851641 
0.002127732553372416 
0.001187753551627494 
0.001187753551627494 
-0.000278999374465528 
0.09009110849851641 
0.002482056459595663 
0.1792576763255354 
0.01734599891926874 
-0.0001672427017374653 
0.001187753551627494 
-3.631105116767945e-05 
0.09009110849851641 
0.09009110849851641 
0.002646764443519984 
0.09009110849851641 
-3.631105116767945e-05 
0.3540616559610393 
1.963817435452576e-05 
0.07266220176954633 
0.03538679642514368 
0.004079980744086022 
0.03538679642514368 
0.03538679642514368 
0.004781567695540262 
0.004079980744086022 
0.02826779369527678 
0.07266220176954633 
0.2088943061944846 
1.963817435452576e-05 
0.02826779369527678 
0.002284872903212443 
0.02826779369527678 
1.963817435452576e-05 
0.004079980744086022 
1.963817435452576e-05 
1.963817435452576e-05 
0.07266220176954633 
0.002132408138178748 
0.02826779369527678 
0.004079980744086022 
0.07266220176954633 
0.02830945926152799 
0.1192404146643826 
-0.0904653495190465 
0.007312136488991653 
0.00797310446058631 
0.1192404146643826 
0.00797310446058631 
0.00797310446058631 
0.00797310446058631 
-0.07694935119922226 
0.1192404146643826 
0.02830945926152799 
0.1186211693030947 
0.00728292111897504 
0.02830945926152799 
0.007484709058244121 
0.00797310446058631 
0.02830945926152799 
0.01659829641986314 
0.02830945926152799 
0.05466582776285221 
0.009936719188542338 
0.05466582776285221 
0.001405668450176275 
0.009936719188542338 
-6.092722401168731e-06 
0.006610237418973428 
-6.092722401168731e-06 
-6.092722401168731e-06 
7.763878462542197e-05 
0.009936719188542338 
0.009674152528022379 
0.05466582776285221 
0.05466582776285221 
-6.092722401168731e-06 
0.05466582776285221 
-6.092722401168731e-06 
6.179286826068142e-05 
0.05466582776285221 
7.763878462542197e-05 
0.0747623026448582 
-6.092722401168731e-06 
-6.092722401168731e-06 
-0.0003514948708925 
-0.0003514948708925 
-0.0003514948708925 
-0.0003514948708925 
-0.0003514948708925 
0.01125382814674382 
-0.0003514948708925 
0.01125382814674382 
-0.0003514948708925 
-0.0004920292511361711 
-0.0003514948708925 
-0.0003514948708925 
-0.0007389203557364991 
0.01125382814674382 
0.01125382814674382 
0.0891665678270189 
0.0891665678270189 
0.0891665678270189 
0.0891665678270189 
0.0891665678270189 
0.0891665678270189 
0.0891665678270189 
-0.0002565960975621285 
-0.0002565960975621285 
0.001284741884848621 
-0.0002565960975621285 
0.001284741884848621 
-0.0002565960975621285 
-0.0002565960975621285 
-0.0002565960975621285 
0.001284741884848621 
0.001821369991901116 
-0.0002565960975621285 
-0.0002565960975621285 
-1.030107238223224e-05 
0.008712669966415267 
0.000140738848630102 
-1.030107238223224e-05 
0.03384372902273666 
0.000140738848630102 
-1.030107238223224e-05 
0.03384372902273666 
0.03384372902273666 
-1.456994567029638e-05 
-5.99902962886499e-05 
0.03384372902273666 
2.082922350987188e-05 
2.082922350987188e-05 
0.002089580692402885 
2.082922350987188e-05 
2.082922350987188e-05 
2.082922350987188e-05 
0.004987974778654232 
0.0003192675596920748 
2.082922350987188e-05 
2.082922350987188e-05 
2.082922350987188e-05 
2.082922350987188e-05 
0.2413397718855919 
0.09093095540285462 
0.09093095540285462 
-0.07907314466788687 
0.09093095540285462 
0.09093095540285462 
-4.505068289521231e-05 
-4.505068289521231e-05 
-4.505068289521231e-05 
-4.505068289521231e-05 
-4.505068289521231e-05 
-4.505068289521231e-05 
-4.505068289521231e-05 
-4.505068289521231e-05 
0.003787560256347768 
0.000329411626360448 
0.0001697125707645241 
0.0001697125707645241 
0.0003222383735005108 
0.003787560256347768 
0.00426952661289685 
0.0001697125707645241 
-4.021204570161858e-05 
0.0004291945103712359 
0.005567522668033602 
0.0004291945103712359 
0.000272339116900111 
0.01166562457655037 
0.0004291945103712359 
0.0003882380589475261 
-4.021204570161858e-05 
0.005567522668033602 
0.005567522668033602 
0.000596767983577108 
0.002503977348066136 
0.002503977348066136 
0.0004265675470528871 
0.002503977348066136 
0.0004265675470528871 
0.0004265675470528871 
0.002503977348066136 
0.0002922541812829459 
-2.073688920019691e-05 
-4.549732632846712e-05 
-4.549732632846712e-05 
-3.005896305737069e-06 
-4.549732632846712e-05 
-4.549732632846712e-05 
-4.549732632846712e-05 
0.006191241326859618 
0.05034780727944152 
0.05034780727944152 
0.09645924203673888 
-6.330275979513609e-05 
-0.0002209215735356016 
0.0009417044355700969 
0.09645924203673888 
-0.0004222815966411233 
-6.330275979513609e-05 
-0.0002209215735356016 
-0.0002209215735356016 
0.09645924203673888 
0.05034780727944152 
-0.0007140694323824125 
-2.137858093270746e-05 
-0.0007117335012265581 
0.003331490654772896 
0.05034780727944152 
0.008207086652800641 
0.008207086652800641 
0.008207086652800641 
0.008207086652800641 
2.942144688105291e-05 
8.620969667573823e-06 
-0.0004682871838259328 
8.620969667573823e-06 
8.620969667573823e-06 
8.620969667573823e-06 
0.0002511847381224915 
2.603631813025669e-05 
0.01067702193076145 
2.603631813025669e-05 
0.01067702193076145 
0.05935899244211682 
2.603631813025669e-05 
2.603631813025669e-05 
0.01067702193076145 
9.921514604609075e-05 
9.921514604609075e-05 
0.0219131046551415 
0.0219131046551415 
0.002199259020044423 
0.0219131046551415 
9.921514604609075e-05 
0.002844181853360995 
0.001396867025409331 
0.002199259020044423 
0.002199259020044423 
0.0219131046551415 
0.01739869936187349 
-2.599389640967382e-05 
-2.599389640967382e-05 
0.02059564810212967 
0.01307334786411713 
-2.599389640967382e-05 
0.01739869936187349 
0.01739869936187349 
-2.599389640967382e-05 
0.01297525238351903 
0.01307334786411713 
0.01307334786411713 
0.001783772391032446 
0.0103671323009066 
0.001783772391032446 
-2.688718327618345e-05 
0.002961451765038734 
0.04243616016057977 
3.292250773959563e-05 
0.04243616016057977 
-2.688718327618345e-05 
0.04243616016057977 
0.001783772391032446 
0.04243616016057977 
0.005103634547250869 
9.972613441065683e-05 
9.972613441065683e-05 
0.005103634547250869 
9.972613441065683e-05 
0.005103634547250869 
0.0002734136048466543 
0.005103634547250869 
0.001580359137975685 
0.0002440546018521037 
1.776022468757194e-05 
0.0002440546018521037 
2.730555329206661e-05 
0.0483973998450412 
2.730555329206661e-05 
0.0999212490940108 
0.0483973998450412 
2.730555329206661e-05 
2.730555329206661e-05 
0.0003103335029490335 
0.0483973998450412 
2.730555329206661e-05 
0.0483973998450412 
0.0483973998450412 
2.730555329206661e-05 
0.0999212490940108 
0.002457160749802756 
0.00252232452390312 
0.00252232452390312 
0.00252232452390312 
0.0001441028110881989 
0.0001441028110881989 
0.002825026997059999 
0.0001441028110881989 
0.0001441028110881989 
0.0001441028110881989 
0.0001441028110881989 
0.0001441028110881989 
0.0001441028110881989 
0.0001441028110881989 
0.0001441028110881989 
0.01318709778724417 
-3.240586228097573e-05 
0.007550860541597283 
-3.240586228097573e-05 
0.0002334176454850309 
-3.240586228097573e-05 
-3.240586228097573e-05 
-3.240586228097573e-05 
-0.0002653441856838538 
0.0002775750415137337 
-0.0002653441856838538 
0.0001638295627236196 
0.01209347210634899 
0.0002020750353041758 
0.003268484254186193 
0.007772489850586373 
0.003796052050551459 
0.05919936500538171 
0.007772489850586373 
0.005608315172202161 
0.007772489850586373 
0.007813194706876081 
0.05919936500538171 
0.0001638295627236196 
0.0001638295627236196 
0.05919936500538171 
0.0001638295627236196 
0.05919936500538171 
0.05919936500538171 
0.0001638295627236196 
0.128032504929854 
0.128032504929854 
0.0001638295627236196 
0.0003007116383075324 
0.05919936500538171 
0.002507091111222878 
0.002507091111222878 
-0.0002055515848524807 
-2.413288210444545e-05 
0.002507091111222878 
-0.0002055515848524807 
0.002507091111222878 
-0.0009783469919010768 
0.002429302621791396 
0.005348832591069999 
8.75279762092566e-05 
0.00419396869640682 
8.75279762092566e-05 
0.00419396869640682 
0.00419396869640682 
0.009317623453250835 
0.04868197051135537 
0.04868197051135537 
8.75279762092566e-05 
8.75279762092566e-05 
0.008901231918568514 
0.04868197051135537 
0.003045585637895472 
0.1219740278707564 
0.05765852549964479 
0.02535644359355731 
0.003045585637895472 
-0.000153931170197237 
0.008175721356696856 
-6.678819908939254e-05 
-0.000153931170197237 
0.05765852549964479 
0.02462221914300243 
0.05765852549964479 
-0.000153931170197237 
0.05765852549964479 
-0.000153931170197237 
0.05765852549964479 
0.1219740278707564 
0.05765852549964479 
0.003045585637895472 
-0.000153931170197237 
-0.000153931170197237 
-0.000153931170197237 
0.003045585637895472 
-0.0001411236347484857 
0.000206147106403044 
0.000206147106403044 
0.000206147106403044 
0.003896036141813497 
0.000206147106403044 
1.282507598065191e-05 
0.003830196559538826 
0.000206147106403044 
0.003896036141813497 
0.000206147106403044 
0.000206147106403044 
0.000206147106403044 
0.003896036141813497 
0.003896036141813497 
9.438450750423386e-05 
0.000206147106403044 
0.001994971188229823 
9.221773225843209e-05 
9.221773225843209e-05 
9.221773225843209e-05 
0.001994971188229823 
0.01639430945285364 
0.001994971188229823 
9.221773225843209e-05 
9.221773225843209e-05 
9.221773225843209e-05 
-0.0002368831396452176 
0.002512699351315362 
0.002806569368309728 
0.0001437415265804822 
0.002949097770868535 
0.0003028068926827172 
0.0003028068926827172 
0.0001437415265804822 
-0.0001000390160357767 
0.0003028068926827172 
0.002512699351315362 
0.0003028068926827172 
0.0001590653661022351 
0.0002365297283545727 
0.0002365297283545727 
0.0002365297283545727 
0.02892688869037985 
0.0001590653661022351 
0.01357669695342767 
0.0001590653661022351 
0.005137486974900894 
-4.581265993354708e-05 
-6.433422570493574e-05 
-4.581265993354708e-05 
0.0009460671773758721 
-6.433422570493574e-05 
0.0009460671773758721 
0.0009460671773758721 
-6.433422570493574e-05 
-6.433422570493574e-05 
-6.433422570493574e-05 
-6.433422570493574e-05 
0.001967446537885416 
-6.433422570493574e-05 
0.0009460671773758721 
0.0001914629826931234 
-0.0001981591965458246 
0.01056237340574839 
-0.0004865734823834582 
0.01056237340574839 
-0.0004865734823834582 
0.01056237340574839 
0.01056237340574839 
0.001496974885464266 
0.001496974885464266 
0.01378777506551827 
0.001496974885464266 
0.001496974885464266 
0.01129144964992351 
0.001496974885464266 
0.001496974885464266 
0.001496974885464266 
0.001496974885464266 
0.001496974885464266 
0.004708077582447627 
0.01040185771373193 
0.00493870829515424 
0.01194397485489903 
0.004708077582447627 
0.007572643803499317 
0.00493870829515424 
0.00475372381172346 
0.02680018756858764 
0.06883313992447226 
0.06883313992447226 
0.06883313992447226 
0.06883313992447226 
0.01336752729318962 
0.01336752729318962 
0.06883313992447226 
0.06883313992447226 
0.005454401271693088 
0.05591309385241275 
0.005454401271693088 
0.005454401271693088 
0.005454401271693088 
0.005454401271693088 
0.005454401271693088 
0.005454401271693088 
0.005578390991576134 
0.005604728817429482 
0.004651114515149722 
0.005454401271693088 
0.02627872974566859 
-0.0001412701163332606 
-0.0001412701163332606 
-0.0002518257485275519 
-0.0001412701163332606 
-0.0001412701163332606 
0.0007804979884074995 
0.0007804979884074995 
0.0007804979884074995 
-0.0001412701163332606 
-0.0001412701163332606 
0.0007804979884074995 
0.001747526942626552 
0.005763985325077011 
1.546950231081422e-05 
-0.0003034901298956577 
1.546950231081422e-05 
-0.0002332852431469774 
-0.0006942308068742946 
1.546950231081422e-05 
-0.0003034901298956577 
-0.0003034901298956577 
0.00012629737762153 
0.000146336028254473 
0.000146336028254473 
0.000146336028254473 
0.000146336028254473 
0.006431631276520607 
0.006505840830886274 
0.001999499671660002 
0.000146336028254473 
0.000146336028254473 
0.001999499671660002 
0.020096474882006 
0.001404598097407331 
0.020096474882006 
0.002052844260640141 
0.07245005978923134 
0.001737989590042833 
0.00333740550283445 
0.001737989590042833 
0.002207396146115688 
0.003772653948941862 
0.07245005978923134 
0.001737989590042833 
0.001737989590042833 
0.001737989590042833 
0.07245005978923134 
0.001737989590042833 
0.001737989590042833 
0.07245005978923134 
0.001737989590042833 
0.001211803708745283 
0.001737989590042833 
0.001592462765110247 
0.0006547175240200911 
0.0006547175240200911 
0.0006547175240200911 
0.000741476440266226 
0.0006547175240200911 
0.0006547175240200911 
0.000741476440266226 
0.000267292039176092 
0.0006547175240200911 
0.0006547175240200911 
0.0006547175240200911 
0.001007465063805776 
0.0006547175240200911 
0.000741476440266226 
0.0006547175240200911 
0.0006547175240200911 
4.249143002273009e-05 
4.249143002273009e-05 
0.002197072614590164 
4.249143002273009e-05 
2.074064622897689e-05 
4.249143002273009e-05 
-0.000243014462784442 
-0.0005566752528016738 
-2.733382670943822e-05 
-2.733382670943822e-05 
-2.733382670943822e-05 
-2.11232287699285e-05 
-0.0002717411052413637 
0.0001774029837410557 
0.0001455222734572717 
0.0001455222734572717 
8.714297110784423e-05 
0.0001774029837410557 
0.0001455222734572717 
0.0001455222734572717 
8.714297110784423e-05 
0.0007085454885987912 
0.0007331554130388591 
0.0008491073889617526 
0.00124237411637098 
-3.261141071817201e-05 
0.006611754869283649 
0.006447652518599863 
0.0008491073889617526 
-3.261141071817201e-05 
0.0008491073889617526 
-3.261141071817201e-05 
-0.0901399343512741 
0.00621599487130896 
3.140378925724939e-05 
0.003770341677517441 
-2.547173871180022e-05 
2.354168311639155e-05 
2.354168311639155e-05 
3.140378925724939e-05 
2.354168311639155e-05 
3.140378925724939e-05 
0.0005137354366264432 
0.006518647287486646 
-0.0007068750180747149 
0.006518647287486646 
-0.0007068750180747149 
0.006518647287486646 
-0.0007068750180747149 
-2.606833698188297e-05 
-0.0002426934201264006 
-2.606833698188297e-05 
0.0001533334420421316 
0.0001533334420421316 
-0.0005863886761156435 
0.0003042273512981351 
0.004443096571588864 
0.0002972873719859123 
0.001208467563560195 
0.002647211056004837 
0.0005950213874050794 
-0.0005863886761156435 
0.0001533334420421316 
0.001698382407589446 
0.004069011616823959 
0.001560830366855651 
0.001376434793233289 
0.001698382407589446 
0.001560830366855651 
0.001560830366855651 
0.004069011616823959 
0.001698382407589446 
0.001698382407589446 
0.004069011616823959 
0.004069011616823959 
0.00367609470421677 
0.00367609470421677 
0.0005258329509212093 
0.0005258329509212093 
0.00367609470421677 
0.0008355287040840387 
0.0005590193094177977 
0.0005258329509212093 
0.0005258329509212093 
0.0001588420443856077 
0.0001588420443856077 
0.0001588420443856077 
0.0001588420443856077 
0.0001588420443856077 
0.0002156090827375525 
0.0001773636101569963 
0.0001588420443856077 
0.0001588420443856077 
0.0001425284025588067 
9.906626490167246e-05 
9.906626490167246e-05 
9.906626490167246e-05 
9.906626490167246e-05 
9.906626490167246e-05 
0.002046830087707593 
9.906626490167246e-05 
9.906626490167246e-05 
0.0006632683153292285 
0.0006632683153292285 
0.0006632683153292285 
0.0006632683153292285 
-0.0004969300867596686 
-0.0004969300867596686 
-0.0004969300867596686 
0.0001755100795962829 
-0.0004969300867596686 
-0.0004969300867596686 
-0.0004969300867596686 
0.017238473674612 
-0.0004969300867596686 
-0.0004969300867596686 
-0.0004969300867596686 
-0.0004969300867596686 
0.0001554922186361965 
0.0003044405729210328 
8.238246710705276e-05 
0.0001554922186361965 
0.0001554922186361965 
0.0001554922186361965 
0.0001554922186361965 
0.0001554922186361965 
0.0002582985460122497 
-6.857390371329884e-05 
-6.857390371329884e-05 
-6.857390371329884e-05 
-6.857390371329884e-05 
0.0001384453276003047 
0.003631982247579459 
0.0001160245786566693 
0.00217159916928837 
0.02920146892369285 
0.0001384453276003047 
0.002022881042723205 
0.002365789430042171 
0.006844053853959333 
0.006973491872322332 
0.0001384453276003047 
0.002022881042723205 
0.01297745772052199 
0.01297745772052199 
0.01297745772052199 
0.01297745772052199 
-6.73063376566648e-05 
-6.73063376566648e-05 
-6.73063376566648e-05 
0.0001036695199990318 
-6.73063376566648e-05 
0.01400443831598853 
-6.73063376566648e-05 
-6.73063376566648e-05 
0.00161374997294285 
-6.73063376566648e-05 
9.370654370261474e-05 
9.370654370261474e-05 
9.370654370261474e-05 
9.370654370261474e-05 
9.370654370261474e-05 
9.370654370261474e-05 
9.370654370261474e-05 
9.370654370261474e-05 
0.0003380760306550864 
0.00497664951714844 
0.0003380760306550864 
0.0003380760306550864 
0.0003380760306550864 
0.0005465869233286737 
0.0003380760306550864 
0.0006852482519117141 
0.001342874007109659 
0.001342874007109659 
0.003925112375150081 
0.001201540873567619 
0.001342874007109659 
0.003925112375150081 
0.001342874007109659 
0.001201540873567619 
0.001342874007109659 
0.003925112375150081 
0.001201540873567619 
0.0009205729230527011 
0.003925112375150081 
0.001342874007109659 
0.001342874007109659 
0.001201540873567619 
0.0002917803045136162 
0.0002917803045136162 
0.0002917803045136162 
0.0005177714271144254 
0.0002917803045136162 
0.001048496376147934 
0.0002917803045136162 
0.0002477717896293318 
-2.778670467837814e-05 
0.0005976467350406427 
-0.0001021232402518009 
-0.0001021232402518009 
-2.778670467837814e-05 
-2.778670467837814e-05 
-2.778670467837814e-05 
-2.778670467837814e-05 
-0.0001021232402518009 
-2.778670467837814e-05 
-7.180802885133867e-06 
-2.778670467837814e-05 
-2.778670467837814e-05 
0.0006676894776480421 
0.002297326993792765 
0.003536888308733155 
2.470013326474688e-05 
0.002297326993792765 
-4.045476814208234e-06 
2.470013326474688e-05 
2.470013326474688e-05 
-3.98398428405729e-05 
-3.98398428405729e-05 
-3.98398428405729e-05 
0.002521574182070688 
-3.98398428405729e-05 
-3.98398428405729e-05 
-3.98398428405729e-05 
0.01113449011852722 
0.001135711471226217 
-2.003865063294306e-05 
0.00110689107289167 
-2.003865063294306e-05 
0.001135711471226217 
-2.003865063294306e-05 
-2.003865063294306e-05 
0.001135711471226217 
0.001378500524398212 
0.001135711471226217 
0.001378500524398212 
0.008768704416350328 
-0.0002611183738239895 
-0.0002611183738239895 
0.001056358322735803 
-0.0002611183738239895 
-0.0002611183738239895 
0.000984920375586811 
-0.0002611183738239895 
-0.0002611183738239895 
-0.0002611183738239895 
-0.0002611183738239895 
-0.0002611183738239895 
-0.0002611183738239895 
0.05152384924896961 
0.05152384924896961 
0.05152384924896961 
0.187264274257895 
0.05152384924896961 
0.05152384924896961 
0.005208928646701745 
1.30874040001219e-05 
1.30874040001219e-05 
1.30874040001219e-05 
1.30874040001219e-05 
1.30874040001219e-05 
1.30874040001219e-05 
1.30874040001219e-05 
-3.872323425743586e-05 
-3.872323425743586e-05 
-3.872323425743586e-05 
-0.000182268434704404 
-0.000182268434704404 
-0.000182268434704404 
-0.000182268434704404 
0.001655773867952509 
-0.000182268434704404 
-0.000182268434704404 
-0.000182268434704404 
-0.000182268434704404 
-0.000182268434704404 
-0.0004914055042135126 
0.001864046988345085 
-0.0004914055042135126 
0.01156214549803474 
0.01156214549803474 
-0.0004914055042135126 
-0.0001930484974437056 
-0.0004914055042135126 
-0.0001930484974437056 
0.01156214549803474 
0.001864046988345085 
-0.0001930484974437056 
-0.0001930484974437056 
-0.0001930484974437056 
0.01386992397490293 
0.0135961206435441 
0.003284713767971059 
-0.0002476122607303934 
-0.0002653981376558329 
-0.0002460294521727719 
-0.0002460294521727719 
-0.0002460294521727719 
-0.0002476122607303934 
0.003284713767971059 
-0.0002476122607303934 
-0.0002476122607303934 
0.002560176444877566 
-0.0002476122607303934 
0.03728943097164204 
0.004853284431588608 
0.004853284431588608 
0.004853284431588608 
0.004990836472322404 
0.004990836472322404 
0.014909243817246 
0.004990836472322404 
0.009600017722297268 
0.004853284431588608 
0.004853284431588608 
0.0227339289287549 
0.005070143936839382 
0.005070143936839382 
0.005872542493232665 
0.005070143936839382 
0.03914718118341823 
0.005070143936839382 
0.005070143936839382 
0.005070143936839382 
-1.936868548306083e-05 
-1.936868548306083e-05 
6.555387069887605e-05 
-1.936868548306083e-05 
-1.936868548306083e-05 
1.28075354487512e-05 
0.0005968622969887442 
1.946101979273585e-05 
1.28075354487512e-05 
6.555387069887605e-05 
0.003326740492038672 
0.0001484203642763288 
0.00330188344600955 
0.0001484203642763288 
0.0001484203642763288 
0.0001961970749259074 
0.0001484203642763288 
8.248766806528138e-06 
2.781250058884471e-05 
8.248766806528138e-06 
0.003427752683435229 
0.003244421020067677 
8.248766806528138e-06 
8.248766806528138e-06 
8.248766806528138e-06 
3.348412078542477e-05 
3.348412078542477e-05 
3.348412078542477e-05 
3.348412078542477e-05 
3.348412078542477e-05 
3.348412078542477e-05 
3.348412078542477e-05 
3.348412078542477e-05 
3.348412078542477e-05 
3.693549298012454e-05 
3.348412078542477e-05 
-2.80871938639579e-05 
-2.80871938639579e-05 
-2.80871938639579e-05 
-2.80871938639579e-05 
-2.80871938639579e-05 
-2.80871938639579e-05 
-2.80871938639579e-05 
-2.80871938639579e-05 
-2.80871938639579e-05 
0.0002858492219790384 
0.008547607474806426 
0.002364456018168998 
0.002364456018168998 
0.002364456018168998 
0.002386104087973171 
0.002364456018168998 
0.002364456018168998 
0.002364456018168998 
0.002364456018168998 
0.002462554555631953 
0.002364456018168998 
0.002364456018168998 
0.002364456018168998 
0.002364456018168998 
0.002364456018168998 
0.002364456018168998 
0.0002859655785351058 
2.060590179324449e-05 
2.060590179324449e-05 
2.060590179324449e-05 
2.060590179324449e-05 
2.060590179324449e-05 
2.060590179324449e-05 
0.003180958153939901 
0.0003945049082227098 
0.0002728671643643129 
0.0002728671643643129 
0.0003945049082227098 
0.003180958153939901 
0.0007426079907250568 
0.003180958153939901 
0.0002728671643643129 
0.0003945049082227098 
0.0003945049082227098 
0.0002728671643643129 
0.0005615364886662897 
0.0002728671643643129 
0.02300024262465025 
4.606457748876854e-05 
0.02515441541565813 
4.606457748876854e-05 
4.606457748876854e-05 
5.312229513995049e-05 
4.606457748876854e-05 
0.0002786833826977348 
5.312229513995049e-05 
0.003894122047046461 
0.003336514508919766 
0.007165635197559749 
0.003336514508919766 
0.001594150535906321 
0.001594150535906321 
0.001594150535906321 
7.865359153628746e-05 
0.001594150535906321 
0.003336514508919766 
7.865359153628746e-05 
7.865359153628746e-05 
0.00181279210255941 
0.001350193867312956 
0.00181279210255941 
0.001921431034423747 
0.001616111973852074 
0.00181279210255941 
0.00181279210255941 
0.00181279210255941 
0.00181279210255941 
0.00181279210255941 
0.00181279210255941 
0.003212071606379875 
0.001350193867312956 
0.001519665265686407 
0.0001396315674715754 
-3.81308969020508e-05 
-0.0001098220849532282 
0.01345002435278393 
0.002620453040686228 
-0.0001098220849532282 
-0.0001098220849532282 
-0.0001098220849532282 
5.873434716655668e-05 
5.873434716655668e-05 
5.873434716655668e-05 
5.873434716655668e-05 
3.536874035561581e-05 
3.536874035561581e-05 
3.536874035561581e-05 
0.001845624295688851 
-0.0001097321967928815 
0.0001777624643736265 
0.0005247954905386459 
0.0001777624643736265 
0.0001777624643736265 
0.0001777624643736265 
0.0001777624643736265 
0.0001777624643736265 
0.0001777624643736265 
0.0001777624643736265 
0.0001777624643736265 
0.0001777624643736265 
0.0001777624643736265 
0.0001455916225323817 
0.0001455916225323817 
0.0001455916225323817 
-0.0001884187065557517 
0.0001455916225323817 
-0.0001884187065557517 
-0.0001884187065557517 
0.0001339010866152089 
-0.0004900767557767538 
-0.0004900767557767538 
-0.0005203137648023482 
0.0001339010866152089 
-0.0004900767557767538 
-0.0004900767557767538 
-0.0004900767557767538 
-0.0004900767557767538 
-0.0004900767557767538 
2.788694116105389e-05 
1.852156577138872e-05 
1.852156577138872e-05 
1.852156577138872e-05 
1.852156577138872e-05 
0.0002041504915900972 
0.003334911125284113 
0.0002041504915900972 
0.0003354470829891181 
0.0002041504915900972 
0.0002967513898708377 
-0.0006317552789778352 
0.006472148424589783 
0.0002041504915900972 
0.0002041504915900972 
-2.69616238483926e-05 
-2.69616238483926e-05 
-2.69616238483926e-05 
-2.69616238483926e-05 
8.499055217262922e-05 
0.0008507573759296605 
0.002413825930516938 
0.0008507573759296605 
8.499055217262922e-05 
0.002413825930516938 
0.0002403902494590619 
0.0001417951533497157 
6.187939560598228e-05 
0.0006766471997690468 
0.0005832986367780282 
0.0001417951533497157 
0.0001417951533497157 
-0.0007010062617512199 
4.450132547237672e-05 
4.450132547237672e-05 
4.450132547237672e-05 
4.450132547237672e-05 
8.892821037254436e-05 
4.450132547237672e-05 
8.892821037254436e-05 
-0.0002617627654282593 
8.892821037254436e-05 
4.450132547237672e-05 
-3.187470161419545e-05 
0.002030209526245792 
0.003783855681037508 
0.002030209526245792 
-3.187470161419545e-05 
0.002030209526245792 
0.0002830279496569669 
0.0002830279496569669 
0.0002830279496569669 
8.708133277600176e-05 
0.0001709617209470108 
8.708133277600176e-05 
8.708133277600176e-05 
8.708133277600176e-05 
8.708133277600176e-05 
8.708133277600176e-05 
8.708133277600176e-05 
8.708133277600176e-05 
8.708133277600176e-05 
8.708133277600176e-05 
0.004098926785717011 
-3.074320813017369e-05 
0.004098926785717011 
0.004098926785717011 
0.004098926785717011 
0.01042705600449122 
0.01042705600449122 
0.01833223504706992 
0.0181500646025547 
0.02001756293582404 
-0.0008960254264829613 
-0.0008442006515167174 
-0.0008442006515167174 
-0.0008960254264829613 
-0.0008442006515167174 
-0.0008960254264829613 
-0.0001083270324522043 
-0.0008960254264829613 
0.003665978311578964 
0.003665978311578964 
0.002245224351642346 
0.003665978311578964 
0.002131461880084243 
0.003665978311578964 
0.002131461880084243 
0.002131461880084243 
0.002131461880084243 
0.002062084227859987 
0.002062084227859987 
0.002063707783739903 
0.002062084227859987 
-0.0002262943771645317 
-0.0001880489045839757 
-0.0002262943771645317 
-0.0002262943771645317 
0.004745425786084999 
-0.0002262943771645317 
-0.0006377389434708619 
-0.0002262943771645317 
-0.0001880489045839757 
-0.0002262943771645317 
-0.0002262943771645317 
-0.0001880489045839757 
-0.0004825323752597874 
-0.0004825323752597874 
0.00323056051008103 
0.02277730226554667 
0.0001871716125772778 
-0.0004825323752597874 
0.00323056051008103 
0.00323056051008103 
-0.0007261596857544933 
0.0001871716125772778 
0.0001871716125772778 
0.0001871716125772778 
0.0001871716125772778 
0.0001871716125772778 
-0.0004825323752597874 
0.0001871716125772778 
0.000113746709935221 
0.000113746709935221 
-0.0001311316665496258 
-3.450861752146506e-05 
0.000113746709935221 
0.000493364756503589 
-0.0001311316665496258 
-0.0001311316665496258 
0.0001746093089852583 
1.896820920464352e-05 
1.896820920464352e-05 
1.896820920464352e-05 
0.000357584663798519 
1.896820920464352e-05 
1.896820920464352e-05 
-0.0001630982167300766 
1.896820920464352e-05 
0.04666173915870775 
0.01062231176964552 
0.01831454850766067 
0.0002557972083980589 
0.01831454850766067 
0.0002557972083980589 
0.01061648007602669 
0.0002557972083980589 
0.0002557972083980589 
0.0006324208930702476 
-0.08429708887459035 
0.0006324208930702476 
0.0002557972083980589 
0.0002557972083980589 
0.002198513871286655 
0.002198513871286655 
0.002584610609534048 
0.002198513871286655 
0.002198513871286655 
0.002198513871286655 
0.002198513871286655 
0.002198513871286655 
0.002198513871286655 
0.002198513871286655 
0.002198513871286655 
0.008986050963620937 
0.02135323458357614 
0.02183079441813096 
0.0004063286735636089 
0.0001469315528321461 
0.0001469315528321461 
0.001022315901594619 
0.0008442078857155309 
0.0004063286735636089 
0.0008442078857155309 
0.0001469315528321461 
0.0004063286735636089 
0.0001469315528321461 
0.0008442078857155309 
0.0001469315528321461 
0.01113418063816875 
3.704313154277743e-05 
0.001416455722418336 
3.704313154277743e-05 
2.804995901415798e-05 
0.001247057253487718 
3.704313154277743e-05 
0.001247057253487718 
0.002838458349320284 
6.229262223035992e-05 
0.002838458349320284 
6.229262223035992e-05 
0.01080050549987017 
6.229262223035992e-05 
0.002838458349320284 
6.229262223035992e-05 
0.002838458349320284 
6.229262223035992e-05 
6.229262223035992e-05 
0.0001033695948153127 
0.0001559991659329747 
0.0001559991659329747 
0.0001559991659329747 
2.766361944442643e-05 
0.0001559991659329747 
1.91170903490618e-05 
0.0003496027519731198 
3.616398138495364e-05 
3.616398138495364e-05 
3.616398138495364e-05 
3.616398138495364e-05 
3.616398138495364e-05 
-4.400851488428444e-05 
-4.400851488428444e-05 
-4.400851488428444e-05 
0.000168913769122712 
-4.415739602870268e-05 
-4.415739602870268e-05 
-4.415739602870268e-05 
-0.0004948298294163155 
0.004445005371114106 
-0.0004728981340319922 
-0.0004948298294163155 
-0.0004948298294163155 
-0.0004948298294163155 
0.001309249438696209 
0.0005865522200790403 
0.0005865522200790403 
0.0005865522200790403 
0.0005865522200790403 
1.472509658872286e-05 
1.472509658872286e-05 
0.003382604764825312 
0.0001080107315584992 
0.0001488183018377909 
0.0001051819898145521 
0.0002042543891860888 
0.0001488183018377909 
0.001594625544129104 
0.0001080107315584992 
0.0002042543891860888 
0.0001488183018377909 
0.0040862382428562 
0.0040862382428562 
0.0040862382428562 
0.0040862382428562 
-0.0005228118556048762 
-0.0005228118556048762 
-0.0005228118556048762 
-0.0005501589566069152 
0.0003252803743909049 
4.755338893295126e-05 
0.0002345966702124612 
0.0002345966702124612 
0.0002345966702124612 
-0.0005501589566069152 
4.755338893295126e-05 
0.002135782971893944 
4.755338893295126e-05 
4.755338893295126e-05 
0.0001487181265651653 
0.0001487181265651653 
0.0001487181265651653 
0.0001487181265651653 
0.0001487181265651653 
0.01336651573080377 
0.0001487181265651653 
0.01543339268069694 
0.002594541319871089 
0.01336651573080377 
0.0001487181265651653 
0.001667566551021798 
-1.944312605526997e-05 
-1.944312605526997e-05 
-1.944312605526997e-05 
-1.944312605526997e-05 
0.04611143475729735 
0.04611143475729735 
0.04611143475729735 
0.04611143475729735 
0.0006926252056827947 
0.0004453469460841672 
0.0003386164545938761 
0.0006926252056827947 
0.0003386164545938761 
0.0003386164545938761 
0.003581150468432665 
0.0003386164545938761 
0.0004453469460841672 
0.0003386164545938761 
0.0004453469460841672 
0.0006926252056827947 
0.0006926252056827947 
0.0004453469460841672 
0.0003386164545938761 
-5.451877227445825e-05 
-5.451877227445825e-05 
0.0006515654965524108 
-5.451877227445825e-05 
-5.451877227445825e-05 
0.0006239778423919625 
0.0006239778423919625 
0.0006239778423919625 
0.0006239778423919625 
0.0006239778423919625 
0.0006239778423919625 
0.0006239778423919625 
0.0006239778423919625 
-0.2482232612316195 
-0.09104130608580933 
-0.1309588280332981 
-0.2265013021501487 
-0.09104130608580933 
-0.2482232612316195 
-0.2171088005628231 
-0.2482232612316195 
0.0001399911806691138 
0.0001399911806691138 
0.0001399911806691138 
0.0001399911806691138 
0.0001399911806691138 
0.0001890333810462477 
0.0001326389629679922 
0.0001326389629679922 
8.852849748072383e-05 
8.852849748072383e-05 
0.0004722830205409021 
0.0001326389629679922 
0.0001326389629679922 
2.804995901415798e-05 
0.000406729127100393 
2.804995901415798e-05 
0.009904528640991761 
2.804995901415798e-05 
0.000406729127100393 
0.0002537683963726835 
2.804995901415798e-05 
0.0002742852351732897 
0.0002742852351732897 
0.0001376264813060043 
0.0001376264813060043 
0.001820589905359897 
0.003045717470881592 
0.001820589905359897 
0.0001376264813060043 
0.0002742852351732897 
0.0001376264813060043 
0.002430032641403008 
-1.854983918876037e-05 
-1.854983918876037e-05 
3.098230615412019e-06 
3.098230615412019e-06 
3.098230615412019e-06 
-1.854983918876037e-05 
-1.854983918876037e-05 
0.001822202209594687 
-1.854983918876037e-05 
3.098230615412019e-06 
-1.854983918876037e-05 
0.0005311425048577356 
0.0005311425048577356 
0.0005311425048577356 
0.0005311425048577356 
0.0005311425048577356 
0.0005311425048577356 
0.0005311425048577356 
-0.0001873970130978097 
0.0005311425048577356 
0.0003737622978383358 
0.0005311425048577356 
5.804620275394053e-05 
1.140955357100825e-05 
1.140955357100825e-05 
6.797147757634119e-05 
1.140955357100825e-05 
-0.000129471701550199 
1.140955357100825e-05 
1.140955357100825e-05 
-0.000129471701550199 
1.140955357100825e-05 
-0.000129471701550199 
0.002726674454056153 
8.174326234318998e-06 
0.003188204905471782 
8.174326234318998e-06 
-0.0002931268368730023 
0.0007955490358719162 
0.003399940182846384 
0.0006176722301416228 
0.0005786180485093817 
0.0004844377425959578 
0.0005786180485093817 
0.0054038686304924 
0.0001420929156385523 
0.0001420929156385523 
0.0001420929156385523 
0.0001420929156385523 
0.0001420929156385523 
0.0001420929156385523 
0.01018444361854412 
1.628834860511466e-05 
1.628834860511466e-05 
-1.432086328152551e-05 
1.628834860511466e-05 
-1.432086328152551e-05 
1.628834860511466e-05 
0.0001287680532131173 
0.0001842041405614151 
0.003224469183124958 
0.0001842041405614151 
0.003092872388167894 
0.003092872388167894 
0.007870830123034427 
0.002744549786434873 
0.0008683080280259112 
0.002744549786434873 
0.002744549786434873 
0.01640778029633805 
0.002744549786434873 
0.0164205077339255 
0.0002240141197945539 
0.007870830123034427 
0.0002240141197945539 
0.0002240141197945539 
0.0008683080280259112 
7.570597537088621e-05 
7.570597537088621e-05 
7.570597537088621e-05 
0.02164081731334089 
-0.000397390326732909 
7.570597537088621e-05 
5.708169560991679e-05 
0.02164081731334089 
7.570597537088621e-05 
-0.0005808377390407641 
7.570597537088621e-05 
7.570597537088621e-05 
-0.000991448917024091 
-0.000991448917024091 
0.00224590178920965 
-0.0003351224893252677 
-0.000991448917024091 
-9.202785390760507e-05 
-0.0003351224893252677 
-0.0003351224893252677 
-0.000991448917024091 
-0.0003351224893252677 
0.004646151764719422 
-2.202786395344596e-05 
2.484063130850263e-05 
7.418776809336608e-05 
-8.820461224204325e-05 
0.004646151764719422 
0.004650137009056348 
7.418776809336608e-05 
7.418776809336608e-05 
2.484063130850263e-05 
0.004646151764719422 
7.362032872228819e-05 
7.418776809336608e-05 
0.0001550455752029417 
0.001562598913288114 
0.0001550455752029417 
0.0001550455752029417 
0.0001550455752029417 
0.001562598913288114 
0.001562598913288114 
0.0001550455752029417 
0.0001550455752029417 
0.0001550455752029417 
0.004037196042479065 
0.004037196042479065 
0.004037196042479065 
0.004037196042479065 
3.451372194699704e-06 
3.451372194699704e-06 
3.451372194699704e-06 
3.451372194699704e-06 
0.007278739202552257 
3.451372194699704e-06 
0.01905384425160213 
0.000164052884440247 
0.000164052884440247 
0.004852732462100743 
3.34521936296059e-05 
3.34521936296059e-05 
3.34521936296059e-05 
0.001466579807802781 
0.001466579807802781 
0.001466579807802781 
3.34521936296059e-05 
0.001466579807802781 
3.34521936296059e-05 
0.01993112343186412 
0.0007085108995720039 
0.0007085108995720039 
0.0007085108995720039 
0.0007085108995720039 
0.0007085108995720039 
0.0007085108995720039 
0.0007085108995720039 
0.001054406940154294 
0.0007085108995720039 
0.003616601889147592 
0.0007085108995720039 
0.0004251902832721318 
0.0004012062823121048 
0.0004012062823121048 
0.0004251902832721318 
0.0004251902832721318 
0.0004251902832721318 
0.0004251902832721318 
0.0004012062823121048 
0.0001538013026828656 
0.0001538013026828656 
0.0001538013026828656 
0.0001538013026828656 
0.000175970456492502 
0.0001538013026828656 
0.0001538013026828656 
0.0001538013026828656 
0.004006236160927744 
0.0001538013026828656 
0.0001538013026828656 
0.0001538013026828656 
-2.39840009600272e-05 
-2.39840009600272e-05 
-2.39840009600272e-05 
-2.39840009600272e-05 
-0.0001338235374700259 
7.057717651181952e-06 
7.057717651181952e-06 
0.0001266357653990693 
-8.784083427183763e-05 
-0.0008650080661404607 
-8.784083427183763e-05 
8.099885662109865e-06 
8.099885662109865e-06 
-0.0007002301158882575 
0.002328835378344309 
0.002328835378344309 
0.00218742575231276 
0.00218742575231276 
0.002328835378344309 
0.00218742575231276 
0.002328835378344309 
0.002328835378344309 
0.00218742575231276 
-2.539837183200073e-05 
-2.669213497692764e-05 
-2.669213497692764e-05 
-2.669213497692764e-05 
-2.669213497692764e-05 
-0.0001286033453049664 
-0.0001286033453049664 
-0.0001286033453049664 
0.004570781401967502 
0.004570781401967502 
0.002256774019504639 
-0.0001286033453049664 
-0.0004299045084122878 
0.004570781401967502 
-0.0001286033453049664 
0.004570781401967502 
-0.0001286033453049664 
0.001681923769650535 
0.001681923769650535 
0.001681923769650535 
0.001095469209144703 
0.001095469209144703 
0.007570413939320682 
0.001681923769650535 
0.001681923769650535 
0.001681923769650535 
0.001151710742506133 
0.001681923769650535 
0.007424414838416755 
0.007002522095008517 
0.000332220121581198 
4.919108152155222e-05 
4.919108152155222e-05 
4.919108152155222e-05 
-0.0006123892816164196 
-0.0006123892816164196 
-0.0006123892816164196 
-0.0006123892816164196 
-0.0006123892816164196 
-0.0006123892816164196 
6.742766692532328e-05 
6.742766692532328e-05 
6.742766692532328e-05 
6.742766692532328e-05 
6.742766692532328e-05 
0.0001294781072609894 
0.0001294781072609894 
0.0001294781072609894 
0.000150158449626443 
-0.0002456934700569949 
-4.028648627382767e-05 
-0.0005659405514479134 
-0.0002456934700569949 
-4.028648627382767e-05 
-0.0005659405514479134 
-0.0005659405514479134 
-0.0005663924298687462 
-0.0002456934700569949 
-4.028648627382767e-05 
-0.0001688757825621447 
-0.0001688757825621447 
-0.001337338099817387 
-0.0001688757825621447 
-0.0001371037949375299 
-0.0001688757825621447 
-0.0001688757825621447 
-0.0001688757825621447 
-0.0001688757825621447 
-0.0001688757825621447 
-0.0001688757825621447 
-0.0003165910116913328 
-0.0003165910116913328 
0.001788785039277808 
8.65602487705378e-05 
8.65602487705378e-05 
8.65602487705378e-05 
8.65602487705378e-05 
8.65602487705378e-05 
0.005376256476733907 
0.0004114949229414196 
0.005376256476733907 
0.005376256476733907 
0.001105357037445386 
0.005376256476733907 
0.0004114949229414196 
0.0004114949229414196 
0.001853382410918891 
0.001853382410918891 
0.0001337109808743005 
8.492255618193686e-05 
8.492255618193686e-05 
8.492255618193686e-05 
8.492255618193686e-05 
0.000117350448024537 
8.492255618193686e-05 
8.492255618193686e-05 
0.00159516162983528 
0.004255301921189102 
0.00159516162983528 
0.00159516162983528 
0.0003986433781469686 
0.0003593990598840688 
0.0003986433781469686 
0.0003986433781469686 
0.0003134387705881658 
0.0003134387705881658 
0.0003134387705881658 
0.0003134387705881658 
0.0003134387705881658 
0.0003134387705881658 
0.0003134387705881658 
0.0003134387705881658 
0.02156511133797 
0.02156511133797 
0.0001709014170834874 
0.0001769169667237415 
0.0001709014170834874 
0.0001709014170834874 
0.0001709014170834874 
-4.989616527393854e-05 
0.0001709014170834874 
0.009816130738305815 
0.0001709014170834874 
0.0003438127296166214 
0.007154669707374992 
0.007033748944000775 
0.007033748944000775 
0.007088492959086394 
0.001214442239043514 
0.001214442239043514 
0.001214442239043514 
0.001214442239043514 
0.001214442239043514 
0.001945665653285731 
0.001214442239043514 
0.0009246936126800264 
0.001214442239043514 
0.0008305500005010215 
0.001214442239043514 
0.001214442239043514 
0.001214442239043514 
0.0001566856859314177 
0.0001566856859314177 
9.664374542203299e-05 
0.0001566856859314177 
9.664374542203299e-05 
0.0001566856859314177 
0.0001566856859314177 
0.0001566856859314177 
0.0001566856859314177 
0.0002049090400142512 
0.0001566856859314177 
0.0001566856859314177 
-0.0004294362406467142 
-0.0004294362406467142 
-0.0003310630024443265 
-0.0004294362406467142 
-0.0004294362406467142 
-0.0003310630024443265 
-0.0004294362406467142 
-0.0003310630024443265 
-0.0004294362406467142 
-0.0003310630024443265 
-0.0003523618144856333 
-0.0003523618144856333 
-0.0003119688571934448 
-0.0003322025561256439 
-0.0003523618144856333 
-0.0003523618144856333 
-0.0003523618144856333 
-0.0003523618144856333 
-0.0003322025561256439 
0.0006094427360431111 
0.0006094427360431111 
0.0006094427360431111 
0.0006094427360431111 
0.0006094427360431111 
0.0006094427360431111 
0.0006094427360431111 
0.0006927275996364469 
0.0004049429433024491 
0.004652531955014927 
0.0009472218623614221 
0.0009472218623614221 
0.0009472218623614221 
0.0009472218623614221 
0.0009472218623614221 
0.001196322551380127 
0.0009472218623614221 
0.0009472218623614221 
0.003890885183918542 
0.003890885183918542 
0.003890885183918542 
0.003890885183918542 
1.894850330567195e-05 
0.0001598297584268799 
0.0001598297584268799 
0.0001598297584268799 
0.0001598297584268799 
1.894850330567195e-05 
0.003102589551502541 
1.894850330567195e-05 
0.0002527174558351942 
0.0001598297584268799 
0.001930218196025885 
0.001930218196025885 
0.001930218196025885 
0.002066876949893171 
0.001930218196025885 
0.002066876949893171 
0.002206254068058299 
0.001930218196025885 
0.001930218196025885 
0.001930218196025885 
0.001930218196025885 
0.002066876949893171 
0.001930218196025885 
0.0008738780906846863 
0.0008738780906846863 
0.0008738780906846863 
0.0009162809434265219 
0.0008738780906846863 
0.0008738780906846863 
0.0008884401694203056 
0.0008884401694203056 
0.0008738780906846863 
0.0008738780906846863 
0.0008884401694203056 
0.0008884401694203056 
-4.296634687335652e-05 
-4.296634687335652e-05 
-4.296634687335652e-05 
-4.296634687335652e-05 
-4.296634687335652e-05 
-4.296634687335652e-05 
-4.296634687335652e-05 
-4.296634687335652e-05 
-0.0007344483954270938 
0.00013866132858304 
-0.0007344483954270938 
0.00013866132858304 
6.816037315067386e-05 
6.816037315067386e-05 
-0.0007344483954270938 
0.00013866132858304 
6.816037315067386e-05 
0.004002702930985268 
0.000149090329426211 
0.000149090329426211 
0.0002468911046003282 
0.000149090329426211 
0.0002468911046003282 
0.000149090329426211 
0.0002468911046003282 
0.000149090329426211 
0.000149090329426211 
9.680941498750153e-05 
9.680941498750153e-05 
9.680941498750153e-05 
9.680941498750153e-05 
0.00313954246591888 
0.00313954246591888 
-1.068794889029155e-05 
-3.809621617193892e-05 
0.00313954246591888 
-1.068794889029155e-05 
7.472260454554732e-05 
0.00313954246591888 
-1.068794889029155e-05 
0.002972239213257064 
0.002927392503750295 
0.002972239213257064 
0.002972239213257064 
0.002972239213257064 
0.006393370071135322 
0.002972239213257064 
9.365375389665129e-06 
9.365375389665129e-06 
9.365375389665129e-06 
9.365375389665129e-06 
9.365375389665129e-06 
9.365375389665129e-06 
0.02172195908147076 
0.02172195908147076 
0.02893851898648375 
0.02172195908147076 
0.02891117579164114 
0.02172195908147076 
0.0007657668237570313 
0.0007657668237570313 
0.0007657668237570313 
0.0007657668237570313 
0.0007657668237570313 
0.0007657668237570313 
-8.961142082467788e-06 
-8.961142082467788e-06 
0.002887121846373551 
-8.961142082467788e-06 
0.002887121846373551 
0.002887121846373551 
-3.99709051937433e-05 
-7.29172948554524e-05 
0.0001024905312232926 
0.0001024905312232926 
0.0001024905312232926 
0.03195282481908421 
0.0001024905312232926 
0.0001024905312232926 
0.0001024905312232926 
0.003890885183918542 
0.003890885183918542 
0.003890885183918542 
0.003890885183918542 
2.023369893219881e-05 
2.023369893219881e-05 
2.023369893219881e-05 
2.023369893219881e-05 
2.023369893219881e-05 
0.007412522870375582 
2.023369893219881e-05 
0.004944251003101034 
-4.530462067440792e-05 
0.001835611209278905 
-4.530462067440792e-05 
-4.530462067440792e-05 
-4.530462067440792e-05 
-4.530462067440792e-05 
0.001392639575857278 
0.001392639575857278 
0.001267678333731511 
0.001267678333731511 
0.001267678333731511 
0.001267678333731511 
0.001392639575857278 
0.002633935508345078 
0.002633935508345078 
0.002633935508345078 
0.002616329758719398 
0.002633935508345078 
0.003081998223367194 
0.002633935508345078 
0.002633935508345078 
0.002633935508345078 
0.002633935508345078 
0.002650425390193379 
0.002633935508345078 
0.002633935508345078 
0.002633935508345078 
-0.0004218927434082378 
-6.039966364497453e-05 
-0.0004218927434082378 
-0.0004218927434082378 
0.008116503363158143 
-6.039966364497453e-05 
-6.039966364497453e-05 
0.008116503363158143 
-6.039966364497453e-05 
0.0006526383902949497 
0.0006526383902949497 
0.002361304642323148 
-0.0002268131319976801 
0.003781741268437203 
0.003781741268437203 
-0.0002268131319976801 
-0.0002268131319976801 
0.003781741268437203 
-0.0002268131319976801 
-0.0002268131319976801 
-0.0006780478247693527 
-0.0006780478247693527 
-0.0006780478247693527 
-0.0006780478247693527 
0.0110771461707091 
0.0110771461707091 
0.0110771461707091 
-0.0006780478247693527 
-0.0006780478247693527 
-0.0006780478247693527 
-0.0006780478247693527 
-0.0006904386937740468 
-0.0006904386937740468 
-0.0006904386937740468 
-0.0006904386937740468 
-0.0006704077875565286 
-0.0006904386937740468 
-0.0006904386937740468 
5.224721924731561e-05 
5.224721924731561e-05 
5.224721924731561e-05 
5.224721924731561e-05 
5.224721924731561e-05 
5.224721924731561e-05 
5.224721924731561e-05 
3.318635849658824e-05 
3.318635849658824e-05 
0.00297835842631066 
0.00297835842631066 
0.00297835842631066 
-0.0005088049541750417 
-0.0005088049541750417 
-0.0009645901590174243 
-0.0005088049541750417 
2.603631813025669e-05 
2.603631813025669e-05 
2.603631813025669e-05 
2.603631813025669e-05 
3.154866590798729e-05 
3.154866590798729e-05 
3.154866590798729e-05 
3.154866590798729e-05 
3.154866590798729e-05 
3.154866590798729e-05 
8.844291384201224e-06 
8.844291384201224e-06 
8.844291384201224e-06 
8.844291384201224e-06 
8.844291384201224e-06 
8.844291384201224e-06 
1.716749876293846e-05 
-0.0003603462338566655 
0.03126139222162853 
0.0001469315528321461 
0.03126139222162853 
0.0001050073739697174 
0.03126139222162853 
0.0001469315528321461 
0.0001469315528321461 
0.0001469315528321461 
0.03126139222162853 
-0.0003003895427821605 
0.004405469269421367 
0.004405469269421367 
0.004405469269421367 
0.004405469269421367 
0.004405469269421367 
0.004572797539038814 
0.004405469269421367 
9.780077517411718e-05 
9.780077517411718e-05 
0.003829120688639984 
0.003829120688639984 
0.003829120688639984 
0.003829120688639984 
0.003829120688639984 
0.003829120688639984 
0.003829120688639984 
0.004762542797203724 
0.0007342244505548795 
0.0006916303065425689 
0.0006916303065425689 
0.0007342244505548795 
0.0007342244505548795 
0.0006916303065425689 
0.0007342244505548795 
0.0007342244505548795 
0.002942759793075662 
0.002942759793075662 
0.002942759793075662 
0.002942759793075662 
0.001810255555333235 
0.001810255555333235 
0.001810255555333235 
0.001810255555333235 
0.001810255555333235 
0.001810255555333235 
0.001810255555333235 
0.002541067546010552 
0.002541067546010552 
0.001810255555333235 
0.001810255555333235 
0.001810255555333235 
0.002107624843843447 
0.0001071658722984024 
0.0001071658722984024 
0.0001071658722984024 
0.0001071658722984024 
0.0001071658722984024 
0.0001071658722984024 
0.0001071658722984024 
0.0001071658722984024 
0.0001071658722984024 
0.0001071658722984024 
0.0001516671977707793 
0.00296231406122265 
0.00296231406122265 
0.003201941793816598 
0.00296231406122265 
0.00296231406122265 
0.00296231406122265 
0.00296231406122265 
0.004254685036705754 
0.00296231406122265 
0.00296231406122265 
0.003443955225931763 
0.00296231406122265 
0.004494312769299702 
0.003201941793816598 
0.004494312769299702 
0.00296231406122265 
0.001871405962304304 
0.001871405962304304 
0.001871405962304304 
0.001871405962304304 
0.001871405962304304 
0.001871405962304304 
0.001871405962304304 
0.001871405962304304 
0.001299220653775638 
0.000113045243550546 
0.001299220653775638 
0.001299220653775638 
0.001299220653775638 
0.000113045243550546 
0.000113045243550546 
0.000113045243550546 
0.000113045243550546 
0.000113045243550546 
0.0003705930078953518 
0.000113045243550546 
0.005473832525746063 
-4.519956403963055e-05 
-4.519956403963055e-05 
-4.519956403963055e-05 
-4.519956403963055e-05 
-4.519956403963055e-05 
-4.519956403963055e-05 
-4.519956403963055e-05 
-0.0005256540651740859 
-0.0005256540651740859 
-0.0005256540651740859 
-0.0005256540651740859 
-0.0005256540651740859 
-0.0005256540651740859 
0.003917410499593951 
0.003917410499593951 
0.003917410499593951 
-0.0001010459244940343 
0.0002306307127066127 
0.0002306307127066127 
-0.0002183346388951855 
-0.0002183346388951855 
-0.0002183346388951855 
0.0004201184448512327 
-0.0001859067470525851 
-0.0002183346388951855 
-0.0002183346388951855 
-0.0002183346388951855 
-0.0002183346388951855 
-0.0002183346388951855 
-0.0003470149618399316 
-0.0003470149618399316 
-0.0003470149618399316 
-0.000176089290051399 
-0.0003005781814901176 
-0.0003470149618399316 
-0.0003470149618399316 
-0.0003470149618399316 
0.0001517701900257398 
0.0001517701900257398 
0.0001517701900257398 
0.0001517701900257398 
0.0001517701900257398 
0.0001517701900257398 
0.0001517701900257398 
0.0001517701900257398 
0.0001517701900257398 
2.080047721347895e-05 
2.080047721347895e-05 
2.080047721347895e-05 
2.080047721347895e-05 
2.080047721347895e-05 
2.080047721347895e-05 
0.000151919071170158 
0.000151919071170158 
0.0002988506240023041 
0.0002988506240023041 
0.000151919071170158 
0.000151919071170158 
0.000151919071170158 
0.0002988506240023041 
0.000151919071170158 
0.000151919071170158 
-0.0006922257050977444 
-0.0003686914575667286 
-0.0003686914575667286 
-0.0003686914575667286 
-0.0003686914575667286 
-0.0006922257050977444 
-0.0003686914575667286 
-0.0006922257050977444 
-0.0003686914575667286 
-0.0003686914575667286 
-4.192417886242865e-05 
-4.192417886242865e-05 
-4.192417886242865e-05 
0.002385377364809605 
0.002385377364809605 
0.003665533461414355 
0.002322982028589664 
0.002385377364809605 
0.002385377364809605 
0.002385377364809605 
0.002385377364809605 
0.002322982028589664 
0.002385377364809605 
-6.004194050938481e-05 
-6.004194050938481e-05 
-0.0001309316505697857 
-0.0007827761675446138 
-0.0007827761675446138 
-0.0007827761675446138 
-0.0007827761675446138 
-0.0007827761675446138 
-0.0007827761675446138 
-0.0001076834936885896 
-6.411752439964058e-05 
-0.0003407542266569772 
0.0001441028110881989 
0.0001441028110881989 
0.0001441028110881989 
-0.0003211160523024516 
0.001156076648679556 
-0.0003211160523024516 
-0.0001117625988988099 
2.948319702807023e-05 
-0.0001117625988988099 
6.284671008644846e-05 
0.0001517100066813448 
-0.0001117625988988099 
-0.0001117625988988099 
-0.0001117625988988099 
-0.0001117625988988099 
-0.0001117625988988099 
-0.0001117625988988099 
0.0003767013258243732 
0.0003767013258243732 
0.006485899021136922 
0.05235358490722534 
0.02748101298952097 
0.05235358490722534 
0.02748101298952097 
0.02748101298952097 
0.02748101298952097 
0.05235358490722534 
-9.684985152248799e-05 
7.606146101064608e-05 
0.0001753557574258692 
-9.684985152248799e-05 
0.0001753557574258692 
0.0001753557574258692 
0.0001753557574258692 
4.245165516115343e-05 
4.245165516115343e-05 
4.245165516115343e-05 
4.245165516115343e-05 
4.245165516115343e-05 
4.245165516115343e-05 
9.621563204681182e-05 
9.621563204681182e-05 
9.621563204681182e-05 
-0.0001472595887263194 
9.621563204681182e-05 
-0.0001472595887263194 
9.621563204681182e-05 
9.621563204681182e-05 
9.621563204681182e-05 
3.087870075810506e-05 
3.087870075810506e-05 
3.087870075810506e-05 
3.087870075810506e-05 
3.087870075810506e-05 
3.087870075810506e-05 
8.328486359333591e-05 
8.328486359333591e-05 
0.0006145712963201934 
8.328486359333591e-05 
8.328486359333591e-05 
8.328486359333591e-05 
8.328486359333591e-05 
0.002704448579795358 
0.002676492803682764 
0.008020144068182512 
0.002704448579795358 
5.624153336143024e-05 
5.624153336143024e-05 
5.624153336143024e-05 
5.624153336143024e-05 
5.624153336143024e-05 
5.624153336143024e-05 
0.001668934754738934 
0.001668934754738934 
0.001668934754738934 
0.001668934754738934 
0.002964104334954777 
0.001668934754738934 
0.001668934754738934 
0.001668934754738934 
0.001668934754738934 
-0.0002054069837831671 
-0.0002054069837831671 
0.002939025925024108 
0.002939025925024108 
-0.0002054069837831671 
-0.0002054069837831671 
-0.0002054069837831671 
-0.0002054069837831671 
3.593810293488586e-05 
3.593810293488586e-05 
3.593810293488586e-05 
0.001889101746340414 
0.0002519752127748478 
0.0002519752127748478 
0.0002519752127748478 
3.593810293488586e-05 
0.0002519752127748478 
0.001889101746340414 
0.001889101746340414 
0.001868988655135262 
0.001853163643405529 
0.001853163643405529 
0.001853163643405529 
0.001853163643405529 
0.001853163643405529 
0.001753589180651065 
0.001853163643405529 
0.001853163643405529 
0.001853163643405529 
0.0003353841708553897 
0.0003353841708553897 
0.0003353841708553897 
0.0003353841708553897 
0.0003353841708553897 
0.0003353841708553897 
0.0003353841708553897 
0.001826464773082179 
0.0003353841708553897 
0.0003353841708553897 
0.0003353841708553897 
0.001826464773082179 
0.0003353841708553897 
4.57858346640682e-05 
4.57858346640682e-05 
0.0002311004493387561 
0.004925919978231458 
0.004925919978231458 
4.57858346640682e-05 
0.0002311004493387561 
0.004925919978231458 
0.004925919978231458 
0.004984944217268036 
4.756676176681315e-05 
4.756676176681315e-05 
0.0007604509384812448 
0.00422508935292881 
0.00422508935292881 
-4.159581486026682e-05 
0.0007604509384812448 
0.0007604509384812448 
0.003535883107478878 
0.0001566088272193336 
0.0001566088272193336 
0.0001566088272193336 
0.0001566088272193336 
0.0002436901599953353 
0.0001566088272193336 
0.0001566088272193336 
0.0002436901599953353 
1.792604119371562e-05 
1.792604119371562e-05 
1.792604119371562e-05 
5.863089748342648e-05 
0.0001005552036178325 
1.792604119371562e-05 
1.792604119371562e-05 
-6.617674828859745e-05 
-6.617674828859745e-05 
-6.617674828859745e-05 
-6.617674828859745e-05 
-6.617674828859745e-05 
-6.617674828859745e-05 
0.002543895260368613 
0.0003380808055565182 
0.002543895260368613 
0.002543895260368613 
0.0001745490051217351 
0.0001595383826925584 
0.0001745490051217351 
0.002543895260368613 
0.0001745490051217351 
0.0001745490051217351 
-0.0004090812182401686 
-0.0004090812182401686 
-0.0003803612940761285 
-0.0004090812182401686 
-0.0004090812182401686 
-0.0004090812182401686 
-0.0004090812182401686 
-0.0004090812182401686 
-0.0004090812182401686 
0.0005509882399008509 
0.0002130296826173239 
0.0002130296826173239 
0.0002130296826173239 
0.0002130296826173239 
0.0002130296826173239 
0.0002130296826173239 
0.0002130296826173239 
0.0002130296826173239 
0.0002130296826173239 
0.0001974431791265403 
0.0001974431791265403 
0.0001974431791265403 
0.0002112627567762627 
0.0001974431791265403 
0.0001974431791265403 
0.0001974431791265403 
0.0003558315091383183 
0.0001974431791265403 
0.0001974431791265403 
3.994631385893369e-05 
1.91170903490618e-05 
1.91170903490618e-05 
1.618359987679923e-05 
1.91170903490618e-05 
3.994631385893369e-05 
1.91170903490618e-05 
8.708133277600176e-05 
8.708133277600176e-05 
0.0002109103599729463 
8.708133277600176e-05 
8.708133277600176e-05 
8.708133277600176e-05 
0.0002109103599729463 
8.708133277600176e-05 
8.708133277600176e-05 
0.0002109103599729463 
0.0001643506467290835 
0.03774686951864926 
0.0001643506467290835 
0.0001643506467290835 
0.005942165190698316 
0.0001608519398352543 
-0.00029363237725606 
-0.00029363237725606 
0.0001608519398352543 
-0.00029363237725606 
-0.00029363237725606 
0.0001608519398352543 
0.02368577059469736 
0.02407875241011076 
-5.687552796904994e-05 
0.02407875241011076 
-5.687552796904994e-05 
-5.687552796904994e-05 
0.02407875241011076 
-5.687552796904994e-05 
-5.687552796904994e-05 
-5.687552796904994e-05 
-5.687552796904994e-05 
-0.000478023623481195 
-0.0004688071292359481 
-0.000478023623481195 
-0.0004688071292359481 
-0.000478023623481195 
-0.0004688071292359481 
-0.000478023623481195 
-0.000478023623481195 
0.001776843081669454 
0.001795467361430423 
0.001776843081669454 
0.001795467361430423 
0.001795467361430423 
0.001776843081669454 
0.001795467361430423 
0.0001897207451437127 
9.660972601877103e-05 
0.0008817187996799254 
0.004969545246559873 
0.0008817187996799254 
0.0008817187996799254 
0.0008817187996799254 
0.004969545246559873 
9.809853746295372e-05 
9.809853746295372e-05 
9.809853746295372e-05 
-0.0009216317014596781 
0.01044349964580254 
0.01064180194215477 
0.003096441603421025 
0.003153463081733222 
0.003114917002037576 
0.003114917002037576 
0.003114917002037576 
0.003114917002037576 
0.003364003627632364 
0.003114917002037576 
0.003114917002037576 
0.0001627873947126917 
0.0001627873947126917 
0.0001627873947126917 
-5.831693618821232e-06 
-5.831693618821232e-06 
-5.831693618821232e-06 
-5.831693618821232e-06 
-5.831693618821232e-06 
-5.831693618821232e-06 
-5.831693618821232e-06 
-5.831693618821232e-06 
0.01185560535103139 
-5.831693618821232e-06 
0.0002989250645745132 
0.000167328269617449 
0.0002989250645745132 
0.000167328269617449 
0.0002989250645745132 
0.000167328269617449 
0.001708666252028199 
0.001708666252028199 
0.001541337982410749 
0.001541337982410749 
0.00129755743979449 
0.001541337982410749 
0.00129755743979449 
0.00129755743979449 
0.0001302568646572999 
0.0001302568646572999 
0.0001302568646572999 
9.311101912494164e-05 
9.311101912494164e-05 
9.311101912494164e-05 
9.311101912494164e-05 
0.0009313495339769787 
-0.0007152629674744781 
0.0009313495339769787 
0.02189637055422906 
0.02189637055422906 
3.251639334670606e-05 
3.251639334670606e-05 
3.251639334670606e-05 
3.251639334670606e-05 
3.251639334670606e-05 
3.251639334670606e-05 
3.251639334670606e-05 
3.251639334670606e-05 
3.251639334670606e-05 
3.251639334670606e-05 
-4.237082229568341e-05 
-4.237082229568341e-05 
-4.237082229568341e-05 
-4.237082229568341e-05 
-4.237082229568341e-05 
-4.237082229568341e-05 
-0.0003331648584026279 
-8.682598061322269e-05 
0.0004839701903777363 
0.0001566088272193336 
0.000581340755821528 
0.000581340755821528 
0.000581340755821528 
0.0004839701903777363 
-3.336351305837818e-05 
-3.336351305837818e-05 
-3.336351305837818e-05 
-3.336351305837818e-05 
0.0006369800292787265 
0.0006369800292787265 
0.0006369800292787265 
-0.0004163915346823227 
0.0006369800292787265 
0.00464140166567009 
0.00464140166567009 
0.00464140166567009 
0.00464140166567009 
0.00464140166567009 
0.00464140166567009 
0.00464140166567009 
0.00464140166567009 
0.004903890108450924 
0.004671000800479198 
0.004933474690668976 
3.400520479088875e-05 
3.400520479088875e-05 
3.400520479088875e-05 
0.0004290140580689223 
0.0004290140580689223 
0.0004290140580689223 
0.000901447956327125 
0.0004290140580689223 
0.0004290140580689223 
0.0004290140580689223 
0.0004290140580689223 
0.0004290140580689223 
0.0004290140580689223 
0.0004290140580689223 
0.0004290140580689223 
0.0004290140580689223 
-0.0004557852048423824 
-0.0004557852048423824 
-0.0004557852048423824 
-0.0004557852048423824 
-0.0004557852048423824 
-0.0004557852048423824 
-0.0004557852048423824 
-0.0004557852048423824 
-0.0004557852048423824 
4.42780037557493e-05 
4.42780037557493e-05 
4.42780037557493e-05 
4.42780037557493e-05 
4.42780037557493e-05 
4.42780037557493e-05 
0.002371119382212044 
0.002582888885131194 
0.002582888885131194 
0.001851074964146432 
0.002176331968361187 
0.002176331968361187 
0.001839547758962356 
0.002176331968361187 
0.002176331968361187 
0.002371119382212044 
0.002582888885131194 
0.002176331968361187 
3.242789184260004e-05 
3.242789184260004e-05 
3.242789184260004e-05 
2.236510118278317e-05 
3.242789184260004e-05 
3.242789184260004e-05 
3.242789184260004e-05 
3.242789184260004e-05 
3.242789184260004e-05 
3.242789184260004e-05 
3.242789184260004e-05 
3.242789184260004e-05 
-3.323783142430659e-05 
-3.323783142430659e-05 
-3.323783142430659e-05 
-3.323783142430659e-05 
-0.0001983022963522236 
-0.0001983022963522236 
-0.0001983022963522236 
-0.0001983022963522236 
-0.0001983022963522236 
-0.000414927379496742 
-0.0001983022963522236 
-0.0001983022963522236 
2.198342860883056e-05 
0.0002590920256053754 
2.198342860883056e-05 
0.0002590920256053754 
0.007130588332135069 
0.007130588332135069 
0.007130588332135069 
0.007130588332135069 
0.0002425637684549178 
0.0002425637684549178 
0.0002425637684549178 
0.0002425637684549178 
0.0002425637684549178 
0.0002425637684549178 
0.0002425637684549178 
0.0002425637684549178 
0.001682963424053893 
0.001682963424053893 
0.001682963424053893 
0.001682963424053893 
0.001682963424053893 
0.001682963424053893 
0.001682963424053893 
0.001682963424053893 
0.0008256863199441423 
0.0001781824564512969 
0.0001452938602435451 
0.0001452938602435451 
0.0008256863199441423 
0.0008256863199441423 
0.0001452938602435451 
0.0008256863199441423 
0.002660140291353822 
0.002660140291353822 
0.002660140291353822 
0.002660140291353822 
0.002660140291353822 
0.002660140291353822 
0.002660140291353822 
0.002660140291353822 
0.002660140291353822 
0.002660140291353822 
9.765660382662214e-05 
0.0001076140489835737 
0.0001076140489835737 
0.001630541079407187 
0.0001076140489835737 
0.001630541079407187 
0.0001076140489835737 
0.0001076140489835737 
0.001630541079407187 
0.001630541079407187 
-0.0002329383234028776 
-0.0002329383234028776 
-0.0002329383234028776 
-0.0002329383234028776 
0.001328451497630016 
-0.0002329383234028776 
-0.0002329383234028776 
-0.0002329383234028776 
0.0001424247871861573 
-0.0002426883232978483 
0.0001424247871861573 
-0.0002426883232978483 
-0.0002426883232978483 
-0.0002426883232978483 
-0.0003273778615626634 
-0.0003273778615626634 
-0.0003273778615626634 
-0.0009533791099442792 
-0.0003273778615626634 
8.876554643392638e-05 
-0.0003273778615626634 
-0.0003273778615626634 
-0.0003273778615626634 
-0.0003273778615626634 
-0.0003560462198199928 
-0.0003560462198199928 
-0.0003560462198199928 
-0.0003560462198199928 
8.499699675414599e-05 
8.499699675414599e-05 
8.499699675414599e-05 
8.499699675414599e-05 
8.499699675414599e-05 
8.499699675414599e-05 
8.499699675414599e-05 
8.499699675414599e-05 
8.499699675414599e-05 
8.462479389310033e-05 
8.462479389310033e-05 
0.0002560320342668614 
-0.0007746071894886299 
8.462479389310033e-05 
8.462479389310033e-05 
8.462479389310033e-05 
0.0002560320342668614 
0.007302742225813163 
0.007302742225813163 
0.007302742225813163 
4.777671064957868e-05 
4.777671064957868e-05 
4.777671064957868e-05 
4.777671064957868e-05 
4.777671064957868e-05 
4.777671064957868e-05 
4.777671064957868e-05 
4.777671064957868e-05 
4.777671064957868e-05 
4.777671064957868e-05 
4.621345863318682e-05 
4.621345863318682e-05 
4.621345863318682e-05 
4.621345863318682e-05 
4.621345863318682e-05 
4.621345863318682e-05 
4.621345863318682e-05 
-0.0002969217949262914 
2.871992416404015e-05 
2.871992416404015e-05 
-0.0002969217949262914 
2.871992416404015e-05 
-0.0004108656063973861 
-0.0004108656063973861 
-0.0004108656063973861 
-0.0004108656063973861 
-0.0004108656063973861 
0.00123956131494039 
0.01023952339722605 
0.0006011082311939715 
-0.0004108656063973861 
-0.0004108656063973861 
-0.0004108656063973861 
-0.0004108656063973861 
-0.0007224207805134923 
-0.0006386528263646911 
-1.825207689992383e-05 
3.854607969564598e-05 
3.854607969564598e-05 
8.553382968313068e-05 
-2.309071409351754e-05 
0.0007127829049709965 
-2.309071409351754e-05 
-2.309071409351754e-05 
0.001421732138898871 
0.001421732138898871 
0.001421732138898871 
0.001421732138898871 
0.001421732138898871 
0.001421732138898871 
0.001421732138898871 
-0.001134301390744438 
-0.0007217558415487161 
-0.0007217558415487161 
-0.0007217558415487161 
0.005194768417817321 
0.005194768417817321 
0.004545392686170204 
0.005194768417817321 
0.004735769259755113 
0.005194768417817321 
0.005194768417817321 
-0.0005977123455398665 
-0.0005977123455398665 
-0.0005977123455398665 
5.745398503676615e-05 
5.745398503676615e-05 
5.745398503676615e-05 
5.745398503676615e-05 
5.745398503676615e-05 
5.745398503676615e-05 
-0.1700041000707415 
-0.1700041000707415 
-0.1700041000707415 
-0.1700041000707415 
-0.1700041000707415 
-0.1700041000707415 
-0.1700041000707415 
6.190187021701346e-05 
6.190187021701346e-05 
6.190187021701346e-05 
6.190187021701346e-05 
6.190187021701346e-05 
6.190187021701346e-05 
6.190187021701346e-05 
0.0003237157716930376 
0.0003237157716930376 
0.0003237157716930376 
0.0003237157716930376 
0.0003237157716930376 
0.0003237157716930376 
0.0003237157716930376 
0.0003237157716930376 
0.0003237157716930376 
0.0003237157716930376 
0.0003237157716930376 
0.0003237157716930376 
0.0003237157716930376 
0.0001105270211381801 
0.0001105270211381801 
0.0001105270211381801 
0.0001105270211381801 
0.0001105270211381801 
0.0001105270211381801 
0.0001105270211381801 
-0.0009168354360287356 
-0.0009168354360287356 
-9.957446275446344e-05 
0.001195595117461379 
-9.957446275446344e-05 
-9.957446275446344e-05 
-9.957446275446344e-05 
-9.957446275446344e-05 
0.001195595117461379 
-9.957446275446344e-05 
0.001195595117461379 
-9.957446275446344e-05 
0.001195595117461379 
-9.957446275446344e-05 
-3.060921188664018e-05 
-3.060921188664018e-05 
-3.060921188664018e-05 
-3.060921188664018e-05 
-3.060921188664018e-05 
0.008873701428758965 
0.008873701428758965 
0.02096430382716634 
0.02096430382716634 
0.008873701428758965 
0.02027394890687249 
0.008873701428758965 
0.008873701428758965 
7.447260265528639e-05 
0.001719677617144796 
7.447260265528639e-05 
0.001219026210942099 
0.0001143868860680683 
9.750301288528064e-05 
0.0001143868860680683 
0.006285246591291277 
0.006062283940440237 
0.006285246591291277 
0.006285246591291277 
9.869406204062679e-05 
9.869406204062679e-05 
9.869406204062679e-05 
9.869406204062679e-05 
9.869406204062679e-05 
9.869406204062679e-05 
9.869406204062679e-05 
0.0001429448985091652 
0.0001429448985091652 
0.0001429448985091652 
0.0003596460680483002 
0.0001429448985091652 
0.0001429448985091652 
0.0001429448985091652 
0.0003385652494044292 
0.0001429448985091652 
0.0001429448985091652 
0.0003596460680483002 
0.0001429448985091652 
0.0006384530837464182 
0.0006384530837464182 
0.0006384530837464182 
0.0006384530837464182 
0.0006384530837464182 
0.0006384530837464182 
0.0006384530837464182 
0.0006384530837464182 
-0.0002166250831445179 
-0.0002166250831445179 
-0.0002166250831445179 
-0.0002166250831445179 
-0.0002166250831445179 
-0.0002166250831445179 
-0.0002166250831445179 
-0.0002166250831445179 
0.03741236186055878 
0.03727540534440265 
0.03727540534440265 
0.03727540534440265 
0.03741236186055878 
0.03741236186055878 
0.06431550237111155 
0.06431550237111155 
0.06431550237111155 
0.06431550237111155 
0.06431550237111155 
0.06431550237111155 
-0.0001353737075985011 
-0.0001353737075985011 
-0.0001353737075985011 
0.002604880847762372 
-0.0001353737075985011 
-0.0001353737075985011 
-0.0001353737075985011 
0.01099316988202813 
-0.0001353737075985011 
-0.0001408812551212076 
0.0001709758576556965 
0.0001709758576556965 
0.0001709758576556965 
0.0001709758576556965 
0.0001709758576556965 
0.0001709758576556965 
0.0001709758576556965 
0.0001709758576556965 
0.0007608536213845128 
0.0007608536213845128 
0.0007608536213845128 
0.0007608536213845128 
0.0007608536213845128 
0.0007608536213845128 
0.0007608536213845128 
0.0007608536213845128 
0.0007608536213845128 
0.0007608536213845128 
0.0007608536213845128 
0.0007608536213845128 
-0.0004448568208795454 
-0.0004448568208795454 
6.015376921657136e-05 
-0.0004448568208795454 
-0.0004448568208795454 
-0.0004448568208795454 
2.001037721557139e-05 
2.001037721557139e-05 
2.001037721557139e-05 
2.001037721557139e-05 
2.001037721557139e-05 
2.001037721557139e-05 
2.001037721557139e-05 
2.001037721557139e-05 
1.673499203836949e-05 
1.673499203836949e-05 
1.673499203836949e-05 
0.004087826446879948 
0.0001598915370757721 
0.000135981976687954 
0.0001598915370757721 
0.0001598915370757721 
0.0001598915370757721 
0.0001045393906113869 
0.0001045393906113869 
0.0001045393906113869 
0.0001045393906113869 
0.0001045393906113869 
0.0001045393906113869 
-1.847539861655124e-05 
-1.847539861655124e-05 
-1.847539861655124e-05 
-1.847539861655124e-05 
-1.847539861655124e-05 
-1.847539861655124e-05 
-1.847539861655124e-05 
-1.847539861655124e-05 
-1.847539861655124e-05 
0.0001870432812795098 
0.0001870432812795098 
0.0001870432812795098 
0.0001315967949570643 
0.0001315967949570643 
0.0001315967949570643 
-2.450508496549113e-05 
-2.450508496549113e-05 
-2.450508496549113e-05 
-2.450508496549113e-05 
-2.450508496549113e-05 
-1.713546831678679e-05 
-8.519330170846931e-05 
-1.713546831678679e-05 
-1.713546831678679e-05 
3.251639334670606e-05 
3.251639334670606e-05 
0.005865537674674909 
0.006076399542326019 
0.005865537674674909 
0.0002777269854579537 
0.0002777269854579537 
0.0002777269854579537 
0.0002777269854579537 
0.0002777269854579537 
0.0002777269854579537 
0.01928481195326495 
0.01928481195326495 
0.01928481195326495 
0.001338323723009554 
0.0001177132683083956 
0.0001177132683083956 
0.0001177132683083956 
0.0001439539299437807 
0.0001439539299437807 
0.0001439539299437807 
0.0001439539299437807 
-0.0005301019869221946 
-0.0005301019869221946 
-0.0005301019869221946 
-0.0005301019869221946 
-0.0005301019869221946 
-0.0005301019869221946 
-6.878385325415736e-05 
-6.878385325415736e-05 
-6.878385325415736e-05 
-6.878385325415736e-05 
-6.878385325415736e-05 
-0.0001577083065979214 
-6.878385325415736e-05 
-8.979023132581917e-05 
0.0001399018297771624 
-8.979023132581917e-05 
-8.979023132581917e-05 
0.0001301079835128816 
0.0001301079835128816 
0.0001301079835128816 
0.0001301079835128816 
0.0001301079835128816 
0.0002108591082821979 
0.0002108591082821979 
0.0002108591082821979 
0.0002108591082821979 
0.0002108591082821979 
0.0002108591082821979 
0.0002108591082821979 
0.001104639324874031 
0.001104639324874031 
0.001104639324874031 
0.001104639324874031 
0.00114288764228084 
0.02028105213921017 
0.01002461521351321 
0.006480263929318034 
0.006480263929318034 
0.006480263929318034 
0.001220610454701158 
0.001220610454701158 
0.001220610454701158 
0.001220610454701158 
0.0002653596767418615 
0.001220610454701158 
0.001220610454701158 
0.001220610454701158 
-0.0002295721595140325 
-0.0003878931198941762 
-0.0002295721595140325 
0.003144432908807275 
-0.0003878931198941762 
-0.0003878931198941762 
-0.0002295721595140325 
-0.0003878931198941762 
-0.0003878931198941762 
-0.0001446205278676604 
-0.0001446205278676604 
-0.0001446205278676604 
-4.378519316765702e-05 
-4.378519316765702e-05 
-4.378519316765702e-05 
-4.378519316765702e-05 
-4.378519316765702e-05 
-4.378519316765702e-05 
-4.378519316765702e-05 
0.0002031124446873681 
0.0002031124446873681 
0.0002031124446873681 
0.0002031124446873681 
0.0002031124446873681 
0.0002031124446873681 
0.0002031124446873681 
-0.000514306030237561 
-0.000514306030237561 
-0.000514306030237561 
-0.0009874023323413557 
-0.0004945934153108259 
-0.000514306030237561 
-0.000514306030237561 
0.001011973837591358 
0.001011973837591358 
0.001011973837591358 
0.001011973837591358 
0.001126929723524613 
0.001126929723524613 
0.001126929723524613 
0.001126929723524613 
0.001126929723524613 
0.001427448880312669 
-0.0002191636211387881 
-0.0002191636211387881 
-0.0004822308491116072 
-0.0002191636211387881 
-0.0002191636211387881 
-0.0002191636211387881 
-0.0002191636211387881 
-0.0002191636211387881 
-0.0002191636211387881 
1.703275432720603e-05 
1.703275432720603e-05 
1.703275432720603e-05 
1.703275432720603e-05 
1.703275432720603e-05 
1.703275432720603e-05 
1.703275432720603e-05 
0.0001635318004347831 
0.0001635318004347831 
0.02413562793807982 
0.02413562793807982 
0.02413562793807982 
0.02413562793807982 
0.02427719515979878 
0.02433499859100291 
9.237262207243882e-05 
9.237262207243882e-05 
9.237262207243882e-05 
7.359946116705125e-05 
9.837323820238772e-05 
9.837323820238772e-05 
9.837323820238772e-05 
9.837323820238772e-05 
9.837323820238772e-05 
9.837323820238772e-05 
9.837323820238772e-05 
0.003544351284195174 
0.003544351284195174 
0.003544351284195174 
0.003544351284195174 
0.003544351284195174 
0.003544351284195174 
2.216915380963631e-05 
2.216915380963631e-05 
2.216915380963631e-05 
2.216915380963631e-05 
2.216915380963631e-05 
2.216915380963631e-05 
0.001295169580215843 
0.001295169580215843 
0.001295169580215843 
0.000534852046419331 
0.000534852046419331 
0.001033799014204339 
0.001033799014204339 
0.001033799014204339 
0.001033799014204339 
0.001033799014204339 
0.001033799014204339 
0.001033799014204339 
0.001033799014204339 
0.004551102973546734 
7.781465266359119e-05 
0.004551102973546734 
-0.0001042517732711289 
0.004551102973546734 
0.004551102973546734 
7.781465266359119e-05 
7.781465266359119e-05 
-0.0001042517732711289 
0.006758492488378388 
0.006740761495483928 
-4.400851488428444e-05 
-4.400851488428444e-05 
-4.400851488428444e-05 
-4.400851488428444e-05 
-4.400851488428444e-05 
0.02836998360285176 
0.0271709522822762 
0.02836998360285176 
0.0271709522822762 
0.0281262030602355 
0.02836998360285176 
0.0005679978972775528 
0.0005679978972775528 
0.0005679978972775528 
0.0006716172956780196 
0.0005679978972775528 
0.0005679978972775528 
0.002321644052069268 
0.0005679978972775528 
0.0005679978972775528 
0.0005679978972775528 
-0.0005142150687741586 
-0.0005142150687741586 
-0.0005456148535377277 
-0.000481326472566407 
-4.363631202323877e-05 
-6.754587241105681e-05 
0.00153396584663566 
-4.363631202323877e-05 
4.643678034981422e-05 
4.643678034981422e-05 
4.643678034981422e-05 
4.643678034981422e-05 
4.643678034981422e-05 
0.003197786513510205 
0.003197786513510205 
0.002655133867632448 
0.003197786513510205 
0.003197786513510205 
0.003197786513510205 
0.003197786513510205 
0.003197786513510205 
0.003197786513510205 
0.01335797444766268 
0.01335797444766268 
0.01335797444766268 
0.01335797444766268 
0.01335797444766268 
0.01335797444766268 
-4.445515831753927e-05 
-4.445515831753927e-05 
-4.445515831753927e-05 
0.007243571044878218 
-3.100976311127555e-05 
-3.100976311127555e-05 
-3.100976311127555e-05 
-3.100976311127555e-05 
-3.100976311127555e-05 
-3.100976311127555e-05 
-3.100976311127555e-05 
2.842216187520366e-05 
2.842216187520366e-05 
2.842216187520366e-05 
2.842216187520366e-05 
2.842216187520366e-05 
2.842216187520366e-05 
2.842216187520366e-05 
-3.916987769069067e-05 
-3.916987769069067e-05 
-3.916987769069067e-05 
-3.916987769069067e-05 
-3.916987769069067e-05 
-3.916987769069067e-05 
-3.916987769069067e-05 
4.777671064957868e-05 
4.777671064957868e-05 
4.777671064957868e-05 
4.777671064957868e-05 
4.777671064957868e-05 
4.777671064957868e-05 
4.777671064957868e-05 
4.777671064957868e-05 
4.777671064957868e-05 
4.777671064957868e-05 
4.777671064957868e-05 
-6.068320305913058e-05 
-6.068320305913058e-05 
-6.068320305913058e-05 
-6.068320305913058e-05 
-6.068320305913058e-05 
-6.068320305913058e-05 
-6.068320305913058e-05 
0.001561389821032894 
0.001561389821032894 
0.001561389821032894 
0.001561389821032894 
0.001561389821032894 
0.001561389821032894 
9.646084487435277e-05 
9.646084487435277e-05 
9.646084487435277e-05 
9.646084487435277e-05 
9.646084487435277e-05 
9.646084487435277e-05 
0.04656112021790384 
0.04656112021790384 
0.04656112021790384 
-2.390956038781805e-05 
-2.390956038781805e-05 
-2.390956038781805e-05 
0.0006369776599358517 
0.0006369776599358517 
0.0006369776599358517 
0.0006369776599358517 
0.0001338300121233383 
0.0001338300121233383 
0.0001338300121233383 
0.000762446250908043 
0.008656759067231031 
-0.0001352159447842471 
-0.0001352159447842471 
-0.0001352159447842471 
-4.247712852035105e-05 
-0.0001352159447842471 
-0.0001352159447842471 
-0.0001352159447842471 
-4.247712852035105e-05 
-0.0001352159447842471 
0.0003569001336167434 
0.0003569001336167434 
0.0003569001336167434 
0.0003540087510889182 
0.0003540087510889182 
0.0003540087510889182 
0.0003540087510889182 
0.0003540087510889182 
0.0003147644328260181 
0.0003540087510889182 
0.0003540087510889182 
0.0003147644328260181 
9.290934817455996e-06 
9.290934817455996e-06 
9.290934817455996e-06 
9.290934817455996e-06 
0.0007660070064517733 
9.290934817455996e-06 
9.290934817455996e-06 
0.002039563238027326 
0.002039563238027326 
0.002039563238027326 
0.002039563238027326 
0.001944009816728169 
0.0001629362758571101 
0.0001629362758571101 
0.0001903765735849091 
0.0001629362758571101 
0.0001629362758571101 
0.0001903765735849091 
0.0001629362758571101 
0.0001629362758571101 
0.0001629362758571101 
-0.000280926354424972 
2.015925835998966e-05 
0.0002468959048130948 
2.015925835998966e-05 
2.015925835998966e-05 
-0.000280926354424972 
3.824547258055611e-05 
3.824547258055611e-05 
3.824547258055611e-05 
3.824547258055611e-05 
3.824547258055611e-05 
3.177014959789082e-05 
3.177014959789082e-05 
3.177014959789082e-05 
-1.738527279033876e-05 
3.177014959789082e-05 
3.177014959789082e-05 
-1.738527279033876e-05 
5.989449377604005e-05 
5.989449377604005e-05 
5.989449377604005e-05 
5.989449377604005e-05 
5.989449377604005e-05 
-0.0002434752207731311 
-0.0002434752207731311 
-0.0002434752207731311 
-0.0002434752207731311 
-0.0002434752207731311 
-0.0002434752207731311 
-0.0002434752207731311 
-6.239533621994067e-05 
0.0001015831076480972 
-6.239533621994067e-05 
-6.239533621994067e-05 
-6.239533621994067e-05 
-6.239533621994067e-05 
0.0007358736190645148 
0.0007358736190645148 
0.0007358736190645148 
0.0007358736190645148 
0.0007358736190645148 
0.0007358736190645148 
0.0007358736190645148 
0.0007358736190645148 
0.009970501290408534 
0.001903238477023182 
0.001903238477023182 
0.001903238477023182 
0.001903238477023182 
0.001903238477023182 
0.001903238477023182 
0.001903238477023182 
0.001903238477023182 
-0.0001834474123078554 
-0.0001834474123078554 
-0.0001834474123078554 
-0.0001834474123078554 
-0.0001834474123078554 
-0.0001834474123078554 
-3.396457930218591e-05 
-3.396457930218591e-05 
-3.396457930218591e-05 
-3.396457930218591e-05 
-3.396457930218591e-05 
-3.396457930218591e-05 
4.87444380882974e-05 
4.87444380882974e-05 
4.87444380882974e-05 
4.87444380882974e-05 
2.945019317744571e-05 
4.87444380882974e-05 
2.945019317744571e-05 
0.004064611443019561 
0.004064611443019561 
0.004064611443019561 
0.004064611443019561 
0.004064611443019561 
0.004064611443019561 
0.004064611443019561 
4.822335408283345e-05 
4.822335408283345e-05 
0.008331580628930687 
4.822335408283345e-05 
4.822335408283345e-05 
4.822335408283345e-05 
4.822335408283345e-05 
4.822335408283345e-05 
4.822335408283345e-05 
4.822335408283345e-05 
4.904220037713396e-05 
4.904220037713396e-05 
0.002120696077769219 
0.002073158071851068 
0.002073158071851068 
0.002073158071851068 
0.002073158071851068 
0.002073158071851068 
0.002073158071851068 
0.02630780728613838 
0.02630780728613838 
0.02802747871618296 
0.02630780728613838 
0.0001522912740312038 
-0.0007859502570448208 
-0.0007859502570448208 
-0.0007859502570448208 
0.0001522912740312038 
0.0001522912740312038 
0.0001522912740312038 
0.0009985733116443854 
0.0009985733116443854 
0.0009985733116443854 
0.003853612601559056 
0.003853612601559056 
0.003853612601559056 
0.0009974518596473252 
0.001000815696051445 
0.0009974518596473252 
0.0009985733116443854 
0.0009985733116443854 
0.0009985733116443854 
0.0001384842095950161 
0.0001384842095950161 
-4.518784208326445e-07 
-4.518784208326445e-07 
-4.518784208326445e-07 
-4.518784208326445e-07 
-4.518784208326445e-07 
-4.518784208326445e-07 
0.001646612501451457 
0.001646612501451457 
0.001646612501451457 
0.001646612501451457 
0.0002229626508510404 
0.0002229626508510404 
0.0002229626508510404 
-4.095645142370989e-05 
-4.095645142370989e-05 
-4.095645142370989e-05 
-4.095645142370989e-05 
-4.095645142370989e-05 
-4.095645142370989e-05 
-4.095645142370989e-05 
-0.0003252570042147555 
-0.0003252570042147555 
-0.0003252570042147555 
-0.0003252570042147555 
-0.0003252570042147555 
-0.0003252570042147555 
-0.0003252570042147555 
0.008283357274847853 
0.008283357274847853 
0.008283357274847853 
0.008283357274847853 
0.008283357274847853 
0.008283357274847853 
0.008283357274847853 
0.008283357274847853 
0.0001332344875456652 
0.0001332344875456652 
-5.946874567120387e-05 
-5.946874567120387e-05 
0.003891420522268707 
0.004196985723769011 
0.007723008598063477 
0.004334147619876026 
0.004235652808902023 
0.01741478332800761 
0.004205308931147748 
0.004196985723769011 
0.004196985723769011 
3.985244336928378e-06 
3.985244336928378e-06 
3.985244336928378e-06 
3.985244336928378e-06 
3.985244336928378e-06 
3.985244336928378e-06 
3.985244336928378e-06 
3.985244336928378e-06 
3.985244336928378e-06 
3.985244336928378e-06 
3.985244336928378e-06 
-0.0001285716558645945 
-0.0001678159741274945 
-0.000107295788921468 
-0.0001285716558645945 
-0.0001285716558645945 
-0.0001285716558645945 
-0.0001285716558645945 
-0.0001285716558645945 
-0.000107295788921468 
-0.0001285716558645945 
-0.0001678159741274945 
0.0001639784438680379 
0.0001639784438680379 
0.0001639784438680379 
0.008067262813385351 
0.008067262813385351 
0.008067262813385351 
0.008067262813385351 
0.008067262813385351 
0.01769248175739211 
0.008067262813385351 
-0.0001814187027480351 
-0.0001814187027480351 
-0.0001359496498369398 
-0.0001814187027480351 
-0.0001814187027480351 
-0.0001814187027480351 
-0.0003698695506434143 
-0.0001814187027480351 
1.239477653726192e-05 
1.239477653726192e-05 
1.239477653726192e-05 
1.239477653726192e-05 
1.239477653726192e-05 
1.239477653726192e-05 
4.450132547237672e-05 
4.450132547237672e-05 
0.0008016138184419143 
0.0008016138184419143 
0.00102138343564204 
0.00102138343564204 
0.00102138343564204 
0.0008912930919154317 
0.00102138343564204 
0.0008016138184419143 
0.0008016138184419143 
0.0008016138184419143 
0.0008016138184419143 
0.0008016138184419143 
0.0002086856830313194 
0.0002086856830313194 
0.0002086856830313194 
0.0002086856830313194 
0.0002086856830313194 
0.0002624884427808332 
0.0002624884427808332 
0.0002624884427808332 
0.0002624884427808332 
0.0002624884427808332 
0.0002624884427808332 
0.0006172054294175482 
0.0006172054294175482 
0.0006172054294175482 
0.0006172054294175482 
-9.255790467332604e-05 
-4.862383036125081e-05 
-4.862383036125081e-05 
-9.255790467332604e-05 
-9.255790467332604e-05 
-9.255790467332604e-05 
-4.862383036125081e-05 
-0.000473096302103795 
-0.000473096302103795 
-0.000473096302103795 
-0.000473096302103795 
-0.000473096302103795 
1.494841830535026e-05 
1.494841830535026e-05 
1.494841830535026e-05 
1.494841830535026e-05 
1.494841830535026e-05 
0.0001548966940585235 
0.0001548966940585235 
0.0001548966940585235 
0.0001239897198830467 
0.0001548966940585235 
0.0001239897198830467 
0.01112854358962663 
0.01112854358962663 
0.01112854358962663 
0.01112854358962663 
0.01447834833552509 
0.01290606487893699 
0.006787537092334284 
0.006787537092334284 
0.006787537092334284 
0.006787537092334284 
0.01336752729318962 
0.01336752729318962 
-0.0004848570377451762 
-0.0004848570377451762 
-0.0004848570377451762 
0.001753646154791717 
0.001753646154791717 
0.001753646154791717 
0.001753646154791717 
0.001753646154791717 
0.001753646154791717 
0.001753646154791717 
0.001753646154791717 
0.001753646154791717 
0.001753646154791717 
0.001753646154791717 
0.001753646154791717 
0.001753646154791717 
-1.152720518407531e-05 
-1.152720518407531e-05 
-1.152720518407531e-05 
-1.152720518407531e-05 
-1.152720518407531e-05 
-1.152720518407531e-05 
-1.152720518407531e-05 
-1.152720518407531e-05 
-1.152720518407531e-05 
0.0003273613631584027 
0.0001257264782584356 
0.0001257264782584356 
-0.000383892238542492 
-0.000383892238542492 
-0.000383892238542492 
-0.000383892238542492 
-0.000383892238542492 
-0.0007473255776612155 
0.0001688915216338409 
-3.274336326612643e-05 
-3.274336326612643e-05 
0.003577478922339145 
-0.0003256417190903316 
2.030813950440794e-05 
2.030813950440794e-05 
2.030813950440794e-05 
2.030813950440794e-05 
2.030813950440794e-05 
2.030813950440794e-05 
-1.92942449108517e-05 
-1.92942449108517e-05 
-1.92942449108517e-05 
-1.92942449108517e-05 
-1.92942449108517e-05 
-1.92942449108517e-05 
-1.92942449108517e-05 
-1.92942449108517e-05 
0.0007567160716343175 
0.0007567160716343175 
0.0007567160716343175 
0.0007567160716343175 
0.0007567160716343175 
4.442688490016757e-05 
4.442688490016757e-05 
4.442688490016757e-05 
4.442688490016757e-05 
4.442688490016757e-05 
4.442688490016757e-05 
0.000164573968445711 
0.000164573968445711 
0.000164573968445711 
0.000164573968445711 
0.008791975012015276 
0.008875855400186285 
0.008875855400186285 
0.008791975012015276 
0.008791975012015276 
0.008875855400186285 
0.008791975012015276 
2.633782585334788e-05 
2.633782585334788e-05 
2.633782585334788e-05 
2.633782585334788e-05 
0.0005829657135444762 
2.633782585334788e-05 
2.633782585334788e-05 
8.388038817100896e-05 
8.388038817100896e-05 
8.388038817100896e-05 
8.388038817100896e-05 
0.0001294380183629994 
0.0001294380183629994 
0.0001294380183629994 
0.0001294380183629994 
0.0001294380183629994 
0.0001294380183629994 
0.0001294380183629994 
0.001188128593715454 
0.001188128593715454 
0.001188128593715454 
0.001188128593715454 
0.001188128593715454 
0.003275468210325033 
-7.433653557342236e-05 
0.003275468210325033 
0.003275468210325033 
-7.433653557342236e-05 
-7.433653557342236e-05 
0.01888979136716188 
0.01888979136716188 
-1.862427976096951e-05 
-1.862427976096951e-05 
-1.862427976096951e-05 
-1.862427976096951e-05 
-1.862427976096951e-05 
-1.862427976096951e-05 
-1.862427976096951e-05 
0.0005050105900961169 
0.0005050105900961169 
0.0002656827540159496 
0.0005050105900961169 
0.0005050105900961169 
0.0005050105900961169 
0.0005050105900961169 
0.0002985713502237013 
0.0005050105900961169 
9.142053673037775e-06 
9.142053673037775e-06 
9.142053673037775e-06 
9.142053673037775e-06 
9.142053673037775e-06 
9.142053673037775e-06 
0.01073821287763981 
0.01073821287763981 
0.01073821287763981 
0.01073821287763981 
1.623555879915142e-06 
1.623555879915142e-06 
1.623555879915142e-06 
0.0002209700924126669 
0.004173816289831586 
0.004173816289831586 
0.0002209700924126669 
-0.001129816987859079 
0.004173816289831586 
0.0002209700924126669 
0.0002209700924126669 
0.0002209700924126669 
0.004173816289831586 
0.000237108596996545 
0.000237108596996545 
0.000237108596996545 
0.000237108596996545 
0.003025335753905486 
0.000237108596996545 
0.003025335753905486 
0.003025335753905486 
0.003025335753905486 
0.000237108596996545 
-4.199861943463781e-05 
-4.199861943463781e-05 
-4.199861943463781e-05 
-4.199861943463781e-05 
-4.199861943463781e-05 
-4.199861943463781e-05 
-4.199861943463781e-05 
-0.0006208340440281294 
-0.0006208340440281294 
-0.0006208340440281294 
0.0002267366464531051 
0.0002267366464531051 
0.0002267366464531051 
0.0002071446392534168 
8.620969667573823e-06 
8.620969667573823e-06 
8.620969667573823e-06 
8.620969667573823e-06 
8.620969667573823e-06 
8.620969667573823e-06 
0.0003766236846721888 
0.0003766236846721888 
0.0005932165562410222 
2.127586694312672e-05 
2.127586694312672e-05 
2.127586694312672e-05 
2.127586694312672e-05 
2.127586694312672e-05 
2.127586694312672e-05 
2.127586694312672e-05 
2.127586694312672e-05 
2.127586694312672e-05 
-2.242074894363536e-05 
-2.242074894363536e-05 
-2.242074894363536e-05 
-2.242074894363536e-05 
0.01065038900362344 
0.01063326796325569 
-1.758211175004161e-05 
-1.758211175004161e-05 
-1.758211175004161e-05 
0.0001639784438680379 
0.0004928975038635091 
0.0004928975038635091 
0.0001639784438680379 
0.0001639784438680379 
0.0001639784438680379 
0.0004928975038635091 
1.956373378231663e-05 
1.956373378231663e-05 
1.956373378231663e-05 
1.956373378231663e-05 
1.956373378231663e-05 
-0.0004601583841674111 
-0.0004601583841674111 
-0.0004601583841674111 
-0.0004601583841674111 
-0.0004601583841674111 
-0.0004601583841674111 
-1.743323060562333e-05 
0.0002243259281770984 
-1.743323060562333e-05 
-1.743323060562333e-05 
-1.743323060562333e-05 
-1.743323060562333e-05 
-1.743323060562333e-05 
-1.743323060562333e-05 
2.164806980417239e-05 
2.164806980417239e-05 
9.333925785534959e-05 
2.164806980417239e-05 
2.164806980417239e-05 
2.164806980417239e-05 
2.164806980417239e-05 
1.688387318278776e-05 
-6.330275979513609e-05 
-1.877316090538774e-05 
-1.877316090538774e-05 
-1.877316090538774e-05 
-1.877316090538774e-05 
-1.877316090538774e-05 
-1.877316090538774e-05 
0.000125776293616066 
-1.877316090538774e-05 
0.003526022874294466 
0.003526022874294466 
0.003526022874294466 
0.003776890524622887 
0.003526022874294466 
0.003526022874294466 
-3.284242905291422e-05 
0.006926199659617853 
0.0002575477643448058 
0.0005668933195422123 
0.0005668933195422123 
0.0002575477643448058 
0.0005083971664945183 
0.0005668933195422123 
0.0005668933195422123 
0.0005083971664945183 
1.80749223381339e-05 
0.003367879668236589 
1.80749223381339e-05 
1.80749223381339e-05 
1.80749223381339e-05 
0.0001375520407337951 
0.0001375520407337951 
-9.03558265467697e-06 
-4.192417886242865e-05 
0.003490401849839023 
-4.192417886242865e-05 
-9.03558265467697e-06 
-9.03558265467697e-06 
0.003490401849839023 
-0.0007822803784717055 
-0.0007822803784717055 
-0.0007822803784717055 
-0.0007822803784717055 
-0.0007822803784717055 
-0.0007822803784717055 
-0.0007822803784717055 
-0.0007822803784717055 
-0.0007822803784717055 
-0.0007822803784717055 
-2.048529406619787e-05 
-2.048529406619787e-05 
-2.048529406619787e-05 
-2.048529406619787e-05 
1.128669355841682e-05 
-2.048529406619787e-05 
-2.048529406619787e-05 
-2.048529406619787e-05 
-2.048529406619787e-05 
-2.048529406619787e-05 
0.0002417591587827218 
0.0002417591587827218 
0.0002417591587827218 
0.0002417591587827218 
0.0002417591587827218 
0.0002417591587827218 
0.0002417591587827218 
0.0002417591587827218 
0.0002417591587827218 
0.0002417591587827218 
6.015549640254091e-06 
6.015549640254091e-06 
6.015549640254091e-06 
6.015549640254091e-06 
-2.100637807166178e-05 
1.745112434308922e-05 
-2.100637807166178e-05 
-2.100637807166178e-05 
-4.231051843216011e-05 
0.00250914235153726 
0.00250914235153726 
0.00250914235153726 
0.00250914235153726 
0.00250914235153726 
0.00250914235153726 
0.00250914235153726 
0.00250914235153726 
0.00250914235153726 
0.00250914235153726 
-1.773099289445988e-05 
-1.773099289445988e-05 
-1.773099289445988e-05 
-1.773099289445988e-05 
-1.773099289445988e-05 
-1.773099289445988e-05 
1.97126149267349e-05 
1.97126149267349e-05 
1.97126149267349e-05 
1.97126149267349e-05 
1.97126149267349e-05 
1.97126149267349e-05 
1.97126149267349e-05 
-2.145302150491659e-05 
-2.145302150491659e-05 
8.546529095364681e-06 
8.546529095364681e-06 
8.546529095364681e-06 
-6.26930985087772e-05 
-6.26930985087772e-05 
-0.0004625982352464538 
-0.0004625982352464538 
-0.0004625982352464538 
-0.0004625982352464538 
-0.0004625982352464538 
4.189590544505699e-05 
4.189590544505699e-05 
4.189590544505699e-05 
6.168296094400104e-05 
4.189590544505699e-05 
4.189590544505699e-05 
4.189590544505699e-05 
-2.242074894363536e-05 
-2.242074894363536e-05 
-2.242074894363536e-05 
-2.242074894363536e-05 
-2.242074894363536e-05 
7.169118805117723e-05 
7.169118805117723e-05 
7.169118805117723e-05 
7.169118805117723e-05 
-0.0006493757316471175 
-0.0006493757316471175 
-0.0006493757316471175 
-0.0006493757316471175 
-0.0006493757316471175 
-0.0006493757316471175 
2.001037721557139e-05 
2.001037721557139e-05 
2.001037721557139e-05 
2.001037721557139e-05 
2.001037721557139e-05 
2.001037721557139e-05 
2.001037721557139e-05 
2.001037721557139e-05 
2.023369893219881e-05 
2.023369893219881e-05 
2.023369893219881e-05 
2.023369893219881e-05 
2.023369893219881e-05 
2.023369893219881e-05 
-7.890280377431314e-05 
-7.890280377431314e-05 
-7.890280377431314e-05 
-7.890280377431314e-05 
-7.890280377431314e-05 
-7.890280377431314e-05 
2.023369893219881e-05 
2.023369893219881e-05 
2.023369893219881e-05 
2.023369893219881e-05 
2.023369893219881e-05 
-2.24465096157789e-05 
-1.817763632771469e-05 
-2.24465096157789e-05 
0.001702224790507271 
0.001702224790507271 
0.001702224790507271 
0.001702224790507271 
0.001702224790507271 
0.001702224790507271 
0.001702224790507271 
0.001702224790507271 
-2.003865063294306e-05 
0.0002973692885102123 
0.0002973692885102123 
-2.003865063294306e-05 
-2.003865063294306e-05 
0.000159200012862701 
0.000159200012862701 
0.000159200012862701 
0.000159200012862701 
0.000159200012862701 
0.000159200012862701 
0.000159200012862701 
0.000159200012862701 
0.000159200012862701 
0.000159200012862701 
0.000159200012862701 
4.698774998748459e-05 
4.698774998748459e-05 
4.698774998748459e-05 
4.698774998748459e-05 
4.698774998748459e-05 
4.698774998748459e-05 
0.0001807753752877927 
0.0001807753752877927 
-3.023700902559451e-05 
-3.023700902559451e-05 
-3.023700902559451e-05 
-3.023700902559451e-05 
-3.023700902559451e-05 
-3.023700902559451e-05 
9.208276998103525e-05 
0.0001337299544879866 
0.0001337299544879866 
0.0001337299544879866 
0.003718893610077279 
1.852156577138872e-05 
1.852156577138872e-05 
-0.0005755914212618257 
-0.0005556272112010921 
9.629782702124865e-05 
9.629782702124865e-05 
9.629782702124865e-05 
9.629782702124865e-05 
0.01175519399547845 
-2.108081864387092e-05 
-2.108081864387092e-05 
-2.108081864387092e-05 
-2.108081864387092e-05 
-2.108081864387092e-05 
-2.108081864387092e-05 
1.645006728912851e-05 
1.645006728912851e-05 
4.532017176667721e-05 
1.645006728912851e-05 
4.532017176667721e-05 
4.532017176667721e-05 
4.532017176667721e-05 
4.785115122178776e-05 
4.785115122178776e-05 
4.785115122178776e-05 
4.785115122178776e-05 
4.785115122178776e-05 
4.785115122178776e-05 
4.785115122178776e-05 
4.785115122178776e-05 
4.785115122178776e-05 
4.785115122178776e-05 
-0.0002007291449187521 
-0.0002007291449187521 
-0.0002007291449187521 
-0.0002007291449187521 
-0.0002007291449187521 
-2.457952553770027e-05 
-2.457952553770027e-05 
-2.457952553770027e-05 
-2.457952553770027e-05 
0.00342113085787826 
0.00342113085787826 
0.00342113085787826 
0.00342113085787826 
0.00342113085787826 
0.0001686681999172134 
0.0001686681999172134 
0.0001686681999172134 
0.0001686681999172134 
0.0001686681999172134 
0.0001686681999172134 
0.0001686681999172134 
0.0001686681999172134 
0.0001686681999172134 
1.963817435452576e-05 
1.963817435452576e-05 
1.963817435452576e-05 
1.963817435452576e-05 
1.963817435452576e-05 
-0.001195712767918246 
8.993172528619504e-06 
8.993172528619504e-06 
8.993172528619504e-06 
3.184642819682383e-05 
3.184642819682383e-05 
3.184642819682383e-05 
3.184642819682383e-05 
0.009625218944006758 
0.009625218944006758 
0.009625218944006758 
0.009625218944006758 
0.009625218944006758 
0.009625218944006758 
0.009345274915020983 
4.824500484907957e-06 
4.824500484907957e-06 
4.824500484907957e-06 
4.824500484907957e-06 
-0.0003874254848439994 
-0.0003874254848439994 
-0.0003874254848439994 
-0.0003874254848439994 
-0.0003874254848439994 
-1.959200719968823e-05 
-1.959200719968823e-05 
-1.959200719968823e-05 
-1.959200719968823e-05 
-1.959200719968823e-05 
-1.959200719968823e-05 
-1.959200719968823e-05 
-1.959200719968823e-05 
-1.996421006073391e-05 
-1.996421006073391e-05 
-1.996421006073391e-05 
-1.996421006073391e-05 
-1.996421006073391e-05 
-1.996421006073391e-05 
-1.996421006073391e-05 
-1.996421006073391e-05 
4.564622927583256e-05 
4.564622927583256e-05 
4.564622927583256e-05 
4.564622927583256e-05 
4.564622927583256e-05 
4.564622927583256e-05 
4.564622927583256e-05 
4.564622927583256e-05 
4.564622927583256e-05 
9.216494245246859e-06 
9.216494245246859e-06 
9.216494245246859e-06 
9.216494245246859e-06 
0.0002682248040574529 
0.0002682248040574529 
0.0002682248040574529 
0.0002682248040574529 
0.0002682248040574529 
0.0002682248040574529 
0.0002682248040574529 
0.0002682248040574529 
7.206598795600223e-06 
7.206598795600223e-06 
7.206598795600223e-06 
7.206598795600223e-06 
4.688342378306901e-05 
4.688342378306901e-05 
4.688342378306901e-05 
4.688342378306901e-05 
4.688342378306901e-05 
-0.0002265780377650294 
4.688342378306901e-05 
0.0001808090789554134 
0.0001808090789554134 
0.0001808090789554134 
0.0001808090789554134 
0.0001808090789554134 
0.0001808090789554134 
0.0001808090789554134 
0.0001808090789554134 
0.003572331339822842 
0.003572331339822842 
0.003572331339822842 
0.003572331339822842 
-0.0007585864581840305 
-0.0007585864581840305 
-0.0007585864581840305 
-0.0002310186618187643 
-0.0007585864581840305 
2.068034236545362e-05 
-0.0002310186618187643 
-0.0002310186618187643 
2.068034236545362e-05 
2.068034236545362e-05 
2.068034236545362e-05 
-6.239533621994067e-05 
-6.239533621994067e-05 
-6.239533621994067e-05 
-2.740826728164737e-05 
0.000250867650328422 
0.000250867650328422 
0.000250867650328422 
0.000250867650328422 
0.000250867650328422 
0.000250867650328422 
0.009621385042319944 
0.009621385042319944 
0.009621385042319944 
0.009621385042319944 
0.02152361234086972 
0.02184102028001288 
0.02152361234086972 
0.02152361234086972 
-2.279295180468106e-05 
-2.279295180468106e-05 
-2.279295180468106e-05 
-4.259414401231084e-05 
-0.0005713080918740371 
-0.0005713080918740371 
-0.0005713080918740371 
-0.0005713080918740371 
-0.0005713080918740371 
-0.0005713080918740371 
-0.0003345469830442225 
-0.0003345469830442225 
-0.0003345469830442225 
-0.0003345469830442225 
-0.0003345469830442225 
-0.0003345469830442225 
1.978705549894404e-05 
1.978705549894404e-05 
1.978705549894404e-05 
1.978705549894404e-05 
1.978705549894404e-05 
1.978705549894404e-05 
5.849615304769404e-05 
5.849615304769404e-05 
5.849615304769404e-05 
0.000132564522395783 
-0.000392981815413405 
-0.000392981815413405 
1.956373378231663e-05 
-0.000392981815413405 
1.956373378231663e-05 
1.956373378231663e-05 
-3.363836404119379e-06 
0.01043474769745482 
0.01043474769745482 
0.0001028063273760535 
0.0001028063273760535 
0.0001028063273760535 
0.0001028063273760535 
0.0001028063273760535 
0.0001028063273760535 
0.0001028063273760535 
0.0001028063273760535 
0.01382819647717378 
0.01382819647717378 
0.01382819647717378 
0.01382819647717378 
-1.607134232302745e-05 
-1.607134232302745e-05 
0.0001703497221565711 
0.0001703497221565711 
0.0001703497221565711 
-0.0003010856127849614 
0.0001703497221565711 
0.0001703497221565711 
2.202027266521807e-05 
2.202027266521807e-05 
-9.307312843681351e-06 
2.202027266521807e-05 
2.202027266521807e-05 
2.202027266521807e-05 
2.202027266521807e-05 
-0.0005275677963652661 
-0.0005275677963652661 
-0.0005275677963652661 
0.0001786269677682294 
0.0001786269677682294 
-3.049786813918321e-05 
0.0001786269677682294 
-3.049786813918321e-05 
-3.049786813918321e-05 
0.0001786269677682294 
0.0002091248359074126 
0.0002091248359074126 
0.0002091248359074126 
0.0002091248359074126 
0.0002091248359074126 
0.0002566628418255641 
-0.0002516990041842181 
-0.0002516990041842181 
-0.0002516990041842181 
5.543608734829788e-05 
-6.309829088103326e-05 
-2.078305635503442e-05 
-2.078305635503442e-05 
-2.078305635503442e-05 
-2.078305635503442e-05 
-2.078305635503442e-05 
-2.078305635503442e-05 
-2.078305635503442e-05 
-2.078305635503442e-05 
-0.0001885349218165792 
-0.0001885349218165792 
-0.0001885349218165792 
-0.0001885349218165792 
-0.0001885349218165792 
-0.0001885349218165792 
-0.0001885349218165792 
-2.145302150491659e-05 
-2.145302150491659e-05 
-2.145302150491659e-05 
-2.145302150491659e-05 
-2.145302150491659e-05 
-2.145302150491659e-05 
-2.145302150491659e-05 
1.934041206568922e-05 
0.0001415672217189638 
0.0001415672217189638 
9.439815961874271e-06 
9.439815961874271e-06 
9.439815961874271e-06 
9.439815961874271e-06 
9.439815961874271e-06 
9.439815961874271e-06 
9.439815961874271e-06 
-4.758166235032289e-05 
-4.758166235032289e-05 
-4.758166235032289e-05 
0.04665468560138986 
