solver_type L2R_L2LOSS_SVC
nr_class 2
label 1 -1
nr_feature 109723
bias -1
w
0.1630112216181479 
0.1404963771125708 
0.001650990093667811 
-0.001323894976522254 
0.1643001676634785 
0.006156474517036601 
0.0217444491925071 
-0.01956192870831801 
0.8412181990391661 
0.03142396791697773 
0.01515623455972541 
0.2424328862216129 
0.09359730881524458 
0.0576391385238917 
0.03142396791697773 
-0.00127501494714663 
0.1644000445353501 
0.06861831429626854 
0.09277684402517211 
-0.01289956875755881 
0.0217444491925071 
-0.001342451863690233 
-0.0003566265127978248 
-0.01204891429494723 
-0.0398463552560139 
0.0009960017867498006 
-0.003045529142852541 
-0.05607757595557583 
-0.003045529142852541 
-0.003045529142852541 
-0.01204891429494723 
-1.18497013643671 
-0.01204891429494723 
-0.0003566265127978248 
0.03803813282388253 
-0.2432028436005944 
0.00699587400384824 
-0.0003566265127978248 
-0.01096686835429153 
0.003116535042836028 
0.02375444115946739 
0.1941930896649884 
-0.01096686835429153 
0.0009410792160028205 
0.0816218357742885 
0.01517530996869518 
0.01536523090948273 
0.2023814388487388 
0.03582897557457636 
-0.01096686835429153 
0.1243693906610986 
-0.03462235841812296 
-0.1503909175432599 
0.08721820184681964 
0.1579169823316857 
-0.03672698730135461 
0.2892407062080811 
0.001217783389549189 
0.1441349871519336 
-0.03075406004267129 
0.09590249084196692 
0.01194314377203424 
0.002174798556983821 
-0.001359432784988205 
0.07078746704466921 
0.1290661385786301 
-0.2468721750059734 
0.01864314500468764 
0.07871544625003679 
0.1379812960885086 
0.05660787909664622 
-0.2026074809311909 
0.9762354406471766 
-0.07798826818121432 
0.1616759469497305 
0.002802901643832573 
0.03444980326179671 
-0.07268187583263405 
-3.703981793636212e-06 
0.06961906955026827 
0.03007461391471757 
0.1329177860908936 
-0.02219801196952247 
-0.045092526270404 
-0.0386393932302015 
0.08633974229552976 
0.2203957969057921 
0.1026275071298454 
-0.01747254720692779 
0.03805708869582954 
-0.04291474477761972 
-0.06946280404143114 
-3.703981793636212e-06 
0.03444980326179671 
0.1149940408759091 
0.005148053567007895 
0.002452745979632025 
-0.0320929955093873 
0.0007417556450194254 
-0.006687856714710996 
-0.002413493602466441 
-0.004728057407043272 
0.7950334223304595 
-0.002413493602466441 
-0.004728057407043272 
0.0007417556450194254 
-0.07820215544903236 
0.1307874826919354 
0.08376331872993487 
-0.002413493602466441 
0.2686151053403011 
0.003670397723785936 
0.003670397723785936 
0.0007417556450194254 
0.03427830346340301 
-0.006929317120057753 
0.01518028732863927 
-0.002413493602466441 
-0.002413493602466441 
-1.415447788040212 
0.02470408564831048 
-0.04960447100637755 
-0.02531248447652285 
0.01787629334174117 
-0.06852050765905822 
6.161622834465371e-05 
6.161622834465371e-05 
-0.04705145797652979 
-0.07264062631140794 
0.002647418842278049 
0.006093115358521609 
0.03939840329392355 
0.003345097482789084 
6.161622834465371e-05 
-0.09830127261103916 
6.161622834465371e-05 
-0.09375792627898621 
0.1015350807115919 
-0.000460351751247756 
-0.2132596492882441 
0.01667910763197528 
-2.02291440009071e-05 
-0.02487119341754475 
-0.04784082841851049 
-0.02701013475847294 
-0.02671360253836239 
0.05452761044929558 
-0.02711709030287189 
-0.03100938898597035 
0.1283488010069132 
0.002207668264640094 
-0.008308397714882638 
-0.04528901827057516 
-1.181652520312716 
0.03743686569732507 
-0.07058935772546582 
0.08948239141929608 
-0.04528901827057516 
-0.0002616371171708055 
0.108617134677729 
-0.04528901827057516 
-0.1969930674249254 
0.01390161193761947 
0.03156891519033815 
-0.03100938898597035 
-0.07952542768379599 
-0.03100938898597035 
-0.08496351875049299 
-0.03100938898597035 
-0.07105972949398912 
-0.0321954839512017 
-0.08737088414294328 
0.02826759843249115 
9.300034560288719e-05 
0.0002161663048609032 
0.2804802992069052 
0.05051457425915201 
0.02193832481812728 
0.1302129781139313 
0.04397012585800977 
-5.018870154524161e-05 
-5.018870154524161e-05 
0.0362915696504239 
-0.009076002290847002 
0.08133434055207027 
0.04361073185201036 
-0.01070878736177146 
0.02293026570358233 
0.004170726152601835 
0.07779647496339895 
0.1304799979142941 
0.04161277531194654 
0.0001743294575517093 
0.2606417257895319 
0.003686992192211862 
0.0001743294575517093 
-0.03120029829942567 
0.11637674257059 
0.0003354215742870464 
0.06530748625638391 
0.007200020836407071 
0.004170726152601835 
0.06921171410164913 
0.01264277542213093 
0.004170726152601835 
1.190928998871549 
-0.01597621778569052 
0.004170726152601835 
-0.4988195773278445 
0.08148798573548564 
0.1660264864165708 
-0.01999170992357235 
-0.0160184417730508 
0.003288239459680597 
0.001959155589730068 
0.003288239459680597 
-0.04261499236003199 
-0.005315754142027744 
0.03988251700876783 
0.02314455827032805 
-0.01904348297280595 
-0.04261499236003199 
0.06302475308553424 
-0.004062652467685324 
-0.01049433180740607 
0.001959155589730068 
0.003288239459680597 
0.003288239459680597 
-0.01904348297280595 
0.001959155589730068 
-0.004062652467685324 
0.001959155589730068 
-0.01049433180740607 
0.002221844758282086 
-0.1921361703244528 
0.04956594886513951 
-0.0001227356451282288 
0.01382835167943184 
-0.0001227356451282288 
0.006762923854390276 
-0.1296760746162771 
-0.1824576982196326 
0.02805253613360874 
0.001382654934889932 
-0.07160318507277855 
-0.0001227356451282288 
0.02593990587997119 
0.09985681220566409 
0.06648127008941732 
-0.1032156782343818 
0.0506487225867031 
0.02901607107297745 
0.004585314495558099 
-0.02994421759279983 
-0.05581410836348351 
-0.0249325684863971 
-0.09321366304976252 
0.003156015840482389 
0.01687191610698043 
0.02138898459106341 
0.003819747972605013 
-0.2451217865243219 
0.003495912063635846 
0.04756961368552114 
0.01596576818132663 
0.03705278325032704 
0.01282344036508631 
0.006980755195391476 
-0.01411075543534994 
0.001162499799703076 
0.05750909995096733 
0.06236485921056167 
0.05351950113024811 
-0.01232862663561629 
0.0925543443461201 
0.08111912601467747 
0.3406967157688522 
0.3350382035676592 
0.3804917227375487 
0.01625654069287481 
0.005131788846355845 
0.06236485921056167 
0.0001983159174985522 
-0.04158747696669846 
0.1020188540878248 
0.0001983159174985522 
0.0001983159174985522 
0.0001983159174985522 
-0.0909624849768295 
-0.02095512930314717 
6.737565088883895e-05 
0.01625654069287481 
0.1424347405335119 
-0.02341938593837218 
-0.08261582651949859 
0.01905506692912012 
-0.02341938593837218 
-0.02341938593837218 
-0.04883009797109059 
0.001153252468914173 
-0.01668551465958443 
-0.0007742238114042156 
0.1447650771702704 
-0.0239419163666198 
0.1438112948558259 
-0.008995322765342709 
-0.01141163451215763 
0.03619513050208832 
-0.03382256981382432 
-0.03339340249532601 
-0.006493178603184838 
0.02662813657614806 
-0.01443363144394896 
-0.01443363144394896 
0.03028881788312368 
-0.0598272163674745 
0.02521384188549969 
-0.02462724476142079 
-0.01172379997357409 
0.03028881788312368 
0.05469404034649134 
-0.02496833375674394 
-0.01443363144394896 
0.8985336852396931 
0.001717557712320665 
0.9663323059897607 
0.001717557712320665 
0.03930740393120156 
0.03930740393120156 
0.04697596173339252 
0.001717557712320665 
0.1079777841112434 
0.06617892009001626 
-0.1563917718976079 
0.08060197064322897 
-0.05828215046446905 
0.1079777841112434 
0.08030480678276138 
0.04347996435463423 
0.1028776315452849 
0.01110813432835409 
0.0589703218427946 
0.001960852010354831 
0.09287157533396866 
-0.2221474326518388 
0.1299629547860942 
0.001960852010354831 
7.382699133145325e-05 
-0.05318346443241821 
0.00157596128980043 
0.05897708950867657 
0.05387389121231922 
0.01364901028553837 
0.1782637727208501 
0.05387389121231922 
-0.06746147270862342 
-0.05196288978903714 
0.05387389121231922 
-0.001489630073432563 
0.005557269696013097 
0.0298468573760616 
0.129407457033038 
0.014603383136889 
7.382699133145325e-05 
0.0001104343743572405 
0.00157596128980043 
0.00157596128980043 
0.0270768370721861 
0.1571561269374156 
0.014603383136889 
-0.03813488021742544 
0.05171063897318953 
-0.001594468622935293 
0.00641514098012653 
-0.001594468622935293 
-0.001594468622935293 
-0.001594468622935293 
-0.05563845159540584 
0.03317339771891091 
0.1764899149710245 
6.117373263593229e-05 
0.05960971028326224 
0.06222702975898146 
-0.002824843008440124 
0.007314650822418476 
-0.002801541992211096 
0.02376424852999093 
-0.01256005638859316 
0.01630512732728069 
-0.06695729016392665 
-0.02987978376748327 
0.107972053693265 
-0.009796613033764837 
-0.003281021771553084 
-0.06703911373217777 
0.04822518178087284 
-0.02371367940259261 
0.03285054888682755 
0.03930018669053661 
0.04822518178087284 
-0.01256005638859316 
0.02441940384850983 
0.04822518178087284 
0.01548456597834052 
0.008095513375102984 
-0.003281021771553084 
0.04822518178087284 
0.06805610388985237 
-0.01810344021633841 
-0.02987978376748327 
0.006096434715386548 
0.008979760083983124 
0.1493223742221028 
0.02643067651904285 
-0.02257139900814553 
-0.0326229525005968 
0.01924224509566752 
-0.01738442781280495 
-0.007037574216282029 
0.006888079389255489 
0.196343750272026 
-0.02257139900814553 
-0.06528208818377818 
-0.04525629978048158 
0.01448560136764629 
-0.02257139900814553 
0.05082785581829326 
0.008291192047826242 
0.05082785581829326 
-0.02149687113855317 
0.1200248207854202 
0.08271241522405684 
0.9250999382666 
-3.333093783899488e-05 
0.0513637221208418 
-3.333093783899488e-05 
-0.1082256813091368 
-3.333093783899488e-05 
-0.0281625612854369 
-0.0575069451203201 
0.00978146924191607 
-0.02887191885869026 
0.01305609861881471 
0.00978146924191607 
0.1044802869567604 
0.00978146924191607 
0.00999743936765868 
0.00978146924191607 
-0.002359770886979037 
0.2877231458343955 
-0.04848886517909186 
0.00978146924191607 
-0.02887191885869026 
8.031804033806504e-05 
-0.02335527962349281 
0.0674077718157825 
0.2012456284349488 
-0.03693073739007088 
-0.008441177002780515 
-0.02787872522172564 
-0.03643528404820302 
0.0674077718157825 
0.05038030674098674 
8.031804033806504e-05 
-0.03416534735554959 
0.0674077718157825 
0.0674077718157825 
0.490167571540064 
0.0674077718157825 
0.08654736486819674 
8.031804033806504e-05 
0.04125750076850421 
0.0674077718157825 
0.03053502971032493 
-0.00151354561992284 
-0.007293552377256683 
0.01024416964460962 
-0.01512147712978048 
0.05643075537342067 
-0.0103412947131974 
-0.01512147712978048 
0.03053502971032493 
-0.004410908221561604 
0.001620097607754728 
-0.06694261324418596 
0.001620097607754728 
-0.007293552377256683 
-0.0547893877979182 
0.001620097607754728 
0.03178207767259821 
0.0007944098138118724 
0.09061915112399348 
0.0007944098138118724 
0.04783394324714146 
0.004796827410755461 
0.07160749128408712 
0.03945239955940409 
0.0123606544930515 
0.007369096881008481 
-0.01719252247521535 
-0.0341443524884938 
0.08028961893151355 
-0.0718411967361106 
-0.0718411967361106 
-0.05165103495543488 
-0.0206438293459134 
-0.03131843276154474 
-0.06025249027367165 
-0.03153208277704293 
0.04275778783853428 
0.03626522339330387 
0.1762842131993647 
0.03945239955940409 
-0.03131843276154474 
-0.004002914550528936 
0.03626522339330387 
-0.05488580223104575 
0.01351730783719661 
0.02905339718658048 
-0.04956248418258302 
0.002585802613933396 
0.087770885868864 
0.02560972850735558 
-0.01560247783029951 
-0.05488580223104575 
0.04045050792946181 
0.002585802613933396 
0.002585802613933396 
-0.05488580223104575 
0.04126179625775091 
-0.02041162829162031 
-0.02041162829162031 
-0.05996975108284008 
0.0277919048564149 
0.002585802613933396 
0.04057919730692217 
-0.008279327351812187 
0.02581183412495951 
0.009440042924449065 
0.001077947069749785 
0.08049491501253103 
0.04063748587423382 
-0.008513158965781364 
-0.02403968496243123 
0.07794555313280419 
0.04326350611492365 
-0.08170029362821325 
0.02169184945828538 
0.03352413641683957 
-0.002405682863703883 
-0.01370285373678081 
0.00764101294640648 
0.00764101294640648 
0.06735923812557018 
0.04573520774843594 
0.05781423551371771 
-0.01412864072598732 
-0.002527665069114633 
0.003356405869345367 
0.3410166786563026 
-0.1569585364263313 
0.03730057367488403 
0.03730057367488403 
0.01860738564096908 
0.1383507929213245 
0.02650654896345245 
0.05682796292413355 
0.03730057367488403 
0.0568845516755449 
0.05682796292413355 
0.05682796292413355 
0.03730057367488403 
-0.007755485051478774 
0.03246869103981851 
0.03286844558920574 
0.003356405869345367 
0.05682796292413355 
0.05682796292413355 
0.3410166786563026 
0.1704284973939469 
0.04294791631210967 
-0.1245347666917026 
0.03092945960965087 
0.002194700404522741 
0.06602379311044221 
0.1144348128408712 
-0.3364970638514254 
0.003233753600447467 
0.003233753600447467 
-1.064379290695371 
-0.07183330439979344 
-0.07770534584895664 
0.1209067262529056 
0.06914784795619047 
0.03092945960965087 
0.003233753600447467 
-0.06009163793541986 
0.003233753600447467 
0.03092945960965087 
-0.06009163793541986 
-0.06009163793541986 
-0.06009163793541986 
0.06679556919165586 
0.01970592097235373 
0.03106508949625072 
0.03029495745151881 
0.0008084460925928792 
0.05228005031642828 
-0.0001563806201833919 
0.001842361290520758 
0.004452301717280029 
0.001842361290520758 
0.001842361290520758 
0.1039635946222944 
0.9137252395071349 
0.02321316660997892 
-0.0008681830337040376 
0.04604809068296818 
-0.0008681830337040376 
3.646847669199643e-05 
-0.0008681830337040376 
-0.0005648197907787365 
0.03044109463794138 
0.03044109463794138 
-0.01957502293210141 
-0.005626482721299101 
-0.00560234260253941 
-0.0221866908884235 
-0.0004370990909119963 
-0.005356906230226857 
0.06793235079083985 
0.05441830618367047 
0.044231033489599 
0.08476506523530725 
-0.09580599409111815 
-4.444854958808674e-05 
0.044231033489599 
-0.03005052199713814 
-0.06215928612591705 
0.08921919641585049 
-0.03005052199713814 
-0.03005052199713814 
0.0294152999729421 
-0.03005052199713814 
-0.06219639753373289 
0.0294152999729421 
-4.444854958808674e-05 
-0.03005052199713814 
0.044231033489599 
0.1317863481069528 
-0.004902077917993629 
0.1317863481069528 
0.03078769134985904 
0.0120744632550537 
-0.008935366492586916 
0.02564502849824886 
0.1317863481069528 
0.04071266464395285 
0.1317863481069528 
0.001871355662155804 
0.03796003671659677 
-0.002124165086150053 
-0.02497155815764423 
0.04089134826198672 
-0.001195188731705684 
-0.01508565394482379 
-0.01508565394482379 
0.2330734719879367 
0.1411023136548814 
0.04089134826198672 
0.04089134826198672 
0.04089134826198672 
-0.01545055431002846 
0.002168760000059146 
0.06488830913697416 
-0.003216470542214905 
-0.002912260485342072 
0.03255117650291887 
0.03255117650291887 
0.05960463115473624 
-0.04194957449131519 
0.03255117650291887 
-0.0437977971302279 
-0.0155559608780067 
0.04977336971732295 
0.06814794820255225 
0.06488830913697416 
0.1022258417329868 
0.08109699756755541 
0.09670954010452856 
0.06814794820255225 
-0.0437977971302279 
0.1914277716226662 
0.06488830913697416 
0.06814794820255225 
0.01852478939168416 
-0.0009296216872077102 
-0.02301989458764998 
-0.0008157242467350043 
0.00450880339510255 
0.03866170623679041 
0.01311497312872168 
0.08418153527683347 
-0.0008157242467350043 
-0.0009296216872077102 
0.0201197318811146 
0.0201197318811146 
0.007424213242839532 
0.01311497312872168 
0.1314558788125867 
-0.1989194446259872 
0.0201197318811146 
0.2559859021619842 
0.05649711964014855 
0.0350962321541847 
0.0009287702379208631 
-0.001015418828395996 
-0.01104845427476561 
0.1318769648411296 
0.04359447126972292 
0.0106556021814645 
-0.005905939289906494 
-0.01868403644668683 
0.09221738446161859 
-0.01810684503139664 
-0.005866797005603035 
-0.01205640669857144 
0.006344802492080408 
-0.005866797005603035 
-0.001015418828395996 
0.0001134354416977002 
-0.0542493125028604 
-0.01497513568331046 
-0.05591706113417731 
0.02203685154286844 
0.05464597066573073 
0.02203685154286844 
0.1517429933014616 
0.07422843686241133 
0.02203685154286844 
0.05334360790228972 
-0.005287146089937442 
0.001828257465209524 
9.930831866849542e-05 
0.0002480424791633706 
-0.01150793610834797 
-0.04877003963576926 
0.01307353779639406 
0.2266954947456578 
0.07646130932477688 
0.00971319210304411 
2.527056904642658e-05 
-0.01720225826786159 
0.01307353779639406 
0.07646130932477688 
0.01307353779639406 
0.05203190536036412 
0.07646130932477688 
0.01305151361049095 
-0.002525865343623142 
-0.03488996101723908 
0.1014141603765342 
0.003702734965788237 
-0.2082236509821884 
-0.0124907873292644 
0.009061987535150327 
-0.01247397842169463 
-0.06045009444990979 
0.009061987535150327 
-0.1514656875345689 
0.003702734965788237 
-0.01247397842169463 
0.03192855438083089 
-0.3844390246508171 
-0.5480319367183077 
0.01792152983562127 
0.005866468776856083 
0.005866468776856083 
-0.02822349573370006 
0.328948512919282 
-0.008338854560614315 
-0.02109930397934976 
0.006684981372298521 
0.001031996791896229 
0.006684981372298521 
-0.03849128220978135 
0.04323677464277066 
0.03088867372456211 
0.05616566928505221 
-0.03206295295208989 
0.02348972994656339 
0.005854216529762955 
0.02348972994656339 
0.0007847452761794173 
0.01123949097019974 
0.02335791993717357 
1.112173275605954 
0.03251911106680203 
0.05982126660317104 
0.02348972994656339 
0.02335791993717357 
0.02335791993717357 
0.05518351839221894 
-0.01371632800041817 
0.002655562501737847 
-0.02092599964982102 
-1.118654262704406 
-0.02092599964982102 
0.006032020580012916 
-0.1702518982702862 
-0.02092599964982102 
-0.01060578018866184 
-0.01060578018866184 
-0.07922667592734095 
-0.03227079966603034 
-0.1382985357468589 
-0.01060578018866184 
-0.07957647916971136 
-0.2187891324692594 
0.002655562501737847 
0.002207665244451946 
-0.1382985357468589 
-0.1382985357468589 
0.002855463539106285 
-0.0253769969557673 
-0.005989871399478141 
-0.0333348087557853 
-0.0253769969557673 
-0.8872003104091465 
-0.005989871399478141 
-0.04373738994125297 
-0.0253769969557673 
-0.03277776365649343 
-0.03277776365649343 
-0.3533299862616419 
-0.1795055805445644 
-0.1795055805445644 
-0.03165297312989815 
-0.005989871399478141 
-0.1795055805445644 
0.002807379871371201 
0.04326332723145987 
0.07739177715134374 
-0.02322849952173011 
0.0008298125495141521 
0.04356500702919842 
-0.02366684363376176 
0.001091169482814808 
0.1376943999740094 
-0.02322849952173011 
0.001091169482814808 
0.03244230428651592 
-0.02775244686708074 
-0.02322849952173011 
-0.1831487146034037 
0.02693416226294746 
-0.02293946781914973 
-0.01997973162959683 
0.08635147192233657 
0.01480215315094046 
-0.01997973162959683 
-0.02821265578412701 
-0.02608591985246659 
-0.09216083223530654 
-0.1558216748564151 
-0.06248180987417238 
-0.07921553298306129 
0.03996097817313372 
0.1289131935683122 
-0.01003866661008402 
-0.01116771256683805 
-0.03126980201473564 
0.2015941333119285 
-0.04086913951037319 
0.05707264337416373 
-0.0002307755736883621 
0.09285650316498389 
0.04167214108776117 
0.1289131935683122 
-0.0005972133281615946 
0.0339342204072198 
-0.01116771256683805 
0.1289131935683122 
0.05707264337416373 
-0.01772487401274521 
-0.04086913951037319 
-0.04086913951037319 
0.04789255369967878 
0.1341008869514087 
0.3533827571838944 
-0.005297728278636164 
0.4025807816840479 
0.01519888698306385 
0.008801124571377413 
-0.005297728278636164 
0.004678226856657379 
0.01648165372592144 
0.0001961223098949176 
0.04105995088050698 
-0.003995996220625889 
-0.0108127528672163 
0.08498387288759114 
0.04105995088050698 
-0.004126473572318581 
0.0001016157577500788 
0.1308518618629697 
0.0001016157577500788 
-0.0108127528672163 
-0.1021539531302114 
0.02643491291918975 
-0.02879567150908725 
0.08330496185767189 
0.01121143169432371 
-0.004762383050398058 
0.01101691988833061 
0.04105995088050698 
0.01083585850086891 
-0.03023194474774053 
-0.009605720087303184 
-0.01578408088610172 
0.1905253533582547 
-0.009605720087303184 
-0.03943096902618541 
-0.009605720087303184 
0.0143660343785581 
-0.03023194474774053 
-0.05681653760933292 
-0.001735097318763371 
-0.009605720087303184 
-0.03023194474774053 
0.1665508279087566 
0.06858465235006017 
0.01759176939659654 
-0.0326378904536458 
0.1085798111246271 
-0.02008413037950485 
0.1974785174380149 
0.1008146727292414 
0.006061778481455979 
-0.01502133345349691 
0.1058357338315024 
-0.0154224098522463 
-0.02074027683014246 
-0.002943246733234626 
0.07719560464754524 
0.0001630446328629615 
-0.002943246733234626 
-0.05979254351107673 
-0.002943246733234626 
-0.05328114969609914 
-0.002943246733234626 
0.05626681781297234 
0.001939764624443041 
0.2218022416767287 
0.02958874970962151 
0.03857522938587359 
0.3926867124819658 
0.05486277739039028 
0.04481728097495942 
0.03802588036550467 
0.01979597835569247 
0.06078650203918926 
-0.0003754150638834701 
0.0730540752406158 
0.05626681781297234 
0.04468280829614987 
0.05626681781297234 
0.3926867124819658 
-0.01119234109008867 
0.001911091935224404 
0.0680107910869122 
0.1008181370365099 
-0.004644147359561082 
0.1017725240382119 
0.02988845343464888 
0.02598237162961636 
-0.02162370364884966 
0.001911091935224404 
-0.02398307685994637 
0.002845540301019142 
-0.02398307685994637 
-0.02682787119579518 
0.001911091935224404 
0.001911091935224404 
0.1329632031942813 
0.01509347522834485 
0.01509347522834485 
0.01509347522834485 
0.04125578512801617 
0.04114283338732566 
0.06846069737936561 
0.06846069737936561 
0.02017807195364673 
0.08851515153241507 
0.04114283338732566 
0.06846069737936561 
0.05779842935587156 
-0.003451810506356139 
-0.0008477824405482615 
0.01427495309143458 
-0.002050317477912391 
-0.02818807021574505 
-0.1132326855277851 
0.001049403915442253 
-0.0008477824405482615 
-0.9851336369711988 
-0.4532099325424461 
0.05208757039024177 
-0.01293686479938499 
0.01155417644041802 
-0.0004185428273898621 
0.04144384151972524 
0.04288660829095131 
0.009917738097879042 
0.02829694939910096 
0.009917738097879042 
0.07582732307533101 
-0.0004185428273898621 
0.04144384151972524 
0.05645674203848294 
0.02487195135872072 
0.01339520096426712 
-0.0004185428273898621 
0.04436138613514685 
0.0580408230455257 
0.1221943719576366 
-0.0006775796467812136 
-0.08284867359023704 
-0.0004185428273898621 
0.009917738097879042 
0.01221078297569259 
0.00300366015384991 
0.03155776764209263 
-0.01517611776642898 
0.00300366015384991 
-0.01902666975310911 
-0.006081488352878472 
-0.1118773143331507 
0.01221078297569259 
-0.01910612892991196 
-0.1397156298577915 
-0.1397156298577915 
0.07801895814025513 
0.03155776764209263 
-0.01910612892991196 
-0.124222367305145 
0.03155776764209263 
0.03699374587252411 
0.02171632678146748 
-0.06032687459538196 
0.02171632678146748 
0.01509893091094241 
0.006754110722550527 
0.1180270703451293 
0.1180270703451293 
0.02171632678146748 
0.01909792507942247 
0.01195555827233844 
0.01432350049209951 
-0.1690472792981395 
0.01152647696033711 
0.01195555827233844 
-0.007578817997691462 
-0.007578817997691462 
0.1645937413455455 
0.006048555010974638 
0.01152647696033711 
-0.007578817997691462 
-0.1179656124237539 
0.03386589352633593 
-0.0008893435067286956 
0.1207443016613751 
-0.01663174212431197 
-0.005689834959298321 
-0.03149437185337784 
0.1514259137807492 
-0.09093006618391489 
-0.01663174212431197 
0.0003095413505930708 
0.0003095413505930708 
-0.004849249763486042 
-0.1188626875536216 
-0.01663174212431197 
0.008571943080864253 
-0.01663174212431197 
-0.04818561311410611 
0.01094061949698403 
0.05764649724324951 
0.06014480246919528 
0.006489273523711865 
0.05764649724324951 
-0.03306700530881972 
-0.07995826317466645 
0.005131854861884143 
0.005131854861884143 
-0.003582969301676275 
-0.05558834552965009 
0.05915931401523811 
0.05625060251953184 
0.06123800060362902 
0.06715421915606047 
0.0144513032217848 
-0.1092931427402911 
-0.003248446030712521 
0.02015648864592154 
0.08999412935399134 
0.02205428977778959 
-0.03064657135779035 
0.04874131854141768 
0.0250270721336396 
0.06592208833706308 
-0.02506646578755482 
-0.05558834552965009 
0.0003108751097512237 
0.002931291484570459 
-0.08341952289340222 
0.001236626294074776 
0.09389234138731367 
-0.001059445406337387 
0.0663327992766037 
0.01890340556574955 
0.0005396834210382347 
0.0005396834210382347 
0.002931291484570459 
0.01890340556574955 
0.01890340556574955 
0.008795643392232681 
0.002931291484570459 
0.01890340556574955 
0.000249258463552678 
-0.007590143566577003 
-0.08341952289340222 
-2.188761596725856e-06 
0.07423675254110271 
0.0001330324950643482 
0.07086826488325712 
-0.01476056639253162 
-0.007831165374945399 
0.2023207618233216 
-4.970804668841863e-05 
-0.01761310892383543 
-0.00679909811304499 
-0.02805546376284742 
0.06965991924172772 
0.0009822697045302792 
-0.005454192516508764 
-4.970804668841863e-05 
-0.008161550720201829 
0.003311722290036422 
0.003311722290036422 
0.003311722290036422 
0.003311722290036422 
0.003311722290036422 
0.003311722290036422 
0.03139911095294104 
0.003311722290036422 
0.1220722333044093 
0.003311722290036422 
0.003311722290036422 
0.03126551402503255 
0.2464405238562854 
0.2026565186681504 
0.2645939371515668 
0.03126551402503255 
0.03146003572983713 
-0.001272001910993652 
0.002173967848806948 
0.02411437388821639 
-0.012364068368859 
0.02116784640057717 
-0.001272001910993652 
0.02116784640057717 
0.01475256473921012 
0.02224382610693583 
0.008933236426773569 
0.004901596803106655 
0.00745970368253341 
0.02483600188391072 
-0.002573482827443805 
-0.01392021963413611 
-0.01191975576986339 
0.01116061229739018 
-0.005241237197184624 
0.1123919936358003 
0.002173967848806948 
0.01112774094078288 
0.07786817625682327 
0.001042551383334237 
0.07786817625682327 
0.001042551383334237 
0.06874179782452704 
0.1278834047030819 
0.001042551383334237 
0.07786817625682327 
0.06874179782452704 
0.001042551383334237 
0.04447208730963199 
-0.07330924668173598 
0.06131384701441711 
-0.004210100902598137 
-0.004210100902598137 
-0.02243043332737951 
0.008554121155804702 
0.001331617503681502 
0.006084159038882936 
0.0006861781280549559 
-0.02243043332737951 
0.01796736941618505 
0.006944565367888837 
-0.001766010927538874 
-0.004210100902598137 
-0.002554504866417375 
-0.02243043332737951 
0.003360608401744375 
-0.02243043332737951 
0.1665832541202971 
-0.03944298391495032 
-0.000601264072811736 
0.03302849336758882 
0.0002892106486686236 
-0.0001924193009813616 
-0.0001924193009813616 
0.04582160265817095 
-0.0001924193009813616 
0.1372189063051471 
-0.0001924193009813616 
0.001165591579503441 
0.09328104263109062 
0.1185688291315712 
-0.01150094973400788 
0.006227029011786216 
-0.0001924193009813616 
0.05423309245839107 
-0.006892963817575673 
0.1139243495752009 
0.04582160265817095 
0.04582160265817095 
0.01894930401987861 
0.04582160265817095 
-0.0001924193009813616 
-0.0001924193009813616 
-0.0001924193009813616 
0.0009754625740757001 
-0.06468401798249568 
-0.08732929958963687 
-0.08732929958963687 
0.0009754625740757001 
0.1467240988839577 
0.001031783178202257 
0.0009754625740757001 
0.05429271485693866 
0.09695097045111879 
0.05429271485693866 
0.1510650986163453 
0.05339809961356521 
0.1373204938071496 
0.0169578899761647 
-0.005792995157807524 
0.0169578899761647 
0.1510650986163453 
0.1088852306219193 
-0.01506273380769847 
0.01001266056652649 
0.0169578899761647 
0.01001266056652649 
0.1373204938071496 
0.05173241266241599 
0.1765998840503367 
0.05173241266241599 
0.003244843989634468 
-0.02431319295222235 
0.001449950986650487 
0.001449950986650487 
0.001449950986650487 
0.001449950986650487 
0.1765998840503367 
0.02143102222299087 
0.1779603472613759 
0.1783043324583035 
-0.00252307010660916 
0.002591352926790811 
-0.3672544575698998 
-0.0155692252761897 
-0.001193793197519034 
-0.0155692252761897 
-1.059058407194072 
0.003424631122560429 
0.09588998822427536 
-0.04748856353833789 
-0.0241919537621425 
-0.03097192241858978 
-0.4274853201052103 
-0.0004516935194834878 
-0.03366938473905326 
0.009649946514760435 
-0.0155692252761897 
-0.02433714817958849 
-0.0155692252761897 
-0.04748856353833789 
0.109776430085636 
0.00977916315877648 
0.008107951068480626 
-0.004000595203614267 
-0.07949544406963822 
0.01481034832850892 
-0.0003170279444824789 
0.003237086155222699 
-0.001862962308040362 
0.01699960971416146 
0.05468033203286798 
0.01105828753313395 
0.0004918573652907319 
0.2077124769318443 
0.0139721539698548 
-0.004000595203614267 
0.0004918573652907319 
-0.07633609455040111 
0.0008992509650029793 
0.02353808000768363 
0.01105828753313395 
-0.004000595203614267 
0.08448829326114266 
0.05314232381131324 
-0.01601359800826273 
0.05314232381131324 
-0.006356149383984101 
-0.09557844419210565 
-0.006356149383984101 
0.1590796909527246 
0.05314232381131324 
0.07070986175903224 
-0.01215927985778875 
0.05314232381131324 
0.009247753203337161 
-0.006356149383984101 
0.5415418912825952 
-0.006356149383984101 
-0.004435518926978402 
-0.007111854759044016 
-0.01465625188761206 
-0.00019449059776807 
-0.00019449059776807 
-0.00019449059776807 
-0.00019449059776807 
-0.00019449059776807 
0.07342322370305501 
-0.0006519300507602802 
-0.002059395975704037 
-0.0006142765415165265 
-0.0006439064830444166 
0.593916580662472 
-0.023034208082942 
0.003838981588774379 
0.02247989577849788 
-0.023034208082942 
0.1183666162247538 
-0.05242430324026752 
0.02446359337037729 
-0.07841082061715604 
0.1183666162247538 
0.1183666162247538 
0.01557756559939202 
-0.0278921534431893 
-0.01707722140878519 
0.3087510221433003 
-0.01322346643590113 
0.01130895588103913 
0.05094949102369424 
0.09779347193334929 
0.01704246499764425 
-0.01322346643590113 
0.4931975750934758 
0.1248841873956738 
-0.01322346643590113 
0.01704246499764425 
0.1082924674379728 
0.1224708824580611 
0.09779347193334929 
-0.01322346643590113 
0.006188770207928818 
0.01460644689192474 
0.01704246499764425 
0.09779347193334929 
-0.01322346643590113 
0.01795279019258824 
0.0001698115946408026 
0.04423305367364139 
0.0001698115946408026 
0.08184161621708462 
0.0001698115946408026 
0.140684718502289 
0.0001698115946408026 
-0.05762044861878417 
-0.005224202043756124 
-0.002399054081645506 
-0.0002333800446046669 
-0.02538641101477061 
0.007594956818061006 
-0.005135224279767371 
0.08875945962919846 
-0.06061043000577639 
0.1332194612943448 
-0.08871105007123811 
0.07577683788404317 
3.890012221047581e-05 
-0.05008999728631135 
0.06619445726584232 
0.02045656046270682 
3.890012221047581e-05 
-0.001435429826965287 
0.0375891664646 
0.03790830578902095 
3.890012221047581e-05 
-0.05008999728631135 
-0.001332406520710867 
3.890012221047581e-05 
3.890012221047581e-05 
-0.001435429826965287 
-0.001435429826965287 
0.009067184190890807 
3.890012221047581e-05 
-0.0941039349077385 
-0.001118280136218362 
0.0003733763946774479 
-0.003441394984106008 
-0.003441394984106008 
0.0257253697082198 
-0.02076467534691122 
0.1282225569299062 
0.1168825516152312 
-0.0007713436641719581 
0.00081673713141754 
-0.01502712764148342 
0.004483952218247871 
-0.008369494852982533 
0.02499732338033282 
-0.003441394984106008 
0.0003733763946774479 
0.0006042905176588184 
-0.006465542549533915 
0.01573667625715564 
0.1102507754851082 
-0.002952165654429063 
0.01573667625715564 
0.002303858590894683 
0.001312687088189866 
0.0287204186739272 
0.02830397061901455 
0.002303858590894683 
0.01573667625715564 
0.009105874855557552 
-0.002952165654429063 
-0.02425020502247973 
-0.002952165654429063 
0.0006042905176588184 
-0.02415270131242697 
0.08236633890181227 
-0.07580083818224978 
-0.0287317315132999 
0.02407843561976937 
0.08236633890181227 
-0.08858637822558724 
-0.02450506968326786 
-0.0287317315132999 
0.02407843561976937 
-0.0287317315132999 
0.05873778429582602 
-0.02899711421255072 
0.02407843561976937 
-0.003669409952777145 
0.5205783712195606 
0.02407843561976937 
0.02407843561976937 
-0.07377487222057072 
0.02407843561976937 
0.0817156090953792 
0.01780662251329563 
0.01648832555645847 
0.01647511886485867 
-0.2663093358411731 
-0.01381306501133488 
0.01616391931005302 
-0.06762424812649044 
-0.0003430454642468989 
-0.01994819566935615 
0.001023969540930137 
0.02176076830225248 
0.03758553516306175 
0.1506024949114295 
0.03346000649108188 
0.01780662251329563 
-0.01381306501133488 
-0.03912614295881858 
0.01435236460372567 
0.01665996264801219 
0.0118625195484388 
0.07768222859515123 
0.01665996264801219 
0.0454316932620233 
-0.007197086647116886 
0.02991490756425968 
-0.007197086647116886 
0.02414294082709722 
0.01649273689592479 
-0.01026888495458224 
-0.003661525004497337 
-0.0003625800486988674 
0.01774336233563734 
0.02414294082709722 
-0.005727507601698561 
0.1311376881480533 
0.03151542331061197 
0.01983714339060196 
0.5682995489093178 
0.008574594364414878 
0.008574594364414878 
0.01939123339404971 
0.008574594364414878 
0.006710785745320973 
0.01983714339060196 
0.09501418883725318 
-0.118234680476702 
0.08046992016882072 
0.01896716126852777 
0.1311376881480533 
0.01896716126852777 
0.01983714339060196 
0.04179247845729973 
0.008574594364414878 
-0.02054150104591734 
-0.02054150104591734 
-0.1094942717229194 
0.1311376881480533 
-0.007989279181390795 
-0.007127699573408733 
-0.007127699573408733 
-0.02149225143450906 
-0.007127699573408733 
-0.007127699573408733 
-0.008105223710253712 
0.04000288381648515 
0.0336671682491355 
0.02252625401478129 
-0.007989279181390795 
-0.008846295951914423 
-0.006200769898962288 
-0.04201563365757526 
-0.008105223710253712 
-0.03918099284727985 
0.05286966172425259 
0.08767985410327654 
-0.005614511206059765 
0.02252625401478129 
0.0004235055694372425 
0.0007676726687406377 
0.08968890329784396 
0.0004235055694372425 
-0.003378685453335304 
0.08968890329784396 
0.08968890329784396 
0.0004235055694372425 
0.01210894232247108 
0.0006708875396720935 
-0.01251475829890317 
0.08968890329784396 
0.01317558400212607 
0.0004235055694372425 
-0.004736290012619934 
0.05829031498677995 
-0.007478010884098853 
0.02193277274087359 
0.0084351730710277 
-0.01053710239352502 
0.006990839686997679 
-0.01053710239352502 
0.04462098174041004 
-0.04372634037507571 
0.03124048853697161 
0.06609907290963882 
-0.01059836314896642 
-0.01059836314896642 
0.09427304721941063 
0.1312273992824896 
-0.01619989984953741 
0.002060346397466791 
0.02456464159280638 
0.01518454937481983 
0.06170078128375241 
0.0001969746290500345 
-0.01737534875637433 
0.02456464159280638 
0.06787295224497013 
0.06465819602014719 
-0.002890602630175937 
-0.008891355682957755 
0.02456464159280638 
0.01183321809259861 
0.01711295350114518 
0.04744352983397847 
-0.008663141445748694 
0.007085434549492127 
-0.005925194723371028 
-0.003859577419432319 
-0.01620446121572607 
-0.02860138134336328 
-0.02860138134336328 
-0.02162068967678031 
0.005537172330414902 
0.03742703957252551 
0.03742703957252551 
-0.0003833208790231028 
-0.0003833208790231028 
-0.001752193111073506 
-0.0003833208790231028 
0.1208096693668191 
0.1208096693668191 
-0.1294947675962899 
-0.0003833208790231028 
-0.02574223805706016 
-0.0003833208790231028 
0.1516931531149207 
0.06098391037082128 
0.0312822042078228 
0.1208096693668191 
0.03317318511981991 
0.04559199752717358 
0.01561771623353147 
0.03170682916970729 
0.06150122677848723 
0.009522907355330106 
0.01561771623353147 
0.01098563364377182 
0.1806016669423923 
-0.06282453221910335 
-0.06282453221910335 
-0.007701669470863876 
0.002858114099820766 
0.002858114099820766 
-0.007701669470863876 
0.04991193914864388 
0.01921160646650047 
0.001098712582886598 
0.04011656658544309 
0.1011319505764246 
0.01921160646650047 
0.03193446455693707 
0.04011656658544309 
0.09211142034166195 
0.01921160646650047 
0.1565400616803775 
0.002858114099820766 
-0.01249339981515791 
-0.02679588239665974 
-0.005086049100971212 
-0.07501391908650709 
-0.0155295562360777 
-0.003535561642619557 
0.02276740138212106 
0.12789906700035 
-0.0155295562360777 
0.03851160747236959 
-0.009053702239437769 
-0.01748457702160277 
-0.0155295562360777 
-0.003535561642619557 
-0.005086049100971212 
-0.002972822460887336 
-0.005086049100971212 
-0.003535561642619557 
-0.008447086185667639 
-0.005086049100971212 
0.03962507547984048 
-0.01285228023218503 
-0.01285228023218503 
-0.0004870411056936707 
-0.02148509606611157 
0.02206889113285169 
0.06831139979482334 
0.0134095522249697 
-0.0004870411056936707 
-0.0004870411056936707 
-0.01515477938222725 
-0.0004870411056936707 
-0.0004870411056936707 
0.009421858216956191 
-0.0004870411056936707 
0.08478228597274061 
0.08478228597274061 
-0.0002120263736815658 
0.08478228597274061 
-8.397533724574738e-05 
0.08478228597274061 
-0.0002120263736815658 
0.01553007203720383 
0.0001280510364358186 
0.07008008740727854 
0.07008008740727854 
0.0001280510364358186 
0.01965621182259581 
0.0001280510364358186 
0.04167727855881406 
0.01667029850493579 
0.008607775880368474 
0.0001280510364358186 
0.0001280510364358186 
0.01584657896087637 
0.0001280510364358186 
0.0001280510364358186 
-0.002014744124664401 
-0.01757325159420512 
-0.02212406856824861 
0.1221138775186989 
-0.002014744124664401 
-0.002014744124664401 
-0.02212406856824861 
0.01503819753661993 
-0.02212406856824861 
-0.05054726030025597 
-0.02212406856824861 
-0.006204477253445693 
-0.01757325159420512 
0.05153854748528083 
0.01503819753661993 
0.005494811185851285 
-0.002014744124664401 
-0.006204477253445693 
0.01503819753661993 
-0.002014744124664401 
0.07278075969033444 
0.07629745691250496 
-0.006220414466236507 
0.04339198699989768 
0.0006114239954567983 
0.004150224453378335 
-0.002145234567727888 
-0.07639993480666288 
0.006420288405403796 
0.0006114239954567983 
-0.06858313377249391 
-0.02772742176996941 
-0.005392813348590066 
0.09416165489417028 
-0.005392813348590066 
-0.005392813348590066 
0.0009601871696068028 
-0.005392813348590066 
0.02353779280786978 
0.0982780549666265 
0.0006114239954567983 
-0.0133090869565462 
0.03046006823926018 
-0.006186656160589147 
0.09416165489417028 
0.02353779280786978 
0.001991080170051231 
0.001991080170051231 
-0.001436383867032713 
0.001991080170051231 
0.001991080170051231 
0.05824049607391836 
0.1041007044731885 
-0.0002535541855326463 
0.06014676301269611 
0.0840661593122933 
-0.01621036459895279 
-0.03598532933583746 
-0.0001729716407767633 
-0.1649474593765549 
0.01745452318069256 
-0.0001735771438099465 
-0.03391459009225671 
-0.2527979264951783 
-0.0001735771438099465 
-0.0001729716407767633 
0.06428705769450659 
-0.0001729716407767633 
-0.0009057176348886628 
-0.03488233165624302 
-0.03488233165624302 
-0.1543945231935544 
0.008196955788992469 
0.007899197809426326 
0.005138678379862781 
0.0244838875996613 
0.02319445789533759 
-0.003439505681817394 
-0.003439505681817394 
0.0244838875996613 
5.671402167147077e-05 
-0.003439505681817394 
-0.009056604980725538 
-0.003127447471035888 
0.01588830264273815 
0.01588830264273815 
0.01588830264273815 
-0.03749381375392916 
0.0239699455730746 
-0.007186728691062124 
0.0225534602111085 
-0.007310724575154945 
-0.03749381375392916 
-0.0387810479479357 
0.0849667086902868 
0.01703825434325192 
-0.006071307985423043 
-0.03837554884995314 
0.03380340512963318 
-0.0413453039647886 
0.02312205184593833 
-0.01287413130467361 
0.02312205184593833 
-0.01404898356733824 
0.02312205184593833 
0.02312205184593833 
-0.894366306404792 
-0.1197170763931301 
0.002122068051222096 
0.06535496688903077 
-0.04025604903886525 
-0.0874799342966919 
0.002122068051222096 
0.01811168180354684 
0.06535496688903077 
0.06535496688903077 
0.004464933157812817 
-0.05085935886297314 
0.01796317637723949 
-0.001068023764858098 
0.07140111434920873 
-0.001238884748288141 
-0.001238884748288141 
0.01796317637723949 
0.2620637789088624 
-0.001238884748288141 
0.01796317637723949 
0.0002196359111642452 
-0.000789164256329009 
-0.001238884748288141 
0.1142825431239306 
0.01796317637723949 
0.05066724280523102 
0.01297466815691749 
0.01894666137448829 
0.05803367129486275 
0.0002408281839518288 
0.05826914203958575 
0.03051339930684094 
0.0002408281839518288 
0.0002408281839518288 
0.04531419126054091 
0.0002408281839518288 
-0.001943867251868866 
-0.001943867251868866 
-0.002568512549238807 
0.02303301526632962 
-0.001943867251868866 
0.02122254509681714 
0.02122254509681714 
-0.001943867251868866 
-0.003174534603097971 
0.02122254509681714 
-0.06318663206898038 
0.02197306578536671 
0.1071571547889527 
-3.373097970872518e-06 
-0.0183067962742536 
-0.04001774320504064 
0.02197306578536671 
-0.0183067962742536 
-0.0008748873871800933 
-0.04001774320504064 
-0.01780398650209868 
0.004142913319414054 
0.1287689826322061 
-0.05846833214980907 
-0.0008748873871800933 
-0.03681310247670251 
-0.01508391286119621 
-0.03681310247670251 
-0.0305223057652098 
0.0164690640125609 
-3.373097970872518e-06 
-3.163945310121781e-05 
0.06911573277440661 
0.01763021152510846 
-8.679356263586539e-07 
0.05297215612887779 
-8.679356263586539e-07 
-3.163945310121781e-05 
0.01532077119287544 
0.07146126431530325 
0.02181423797571468 
0.0004141122176831854 
0.0004141122176831854 
-0.01132310956065791 
0.003719895709047542 
0.003719895709047542 
-0.01132310956065791 
0.1744600560208603 
-0.01132310956065791 
0.01083697513280317 
0.01532077119287544 
0.003236527723850922 
3.203748224372626e-05 
3.203748224372626e-05 
3.203748224372626e-05 
0.005040378492233069 
-0.0003203409255242135 
0.02942838684017604 
0.005040378492233069 
0.005040378492233069 
3.203748224372626e-05 
0.001162997007214877 
3.203748224372626e-05 
3.203748224372626e-05 
3.203748224372626e-05 
-0.005292534572596616 
-0.1635534153778683 
0.01026801973480984 
-0.001189520000772281 
-0.001189520000772281 
0.05101252468651579 
0.0003383158788859596 
-0.0118264305751626 
-0.02331107835712062 
-0.001189520000772281 
0.09556196299715161 
0.001859823274706375 
0.0003383158788859596 
0.02608036717986902 
-0.001189520000772281 
0.0003383158788859596 
0.009376766427306282 
0.1249438144518625 
0.2100630442565457 
0.004503708986586499 
-0.01459536881694811 
-0.001239131984545887 
-0.001194779611483269 
-0.01528684495739162 
0.009151471418371989 
-0.01864277424039041 
-0.01528684495739162 
-0.001239131984545887 
-4.168547929447186e-05 
-0.0002396110544638842 
-0.0183464109972982 
-4.168547929447186e-05 
-0.001239131984545887 
0.09407983996081988 
0.0400927939196036 
0.0400927939196036 
0.0400927939196036 
0.00884522517615492 
-0.1111974473324885 
0.0400927939196036 
0.0009103251949439961 
0.04394608272651743 
-0.02917106411820976 
0.2072398062981928 
0.03445639923739385 
0.01856700510649726 
-0.06774149830754268 
0.006497111196402037 
0.3939595089219125 
0.0400927939196036 
0.0339803263377125 
0.01840716557193948 
-0.01561787142859552 
0.04828920916036199 
-0.01561787142859552 
0.02825705887016143 
0.0487254235915492 
0.01840716557193948 
-0.1795563930536759 
0.01840716557193948 
-0.03704583881969228 
0.03457646858562907 
0.01911410365419558 
0.01840716557193948 
-0.01561787142859552 
0.02825705887016143 
-0.05350992544613538 
-0.001102221268675226 
0.06604840348878066 
-0.01801280989102567 
0.1154989091951615 
0.02449019744622945 
-0.02695742845360755 
-0.0167375775157928 
0.02655012540716111 
-0.05795840316633239 
0.1154989091951615 
0.1154989091951615 
-0.000547205285335655 
0.06662837133551583 
0.1154989091951615 
-0.0171040545131735 
0.04296718969495308 
0.1008440990457682 
0.04556335976536439 
-0.01878310333916071 
0.08736576556432868 
0.0006448293613133451 
-0.01676730429269354 
-0.00461576363362156 
-0.01878310333916071 
0.05503975271293869 
-0.00461576363362156 
0.04556335976536439 
0.04556335976536439 
0.04552452785369335 
0.04440562168195215 
0.1047843504907677 
-0.06190684314537808 
-0.01676730429269354 
0.04556335976536439 
-0.002687443706898317 
-0.00461576363362156 
-0.03829412347377254 
0.08256281895125581 
-0.02543561132396905 
0.0003111233997362296 
3.293784741791111e-05 
0.03592600893360698 
0.005042948854377711 
0.06380408557210505 
-0.005503049530949423 
-0.07271047144742659 
-0.004368471049944926 
0.005042948854377711 
3.293784741791111e-05 
-0.0183955299175539 
-0.01708904679044844 
0.1934978308820797 
0.1934978308820797 
-0.002055240345864685 
0.1918561928522331 
0.0113938139881402 
0.05088986971607355 
0.01222689013707583 
-0.155008465834935 
-0.009768903171656382 
0.02667211307163027 
-0.01591179994019462 
0.0113938139881402 
0.008120950987580176 
0.05088986971607355 
0.002503679377690068 
-0.165371633958891 
0.002382129720861115 
-0.03076196749185797 
0.05088986971607355 
0.00196438529541669 
0.05088986971607355 
-0.155008465834935 
0.002031927594134461 
0.002031927594134461 
-0.01457638642092495 
0.02236928540753101 
-0.02187659742742147 
0.0740813090722551 
-0.001271735503098402 
0.04143639273429277 
0.04143639273429277 
0.04143639273429277 
0.04143639273429277 
-0.001271735503098402 
-0.02304726111624909 
-0.02304726111624909 
-0.03558958141256156 
-0.03101415221748887 
-0.03558958141256156 
-0.03558958141256156 
0.03952060341091178 
-0.01224742175549994 
0.02769391148559059 
0.02769391148559059 
-0.01398658522704132 
0.01099070867434886 
0.02769391148559059 
-0.01174501848486472 
0.001758466995523539 
0.01099070867434886 
0.0003953576772472984 
0.0003953576772472984 
0.1187511580320003 
0.0003953576772472984 
0.0004873154637682473 
0.0003953576772472984 
0.01070178997622865 
0.0003953576772472984 
0.0003953576772472984 
0.0003953576772472984 
0.118115260872984 
0.02189339701615527 
-0.0004948036120549122 
0.002135446520538846 
0.02474033104991153 
0.002135446520538846 
-0.004337113107637422 
0.02189339701615527 
0.2147360238226228 
0.1005510936411315 
0.02189339701615527 
-0.01043449843721576 
0.1052900905480655 
-0.001843511889488916 
0.0604591223027752 
-0.02456300412579571 
0.0282532022372287 
-0.002291565150810689 
-0.02421973026015278 
0.0282532022372287 
0.0282532022372287 
-0.006165037263687131 
-0.002855930872855322 
-0.002855930872855322 
0.01756342288569705 
0.0282532022372287 
-0.002855930872855322 
0.02501924654561033 
-0.002855930872855322 
0.0001633324967663586 
0.0102223262227912 
0.09639157562002945 
-0.01151532798000698 
-0.01327222749174801 
0.0646999954780603 
0.0001633324967663586 
-0.01151532798000698 
0.002736632068729489 
-0.07332166040627534 
0.0001633324967663586 
-0.01327222749174801 
0.05147116227720812 
0.002736632068729489 
-0.003853914990770445 
0.0001633324967663586 
0.236091575878953 
0.0001633324967663586 
0.002736632068729489 
0.0008097041286331149 
0.0008097041286331149 
0.06226324187969631 
0.06226324187969631 
0.001551964936311223 
0.07349961588345097 
0.02232549219833611 
0.0008097041286331149 
-0.01415759607266053 
-0.0007048524672996794 
0.06450325028271094 
0.0008097041286331149 
0.06226324187969631 
0.0008097041286331149 
-0.0007048524672996794 
-0.0007048524672996794 
0.0004174391700645203 
0.06806857741806499 
0.01510942481045465 
0.0004174391700645203 
-0.01675027315009277 
-0.01010592169188296 
0.0004174391700645203 
0.01303289521714104 
0.03093754577721781 
0.01510942481045465 
0.01303289521714104 
0.01510942481045465 
0.004883656439686973 
-0.0003407308452110196 
-0.0712876229408639 
0.0006503710911339536 
0.0006503710911339536 
-0.0712876229408639 
-0.0712876229408639 
-0.04592733255760041 
-0.4019066361242143 
0.04440534357041608 
0.4105653524071171 
0.07465068569503581 
0.007606435449896511 
-0.004767260382013263 
-0.004767260382013263 
0.003493031807315294 
0.04162816847218351 
-0.005660832585144897 
-0.004767260382013263 
0.01143232637667851 
-0.004767260382013263 
0.007606435449896511 
0.1076351201573859 
-0.01290636645271104 
0.01143232637667851 
0.007606435449896511 
-0.0441067734888319 
-0.0007589460295168916 
-0.02534363188070829 
-0.0008442258132626815 
0.07567171116975653 
-0.0007589460295168916 
0.07796924386795469 
-0.01746419396230922 
0.1120370004868144 
-0.01869569417992885 
-0.0007589460295168916 
-0.02412082959225715 
-0.0007589460295168916 
-0.0007589460295168916 
-0.007336419580172728 
-0.01746419396230922 
0.03487480325247751 
0.01447833237903277 
0.01631775430908787 
-0.003316086904096459 
-0.06615200402743739 
-0.01787847641483046 
-0.005377454436891379 
-0.01877381633079264 
-0.0002161181675580809 
-8.803826118377357e-05 
0.02566316611683493 
0.05280604462315779 
-0.04840910585365785 
0.008813336325341195 
-0.007304818594463616 
0.05280604462315779 
0.00792902918999832 
0.02838616390875284 
0.008813336325341195 
0.0214470092037634 
-0.0002161181675580809 
-0.0002161181675580809 
-0.02742310312735556 
0.02340418364628647 
0.0007107116794825649 
-0.001013369460137964 
0.06696790214703292 
-0.001013369460137964 
-0.008838054417245928 
0.001222819663937759 
-0.002070136904895268 
0.001222819663937759 
0.02340418364628647 
-0.001013369460137964 
-0.0008058203155936853 
-0.0008058203155936853 
-0.0008058203155936853 
0.0001643612574491497 
-0.02858165858604058 
-0.01553273904376763 
0.0003349896706349611 
-0.005350697490373431 
-0.01520377990433232 
-0.03973157943874693 
0.0003349896706349611 
0.001446598169131388 
-0.02878068464823966 
0.001568748726144209 
-0.02878068464823966 
0.0003349896706349611 
0.01727233448598779 
-0.01956814390842648 
0.002915347248980373 
0.004729094229393613 
0.002915347248980373 
0.01109566267523344 
0.1281105278993455 
0.002915347248980373 
0.0007612036927041469 
-0.006292021117614979 
-0.01956814390842648 
0.002915347248980373 
-0.01956814390842648 
0.004729094229393613 
0.0007612036927041469 
0.003858730657313352 
0.004731769004790122 
0.003398024228069267 
0.005897532539484988 
0.01101159919304083 
0.188097751969441 
-0.001430617447753813 
-0.001266695591551469 
-0.2419573854535511 
-0.001430617447753813 
-0.001430617447753813 
-0.07850627122225623 
-0.04976200327907136 
-0.07850627122225623 
-0.0318889055006378 
-0.07850627122225623 
-0.001430617447753813 
0.0528192143230323 
-0.001569682929937137 
-0.001569682929937137 
0.01566369423854537 
0.04500225181884111 
-0.000797525691121996 
0.09797215497105027 
-0.001569682929937137 
0.04500225181884111 
-0.000797525691121996 
-0.000797525691121996 
0.01395365307688389 
-0.0002878513462344853 
0.0002982867714067867 
-0.004327689317043509 
-0.004327689317043509 
0.0002044814863865857 
-0.009089018543798174 
0.04267380401681758 
0.0002982867714067867 
0.03455828757970877 
-0.00139643564469917 
0.005316283661764415 
-0.02739916159201084 
0.03272386053343042 
-0.03540420551159682 
0.0002982867714067867 
0.001919608435434105 
-0.004327689317043509 
-0.00139643564469917 
0.03919629166331185 
-0.09755964633482722 
0.0008467307984826705 
0.0003574327274507827 
0.0003574327274507827 
0.03919629166331185 
0.002946833730961499 
0.03919629166331185 
0.0008467307984826705 
0.1476467267193251 
0.0004892980710318874 
0.1560777751097082 
-0.1148481500823038 
0.08846414959587715 
0.004706982663703274 
-0.005258473862490311 
0.06740070919664122 
-0.08053135408137602 
0.07712452461575908 
-0.005258473862490311 
-0.005258473862490311 
0.01744062904534253 
0.01744062904534253 
-0.00807460019394049 
-0.02028885234404225 
-0.004284846032783079 
-0.004284846032783079 
-0.07167351718849568 
0.01832966165528917 
-0.005296596197337061 
0.02591611233494943 
-0.005296596197337061 
-0.004284846032783079 
-0.01755041517803179 
0.002785012877047858 
-0.002881148038339367 
-0.007897243800423828 
-0.05662418145247056 
-0.0540349309862045 
-0.0005330241971150286 
0.04333014022062316 
-0.0002152726417368328 
0.07044693342456268 
0.02729944842029007 
0.0121774414603378 
0.0104850995155447 
-0.002592915034999315 
0.03977307616595115 
0.0008523908516986946 
0.004225003060288534 
0.0750848180908861 
0.04411423988482149 
-0.08250688820279696 
0.004225003060288534 
0.0007396641757608423 
0.01550642513197195 
0.004225003060288534 
0.004225003060288534 
-0.002592915034999315 
0.0008699562951840761 
0.004225003060288534 
0.04862668529663852 
-0.002592915034999315 
0.1742015059230665 
-0.1230189865368764 
0.008310737211552226 
0.008310737211552226 
-0.002255776866284866 
0.001986722784067181 
0.04936508311158182 
0.004627940645816507 
0.001427562835675575 
0.001427562835675575 
0.003624187051633977 
0.008249802899823841 
0.04383177473905939 
0.001427562835675575 
0.004507282583147932 
-0.009355396673608981 
0.001427562835675575 
0.0005756171455758956 
0.0005756171455758956 
0.001129766140114495 
0.001698914132842435 
0.0005756171455758956 
0.03415211551911193 
0.0005756171455758956 
0.001129766140114495 
0.001129766140114495 
0.07248806061929151 
0.1318711071360954 
0.2780644693355093 
-0.001205878073910126 
0.0004444139705459774 
0.2489555778366634 
0.07248806061929151 
0.003795729035770261 
0.003937316844176465 
-0.0008435718460868966 
0.2489555778366634 
0.07248806061929151 
0.0003071799585720095 
0.07248806061929151 
0.07248806061929151 
0.0004444139705459774 
0.0008331976714655643 
0.07248806061929151 
-0.002747186229691619 
-0.01308876884145772 
-0.01769744765017431 
-0.01724820835976023 
-0.009860046845280966 
-0.1131214272982804 
-0.001730917725339297 
-0.1319318531811737 
-0.003257914697603284 
0.05734972667036822 
-0.002343726440928012 
-0.003029696353811593 
-0.003029696353811593 
-0.002343726440928012 
0.09290662563091291 
-0.07019410028607964 
-0.001192584776441696 
-0.001898582277696568 
0.04961460584067834 
0.05190471318759989 
0.0519372750412732 
0.05560592443563163 
0.06371428630726175 
-0.0301078193149142 
-0.006880826088287747 
-0.02628626127213321 
0.07355339813430339 
-0.006880826088287747 
-0.01376976930782366 
-0.1798886478535442 
-0.007669633542669212 
-0.02228700776150074 
-0.00779505998327437 
-0.01391776878521269 
-0.0150405149199979 
0.05879367139999862 
0.0002101573983279342 
0.02150881393171174 
-0.001420137271429334 
0.02150881393171174 
-0.0150405149199979 
-0.001420137271429334 
-0.1839289766962484 
0.02150881393171174 
-0.0004675789585593174 
0.0002101573983279342 
-0.0150405149199979 
0.07289613936349257 
-0.01406876095644829 
-0.01955412185955429 
-0.01296893609689647 
-0.004097581244737953 
0.136175373670102 
-0.01955412185955429 
-0.03155789347610201 
-3.170869042716636e-05 
-3.170869042716636e-05 
-0.02209945624097944 
0.02567436387425816 
-0.008027405578111957 
-3.170869042716636e-05 
0.125024641365412 
0.1817557998825849 
0.007095907514159259 
-0.01955412185955429 
-0.001072388288060108 
-0.02986790685382004 
-0.05090747696545334 
-0.03171942913479238 
-0.001028326492464312 
-0.03171942913479238 
-0.03171942913479238 
-0.08171141735919042 
-0.0593419137972198 
0.009685839462859669 
-0.04325710413411887 
0.03611186855351211 
0.03611186855351211 
-0.04325710413411887 
-0.0593419137972198 
-0.04325710413411887 
0.09687058115978175 
0.004346139094868982 
0.09079165362007005 
0.001015880191061 
0.05322623860760197 
0.0003471639061517378 
-0.0143636196412045 
0.000746265007283172 
0.02428940036482592 
0.0003471639061517378 
0.000746265007283172 
0.09079165362007005 
0.01652233766865494 
0.07151719452369365 
0.03537547521419511 
0.09069642857010898 
0.01652233766865494 
0.0988886890195521 
0.1001979613445299 
0.01652233766865494 
0.09706834513051601 
0.02840097109270263 
0.0399224836654527 
0.07717534620886693 
-0.01896414365304534 
-0.08878350600609997 
0.02158343130903689 
-0.01538139278225456 
0.02459052579209765 
0.000228736510516391 
0.000228736510516391 
0.2079300074372215 
0.0167830824506373 
-0.003443679713434821 
0.0001589447564969721 
0.02459052579209765 
0.01012640195034773 
0.0001091395503812509 
0.02459052579209765 
-0.003023777482478515 
-0.0934958689477597 
0.01439346131692384 
-0.0934958689477597 
-0.00464767599203612 
0.07066448450228474 
0.03429128342763198 
0.01837082683985251 
0.03429128342763198 
0.001170140106370786 
0.03429128342763198 
0.01837082683985251 
0.04108324745494994 
0.05152917885317655 
0.02736589960875728 
0.05152917885317655 
-0.02415723073573902 
0.01837082683985251 
0.04117803624057832 
0.02580563356258867 
0.1267933391371561 
0.1267933391371561 
0.009114203718869746 
-0.006738685021015794 
0.009114203718869746 
0.06497304714642615 
0.1629620085622694 
0.009114203718869746 
-0.006738685021015794 
0.009114203718869746 
-0.006738685021015794 
0.009114203718869746 
0.009114203718869746 
-0.01642163181444264 
-0.01736682759611648 
-0.122964370683863 
-0.3902437428251717 
-0.0003201881165084711 
-0.0549446651420487 
0.0001130971309297954 
0.002459831003313387 
0.04452068093464562 
0.03305619318760619 
0.05457988148833812 
0.0262049754396143 
-0.1134480585533449 
-0.01642163181444264 
-0.0845025978773653 
-0.02529810579588363 
-0.02467392519860664 
0.010794819646332 
-0.1179721360032382 
-0.008395612454207618 
0.1053588422752763 
0.0009309545485387018 
-0.004835617180113922 
0.05304481558342368 
-9.924402453276211e-05 
-0.08138663040721954 
-0.08236887799104395 
-0.008784821907993342 
-0.008784821907993342 
-9.924402453276211e-05 
-9.924402453276211e-05 
0.03206573678873585 
-0.002223744015002407 
0.06223893543227543 
0.002453891011483321 
-0.0245391514352318 
-0.002223744015002407 
-0.07912478530065663 
0.0005060295287268443 
-0.0245391514352318 
-0.0240326339333462 
-0.002223744015002407 
-0.00273106611934368 
-0.02276290086554575 
-0.0245391514352318 
-0.0245391514352318 
-0.002223744015002407 
-0.0245391514352318 
-0.0245391514352318 
-0.009763004840227189 
-0.009763004840227189 
0.04264994682819344 
-0.04958315764003834 
0.05535729357842846 
0.0001455160869460384 
-0.1125394902682407 
-0.04585093962449333 
-0.0964066972320469 
-0.009763004840227189 
-0.002985479042321423 
-0.07983927138533441 
0.06330569025935374 
0.1393204952507535 
-0.02589893898558532 
0.07248348912507838 
0.05871634262315274 
0.134154821165845 
0.05871634262315274 
0.05871634262315274 
0.009824631813639231 
0.0604155895865819 
0.003894252996280783 
-0.03257167407928256 
-0.03201575320311557 
0.0005002002385945124 
0.009824631813639231 
0.009824631813639231 
-0.03257167407928256 
0.04151998731638917 
0.1260532726170686 
-0.03257167407928256 
-0.03201575320311557 
-0.03201575320311557 
0.0605684729590307 
0.003894252996280783 
-0.03257167407928256 
-0.08094022320428229 
0.08042831618176076 
0.03023190081547246 
0.07162855526191414 
0.03023190081547246 
-0.02793400900003906 
0.03023190081547246 
-0.08094022320428229 
-0.08094022320428229 
0.04635110428552414 
0.03023190081547246 
0.04635110428552414 
0.03593584904524295 
0.03593584904524295 
-0.06848667023268649 
0.03593584904524295 
-0.01255239947324823 
-0.04663523165172972 
0.022959882222552 
-0.004094342499603867 
-0.01957559325163732 
-0.008001483785569377 
0.0404768958309507 
-0.006503942484601235 
-0.004094342499603867 
0.0495671222663699 
-0.002422370888438744 
0.1545419200094511 
0.005725023131350818 
0.008186134280348529 
0.0495671222663699 
-0.02210871536990006 
-0.1852430688256168 
0.005725023131350818 
0.005725023131350818 
-0.002422370888438744 
-0.002422370888438744 
0.003400990817818247 
0.0002664352541409853 
-0.05186122191551316 
0.0434014958849747 
-0.1208003152141811 
0.1128021422498142 
-0.0132904490512532 
-0.0132904490512532 
-0.1208003152141811 
-0.132936585541515 
0.09575911188574775 
-0.0132904490512532 
0.001684429310371718 
0.001684429310371718 
0.001762204309033315 
0.001762204309033315 
-0.004912552847797803 
0.00923030876206556 
0.001762204309033315 
0.001684429310371718 
0.001620271718503642 
0.03829522214061545 
-7.770508121081728e-05 
0.001684429310371718 
-0.08324605569972497 
0.001620271718503642 
0.001939864037537393 
0.001113002448573353 
0.1910495242961366 
0.04033944034405722 
0.1897873172954145 
0.001939864037537393 
0.001055722913682465 
0.001939864037537393 
0.001230424033114109 
0.02582225108090171 
0.001113002448573353 
0.001113002448573353 
0.001939864037537393 
0.01080147767300287 
0.001113002448573353 
-0.02096668733581856 
0.001055722913682465 
0.02400929212389544 
-0.03702588414517234 
0.03471211406597347 
0.1266633740164254 
0.6372745638094076 
-0.0009463946824830073 
0.01190337039482327 
0.01283021745927338 
0.03431757360172917 
0.0139531132461753 
-0.001812837590869244 
0.2057842145716963 
0.0139531132461753 
0.0139531132461753 
-0.0009463946824830073 
0.06826113087302188 
0.01224005782957098 
-0.001812837590869244 
0.0139531132461753 
-0.0006863491962628955 
0.2011976839846142 
-0.0006863491962628955 
-0.0137478701329181 
0.000672182514180351 
-0.01672433448229937 
0.000672182514180351 
0.008507577336455102 
0.002002228436309601 
0.0004185208580570653 
0.009972222935552489 
0.000672182514180351 
-0.01146832990872725 
0.0002643413240977473 
-0.00121380503727157 
0.006373246287965297 
-0.00121380503727157 
0.05038058372077388 
0.05038058372077388 
-0.06862026606265674 
0.05038058372077388 
0.005789530681197808 
-0.02620968493980479 
0.07253381185281824 
-0.03068615203642966 
-0.001537453587606838 
-0.001017690390931436 
-0.001537453587606838 
-0.001537453587606838 
-0.001017690390931436 
-0.02638601257678884 
0.04999998031371815 
0.005697056956547058 
0.08859490265770854 
-0.02530584364862904 
-0.006339318457062305 
0.008377392655136515 
-0.0006533589990274126 
0.03574648869514841 
-0.02530584364862904 
-0.06077173077254902 
-0.02530584364862904 
0.07275745434936853 
0.06529167287479236 
0.0007698143927796783 
0.000751385434428548 
0.000751385434428548 
0.04861765417403053 
-0.009430158034408064 
0.0006204615317165706 
0.04274994270393815 
0.0006204615317165706 
-0.0002938762601504773 
-0.02949573575332805 
-0.009009029159137382 
-0.03071266191708371 
-0.0002938762601504773 
-0.02949573575332805 
-0.0002938762601504773 
-0.0002938762601504773 
0.07086625620263164 
0.1985434765495324 
-0.02949573575332805 
0.00315933718143708 
-0.003109455706599432 
0.001434680212929339 
0.0002404860549284995 
-0.001688399391111515 
-0.002986801386021522 
0.03285892825467746 
-0.00172059558739019 
-0.003109455706599432 
0.006070175772557068 
0.01878413885943763 
-0.001332400059158968 
-0.006895637945897405 
-0.006193543641836186 
-0.001332400059158968 
-0.006895637945897405 
-0.006895637945897405 
-0.05035356807430832 
-0.01948390689764058 
-0.01948390689764058 
-0.05917172619061156 
-0.01948390689764058 
-6.126075544140672e-05 
-0.01065334609437081 
0.01240320544311014 
0.01761867635786688 
-0.008866375330674019 
-0.02252244798013611 
0.001210991987945173 
0.001568029240751481 
-0.02312782854094399 
-0.02832656483372892 
-0.008866375330674019 
0.01761867635786688 
-0.1004839174346911 
0.006234294163838711 
-0.007509012172554883 
-0.007509012172554883 
-0.007509012172554883 
0.02577424630034545 
5.606758615568697e-05 
0.04957071276572518 
0.006234294163838711 
-0.02738183372636028 
5.606758615568697e-05 
0.006234294163838711 
-3.077151747485945e-05 
-0.2297445474511332 
-0.0260573468802496 
0.03766625105526653 
0.0023961208871843 
0.0457525659039421 
-0.1422015077249505 
0.05777303555271956 
0.05895366842255437 
0.002846982956353641 
0.05777303555271956 
0.002162108349360019 
0.002162108349360019 
0.003918924917871472 
0.003918924917871472 
0.01614080941128907 
0.03681257503575139 
-0.01173431313539136 
-9.824055635024019e-05 
-0.0003660630715008481 
0.002864429955444645 
0.02122763686363644 
-0.0003660630715008481 
-0.0003660630715008481 
0.04599432958680211 
-3.50677926420978e-05 
-0.0003660630715008481 
0.004746858822151022 
0.04188912755850033 
0.004746858822151022 
-0.003483960627491626 
-0.003483960627491626 
0.0006828064226916199 
0.02189374917142933 
0.02648190486958071 
0.01348635249825802 
0.09524196895706943 
0.02173848954777242 
0.03742779758991877 
0.0004808526126954292 
0.09524196895706943 
0.09998311051499496 
0.0008541069247079548 
-0.1873514759104726 
0.00802001511330922 
0.09524196895706943 
-0.1873514759104726 
-0.1873514759104726 
0.1370114596887456 
-0.03993051754325332 
0.1370114596887456 
0.1370114596887456 
0.1370114596887456 
0.1370114596887456 
0.00332765139152642 
0.04759932742047122 
0.1370114596887456 
0.1370114596887456 
0.007284199691028902 
0.00332765139152642 
0.04654314676070698 
-0.02115789057900665 
0.1370114596887456 
0.04654314676070698 
-0.006512861496550358 
-0.008153454181864582 
0.1370114596887456 
0.02252756706361598 
0.0007088858511525289 
-0.03059493669147996 
0.116823723770976 
-0.01568761454143995 
0.01231854973987564 
0.03782530471067899 
-0.003146519586180275 
0.01683420205115682 
0.01726883784719276 
0.03318371799808074 
0.01654316430297579 
0.01589463829086335 
0.01654316430297579 
-0.003403171237021193 
0.0168528889808021 
0.05000332925399559 
0.05628364375803332 
-0.1212400097480077 
-0.1406634502457158 
-0.1389290001716654 
-0.1013026825118276 
0.04121713358263596 
0.04121713358263596 
0.0432660590798643 
0.01551559520498904 
0.1022942122643724 
0.04121713358263596 
0.04121713358263596 
0.05000332925399559 
-0.00477318889368461 
0.05992297563123482 
0.1827087414518493 
-0.00477318889368461 
-0.01078911586763134 
0.07495867996823974 
0.1827087414518493 
0.1827087414518493 
0.05135482275434905 
0.08938014279176068 
0.06046379455696904 
0.05825480898212769 
0.05825480898212769 
0.05825480898212769 
0.05825480898212769 
0.1323734058956001 
0.05994129827052071 
0.05994129827052071 
0.1175215331632654 
0.03551199824529316 
0.05825480898212769 
0.0007076018397569487 
0.1602322496802502 
0.0007076018397569487 
0.009787263190264382 
0.05193308838575979 
0.03008221972553108 
0.003381650257056747 
0.0006634235003447203 
0.1413188670422026 
0.02666951083222144 
0.009787263190264382 
0.009787263190264382 
0.0006634235003447203 
0.001412672364770375 
-0.009768533733210821 
-0.009768533733210821 
0.01890914502987088 
0.114420898369798 
-0.009768533733210821 
0.01890914502987088 
-0.009768533733210821 
0.007285952239797033 
0.007285952239797033 
-0.02077160358485389 
-0.02071410857034686 
-0.0009000016938249423 
-0.01567139552848413 
0.01461545346765375 
0.1071192726883611 
0.01197459730477921 
0.01461545346765375 
0.01197459730477921 
0.001555886552103033 
0.01197459730477921 
0.07302759939198578 
0.0007448562237454757 
-0.01143701048595312 
-0.01143701048595312 
-0.06118021874247919 
-0.06118021874247919 
0.009652203314332563 
0.009652203314332563 
-0.01665497273204147 
0.009652203314332563 
0.02621415862340797 
0.07152057676789277 
-0.0005591276006310027 
0.009652203314332563 
-0.02206820415139802 
0.0239225342699859 
0.0004128308688372382 
-0.07021527671208413 
0.05687778248326568 
0.0782461017112354 
-0.005886558281547612 
-0.05095158919242639 
0.05687778248326568 
0.05000055294343399 
0.05687778248326568 
0.03779796851017588 
0.001811755567873086 
0.0782461017112354 
-0.07021527671208413 
0.00209399084924815 
0.1267398058385119 
0.008077416462530044 
0.0782461017112354 
0.05687778248326568 
0.001736515267124724 
0.1516308985506533 
0.1470317874026999 
-0.0005896184268322714 
-0.001030889183337483 
-0.001030889183337483 
-0.001363631491248278 
-0.01835905098039241 
0.008063158168131324 
-0.0005896184268322714 
-0.0005896184268322714 
-0.08039451235049538 
-0.001030889183337483 
0.1470317874026999 
-0.0006607402069199325 
0.05109982034469934 
4.993693346694101e-05 
4.993693346694101e-05 
4.993693346694101e-05 
0.03180476813927317 
0.04247866755948761 
0.005075328866367038 
4.993693346694101e-05 
4.993693346694101e-05 
0.02207318535488911 
-0.01559432637490168 
-0.01943637487447545 
0.0004152176708528757 
0.0004152176708528757 
-0.05969096364102641 
0.05733381722909338 
0.01069825479942006 
0.0004152176708528757 
0.01867277768163564 
0.005038251839826599 
0.0004152176708528757 
0.0004152176708528757 
-0.05969096364102641 
-0.05969096364102641 
-3.146371933259145e-05 
-3.146371933259145e-05 
0.05097978019489599 
0.05139131747081552 
-0.009364480043312452 
0.02819555379725363 
0.0008039927677618746 
0.0311846620239405 
-0.00162512954148841 
0.009195363128521736 
-0.03586635398149886 
-0.009908103137978162 
-0.001734653927448036 
0.06030033659905891 
-0.1411733280962278 
-0.04597751325942172 
0.06030033659905891 
0.04472569147676909 
0.009195363128521736 
-0.02795907660649721 
0.009195363128521736 
-0.00162512954148841 
-0.0574602515098685 
-0.0222529887026673 
0.01136106512119755 
-0.0002473839894384888 
0.05333292020420096 
0.009474803257427342 
0.009474803257427342 
0.005208580374393678 
0.04090656461294561 
-0.0004350201925174246 
-0.0002473839894384888 
0.009474803257427342 
0.01136106512119755 
-0.0002473839894384888 
0.05984199225431994 
0.04090656461294561 
0.04090656461294561 
0.005743690515349882 
-0.0004350201925174246 
0.04090656461294561 
0.009474803257427342 
-0.004841133571464149 
0.07238603582269194 
0.07238603582269194 
0.06311983370740928 
0.07238603582269194 
0.06311983370740928 
-0.004841133571464149 
0.0281524803210941 
0.06311983370740928 
0.0281524803210941 
0.0138460644257255 
-0.1314192807149208 
0.0281524803210941 
-0.004841133571464149 
0.005991808532502641 
-0.01859261115822582 
0.005991808532502641 
0.2125010505501415 
-0.006936414548078052 
-0.03083544138464165 
-0.001545788877563922 
0.005991808532502641 
-0.01632202131390387 
-0.004529565539632768 
-0.01632202131390387 
0.06514267522269827 
0.08720086796811896 
-0.02538709050667823 
-0.0008911132831743705 
0.1446396059203181 
0.0003922042983142087 
0.008795035201718307 
0.02396837437407546 
0.009505073029932991 
0.0006629847758258184 
0.0366580278501334 
0.0003922042983142087 
0.02945150805941759 
0.0003922042983142087 
0.02826319030551933 
0.009505073029932991 
-0.05317332299811574 
0.0003922042983142087 
0.03213845231545788 
0.0003922042983142087 
0.001771964133670463 
-0.006284617402832076 
0.001985555822804704 
0.001771964133670463 
0.001771964133670463 
0.001985555822804704 
0.001799151438341235 
-0.007924767694752184 
-0.004912983162780086 
-0.01751926564869485 
0.008746454367745262 
-0.0007176696400657495 
-0.00667589927029472 
-0.05264995545285329 
0.09262013738257224 
0.04462965988408846 
-0.0006884139090203754 
0.04437888906944452 
0.1237094902363828 
0.008362198636874268 
0.1367518887282942 
-0.01247591951259755 
-0.00277251688355371 
0.008362198636874268 
-0.00667589927029472 
0.04250303610874832 
-0.01882128858707002 
-0.1619113859287902 
0.03815055205976386 
-0.08950256507520321 
-0.02444527206525296 
0.006707782478204777 
0.006707782478204777 
0.01629245925164476 
-0.08882970745323457 
0.006707782478204777 
0.002826739704635857 
0.03815055205976386 
-0.02232365130800089 
0.007280600571755476 
-0.02232365130800089 
-0.03418374349711731 
-0.02284637264430538 
-0.02232365130800089 
-0.01692640203240697 
-0.01692640203240697 
0.007074635336719919 
-0.3656696352988011 
0.0193579179477429 
0.01456656727905361 
0.004665271722083855 
0.0160933365765907 
0.08198078738099954 
0.01590499329556243 
0.0193579179477429 
-0.07392660707317683 
0.01765025159350125 
0.02737188496966635 
0.01265572388475287 
0.01265572388475287 
0.01450502043091933 
0.06953238725336466 
0.01765025159350125 
0.01265572388475287 
-0.07113768637779078 
0.06953238725336466 
0.008677248011781734 
-0.1482687943858977 
-0.1482687943858977 
0.0598001197229054 
0.001368422065533401 
0.001188807883915437 
0.0598001197229054 
0.0598001197229054 
0.02108827092857474 
0.04200443045883469 
0.05204954076468437 
-0.0854445403392203 
-0.05839620234988794 
0.04885134853652577 
-0.003473849375804163 
0.06861766072070845 
3.143434518968371e-05 
0.05456129751163455 
0.0002275117223868955 
3.143434518968371e-05 
0.001232409645010291 
0.001232409645010291 
-0.00747407707627475 
-0.01698700467839055 
-0.0202940885909479 
0.02233886868632783 
-0.05304489803000371 
0.004090957873107777 
-0.0546981286497054 
-0.02852562708172339 
-0.06125635440807205 
0.04710583274585106 
-0.0546981286497054 
-0.02042823655318837 
0.002538543082629345 
0.002274885393191741 
-0.02072600477573992 
-0.05007146674581289 
0.004838121212834279 
0.004838121212834279 
0.1712970196688437 
0.009160679757028922 
0.009160679757028922 
-0.09101567467443544 
0.01001485787486425 
-0.09148092127760926 
0.00774059134923193 
0.02541356955222951 
0.009160679757028922 
0.0898318057686697 
0.009160679757028922 
0.005792192099183323 
0.00608232229855487 
0.01877673326859036 
0.06476418475837163 
0.00608232229855487 
0.00608232229855487 
0.08679652046531132 
-0.0155085553001378 
-0.0155085553001378 
0.0006237846038720764 
-0.0155085553001378 
0.02890126466614589 
0.0242687518710738 
0.03457200658339625 
-0.01646644048491588 
0.01765865383024016 
-0.02903174144198277 
-0.0138391717219269 
0.01587066848312357 
0.0242687518710738 
0.0002419899127939853 
0.05795810682416681 
0.0006237846038720764 
0.02291956289298216 
-0.001518314730841323 
0.05546452421929909 
0.02761674203698895 
0.05546452421929909 
-0.07006978849052367 
0.05044076736512038 
0.02761674203698895 
0.1018538205232794 
0.0202478562459243 
0.001265500845457916 
0.02916021013891902 
0.07328554219121924 
0.0003811303601092984 
0.06786823182774605 
0.06786823182774605 
0.1132643719276344 
0.001931349114071579 
0.1457342625300324 
0.04474907783794296 
0.0001684513411768141 
-0.0166229926925018 
0.07793846381190071 
0.001931349114071579 
0.1739716100515672 
0.01940669176427237 
0.0001684513411768141 
0.02390201552025525 
-0.03003912600584292 
-0.03548419529417354 
-0.03387017976782883 
-0.02591096567935091 
0.02469363303904856 
0.1011245977263641 
0.02361322335831156 
-0.2443566153366371 
0.0004099092567406604 
0.0004099092567406604 
-0.04363995684612435 
0.0004099092567406604 
-0.02151553494041567 
-0.01455799505045544 
-0.01455799505045544 
-0.005987485361274341 
-0.01455799505045544 
0.001058441971704943 
-1.03710140148132e-05 
-0.0278975700312392 
4.821551761940037e-05 
-0.000482180652665104 
-0.3793706205286838 
0.00743643866641321 
-0.1245503753873152 
0.00743643866641321 
0.001198920899576919 
-0.004954700675547664 
-0.005790624630769577 
-0.04648095692121325 
0.004412162056935007 
0.00743643866641321 
-0.004954700675547664 
-0.004954700675547664 
-0.1390572083502735 
-0.07300961737152761 
-0.1390572083502735 
-0.01801805259425766 
-0.03184744414325094 
-0.1390572083502735 
0.007362996496723122 
-0.00116618736560235 
0.01199612265708883 
0.02909543135448765 
-0.00116618736560235 
-0.03100900814598795 
0.02909543135448765 
-0.01273310452140994 
0.02909543135448765 
-0.01415353928504192 
0.0173032861465033 
-0.1620774206707735 
0.01276121480718614 
-0.001803851123340368 
-0.001803851123340368 
0.005082650755453239 
-0.004000784433493677 
0.1353631595163144 
0.001218480674829074 
-0.01156691715580752 
-0.002749068098002975 
-1.296436305378806e-05 
-0.01466049890513658 
0.009369166757781152 
0.01016842485159952 
-0.01156691715580752 
-0.002749068098002975 
-0.06242541695661912 
0.01212695538398441 
-3.632791779138503e-05 
-3.632791779138503e-05 
-3.632791779138503e-05 
-0.0001239958840928684 
-3.632791779138503e-05 
-0.0005980679711555126 
-0.09064729524215423 
-3.632791779138503e-05 
-3.632791779138503e-05 
-0.005365228339858832 
-0.004546818618708807 
6.87462633312889e-05 
0.0008358925460847082 
0.0008358925460847082 
0.0008358925460847082 
-0.001256721652154408 
6.87462633312889e-05 
0.03230320714187082 
0.02519367002438764 
-0.007708154528933337 
0.05869428083434861 
-0.004139027192998014 
0.02519367002438764 
-0.003237090485159484 
-0.04644535855006404 
0.05881143982730579 
-0.003493284719805015 
0.007813548883183741 
0.04865713880353734 
-0.02570366654597788 
-0.02534826333285789 
-0.02534826333285789 
0.08780403854912971 
-0.02534826333285789 
0.0515488589534337 
-0.02534826333285789 
-0.02534826333285789 
0.0515488589534337 
0.01331838658056428 
0.1119117483844682 
0.09431520584875415 
0.187921980888993 
0.09431520584875415 
-0.1928781695536302 
-0.03253260071678023 
0.1169341283999016 
-0.1479079271998518 
-0.004251821031501464 
-0.004251821031501464 
-0.004251821031501464 
-0.0320367866571826 
-0.1797850693497705 
0.003690073523288084 
-0.01952797734671326 
0.1218341112669569 
0.003690073523288084 
-0.004251821031501464 
0.1169341283999016 
-0.004251821031501464 
-0.02521926662790966 
-0.04870265725176777 
-0.003081365536452355 
-0.02913229375449373 
-0.003081365536452355 
-0.01627738006295339 
-0.003081365536452355 
0.0223016426075165 
-0.003081365536452355 
-0.003081365536452355 
0.02132924246740951 
0.03747538792977466 
-0.01508697829367378 
-0.0009016477039761227 
-0.0006228972426326034 
-0.007800405166953823 
-0.0007243649862350226 
0.0300007089997143 
-0.008949047429379124 
0.02359729090207683 
-0.0009016477039761227 
-0.0009016477039761227 
-0.05062199850578528 
0.007776017889609522 
-0.003347845822715212 
-0.03275237775474417 
-0.05726750327601995 
-0.0009016477039761227 
-0.0009016477039761227 
-0.009499161419046529 
-0.009499161419046529 
0.02599611874900253 
-0.00201463933328433 
-0.002839774184154597 
-0.002074829541742313 
0.02580115543812765 
-0.009499161419046529 
-0.0029610779365776 
0.02804423589504794 
-0.00201463933328433 
-0.01442235727923124 
-0.01184566512024222 
-0.002839774184154597 
-0.00572175993713041 
-0.00201463933328433 
-0.00201463933328433 
0.027931584043255 
-0.06601911459679366 
-0.01513374465166097 
-0.009001066469218184 
0.009351168639088917 
-0.01552325918913492 
-0.01552325918913492 
-0.009001066469218184 
0.02110666875218246 
0.04818291410029289 
-0.02615118537499248 
-0.03554791642380987 
-0.01552325918913492 
-0.009104834733357827 
-0.01513374465166097 
0.05040562094618659 
-0.03005808397635741 
-0.01552325918913492 
0.005939764878054099 
0.005746463997032996 
0.005746463997032996 
0.0534770586153577 
0.005939764878054099 
0.005939764878054099 
0.005939764878054099 
0.006333229184359252 
-0.001267887838760698 
0.006333229184359252 
0.005939764878054099 
0.005939764878054099 
0.005746463997032996 
0.005939764878054099 
0.003369463267782067 
0.005939764878054099 
0.005885724939107772 
-0.1421848805743857 
-0.1421848805743857 
0.01274514318232196 
-0.03507830857226189 
0.2528547109543085 
-0.03507830857226189 
0.1192997005144766 
-0.03327170497087735 
-0.04029277674282453 
0.1602230266331741 
-0.04029277674282453 
-0.02538226627294238 
-0.0225245722596859 
-0.05135327885598341 
0.04709104775253525 
-0.04029277674282453 
-0.04305438734391729 
-0.1579472799575916 
-0.01077862549780772 
0.08340040023268952 
-0.01140898193197391 
-0.0008194566641506658 
0.08817620406126596 
-0.01077862549780772 
-0.04323905581437185 
0.01179990969960415 
0.02566468882302336 
0.001585005071339025 
0.1017327727049423 
-0.02339626261700913 
0.009718742908431114 
-0.002374233872604062 
0.04900168493702754 
-0.0002817630654750153 
-0.02588886278004459 
0.008065638114480304 
-0.002260630080489405 
0.009718742908431114 
0.07427486218490877 
-0.02588886278004459 
0.05164229215457218 
0.05393873172004774 
0.05164229215457218 
-0.03598044672854149 
-0.02588886278004459 
0.0001125235254768055 
0.01898035843730847 
9.906331539505852e-05 
0.0001125235254768055 
9.906331539505852e-05 
0.0001125235254768055 
0.06563457747481327 
-0.03626812528502779 
-0.03024113458410959 
-0.002431938825337344 
-0.03362511304447541 
0.1903802231772811 
-0.0009929376393554442 
0.08966759929598772 
-0.01849425973318619 
0.2017775209513196 
0.08958852868688288 
-0.01664143113274447 
-0.01890483593005786 
-0.01890483593005786 
0.1080681578491128 
0.1310748961377603 
0.2011764745273498 
-0.001656641367433281 
0.1126602715033378 
-0.001222121014282325 
-0.0008078167137693163 
-0.0009289904759804113 
0.01922757165186494 
-0.002058036468990634 
-0.002058036468990634 
9.327982818716673e-05 
0.01922757165186494 
-0.001603658102461169 
0.04115436587151645 
-0.002058036468990634 
-0.0008078167137693163 
9.327982818716673e-05 
-0.1422924565511136 
0.0002291833749268828 
0.0007651213394679959 
0.0002291833749268828 
0.0002291833749268828 
0.004479710970081804 
0.004277954842379328 
0.0002539927339639294 
-0.0008568492347947254 
0.0002539927339639294 
0.01601324652699617 
0.0002539927339639294 
0.02859318945073219 
0.02838782663244061 
-0.0008568492347947254 
0.01938109310510697 
0.03769355569759309 
0.01051027044632302 
0.010121599138312 
0.01938109310510697 
0.02417212127436582 
0.04084893211974763 
0.01938109310510697 
0.02400689871415802 
-0.2186513411791237 
0.1320451624674351 
0.01285426484527992 
0.1479230322825846 
0.02895966240097033 
0.1193600851783649 
0.04317714393797978 
0.034675712594139 
-0.0362568437411549 
-0.0217301785955653 
-0.001240691964163183 
-0.0247619412452542 
-0.002746755471492386 
-0.06298384461727706 
-0.09162717284847882 
-0.001100059172381865 
-0.005168302783920663 
-0.02049426339424201 
0.01103594998752809 
-0.05112612758410898 
-0.01344436802002478 
-0.001251544631231249 
-0.09162717284847882 
-0.03443569956913931 
0.01103594998752809 
0.0003028858043305165 
-0.07225263050927345 
0.0001082577000513578 
0.0003028858043305165 
0.003991380420783964 
0.0003028858043305165 
-0.08675270902815352 
0.001564301796477444 
0.01427133652635435 
0.004314544573515473 
-0.002331527876382863 
0.0004582318802956388 
-0.223887329004874 
-0.0008893624741573396 
0.0001082577000513578 
0.0004755113793415108 
0.0004755113793415108 
-0.02409393293956373 
0.00522646473958252 
0.07424739709510653 
0.05839299881977596 
0.0005423496015872053 
0.06002171087826907 
0.0008453204698761005 
0.000406079536244936 
0.01889003484058053 
0.02402792477454798 
0.02402792477454798 
0.02026699191549751 
0.000406079536244936 
8.536534116049737e-05 
0.01889003484058053 
8.536534116049737e-05 
0.01300507409036762 
0.000406079536244936 
-0.0008897563478058632 
-0.000470113721160594 
-0.001435289460958797 
-0.0001531427703162281 
-0.0001531427703162281 
-0.0008897563478058632 
-0.0001531427703162281 
-0.0001531427703162281 
-0.0001531427703162281 
0.04046489718335392 
0.00457846565898878 
2.515664982127272e-05 
-0.0001531427703162281 
-0.000470113721160594 
-0.0001531427703162281 
-0.0001531427703162281 
4.645148959986422e-05 
0.09417243816661916 
-0.0001531427703162281 
-0.004868980006936039 
0.02259983173620892 
-0.2433749050328632 
0.03422535865261599 
-0.4037262233935078 
-0.03941777945053527 
0.01348666814290294 
-0.05149880034140072 
0.1593918999503953 
-0.05149880034140072 
-0.004868980006936039 
0.1151600043343535 
0.00392852732025601 
0.005864351907662347 
0.01837099793817063 
0.005864351907662347 
0.03197425067396995 
0.02560217727006541 
0.00790124129265701 
0.02101901297407121 
0.00790124129265701 
-0.006923514198802078 
0.00790124129265701 
0.02019763947606938 
0.08866268384998553 
0.01837099793817063 
0.0196864135619384 
0.0004268086823658833 
0.01837099793817063 
0.06797383008277845 
-0.2959669376279317 
-0.2959669376279317 
0.06350618755899975 
-0.2959669376279317 
0.08293339423292116 
0.05622374838418451 
0.04103098448935721 
0.0688997751946078 
0.04997441789332588 
-0.1891020001518788 
0.070165361501104 
0.06615359703183957 
0.1387677282870536 
0.01589881382602774 
-0.0500091888262124 
-0.03740631035530881 
-0.001070909008260786 
0.1387677282870536 
-0.06646094341787241 
0.02910126548125161 
-0.06646094341787241 
-0.0500091888262124 
-0.07417946421926058 
0.1501958025946513 
-0.06646094341787241 
0.1177657158791773 
-0.07417946421926058 
-0.1781342987662212 
-0.03537132334262135 
-0.0189885241278279 
-0.0189885241278279 
0.03727561400787437 
0.06942063032492456 
-0.002918699173785526 
-0.0141819782948865 
-0.0002651237573409323 
-0.002918699173785526 
-0.0141819782948865 
0.1002656857271429 
-0.0141819782948865 
-0.0002651237573409323 
0.02367673010974955 
-8.420436352325452e-06 
0.03727561400787437 
-0.001800173597700222 
0.04885917617344566 
-0.0004100665448129797 
-0.02345238403207124 
-0.03006424708605998 
0.04904351502041778 
-0.1536250030315842 
0.01361008197345824 
0.07524445873698504 
-0.07447650809128047 
0.2054859821011565 
0.07380473525427597 
-0.1631036386587211 
-0.1042464967283131 
0.01361008197345824 
0.01612144776276873 
0.0004440615625176378 
0.003092718862385412 
0.001233297179682845 
-0.00391454914885131 
0.01612144776276873 
0.0004440615625176378 
0.03890169316668766 
0.03463891932340448 
-0.00391454914885131 
0.06173466791305345 
0.01612144776276873 
-0.0004556564980666737 
-0.0440131753665506 
-0.03731943560869973 
0.01071200829149405 
0.01071200829149405 
0.01071200829149405 
-0.008343842074220205 
-0.05575559081807103 
-0.03721086759280132 
0.01815946814975106 
0.00136049651358636 
0.001940347822935658 
0.001940347822935658 
0.01815946814975106 
-0.005241639701910764 
-0.09283969288698452 
-0.09283969288698452 
0.007251796444963913 
0.07990581444908762 
0.08414452008162111 
-0.003206774561485244 
0.007251796444963913 
0.007251796444963913 
0.007251796444963913 
0.0007695887049319278 
0.007251796444963913 
0.007251796444963913 
-0.0001559441721963948 
0.008861937946514268 
0.001136302948737322 
-0.003206774561485244 
-0.03622626358345043 
0.007251796444963913 
0.0007695887049319278 
0.004823582881835336 
0.03721792738723489 
-0.005430373705121685 
-0.05251382472409682 
-0.0311481930131858 
-0.0311481930131858 
-0.03106616813237958 
-0.03106616813237958 
0.03702139626740562 
-0.0311481930131858 
5.943073632250218e-05 
-0.03013464463195603 
-0.0311481930131858 
-0.02735354834605454 
0.03702139626740562 
-0.02735354834605454 
0.01236019765858054 
-0.01504595378977772 
0.03702139626740562 
0.05796412976583028 
0.03165274308022675 
0.03165274308022675 
0.03168900966495696 
0.01494034318105864 
0.04886288421739691 
-0.008007230847644953 
0.03930647940816392 
0.007168156727485423 
-0.03024950769701312 
-0.01875643205503167 
0.1196043499237756 
-0.01022959590155082 
0.0345492395073603 
0.03156813110887544 
0.03675490246811326 
-0.05957596850341994 
-0.01401944701569927 
-0.05012912179472655 
-0.05957596850341994 
-0.0001130769404609202 
-0.05957596850341994 
-0.02085187128428091 
0.06371350127892292 
0.09104184255079593 
0.03546261883874075 
0.03546261883874075 
0.005536939331396575 
0.06371350127892292 
0.005536939331396575 
0.005536939331396575 
0.04322974097277834 
0.06371350127892292 
0.005536939331396575 
-0.0008618921564832304 
0.06029960931887531 
0.06029960931887531 
0.002642197691532895 
0.06029960931887531 
0.008473046664067747 
-0.1351697132467247 
-0.08705982672178753 
-0.01061989318598301 
-0.1417314051558306 
0.04300886637112117 
0.02310207692958455 
-0.009294118958193438 
0.003147882335894388 
-0.0040612091821935 
0.0001419995953548156 
0.0001419995953548156 
0.000238714715476882 
0.07229567048573426 
0.05652116590097468 
-0.01554024173898006 
-0.07251636880914164 
0.07427147386040134 
0.07237081691748454 
0.04317884970026947 
-0.01436949674797289 
-0.01436949674797289 
0.09027732133729546 
0.05174351474714209 
0.04332249885839265 
-0.06524892637523116 
-0.02953080655840837 
-0.05717186136775664 
-0.01005822156007929 
-0.03297417954818573 
0.003322139799004342 
0.008751616972571905 
0.003322139799004342 
0.01274249343888677 
0.008751616972571905 
-0.02566764902291001 
0.00831344661289973 
0.003322139799004342 
0.00831344661289973 
0.008751616972571905 
0.002831861312355342 
0.009059235285466819 
0.009171541934344635 
0.008751616972571905 
0.1171230088398517 
0.003322139799004342 
0.00831344661289973 
0.1208817255102258 
0.0574311312970494 
0.0406273670429458 
0.0406273670429458 
0.1612862834964194 
0.0406273670429458 
0.1612862834964194 
-0.002263631429845292 
0.1476366119971695 
-0.01652442138468423 
0.05968040801352698 
0.0002004848478802585 
-0.01475919980031553 
0.0002004848478802585 
-0.01475919980031553 
0.003133379550983937 
-0.02866167653438483 
0.00281043436600437 
-0.03616629768536716 
7.884985150896774e-05 
-0.01689399595151827 
-0.03616629768536716 
0.002426118670033533 
7.884985150896774e-05 
7.884985150896774e-05 
7.884985150896774e-05 
-0.03616629768536716 
-0.02619978144901874 
-0.02619978144901874 
-0.1865296968397462 
-0.02619978144901874 
-0.1879558893547004 
-0.09879300676647262 
-0.1865296968397462 
-0.02619978144901874 
0.01520808130443324 
0.06668307668451547 
0.06025347900606961 
0.03253308517472368 
0.06377073915371129 
0.01288245764148908 
0.01434587018536825 
-0.0783600661711356 
-0.0783600661711356 
-0.02474867931498571 
-0.00808631484867558 
-0.02474867931498571 
0.05312985981771489 
-0.0783600661711356 
0.05430801762684657 
0.05430801762684657 
-0.07804499498866509 
-0.009842392098596711 
-0.06725740085222165 
0.06301975449365681 
0.06301975449365681 
-0.01999362923052607 
3.211075731374848e-05 
-0.008161279851151608 
0.06301975449365681 
0.0173747141713395 
0.06301975449365681 
0.0173747141713395 
0.2298167094891341 
-0.00609853894043534 
0.0300211026884983 
-0.000306179040481567 
-0.03748663366240779 
0.005312624482700801 
-0.0005018618587837501 
-0.0005018618587837501 
0.001781523801329357 
-0.001738717385967902 
-0.002925008606570675 
-0.04543480723541653 
0.04201974530895934 
-0.006789265888296542 
0.05153394143169381 
0.000460133678751391 
0.000460133678751391 
0.000460133678751391 
0.000460133678751391 
0.000460133678751391 
-0.04844901671292488 
-0.0001775911061311864 
0.02376281783715584 
0.01547866646757189 
-0.0001775911061311864 
0.003747289172126263 
-0.0001775911061311864 
-0.01433282061224208 
-0.0001775911061311864 
0.0170950497815812 
0.0170950497815812 
-0.0001775911061311864 
0.02376281783715584 
0.0170950497815812 
0.0002818738324323796 
-0.0002831527155949886 
0.1406404773652714 
0.01039009775551472 
0.01093167222953483 
-0.0008576199227820564 
0.0005236691781470668 
0.0002818738324323796 
0.0002818738324323796 
0.0002818738324323796 
0.0002818738324323796 
-0.04127243360620195 
-0.005861822897767048 
0.0004978129202595702 
-0.03335112316530202 
0.0002818738324323796 
0.007545086683983205 
0.0002818738324323796 
0.0002818738324323796 
0.07142895774025598 
0.04520324808829239 
0.047221263430322 
0.007692950677290193 
0.03214058603014918 
0.047221263430322 
-0.01779305972573918 
-0.021245143136413 
0.02571586601714348 
0.0005591599483916057 
0.0005591599483916057 
-0.005379088446921945 
-0.003167273343380613 
0.06231760742147918 
0.06533355652334888 
0.06231760742147918 
0.0005591599483916057 
0.0221791542928268 
0.01273140273338358 
0.02571586601714348 
-0.003217569447959373 
0.01257716141043534 
0.03428153919354082 
-0.005910362760319778 
-0.002719281344251392 
-0.005910362760319778 
0.1441916731152288 
0.0910048343330887 
-0.003217569447959373 
-0.003043471620422518 
0.0001189728454547055 
0.1323580404447103 
0.004865395325715234 
7.873319952335357e-05 
0.004865395325715234 
0.004865395325715234 
0.004734508283593147 
-0.007278889716199373 
-0.006895465645193879 
-4.798281501530091e-05 
0.06547743307888332 
0.001940120397707274 
0.001769334919465886 
0.0007463561142881207 
0.06547743307888332 
0.05297181314983174 
-0.0817394599685935 
0.0002037591646227929 
0.06547743307888332 
0.02344902337477065 
0.001769334919465886 
0.001769334919465886 
0.03179811316659077 
0.01389112494782611 
0.007274660689531678 
0.0444649973103738 
-0.004300004202162675 
-0.01421147435537488 
-0.06950999331199675 
-0.006368249718502876 
-0.03309462193996215 
-0.03015937324723932 
0.05205014143487192 
-0.03982486469704748 
0.05241340573748936 
-0.03015937324723932 
-0.01422050789207947 
-0.03176531930327426 
-0.04930756298649613 
0.05205014143487192 
-0.005894724201000627 
0.03472831241997925 
-0.0004837305475185876 
0.09975504421652563 
-0.0004837305475185876 
-0.0004837305475185876 
-0.005675752398274708 
0.03994672762883866 
-0.005675752398274708 
0.03994672762883866 
0.03991957649454356 
0.000561436964734905 
-0.0008991024748516143 
-0.0008991024748516143 
-0.0008991024748516143 
0.000561436964734905 
-0.0008991024748516143 
0.03930889110352815 
0.03930889110352815 
0.1677561042964688 
0.06033476951577003 
0.0008339289676359838 
-0.01562130964141136 
0.05382673958597024 
1.022975833224703e-05 
-0.06543891161458688 
-0.0086256230181964 
-0.0086256230181964 
-0.009483055961789895 
-0.0086256230181964 
0.0272679693351193 
0.0005661390605777222 
0.0008339289676359838 
0.08979731335512608 
0.02610290888687802 
0.03849749596586605 
0.03849749596586605 
0.03140090480500077 
0.001794341242577347 
0.03849749596586605 
0.07614510566465278 
0.001821657812912827 
0.03811125291562203 
0.02610290888687802 
0.0002071990159254503 
-0.06884563336608301 
-0.02781632386281187 
0.03655500863663384 
0.0002071990159254503 
-0.006320839716190213 
0.009968229322322972 
0.0002703837485965075 
-0.06741299195970835 
-0.01351797503556959 
0.1701380869236583 
-0.0971138193605065 
-0.04761055529608374 
-0.04761055529608374 
-0.001535790443825972 
0.004341369788440953 
-0.02122320540666427 
-0.04761055529608374 
-0.003834240279663149 
-0.0001976530520724125 
0.004341369788440953 
-0.001535790443825972 
0.04471807019971755 
0.0004481443092397168 
0.1154223117856079 
-0.01888579255467759 
0.01443259882094661 
0.04346375480294503 
0.1154223117856079 
0.01364374435423304 
-0.01399570359044795 
0.1154223117856079 
0.004349562565111813 
0.0004481443092397168 
0.01364374435423304 
-0.01151012309054186 
0.004999904420376371 
0.02359773354411035 
0.04154850934030507 
0.0002067241360730173 
-0.01151012309054186 
-0.01029896874437075 
0.0009440703628747395 
0.0002067241360730173 
0.02383298198869927 
0.0002067241360730173 
0.001633030324395274 
-0.03085938762100811 
-0.002734908928203864 
-0.001412662852641708 
-0.02520758061159024 
-0.01889370700480734 
0.02836587115489864 
0.01295166427576671 
-0.001454826071824094 
-0.04278934290551491 
0.04145680695884153 
-0.0008341759179261325 
0.04145680695884153 
-0.0008341759179261325 
0.06374108106557161 
0.02836587115489864 
-0.000570143304660415 
-0.0001780539753558419 
0.04145680695884153 
0.0657735264159236 
5.285084526872493e-05 
-0.01935676044188464 
0.03575001842828504 
0.05398265437987604 
0.0007687619317368751 
0.0007687619317368751 
0.001878312401914425 
-0.003137211053618898 
5.285084526872493e-05 
0.001878312401914425 
0.001878312401914425 
0.0185491303753145 
0.004710515352771715 
-0.01784865362888497 
-0.008060934932219491 
-0.003208898317083295 
-0.006474700231302647 
-0.003208898317083295 
-0.04555534373448495 
-0.01831204879203531 
-0.01872462157503542 
-0.01872462157503542 
-0.03072413155366177 
0.02170472342586882 
-0.0799438637729038 
0.04946643456708358 
-0.01872462157503542 
-0.02128765270347026 
0.02231106874439338 
-0.02128765270347026 
0.0172267832248247 
-0.01872462157503542 
-0.01831204879203531 
-0.01831204879203531 
-0.01872462157503542 
-0.007501958987305768 
-0.007738842699035183 
-0.007738842699035183 
-0.02144172833011398 
-0.02444974557492628 
-0.007738842699035183 
-0.0111720516662363 
-0.02616065394845475 
-0.009321993029768187 
-0.02901914120869171 
-0.007738842699035183 
-0.007738842699035183 
0.003855464063348812 
-0.1796393349827262 
-0.002636830516964067 
-0.166346166899997 
0.004874678791553049 
0.04991988230281443 
-6.109257341988721e-05 
-6.109257341988721e-05 
0.05108253976793468 
-0.001028923485943679 
0.004874678791553049 
-0.002294900563315274 
0.004874678791553049 
-0.001316890279470949 
-0.003659260627958153 
0.01994839375476264 
0.00399791213307352 
-0.03869845050543175 
-0.003659260627958153 
0.02025737318722722 
-0.001316890279470949 
-0.001708615459599168 
-0.001501106685087728 
-0.0322508714336438 
-0.01060133987092855 
-0.00152055860651328 
-0.001573153264964518 
-0.004828227076088019 
-0.005038881935062845 
-0.0106916749592972 
-0.04801580266582611 
-0.03542024106653503 
-0.04091673725350607 
-0.04091673725350607 
-0.008582579111013634 
-0.003044630245727277 
-0.000775200159577934 
-0.008582579111013634 
0.01464668509004675 
-0.008582579111013634 
0.00606078833370861 
0.0296271031630227 
0.0001993492314267362 
0.07433294475978722 
0.06698725266417652 
-0.003022327152831589 
-0.004045962637747601 
-0.03657490872610838 
-0.003022327152831589 
0.002358257798129427 
0.0296271031630227 
-0.00594211390701011 
0.07647041391258053 
0.07643329722207766 
0.00918111545117198 
0.002786760960395832 
0.00918111545117198 
0.00111067671275516 
-0.01601652354873321 
0.03726009072390928 
0.03542249490054118 
0.0004772479138190834 
0.0004772479138190834 
0.01171024136175199 
-0.002740904449268053 
0.00918111545117198 
0.00918111545117198 
0.002786760960395832 
-0.0009430095342046385 
-0.0007914153941014356 
-0.02613454494650547 
-0.0002830362793458864 
0.007629859523214823 
0.01326736905304206 
-0.0002830362793458864 
0.05047302758120754 
0.0080685415724204 
0.0080685415724204 
-0.01086456413921768 
0.0002907600924776941 
-0.01366653789707264 
-0.0352177327138199 
-0.01144880794655609 
-0.1481588145317813 
0.01337514727837604 
0.01314249414331897 
0.01337514727837604 
0.01314249414331897 
0.0137038862147342 
-0.09904685580049608 
0.01337514727837604 
-0.1481588145317813 
-0.01282658526938852 
-0.01433060364228576 
0.00210680161611022 
-0.009493364588855042 
-0.01282658526938852 
-0.03308140697605313 
-0.01282658526938852 
0.07309059641470389 
0.0002187436877081926 
-0.03135289187158773 
-0.01656458790397966 
-0.02511713782852938 
0.1511033543873834 
0.08214131299323735 
0.07775602806571794 
-0.01277796269300993 
0.0812814725632062 
-0.01656458790397966 
-0.00172003015780339 
0.0002836648767754412 
0.0002836648767754412 
0.0002836648767754412 
-0.0007428792258012627 
-0.006265427426319732 
-0.002325260454693232 
0.0002836648767754412 
-0.002325260454693232 
-0.0007428792258012627 
0.0002836648767754412 
-0.0007428792258012627 
-0.006265427426319732 
-0.03987208772877676 
0.135206544247525 
-0.006265427426319732 
0.0002836648767754412 
-0.02890601885170519 
-7.005150286635932e-05 
0.04948240882720938 
0.04948240882720938 
0.04948240882720938 
0.00727664191852288 
0.08832606843240459 
-0.01119700721370278 
0.02142021310614063 
0.00727664191852288 
0.04767830318839501 
-6.363399919250611e-05 
-6.363399919250611e-05 
-6.363399919250611e-05 
-0.01556381081909707 
0.02749597568660829 
-6.363399919250611e-05 
-0.0006233631135379924 
-6.363399919250611e-05 
-0.01857494675384801 
0.02753242800375517 
-0.1782473841421494 
0.03705068215760084 
0.05423385140692796 
-0.1782473841421494 
0.01239003482123164 
-0.01857494675384801 
0.03043923172420401 
0.01239003482123164 
0.01239003482123164 
0.06354836565340037 
0.00352238774518515 
0.01307635999827001 
-0.1782473841421494 
0.03926301785948193 
0.004263502543732972 
0.004045696798564 
-0.00184666742848078 
-0.03384631238346145 
-0.03369197862671691 
0.004263502543732972 
-0.00184666742848078 
-0.03286988156364271 
-0.1237759764768028 
-0.1557821284547078 
-0.2365749450755271 
-0.1557821284547078 
0.08376335683996 
0.09362870941523704 
0.06808762313162359 
0.02783645438609711 
0.03463567366333579 
-0.1557821284547078 
0.06500699865224029 
-0.003360938344716437 
-0.0793903944918106 
0.04512704805103233 
-0.001355495849880176 
0.003684302552665927 
-0.009769548989927674 
0.04512704805103233 
0.03824401994981678 
0.00701107486100166 
-0.009769548989927674 
-0.001205315046004619 
-0.00101882756388977 
0.04512704805103233 
0.02745130043043385 
0.0119181213666102 
0.03309741193371317 
0.00473458289898955 
-0.007124075793396549 
0.0002075491445442786 
0.0002075491445442786 
0.0002075491445442786 
-0.003685969443891697 
0.0002075491445442786 
-0.001772567616515644 
-0.05036475922013119 
-0.05036475922013119 
-0.05197450882806832 
-0.02141497181765604 
0.01674693525307402 
-0.03510000941921407 
0.01674693525307402 
-0.03510000941921407 
-0.01696185505193572 
0.04728319641879801 
0.0314130193784953 
0.04082019562702621 
0.02013663589172853 
0.1083955984342663 
0.04082019562702621 
-0.01213295283837531 
-0.04226019186642014 
0.01224652254117977 
0.04082019562702621 
0.02013663589172853 
0.0005867079922179864 
0.000955679797418411 
0.008294825641487112 
0.03131061187252517 
0.0002695575512053395 
-0.009247445771423092 
0.0002695575512053395 
-0.004692250105714208 
0.1418713783105561 
-0.01553455215538786 
-0.003977315294077622 
-0.01169354769770255 
-0.01167041041774749 
0.0002695575512053395 
0.1035221425016275 
-0.05797329889841594 
-0.00314724004888779 
-0.05797329889841594 
0.1035221425016275 
-0.05797329889841594 
-0.011879193042069 
-0.00362136718760366 
0.103057856129274 
0.02554984936215723 
0.003733721254193678 
-0.0001141721520842725 
-9.577730835803311e-05 
-9.577730835803311e-05 
0.0002708647781405637 
-9.577730835803311e-05 
-0.004236043012031584 
-0.004236043012031584 
-0.02789941430942706 
-0.1572438523468294 
-0.139937103774083 
-0.004236043012031584 
0.01299403364645086 
0.04052434036008182 
