solver_type L2R_L2LOSS_SVC
nr_class 2
label 1 -1
nr_feature 109723
bias -1
w
0.02678422344071997 
-0.6599827859404422 
-0.2218126045280497 
-0.09194740119932676 
0.03127580551212607 
0.02927688798158738 
-0.002138322606076874 
-0.08341766716307836 
0.3055785511019833 
0.4787794897612626 
0.445363055674415 
-0.008031820883432093 
0.4805119772199333 
-0.05954934399947124 
0.4787794897612626 
-0.09159443362139405 
0.02118778816927396 
0.04112073158680055 
-0.02040644069373964 
0.2249252774887932 
-0.002138322606076874 
-0.0004047959287338462 
0.05918536231925595 
-0.1089762561467177 
-0.3571829642724076 
-0.03835373288824824 
-0.009390135395068147 
-0.06077194718382979 
-0.009390135395068147 
-0.009390135395068147 
-0.1089762561467177 
-0.6823148799841738 
-0.1089762561467177 
0.05918536231925595 
0.0001890740271184679 
-0.1415089113581564 
1.06729302506113e-05 
0.05918536231925595 
-0.002367980852809303 
0.07168073910610769 
-0.02083259413407949 
0.06565184443074387 
-0.002367980852809303 
-0.1152992208303778 
-0.1021473947107476 
0.05478910754090668 
0.05453522798244242 
-0.1191055139735869 
-0.006790372156848187 
-0.002367980852809303 
-0.0911638725456631 
-0.2270800460194681 
0.105146117399222 
-0.009979116944255384 
-0.003049512856271856 
-0.01697822615574702 
-0.0362081940637394 
-0.001053776580576926 
-1.021541621215626 
-0.002086385176513072 
-0.01005561719798785 
0.05217554313102569 
0.3008715297531737 
-0.02153073708010101 
-0.02931703053158288 
-0.06387947968659143 
0.2367730179321321 
-0.03366825074176762 
-0.03235196857483634 
-0.05002886781620188 
-0.1228916144357859 
0.1712716806828906 
-0.1470516892714008 
0.1358713970492389 
0.006577107677646533 
0.02948751109697153 
0.2685795612409303 
-0.05208907715467875 
0.02920126381105089 
-0.008744431323434181 
-0.03593487262676946 
-0.2068329747338554 
-0.07282361911393792 
-0.08032206388878818 
-0.05882907261667645 
0.01253519928934227 
-0.04249580346974539 
-0.02724918697014668 
0.111635854830078 
0.1180354240332757 
-0.07510958964944577 
-0.08564342541413862 
0.02920126381105089 
0.2685795612409303 
-0.03575513384428856 
-0.03938023641498666 
-0.01895086349907732 
-0.02041744912846145 
-0.01016389639901317 
0.2111008150578735 
0.06899205456570001 
-0.02504758744937798 
0.2853198245230145 
0.06899205456570001 
-0.02504758744937798 
-0.01016389639901317 
0.04679903271314789 
0.2175079139352516 
-0.07865839860862971 
0.06899205456570001 
-0.01946385671197961 
-0.009589125466996643 
-0.009589125466996643 
-0.01016389639901317 
0.2328264329662107 
0.03098418211766952 
-0.03258650931936962 
0.06899205456570001 
0.06899205456570001 
0.3284320896375706 
-0.05011755742925339 
0.06377090372719457 
-0.01589604121279492 
0.006695352147738337 
-0.03837794776605943 
0.01252046312807543 
0.01252046312807543 
0.3135729330647883 
0.4032983398384561 
0.01173094358081548 
0.1555723505326331 
0.5168346459302313 
0.009837971602810431 
0.01252046312807543 
0.1761573753586714 
0.01252046312807543 
-0.4089057113639928 
0.04210275324735049 
0.01679831838728334 
-0.6817914207602612 
0.05418032994705989 
0.01769874186277154 
0.1234239602430918 
0.3655165661097616 
0.003934678546815852 
-0.02341738064814348 
-0.05250918384640556 
-0.009761411421914562 
-0.01479391581644242 
0.05114215772572586 
0.01662724075996776 
-0.1027057607623836 
-0.1391791949583698 
0.1129377663331999 
0.009315846283958339 
-0.1626818575441819 
-0.6727038577746287 
-0.1391791949583698 
0.000337151606649271 
0.02330303863050124 
-0.1391791949583698 
-0.1100600217549816 
-0.1884724408559741 
-0.02153605808475516 
-0.01479391581644242 
0.1606604415595722 
-0.01479391581644242 
-0.07031289431307379 
-0.01479391581644242 
0.05349317532709429 
0.0406803465561662 
-0.08739012089551934 
-0.0501332403650741 
0.0001853113872080881 
-0.001540254688227089 
0.06615111262952132 
-0.05104749992168399 
0.06701025969323501 
0.03714973722519524 
-0.02983687016891617 
-0.0003804158566588611 
-0.0003804158566588611 
-0.2715281013578704 
-0.07144226755813024 
0.04641318790753775 
0.08937787320806918 
-0.07599729408774006 
0.1041726141537676 
-0.004888675774939061 
0.2754208666026447 
0.43120836556613 
-0.0405890812881714 
-0.01161596331667995 
0.001256346814603997 
0.02703198982701535 
-0.01161596331667995 
-0.003809087720727487 
-0.05670232887733647 
-0.01017430582687928 
0.09499457556728348 
-0.02277470383703642 
-0.004888675774939061 
0.06614898426888542 
-0.01142241333957608 
-0.004888675774939061 
-0.2348248202434631 
-0.005488328035321984 
-0.004888675774939061 
-0.0188018996298854 
0.1440393826158387 
0.01648272801425006 
0.02468050801127646 
-0.1775911784348784 
0.006795860081292474 
0.0005889542812161043 
0.006795860081292474 
-0.3894465482052881 
0.1859480246888924 
-0.1034548690036428 
0.04819197922891336 
0.003449171427439253 
-0.3894465482052881 
0.1541033395621239 
-0.1789709823350846 
-0.00131340224238877 
0.0005889542812161043 
0.006795860081292474 
0.006795860081292474 
0.003449171427439253 
0.0005889542812161043 
-0.1789709823350846 
0.0005889542812161043 
-0.00131340224238877 
-0.005823640848133822 
-0.05725873533132816 
-0.05102969248067066 
-0.0005455593711054353 
-0.03911880044417541 
-0.0005455593711054353 
0.003548567633197324 
0.07456503895873855 
-0.1331310145425905 
0.02485975217767591 
-0.01626281642354607 
-0.1017972485888275 
-0.0005455593711054353 
-0.08810641158805564 
-0.001242278893272657 
0.04370405017415749 
0.01694367453647306 
-0.237841810312495 
-0.01715902384274564 
-0.04405749276650311 
0.00187326989512117 
-0.0414421419771606 
-0.1584931098370407 
-0.01826279804702561 
0.0003188150108028604 
-0.002655482404449586 
0.09299624290316337 
-0.01428512190847946 
-0.4865766661934645 
0.01064051867835385 
-0.07882622100849569 
-0.05816887287628446 
0.02397081600794568 
-0.010529040102961 
0.03528543026323855 
-0.03169463920687748 
-0.05406678114177724 
-0.0352124223013679 
0.5600766797922798 
0.2070223452730538 
-0.0851629791515647 
0.148733742197784 
-0.9286505474150342 
0.001201312005030307 
0.03429957425649865 
0.1545597518354617 
-0.1155175653076727 
0.4797617979383779 
0.5600766797922798 
-0.02615407900941828 
0.006988233353626364 
-0.03734862933323738 
-0.02615407900941828 
-0.02615407900941828 
-0.02615407900941828 
0.06783048186411496 
0.2039800819033486 
0.008490853071979856 
-0.1155175653076727 
0.03422876449661074 
0.08274920483908182 
0.07403710467432642 
-0.08125854248190437 
0.08274920483908182 
0.08274920483908182 
0.01404054033811332 
-0.04963198976716854 
-0.1112963221584617 
-0.06628757088047242 
0.01690408006815788 
0.08315221067496219 
-0.001060570113365739 
-0.01714305149735634 
0.02527424269731575 
0.3545699172400009 
0.0307082023050957 
0.02325928082620791 
0.06557876199175455 
0.04485228983000941 
-0.02466578737446853 
-0.02466578737446853 
-0.01270744926905954 
-0.05623534410235018 
0.3423505121065866 
0.2088794540094002 
-0.02005997899852632 
-0.01270744926905954 
0.01949777882913715 
0.1766807496487993 
-0.02466578737446853 
0.05268039296004619 
-0.01358561201142713 
0.5126816763046433 
-0.01358561201142713 
0.141871240370801 
0.141871240370801 
0.06611438330336784 
-0.01358561201142713 
0.08898399487090285 
0.08210073649537761 
0.05259327633026921 
0.08474044321874739 
-0.01412876273873317 
0.08898399487090285 
0.01221882874934112 
0.04619314801328913 
0.1063126722805081 
-0.07197022190990522 
-0.05534860634015119 
-0.02819264959869355 
-0.1132123998694089 
-0.02008427139738051 
0.05592858447511988 
-0.02819264959869355 
0.02756650516300166 
-0.07591357861827837 
-0.02046992859040156 
0.8851781127758361 
0.008475462370839109 
-0.04196750066061212 
0.01866523342054105 
0.008475462370839109 
0.01598747493353055 
0.06986964512054708 
0.008475462370839109 
0.01513476195945305 
-0.0154785479728667 
0.4224088320545737 
-0.4986184715149302 
0.1966058414678199 
0.02756650516300166 
0.0767401296226442 
-0.02046992859040156 
-0.02046992859040156 
-0.07813019426098894 
0.01457374424057843 
0.1966058414678199 
-0.07201234426899694 
0.1854148578204687 
0.001861964615183244 
0.1513581290736671 
0.001861964615183244 
0.001861964615183244 
0.001861964615183244 
-0.150863701989982 
0.07474315161073034 
0.1141256039805091 
0.03669504047052081 
-0.004073219070992784 
-0.2788650126467798 
0.007448823810291568 
0.02949059571090341 
-0.04989198100109975 
-0.00356514339701801 
-0.005227249747552443 
0.1676676468772931 
-0.03567401947363598 
-0.1433782562468451 
-0.03986024549265407 
-0.009564812265596075 
8.102902152692069e-05 
-0.03124577458311856 
-0.01641689090814974 
-0.009940706034123311 
0.192914747625352 
-0.04570829024491514 
-0.01641689090814974 
-0.005227249747552443 
0.2572745800287907 
-0.01641689090814974 
0.3497970686364731 
0.086256551658936 
8.102902152692069e-05 
-0.01641689090814974 
0.02895654978030868 
0.08662111445527515 
-0.1433782562468451 
0.003123488301464705 
0.2694940022537879 
-0.05790563448872267 
0.06189581491234859 
0.006256461474472921 
0.03276368741146414 
0.004440818499148878 
-0.04929391226425327 
0.1613879838580229 
0.0005961792737571602 
0.02746939586773269 
0.006256461474472921 
-0.6318523818209457 
-0.02191078632531751 
-0.007993411527918215 
0.006256461474472921 
-0.02222611822709046 
0.00659369519741226 
-0.02222611822709046 
0.1644529593553272 
-0.05822981793712392 
-0.04138517128911469 
0.2369717718187672 
0.006570888296734077 
-0.5849174421159636 
0.006570888296734077 
0.01687215898063548 
0.006570888296734077 
0.1505462743135884 
-0.001116077225955297 
-0.1288887660586165 
-0.009801457857465029 
-0.03638394024992093 
-0.1288887660586165 
0.02649944481141718 
-0.1288887660586165 
-0.07255981322062947 
-0.1288887660586165 
0.01173254967539886 
0.001285461268715225 
0.03692440169278535 
-0.1288887660586165 
-0.009801457857465029 
-0.04550048801540785 
0.06882430015755618 
-0.1540317744842194 
0.1563293504796198 
0.07782892201032846 
-0.03098842047411476 
0.09950889683022439 
0.165436270582887 
-0.1540317744842194 
0.02033122500192337 
-0.04550048801540785 
0.05643916407825303 
-0.1540317744842194 
-0.1540317744842194 
0.2549423585208505 
-0.1540317744842194 
-0.046247193890542 
-0.04550048801540785 
-0.005673115232851321 
-0.1540317744842194 
-0.1444864247680779 
-0.02975568077239487 
0.003187288403613928 
0.2254663565077226 
-0.0152078057715618 
0.0390782221515097 
-0.03519956381704496 
-0.0152078057715618 
-0.1444864247680779 
0.2333055739993297 
0.01397406661093678 
0.0621706138137862 
0.01397406661093678 
0.003187288403613928 
-0.04944572228977163 
0.01397406661093678 
-0.1403869612324078 
-0.01412179774043142 
-0.004856760065534214 
-0.01412179774043142 
-0.03766707365940378 
-0.117515384081149 
-0.01381521557318103 
0.03018030886490752 
0.2111928927006693 
-0.05850066966235275 
0.03413499084930902 
0.1029669210024486 
-0.07427935766366679 
0.1008277949437378 
0.1008277949437378 
-0.04121753218390402 
0.02855798075429872 
0.03959463685244019 
0.02780943233129284 
-0.06781942033799247 
-0.01652189870525354 
-0.009245786266263861 
0.1269850132807948 
0.03018030886490752 
0.03959463685244019 
0.01099849393094952 
-0.009245786266263861 
-0.0793365720622405 
0.005229262483907305 
0.1560192679756519 
-0.194290057085467 
-0.0007895195472599498 
-0.0688415931430027 
-0.01268240369482856 
-0.2230994052054444 
-0.0793365720622405 
0.08498494181671154 
-0.0007895195472599498 
-0.0007895195472599498 
-0.0793365720622405 
0.0314132559144847 
-0.02809606749187346 
-0.02809606749187346 
0.007817560763382145 
-0.04625362489459898 
-0.0007895195472599498 
0.09969817276623918 
-0.003989950344405749 
-0.3005562812231811 
-0.09957740046355824 
-0.0194746845684514 
0.0002443176517187597 
0.09808059422592109 
-0.008765000194525282 
0.5301133616482122 
-0.06880801739314463 
-0.1004328643834296 
0.06056951562597618 
0.081600605145632 
-0.03311523588278661 
-0.09120669043919459 
-0.06815550842818657 
-0.02856120200746901 
-0.02856120200746901 
0.04497804888054546 
-0.06249807991044073 
-0.02677612314084083 
-0.06822630085044851 
-0.07109220676101569 
0.004826381798098424 
0.3566889680595529 
-0.1108149937855457 
-0.001372408408979941 
-0.001372408408979941 
-0.03902043585327187 
-0.1577559070466109 
-0.08387289463373312 
0.07655399515736665 
-0.001372408408979941 
-0.05612731107135213 
0.07655399515736665 
0.07655399515736665 
-0.001372408408979941 
-0.1202901328421328 
0.2702589568940629 
0.08958977933075349 
0.004826381798098424 
0.07655399515736665 
0.07655399515736665 
0.3566889680595529 
0.01155548407834888 
0.2657756927511466 
0.02234579596930611 
0.1581248833816859 
-0.009008943596105885 
-0.08964126543238017 
0.2307394303396882 
0.3447060416576307 
0.01851108934873471 
0.01851108934873471 
0.02941242057226898 
0.161361129096571 
0.09545653338280352 
-0.100404679011033 
-0.08723933153316805 
0.1581248833816859 
0.01851108934873471 
-0.00145890555968411 
0.01851108934873471 
0.1581248833816859 
-0.00145890555968411 
-0.00145890555968411 
-0.00145890555968411 
-0.04142729052567758 
0.07601158652698178 
0.01575212354087255 
-0.02878975922082745 
-0.01458705120738182 
-0.03771601199838266 
-0.06252879850784521 
-0.03451459126764401 
0.02501623757094856 
-0.03451459126764401 
-0.03451459126764401 
-0.3914136787594654 
-0.3869065763417818 
0.0005035268380163454 
-0.11098170106205 
-0.07660490987834763 
-0.11098170106205 
-7.531108092436171e-05 
-0.11098170106205 
-0.005580882064009179 
-0.05998352070248279 
-0.05998352070248279 
0.0486087715504584 
-0.01138827568239914 
0.05984222436131798 
-0.05314448984303607 
0.07643024550686851 
-0.02120305445417853 
-0.1144776081631179 
0.04227824603932751 
0.03674184310524747 
-0.05850463957068908 
-0.05905522743197204 
0.003626858332604997 
0.03674184310524747 
-0.1558859225299547 
-0.05319327416006678 
-0.08319890337093938 
-0.1558859225299547 
-0.1558859225299547 
-0.07592995897893798 
-0.1558859225299547 
-0.007582912053996315 
-0.07592995897893798 
0.003626858332604997 
-0.1558859225299547 
0.03674184310524747 
0.00450192092304657 
0.1234445566929984 
0.00450192092304657 
0.2705399039416587 
0.04106032512630336 
0.0972796974131554 
-0.05557434983075941 
0.00450192092304657 
-0.05035783095690685 
0.00450192092304657 
0.332822252791335 
-0.01673691488788307 
-0.0087736155656349 
0.02547800097412258 
-0.004573097192588523 
-0.00775206154310895 
0.03488830008439633 
0.03488830008439633 
0.09070521783820205 
-1.000307459285445 
-0.004573097192588523 
-0.004573097192588523 
-0.004573097192588523 
0.08157980965496606 
0.01142571143174129 
0.04025990188389836 
-0.003394248990890975 
-0.005589492599168125 
0.01396552102144756 
0.01396552102144756 
-0.02176853857497322 
-0.2085964797128363 
0.01396552102144756 
-0.05531995257781085 
0.003023375429066865 
-0.6751245562451041 
-0.09610420506462937 
0.04025990188389836 
0.4545906652891731 
-0.1746805717330711 
-0.4283954289538497 
-0.09610420506462937 
-0.05531995257781085 
0.09647257925879996 
0.04025990188389836 
-0.09610420506462937 
0.03399340305807125 
-0.00569265919296109 
0.01811879244953538 
-0.07198792493946865 
-0.09563788680679873 
0.2122438847883783 
0.1709997395776647 
-0.09739596371928601 
-0.07198792493946865 
-0.00569265919296109 
0.004062055621353641 
0.004062055621353641 
0.193612866230905 
0.1709997395776647 
-0.03051778211806974 
-0.05686362371575648 
0.004062055621353641 
-0.005509322618190851 
0.0870580748621867 
0.06534338172885139 
-0.06476709369085377 
-0.03917172653270286 
-0.08792895192853827 
0.4794685885797283 
0.04947213645528586 
-0.12774461303593 
-0.1300555824132159 
-0.04128425230461635 
0.03321770605300162 
-0.03525665027861757 
-0.02358783341263777 
-0.4238170402254033 
-0.001900224059962962 
-0.02358783341263777 
-0.03917172653270286 
-0.03697551508667704 
-0.03960737392200428 
-0.0393126386691888 
0.03008720114132363 
0.07688530404945981 
0.04796327329266638 
0.07688530404945981 
-0.04903101325552554 
-0.05415983783204253 
0.07688530404945981 
0.07161077469472457 
-0.04026250268737805 
0.01165929088317338 
0.0004718901726495259 
0.007498158762716554 
0.01198086809266687 
0.04989488213312898 
-0.007841720651696978 
-0.04634399958349544 
0.002885128462901162 
-0.09534668638620819 
-0.0007036534053896849 
0.03290410704273355 
-0.007841720651696978 
0.002885128462901162 
-0.007841720651696978 
-0.1105666101317881 
0.002885128462901162 
-0.02648094880157842 
-0.08220864536171309 
-0.02770085107679427 
-0.07298590262033278 
-0.2844103642499931 
-0.007115862491430233 
-0.02636403463931236 
-0.2895958509865448 
-0.02608530267986978 
-0.03248797402084708 
-0.2895958509865448 
-0.009351619962855637 
-0.2844103642499931 
-0.02608530267986978 
0.08069349414676982 
0.05171804138386 
0.2542334629706186 
-0.0366515205496681 
0.001166822321960505 
0.001166822321960505 
-0.04276855248361832 
-1.136902535500716 
0.002922308642265607 
-0.02180362251669094 
-0.03949578186778797 
0.005919346054285892 
-0.03949578186778797 
-0.0632596785107354 
-0.1023185971064279 
-0.07028656000478407 
0.09297984584103157 
-0.1040457388057966 
-0.07006710424258461 
-0.01881166332413395 
-0.07006710424258461 
0.0008506450910798738 
0.05990898087123389 
-0.3708851245951045 
0.3233933708890286 
0.0316363229310363 
-0.0366610455059229 
-0.07006710424258461 
-0.3708851245951045 
-0.3708851245951045 
-0.3087249038108977 
-0.004409665985858784 
0.06888506749642173 
-0.00793599159709309 
-0.1333322546193362 
-0.00793599159709309 
0.1264557890200761 
0.2672047298345206 
-0.00793599159709309 
0.008732284202101735 
0.008732284202101735 
0.07500670522034547 
-0.1198391554785476 
0.08080686699995406 
0.008732284202101735 
0.140334516008886 
0.1306524932982644 
0.06888506749642173 
0.1737091532160882 
0.08080686699995406 
0.08080686699995406 
0.1059290888005548 
-0.008702315656862081 
0.05134785855174354 
-0.02399565863856991 
-0.008702315656862081 
0.04681819104570587 
0.05134785855174354 
0.1895448556217159 
-0.008702315656862081 
0.1428677317213386 
0.1428677317213386 
0.2274372821152171 
-0.02170288612252774 
-0.02170288612252774 
0.1008246466841677 
0.05134785855174354 
-0.02170288612252774 
-0.1788701474019996 
0.03027216340198123 
-0.0593977084770848 
-0.1162225426851595 
-0.0001855928971218291 
0.03581205338490392 
0.008699872902891074 
-0.0003226227132916413 
0.08644694755570261 
-0.1162225426851595 
-0.0003226227132916413 
-0.6732174476330298 
-0.1085354255639796 
-0.1162225426851595 
0.02946796789613624 
0.06567718469506578 
-0.008492927993895855 
-0.1763083694074505 
-0.05252305603380089 
-0.0581555390572133 
-0.1763083694074505 
0.08144811778858638 
0.07971301648818721 
0.003119883169757671 
0.1406970714369779 
-0.06717567234276728 
-0.09549695744457477 
-0.1233447579938308 
-0.009007961524446013 
-0.00239239147732916 
0.3276105606077092 
0.4550208774084732 
-0.0872409473299476 
0.02394202323130322 
0.2371757574868333 
6.249571270713381e-06 
-0.3096056558983025 
0.003534649415569385 
-0.009007961524446013 
0.006138089636865373 
0.3342262618601552 
0.3276105606077092 
-0.009007961524446013 
0.2371757574868333 
0.1964625836795185 
0.02394202323130322 
0.02394202323130322 
0.0324591010255354 
0.5286424586868803 
0.5683547722825008 
-0.04792328926129353 
0.4176243095759641 
0.09625096503153587 
-0.1410271156766573 
-0.04792328926129353 
-0.03651561446386836 
0.008837850654794276 
-0.09458955073785798 
-0.0278446347532013 
0.02590111010880293 
-0.04699392637008095 
-0.008546399602805468 
-0.0278446347532013 
0.09936015801430739 
-0.0006964514192416326 
-0.07960003761194005 
-0.0006964514192416326 
-0.04699392637008095 
0.07815655653831771 
0.1909804069511975 
-0.03133674857337535 
-0.1188845824822127 
0.01323732605168492 
0.09294375253116036 
-0.02516150117631175 
-0.0278446347532013 
-0.3583021560294087 
-0.002631217432031019 
-0.02376243758984593 
-0.2645910625149208 
-0.01415748216019863 
-0.02376243758984593 
-0.01673217011923788 
-0.02376243758984593 
-0.209848880760669 
-0.002631217432031019 
-0.01956923783359984 
-0.295124133420698 
-0.02376243758984593 
-0.002631217432031019 
-0.08396155436443029 
-0.04483162774109982 
-0.06245080982154882 
0.03728959956214314 
-0.1445242547043617 
0.03090841879870513 
-0.09448541284609573 
-0.2663555929033528 
-0.02866138088408236 
-0.02945510075439425 
-0.3186240257342591 
-0.03453340118536954 
0.02923683195779223 
0.006419857750576776 
0.05453908309385554 
0.0004569027659158411 
0.006419857750576776 
-0.5483368431539815 
0.006419857750576776 
-0.3340273233425425 
0.006419857750576776 
0.1536986959834993 
0.007914848947052406 
0.4130048936704409 
0.04140206754211499 
0.218016552681607 
0.05403536036472117 
0.04342716610357866 
-0.06000215052498118 
0.05681969267459979 
0.3906408607371715 
0.1322238185456583 
0.00388325483368986 
0.04506525908209533 
0.1536986959834993 
-0.05688086484842615 
0.1536986959834993 
0.05403536036472117 
0.06531178875811017 
0.01284678576835214 
0.02227942354233086 
-0.002427351092939151 
-0.008928122022383505 
0.265461633015031 
-0.001514399767631503 
0.2966390493181326 
0.1841838073406954 
0.01284678576835214 
0.07037482213262267 
0.035299294868151 
0.07037482213262267 
0.06459390894663129 
0.01284678576835214 
0.01284678576835214 
0.0443158165123173 
-0.0002137174461917565 
-0.0002137174461917565 
-0.0002137174461917565 
-0.05872417355301014 
0.03577141348054029 
-0.02955230917656353 
-0.02955230917656353 
-0.02840376620014541 
-0.07110929618869359 
0.03577141348054029 
-0.02955230917656353 
0.002866075290179694 
-0.02499860586158043 
-0.02376067066069065 
0.05335279697527192 
0.02135231877998453 
0.06917785408104765 
-0.02891512282627935 
0.02989566060188796 
-0.02376067066069065 
-0.777239716118895 
-0.6483166750654121 
0.001405128379030434 
0.002708538789075854 
0.04193125824973254 
-0.03945542229915246 
-0.01268545661529667 
0.008238166165434924 
0.005004303206488949 
0.2223880047158522 
0.005004303206488949 
-0.05856431495377393 
-0.03945542229915246 
-0.01268545661529667 
0.06388142997321754 
-0.1149327276137852 
-0.1034363795374793 
-0.03945542229915246 
0.06114862805847837 
0.4337548391496041 
-0.08330014348885664 
-0.05451434538067385 
-0.02914982892550274 
-0.03945542229915246 
0.005004303206488949 
0.09293392717091017 
-0.2199048701037909 
-0.03284742616537822 
0.1353221349750111 
-0.2199048701037909 
-0.01302162716855383 
0.1202333442166177 
-0.02071023680279667 
0.09293392717091017 
-0.01072624581424459 
-0.02464449711740496 
-0.02464449711740496 
0.0535439148270091 
-0.03284742616537822 
-0.01072624581424459 
-0.01812074000127889 
-0.03284742616537822 
-0.05366536391793822 
0.08337060006072303 
0.05499141104179889 
0.08337060006072303 
-0.01078592584000594 
-0.02566078193492349 
0.00502642804224911 
0.00502642804224911 
0.08337060006072303 
0.001024182681165391 
0.1350338212468445 
-0.0164240595098956 
0.01519735272152883 
0.03763142335124175 
0.1350338212468445 
-0.03283549283007028 
-0.03283549283007028 
-0.09906583470014754 
4.204431108415267e-05 
0.03763142335124175 
-0.03283549283007028 
0.03472477723164506 
0.06966906751134122 
0.0006195103249388574 
-0.7905924211113726 
-0.01029230598755004 
0.004039338870185949 
-0.0264519786728067 
-0.06579810602042278 
0.0004113518451021288 
-0.01029230598755004 
0.0006472723937480851 
0.0006472723937480851 
0.001998862804193826 
0.03136216908319026 
-0.01029230598755004 
0.07807262631612451 
-0.01029230598755004 
-0.00230792548423185 
0.1328396474442189 
-0.02100794676012957 
-0.01516023725080699 
-0.03972390676882183 
-0.02100794676012957 
0.01640423667828795 
0.04184393294778313 
-0.04577416639590792 
-0.04577416639590792 
0.08744260224568096 
-0.05016387132889263 
0.07614444207303378 
0.1118436287206871 
0.02634196861537171 
0.1016104131553232 
0.002867177557528247 
-0.08116007397890582 
0.09213007896590365 
0.2185980238536385 
0.04024779708257336 
-0.009465604202395384 
0.2760703439000554 
0.1102139780850483 
-0.3412267336148759 
0.2309760585041596 
-0.1204535177631315 
-0.05016387132889263 
-0.02576764601646475 
0.02294752059838501 
-0.001652298341223137 
0.002028625784162644 
-0.06418637002577879 
-0.0264526164665975 
0.2347018493479553 
-0.02294934327610519 
-0.07117332901066888 
-0.07117332901066888 
0.02294752059838501 
-0.02294934327610519 
-0.02294934327610519 
-0.0350906670096205 
0.02294752059838501 
-0.02294934327610519 
0.0008182195429947775 
-0.2298652465225997 
-0.001652298341223137 
0.007824885255223762 
-0.0896507077130981 
0.0006379859323442533 
-0.09363917747431252 
-0.1440510810277573 
-0.1108045682490608 
0.06112464235893309 
-0.03064696303431623 
0.05484436801424873 
-0.1278826914124018 
-0.09821907824455497 
-0.04519146861994357 
-0.09523258190019758 
0.1260850861115697 
-0.03064696303431623 
0.04855583515079454 
-0.02476631675214093 
-0.02476631675214093 
-0.02476631675214093 
-0.02476631675214093 
-0.02476631675214093 
-0.02476631675214093 
-0.008534359591977719 
-0.02476631675214093 
-0.04325317196123084 
-0.02476631675214093 
-0.02476631675214093 
-0.01048148094355778 
-0.4067778971546411 
-0.3036113248008436 
0.02331587318824378 
-0.01048148094355778 
-0.01012737922508064 
0.009685533902579948 
0.003960878220277217 
0.04920500164408884 
-0.006188695632290114 
0.2776142642794436 
0.009685533902579948 
0.2776142642794436 
-0.07399412252208387 
0.0150278396700915 
0.408448029721534 
0.004332635759676277 
0.09312180735919751 
-0.02601474657482029 
-0.08831098226850882 
0.02337963941597285 
0.001609546569845645 
0.03855638595243872 
0.04514259820812706 
-0.06562362670269556 
0.003960878220277217 
0.2785624584758937 
0.097555775341906 
0.005743591939432472 
0.097555775341906 
0.005743591939432472 
0.4959072717149596 
-0.6455510285709973 
0.005743591939432472 
0.097555775341906 
0.4959072717149596 
0.005743591939432472 
0.1434981837622586 
-0.04334836872736769 
0.2388092360491257 
0.02839206833495852 
0.02839206833495852 
-0.0005393594314607101 
0.01072370003007187 
-0.06278962847045598 
-0.03048861872783562 
-0.004569837942722579 
-0.0005393594314607101 
0.04950097194564674 
0.09924513003832845 
0.06959485442062996 
0.02839206833495852 
0.08607607904136076 
-0.0005393594314607101 
-0.03995515256518101 
-0.0005393594314607101 
0.1595722253851841 
-0.05746022498125532 
0.05008378092461582 
0.01577411292787487 
0.00474710167099284 
0.004912820904574469 
0.004912820904574469 
0.00254691402465397 
0.004912820904574469 
-0.02289520460837943 
0.004912820904574469 
0.3063409821192132 
-0.009853994331192262 
-0.04506202785152948 
0.08749637751482726 
0.001479721217031474 
0.004912820904574469 
0.2383845135124939 
0.3252867190436382 
0.409751963189035 
0.00254691402465397 
0.00254691402465397 
0.05859333950500904 
0.00254691402465397 
0.004912820904574469 
0.004912820904574469 
0.004912820904574469 
-0.03124495573807044 
-0.05132869938657323 
-0.02394780314516544 
-0.02394780314516544 
-0.03124495573807044 
0.04858349843524552 
-0.1745908331822063 
-0.03124495573807044 
0.03136676493608109 
0.1454991748254418 
0.03136676493608109 
0.1917720251889809 
0.03163892069183927 
0.1664951998581594 
0.01994360855502472 
-0.07228921056091442 
0.01994360855502472 
0.1917720251889809 
-0.06057378198265893 
-0.06694282890805847 
-0.01073910216599802 
0.01994360855502472 
-0.01073910216599802 
0.1664951998581594 
0.09019237767231567 
-0.01091324620298962 
0.09019237767231567 
-0.03406723032883614 
-0.05552226268232415 
0.01084761550307922 
0.01084761550307922 
0.01084761550307922 
0.01084761550307922 
-0.01091324620298962 
0.0196744870249107 
0.03581378120592663 
-0.03720365210770595 
-0.04289977493998592 
0.05020336855911164 
0.1946566275185355 
-0.00856433518515453 
0.01475334731277657 
-0.00856433518515453 
0.1018852323676609 
0.04671825826482483 
0.02820166806419714 
0.08027577664165436 
-0.07081945445592445 
0.2621035297265342 
0.166316735280217 
0.002562009518038934 
0.02434323118697103 
0.073354531532559 
-0.00856433518515453 
0.2544324650271432 
-0.00856433518515453 
0.08027577664165436 
-0.003059503057070092 
-0.2434673642018935 
0.03031568974781516 
0.01683702523266043 
0.05057906414984761 
-0.008527658211274545 
-0.02194911726088163 
-0.04742295824514168 
-0.1002984516069143 
-0.05103573546040548 
-0.08391826068748769 
-0.2934620812541016 
-0.02204010019046623 
-0.7428814498554235 
-0.2445858075266998 
0.01683702523266043 
-0.02204010019046623 
0.003511352253795666 
-0.04631431612709845 
0.03358592077318429 
-0.2934620812541016 
0.01683702523266043 
-0.01676033845361038 
0.1196156032511586 
-0.02850955113913882 
0.1196156032511586 
0.04234904406356981 
-0.02662833203934871 
0.04234904406356981 
0.3588203578682674 
0.1196156032511586 
-0.05071096198589773 
-0.06161819893427406 
0.1196156032511586 
-0.01847852697184169 
0.04234904406356981 
0.1039747832486032 
0.04234904406356981 
0.0417000120036945 
0.05912240827970353 
0.004514391766982509 
-0.000579484965508948 
-0.000579484965508948 
-0.000579484965508948 
-0.000579484965508948 
-0.000579484965508948 
-0.03841899454420919 
-0.003547006555027757 
-0.06234084945999738 
0.03135858858135483 
0.02406311188869681 
-0.02740821662150959 
-0.3628209151866068 
0.02227629690100483 
0.5118440582814757 
-0.3628209151866068 
0.04423052351093319 
-0.05778408430588741 
-0.6098862235648413 
0.04771310697128042 
0.04423052351093319 
0.04423052351093319 
0.07587466843011434 
-0.01542027554798214 
-0.3438070320465651 
-0.1060389536389635 
-0.1115231473889123 
0.02049847120285916 
-0.2064721468274398 
0.004921641196837089 
0.0006095330660423037 
-0.1115231473889123 
-0.03883420543549143 
0.07133215604517266 
-0.1115231473889123 
0.0006095330660423037 
-0.1810918851821383 
0.01365879023105918 
0.004921641196837089 
-0.1115231473889123 
-0.1424270952102161 
-0.2318831712791761 
0.0006095330660423037 
0.004921641196837089 
-0.1115231473889123 
0.003804878082350967 
0.001007009557869787 
-0.02169996597976588 
0.001007009557869787 
0.04429574109816756 
0.001007009557869787 
-0.05211303337114775 
0.001007009557869787 
0.002206601039995764 
0.006254365982018678 
0.002055834307962516 
-0.001369647510927042 
0.07861105011103542 
0.01956065345191425 
0.006086491297096602 
-0.03686643897761357 
-0.03143765484593446 
0.06102491667869994 
-0.01838878465313841 
-0.05384541815193312 
-0.1523009225755611 
-0.05960379187459027 
0.08184475301750732 
-0.03484337399139881 
-0.1523009225755611 
-0.009109687265484483 
0.02318584332868963 
-0.7207287428117229 
-0.1523009225755611 
-0.05960379187459027 
-0.00901371077096362 
-0.1523009225755611 
-0.1523009225755611 
-0.009109687265484483 
-0.009109687265484483 
-0.05565163363128709 
-0.1523009225755611 
-0.0887935485660723 
-0.1987121633679336 
-0.04088801149629145 
-0.0406028561609927 
-0.0406028561609927 
-0.0006321714150939045 
0.0325156287404131 
-0.5779979248815327 
-0.07055048766245657 
-0.03445403839115132 
-0.08519310916256104 
0.02582380927681727 
-0.3779264568758984 
-0.2650989198414396 
0.03668039410045836 
-0.0406028561609927 
-0.04088801149629145 
0.02026149393027999 
-0.08988164127731159 
0.3450068613532316 
0.06392228254731996 
0.02320963493154144 
0.3450068613532316 
0.06111641530836472 
0.1850187944454231 
-0.1575513546189005 
-0.1951992386534773 
0.06111641530836472 
0.3450068613532316 
0.2166274996254519 
0.02320963493154144 
0.08240854029362675 
0.02320963493154144 
0.02026149393027999 
4.964365980969672e-05 
0.004194711582053921 
-0.08611583411330173 
0.02543281882574088 
0.09022367529931961 
0.004194711582053921 
-0.05402145707571665 
-0.0143921272852965 
0.02543281882574088 
0.09022367529931961 
0.02543281882574088 
0.285738398629211 
-0.1151003865742852 
0.09022367529931961 
0.06342210507163258 
-0.03963858701139655 
0.09022367529931961 
0.09022367529931961 
0.02971357432742583 
0.09022367529931961 
0.1547622460401631 
0.03259300718908836 
0.002260189385699234 
-0.09126400292671152 
-0.01023567873123027 
0.4123553380207443 
-0.05202880955446115 
-0.02704959464265699 
0.3681218182921041 
0.4245089807925321 
-0.01008405212307601 
0.01235171645368058 
-0.0475743784282792 
-0.6219493869014546 
-0.1139872087960561 
0.03259300718908836 
0.4123553380207443 
0.03687931905428837 
0.03468928020621797 
0.01080350588075954 
0.137788495886476 
-0.02463087236367757 
0.01080350588075954 
-0.1912563605107758 
0.01235523797747313 
-0.4018740313812978 
0.01235523797747313 
-0.2464170949126199 
-0.1737330283467362 
0.556858156774088 
0.01093487837571328 
0.02497577647424213 
-0.1892418528630136 
-0.2464170949126199 
-0.06019797939947471 
0.03937092987687684 
0.2683627062272657 
0.1298162931056569 
-0.07310628710817087 
0.01284523025234837 
0.01284523025234837 
0.1709224476368519 
0.01284523025234837 
0.02526484564604437 
0.1298162931056569 
-0.1057937030294123 
0.02521927905242277 
0.1516012489004468 
-0.002197923888761111 
0.03937092987687684 
-0.002197923888761111 
0.1298162931056569 
0.6319765188207324 
0.01284523025234837 
0.06855520570539024 
0.06855520570539024 
0.08193929533425443 
0.03937092987687684 
0.00830036566374334 
0.06202513583629166 
0.06202513583629166 
-0.0002220514480163922 
0.06202513583629166 
0.06202513583629166 
0.01344361347169765 
-0.01327805388353684 
-0.05599886237101331 
-0.0326710377884668 
0.00830036566374334 
0.01409261292755118 
0.1939588878967911 
0.08280501084316361 
0.01344361347169765 
0.2227568636296091 
0.07095280910994581 
-0.0773245241807707 
0.2104157595516614 
-0.0326710377884668 
0.06381738488550767 
0.1234485201211629 
-0.02134943973603786 
0.06381738488550767 
0.03387092670569765 
-0.02134943973603786 
-0.02134943973603786 
0.06381738488550767 
0.1983574458955988 
-0.1563963615624893 
-0.07028791264627469 
-0.02134943973603786 
0.06323073830179717 
0.06381738488550767 
0.08970903106443945 
-0.3215803377022872 
-0.04484338909908679 
0.04651607286625455 
-0.5060762493193879 
-0.002749542873133155 
-0.02337877884886509 
-0.002749542873133155 
-0.08922397528697952 
-0.3640955149028534 
-0.4341731066303695 
0.09846690551898706 
0.01118106901931931 
0.01118106901931931 
-0.07620764358677835 
0.06926951358741901 
0.5778388349916732 
-0.008852916538677241 
0.240611498409333 
0.07044661230194166 
0.3438005258340381 
-0.007741930998426934 
-0.02109664899500006 
0.240611498409333 
0.3347804964715088 
-0.1752104755218396 
0.05589752224920496 
0.0240428516585997 
0.240611498409333 
0.03121164059817727 
0.0697776797561499 
0.06524346922813727 
0.005437885623040793 
0.01706333089919589 
-0.05154701119716826 
-0.03464039989653571 
-0.1273570637423407 
0.01594617534514585 
0.01594617534514585 
0.009091601268091751 
0.05881255669741801 
-0.005596435215627501 
-0.005596435215627501 
-0.06390868018911246 
-0.06390868018911246 
-0.06283010318158824 
-0.06390868018911246 
-0.09091459344033941 
-0.09091459344033941 
0.07548702286849732 
-0.06390868018911246 
-0.2331120743703536 
-0.06390868018911246 
-0.04184350358618021 
-0.4476082107607441 
0.008320347381934212 
-0.09091459344033941 
-0.01018841950514449 
-0.1104585341035296 
-0.1329397202816848 
-0.01812408814310932 
0.4304288910271328 
-0.2325194463022211 
-0.1329397202816848 
0.01734564294441562 
-0.5942007526809195 
-0.1773847049532744 
-0.1773847049532744 
-0.02352252704756846 
-0.0190068306529827 
-0.0190068306529827 
-0.02352252704756846 
0.05197679006731547 
-0.02411907281584393 
0.03965333620634096 
-0.06366542178441696 
-0.04028456499529739 
-0.02411907281584393 
0.3596494899551732 
-0.06366542178441696 
-0.008153857169624076 
-0.02411907281584393 
0.02359378258168036 
-0.0190068306529827 
-0.04893395905711805 
0.07390151176436946 
0.01689934336246589 
0.05861882626548089 
-0.04489054188495967 
0.001420359601759808 
0.001778451980945591 
0.2346163895870495 
-0.04489054188495967 
0.01007940768505753 
0.04514260735266101 
0.08399977274606961 
-0.04489054188495967 
0.001420359601759808 
0.01689934336246589 
0.00573554596734692 
0.01689934336246589 
0.001420359601759808 
0.02908727249875041 
0.01689934336246589 
0.07058168285115463 
0.505459219562947 
0.505459219562947 
-0.005522369869751734 
0.05650358761422143 
0.07553862332544389 
0.01116584297380706 
0.03009553960896003 
-0.005522369869751734 
-0.005522369869751734 
0.6280594442718768 
-0.005522369869751734 
-0.005522369869751734 
-0.1394045196929031 
-0.005522369869751734 
0.01441362851581135 
0.01441362851581135 
0.009700910704303251 
0.01441362851581135 
0.01073768318327318 
0.01441362851581135 
0.009700910704303251 
0.3331456209326832 
0.00103677247896994 
0.01112925624825578 
0.01112925624825578 
0.00103677247896994 
-0.07181755894264143 
0.00103677247896994 
0.1994799156492635 
0.3753610847783931 
0.3198781509522171 
0.00103677247896994 
0.00103677247896994 
0.2754233918202251 
0.00103677247896994 
0.00103677247896994 
0.001371354053283959 
0.003643641462979371 
-0.002205366263561009 
-0.2605792906043519 
0.001371354053283959 
0.001371354053283959 
-0.002205366263561009 
0.116785637386227 
-0.002205366263561009 
-0.05135460698055687 
-0.002205366263561009 
0.005001931715333929 
0.003643641462979371 
-0.2466620394340535 
0.116785637386227 
-0.208884326094722 
0.001371354053283959 
0.005001931715333929 
0.116785637386227 
0.001371354053283959 
-0.3502564227930253 
-0.3713782061380402 
-0.001471671064346327 
-0.01400880424371392 
-0.007451357711229088 
-0.005295900456824036 
-0.5469424953396349 
-0.01486417922667943 
-0.4236239807504829 
-0.007451357711229088 
-0.006077035348664746 
0.03826011646708596 
-0.111283316363875 
-0.09378276031021397 
-0.111283316363875 
-0.111283316363875 
-0.006811497918539998 
-0.111283316363875 
-0.07980162787233112 
-0.05888581405909316 
-0.007451357711229088 
-0.0105386656685173 
-0.03886544561928108 
-0.2263206238483844 
-0.09378276031021397 
-0.07980162787233112 
0.002156759260078896 
0.002156759260078896 
-0.7441618616578671 
0.002156759260078896 
0.002156759260078896 
-0.1121629964444667 
0.02119198867137722 
-0.03571130725754455 
0.01893123107707171 
0.1082903843416281 
-0.07472441340901251 
-0.06143005520006777 
0.0005306280183700065 
-0.237467308084871 
0.03440858282496068 
-0.07896939067794942 
0.009846499886098517 
0.167338030710259 
-0.07896939067794942 
0.0005306280183700065 
-0.04469382375166672 
0.0005306280183700065 
-0.0002154887762451462 
0.03947146393033452 
0.03947146393033452 
-0.2290907079158959 
0.007997649865092471 
0.07035490171241562 
-0.004367162155449382 
-0.07368683671574729 
-0.02787905325863916 
-0.01387214969960831 
-0.01387214969960831 
-0.07368683671574729 
-8.830509583330675e-05 
-0.01387214969960831 
0.06748772004776052 
-0.01697734040701022 
-0.04147489473597026 
-0.04147489473597026 
-0.04147489473597026 
0.03699992200790078 
-0.1482539172919787 
-0.1481928970931147 
-0.1207821736453332 
-0.1010562923283476 
0.03699992200790078 
-0.494197027179539 
0.001037851412113889 
-0.06706766127410527 
-0.1489060346086925 
0.006190139120553589 
0.3540513031506548 
-0.434850778105755 
0.02109819225838883 
0.02382103406582772 
0.02109819225838883 
0.03053307090577793 
0.02109819225838883 
0.02109819225838883 
0.0846526457005941 
-0.4156307620761215 
0.0005109502585361938 
-0.03577073845985206 
-0.4338355426557539 
-0.1388893009194659 
0.0005109502585361938 
0.4405297125962498 
-0.03577073845985206 
-0.03577073845985206 
-0.06297956118774047 
0.02572924942987193 
-0.02641324525767296 
-0.07438035996515092 
0.01176441679603982 
-0.04053888146834755 
-0.04053888146834755 
-0.02641324525767296 
-0.05684442371143603 
-0.04053888146834755 
-0.02641324525767296 
0.03080334135792801 
-0.1471491114434767 
-0.04053888146834755 
0.04175566807701172 
-0.02641324525767296 
-0.1887856983997165 
0.01748665832781314 
-0.2386442255266656 
-0.01600646982737324 
0.001327598402582294 
-0.01371558090609631 
-0.04114385021538108 
0.001327598402582294 
0.001327598402582294 
0.009803542309272502 
0.001327598402582294 
0.06991666162575387 
0.06991666162575387 
0.01965755260826923 
0.2588810505032724 
0.06991666162575387 
0.1864763441479715 
0.1864763441479715 
0.06991666162575387 
0.01051070250735513 
0.1864763441479715 
0.02114319674358076 
-0.0652375218964432 
-0.1278686659573506 
-0.005408742775324277 
-0.06736004498646771 
0.01334339040251476 
-0.0652375218964432 
-0.06736004498646771 
-0.0659210925835451 
0.01334339040251476 
-0.01293115839622187 
-0.05799414800466467 
-0.2491549688806311 
-0.4403002726842754 
-0.0659210925835451 
-0.3165428261550056 
0.007062652190728568 
-0.3165428261550056 
-0.01262347294704001 
-0.01013220701709382 
-0.005408742775324277 
0.03345114817105653 
0.0102126571981661 
-0.02862699043044195 
0.009274921313119952 
0.008781438211731989 
0.009274921313119952 
0.03345114817105653 
0.08230963168969348 
-0.06043786630059846 
-0.06707279789065347 
0.005131735918266941 
0.005131735918266941 
0.04864663605662031 
0.013041678775151 
0.013041678775151 
0.04864663605662031 
-0.08566889539349408 
0.04864663605662031 
0.02637877225477021 
0.08230963168969348 
0.01012298596139731 
-0.05204743803375488 
-0.05204743803375488 
-0.05204743803375488 
-0.04709219150668913 
-0.05130984633981905 
-0.01575471226047776 
-0.04709219150668913 
-0.04709219150668913 
-0.05204743803375488 
0.002095237185957281 
-0.05204743803375488 
-0.05204743803375488 
-0.05204743803375488 
-0.04252775830700251 
0.05166593267228161 
0.04774562452206681 
-0.1666062163114228 
-0.1666062163114228 
0.08437761861974548 
-0.007025244680811171 
-0.2896375995701774 
0.3965167181689995 
-0.1666062163114228 
-0.7981697967612763 
-0.02895225367268564 
-0.007025244680811171 
-0.01339228136416054 
-0.1666062163114228 
-0.007025244680811171 
0.1386328357932674 
0.01903988241135679 
-0.02855574057066475 
-0.02500464232629837 
0.1240558290465316 
0.00289708649069452 
0.07904357859267466 
-0.001798571371493277 
0.1523204053575692 
-0.1288741860962311 
-0.001798571371493277 
0.00289708649069452 
0.003481694452506403 
0.0325981272353804 
0.06160847861438001 
0.003481694452506403 
0.00289708649069452 
0.6358482163272148 
0.1117543382133409 
0.1117543382133409 
0.1117543382133409 
0.2574437651024322 
-0.03384355855961782 
0.1117543382133409 
0.003195345016308663 
-0.1145270060527118 
0.07715346485012609 
0.175318397002098 
0.1239839264118914 
0.02543134424431304 
-0.1175285898886756 
-0.107081554199521 
0.3718935863275321 
0.1117543382133409 
0.09777025191543884 
-0.009321285344385508 
0.004704357055754038 
0.1606207159623444 
0.004704357055754038 
-0.005449546054114363 
0.1589091111459629 
-0.009321285344385508 
0.1593226643527101 
-0.009321285344385508 
0.08219327514868081 
-0.08193905466109103 
-0.06807548757824003 
-0.009321285344385508 
0.004704357055754038 
-0.005449546054114363 
-0.04438385321595729 
0.04841753415732833 
0.2697817406100637 
-0.1027119524812402 
-0.1413825022783104 
0.6225489428039173 
-0.05914361870035584 
-0.2525405836860615 
0.1450461256098731 
-0.1053600550742167 
-0.1413825022783104 
-0.1413825022783104 
-0.01320178275188646 
0.3749706953552124 
-0.1413825022783104 
-0.007739712736344903 
-0.03082874039185714 
-0.0226328625796877 
0.06172067419558302 
0.001628722213768479 
-0.1004116553237799 
0.0135465559298623 
-0.008148441908519535 
-0.01841313431651802 
0.001628722213768479 
0.3784147249232009 
-0.01841313431651802 
0.06172067419558302 
0.06172067419558302 
0.1085214377637452 
0.161974488151679 
-0.02282237816375154 
0.29534643906312 
-0.008148441908519535 
0.06172067419558302 
-0.02650757228331332 
-0.01841313431651802 
-0.898306224115528 
0.2857475286973084 
-0.08863066882019997 
-0.02497716070670984 
0.0002016454732164117 
0.1145324847406065 
-0.110572991517506 
0.3003250975870143 
-0.02136430314864767 
-0.5353396428090683 
0.006558496016350102 
-0.110572991517506 
0.0002016454732164117 
-0.2867479277940062 
-0.177131708522417 
-0.01659104380008753 
-0.01659104380008753 
-0.0009847206743433317 
-0.02074230406255344 
0.1671095136571205 
0.004791180076756775 
-0.08133268337136065 
-0.0229796949894856 
0.1543428614109052 
-0.5132377263185812 
0.178982251195178 
0.1671095136571205 
-0.06906343463326316 
0.004791180076756775 
-0.1292092057286694 
-0.02400383506915512 
-0.1054565762218274 
-0.01432274500934147 
0.004791180076756775 
-0.01551790101605493 
0.004791180076756775 
-0.0229796949894856 
-0.06225628677530665 
-0.06225628677530665 
0.07994084266115936 
0.006043314524285262 
0.01473124746665489 
-0.008138964813708946 
-0.06749761420621714 
0.004771262883470683 
0.004771262883470683 
0.004771262883470683 
0.004771262883470683 
-0.06749761420621714 
-0.01116381337566519 
-0.01116381337566519 
-0.006245585703759634 
-0.0007797177524280427 
-0.006245585703759634 
-0.006245585703759634 
-0.1589968310781357 
0.1863147514208067 
-0.04268623251184996 
-0.04268623251184996 
0.116913124077419 
0.1776135699686003 
-0.04268623251184996 
0.2699518060866459 
-0.01072688637989069 
0.1776135699686003 
0.005541359704296997 
0.005541359704296997 
-0.0249420120383104 
0.005541359704296997 
0.05825300097332319 
0.005541359704296997 
0.03852349144099396 
0.005541359704296997 
0.005541359704296997 
0.005541359704296997 
-0.00765493923078501 
-0.1889471324610544 
-0.1863708476105174 
-0.1474557285753099 
-0.01593414405781778 
-0.1474557285753099 
-0.0984809328338703 
-0.1889471324610544 
-0.04492385770303928 
-0.05331697622139615 
-0.1889471324610544 
0.06131490954481245 
-0.03757752462550892 
-0.1209004792692056 
0.2066791110992829 
-0.1726690921372448 
-0.2790307834067791 
0.03447956893266356 
0.2032785923491703 
-0.2790307834067791 
-0.2790307834067791 
-0.0101334210894587 
-0.01593463181396392 
-0.01593463181396392 
0.1113432830854696 
-0.2790307834067791 
-0.01593463181396392 
0.2935953811226297 
-0.01593463181396392 
-0.005757382233890582 
-0.08869715366191046 
0.0267852685961928 
-0.07427088605277567 
0.01230239306721515 
-0.6229378404786914 
-0.005757382233890582 
-0.07427088605277567 
-0.03180548358254028 
0.01682364286939749 
-0.005757382233890582 
0.01230239306721515 
0.06626490249967845 
-0.03180548358254028 
-0.009690357473778216 
-0.005757382233890582 
0.07810025063996502 
-0.005757382233890582 
-0.03180548358254028 
0.07990946992703093 
0.07990946992703093 
-0.0151160817651015 
-0.0151160817651015 
0.3643707672111657 
0.25337609607759 
-0.01309057253562819 
0.07990946992703093 
0.04985920817319607 
0.01588401840728293 
0.09995730729388472 
0.07990946992703093 
-0.0151160817651015 
0.07990946992703093 
0.01588401840728293 
0.01588401840728293 
0.006746688939480243 
-0.07144186122385347 
0.1057605059358438 
0.006746688939480243 
-0.02216224146770638 
0.3106489570904162 
0.006746688939480243 
0.01262651856768736 
0.08463779456226772 
0.1057605059358438 
0.01262651856768736 
0.1057605059358438 
0.09428757458696076 
0.03212140942277195 
-0.04961609715486066 
0.001330597393041752 
0.001330597393041752 
-0.04961609715486066 
-0.04961609715486066 
-0.07165500313629636 
0.3539198742593582 
-0.02905991555330687 
0.01755698851171714 
-0.05916502626916305 
0.0204043432545792 
-0.00431174256592903 
-0.00431174256592903 
-0.02523398010860713 
-0.0593921510051711 
-0.005799427449659021 
-0.00431174256592903 
-0.02047298395444454 
-0.00431174256592903 
0.0204043432545792 
0.006152131293917881 
0.03121963522448309 
-0.02047298395444454 
0.0204043432545792 
-0.1061289122331613 
0.004403542092809771 
-0.003448586471598425 
0.004272953634242483 
0.01625167357050659 
0.004403542092809771 
0.02621961915658712 
0.02710262595053262 
-0.03518731047191965 
0.08466410942789886 
0.004403542092809771 
-0.005045265700387399 
0.004403542092809771 
0.004403542092809771 
0.4384165185830279 
0.02710262595053262 
0.02788081083385273 
-0.03269941214814442 
0.1547147672431067 
0.03122818775365844 
-0.1116349964249982 
-0.0656847444203251 
0.4977786984107526 
0.03065574259011876 
-0.004794634995337197 
-0.01328140476755053 
-0.05677484521445317 
-0.01406878410498874 
-0.6757788717076314 
-0.1193196501678251 
-0.1222074068321037 
-0.01406878410498874 
-0.03106449115806263 
0.04952584276571283 
-0.1193196501678251 
-0.064250860928978 
-0.004794634995337197 
-0.004794634995337197 
-0.08935795304207476 
0.01954014090197563 
0.1672038340181454 
0.06238463851547328 
-0.1078748368051574 
0.06238463851547328 
-0.02266996864982686 
0.1522733677680316 
-0.03553202825329422 
0.1522733677680316 
0.01954014090197563 
0.06238463851547328 
0.09283297198444446 
0.09283297198444446 
0.09283297198444446 
0.008629868020565366 
-0.02572786412859385 
-0.09297888870008039 
0.002664074831897774 
0.06305833892417108 
-0.004118167180552286 
-0.02766367248771338 
0.002664074831897774 
-0.01979160988030521 
0.01255702348443161 
-0.01704544559475547 
0.01255702348443161 
0.002664074831897774 
0.02735848177620352 
0.02003124984010665 
-0.06423142406486551 
-0.01579500609224587 
-0.06423142406486551 
-0.003187304621448644 
-0.01867883660769378 
-0.06423142406486551 
-0.1545988056538795 
-0.02810503428674072 
0.02003124984010665 
-0.06423142406486551 
0.02003124984010665 
-0.01579500609224587 
-0.1545988056538795 
-0.009576839352648572 
-0.009628971297948121 
0.006902355559526306 
-0.07320887111711068 
-0.002797773243645259 
-0.008816739299195693 
0.008830689326274283 
0.05160230556895187 
-0.06388319905460443 
0.008830689326274283 
0.008830689326274283 
-0.01978803856955919 
-0.1133829873346719 
-0.01978803856955919 
-0.01180617741615353 
-0.01978803856955919 
0.008830689326274283 
0.272128366420183 
-0.001083076617827499 
-0.001083076617827499 
-0.01045698201214602 
0.5988272181627893 
0.05813803651158241 
-0.1694037875850824 
-0.001083076617827499 
0.5988272181627893 
0.05813803651158241 
0.05813803651158241 
0.005409589118343564 
0.01475076784304865 
0.03109485004264737 
0.143690538454944 
0.143690538454944 
0.03521668020215032 
0.2391173389459343 
-0.006052358873845528 
0.03109485004264737 
0.03054396343915001 
-0.04846700022169738 
0.1667520271883188 
-0.1065694388299906 
-0.03472130322595499 
-0.05632073410211109 
0.03109485004264737 
0.03681592244523381 
0.143690538454944 
-0.04846700022169738 
-0.001498069179093305 
0.07395456869929182 
-0.003213939312184189 
-0.00250299757144984 
-0.00250299757144984 
-0.001498069179093305 
0.03092824476020675 
-0.001498069179093305 
-0.003213939312184189 
-0.07038544064267883 
-0.0007109417407343498 
0.05151921172612196 
0.1826228753873246 
-0.06143805529876176 
0.007442997633319844 
0.01613275594909029 
0.09485816252833909 
0.1293207153234301 
0.43214985968137 
0.01613275594909029 
0.01613275594909029 
0.1241341336914576 
0.1241341336914576 
0.1693388135736462 
0.2651179601697847 
0.1527464001932537 
0.1527464001932537 
0.03677701348328805 
0.02217782032327983 
0.02639290060887813 
0.01175854090371873 
0.02639290060887813 
0.1527464001932537 
0.2064980152846186 
0.01477727549300131 
-0.4110387639970285 
0.1110939891827654 
0.01190773910857731 
-0.02841162464944913 
-0.04173506437882936 
0.009683541565595977 
0.04114202463712117 
-0.1161737409793624 
0.02662063560555007 
-0.08164500601641279 
-0.06462973665923342 
-0.02012385149708843 
0.01849523635050576 
0.01826980846321427 
-0.1461109790431167 
-0.1179138695238907 
0.003056051485740112 
0.0331606844883793 
-0.1461109790431167 
0.009733058194830228 
0.01162393850306747 
-0.1461109790431167 
-0.1461109790431167 
-0.02012385149708843 
0.0007543457193418678 
-0.1461109790431167 
0.05627113779383663 
-0.02012385149708843 
-0.005418393579965609 
-0.0346392115851637 
-0.09092520617336629 
-0.09092520617336629 
0.04499558938456941 
0.03319513330148648 
-0.09894966204876132 
0.01295255384961377 
0.03692531116485139 
0.03692531116485139 
0.06253090526674548 
-0.06448466317679662 
0.04950846186815534 
0.03692531116485139 
0.005113049016474662 
-0.08603341278045464 
0.03692531116485139 
-0.04816836328139076 
-0.04816836328139076 
-0.03990843904755655 
-0.03003787004507344 
-0.04816836328139076 
-0.01195847620343334 
-0.04816836328139076 
-0.03990843904755655 
-0.03990843904755655 
-0.1080700773064348 
-0.04405818061201466 
-0.08453828853754917 
0.01606187224464227 
-0.002564249538314884 
0.121214274306317 
-0.1080700773064348 
0.04434435476451073 
0.04488706253645295 
-0.04040701931875831 
0.121214274306317 
-0.1080700773064348 
-0.06871747821801943 
-0.1080700773064348 
-0.1080700773064348 
-0.002564249538314884 
-0.03532749983370113 
-0.1080700773064348 
-0.07734282212573319 
-0.1339333762018506 
0.02340458200779422 
0.2415327891002954 
-0.03319634936946989 
-0.03822609386883651 
-0.01984684203369256 
-0.03910769498037189 
-0.08880534784534998 
-0.06044039912940759 
-0.04435077194377787 
-0.04007534607473076 
-0.04007534607473076 
-0.04435077194377787 
0.0458027223942977 
-0.193950630700615 
0.001070288743870892 
-0.009938708516528836 
0.01598147902476375 
-0.003326778789666443 
-0.006750215303739554 
0.1089196678352006 
0.4829899027282668 
-0.05850827503229875 
0.0267611086822933 
-0.009131433904780533 
0.009184989171766363 
0.0267611086822933 
-0.0524012204685663 
0.1290693962644961 
-0.02167529170323076 
-0.002541898003136742 
0.0006689311486733985 
-0.06348882012850633 
0.02230584206807775 
0.2748328512784027 
0.01125506810438905 
0.0008242339864517694 
-0.01732240229256939 
0.0008242339864517694 
0.02230584206807775 
-0.01732240229256939 
-0.02781667128119078 
0.0008242339864517694 
0.003226582542613683 
0.01125506810438905 
0.02230584206807775 
0.5833634578559921 
-0.0312407358020554 
0.2824085056416133 
-0.01578566827939901 
0.007370202548184046 
0.0622341845913859 
0.2824085056416133 
0.006259068518903195 
0.001073479611280108 
0.001073479611280108 
0.2506591499418552 
0.1770843923629016 
-0.05042061299293495 
0.001073479611280108 
-0.0633060479108607 
-0.1270484063269968 
-0.05141823580529789 
0.2824085056416133 
0.09019799209103913 
0.03291888182114483 
0.04861566841867557 
0.02751445361652213 
0.3739482908761094 
0.02751445361652213 
0.02751445361652213 
0.1817152916335642 
0.08644196991929379 
0.08946161846337031 
-0.03705802957963643 
-0.03395824803330216 
-0.03395824803330216 
-0.03705802957963643 
0.08644196991929379 
-0.03705802957963643 
-0.04705689045577518 
-0.07363994867302492 
0.04593654048393901 
-0.008144236138517212 
-0.3666693253699147 
-0.01387703262217577 
0.00130032679223686 
-0.01537702284290812 
0.0565825709385876 
-0.01387703262217577 
-0.01537702284290812 
0.04593654048393901 
0.0258458550386331 
0.09620420780840609 
0.1286035556260535 
0.0008848433049425579 
0.0258458550386331 
-0.12162069813109 
0.01430146149660481 
0.0258458550386331 
-0.0001098557940243522 
0.04742346738748994 
0.1012841872664776 
0.08033880562746815 
-0.1534021117472072 
-0.09109815043292471 
-0.01483025193039588 
-0.06692843852858552 
-0.03394967440264229 
-0.02866890228371321 
-0.02866890228371321 
-0.139567886419995 
-0.01286224404657768 
-0.03230241047596481 
-0.2348280174042675 
-0.03394967440264229 
-0.1679841665664898 
-0.08164584352710443 
-0.03394967440264229 
-0.03426995936941463 
0.04926761374238705 
-0.01479561930881734 
0.04926761374238705 
-0.3445345468500248 
0.02188113541799187 
-0.0144412910993733 
-0.01606923003669112 
-0.0144412910993733 
-0.02203707392237523 
-0.0144412910993733 
-0.01606923003669112 
-0.03764874267182346 
-0.08212195271828859 
0.04726124057849627 
-0.08212195271828859 
0.02999955179121245 
-0.01606923003669112 
-0.5540552722194223 
-0.1340748692722921 
-0.1164162234791791 
-0.1164162234791791 
-0.1444224807749474 
-0.02444992608113099 
-0.1444224807749474 
-0.4858997363971669 
-0.071660331935003 
-0.1444224807749474 
-0.02444992608113099 
-0.1444224807749474 
-0.02444992608113099 
-0.1444224807749474 
-0.1444224807749474 
0.08997476965212078 
0.1549221863406411 
-0.09005323535778641 
-0.2272771473826225 
0.08219996567046033 
-0.04638852987150048 
0.07930289955843682 
0.0120565401388516 
0.0002195061119790124 
0.236694005316086 
-0.004645617089416128 
0.3880263061276572 
-0.1104047737027419 
0.08997476965212078 
0.1732037249019276 
0.01122048458091088 
-0.1034981360312886 
0.01101646729656207 
-0.109668444473381 
0.04889262985964083 
0.01891264856672181 
-0.0008447908359714473 
-0.02244468083170211 
-0.01710976550141579 
0.0005955831870554235 
-0.05750990659869899 
-0.1164983283684209 
-0.008903525686963249 
-0.008903525686963249 
0.0005955831870554235 
0.0005955831870554235 
-0.129912423792284 
-0.04913395270442029 
-0.08032205427188294 
0.03030936597147296 
-0.06462038208040735 
-0.04913395270442029 
0.08092500252283878 
0.02712823321268537 
-0.06462038208040735 
-0.1051683977644952 
-0.04913395270442029 
0.004405703037787916 
-0.1069537615203094 
-0.06462038208040735 
-0.06462038208040735 
-0.04913395270442029 
-0.06462038208040735 
-0.06462038208040735 
0.2331426061961613 
0.2331426061961613 
-0.07457114018729423 
0.4088465892852968 
0.02661577929006393 
0.005149323543789309 
-0.02835520517573462 
0.2566943975397524 
-0.09458644230095412 
0.2331426061961613 
0.002461176311714979 
-0.02539808361575352 
0.01442686661190964 
-0.02656459145523127 
-0.007728179093219934 
0.05942220814503227 
-0.03111642226759094 
-0.01418332230163256 
-0.03111642226759094 
-0.03111642226759094 
-0.01336708352999906 
-0.209603151204257 
-0.2226444126977352 
-0.01310242479733375 
-0.02471491404969612 
-0.03565734265125174 
-0.01336708352999906 
-0.01336708352999906 
-0.01310242479733375 
-0.02828629399197469 
-0.05057146937245584 
-0.01310242479733375 
-0.02471491404969612 
-0.02471491404969612 
-0.3472721595253297 
-0.2226444126977352 
-0.01310242479733375 
0.03048206012715785 
-0.3656299749566772 
-0.1901639749091621 
0.1254470321497285 
-0.1901639749091621 
-0.06680848851875937 
-0.1901639749091621 
0.03048206012715785 
0.03048206012715785 
-0.03228532022193909 
-0.1901639749091621 
-0.03228532022193909 
0.0147507976410713 
0.0147507976410713 
0.009838005933246359 
0.0147507976410713 
0.04009980217314989 
-0.02197199332241887 
0.008966432941875994 
0.006686606826972915 
0.0544325783068102 
0.03251402697885739 
-0.04552833218999248 
0.06134015493115612 
0.006686606826972915 
0.1026756729835467 
0.001447613903017131 
-0.04404855474234683 
0.1333279801309929 
-0.3160078860521503 
0.1026756729835467 
-0.08645363766625959 
-0.05612921982771153 
0.1333279801309929 
0.1333279801309929 
0.001447613903017131 
0.001447613903017131 
-0.2151185351795888 
-0.001940844728316805 
-0.0475703830167919 
-0.03714364641813929 
-0.005435342743469679 
-0.06831644251916802 
-0.02900197679310302 
-0.02900197679310302 
-0.005435342743469679 
-9.437966279303954e-05 
0.06905025348781806 
-0.02900197679310302 
0.0005254014866083564 
0.0005254014866083564 
0.006344746876332323 
0.006344746876332323 
0.03935164992318668 
-0.001491264222116528 
0.006344746876332323 
0.0005254014866083564 
0.001115198427933182 
-0.1567912287995382 
0.1116449272193194 
0.0005254014866083564 
-0.002733964953759223 
0.001115198427933182 
0.09851300283594908 
-0.002398663521156081 
0.05523716684191915 
0.1491030315517762 
-0.03314048086473211 
0.09851300283594908 
0.008557496427234532 
0.09851300283594908 
-0.09609186943514356 
0.004862992314827961 
-0.002398663521156081 
-0.002398663521156081 
0.09851300283594908 
-0.07245257100681086 
-0.002398663521156081 
-0.01910007229730417 
0.008557496427234532 
0.5086085730401854 
0.01452309464083724 
0.4929603356222476 
-0.09531126321608069 
-0.3377477417440041 
0.008200816284629599 
-0.04358897164801763 
-0.01525944065361587 
0.3673536841653061 
0.1412876634326377 
0.01928539260949536 
-0.03051277895152932 
0.1412876634326377 
0.1412876634326377 
0.008200816284629599 
-0.01946898750128 
0.09965294231977112 
0.01928539260949536 
0.1412876634326377 
-0.04319061444826747 
-0.5215910568176332 
-0.04319061444826747 
-0.03194540296941453 
-0.03816020903633674 
-0.04053566557562504 
-0.03816020903633674 
-0.1013342003253883 
-0.1796233576524461 
-0.04025333280903075 
-0.03578478966707527 
-0.03816020903633674 
-0.6853746696895724 
0.0185938623535394 
0.01336585052127681 
0.04380503185202086 
0.01336585052127681 
0.006558202204189907 
0.006558202204189907 
-0.08387620748653764 
0.006558202204189907 
0.05664168657483849 
-0.04392014972983638 
-0.05783483105477496 
-0.0426614475359846 
-0.004929028843273249 
-0.008702927293422761 
-0.004929028843273249 
-0.004929028843273249 
-0.008702927293422761 
-0.04348855645248968 
0.00248391275631624 
0.3054777449085803 
0.06938777715961915 
0.01315409168355777 
-0.01686995093309461 
0.002841962702037627 
0.04605788952217359 
-0.059873569963051 
0.01315409168355777 
0.03768260748772099 
0.01315409168355777 
-0.006314714643519117 
0.01339610513546684 
0.01473084546230377 
0.01899760193556281 
0.01899760193556281 
0.2318523945779376 
0.0893755205142235 
-0.001295409439783253 
0.1615039431603975 
-0.001295409439783253 
-0.01977681116852397 
0.01717004098614628 
0.0008714493821705919 
0.09868418901736073 
-0.01977681116852397 
0.01717004098614628 
-0.01977681116852397 
-0.01977681116852397 
0.03476605475229952 
-0.09099344236316677 
0.01717004098614628 
0.2536208871965345 
0.01697045886406756 
-0.08337802608752241 
-0.01384444403473667 
-0.03930466942028371 
0.02056929984140674 
0.1954150010746502 
-0.0334892018621452 
0.01697045886406756 
-0.2771070912009275 
-0.01761094455794987 
0.1337375582134495 
0.3971453953602746 
0.570251173750158 
0.1337375582134495 
0.3971453953602746 
0.3971453953602746 
0.02119939576937023 
0.03911268265953589 
0.03911268265953589 
-0.01989891929735942 
0.03911268265953589 
0.01393061189245247 
0.1645465303376625 
-0.01218834504334572 
-0.00521166741076571 
0.09381249939383476 
0.04369381345010677 
0.04195849828967127 
0.06961044409478974 
0.27926327668729 
-0.1906294575722553 
0.09381249939383476 
-0.00521166741076571 
-0.1206187813682366 
0.06123968183755145 
0.2597819701569473 
0.2597819701569473 
0.2597819701569473 
0.3365513244719385 
0.008653478829294249 
0.3087249342582301 
0.06123968183755145 
-0.01919479292943402 
0.008653478829294249 
0.06123968183755145 
0.02417622685793659 
-0.06586052224873098 
0.06916489050528343 
0.1294046855577355 
0.01982263755998974 
0.1160732572393041 
0.1451064381226153 
0.0903599745289559 
-0.02577802775180758 
0.049974896608535 
0.0903599745289559 
0.02132415013088411 
0.02132415013088411 
0.09658381157539174 
0.09658381157539174 
-0.8062729260926947 
0.0206253780707318 
0.08424780380374529 
-0.003110339259434865 
0.02460592704581692 
0.2371783928115614 
0.03405698944376688 
0.02460592704581692 
0.02460592704581692 
0.1820156941853582 
0.01934256903057005 
0.02460592704581692 
0.2676902985587453 
0.01363484860856504 
0.2676902985587453 
-0.01997574527869468 
-0.01997574527869468 
0.1002674543049644 
0.003175641957917425 
-0.01406982974810114 
0.08032333970437464 
0.2109933987243958 
0.001265481413164256 
0.04545625721406626 
0.1061273784298547 
0.2109933987243958 
0.3205296427272162 
0.1545489977951948 
-0.03539364962261767 
0.06272785756014096 
0.2109933987243958 
-0.03539364962261767 
-0.03539364962261767 
-0.1114094972781732 
0.005710941798096218 
-0.1114094972781732 
-0.1114094972781732 
-0.1114094972781732 
-0.1114094972781732 
-0.01206370085077679 
-0.01424775896815048 
-0.1114094972781732 
-0.1114094972781732 
-0.0006233128263756797 
-0.01206370085077679 
-0.03553479366581833 
-0.03085816469856756 
-0.1114094972781732 
-0.03553479366581833 
-0.0216294463051982 
-0.008066826166913748 
-0.1114094972781732 
-0.004845812514429573 
-0.0431127700853997 
-0.04027639957814484 
-0.003238518135250413 
-0.0529017585602839 
0.02888020028643854 
0.2382566190268033 
0.03034165900087019 
0.0355450282050559 
0.1875532842299142 
0.09720567737598486 
0.02378617194753409 
0.1911699149124257 
0.02378617194753409 
0.006546915359603959 
0.02935708424358879 
0.007188166151704175 
0.01024723412181573 
-0.05727572301124475 
0.008617875640032774 
-0.01913230659992561 
-0.09805589850764437 
0.1546757710339046 
0.1546757710339046 
0.3481889317687886 
0.2395624649022603 
0.2707898599980362 
0.1546757710339046 
0.1546757710339046 
0.007188166151704175 
-0.01449165515672955 
-0.05369201664553047 
-0.01032039142691023 
-0.01449165515672955 
0.005422414349273864 
0.1161866304669117 
-0.01032039142691023 
-0.01032039142691023 
-0.05521566598357641 
-0.07122681680381868 
0.04567755786188427 
0.0759414139221181 
0.0759414139221181 
0.0759414139221181 
0.0759414139221181 
-0.004566673342577016 
0.08532835058364877 
0.08532835058364877 
0.2692393244923235 
0.1748643519518965 
0.0759414139221181 
0.001134186476018703 
-0.02051328590591705 
0.001134186476018703 
-0.01936424745081729 
-0.1370846768725978 
0.004972447970478393 
-0.007947103555672288 
0.005064131091028499 
0.0672987518714151 
-0.02092600247402976 
-0.01936424745081729 
-0.01936424745081729 
0.005064131091028499 
-0.003112647043984736 
-0.03134090041096549 
-0.03134090041096549 
-0.004029982658578974 
-0.02628641429270503 
-0.03134090041096549 
-0.004029982658578974 
-0.03134090041096549 
0.001309622891485641 
0.001309622891485641 
0.06357855577880984 
0.06713644412925623 
-0.0136189953830178 
-0.0157312075623166 
-0.0005457488001604969 
-0.01489227729181152 
0.08778615532778444 
-0.0005457488001604969 
0.08778615532778444 
-0.105961918963434 
0.08778615532778444 
-0.212754436607425 
0.003539341960220225 
0.2180083861590649 
0.2180083861590649 
-0.06804607230787849 
-0.06804607230787849 
-0.009602607839716986 
-0.009602607839716986 
-0.05061137121109062 
-0.009602607839716986 
0.09425748249391824 
0.06863728217026882 
0.06921682158622407 
-0.009602607839716986 
0.1008170244278439 
-0.1048547859045683 
0.0003422888053077422 
0.005876998635295302 
-0.02247008323728151 
0.05854390834129097 
-0.2494345170398704 
0.01711307740913261 
-0.02247008323728151 
0.1913247026004738 
-0.02247008323728151 
0.2976780099453407 
0.008283843080573193 
0.05854390834129097 
0.005876998635295302 
0.1851719938925947 
0.01789881950861764 
-0.003907009022201752 
0.05854390834129097 
-0.02247008323728151 
-0.01913014047813853 
-0.08228379598476258 
-0.06220861717160835 
0.09179819365005787 
0.1743225443136586 
0.1743225443136586 
0.07006983424691297 
0.6077401758997902 
-0.09364608409052849 
0.09179819365005787 
0.09179819365005787 
0.1745567570538537 
0.1743225443136586 
-0.06220861717160835 
0.159226807179955 
0.1595418172010684 
0.04463437952672574 
0.04463437952672574 
0.04463437952672574 
-0.06618339926286523 
0.1891355606863932 
-0.3761804274668677 
0.04463437952672574 
0.04463437952672574 
0.05946805929854392 
-0.0004374065636595075 
0.09397003879803474 
0.06102659375131805 
0.06102659375131805 
-0.08684469153307296 
0.1191130822358877 
0.153048679374738 
0.06102659375131805 
0.07788111214312569 
0.2137214960956405 
0.06102659375131805 
0.06102659375131805 
-0.08684469153307296 
-0.08684469153307296 
0.008487533325054877 
0.008487533325054877 
-0.01913399404754268 
-0.05455602931104842 
0.06191798557537512 
0.0406899799797905 
-0.03043967574810725 
-0.02616175562002332 
-0.02038913969894849 
-0.2149396214981409 
-0.05705004655400682 
-0.07508489402249956 
-0.01605153762830104 
-0.1830110618465803 
0.09154229886693951 
-0.0846563199415616 
-0.1830110618465803 
0.01430119164312374 
-0.2149396214981409 
0.09390737690754908 
-0.2149396214981409 
-0.02038913969894849 
-0.02200564354363804 
0.0331926747667949 
-0.0502575746521626 
-0.04760601012891927 
0.09721551541309242 
0.1892891347757553 
0.1892891347757553 
-0.05163107856683166 
-0.0131733342147173 
-0.04604001513260247 
-0.04760601012891927 
0.1892891347757553 
-0.0502575746521626 
-0.04760601012891927 
0.1380498470630562 
-0.0131733342147173 
-0.0131733342147173 
-0.04821672404309468 
-0.04604001513260247 
-0.0131733342147173 
0.1892891347757553 
-0.05577910387927312 
0.1464500467306441 
0.1464500467306441 
0.01865112642526856 
0.1464500467306441 
0.01865112642526856 
-0.05577910387927312 
-0.01488309705674071 
0.01865112642526856 
-0.01488309705674071 
-0.07159926651286666 
0.04456890842809687 
-0.01488309705674071 
-0.05577910387927312 
0.1491121860122849 
0.007844907982508208 
0.1491121860122849 
0.09312791323558625 
-0.03924413361163537 
-0.07988294556096101 
0.228719279840741 
0.1491121860122849 
-0.08580980493858355 
-0.0238857674137478 
-0.08580980493858355 
0.1509205637970044 
-0.08126720144208446 
-0.07200450949372995 
-0.07218031560375748 
0.02037564911934896 
0.01129260722090389 
0.09137820264342973 
0.03076951760150231 
0.04933788183060549 
0.007961653355669519 
-0.008213403315369086 
0.01129260722090389 
0.005822402863024973 
0.01129260722090389 
-0.01011226288179465 
0.04933788183060549 
-0.06697650629622855 
0.01129260722090389 
-0.1132860329593312 
0.01129260722090389 
0.1115692417597268 
0.03259932847226371 
0.05737092146538535 
0.1115692417597268 
0.1115692417597268 
0.05737092146538535 
0.1107875017551502 
0.08579351023370482 
0.1120795697725285 
0.04848733718685726 
0.02111573635504903 
0.005854520420347426 
0.007447080420485513 
0.003418261939315274 
-0.09797806456142692 
0.06896871703339977 
0.006173263754747485 
0.01125756290611014 
-0.02184282694350551 
-0.005252499326254439 
-0.02193130052533275 
0.03822214397395864 
0.02109036573374282 
-0.005252499326254439 
0.007447080420485513 
-0.005851043666303136 
-0.06099096796689939 
0.1742974791565923 
0.01100943869789749 
0.08638698250296643 
0.04312370278435519 
-0.02518721896412333 
-0.02518721896412333 
-0.005431863637984851 
0.04683343537389408 
-0.02518721896412333 
-0.01781675767788074 
0.01100943869789749 
0.09165629070873893 
0.151382768150681 
0.09165629070873893 
0.3798692079147836 
0.3665383596404476 
0.09165629070873893 
0.2264105729518515 
0.2264105729518515 
-0.04047171424154147 
-0.1686528038676087 
-0.03416305892392423 
-0.163337527030242 
-0.09398757120906653 
-0.04676191670798544 
-0.1111726945174335 
0.316424107872289 
-0.03416305892392423 
0.05828943337115651 
-0.07042832535867893 
-0.06295110449153438 
-0.06967127036191038 
-0.06967127036191038 
-0.1886088211878961 
0.0414002741316457 
-0.07042832535867893 
-0.06967127036191038 
-0.02947955734473851 
0.0414002741316457 
0.08943625846549304 
0.05369890017115801 
0.05369890017115801 
0.06612145906981941 
0.02509082148450722 
0.01474973851237945 
0.06612145906981941 
0.06612145906981941 
-0.002278465976572028 
0.02043265842558421 
-0.01414628551324565 
-0.1228365103497381 
-0.03606407557977368 
-0.05836502503845363 
0.003681497683422625 
0.04497519506123948 
0.0002746908026729982 
0.01555401122761523 
0.01110538969064744 
0.0002746908026729982 
-0.03092785703875991 
-0.03092785703875991 
-0.05283910729834466 
0.112897592039921 
0.007664832035354172 
0.03986277636091048 
-0.4076447788798366 
-0.02240606674650129 
-0.04271849042657627 
0.004062473139167872 
-0.06613519599295932 
0.04544156512513851 
-0.04271849042657627 
0.007116014147428383 
-0.01548823413864601 
-0.02177180507106843 
0.0232032351615927 
-0.5933966805198376 
-0.00278366710263463 
-0.00278366710263463 
-0.03418416851906855 
0.02367499885833104 
0.02367499885833104 
-0.05061760432083182 
-0.09541670326775906 
0.02961268072046683 
0.01866654184485176 
-0.2562794292557589 
0.02367499885833104 
-0.09208448621145843 
0.02367499885833104 
0.01968652909711663 
0.0160701998840979 
0.005828357700554784 
0.2867268474187988 
0.0160701998840979 
0.0160701998840979 
0.1279242514330078 
-0.08915013325471262 
-0.08915013325471262 
-0.01284249294468568 
-0.08915013325471262 
0.01869564887520025 
-0.09525465204384155 
-0.4961185621896833 
-0.0395301939921336 
0.0019097781365078 
-0.09909772905543064 
-0.1384367978990596 
-0.008409369053968763 
-0.09525465204384155 
-0.01972458679484449 
0.01400169181814721 
-0.01284249294468568 
-0.5758078829602359 
-0.008114688712056561 
-0.0953884933149679 
-0.01283438559747961 
-0.0953884933149679 
-0.006365501306457487 
-0.08996279592788473 
-0.01283438559747961 
0.05478836579100529 
-0.03329902151076861 
-0.07990789326975641 
-0.3463706511111428 
-0.2474987131391714 
-0.1613432504798769 
-0.04581361812697324 
-0.04581361812697324 
0.0722986528499911 
-0.05957064482863221 
-0.0398134422523348 
0.02110765126783467 
-0.05265532783158115 
-0.003121553773842698 
-0.392261042581788 
-0.05957064482863221 
0.03497766260170994 
-0.1338890267532458 
-0.05265532783158115 
-0.0150732900462446 
-0.05049197291958752 
-0.03191303897227173 
-0.05732098648786668 
0.07192771768362179 
0.03182194832842253 
-0.1005430343954568 
-0.03000001784939115 
0.01073148887278083 
-0.003771859411972995 
-0.003771859411972995 
-0.03824867394287333 
-0.003771859411972995 
0.03122583308689524 
-0.01112689266496356 
-0.01112689266496356 
0.001273816665738025 
-0.01112689266496356 
0.03362552581853185 
0.02042702170423119 
-0.01236168488567626 
0.01597991629119665 
0.01124588137515498 
-0.9755725200640014 
0.07001930702559067 
0.02943391430476085 
0.07001930702559067 
-0.03122014965504939 
0.01248369821804987 
-0.01378130645016754 
0.1754381273234354 
-0.0004545617902445052 
0.07001930702559067 
0.01248369821804987 
0.01248369821804987 
0.005577274588968804 
0.06848483284063596 
0.005577274588968804 
-0.0218013572300179 
-0.1379082428729698 
0.005577274588968804 
0.3485063395854164 
0.01303678869041573 
-0.3501528493213757 
-0.133940186071716 
0.01303678869041573 
0.1935146274229003 
-0.133940186071716 
-0.01932789958085408 
-0.133940186071716 
-0.01612192833764915 
-0.1069944464270697 
0.002961676206437201 
-0.01354686102756227 
-0.436640402972211 
-0.436640402972211 
-0.2263742200868095 
-0.5699375557112704 
0.2693700656918849 
-0.2304035722951154 
-0.03236468827126987 
-0.009238575259542667 
-0.0194143657225317 
0.04013479534432748 
-0.05848089542465977 
-0.07273558531000751 
-0.03236468827126987 
-0.009238575259542667 
-0.1698656937713119 
-0.07437699081844407 
-0.05344036277952703 
-0.05344036277952703 
-0.05344036277952703 
0.04713660476476565 
-0.05344036277952703 
-0.008357655412695999 
0.06205775992121956 
-0.05344036277952703 
-0.05344036277952703 
0.003810461909726873 
-0.09173395947520289 
-0.01149477349616846 
-0.07751171037719691 
-0.07751171037719691 
-0.07751171037719691 
-0.1011501670520248 
-0.01149477349616846 
-0.3543046840890252 
-0.4311240743276872 
-0.05697713000057567 
0.1139310041041537 
-0.01268374230862192 
-0.4311240743276872 
-0.2157877864153921 
0.01729433661099582 
-0.05513446835073012 
-0.1396712090828557 
0.2637760450348214 
-0.06440750904656781 
-0.3013989069459231 
-0.0794846978731316 
-0.0794846978731316 
0.2551999642236265 
-0.0794846978731316 
-0.065579219579251 
-0.0794846978731316 
-0.0794846978731316 
-0.065579219579251 
0.009920107668493786 
0.04965216852350593 
-0.04373844925396769 
-0.04214267554935844 
-0.04373844925396769 
0.03940665192454681 
0.0245156444347628 
0.001458146867149369 
0.01731845980765553 
-0.03373085649943285 
-0.03373085649943285 
-0.03373085649943285 
0.01435418442192295 
0.1406455615363127 
-0.003965210796619168 
0.01762339609414245 
-0.06119036032805209 
-0.003965210796619168 
-0.03373085649943285 
0.001458146867149369 
-0.03373085649943285 
-0.06167994163526884 
-0.05055533805414468 
-0.04662923224400436 
-0.02198911178647239 
-0.04662923224400436 
0.08144038199547816 
-0.04662923224400436 
-0.02771399808053513 
-0.04662923224400436 
-0.04662923224400436 
-0.006792835077616161 
0.2685553734782192 
0.01601646031588469 
-0.002777476043583222 
0.007488884421190427 
-0.1128771341990408 
-0.007793677395566079 
0.01131989681301053 
-0.01034818361581847 
-0.0309553828895799 
-0.002777476043583222 
-0.002777476043583222 
0.4097037531519331 
-0.09123100634291362 
-0.1641548811329306 
0.1761223350275309 
-0.3965550805178963 
-0.002777476043583222 
-0.002777476043583222 
-0.05607441441873809 
-0.05607441441873809 
0.3256180613135069 
-0.05182951672874645 
0.01131491065135711 
-0.05034534143580792 
0.1649618125110937 
-0.05607441441873809 
-0.06312102991289863 
-0.2798743671006309 
-0.05182951672874645 
0.07483853055656532 
-0.04943138570911005 
0.01131491065135711 
-0.2303009118889068 
-0.05182951672874645 
-0.05182951672874645 
0.2699553495546716 
-0.3512652633193228 
-0.007191539553487952 
-0.1134677032706364 
0.02642287397666157 
-0.008275852675988007 
-0.008275852675988007 
-0.1134677032706364 
0.0185368697055276 
-0.3972214741359936 
-0.02355116347132876 
0.009614177183375372 
-0.008275852675988007 
-0.05281922532064295 
-0.007191539553487952 
0.01278635582686699 
0.01192241158545744 
-0.008275852675988007 
-0.0517620958015523 
-0.1763486383193427 
-0.1763486383193427 
-0.1374457189207256 
-0.0517620958015523 
-0.0517620958015523 
-0.0517620958015523 
0.0571400074797517 
-0.05150789144325114 
0.0571400074797517 
-0.0517620958015523 
-0.0517620958015523 
-0.1763486383193427 
-0.0517620958015523 
-0.04202901277071593 
-0.0517620958015523 
-0.3968389967379406 
0.06093513321247174 
0.06093513321247174 
-0.005881406933165021 
-0.02501296983928483 
0.01430705257661647 
-0.02501296983928483 
-0.06756612897289153 
-0.07189721264088117 
-0.002084741784689316 
-0.0218866601591137 
-0.002084741784689316 
-0.006916408544300673 
-0.11148245026671 
-0.4220185676840491 
-0.1458277224327374 
-0.002084741784689316 
-0.5298494995300028 
0.1087045131780023 
0.08307338065314267 
-0.06399626526731877 
0.09536474375240944 
0.005452923383077571 
-0.1068666906900464 
0.08307338065314267 
-0.1534645742770343 
0.2021608897666679 
0.5857607703970319 
0.009921900561442801 
0.02219467704962769 
-0.01704482622063581 
-0.0628866643422549 
0.00619651138959071 
0.02922372708035771 
-0.1062736590308392 
-0.125977329656961 
0.05412852429226727 
-0.009302001657543635 
-0.0628866643422549 
0.06122848397487286 
-0.125977329656961 
-0.008110464453247479 
0.01912082393098129 
-0.008110464453247479 
-0.1322963598936364 
-0.125977329656961 
0.004524502245576083 
0.05172922934459593 
-0.02058225686673938 
0.004524502245576083 
-0.02058225686673938 
0.004524502245576083 
-0.125359733431636 
-0.04730742693697842 
-0.03922987089999151 
0.0004885422211906459 
-0.03558222045115359 
0.0132763055453827 
0.02897723736650881 
-0.2274397738249152 
-0.03171697708691303 
-0.0980667661371262 
-0.2747505106092999 
-0.04029886911271257 
0.03825612251963895 
0.03825612251963895 
0.03036155773139971 
-0.437324826028791 
-0.05264145800955438 
-0.01184125378055561 
-0.01605412936548423 
0.05451737299554564 
-0.07720540623157063 
-0.1162449610829946 
-0.0739755661476434 
-0.117263255258811 
-0.117263255258811 
-0.1523436636468501 
-0.0739755661476434 
0.08784907627482312 
0.623509957009319 
-0.117263255258811 
-0.07720540623157063 
-0.1523436636468501 
-0.08219260506185012 
-0.02554013562903681 
-0.08526882463136547 
-0.02554013562903681 
-0.02554013562903681 
0.008619608343010059 
-0.04194958006635489 
7.774382065540422e-06 
0.001145530726811262 
7.774382065540422e-06 
0.01655246915412934 
7.774382065540422e-06 
0.07546933625633206 
0.08663931601150303 
0.001145530726811262 
0.004471333393046318 
-0.03122045112004258 
-0.005437498668965203 
0.008504367544405901 
0.004471333393046318 
-0.004696013367078601 
-0.02065322048694704 
0.004471333393046318 
0.1112604770216351 
-0.8731596572947838 
0.04144777499553461 
-0.02690344077190559 
-0.04857626817366816 
0.1178597348729923 
-0.04729899717259829 
0.009439523312207508 
-0.02359007343585709 
0.03199993766554459 
0.003739465047698137 
-0.003393644749840781 
-0.01073896746306648 
0.008980875889877532 
-0.004495298260825646 
-0.07953243722132781 
-0.001535526420410981 
0.1819929463291765 
0.2343581332459369 
0.2231865310810751 
0.1815748851509849 
0.02663107338425696 
-0.001911841065167018 
-0.07953243722132781 
0.02081528392257839 
0.2231865310810751 
0.01846967988536176 
0.01915572377360901 
0.009897075499315885 
0.01846967988536176 
0.0409970159438415 
0.01846967988536176 
-0.01299448233912647 
-0.001656293453170569 
-0.07501339638882941 
0.01260492193557066 
0.00832014701181367 
-0.02809401409333051 
-0.08739890779326244 
0.0393136147787165 
0.009897075499315885 
-0.04274582471227916 
-0.04274582471227916 
-0.1678076799699136 
-0.04765540287668657 
-0.07273822098033254 
-0.1035004489429348 
-0.04156996427345076 
-0.09595522064915125 
-0.0242665757985983 
-0.01262546717036326 
-0.1203171282614009 
-0.01367854487169281 
-0.01367854487169281 
0.007341198508909554 
-0.01262546717036326 
-0.006256469520503483 
-0.1203171282614009 
-0.006256469520503483 
0.0003548091072384152 
-0.01262546717036326 
-0.01871203604409543 
0.085886039910958 
-0.02970308082161143 
-0.003872409603526049 
-0.003872409603526049 
-0.01871203604409543 
-0.003872409603526049 
-0.003872409603526049 
-0.003872409603526049 
-0.5275266293802352 
-0.2880288337059802 
-0.00298400473412595 
-0.003872409603526049 
0.085886039910958 
-0.003872409603526049 
-0.003872409603526049 
0.03340074663544721 
0.1898970261527663 
-0.003872409603526049 
-0.06286565316262135 
-0.1607681382573838 
0.01914921280611862 
-0.3640437463665968 
0.0189982318864849 
-0.02200762214464072 
-0.01313800112389941 
-0.02042048266185611 
-0.4060889404809485 
-0.02042048266185611 
-0.06286565316262135 
0.3413693121385591 
0.04633169485464583 
-0.05803818760800572 
-0.03638629351716758 
-0.05803818760800572 
-0.05903678061796767 
0.1759138628496389 
0.019754719386515 
0.2238950773689677 
0.019754719386515 
-0.07452516706962237 
0.019754719386515 
-0.08357012720257596 
-0.08781583900890823 
-0.03638629351716758 
-0.1900075997762537 
-0.1092339241608275 
-0.03638629351716758 
0.03414592048993513 
-0.07674731524237474 
-0.07674731524237474 
0.05392828905312851 
-0.07674731524237474 
-0.1569818837403001 
0.2927549347391102 
0.1292571432884176 
0.03673918389646306 
0.1896896050925949 
0.07137556916771169 
0.02335755788580482 
0.05029200591760363 
-0.155674401754085 
-0.2290875093337948 
-0.03932551294660382 
-0.05068116894997333 
-0.003176440237307988 
-0.155674401754085 
-0.1421247333682167 
-0.005184194529944095 
-0.1421247333682167 
-0.03932551294660382 
-0.03911880388564736 
-0.09949949606331941 
-0.1421247333682167 
-0.6234374313030195 
-0.03911880388564736 
0.0604254278358505 
0.05889399137153137 
-0.1066971563868096 
-0.1066971563868096 
-0.05490272492451969 
-0.1250909694571554 
-0.0001137057086930247 
0.004765015501345683 
-0.1260104171737518 
-0.0001137057086930247 
0.004765015501345683 
0.1197702940950156 
0.004765015501345683 
-0.1260104171737518 
-0.02032989916248907 
0.0003184299946070798 
-0.05490272492451969 
0.02072336941759232 
-0.02791840486081592 
0.001699441297766655 
0.0346980352651791 
-0.07048303940185335 
-0.1298735986408276 
0.04197457033226618 
-0.0873439736616176 
-0.08364784936993094 
-0.199667411585548 
-0.2718568854112394 
0.02376323662408547 
-0.07664016162266794 
-0.07225216083675269 
-0.0873439736616176 
-0.1395562789525956 
-0.004791245026847756 
-0.3761613396122151 
0.008141737069379484 
-0.01297342307504445 
-0.1395562789525956 
-0.004791245026847756 
-0.04547274172490932 
0.06935028494394548 
-0.01297342307504445 
-0.04788956015273155 
-0.1395562789525956 
-0.04137760025994297 
-0.3943213238643226 
-0.009126895045137641 
-0.08790430231459005 
-0.08790430231459005 
-0.08790430231459005 
-0.02190002867427784 
-0.03796264767846878 
-0.00632168424149233 
-0.2852275919028283 
0.1188267067166267 
-0.1631232855999538 
-0.1631232855999538 
-0.2852275919028283 
-0.1049448710099599 
0.05562545193549498 
0.05562545193549498 
-0.2527982687355511 
-0.09967371017612006 
-0.02265001409857724 
0.03419227905058125 
-0.2527982687355511 
-0.2527982687355511 
-0.2527982687355511 
-0.0280542903371635 
-0.2527982687355511 
-0.2527982687355511 
0.01333282394083395 
0.03311639167985084 
-0.03126643591181893 
0.03419227905058125 
0.1057174132656427 
-0.2527982687355511 
-0.0280542903371635 
-0.09154062053812617 
-0.1332161184903298 
0.06937353536483248 
-0.5272484522871146 
-0.02763520835231121 
-0.02763520835231121 
-0.0109306716074612 
-0.0109306716074612 
-0.04687800359523189 
-0.02763520835231121 
-0.01314357664167183 
0.04255111461698818 
-0.02763520835231121 
-0.09911074694648543 
-0.04687800359523189 
-0.09911074694648543 
0.01414920221379223 
0.08247140931794789 
-0.04687800359523189 
-0.0313489031665863 
0.001366121936247041 
0.001366121936247041 
0.00203372158946781 
0.0073291573306966 
-0.1094645457359223 
0.2189383449512113 
-0.3287313499700289 
0.0588444054028075 
0.08032544188831529 
0.7180457110747388 
-0.0559337265755897 
0.2899094996196403 
0.0196229427662289 
0.002265409600821024 
-0.005263188689181124 
0.05339807180715506 
-0.01534685848898369 
-0.1942159087681723 
0.05339807180715506 
0.0009040531663629155 
0.05339807180715506 
0.006881983224668411 
-0.06782845450216513 
0.1282775680756414 
0.1232131645536361 
0.1232131645536361 
0.0671884219407014 
-0.06782845450216513 
0.0671884219407014 
0.0671884219407014 
-0.08898497200437575 
-0.06782845450216513 
0.0671884219407014 
-0.2383637873079105 
0.01386615564189324 
0.01386615564189324 
-0.01054038576971903 
0.01386615564189324 
-0.03937497666164865 
-0.0194713296075032 
0.05531798354310238 
0.1581659456692573 
-0.04191175896442768 
0.1347656512410224 
0.1066598588957722 
0.2816231035792932 
0.005246196675063057 
0.02265175253038459 
0.004452669092792224 
0.004452669092792224 
0.006546407022321846 
-0.2474074634554402 
-0.002758656427128188 
-0.1978376047566481 
-0.09156710363969953 
-0.04568431039280495 
-0.05649296874927993 
-0.1482147099651618 
-0.3934993386827291 
-0.3934993386827291 
-0.02144565210015983 
-0.004809425691738332 
0.02158013979965768 
0.003941767860172377 
-0.05971276963490448 
-0.1982686164346996 
-9.881193432889022e-05 
0.04793134054089897 
-0.02244116611208879 
-0.1683058557789189 
-0.02244116611208879 
-0.03615226466715256 
-0.1683058557789189 
-0.02957063951628271 
-0.0204879848047391 
-0.02244116611208879 
-0.0204879848047391 
-0.1683058557789189 
-0.02233077227319346 
-0.02219746147880796 
-0.4354453256044021 
-0.1683058557789189 
-0.1208005146927573 
-0.02244116611208879 
-0.0204879848047391 
0.04262348179461226 
0.02585212992470457 
-0.02317616427322573 
-0.02317616427322573 
0.01819240128721878 
-0.02317616427322573 
0.01819240128721878 
-0.03927591203906318 
-0.04485662670325399 
-0.04517300847349084 
-0.02065900388686766 
0.003700403209766036 
0.0665782537626529 
0.003700403209766036 
0.0665782537626529 
0.09400040252126692 
-0.03090259397723721 
0.09667926366036594 
-0.04238140133054893 
0.005249446076258827 
-0.02604828179539589 
-0.04238140133054893 
-0.005161221836844982 
0.005249446076258827 
0.005249446076258827 
0.005249446076258827 
-0.04238140133054893 
-0.02784262562640009 
-0.02784262562640009 
-0.05879956576182638 
-0.02784262562640009 
-0.08266247541020919 
-0.1692721487974531 
-0.05879956576182638 
-0.02784262562640009 
0.02852895110719414 
-0.08365179479852206 
-0.1585904404531 
-0.05927167495326407 
-0.02531416921644671 
0.0206352904596282 
0.03263322482734675 
0.01862966380440863 
0.01862966380440863 
-0.1327218259933167 
0.01333142831843154 
-0.1327218259933167 
-0.007820504047610446 
0.01862966380440863 
-0.1607566509339177 
-0.1607566509339177 
0.04096468041814885 
0.07790065260358305 
-0.02585750250252027 
-0.006918176119141707 
-0.006918176119141707 
-0.02399233505265883 
-0.01537992801988876 
0.07168952798256484 
-0.006918176119141707 
-0.05239879329929401 
-0.006918176119141707 
-0.05239879329929401 
0.01474665715690138 
-0.0205727991621986 
0.3283424267122858 
0.04193485650222704 
0.08303495105081538 
0.1797506939382723 
0.002044507695732869 
0.002044507695732869 
0.117488893959523 
0.2219744685709889 
-0.103561176375981 
-0.01301197458048948 
0.02209005844741544 
-0.05382726111199612 
-0.08114103714751172 
0.007599737038373766 
0.007599737038373766 
0.007599737038373766 
0.007599737038373766 
0.007599737038373766 
-0.02593503589811477 
0.01699937179545553 
0.02621311591793572 
-0.004655598909536482 
0.01699937179545553 
0.3381910362257584 
0.01699937179545553 
0.1738059099921049 
0.01699937179545553 
-0.004226868260508719 
-0.004226868260508719 
0.01699937179545553 
0.02621311591793572 
-0.004226868260508719 
-0.03053751564556204 
-0.0331369873390169 
0.1459576797131294 
-0.07028729775398818 
-0.06992262196149063 
-0.03063714231381654 
-0.05364337624710416 
-0.03053751564556204 
-0.03053751564556204 
-0.03053751564556204 
-0.03053751564556204 
-0.03570199340080027 
-0.0564356332757423 
0.1146927870436713 
-0.03920794969131742 
-0.03053751564556204 
-0.1238870111817101 
-0.03053751564556204 
-0.03053751564556204 
0.075264957438216 
-0.06011682421486779 
-0.03033539540483987 
-0.01461263628760386 
0.05991999703893834 
-0.03033539540483987 
0.00170058942703694 
0.3072123770521161 
-0.177301401201956 
-0.003730177863364905 
-0.003730177863364905 
0.2049821438510251 
0.05778446115840408 
-0.2875971163273724 
-0.2621279414783799 
-0.2875971163273724 
-0.003730177863364905 
0.08346983437915996 
-0.02405019994897951 
-0.177301401201956 
-0.003708976836595606 
0.02648257225306521 
-0.2059472434382037 
-0.543553542618985 
-0.001897536717770139 
-0.543553542618985 
0.004704168865425969 
0.03352458974488654 
-0.003708976836595606 
-0.0182980499936468 
-0.003749648942354266 
-0.1519509614540982 
-0.3548171309414164 
-0.003651388773296524 
-0.3548171309414164 
-0.3548171309414164 
-0.2787514741969098 
-0.02127807419967273 
-0.05404088950312087 
-0.0003636853044100704 
-0.06873798974850148 
-0.06498025939583017 
0.08341717987813534 
-0.002552543846900523 
-0.06873798974850148 
-0.04457514169394427 
-0.09986657445065125 
-0.007086224253265563 
-0.06873798974850148 
-0.4261194966785936 
0.08341717987813534 
0.08341717987813534 
0.05921600090060611 
-0.04561901591856257 
-0.05075058424644689 
0.09808904931331314 
-0.04847116162294073 
-0.001261328169617009 
0.02923003339982918 
-0.04570648844813625 
0.08666064845559347 
0.007117226583883035 
0.1118066086796608 
0.4867506156829052 
0.3136058468605282 
0.007117226583883035 
0.007423654193009168 
0.08330076208271146 
-0.01245230494579502 
0.1118066086796608 
0.2275409261546192 
-0.1967244303896756 
0.007624359919507477 
-0.02851000239264583 
0.007624359919507477 
0.007624359919507477 
-0.2814340384107967 
-0.1145622247796964 
-0.2814340384107967 
-0.1145622247796964 
0.1249835558691017 
-0.007449844739950768 
0.005306215253315379 
0.005306215253315379 
0.005306215253315379 
-0.007449844739950768 
0.005306215253315379 
0.002675207784387804 
0.002675207784387804 
0.02107059035874133 
0.1182839343771228 
0.0006176941618445799 
0.02057753760617646 
0.05035541337192363 
-0.1255794847412581 
-0.04351731097398973 
0.01783393867096669 
0.01783393867096669 
0.01652999105580254 
0.01783393867096669 
-0.04511105070293216 
0.0009942154800754444 
0.0006176941618445799 
-0.1595446575669097 
0.1868459807118495 
0.04921096161962854 
0.04921096161962854 
0.02210432104453357 
0.01415787010688056 
0.04921096161962854 
0.1891225689555187 
0.008252928771285625 
0.2002572705687392 
0.1868459807118495 
-0.001138367425516806 
-0.1236949904833254 
0.06739053423393281 
0.03938799290898615 
-0.001138367425516806 
0.06209046614759463 
0.0334020844130543 
-0.01801168761963141 
-0.09362435760565255 
-0.001527371967482798 
-0.01196005201371478 
0.01548825465759274 
-0.09717603763038697 
-0.09717603763038697 
-0.09632863423050235 
-0.2505794581050506 
0.3090211492716531 
-0.09717603763038697 
0.08638808954341667 
-0.4640323891480332 
-0.2505794581050506 
-0.09632863423050235 
0.1327281536071132 
0.001443691686782672 
0.0005614000006184542 
0.0757814686466373 
0.03297197212052523 
0.2926186887061242 
0.0005614000006184542 
0.02439189308536049 
-0.003082196138076009 
0.0005614000006184542 
-0.009256975039442955 
0.001443691686782672 
0.02439189308536049 
-0.2307856211585527 
-0.003384138806993487 
-0.1084601084085171 
-0.06062897726348331 
-0.1192236328193596 
-0.2307856211585527 
-0.1706014355729722 
-0.05784549199633181 
-0.1192236328193596 
-0.1234387131049579 
-0.1192236328193596 
-0.002560788794848586 
0.1986882781871022 
0.2308954059072345 
-0.01909984233285692 
0.05113077811108445 
0.1488963396371803 
0.03289390016817974 
-0.1064437307871242 
0.01023407520250244 
-0.005216725104886069 
0.02637874728754643 
0.01670794495791491 
0.02637874728754643 
0.01670794495791491 
0.01435256592615749 
0.03289390016817974 
0.009189139834677005 
0.03291204886027124 
0.02637874728754643 
-0.06034160014717226 
0.07149194109846857 
-0.0475889199257767 
0.1621739871623467 
0.1430305181754118 
0.0787900387462384 
0.0787900387462384 
0.07055033229504587 
0.2380641827766202 
0.07149194109846857 
0.07055033229504587 
0.07055033229504587 
0.0516981895845173 
0.02479964678895346 
0.3746163495045783 
0.0606052171661252 
0.3106206430068767 
0.1901743403891746 
0.3106206430068767 
-0.1208474188679067 
-0.1543931404489692 
-0.08164633658028674 
-0.08164633658028674 
-0.05257583088013489 
-0.1021838538735359 
0.04576084352634156 
0.1093269713955881 
-0.08164633658028674 
-0.2478811480461954 
-0.1459417785349316 
-0.2478811480461954 
-0.02249554968609272 
-0.08164633658028674 
-0.1543931404489692 
-0.1543931404489692 
-0.08164633658028674 
-0.01291611432381892 
-0.0621688746064288 
-0.0621688746064288 
0.0001644052347627384 
-0.04203339309863158 
-0.0621688746064288 
0.02885873395201375 
-0.1650443724875246 
-0.0131005388211123 
-1.652505433203701e-05 
-0.0621688746064288 
-0.0621688746064288 
-0.0154745109632633 
-0.1576069568289495 
0.08130904319337799 
-0.05045332753035769 
0.01726287670977191 
-0.004903991043959753 
-0.0007145555605941382 
-0.0007145555605941382 
-0.01797177293399567 
0.0003481779307427584 
0.01726287670977191 
0.01958697821729976 
0.01726287670977191 
0.02760249643433263 
0.006052985498595518 
-0.008483279882422066 
-0.0315697299043607 
0.02901143726864777 
0.006052985498595518 
0.05308946404341341 
0.02760249643433263 
-0.02319435556796973 
0.02204207820898145 
0.01003305132155565 
0.01756326356707096 
0.0003081734055900346 
0.001221088981188248 
0.01661263050142009 
0.01687479936297738 
-0.07531323694496041 
0.1093867932025527 
0.0434241900709012 
0.008580536334020002 
0.008580536334020002 
0.02994662597456074 
0.00677470056453206 
0.01129769531139706 
0.02994662597456074 
0.03983492417851092 
0.02994662597456074 
-0.02657195219654663 
-0.06720016859786937 
0.00136819383434806 
-0.04349871365537005 
0.03600538454868341 
-0.004951107681121825 
-0.09477200224065256 
0.1135302436271482 
-0.004951107681121825 
-0.02805666857560439 
-0.06720016859786937 
-0.01570226510022989 
0.1332959274581324 
0.1354966142591736 
-0.01913796011179002 
-0.1238480658458668 
-0.01913796011179002 
-0.2288092211020118 
-0.0005365486163296159 
0.05923880005826175 
-0.1718444107845829 
-0.01206110944523409 
-0.01206110944523409 
-0.262090661617135 
-0.01307187468201241 
-0.01913796011179002 
-0.01913796011179002 
-0.1238480658458668 
-0.0178439617894807 
-0.01701480680402939 
-0.127744304780843 
-0.01797858591682852 
-0.05666071067693722 
0.01227973590842814 
-0.01797858591682852 
0.07543464362031657 
-0.02251662771942766 
-0.02251662771942766 
-0.02262549329817145 
-0.01190282068311896 
-0.009621039899670298 
-0.0499161172901959 
-0.03409710566338309 
-0.01953434873272898 
0.01057412348092233 
-0.003236922583863102 
0.01057412348092233 
-0.003236922583863102 
0.005987968792636536 
-0.08885948981522253 
0.01057412348092233 
-0.01953434873272898 
-0.1228783242046574 
0.007826084854674807 
-0.004341408042409996 
0.01177291622649041 
-0.1228783242046574 
0.02829972553685221 
-0.1228783242046574 
-0.05621293677517993 
0.001138477482063121 
0.0108699184832345 
-0.2877406137067734 
0.03230289122626128 
-0.03253235772683303 
0.02630414929437346 
-0.005633249865807153 
0.185374027308923 
0.05290164336830495 
-0.2877406137067734 
0.02040011213660032 
-0.180652754935534 
-0.180652754935534 
-0.180652754935534 
-0.03334924503514347 
-0.02737181838983177 
-0.01106639397785325 
-0.180652754935534 
-0.01106639397785325 
-0.03334924503514347 
-0.180652754935534 
-0.03334924503514347 
-0.02737181838983177 
-0.4390537989965198 
0.07673049777374269 
-0.02737181838983177 
-0.180652754935534 
0.007950871617768397 
0.002112848688408071 
-0.05078013144331221 
-0.05078013144331221 
-0.05078013144331221 
-0.0160215729508192 
-0.01114901855728962 
0.08547639003990341 
-0.005834838290148855 
-0.0160215729508192 
0.01202330135843301 
-1.74673681508984e-05 
-1.74673681508984e-05 
-1.74673681508984e-05 
0.03891557827988819 
0.004142695486554803 
-1.74673681508984e-05 
-0.1341707261835691 
-1.74673681508984e-05 
0.1360478076726838 
0.05906825046647153 
0.3016567766520958 
0.04386890071159409 
0.3926561355211944 
0.3016567766520958 
0.02022252220766034 
0.1360478076726838 
0.125218297231628 
0.02022252220766034 
0.02022252220766034 
-0.01178650283282509 
-0.009225788328634466 
0.06962901312507923 
0.3016567766520958 
-0.009189943217432009 
-0.02405908928592751 
0.02353631055330194 
0.008470577978449547 
-0.0124833524696555 
0.01279720553711777 
-0.02405908928592751 
0.008470577978449547 
0.02974483138411258 
0.01207000482898244 
0.05289442008152395 
0.08220743864135774 
0.05289442008152395 
0.2692917498946052 
0.05475846095081568 
0.02945845660768564 
0.1010766016884964 
0.2736779252171205 
0.05289442008152395 
0.050237578965552 
0.05679206195655075 
-0.01942641103087452 
0.08192704184221093 
0.05461170680362454 
0.08970492450821149 
-0.00112703261630527 
0.08192704184221093 
0.4788519298064701 
0.1160521215604202 
-0.00112703261630527 
0.02947830913313917 
-0.01802462872530256 
0.08192704184221093 
-0.02360893429402261 
-0.1673913140091567 
0.06724370819814443 
-0.08214547227923691 
0.002968994051193291 
0.03044833346897117 
0.03044833346897117 
0.03044833346897117 
0.02921258845223245 
0.03044833346897117 
-0.006146448737873938 
0.08354043957414364 
0.08354043957414364 
0.05146411613236338 
-0.03363910378782947 
0.05664001413648151 
0.03854276162239356 
0.05664001413648151 
0.03854276162239356 
0.07247744966782717 
-0.03249971735420774 
-0.0114602021013612 
-0.02991058256056486 
-0.009305646010636895 
-0.2710456075550237 
-0.02991058256056486 
-0.1872091679189883 
0.1091244151112414 
-0.01846359350114073 
-0.02991058256056486 
-0.009305646010636895 
-0.02730205966786478 
-0.03152414997220569 
-0.2301634324015158 
0.06466668747047655 
-0.01962954531506312 
-0.0067079270201469 
-0.01962954531506312 
-0.01917309847690216 
-0.08612880643267584 
-0.2885695868121179 
0.09003948115829102 
-0.2107070439636153 
-0.1569849691803965 
-0.01962954531506312 
-0.01318832327907776 
0.003306678352243533 
0.164098987154358 
0.003306678352243533 
-0.01318832327907776 
0.003306678352243533 
0.1490376341249687 
0.1690622022725193 
0.008577109867218194 
0.3213294616753967 
0.06178360760079017 
0.02026342746599085 
0.008495570204832884 
0.008495570204832884 
0.001718868094237499 
0.008495570204832884 
0.002909432281095246 
0.002909432281095246 
0.06025485061190063 
0.133005544746228 
-0.09461014036842041 
0.002909432281095246 
0.144892314950807 
0.1070052830963363 
0.05268334539135051 
0.06035595414696221 
-0.1504273225555963 
-0.0007317887367380028 
0.03683882191835214 
-0.01704744436549517 
-0.01704744436549517 
-0.2238566297068444 
0.04575918891823309 
-0.1719763357755755 
-0.01704744436549517 
-0.01704744436549517 
0.04575918891823309 
-0.1528742282974795 
-0.02161707214694003 
-0.03544114142478151 
-0.08945607606895671 
-0.08945607606895671 
0.006838459445018261 
0.1700329102609649 
-0.08945607606895671 
-0.08945607606895671 
-0.08945607606895671 
-0.08945607606895671 
-0.08945607606895671 
-0.1091819130253264 
-0.01317289897358417 
0.04507752456497131 
-0.02782430550722303 
0.002946993186248978 
0.005371376137953347 
-0.02782430550722303 
-0.01317289897358417 
-0.02782430550722303 
-0.01317289897358417 
0.001788232735292756 
0.002946993186248978 
0.005371376137953347 
-0.02782430550722303 
-0.2395881534984387 
0.02534227545022989 
-0.05439524563185184 
-0.01928788111826818 
0.0380128961212427 
0.6663726331683268 
-0.02907167208394821 
-0.2395881534984387 
-0.05927488477696489 
0.04406904802842361 
-0.00737637525589372 
-0.3178707664545918 
0.02850228544204416 
-0.2395881534984387 
-0.2395881534984387 
-0.2395881534984387 
-0.2395881534984387 
-0.0008481557878534351 
-0.0008481557878534351 
-0.05761850959791871 
-0.02332971703362386 
-0.0009939773111381171 
-0.0009939773111381171 
0.05266199184963157 
-0.0008481557878534351 
-0.1094233780073011 
-0.0008481557878534351 
-0.05823433109480649 
-0.09589132418085798 
0.01422835323374735 
