solver_type L2R_L2LOSS_SVC
nr_class 2
label 1 -1
nr_feature 47799
bias -1
w
0.1052371039661622 
0.0108173417593822 
0.5077409768716968 
0.178195431743822 
0.05654437715566174 
0.004487972019829562 
0.0108173417593822 
-0.01001381394079131 
-0.001062556122203691 
0.03515702062242531 
0.002590959267314624 
-0.01437117914177435 
0.01404319920762875 
-0.0002861571464436723 
0.2567299862265592 
-0.02200783254973248 
0.06618584178557831 
-0.001062556122203691 
0.05795039361822035 
0.1028372701483551 
-3.756236802114561e-05 
-0.001287344954196278 
0.002148464526628993 
0.01800574712196883 
-0.05262400575211965 
0.02929363913436251 
0.1521955432667388 
-0.01927846188158893 
0.02541072612936109 
0.02157144512249889 
0.02929363913436251 
0.1521955432667388 
0.006770731482335078 
0.5194662201986359 
0.05600874649745313 
0.02929363913436251 
0.3565325210754243 
0.02929363913436251 
0.04525973585138564 
0.07083069857740371 
-0.03521359083416405 
0.02677973349746943 
0.005204829054551321 
0.02041066370372623 
-0.02841060971545987 
0.02041066370372623 
-0.003134014381790676 
0.01660164544329598 
0.02955391433270102 
-0.0008226145315284716 
0.1168070440645733 
0.02317520651323695 
0.2497336259007536 
-0.00334828241820665 
0.0538400712203957 
0.02041066370372623 
0.01660164544329598 
0.04269565382978038 
-0.00334828241820665 
0.01837628180036154 
0.02609812277824868 
0.005204829054551321 
0.02375626768917407 
-0.00334828241820665 
0.4695185134809298 
0.0232021822969023 
0.001347542877996646 
0.001347542877996646 
0.008446568378779707 
0.001347542877996646 
0.2014339371732369 
0.008446568378779707 
0.008446568378779707 
0.001347542877996646 
0.07718565273943742 
0.001347542877996646 
0.008446568378779707 
0.2014339371732369 
0.003425505757377833 
0.02909968217782461 
0.001347542877996646 
0.001347542877996646 
0.4541173179035264 
-0.006759656079296888 
0.001347542877996646 
0.01821173506693089 
0.07587371437696502 
0.03246150692299926 
0.02909968217782461 
-0.0003005448237600461 
0.005539202598656234 
-0.008536435131936585 
-0.004270389951553648 
0.01172797636270155 
-0.2038963786011119 
-0.1162877761341594 
0.001523925967117792 
0.03372744329477557 
-0.07054934339939958 
-0.0205109168432315 
0.003028408124077917 
-0.01532452264089286 
0.003940508626090573 
0.0003785076231917749 
0.01172797636270155 
0.02133503907115004 
-0.2038963786011119 
0.0003785076231917749 
-0.01532452264089286 
0.01172797636270155 
0.01172797636270155 
0.004248993829286738 
0.003940508626090573 
-0.7641714044597017 
0.03871619206919038 
0.03568141044128656 
0.03583121604860435 
-0.06655521871241815 
0.03583121604860435 
0.03583121604860435 
0.02040710315552827 
0.0461579959795644 
0.01694842328891765 
0.03130927191491017 
0.1942149376410618 
0.03740470365413478 
-0.01181253027786782 
0.1907575746325822 
-0.003727035378364999 
-0.006752907362565176 
0.01871108957864712 
0.05331162478943328 
-0.01181253027786782 
-0.02827754619360463 
-0.01181253027786782 
0.01871108957864712 
-0.006752907362565176 
0.02090004710030543 
0.01871108957864712 
0.003005662695451877 
0.01871108957864712 
-0.007677972098251501 
0.4669348671957172 
0.04400450497766861 
0.1907575746325822 
0.2554815910837746 
-0.006752907362565176 
-0.02686045530265319 
0.003005662695451877 
0.04771913928764159 
0.02578735300249071 
0.1770391694551832 
0.008304685001749725 
0.008304685001749725 
-0.0005467997464509153 
-0.0005467997464509153 
0.03299048945828211 
0.01230188777198437 
-0.0005467997464509153 
0.1770391694551832 
-0.005519202646471587 
0.008304685001749725 
-0.01358810418115018 
0.1055652258648307 
0.01230188777198437 
-0.02285739317508106 
0.01230188777198437 
-0.0005467997464509153 
0.01230188777198437 
0.4942069378919653 
0.008304685001749725 
0.07701870355045465 
0.009483584079778588 
0.03429546858101638 
0.2897162052515463 
0.009644086050567295 
-0.0411999254482753 
0.009644086050567295 
0.006896706868778555 
0.04642205199299971 
0.009644086050567295 
0.009644086050567295 
-0.04645976924042001 
0.5482263568867861 
0.04490120339138388 
-0.00831234190209458 
0.04712342909424769 
0.01233821381684603 
0.7195259288190337 
0.01011255564378298 
0.01270788986477336 
0.1113520380636256 
0.01205419856286774 
-0.00831234190209458 
0.04876686356640755 
0.01233821381684603 
0.0128184926501922 
-0.00831234190209458 
-0.00831234190209458 
0.0165668245729564 
0.02811093843007588 
0.01205419856286774 
0.01233821381684603 
-0.006167743375151018 
0.01233821381684603 
0.04712342909424769 
0.01270788986477336 
0.0004842031948987081 
0.0633703172825401 
0.0004842031948987081 
0.008058357955904271 
0.001572953462896208 
0.06192886373928849 
0.02225254237262783 
0.08859995459323197 
0.01556988834616125 
0.06558613204102226 
0.03989069108472965 
0.0004842031948987081 
0.05843707744878767 
0.001572953462896208 
0.001572953462896208 
0.06192886373928849 
-0.01121723200890988 
-0.003094499190876999 
0.05843707744878767 
0.001572953462896208 
0.01853980514567474 
0.08859995459323197 
0.2197848875801687 
0.06192886373928849 
-0.07973288324703108 
0.008660750247099294 
0.0364673348352447 
-0.1260681768176143 
-0.1073368818838848 
-0.07764603316164573 
-0.07877344921132301 
0.06427605795347506 
-0.09327867442081515 
-0.0371708975460497 
-0.03615758865898524 
0.02350105197882669 
-0.1073368818838848 
-0.1073368818838848 
-0.1073368818838848 
-0.09834700713974351 
-0.09834700713974351 
-0.1065879163209844 
0.05080528041309476 
0.01314843383511713 
-0.001632775812614672 
0.01785807738170424 
0.001913267717338906 
0.001913267717338906 
0.004845869546430705 
0.04493168818381828 
-0.001632775812614672 
0.004845869546430705 
0.07089421302319143 
0.02053587190615063 
0.001913267717338906 
0.001913267717338906 
0.001913267717338906 
-0.008855269097075496 
0.001913267717338906 
-0.001632775812614672 
0.001913267717338906 
0.004845869546430705 
0.001913267717338906 
0.001913267717338906 
0.004845869546430705 
0.1098399774770667 
0.06358310024867822 
0.03263954210982737 
0.06153471368469385 
-0.0002328790587462713 
-0.0002328790587462713 
0.01305856322720214 
-0.0002328790587462713 
0.03915667378250862 
0.009232317138619163 
0.03499365229171954 
0.02271286132810985 
-0.0002328790587462713 
0.01064107601536503 
-0.002887412918136813 
0.01441032512944598 
0.003392734510433273 
0.003143775416721187 
0.07119242733004841 
0.009976897479206839 
0.3061096327428359 
0.0005756356830326327 
0.5874966367232335 
0.002890300371050196 
0.01212348503463473 
0.004163813773794487 
0.03760816450407383 
0.02201436827651031 
0.02201436827651031 
0.03279907643634665 
0.05255269251476452 
-0.01632947177249699 
0.01212348503463473 
-0.00132414996729651 
-0.01607126928898839 
0.03782589301475081 
0.04246204748788349 
0.004163813773794487 
0.01163914635998349 
0.0005756356830326327 
-0.003648742564844469 
0.02624606998713217 
0.01375373522320651 
0.01375373522320651 
0.01090216875938191 
0.01375373522320651 
0.02178673645473483 
0.01375373522320651 
0.01114230941336909 
0.07115962499329002 
0.01114230941336909 
0.02232684553413215 
0.01114230941336909 
0.01222071010540271 
0.01222071010540271 
-0.08214965967004831 
0.01114230941336909 
0.006859284911270979 
0.006859284911270979 
0.001578823974770364 
0.009629744348726533 
0.05267589431272962 
-0.02262055427099592 
-0.001738345235973557 
0.045116170188689 
0.06687128884243158 
0.06687128884243158 
-0.02734865029848326 
0.005834861060196516 
0.009629744348726533 
0.03970959105143275 
0.001578823974770364 
0.006859284911270979 
0.005834861060196516 
0.001578823974770364 
0.07144455581776635 
0.05272154623167252 
0.06687128884243158 
-0.0004817246620472984 
0.005834861060196516 
0.07573396942670774 
0.07358210026968737 
-0.01906318213326032 
-0.01982834595709861 
-0.02346088054639998 
0.02091202077727398 
-0.02046783311252142 
0.07358210026968737 
0.07358210026968737 
-0.018881068840773 
0.01471083666896785 
-0.01357353089615739 
-0.01621331623097754 
0.01740075000101854 
-0.01982834595709861 
0.06492282688775552 
-0.01249355046453788 
-0.03270357253928124 
0.07358210026968737 
0.02091202077727398 
0.06868626840945963 
0.1374457966477833 
0.03427598413831914 
0.01828813092434741 
0.01828813092434741 
0.03614332751619542 
-0.003046363207147336 
-0.01843227149122134 
-0.001051780372762654 
0.01828813092434741 
0.01253894088656868 
-0.0173556457081919 
0.04393933690367571 
0.04393933690367571 
0.04393933690367571 
0.04393933690367571 
0.05704775443011199 
0.02368129925600339 
0.04393933690367571 
0.04393933690367571 
0.04393933690367571 
0.05764749901316954 
0.04393933690367571 
0.04393933690367571 
0.05720204209524464 
0.05387225527002895 
0.05565769234129518 
0.01599417102348915 
0.06284498146052554 
0.05565769234129518 
0.02653389778009827 
0.05387225527002895 
-0.1132918966917592 
0.03010256267135071 
0.03519353654407922 
0.03519353654407922 
0.03130771817330764 
0.01955680500060274 
0.003477612426541806 
0.01955680500060274 
0.02389611196105661 
0.03519353654407922 
0.006460027499415499 
-0.7721627927579591 
-0.2236703282106844 
0.01955680500060274 
0.04888826216034511 
0.01955680500060274 
-0.2236703282106844 
0.009800303124253472 
-0.003629958241697957 
0.01241407051687989 
-0.003629958241697957 
0.0150432268941765 
0.01021163030560031 
0.001198471546904539 
-0.005322010480619296 
0.01021163030560031 
0.01716492497146394 
-0.1006791416897154 
0.01241407051687989 
0.01241407051687989 
0.005890358899825043 
0.01241407051687989 
0.04240745218525485 
0.001198471546904539 
0.009661496185580641 
0.0165573858215468 
0.009559774227099981 
-0.0007475510938610339 
-0.03837288371836652 
0.05683417818720658 
0.01003362292050413 
0.01927528526334033 
-0.0147504854025136 
-0.0007475510938610339 
0.009559774227099981 
0.0165573858215468 
0.009559774227099981 
0.009559774227099981 
-0.0007475510938610339 
-0.0007475510938610339 
-0.0007475510938610339 
0.01003362292050413 
-0.005897935362733924 
0.05713222714993604 
0.08006605023172485 
0.6798411239576209 
0.01015825604694245 
-0.01380644070107013 
0.004413950863243607 
-0.006066196494074975 
-0.005897935362733924 
0.1822364178568329 
0.0001982821736477821 
-0.008352998716391573 
-0.03229312224387033 
-0.005267929283750394 
0.005193511251092732 
-0.01380644070107013 
0.01577694578712181 
0.00447249201052873 
0.004115198568602188 
0.009850820768284909 
0.0001459447341695197 
0.009583119520141778 
-0.01380644070107013 
-0.006853179033162962 
0.001317438009231763 
0.003606506287051386 
0.03106799996884413 
0.001317438009231763 
0.001317438009231763 
0.001317438009231763 
0.05082971814721476 
0.003606506287051386 
0.001317438009231763 
0.001317438009231763 
0.008967175612417482 
0.1008876053005572 
0.003606506287051386 
0.001317438009231763 
0.1008876053005572 
0.001317438009231763 
-0.002248502616473289 
0.07461918104630214 
-0.004131893313881513 
-0.002248502616473289 
0.01397484678324013 
-0.002248502616473289 
0.0509953725396747 
-0.001107921920095789 
-0.0620744482670533 
-0.002638830568009636 
0.007112463890072366 
-0.002638830568009636 
-0.01699735484385362 
-0.01059400118762286 
-0.001107921920095789 
-0.01699735484385362 
-0.0001392981105853879 
0.05877732333106791 
-0.004095487880505591 
-0.0001392981105853879 
0.0007277224313603117 
-0.001018410470489255 
0.0007277224313603117 
0.002141717375252562 
-0.0003272300283186859 
0.0007277224313603117 
0.001100639378030196 
-0.0001392981105853879 
0.03081310549492266 
0.0007277224313603117 
-0.0001392981105853879 
-0.0001392981105853879 
-0.0001392981105853879 
-0.004684808277728669 
0.006954883711472944 
0.01792858553238119 
0.02556231874741965 
0.006153179510179204 
0.02338956022121189 
-0.007959100856766483 
0.00330318751099554 
0.00330318751099554 
0.07226222080774866 
-0.00710515206470962 
0.004498022605637312 
-0.02890980401538954 
0.004189087490457761 
0.004189087490457761 
0.02338956022121189 
0.02366226229872753 
0.02338956022121189 
0.09445881484436437 
0.02119311156723971 
0.007805530746168163 
0.02362753065661575 
0.01558310901812884 
-0.02802299221416659 
-0.0008791123599038667 
0.007805530746168163 
0.007805530746168163 
0.02119311156723971 
-0.0135465856141726 
0.02119311156723971 
-0.0008791123599038667 
0.0003213488228094194 
0.0003213488228094194 
-0.01747937577434628 
-0.006273265811289939 
-0.01933177686138747 
0.001072185912273898 
0.0003213488228094194 
0.08413853754592211 
0.0003213488228094194 
0.05401191007761187 
-0.01747937577434628 
-0.004900584063683629 
0.01078670939183981 
-0.01731156324407588 
0.0003213488228094194 
-0.006273265811289939 
0.005226023907590708 
-0.000121324318240744 
0.03904758762296467 
0.007759990791452812 
-0.000121324318240744 
0.03904758762296467 
0.01860023888969066 
0.005226023907590708 
0.03409585718046181 
0.01860023888969066 
0.04354206138300214 
0.03525853454911825 
0.01860023888969066 
0.001695739657618284 
-0.000121324318240744 
0.03211511552980364 
0.03694615561147951 
0.03909003465082984 
0.5835106430290884 
0.005226023907590708 
0.000534499154906043 
0.000534499154906043 
0.04342250684014008 
0.02918866287279526 
0.004295806355383206 
0.03279958364159957 
0.02878670753889125 
-0.06190717736227137 
-0.05198782918673291 
0.02918866287279526 
0.02878670753889125 
-0.8070823882456827 
0.03186353192440546 
0.03186353192440546 
0.000534499154906043 
-0.04156765639349753 
0.02918866287279526 
-0.02877657741259303 
-0.3785008730014036 
0.000534499154906043 
0.03027845134484656 
0.01382400969693175 
-0.0002861503053651932 
-0.0002861503053651932 
-0.005242103442065971 
-0.0002861503053651932 
0.05214596488825238 
0.0003149158967101894 
-0.0002861503053651932 
0.07479004472184138 
-0.0002861503053651932 
-0.0002861503053651932 
-0.0002861503053651932 
-0.0002861503053651932 
0.004402387042546459 
-0.0002861503053651932 
-0.002580953432601018 
-0.005242103442065971 
-0.0002861503053651932 
-0.005242103442065971 
-0.005242103442065971 
0.07008955754084693 
0.0657371517961223 
-0.01728947022817903 
0.0657371517961223 
-0.1412764788988724 
0.016319800003228 
-0.02255038157057971 
-0.02255038157057971 
0.0657371517961223 
0.0657371517961223 
-0.1412764788988724 
0.07008955754084693 
-0.01728947022817903 
-0.02255038157057971 
0.01677714395113275 
0.06057267313371752 
0.0657371517961223 
0.06659727069733712 
0.06057267313371752 
-0.01728947022817903 
-0.1412764788988724 
-0.1412764788988724 
-0.0001801692403334244 
-0.0001801692403334244 
0.01538644852474169 
-0.0001801692403334244 
-0.0001801692403334244 
0.0549453488735681 
0.01538644852474169 
0.03284651675490298 
-0.0001801692403334244 
0.004557117042923386 
-0.0001801692403334244 
0.01538644852474169 
-0.0001801692403334244 
0.003725605666553066 
-0.0328041858513354 
0.02454701346923347 
0.003049791363524549 
-0.0001801692403334244 
-0.007713582603103482 
-0.1582162527257822 
-0.004870622602655224 
0.0161463416963184 
0.0161463416963184 
0.5306351568661003 
0.04581325659538554 
0.00684396926972396 
0.0161463416963184 
0.2023274737892051 
0.00684396926972396 
0.11239458589072 
-0.005040727149606431 
0.02539017188382225 
0.0161463416963184 
0.00684396926972396 
0.01107890797340692 
-0.008424510971623082 
0.0161463416963184 
0.009035657406515043 
0.01389061395213925 
-0.0006393814543021667 
-0.0006393814543021667 
0.001685221056472491 
0.004734839750885183 
0.001685221056472491 
0.01560717851365532 
0.04681936249416639 
0.001110259190267885 
0.02892555677250324 
-0.0006393814543021667 
0.0008412221276892142 
-0.001956042033202732 
0.04866035852732941 
0.001784351581720314 
-0.004868029994826122 
-0.03844011601355358 
-0.0001017252730385292 
-0.003772713696671192 
-0.0001017252730385292 
-0.0001017252730385292 
0.0008412221276892142 
0.0008412221276892142 
-0.0001017252730385292 
0.02008318528653655 
-0.004033056428601876 
0.0008412221276892142 
0.06842611251783573 
-0.03844011601355358 
-0.005606357288123217 
0.01729253168998827 
-0.0001017252730385292 
0.1320970654496588 
0.2510109906451338 
0.04859049326060878 
-0.002445593256333404 
-0.002397682177726461 
-0.0006300060789835331 
-0.005019526143634087 
-0.6746404319407558 
-0.002101865416071047 
-0.005156779420534782 
-0.0004211947121571174 
-0.006607225521540114 
-0.0006300060789835331 
-0.0006300060789835331 
-0.002101865416071047 
0.0361191047599265 
-0.0092094679196787 
-0.006551786318820682 
-0.196410055856562 
0.04582565370965631 
-0.3284741835874492 
-0.003581937698397295 
-0.002101865416071047 
-0.0005244843790978403 
0.03728995031532865 
-0.0005244843790978403 
-0.0005244843790978403 
-0.0005244843790978403 
-0.0005244843790978403 
-0.0005244843790978403 
0.05656436536930425 
0.01089562077264061 
0.05317431089353195 
0.0007792256108487395 
0.05445729689561437 
0.0007792256108487395 
0.05317431089353195 
0.002189864232590742 
0.05317431089353195 
0.0007792256108487395 
0.002189864232590742 
0.08405385218597078 
-0.0163650463408444 
0.0007792256108487395 
0.002189864232590742 
-0.001900221403307381 
0.08050249608161004 
-0.2292777771958668 
0.04970804912070927 
-0.02860192202345629 
-0.01272815733617405 
0.08594742927042441 
-0.01272815733617405 
0.1885085260532185 
0.04970804912070927 
0.04500805382758633 
-0.01820360353934573 
-0.4059477700388287 
-0.01272815733617405 
0.04320516730487895 
-0.7445412745442707 
-0.01004942737828736 
-0.0115457266542965 
0.03672283711882595 
-0.01820360353934573 
-0.01261631368316396 
-0.02953849256646035 
-0.01301898692054957 
-0.004789118222611371 
-0.0194812704298926 
-0.0261473825464416 
-0.004073042388184542 
0.08445561773821686 
-0.1631431520164484 
0.02330957155128763 
-0.01301898692054957 
-0.01301898692054957 
0.03456251292068588 
-0.0261473825464416 
0.0360472883243147 
0.09738326987171836 
0.1897816749507291 
-0.1221003626653821 
-0.0261473825464416 
-0.00610212691718387 
-0.01301898692054957 
-0.00610212691718387 
0.01040838478975607 
0.01103672866385996 
0.01032263367436143 
0.01679002250071707 
0.01032263367436143 
0.0006464198605988187 
0.0006464198605988187 
0.06095144215271585 
-0.02259773991443569 
-0.004151742128447709 
0.0006464198605988187 
0.0192531655667154 
0.03796165066394851 
0.0006464198605988187 
0.03395063557066593 
0.0006464198605988187 
0.0006464198605988187 
0.139829744836845 
0.01040838478975607 
0.0006464198605988187 
0.0001696931760740616 
-0.0362985676141747 
0.006672831193590432 
0.005722077140389068 
0.006672831193590432 
0.006672831193590432 
0.005722077140389068 
-0.03464786628987969 
0.00229665510051891 
-0.02562643532809521 
0.006672831193590432 
-0.01771861636841912 
0.00033348202810714 
0.005722077140389068 
-0.002451817236178227 
0.007111638616197444 
0.0222343518136282 
0.004323914439740179 
-0.04513159462576709 
0.007111638616197444 
0.0222343518136282 
-0.01974902548108438 
0.09974374691040355 
0.1808193683675778 
-0.04597137725780844 
0.0191505906582523 
0.004323914439740179 
0.003931206075290589 
0.004323914439740179 
0.01895643331040349 
0.004323914439740179 
0.04183173841482219 
0.4478371865557015 
0.0222343518136282 
0.09559265877068165 
0.01895643331040349 
0.01742500649785322 
-0.00569151123477693 
0.01742500649785322 
-0.03628753448278668 
-0.004341613998326132 
-0.02394364471073691 
0.03514240547158572 
-0.03657903274048081 
0.01742500649785322 
-0.03628753448278668 
-0.02394364471073691 
-0.03628753448278668 
0.01941903763978372 
-0.02394364471073691 
-0.00569151123477693 
0.04630893355153842 
0.05116891885336557 
-0.02649109900635838 
0.07887462734042661 
-0.02394364471073691 
0.003285730857975195 
0.003285730857975195 
0.003285730857975195 
0.02280753653586123 
-0.003242308161953743 
0.005534713402602889 
0.003285730857975195 
0.0003025921649440449 
-0.0002598883341185863 
0.003285730857975195 
0.01214907121025397 
0.06334886429763947 
0.003285730857975195 
-0.003117503350871296 
0.003285730857975195 
0.0007344106738226353 
0.0007344106738226353 
0.06334886429763947 
-0.1380369480322433 
-0.03251219637334493 
-0.02491334735264925 
0.05114277630745896 
-0.08433626956183515 
-0.03020041588171866 
-0.06458195426104588 
0.04203996829738126 
0.02911285010731014 
-0.3471609865274369 
0.1190336400265165 
0.1190336400265165 
-0.03020041588171866 
-0.03020041588171866 
-0.01442082710847563 
-0.01951464371770449 
-0.7221075087966549 
-0.005382496235979005 
0.04203996829738126 
0.1190336400265165 
-0.01951464371770449 
0.04203996829738126 
-0.09504736878658546 
0.1190336400265165 
-0.01951464371770449 
0.004489890728336626 
0.009500047776911111 
0.004489890728336626 
0.004489890728336626 
0.004489890728336626 
0.004489890728336626 
0.004489890728336626 
0.006323495417864486 
0.0326985035042557 
0.004489890728336626 
0.004454328777114084 
0.007661901829420417 
0.004489890728336626 
0.004489890728336626 
0.004489890728336626 
0.004489890728336626 
0.009782708978778688 
0.009500047776911111 
0.01366793689096346 
0.009500047776911111 
0.003186459215702072 
-0.01211541629321667 
-0.001194133980341948 
-0.01000761199496897 
0.004605824417696858 
-0.002139109680063699 
-0.001742119908409906 
-0.01484269074430195 
-0.009093859463173289 
0.004605824417696858 
0.003186459215702072 
0.003186459215702072 
0.004605824417696858 
-0.01211541629321667 
0.006746687238551982 
-0.005558399253703179 
-0.01211541629321667 
0.02820997992461584 
-0.337113440253773 
0.009363885182915366 
0.001811473852280281 
-0.007799516435805502 
-0.0009657586969874585 
-0.1864514931646323 
-0.01078796747668813 
-0.6849732493139934 
0.00230385063727686 
-0.008968209121715151 
-0.01103500352147555 
-0.0009657586969874585 
-0.01103500352147555 
-0.0009657586969874585 
-0.008968209121715151 
-0.008968209121715151 
-0.03079777682275467 
0.006820148114701084 
0.1034267797432474 
-0.03433279607624693 
0.001740535041216934 
-0.0003599530847152356 
-0.009647581596136524 
0.1100880032585236 
0.001740535041216934 
0.002778156226482894 
-0.0003599530847152356 
0.01903703895073898 
0.09007274314357479 
-0.0001120078516838904 
0.1149396105924804 
0.09007274314357479 
-0.009821781963753206 
-0.0001120078516838904 
0.09007274314357479 
0.01224764421570611 
-0.01966901589768223 
0.005882157501478107 
0.02705437198713681 
-0.0001120078516838904 
-0.01616304430085042 
-0.009985106227681926 
0.00874869689930487 
-0.0001120078516838904 
0.02021151633432681 
-0.0001120078516838904 
0.05294187705718852 
0.09007274314357479 
-0.0001120078516838904 
-0.0001120078516838904 
0.04522616648659424 
-0.008257344842830026 
-0.01015826948797702 
0.05539724185388705 
-0.007229887865657819 
0.02147085416801121 
0.01240177407835853 
0.05538709050714762 
0.02364784836494393 
-0.008257344842830026 
0.01390575190194151 
-0.07525905563879201 
0.005271221535689966 
-0.008257344842830026 
0.08714837097769099 
-0.007229887865657819 
-0.007229887865657819 
-0.008257344842830026 
0.02506377604799334 
0.02025067902349965 
-0.01751805255927374 
0.03089518577192703 
0.009711697750140715 
0.05517857849989902 
0.007665932008300983 
-0.06203013400789248 
0.01976751818300561 
0.01976751818300561 
-0.01751805255927374 
0.03089518577192703 
0.07928129360301425 
0.1136896388279416 
0.0792571169996665 
0.03373293539858481 
0.02084577402690593 
0.02025067902349965 
0.02025067902349965 
0.08254603511410391 
-0.002223548778429679 
-0.001671323608251627 
0.103620972098626 
0.03066100100483507 
-0.006862382893167748 
-0.0004831608404940445 
0.08254603511410391 
-0.001945540373459911 
0.0314115363038935 
0.03066100100483507 
-0.0004831608404940445 
1.799859249678598e-05 
0.08254603511410391 
0.0004002252470594063 
-0.0007284202028312389 
0.05062683246953849 
-0.0007284202028312389 
-0.0007284202028312389 
-0.00121876354667236 
-0.0007284202028312389 
-0.0007284202028312389 
-0.0007284202028312389 
0.01835401179799686 
-0.0007284202028312389 
-0.08361197716939892 
-0.0007284202028312389 
-0.0007284202028312389 
-0.0007284202028312389 
0.00230341966443303 
-0.1027752459305468 
-0.05171796625869188 
0.07470512894513688 
-0.1027752459305468 
0.04565621340330958 
0.04565621340330958 
0.04565621340330958 
0.05131580348374091 
-0.1027752459305468 
0.05208616383635492 
0.04565621340330958 
-0.1027752459305468 
-0.05171796625869188 
0.05208616383635492 
0.07317376210301221 
0.05131580348374091 
0.04565621340330958 
0.02850267596889505 
0.04565621340330958 
0.001305523457973999 
0.001305523457973999 
-0.01310267310490944 
0.001305523457973999 
0.002090576178279146 
0.001305523457973999 
-0.02649490153206843 
-0.03508525142754589 
0.004321577205556516 
0.001305523457973999 
-0.01655030054821883 
-0.02092008819504478 
-0.01330974672717542 
0.004321577205556516 
0.01263551375630267 
-0.009475114984247275 
0.001305523457973999 
0.004321577205556516 
6.790488840265887e-05 
-0.01464261742062916 
6.790488840265887e-05 
0.002182257841652254 
0.002182257841652254 
6.790488840265887e-05 
0.01344478240497801 
0.06513411726450098 
-0.0007197857814918038 
0.0874527784694412 
0.0874527784694412 
-0.01759736246880102 
-0.0007197857814918038 
-0.02414500044178961 
0.1776605746876566 
-0.002978633721003535 
0.08579355248182505 
0.01323018117501496 
0.01323018117501496 
0.04131935960672557 
0.00247434762145444 
0.11032573017642 
0.0004386760111047967 
0.02262652919193509 
-0.002978633721003535 
-0.0104671915213557 
0.002883622736111071 
-0.005093900144048982 
-0.002978633721003535 
0.0004386760111047967 
0.02262652919193509 
0.0004386760111047967 
-0.01069206463530781 
-0.01069206463530781 
0.02600095225921088 
-0.01197906519442586 
0.0001703185005396029 
0.004494346580663637 
-0.0001433368571142049 
0.02011507684983792 
0.05359343197967305 
-0.02356164023831673 
0.002762331449360392 
-0.001571613038167798 
-0.02356164023831673 
0.2364806308244304 
-0.02356164023831673 
0.009113441298722862 
-0.0001374519203772731 
0.01293144619097605 
0.01293144619097605 
0.0008205131417225418 
0.01293144619097605 
-0.0001374519203772731 
0.005821070275553894 
-0.0001374519203772731 
0.03661672943982131 
0.03610786287155107 
-0.0001374519203772731 
0.02610783932213165 
0.02575513966836077 
0.005821070275553894 
-0.000279201127066001 
-0.003164504117825552 
-0.000279201127066001 
0.001224692684402515 
0.001224692684402515 
-0.000279201127066001 
0.001224692684402515 
-0.000279201127066001 
-0.000279201127066001 
-0.003164504117825552 
-0.003164504117825552 
0.001224692684402515 
-0.000279201127066001 
-0.000279201127066001 
-0.0008528604088141864 
-0.0008528604088141864 
0.01861474796448412 
-0.004822364433880038 
0.08552321596664833 
0.01861474796448412 
-0.005110321779469453 
-0.0008528604088141864 
-0.000525761483418919 
0.02603826657317178 
0.04723169739450198 
0.1511130177757085 
0.01691921118795368 
-0.0008528604088141864 
-0.000525761483418919 
0.07525176919905999 
-0.01478401562888875 
0.01527337445411914 
-0.04872848770967177 
0.004218913447577949 
-0.005102987899069033 
-0.008460303109875377 
0.008207218860510236 
0.008207218860510236 
0.01527337445411914 
0.07926759487042405 
0.05193323643339776 
0.004218913447577949 
0.01527337445411914 
0.004218913447577949 
0.04986960931562431 
0.04986960931562431 
0.00854337666384822 
0.05011227129335977 
-0.01893571682089715 
0.05011227129335977 
0.06073711515301098 
0.06073711515301098 
0.1028344696142939 
-0.01893571682089715 
0.06073711515301098 
0.04986960931562431 
0.04986960931562431 
0.06386985044761977 
0.05011227129335977 
0.002271823905844322 
0.004401419316318908 
0.004401419316318908 
0.0338180766132998 
0.03042442591307277 
0.03321654485199806 
0.01687398995435048 
-0.006473617767440602 
-0.1145840595309429 
-0.2195711612151023 
0.03726702948378108 
0.01941293680692384 
-0.001965197062080274 
-0.2643575039863927 
-0.001965197062080274 
-0.01901824525223654 
-0.001965197062080274 
-0.1144412624385712 
-0.001965197062080274 
-0.002577785092267114 
-0.01901824525223654 
0.08373660364302207 
-0.001965197062080274 
-0.01901824525223654 
-0.001965197062080274 
-0.001066668016308419 
-0.02240775052016852 
-0.002681785443532475 
-0.002681785443532475 
-0.002681785443532475 
-0.001066668016308419 
0.05990700912536819 
-0.001066668016308419 
-0.0008380046683886984 
-0.002657471013602601 
-0.005461479902078036 
-0.002657471013602601 
-0.002681785443532475 
4.302043708936403e-05 
-0.008959727522691627 
-0.002974204916956285 
0.01082470469128693 
0.03794399024567876 
0.01082470469128693 
4.302043708936403e-05 
-0.0004870895587870022 
0.0155197238172254 
0.04391884115537037 
-0.001107106274775248 
-0.004341154714872925 
0.02132656084284669 
0.01581621976154426 
-0.004341154714872925 
-0.001107106274775248 
-0.001107106274775248 
-0.004341154714872925 
-0.001107106274775248 
-0.004341154714872925 
-0.001107106274775248 
0.01549602660590931 
0.006893653286564964 
0.005899404518856786 
0.01549602660590931 
0.002274062299588276 
0.02638316564196653 
0.03909612576990726 
0.002274062299588276 
-0.005368748592394354 
0.01549602660590931 
0.005172978171651604 
0.005172978171651604 
0.07275143701209405 
0.005172978171651604 
0.04730950352891566 
0.005172978171651604 
0.001317576855779518 
0.04182784341432302 
0.009294725064273472 
0.1599439517823631 
-0.03974180822619761 
0.4793849721691293 
0.001317576855779518 
0.1091545885247688 
0.001317576855779518 
0.001317576855779518 
0.06012639313810744 
0.0819870162926247 
0.01109432682831867 
0.01138419455011328 
0.009557970517879226 
0.01109432682831867 
-0.0162182824926471 
0.001431095001259597 
0.2637878632724996 
0.008895961283764835 
0.001350558064242146 
-0.00478851260347259 
-0.0538882332454899 
-0.0003042864679201682 
0.03903817616853352 
0.00551114817484592 
0.00551114817484592 
0.0006377499000845841 
0.003992425506419991 
-0.0004874272079957511 
-0.0004874272079957511 
-0.03798619434131844 
-0.0004874272079957511 
-0.0004874272079957511 
-0.002107297484374218 
0.0006377499000845841 
-0.01049012693890123 
-0.008737496809808631 
0.05814644296211097 
-0.0004874272079957511 
-0.04988447421711342 
-0.003557726568261461 
-6.419240449436603e-05 
-0.004908663554478867 
-0.03419044938889626 
-0.003964459307757439 
-6.419240449436603e-05 
0.004460125313796864 
-6.419240449436603e-05 
-0.01938868993060449 
-0.01938868993060449 
0.03332952781127837 
-0.01938868993060449 
-0.01938868993060449 
-0.02267094543987444 
0.03332952781127837 
0.002856494457365041 
0.005704270324634118 
0.5175196997419285 
-0.02999053094470398 
-0.007216640010603203 
0.005704270324634118 
0.005704270324634118 
0.005994165353161996 
0.005704270324634118 
0.001648025232050203 
0.2626866934791972 
0.1183595972528199 
0.005994165353161996 
0.02519343682033163 
-0.003503050623469196 
0.008654936116543836 
-0.009751019709270564 
-0.006629206449645456 
0.001200213556264016 
0.002810389673772172 
0.06629199906093206 
0.001200213556264016 
-0.009751019709270564 
0.009579467831028246 
-0.003503050623469196 
-0.0008596802474953903 
0.009820654833113066 
0.02391887100090328 
0.07102067025980661 
0.02391887100090328 
0.003340653239648656 
0.02391887100090328 
0.003340653239648656 
0.003521964739657059 
-0.001567981980257944 
-0.0002860891836633807 
0.003340653239648656 
0.01980166604686916 
0.003521964739657059 
-0.001567981980257944 
-0.0008596802474953903 
-0.001065822750798024 
0.03405909876820553 
-0.0003921970319005417 
0.006804407291452548 
0.01463826342931342 
-0.0003921970319005417 
0.005761216032113149 
-0.001585569211827697 
-0.001824470790877841 
-0.07462636120288182 
0.01735690639053891 
0.00735863964082525 
-0.5700646443617434 
0.01661997743854024 
-0.5700646443617434 
-0.001585569211827697 
-0.04451252196953504 
0.00735863964082525 
-0.001824470790877841 
0.01661997743854024 
-0.2620063254267488 
-0.001824470790877841 
0.01661997743854024 
-0.001585569211827697 
0.007270897591213908 
-0.02274739752978295 
-0.004578976228902105 
0.005286688162324753 
-0.004578976228902105 
-0.004578976228902105 
0.04440397928544834 
-0.004475291394278975 
0.03316956132385855 
-0.1602336775239726 
-0.004475291394278975 
-0.346166248353304 
0.05910504931913636 
-0.004475291394278975 
0.001501122216938326 
0.01708386333748288 
-0.05453951864901214 
0.02435245300074278 
-0.06987602493527791 
0.02116011249210379 
0.02116011249210379 
-0.04748272137609813 
0.02762431066166036 
-0.05453951864901214 
0.02116011249210379 
0.02116011249210379 
0.06876818905095297 
0.02116011249210379 
0.02116011249210379 
0.02603359495703909 
0.01388242166199703 
-0.01217116717583256 
-0.01217116717583256 
0.03765757573362605 
0.01593444869957863 
-0.01439892873094258 
0.004726270073909846 
-0.01217116717583256 
0.004726270073909846 
-0.01217116717583256 
0.02520364679842891 
-0.01217116717583256 
0.04329552352199097 
-0.00135863702427009 
-0.01217116717583256 
0.07569649539784198 
-0.001512873330216955 
-0.001512873330216955 
-0.001512873330216955 
0.006774392458823377 
-0.1110994113085091 
-0.00529531127991968 
-0.01990071180684488 
0.07569649539784198 
-0.01990071180684488 
-0.04656278453174911 
-0.00568199194396944 
-0.0005060853836498843 
-0.01990071180684488 
0.009036425259300389 
0.07569649539784198 
-0.01990071180684488 
-0.001512873330216955 
-0.001512873330216955 
-0.1197775576245113 
-0.00529531127991968 
0.01856434768332937 
-0.001987135977676737 
0.01423302430101976 
0.02175799832368595 
0.02322628938951063 
-0.008313034230456024 
0.01856434768332937 
0.01423302430101976 
-0.00164659105366706 
5.904782517027801e-05 
0.01423302430101976 
-0.008138745660084833 
0.01423302430101976 
-0.008138745660084833 
-0.008138745660084833 
-0.0001213436612293536 
0.02278670575527298 
0.004789225896269793 
0.009873448214805566 
-0.001608407618081676 
0.0004097101027088019 
0.02099962159590619 
-0.0001213436612293536 
0.02256876622409014 
0.009873448214805566 
-0.001608407618081676 
-0.0001213436612293536 
0.009873448214805566 
0.009873448214805566 
0.005853700234607339 
0.001932369156930698 
0.01423236616524217 
0.005475222798267289 
0.001932369156930698 
0.0108314041851742 
0.01423236616524217 
0.001932369156930698 
0.001932369156930698 
0.01423236616524217 
-0.002105390930729503 
-0.002105390930729503 
-0.03789378474522467 
0.003102425057950627 
0.02159521099807458 
0.02831637673480008 
0.0593557254331552 
0.3081687743839368 
0.02831637673480008 
0.02831637673480008 
0.02159521099807458 
0.04573595965232705 
0.004854786578138734 
0.01139088293782008 
0.0120961210634146 
0.0120961210634146 
0.004854786578138734 
0.004854786578138734 
0.03380343802891296 
0.03660885865299383 
0.02159521099807458 
0.009466517955167437 
0.02159521099807458 
0.001123156894511976 
0.001123156894511976 
0.004140932785775103 
-0.008664933063193367 
-0.01578350854576177 
0.06541366521031014 
0.05614353474842945 
0.005560069763622873 
-0.008664933063193367 
0.004140932785775103 
0.01073338598459917 
-0.008664933063193367 
-0.008664933063193367 
-0.02204028941051669 
-0.02191595886384236 
-0.008664933063193367 
0.03554352118497942 
0.005560069763622873 
0.004140932785775103 
-0.02191595886384236 
0.009043089522953528 
-0.0149931634369056 
0.1941947356129229 
-0.01498182786160674 
9.694912489801326e-05 
0.06651108436433781 
0.02696179115439792 
-0.0122571702188149 
0.0600511189387755 
9.694912489801326e-05 
-0.01549669559054834 
0.3283076830768951 
9.694912489801326e-05 
0.05519889092553108 
0.009043089522953528 
0.008497680018727699 
0.07166112169264278 
0.01158403193815766 
0.06058128165000055 
0.07222931885826538 
0.06602096930903445 
0.05811638729213657 
0.0570340768914044 
0.0002850945033555966 
0.02832922920900952 
0.07222931885826538 
0.03915646110666683 
0.0002850945033555966 
0.07063986962951979 
0.06602096930903445 
0.06778108865466265 
0.06606037518557903 
-0.02780658458814857 
0.06602096930903445 
0.0002850945033555966 
-0.007709780358124888 
0.02589149579539558 
-0.008688365142252016 
0.02589149579539558 
0.02589149579539558 
0.05627379116917398 
0.1996045154624639 
0.3707842319097282 
0.02431205420269559 
0.006231058810992959 
0.1013666617499824 
0.006231058810992959 
-0.008688365142252016 
0.02431205420269559 
-0.00553460464124231 
0.02431205420269559 
0.02431205420269559 
0.02589149579539558 
0.01691210152096387 
-0.00599947201967004 
-0.00599947201967004 
0.002908821940788616 
-0.00599947201967004 
0.009334756656874445 
0.002908821940788616 
-0.01787430800030953 
0.009334756656874445 
0.01232293145479687 
0.2220344428089855 
-0.03237317750975583 
0.01802519313615026 
-0.02266519515034477 
-0.03237317750975583 
-0.05863252535332895 
-0.03237317750975583 
-0.03237317750975583 
-0.3584898846922154 
-0.05940974819686808 
-0.005059249974489345 
-0.02266519515034477 
-0.03237317750975583 
-0.03222679422286377 
0.008805659736789435 
0.02190348964890311 
-0.02266519515034477 
-0.009902514272685608 
0.0005664400622329251 
0.01834215351958943 
0.005540280386573363 
-0.001746175677272099 
0.01834215351958943 
-0.0009857987313421643 
0.01834215351958943 
-0.01385337441892506 
0.01096244101622914 
0.06023493594971926 
0.0009009682046717243 
0.01096244101622914 
0.2346433173672826 
0.01096244101622914 
0.0009009682046717243 
0.01834215351958943 
0.08077399517038789 
0.01096244101622914 
0.0686907805878836 
0.2346433173672826 
-0.06733242590721386 
-0.02751785956766399 
0.03009669898191678 
0.08922876303728688 
0.04087519143380132 
0.06988418264489914 
0.04087519143380132 
0.04087519143380132 
-0.06733242590721386 
0.0339789965177372 
-0.02751785956766399 
0.1499244692714198 
0.5904214848852605 
-0.00760317332837755 
-0.0002618547924334028 
0.02013218057845681 
-0.004239908395798423 
0.02013218057845681 
0.01081675491898572 
0.001222764822557477 
0.002428360483311942 
0.005683893030471324 
0.00223146523931585 
0.008982894970627084 
0.00223146523931585 
-0.02908851201518693 
-0.05054501047192781 
0.007082772610138924 
0.02602480407956382 
0.005659027336702665 
-0.00694770607853596 
0.003596348375835732 
-0.001359559153081361 
0.00124809173049173 
-0.004904919762748152 
-0.002673651084130425 
0.005764559481465272 
0.02137910504279771 
0.003464241513852338 
-0.0002988430246720568 
0.005764559481465272 
-0.0002988430246720568 
-0.00694770607853596 
-0.2091240384951936 
-0.00694770607853596 
0.02176993698225263 
-0.1490600065571785 
-0.00694770607853596 
0.01543403711262653 
0.01543403711262653 
-0.004205211454211454 
0.1390087770475614 
-0.003685690019717728 
0.003119633931361518 
-0.01148217422773324 
-0.01148217422773324 
0.01543403711262653 
-0.01148217422773324 
-0.004205211454211454 
0.2641700105511126 
-0.002601678121869165 
-0.004205211454211454 
0.2641700105511126 
-0.004205211454211454 
0.01243653789034415 
-0.004205211454211454 
-0.004205211454211454 
0.04801714563606001 
-0.004205211454211454 
0.04097267347518366 
-0.02443905248978093 
-0.0007848911266241589 
0.000291498257694126 
0.001016718018314782 
-0.01615615257136191 
0.000291498257694126 
-0.0107730896350508 
-0.0377004307785287 
0.03084404178064229 
0.000291498257694126 
0.0004025483422584472 
-0.02166084685087621 
0.02400605763160522 
-0.02941030017550382 
0.02400605763160522 
0.09622297249856658 
-0.06163623180865122 
0.02652735511067503 
0.205533603654495 
-0.2607186542408202 
0.02400605763160522 
0.1090312004781099 
0.05811994383456991 
0.05811994383456991 
0.1129354739897437 
0.02652735511067503 
0.02724771793160943 
0.05235655619325407 
-0.02066835155335905 
-0.02066835155335905 
-0.00141921351566961 
-0.00141921351566961 
0.05308247988549789 
-0.00141921351566961 
-0.009570488833104247 
0.003156458471602345 
0.08718500762194067 
-0.009570488833104247 
-0.006679548710620815 
0.01749881093926109 
0.04065791771026107 
-0.00141921351566961 
0.02724771793160943 
-0.0002794084806399301 
0.01937784132012325 
0.01937784132012325 
-0.0002794084806399301 
0.03046439897076199 
-0.0002794084806399301 
-0.0002794084806399301 
0.02512055871733449 
0.01223117509159321 
-0.347859809060222 
-0.01345128251298973 
-0.01387599955485734 
-0.1336593817051226 
-0.05643564209421042 
0.01223117509159321 
-0.01474074600627728 
-0.01474074600627728 
0.01223117509159321 
-0.02232014493767063 
0.02271969122431912 
0.02512055871733449 
-0.0144776998992181 
-0.004481356999471832 
0.002257253723715522 
-0.007632719416031945 
0.002257253723715522 
0.004548143814268412 
-0.007632719416031945 
0.002257253723715522 
0.002257253723715522 
0.002257253723715522 
0.002257253723715522 
0.004548143814268412 
0.005642378097563761 
0.002257253723715522 
0.004548143814268412 
-0.007632719416031945 
0.002257253723715522 
-0.02742469041064829 
-0.006236254806001751 
0.0005053053291308699 
-0.007770105317726759 
0.0005053053291308699 
0.0005053053291308699 
-0.00439575975254751 
0.00508890615391076 
0.03611995898299242 
-0.006236254806001751 
0.06809888103059808 
0.1398432012512344 
-0.007770105317726759 
0.0005053053291308699 
0.00508890615391076 
0.173055739290838 
0.0005053053291308699 
0.03926858095703143 
-0.006495555441956279 
0.0005053053291308699 
0.00508890615391076 
0.0453343032743527 
-0.001088839887421655 
-0.001088839887421655 
-0.001088839887421655 
-0.0008711195713280014 
0.04292232636722867 
0.02589941736330617 
-0.02716197870537042 
0.02217951328250222 
0.001470518965602933 
0.1903052150043711 
0.001070680865451939 
0.001070680865451939 
0.08145054820070978 
0.001070680865451939 
0.001070680865451939 
-0.001354161609454687 
-0.001463426086458421 
-0.138679919712485 
-0.138679919712485 
-0.138679919712485 
0.04197383608753913 
0.1258900083208138 
-0.007405080703041772 
-0.007405080703041772 
0.07078305628653374 
-0.007405080703041772 
-0.138679919712485 
-0.007405080703041772 
0.06948738236621563 
0.07078305628653374 
-0.001578961193043137 
0.003714505857994652 
0.003714505857994652 
0.019807784284393 
0.008978009320977608 
-0.001838601057215657 
0.003714505857994652 
0.003756569186548104 
0.003714505857994652 
-0.09481232735198165 
0.05055201074707759 
-0.1600064442328606 
0.03823857986493863 
0.1096759959957152 
0.019807784284393 
0.02084890827099499 
0.019807784284393 
-0.05887628348966448 
-0.04371439665918972 
-0.01622189376339195 
-0.01622189376339195 
-0.01622189376339195 
0.01020521969604522 
-0.01622189376339195 
-0.01622189376339195 
-0.01622189376339195 
-0.04160438969775224 
-0.004486097345588729 
0.002347385123913575 
-0.002150868882016075 
-0.004486097345588729 
-0.002150868882016075 
-0.002150868882016075 
-0.002150868882016075 
-0.004486097345588729 
-0.004486097345588729 
-0.004486097345588729 
0.007800171015747802 
-0.004486097345588729 
-0.007290626168558051 
-0.004486097345588729 
-0.004985650535299173 
-0.004985650535299173 
-0.004985650535299173 
-0.003365604800223279 
0.009081393925434309 
0.006345965695284554 
-0.008022021908880177 
-0.000587582019502917 
-0.003365604800223279 
0.006393171694970812 
-0.06149740656082224 
-0.03921294953707989 
-0.001098100651376865 
-0.009794288484456352 
-0.05840827353033799 
-0.01094862074483075 
-0.008446076642244699 
-0.009794288484456352 
-0.02126371139424894 
-0.009794288484456352 
-0.01094862074483075 
-0.07299127836736037 
-0.01094862074483075 
-0.01094862074483075 
-0.01094862074483075 
-0.008709429575837152 
-0.01094862074483075 
0.03763844311600121 
0.000991494181358859 
0.000991494181358859 
0.002020489326614293 
0.03390365450645041 
0.007153387672268464 
0.05784375489589063 
0.000991494181358859 
0.000991494181358859 
0.03071946110849578 
0.000991494181358859 
0.01968994260531445 
0.000991494181358859 
0.003499267773316931 
0.08716438790921566 
0.02235607575050665 
0.07832302498434285 
0.0004750926843674775 
0.02617352183453293 
0.0166947951224359 
0.02617352183453293 
0.02617352183453293 
0.02238202613692918 
0.04717040711421944 
0.08634715424315116 
0.004898889015419289 
0.04717040711421944 
0.0166947951224359 
0.02617352183453293 
0.004898889015419289 
0.04717040711421944 
0.02617352183453293 
0.1854864998869622 
0.04717040711421944 
-0.003242226172589301 
-0.2324863865694708 
-0.00691771879066426 
-0.01136904572376692 
-0.003242226172589301 
-0.003242226172589301 
0.05764727111689942 
-0.04262300371102625 
-0.03640882969112749 
-0.3749465222692179 
-0.03640882969112749 
-0.2324863865694708 
-0.003242226172589301 
-0.007819015795406364 
-0.006915051131850231 
-0.003399821783135441 
0.02016283364507432 
0.02016283364507432 
0.0008392552847250427 
-0.006915051131850231 
-0.007819015795406364 
0.04916610886550116 
0.02943124153631181 
0.02512307176805358 
-0.007819015795406364 
-0.008100042005881474 
0.01572033634384058 
0.001754660857127393 
0.001754660857127393 
0.007774034774519126 
-0.004144949120899698 
-0.02976130926336355 
-0.005488152108786277 
0.009269878273782638 
0.02552606167209507 
-0.005488152108786277 
0.009269878273782638 
-0.0181619505442289 
-0.1021476510978533 
0.009269878273782638 
-0.01081332639175955 
-0.01421287661148378 
0.000473861764573509 
0.001660047233232135 
-0.04939263709203434 
-0.004440442583063928 
0.008888555569404521 
0.009269878273782638 
0.02052726516950659 
0.02052726516950659 
0.007818145448115937 
0.007818145448115937 
0.003412890677279343 
0.003412890677279343 
0.003412890677279343 
0.07144884023336709 
-0.01660350654553393 
0.007818145448115937 
0.007818145448115937 
0.02052726516950659 
0.02145543776247106 
0.02052726516950659 
0.04494506799957331 
-0.0184853022667658 
0.007865151856947828 
-0.01379622134601209 
0.0008775929368598803 
-0.009423437607766112 
-0.02661484679332663 
-0.01105079807280683 
0.03820449636688196 
-0.003068014552289839 
0.001110599198824978 
0.004535796916005837 
0.007425571728837697 
-0.001071983240859602 
-0.02054429091860911 
0.01929625360314492 
-0.00230129164932793 
-0.0309082822999229 
-0.03292859857226961 
0.004769682924772129 
0.004488816223415191 
-0.02524329188017595 
-0.3080583189349947 
0.00373633038534826 
-0.0412771153578251 
0.003470171796114207 
-0.00109664038224161 
-0.0003322703704134916 
-0.0004511260984816806 
-0.01777748040188819 
-0.0004511260984816806 
-0.0004511260984816806 
-0.01777748040188819 
-0.003115887689986811 
0.007819192223579876 
0.004815014185824884 
-0.02991068262260152 
-0.0004511260984816806 
-0.0181011431487798 
-0.01777748040188819 
-0.0004511260984816806 
0.004815014185824884 
0.008523316066346178 
-0.0003322703704134916 
0.007920048720218276 
0.02117543325604233 
0.006381122837139933 
0.006381122837139933 
0.006381122837139933 
0.001536919987806066 
0.01393383687010491 
0.02833356942607827 
0.004510933408654427 
0.006381122837139933 
0.007397832910408896 
0.01346892499873622 
0.001536919987806066 
0.04450657646030617 
0.02286834368765232 
0.01649812770805976 
0.0005142272590526807 
0.02056570141372221 
0.01483431888037242 
-8.788450106341763e-05 
0.02056570141372221 
0.003165856762508018 
0.0005142272590526807 
0.01106700497962641 
0.002821715576933856 
0.02460647744879195 
0.02056570141372221 
0.03821139678426259 
0.001749540763661458 
0.002910785782086267 
0.02311414055379263 
0.03821139678426259 
0.001749540763661458 
0.03876389005065121 
0.002910785782086267 
0.004281970516947967 
-0.04556058616914259 
-0.008095442750836641 
0.0008633024276159594 
0.000782705845246798 
0.0008633024276159594 
-0.0001214736481784106 
-0.05125221663919809 
0.002715914384788157 
-0.0146206385935305 
0.004281970516947967 
-0.0007441763932739707 
0.002715914384788157 
-0.03036799970285065 
-0.05125221663919809 
0.04331965313782556 
0.003052581464819284 
0.005568308518655589 
0.003052581464819284 
-0.004442497301233815 
-0.007485911583455517 
-0.004442497301233815 
0.04072600915857866 
-0.007485911583455517 
-0.004442497301233815 
-0.004442497301233815 
-0.00418171705112263 
-0.004442497301233815 
-0.004442497301233815 
-0.03362201607420262 
-0.07480711922879152 
0.02328478585219087 
0.01957860262467328 
0.01841784562921238 
0.05129980822113197 
0.05129980822113197 
0.04714209145458989 
0.04714209145458989 
0.04714209145458989 
0.3366454721121661 
0.1153968038772355 
0.05129980822113197 
0.166549364375697 
3.93098831195528e-05 
0.0009212481137413093 
3.93098831195528e-05 
3.93098831195528e-05 
0.005114996915056176 
0.001365169741739432 
0.001499862820791758 
0.001499862820791758 
0.001499862820791758 
0.013046297466436 
3.93098831195528e-05 
-0.0014278535113987 
0.006657876885049221 
-0.001436026324672892 
-0.0004684898124263657 
0.0002650173320688665 
0.006657876885049221 
-0.0004684898124263657 
0.00278341954787678 
-0.01142764166505267 
-0.0671249587977126 
0.00278341954787678 
0.04471396689112421 
0.03798797136546019 
0.00278341954787678 
-0.0008754161889249165 
-0.0006102328642255799 
-0.06181117729787443 
0.01710557810440797 
0.02166334825503112 
-0.02842605847369435 
-0.01311589290029768 
-0.01306477360634751 
-0.02504998061050899 
-0.0146274313439554 
-0.0252998943346475 
0.05568425915605904 
0.003681561136728376 
0.04883821354315027 
0.004834027203387398 
0.04381206205068857 
0.00380867681131562 
0.003681561136728376 
0.01428748364839661 
0.0112908944117204 
0.0006340027980556676 
0.01194364099626545 
0.01759599166322506 
0.00615753068305286 
0.006748341605819311 
0.006133864242758865 
0.02710287202656098 
0.01104561688321703 
0.001457338592289494 
0.005577598918622352 
0.007506091627543503 
0.006748341605819311 
0.06257980919390624 
0.006748341605819311 
0.006748341605819311 
0.006748341605819311 
0.001101928627309223 
-0.04116983508937169 
-0.02481575295596403 
-0.00215591304583232 
0.09929207345918067 
-0.00215591304583232 
0.01708442480368375 
-0.04116983508937169 
0.01708442480368375 
0.01708442480368375 
-0.04116983508937169 
-0.02181012158144203 
-0.01746933792726756 
0.002125758831854517 
0.002125758831854517 
0.007910813622988499 
0.007910813622988499 
0.007910813622988499 
0.01804989665628974 
0.007910813622988499 
0.007910813622988499 
0.06127146721864536 
0.06518929699026881 
0.006114456687757477 
-0.02095189404762498 
0.002125758831854517 
0.02323979828640672 
0.02323979828640672 
0.002125758831854517 
0.06060357547736142 
0.1308500070410287 
-0.005437809520928705 
0.007910813622988499 
0.2114532761119424 
-0.007422942605450338 
-0.0003656683224433785 
-0.01095090530817599 
0.03533973099454317 
0.01207349387231667 
-0.02448881415326177 
0.008704193885768751 
-0.004590594659775057 
0.04922000729872292 
-0.004590594659775057 
-0.0003656683224433785 
0.04922000729872292 
-0.0003656683224433785 
0.03732865787721466 
-0.003969772816307245 
0.005881120873527617 
-0.009876596444445395 
0.03897222497722349 
-0.062286758163324 
-0.009876596444445395 
-0.062286758163324 
-0.1244688357629746 
-0.05402552402133844 
0.01110606732102664 
-0.062286758163324 
-0.2858120111223356 
-0.03985841945984535 
-0.009876596444445395 
0.10928951848941 
-0.1064912720769206 
-0.1140843139497592 
-0.05642838088693602 
-0.06361984515397796 
0.005994372818563743 
0.00446805734245442 
0.002101750212023449 
0.00446805734245442 
0.00446805734245442 
0.002101750212023449 
0.002101750212023449 
0.002101750212023449 
0.02940479892509664 
0.002101750212023449 
-0.0007218757992580733 
-0.004822460603498771 
-0.0007218757992580733 
-0.0007218757992580733 
-0.006452470617369227 
-0.0007615659960611979 
-0.0007218757992580733 
-0.01192559484673216 
0.0005425104462541813 
-0.0007218757992580733 
-0.0007615659960611979 
0.06198503514062872 
-0.01414465333898319 
-0.01209539160315121 
-0.02088559567589288 
-0.006627607878867191 
-0.009330727238275615 
-0.01414465333898319 
-0.009063823699056971 
0.06198503514062872 
-0.009725459061358617 
-0.01585156167038278 
0.05968432132393879 
-0.1246486047225109 
-0.01926759553574713 
-0.07461942335555556 
-0.08542527795920325 
0.05004842632290635 
0.05004842632290635 
0.02994721601053323 
-0.07461942335555556 
-0.07550683830874169 
0.02646957372119852 
0.02553248536672751 
-0.07550683830874169 
0.01164163476531705 
-0.03731233295574105 
-0.0750704250141285 
0.01141856883995488 
-0.04233580632372161 
-0.001722038897446495 
-0.03731233295574105 
0.003591157266325111 
0.01141856883995488 
-0.001722038897446495 
0.01141856883995488 
0.003591157266325111 
-0.001722038897446495 
-0.0006448114619586312 
0.05049964501412015 
-0.1164086844843438 
-0.04252295682923424 
0.0009146251923364376 
0.003620033043934063 
-0.0006448114619586312 
-0.2778217473554996 
0.03982194887046928 
-0.2195892250601777 
-0.003449598782598661 
-0.009428267215806687 
0.03982194887046928 
-0.02656404380868661 
0.01175084585033134 
0.03982194887046928 
0.1139453665206234 
-0.01756126613398215 
0.05504417627592398 
-0.05547611005766074 
-0.02186169485735236 
0.01653820059031326 
-0.01756126613398215 
0.09554670502106083 
0.02895419800415361 
0.01653820059031326 
-0.02659834498884582 
0.09567124975119749 
-0.03819755738827273 
-0.02659834498884582 
-0.1195710957725214 
0.01653820059031326 
0.0555048264309019 
0.06210224621729769 
0.0007324800506895331 
0.0009262651991793761 
0.01431403923271169 
-0.04987251807216725 
0.01738273485205095 
0.01738273485205095 
0.01738273485205095 
0.01738273485205095 
0.01373099603399499 
0.05928123041334903 
0.00292711646270935 
0.04409967532340875 
-0.03355443584845234 
-0.04987251807216725 
-0.04509213911549956 
0.01431403923271169 
0.06356155952769071 
-0.01527034639091943 
0.1329265818361793 
0.01402681284757843 
0.05396615190534593 
0.01253597754673132 
0.05396615190534593 
-0.00484245821909333 
0.01402681284757843 
0.05396615190534593 
0.01402681284757843 
0.0006312733115277303 
0.007203394474545722 
0.007203394474545722 
0.05396615190534593 
0.0006312733115277303 
0.01782632425563761 
-0.02975436708398552 
0.01234177806036435 
0.001544866246177704 
-0.006854814518273619 
0.006750717280962228 
0.01297964461837255 
0.006750717280962228 
-0.001514179995574996 
-0.001514179995574996 
0.05633335152458439 
-0.02300684439347874 
0.001544866246177704 
0.008499487824738843 
0.008499487824738843 
0.02032054475045443 
-0.0007040475887691278 
0.004699970626275335 
0.004699970626275335 
0.02065088498658314 
-0.005612175611772962 
0.0104702284404068 
0.01192524176522522 
-0.0007040475887691278 
0.002438916861663057 
0.003535460209470108 
-0.001263087931540533 
-0.007471624182451833 
-0.000760162157483851 
-5.427327082051744e-05 
-0.000760162157483851 
0.02503870382495757 
-0.000760162157483851 
0.003535460209470108 
-5.427327082051744e-05 
-0.001263087931540533 
-0.000760162157483851 
0.05208375532670861 
0.06145095087669078 
0.06507521399640653 
0.05352376768678932 
0.05352376768678932 
0.05352376768678932 
0.05352376768678932 
0.05352376768678932 
0.0787873515381355 
0.07131701189064422 
0.04814761622188517 
0.03509089296842973 
0.03509089296842973 
-0.01554676788883601 
-0.006386466246309361 
0.009578886623360351 
0.0101138226046221 
-0.005855875388364629 
0.02480615743527158 
-0.005855875388364629 
-0.005855875388364629 
-0.005855875388364629 
-0.005855875388364629 
0.03816662282088569 
0.02480615743527158 
-0.01554676788883601 
0.03678089784441668 
-0.04183690533534005 
-0.001796068147065285 
0.01042206525856096 
-0.004507256161536871 
-0.04183690533534005 
-0.0005091678548323972 
-0.02235601994731437 
-0.00745428870156687 
-0.005111914659392456 
-0.005111914659392456 
0.01698423751985811 
0.004002076601157919 
0.02491213572241581 
-0.03294124457723661 
0.004002076601157919 
-0.01428106794096298 
-0.005643226226055877 
-0.01496208147645315 
0.004186383816110774 
0.02682727955391643 
0.02682727955391643 
-0.01347933741892967 
0.02491213572241581 
0.01508276870333593 
-0.04104915221345876 
0.07764321953955781 
-0.005305834487531132 
0.07764321953955781 
-0.005305834487531132 
-0.005305834487531132 
-0.005305834487531132 
-0.00657564430297484 
-0.005417899174602012 
-0.005305834487531132 
-0.01576319246294772 
0.04271846812747283 
-0.02096450984729701 
0.02408066534078393 
0.02408066534078393 
0.003222978021274311 
0.01726612229896602 
-0.0005731578730535246 
0.02408066534078393 
-0.0005731578730535246 
-0.0005731578730535246 
-0.0005731578730535246 
0.06523791420919856 
0.06631877330336618 
0.1377989303496724 
0.009017683290916463 
0.01831200824664522 
0.178592164967881 
0.001705736682454173 
0.01867955751276935 
0.001705736682454173 
0.001705736682454173 
0.04825676293056659 
0.009159210639323498 
0.001705736682454173 
0.0006410414397140165 
0.03722489401970609 
0.02437635757484722 
0.009017683290916463 
-0.0007327921224918096 
3.54569998867087e-05 
0.006075092625543114 
0.005758413231348145 
-0.03047798183328656 
-0.03047798183328656 
0.01280036040349763 
-0.0031408175720237 
0.03991837637364777 
0.01301000231817777 
0.0972467546160809 
8.014675305039777e-05 
0.001277775394373969 
-0.004903681138624633 
0.04037553676168881 
0.001277775394373969 
0.02650981790733434 
0.001708601318084257 
-0.03047798183328656 
-0.0031408175720237 
-0.04962156879889577 
-0.0009685201639379193 
-0.0009685201639379193 
-0.0009685201639379193 
0.008392664330036785 
0.01005709819107758 
0.0005847592153282609 
0.0001112895308758954 
-0.04366053272487203 
0.0005847592153282609 
0.007772402600811499 
-0.08930971268532344 
0.01689421372451603 
0.007772402600811499 
-0.02846744464226784 
-0.02503190479797187 
0.03970722756071169 
0.01689421372451603 
0.007772402600811499 
-0.04049832367504776 
-0.01269212947728446 
-0.004205884826355361 
0.01033374085085929 
-0.00358775853161745 
0.04743349081036436 
-0.07634885285804452 
0.02169597773662454 
0.1739388308853121 
0.02690801340053086 
-0.05471919065728939 
0.02491031215372698 
0.05366446760167667 
0.4311477506959753 
-0.02890997309633102 
0.02169597773662454 
0.1739388308853121 
0.02716802594409469 
0.02169597773662454 
0.01609445565195308 
0.009160564944491722 
0.009160564944491722 
0.009160564944491722 
0.009160564944491722 
0.009160564944491722 
0.009160564944491722 
0.009160564944491722 
0.009160564944491722 
-0.02834265153406944 
-0.004136854472290806 
0.0373147111110138 
-0.02104576943821794 
-0.02104576943821794 
-0.03964295938460783 
0.03138706029416666 
-0.02645856990655261 
-0.02104576943821794 
-0.02483651186701968 
-0.02396537156689493 
0.03378034189450214 
-0.02224962462175387 
-0.04498340358211704 
0.00312772542195907 
-0.01319514563872482 
0.00312772542195907 
0.00312772542195907 
-0.01319514563872482 
0.01001366915046649 
0.00312772542195907 
0.00312772542195907 
-0.01319514563872482 
0.05094042909399006 
-0.01319514563872482 
0.002792873750994769 
0.01338680927103719 
0.03479657033753115 
0.01338680927103719 
0.03479657033753115 
-0.0156005424923364 
-0.01364825292427299 
0.03609024159632649 
0.03479657033753115 
-0.05231063300885623 
0.02068972490336506 
0.007634808801147912 
0.03458047585159156 
0.04370832295953182 
0.06250421594396252 
-0.05231063300885623 
0.007634808801147912 
0.007634808801147912 
0.03925823111854106 
-0.05231063300885623 
-0.05231063300885623 
0.007634808801147912 
0.0309018279384145 
0.01397375580058673 
-0.03163086089219347 
0.01397375580058673 
0.01397375580058673 
0.01397375580058673 
0.001046789441365457 
-0.06255883372447296 
0.00797766738049588 
0.002987254254227782 
-0.01409113687932748 
0.00636065194428723 
0.01199716411609854 
0.002480252611989418 
0.00636065194428723 
-0.0252877268507442 
0.02644156133000033 
0.0005684804437657793 
0.0005684804437657793 
0.134532652793733 
0.0005684804437657793 
0.0005974028790609702 
0.00722445448965808 
0.02340939970288503 
0.2548330062627312 
0.03310146291651268 
0.06640600118053877 
0.01666230297615721 
0.006382787899804246 
0.01670019970575072 
0.1135749754363054 
0.05005292560341665 
0.02081194885110121 
0.006382787899804246 
0.395440787461302 
-0.004679150958463356 
0.01520248240944291 
0.01666230297615721 
0.02238468839888881 
0.05284244194894283 
0.06170780535350533 
0.01367100641814166 
0.0050952321744017 
0.08667835652663222 
-0.05396940234092225 
-0.02610398676287142 
0.01367100641814166 
0.01367100641814166 
-0.0002046103052035413 
0.01367100641814166 
0.02189663106947991 
0.0050952321744017 
0.0113544480929242 
0.03873898676306446 
-0.001967160828505215 
-0.0004302643092183416 
0.0050952321744017 
0.02634624372971883 
0.02062891879573283 
0.02062891879573283 
0.02062891879573283 
0.02018096118804583 
0.02062891879573283 
0.02062891879573283 
-0.0612552096555307 
0.01624086947174515 
0.02062891879573283 
0.0153552012794526 
0.02634624372971883 
0.02941662605261696 
0.02634624372971883 
0.02062891879573283 
-0.04750087631452297 
0.008718056657292791 
0.002738968483312179 
-0.002556135337432688 
0.008718056657292791 
0.002738968483312179 
0.02301134880477785 
0.01010613542872944 
-0.002556135337432688 
0.02262459269413452 
0.008718056657292791 
-0.002556135337432688 
-0.002556135337432688 
-0.002556135337432688 
0.002738968483312179 
0.004231701710621943 
-0.001000564783999929 
-0.001000564783999929 
0.004231701710621943 
-0.0002118190263931176 
-0.0002118190263931176 
-0.0002118190263931176 
-0.0002118190263931176 
0.02921227384215077 
-0.003478342716879785 
-0.0002118190263931176 
-0.01675214661361337 
0.004710968781903235 
0.04887985723519831 
0.02406064181765356 
-0.0002118190263931176 
-0.0002118190263931176 
-3.297246157307954e-05 
0.0345983237953657 
0.001744378086460656 
0.09383259982740512 
0.001495012093188919 
-3.297246157307954e-05 
-0.003684544172527345 
-3.297246157307954e-05 
-3.297246157307954e-05 
-0.006930038233702327 
0.0345983237953657 
0.08636893613337562 
-3.297246157307954e-05 
-3.297246157307954e-05 
0.0162237818471221 
-0.004849194281441637 
-0.004849194281441637 
-0.004849194281441637 
-0.01138029370954802 
-0.004849194281441637 
0.01127156968955815 
-0.004849194281441637 
0.005675469783779627 
-0.004849194281441637 
-0.004849194281441637 
0.01127156968955815 
0.01001488650799313 
0.09440055020848015 
0.09440055020848015 
-0.004849194281441637 
-0.004849194281441637 
0.01127156968955815 
-0.005778614319289233 
-0.005778614319289233 
-0.005778614319289233 
-0.005778614319289233 
0.02948568040925475 
-0.005778614319289233 
-0.005778614319289233 
-0.005778614319289233 
0.01761023931908801 
-0.005778614319289233 
-0.005778614319289233 
-0.005416846724032636 
0.005275686643932832 
-0.005778614319289233 
-0.005778614319289233 
0.01810381921182359 
0.01306466201917425 
0.01422035946334658 
0.01422035946334658 
0.01110584994437046 
0.01169102552477461 
0.01422035946334658 
0.01293081397195771 
0.0006089655353592272 
0.006281780291507864 
0.006281780291507864 
0.01332237125745682 
0.01389180030123341 
0.01265164494053363 
0.01174262921098143 
0.01265164494053363 
0.0006089655353592272 
-0.023498734200844 
-0.006370376828819843 
0.0500167768960589 
-0.006370376828819843 
0.09315184353543277 
0.00320065505738584 
0.005888221113258815 
0.00320065505738584 
0.005888221113258815 
0.03888860323593672 
-0.01409080023170448 
0.01753703443200729 
0.005888221113258815 
0.005888221113258815 
0.01199989129666338 
0.004837168992792066 
0.02042096382750911 
0.004837168992792066 
-0.007351639005050955 
-0.02208048645346505 
0.01199989129666338 
-0.02208048645346505 
-0.02208048645346505 
-0.02208048645346505 
0.003978075081500648 
0.02042096382750911 
0.004837168992792066 
0.02042096382750911 
-0.01043580204676041 
-0.009242453729563078 
0.02585758410263247 
0.002274962336473366 
0.002363614925361761 
0.002577238010366019 
0.002363614925361761 
0.01610647874023213 
0.002274962336473366 
0.002363614925361761 
0.02130039839449091 
0.01610647874023213 
0.01610647874023213 
0.002363614925361761 
-0.007293684107928101 
0.002363614925361761 
-0.001895199642015616 
-0.03773358176465816 
-0.001895199642015616 
-0.02609544865100666 
-0.001895199642015616 
-0.02609544865100666 
-0.001895199642015616 
-0.02609544865100666 
0.0008541124635515799 
0.0008541124635515799 
0.0002990793258430091 
0.0008541124635515799 
0.0002990793258430091 
-0.01325914980929481 
-0.008520151837496994 
-0.0002005040689022075 
0.0008541124635515799 
0.0008541124635515799 
0.005223377169306418 
0.0008541124635515799 
-0.01341463886326046 
0.0008541124635515799 
-0.05503236194270331 
0.0595886134888702 
0.0703510740192337 
-0.04485627713451387 
0.076832466783453 
0.076832466783453 
0.00600217515324709 
-0.004600526115801758 
-0.04485627713451387 
-0.005681395944571256 
0.0005099203231180597 
0.05141189476912212 
-0.05356401943293632 
0.01244606969058152 
0.0005099203231180597 
0.02266713624220618 
0.0005099203231180597 
0.05319776024715247 
-0.01092257229079146 
0.0005099203231180597 
-0.01238413160032733 
0.01128212451383846 
-0.01952358559896118 
0.01094372647621037 
0.0009181593274882674 
0.01094372647621037 
0.01026903767787476 
0.005851150865250421 
0.01094372647621037 
0.01026903767787476 
0.0297761842457007 
0.01026903767787476 
0.01094372647621037 
0.01298342451447243 
0.02148219113385387 
0.01026903767787476 
0.05472293986572565 
0.05472293986572565 
0.05472293986572565 
0.08512335125089923 
0.0143203364875702 
0.0143203364875702 
0.0143203364875702 
0.003598353193658766 
0.0143203364875702 
0.0143203364875702 
0.0143203364875702 
-0.06058642850385001 
-0.01566473994906859 
-0.02346405510851376 
0.002580064444080658 
-0.02443811322448006 
-0.02840684456807627 
0.01129759709594652 
0.01129759709594652 
-5.143126496647435e-05 
0.002934405480923773 
0.01129759709594652 
0.002934405480923773 
-0.01052463827387783 
0.002934405480923773 
0.01129759709594652 
-0.01702835483422331 
0.04677973115209575 
0.01388386812308974 
0.005792247524097966 
0.005792247524097966 
-0.01702835483422331 
0.01388386812308974 
-0.01702835483422331 
-0.01702835483422331 
0.0008683493403505786 
-0.000432579213221223 
0.01326789502200506 
0.01388386812308974 
0.02211168512987752 
0.0007365383304833882 
0.03163501753687999 
0.0007365383304833882 
0.03147429020722196 
0.03236853483372579 
0.02897395940323074 
-0.0009668110553638998 
0.04130227903623405 
0.01167052993442166 
0.01167052993442166 
0.02292329275588208 
0.0007365383304833882 
0.00344010041296462 
0.01167052993442166 
0.01636340285866083 
0.0009275259344354997 
-0.001591798884024173 
-0.001591798884024173 
0.01636340285866083 
-0.001591798884024173 
-0.005277711637259194 
-0.005277711637259194 
-0.005277711637259194 
-0.0488289417914098 
-0.005277711637259194 
-0.04396140566115393 
-0.008959556788896185 
0.01935618436236844 
0.01935618436236844 
0.02327173573980899 
0.004111555288462371 
0.005264003619180285 
0.0407350006947232 
0.02529112462107008 
0.004111555288462371 
-0.0007323079331483084 
0.007016287826246971 
0.054986489367831 
0.2066871942214149 
0.03958934425503488 
0.02738232219071962 
0.007016287826246971 
0.007016287826246971 
0.009895335646038384 
0.02738232219071962 
0.02130061411187858 
0.09044352082079474 
0.002396303656017496 
0.1217596313135802 
0.054986489367831 
-0.01101810912882787 
0.003237039604614633 
-0.001998492410101026 
0.005837498714095948 
-0.005047057841934582 
-0.001998492410101026 
8.579436917272249e-05 
0.04298698449011959 
0.004834246115788424 
0.003237039604614633 
7.317834406425279e-05 
-0.003405882658481861 
7.317834406425279e-05 
-0.001998492410101026 
0.003237039604614633 
0.02400020153284431 
0.001964166239753064 
0.01484824403783957 
-0.03631162306335792 
-0.009394379263073944 
0.03563420357349077 
0.01484824403783957 
0.02400020153284431 
0.001964166239753064 
0.02593548799527778 
0.04899697641957323 
0.04391914888587829 
-0.006696740921480842 
-0.03249600005364709 
0.001964166239753064 
0.04899697641957323 
-0.006351926560181994 
0.001964166239753064 
0.003959702166267771 
-0.002289359776743215 
0.003959702166267771 
-0.002289359776743215 
0.05925908249006154 
-0.006692475986555847 
0.003959702166267771 
0.003959702166267771 
-0.005705317648681457 
-0.008803305641022363 
-0.003808718198594693 
0.01046594974850388 
-0.006692475986555847 
0.08685839737524192 
-0.006692475986555847 
0.03333534588908972 
0.0684581827377564 
0.03346675356268364 
0.03346675356268364 
0.03346675356268364 
0.03346675356268364 
0.06385728362286529 
0.03346675356268364 
0.03346675356268364 
0.03346675356268364 
-0.003836487280483278 
-0.01853784054959331 
0.003122517174978728 
-0.003836487280483278 
-0.003836487280483278 
0.01665560252648795 
-0.02103855201393987 
0.003114782230964429 
0.003114782230964429 
-0.00969872865375275 
-0.003836487280483278 
-0.002148074196066986 
0.00859513997740572 
0.00324253704140906 
0.0008259014016280615 
0.005736155174671945 
0.005736155174671945 
0.01553860352547838 
0.05385413193532659 
0.0008259014016280615 
0.05343078338097042 
0.005736155174671945 
0.0008259014016280615 
0.01244302927154607 
0.006376078376742469 
0.006376078376742469 
0.006376078376742469 
0.02647891159337191 
0.006376078376742469 
0.002417951256248829 
0.006376078376742469 
0.006376078376742469 
0.007566395180398356 
0.0005537047739012087 
-0.01828961756420271 
0.02279646344532384 
0.02497524480602609 
0.02771406564301331 
0.01697337392079581 
0.00763597708645177 
-0.0007099888027063831 
0.0005537047739012087 
0.00763597708645177 
0.02279646344532384 
0.001516716379081005 
-0.006837845723821118 
-0.03237751384270916 
-0.02880380739619587 
-0.001071961118554975 
-0.02424290221660132 
-0.01428170078150024 
-0.0003241315715274279 
-0.01529467399172167 
-0.001071961118554975 
-0.0255890326494959 
-0.006837845723821118 
0.011426381408408 
-0.0003241315715274279 
-0.004561076876292861 
-0.02880380739619587 
0.04364100123366919 
-0.0581024882974592 
0.011426381408408 
-0.01537045589238296 
-0.001071961118554975 
-0.02880380739619587 
0.0006599564733727253 
0.001987654449823129 
-0.006564009642729998 
-0.001532967584130948 
-0.0005317270545532297 
-0.03770443107812324 
0.0122295678910925 
-0.003095604237611308 
-0.02527449801511483 
0.004669740169433646 
-0.002635228778807042 
-0.002327568439456982 
-0.010363184083157 
0.0340404185221643 
-0.002327568439456982 
-0.002635228778807042 
-0.002327568439456982 
0.0340404185221643 
-0.002635228778807042 
0.02746928946953636 
0.0340404185221643 
-0.002595751465461476 
0.02316533937787034 
-0.0166376627953672 
-0.001999145618114789 
0.0227423140163346 
-0.001999145618114789 
-0.005790106960345446 
0.02139813360906499 
-0.008989255933869058 
-0.002122367174758475 
0.0209368512665085 
-0.001999145618114789 
-0.01581336435594583 
-0.001999145618114789 
0.0209368512665085 
0.0227423140163346 
-0.02923706820303363 
0.05361980473222631 
-0.0313433049568003 
2.182951476300346e-05 
-0.003892122265522741 
-0.0127966719225479 
0.09376806921178504 
-0.02901917558134846 
-0.005354518313942293 
0.0008427376446960959 
0.001058478828478966 
0.02322938449300386 
0.01203243194097151 
0.03379206751544086 
0.0268511907066678 
0.03379206751544086 
0.01203243194097151 
0.02723197078457648 
-0.003851191430744949 
0.003138194067163041 
0.02423664742779018 
-0.007414470296049206 
-0.01988171636504509 
-0.0003018309257703774 
-0.007414470296049206 
-0.0003018309257703774 
-0.003315230455817202 
-0.007391910584332324 
-0.0003018309257703774 
-0.007391910584332324 
-0.0003018309257703774 
-0.007414470296049206 
0.0001000564581436176 
0.008918087915822314 
-0.0003018309257703774 
-0.0003018309257703774 
-0.01659577562100209 
0.04675908246694133 
-0.01659577562100209 
-0.02527021656757732 
-0.01659577562100209 
-0.01878125920595284 
-0.01878125920595284 
-0.004334365381620423 
0.0176830213842025 
-0.01659577562100209 
-0.001577102501752608 
-0.006866459946437924 
-0.01912314275787562 
0.01704827800964079 
0.03268206905309295 
-0.001577102501752608 
0.007841556004257972 
0.02407993024716285 
-0.001140646288346695 
0.0269290685719062 
-0.01912314275787562 
0.01999921804220891 
0.03155482932630789 
0.06623572804805233 
0.02582477328422191 
-0.003389654936829663 
-0.003389654936829663 
0.05988760502648871 
0.05988760502648871 
-0.003774221371008156 
-0.003389654936829663 
0.05988760502648871 
0.002045678003734883 
-0.0003663577817700768 
0.003385462342137183 
0.05038359953203985 
-0.003389654936829663 
0.003283202129818922 
-0.0003663577817700768 
0.02528224299510081 
0.08209513324695217 
-0.001602069799994948 
0.04104881473643773 
0.03728060329067399 
0.01944132311865445 
-0.001602069799994948 
-0.001602069799994948 
0.03728060329067399 
-0.001602069799994948 
0.006152010628269246 
-0.001602069799994948 
0.03728060329067399 
-0.001602069799994948 
-0.001369457392067793 
-0.07151777600834291 
-0.001369457392067793 
0.005456099513721328 
0.005456099513721328 
0.005456099513721328 
0.005456099513721328 
0.006053731829375528 
-0.01179626596154068 
-0.0004843217729630861 
-0.001369457392067793 
-0.07151777600834291 
-0.001369457392067793 
-0.06888418771636252 
-0.07151777600834291 
-0.001369457392067793 
0.006053731829375528 
-0.001369457392067793 
-0.01301081831602842 
0.006053731829375528 
-0.02914257594482591 
-0.008206565173497216 
-0.0004161373584439982 
0.004585655726020789 
-0.0004161373584439982 
0.0006078686255537557 
-0.0004161373584439982 
-0.01087078180564494 
-0.001179751260309923 
-0.002791004764660666 
-0.006973558873562623 
-0.002791004764660666 
0.009161608505916009 
-0.002791004764660666 
-0.002791004764660666 
-0.008236099420120475 
0.03198719129168019 
0.004888257746637422 
-0.002791004764660666 
-0.01013285881851226 
0.02008849229551674 
0.02008849229551674 
0.02008849229551674 
0.001659967096087855 
0.007724306517646738 
0.007724306517646738 
-0.06100399982418164 
0.02008849229551674 
-0.07970147006190501 
0.02008849229551674 
0.02008849229551674 
0.01142124224613003 
-0.0002839829995927975 
0.106254996026567 
0.1076706180775641 
-0.0002839829995927975 
0.03320121641786485 
0.009070522892678881 
-0.0002839829995927975 
0.005857533873688863 
-0.0002350971912340452 
-0.0002350971912340452 
-0.0002350971912340452 
-0.0002350971912340452 
-0.0002350971912340452 
-0.00198370364219094 
-0.0002350971912340452 
-0.002407247102355663 
-0.001895341039224536 
-0.00151885430703667 
-0.0002350971912340452 
0.0429249133776039 
0.01042098175258532 
-0.03188043136457015 
0.002568108925466812 
0.01042098175258532 
0.01042098175258532 
-0.001254314572980661 
-0.03001524276586926 
0.0082901007123209 
0.01042098175258532 
0.008067241694472692 
-0.006753428079161944 
0.02206675979704471 
4.105378933124139e-05 
-0.006753428079161944 
0.008350315782611252 
-0.0007753317445544876 
0.0003764726737926961 
-0.003512495523620051 
0.04377377640237851 
0.01061341596254296 
0.09683738487386419 
0.0003764726737926961 
0.02129547797430392 
-0.04829126980453204 
-0.0009885426287046927 
-0.0003535076334930688 
-0.0009885426287046927 
0.02809356439310564 
0.02410287907672194 
0.0227197590412246 
-0.0003535076334930688 
-0.01967069476141857 
-0.0006913826478744464 
-0.0009885426287046927 
-0.0009885426287046927 
0.02908083950710387 
-0.009555153869477442 
-0.0020658280907908 
-0.002656780435138211 
-0.008763081491949067 
0.0321805091832227 
0.0321805091832227 
0.0001906404041266668 
-0.0020658280907908 
-0.0020658280907908 
-0.0020658280907908 
0.01507594241543024 
0.02456388539711027 
0.02288948786846665 
0.01422922987841024 
-0.0020658280907908 
-0.0020658280907908 
0.004375386642156144 
-0.004182554108901963 
-0.005773706555851088 
-0.004182554108901963 
-0.004182554108901963 
0.004375386642156144 
-0.004182554108901963 
0.004375386642156144 
0.02263169269372473 
0.01919068637950341 
-0.004182554108901963 
0.006744471968747371 
-0.004182554108901963 
-0.004182554108901963 
-0.002222270212369754 
-0.0003255108139779707 
-0.01646622861562352 
0.01783928017201955 
0.01783928017201955 
-0.1836748507115421 
0.01783928017201955 
0.03888267309066893 
0.03888267309066893 
0.03927058332788579 
0.01783928017201955 
-0.01954427651027436 
0.01748053862573078 
0.01783928017201955 
0.02215571038513906 
-0.01954427651027436 
-0.001195400158153635 
-0.0250215143620271 
-0.001195400158153635 
-0.0002003604098169424 
-0.0250215143620271 
1.181609924336154e-05 
-0.001195400158153635 
-0.0250215143620271 
0.05139574506905224 
0.03043282078887918 
-0.007234405379092804 
-0.001195400158153635 
0.0003875750617392099 
-0.0072187512597044 
0.09848480620634106 
0.0005889965538831241 
0.01303798282981791 
0.009570454471041196 
0.01303798282981791 
-0.002771297837863436 
0.0003875750617392099 
0.0003875750617392099 
0.01303798282981791 
0.01779651536615234 
0.0003875750617392099 
0.0005889965538831241 
-0.005897072469129079 
-0.007630683349650708 
-0.005897072469129079 
-0.009055828918251674 
-0.005897072469129079 
-0.005897072469129079 
-0.005897072469129079 
-0.005897072469129079 
0.01439678311112364 
-0.005897072469129079 
-0.005897072469129079 
0.04011229293423717 
-0.005897072469129079 
0.0181472929366541 
0.01902630532344134 
0.008065308469331751 
0.06604726997821632 
-0.1299930672830293 
0.06878986299449819 
0.001312089871690359 
-0.1299930672830293 
0.002489891240080689 
0.001312089871690359 
0.001312089871690359 
-0.1752231049745546 
0.001312089871690359 
0.0210433929186494 
0.06850090176610274 
0.06850090176610274 
0.0210433929186494 
0.0210433929186494 
0.06850090176610274 
0.0210433929186494 
0.06850090176610274 
-0.006981547243393698 
0.03079876210221665 
-0.006981547243393698 
-0.03637965030093034 
-0.006981547243393698 
-0.006981547243393698 
-0.01527519770501221 
-0.006981547243393698 
0.08638033544008622 
-0.03637965030093034 
-0.005480452505747224 
-0.006981547243393698 
-0.006981547243393698 
0.002089351473458159 
0.004236492577945434 
0.01525827599174201 
-0.0004505388364909762 
0.002089351473458159 
-0.01497086930554725 
0.002089351473458159 
-0.002909325594461257 
0.09371465212522941 
0.1123617478381594 
0.002089351473458159 
-0.002909325594461257 
0.01706636610393955 
0.006511307792666564 
0.04309547379015 
0.002089351473458159 
0.01706636610393955 
0.03899548206964434 
0.002089351473458159 
0.04453382675669024 
0.007486936559803457 
-0.009121714038065587 
0.007486936559803457 
0.007486936559803457 
0.007486936559803457 
0.006802981118704579 
0.0288709454521327 
-0.004843863221610687 
0.03339295341468727 
0.02999865002566385 
-0.003880246121339216 
-0.005823349871503071 
-0.004843863221610687 
0.008688744600547941 
0.008688744600547941 
0.008688744600547941 
0.008688744600547941 
0.008688744600547941 
0.0164329636024684 
0.01935138094392141 
3.94058765445514e-05 
3.94058765445514e-05 
0.0004335784571185042 
3.94058765445514e-05 
0.0164329636024684 
0.01887243080665467 
3.94058765445514e-05 
3.94058765445514e-05 
0.0004335784571185042 
0.01378226437949566 
0.01378226437949566 
0.01378226437949566 
-0.02588004056032582 
0.01524706841950447 
0.01378226437949566 
-0.02588004056032582 
0.01378226437949566 
0.01378226437949566 
-0.02588004056032582 
-0.02289671883046405 
-0.001135591410736677 
-0.001135591410736677 
-0.00529984247960524 
-0.001135591410736677 
0.04448068274315571 
-0.001135591410736677 
-0.02310162079057312 
-0.001135591410736677 
0.04448068274315571 
0.03861099961938927 
0.03421086746790071 
-0.004023855261630321 
-0.009709508051130375 
-0.02512196922129545 
0.007040690278987665 
0.04763061215505683 
0.03861099961938927 
0.03861099961938927 
0.007040690278987665 
0.007040690278987665 
-0.005025579051895006 
-0.005025579051895006 
-0.03794636532671853 
-0.004023855261630321 
0.02736422020767288 
-0.009709508051130375 
-0.004023855261630321 
0.04208799552191608 
0.0499100426044102 
0.0499100426044102 
-0.002110829654466505 
-0.006284005478207242 
-0.012079711493115 
-0.03489466182220488 
-0.006631494006856898 
-0.005810004249618073 
0.002689416337926682 
0.02357314604272565 
-0.05877976271329293 
0.007759232253266508 
0.01751163890823546 
0.007759232253266508 
0.007759232253266508 
-0.01309999987722668 
-0.01128532750033071 
0.08501621462577166 
-0.01354381002833756 
-0.01128532750033071 
0.002771061111979045 
0.1144911416161609 
-0.01128532750033071 
0.03225592572726872 
-0.01354381002833756 
0.02573692869541356 
0.02029748393757855 
0.03396777954611784 
-0.04092890179618411 
0.02328815155585563 
0.02573692869541356 
0.01493326970189815 
0.03284837733419949 
0.04562203867112927 
0.01029345390332755 
0.01689482437723474 
0.01689482437723474 
0.07847510225867538 
0.01689482437723474 
0.02692775440292396 
0.02106285686478785 
0.005985986696965592 
0.01182452025556888 
0.008809431228663522 
-0.006359440138830014 
0.005985986696965592 
0.02106285686478785 
-0.008850641773411733 
0.008809431228663522 
0.005985986696965592 
-0.006359440138830014 
0.01873164510737408 
0.01873164510737408 
0.0368205023426187 
0.01428185477760288 
0.01873164510737408 
0.01873164510737408 
0.001465269645272386 
0.09878545017214616 
0.001465269645272386 
-0.05414382014204989 
0.01873164510737408 
0.01873164510737408 
0.01781939621755402 
0.003677240052674645 
0.003677240052674645 
-0.001708571532406643 
-0.001708571532406643 
-0.001708571532406643 
-0.02937315194646975 
0.03240495509882924 
-0.001708571532406643 
0.0245410102377487 
0.1369877295764747 
-0.001708571532406643 
-0.001708571532406643 
0.003677240052674645 
-0.08007646809590815 
-0.006676104694690873 
-0.003173089327985709 
-0.01847103918706089 
-0.003173089327985709 
-0.003173089327985709 
-0.01885043549466117 
0.01168394480744973 
-0.003173089327985709 
0.04291064211546499 
-0.003173089327985709 
-0.003173089327985709 
-0.003173089327985709 
-0.003173089327985709 
-0.003173089327985709 
-0.001544828285874098 
0.01197817807179949 
-0.007384379060188613 
-0.009576840881691494 
0.01197817807179949 
0.01197817807179949 
0.01197817807179949 
0.01197817807179949 
-0.03394613386888501 
-0.008948038535214765 
0.02265296531035828 
0.1106885982990419 
-0.00916411995818219 
0.03122606579871304 
0.01077806422531268 
-0.003863133147278584 
0.06376137283224202 
0.03626861315435264 
-0.01151922401560047 
-0.01419418441672356 
-0.01419418441672356 
-0.01419418441672356 
-0.01419418441672356 
-0.01419418441672356 
-0.01419418441672356 
-0.01181099580425937 
-0.01419418441672356 
-0.01419418441672356 
0.03923871587762044 
-0.01419418441672356 
-0.01419418441672356 
0.03923871587762044 
-0.01419418441672356 
-0.01910553428217298 
-0.001085402343535956 
-0.04446672069238621 
-0.05829832242607672 
0.002918417341453016 
0.01816962009202717 
0.003247656999884479 
0.01816962009202717 
0.002918417341453016 
0.1732754526499341 
-0.001085402343535956 
0.1732754526499341 
0.002918482751415895 
0.002918417341453016 
-0.001085402343535956 
0.1065205031251314 
0.002918482751415895 
0.007719453184736724 
-0.006806808576370675 
0.02196038322643391 
-0.02146102157513396 
0.0398916919903315 
-0.006322417766917077 
-0.006806808576370675 
-0.006322417766917077 
0.02196038322643391 
-0.006806808576370675 
0.01352750027518907 
-0.006806808576370675 
-0.006322417766917077 
-0.006806808576370675 
-0.006806808576370675 
-0.006322417766917077 
0.007197124761838397 
0.007197124761838397 
9.699486521779755e-05 
0.007197124761838397 
9.699486521779755e-05 
9.699486521779755e-05 
9.699486521779755e-05 
9.699486521779755e-05 
9.699486521779755e-05 
-0.02931562963374336 
-0.002717693490211719 
-0.02931562963374336 
-0.002717693490211719 
-0.002717693490211719 
0.08806839487411841 
-0.003074735645831338 
0.001881944775214664 
-0.002717693490211719 
0.01699483675160059 
-0.001597539684988188 
0.01138501172836772 
0.01138501172836772 
0.01138501172836772 
0.02494253882461912 
0.02494253882461912 
0.01138501172836772 
0.01138501172836772 
0.02494253882461912 
0.01621605181004359 
0.008161802410982029 
0.02145505790451679 
0.03965281054875186 
-0.007187179552998476 
0.008161802410982029 
-0.007187179552998476 
-0.001754997618264809 
0.02145505790451679 
-0.01631282441167915 
-0.01631282441167915 
-0.00107546176589672 
-0.0007945905100293837 
-0.0007945905100293837 
0.02852514324376781 
-0.0007945905100293837 
-0.0007945905100293837 
-0.0007945905100293837 
-0.0007945905100293837 
-0.04330503274561373 
-0.0007945905100293837 
-0.0007945905100293837 
-0.5231168488846334 
0.03934544209553967 
0.03987684668947687 
0.02080786626506078 
0.003732899559236023 
0.007126559391950223 
0.03987684668947687 
0.07030706465787326 
0.006156825748641363 
0.02592447239883305 
0.02650955957262747 
0.02650955957262747 
0.03987684668947687 
-0.000997325451997515 
-0.02197109687424921 
-0.0005046908460416365 
-0.001255527935506115 
-0.0005046908460416365 
-0.0005046908460416365 
-0.01606238422090661 
-0.02754146889956721 
-0.003852745499946299 
-0.05778261526110687 
-0.2841349605608815 
-0.003852745499946299 
-0.05877165546498657 
-0.06535069013218939 
-0.003852745499946299 
0.01605619140967627 
-0.003852745499946299 
-0.006203594584018755 
0.02412019891535628 
-0.005513390844342856 
-0.00281944068990057 
-0.000524820955452168 
-0.000524820955452168 
-0.000524820955452168 
0.004647632272787446 
0.005617553492798188 
0.004647632272787446 
0.005406118181438173 
0.004647632272787446 
0.004647632272787446 
0.008150041265347074 
0.004647632272787446 
0.004647632272787446 
0.004647632272787446 
0.004647632272787446 
0.004647632272787446 
0.004647632272787446 
0.004647632272787446 
0.004647632272787446 
-0.00186841809623367 
0.02712953214220337 
0.0301348694304458 
0.02712953214220337 
0.02712953214220337 
0.02712953214220337 
0.08060326907091409 
0.02712953214220337 
0.02712953214220337 
0.0512550479155519 
0.0002121765090603033 
0.0002121765090603033 
0.05385004126600297 
0.07676185962291475 
0.05385004126600297 
0.03032793889305424 
0.05385004126600297 
0.0002121765090603033 
-0.01380756751046201 
0.003728427870042746 
0.01843185703133543 
0.003728427870042746 
-0.004969703498931426 
0.02964050565486359 
-0.004441538869522298 
-0.004969703498931426 
-0.004969703498931426 
0.003728427870042746 
0.01493985251362217 
0.007451074101363636 
-0.2957654508148918 
0.007451074101363636 
0.01493985251362217 
0.003043080244830359 
0.0006375955702148176 
0.006043511352220917 
0.003043080244830359 
0.01493985251362217 
-0.01255150759180236 
0.009920479363497148 
-0.01096608144072354 
0.009709832065065116 
0.009709832065065116 
0.009920479363497148 
0.07270124620871821 
0.001303932593083357 
0.009555977441608637 
0.001255363436818957 
0.009555977441608637 
0.001255363436818957 
-0.007913428923363473 
-0.005922858938043044 
-0.00477027540761216 
-0.00477027540761216 
-0.00477027540761216 
0.0003402833223652526 
0.0003402833223652526 
-0.002672923267159863 
0.034110962199203 
0.0003402833223652526 
0.0003402833223652526 
0.0003402833223652526 
0.0003402833223652526 
-0.002096530232366921 
-0.002632696143722915 
-0.002672923267159863 
-0.002672923267159863 
0.03176119175411174 
0.0003402833223652526 
-0.002672923267159863 
-0.001580662434448998 
-0.01122294295220103 
0.004193164994872266 
-0.002949981163762504 
-0.002949981163762504 
0.003371241978649047 
0.003371241978649047 
-0.001580662434448998 
0.01158742043812211 
0.009588103992387827 
-0.001580662434448998 
0.002366893233814828 
0.009601342022103859 
0.01060253573745117 
0.002366893233814828 
0.002366893233814828 
0.002366893233814828 
0.002366893233814828 
-0.006798139939687906 
0.002366893233814828 
-0.02048756449819789 
0.002366893233814828 
-0.006798139939687906 
-0.006798139939687906 
0.002366893233814828 
-0.006798139939687906 
0.002366893233814828 
-0.002175890886093439 
-0.002175890886093439 
0.01052939682339875 
-0.001288902355446409 
-0.002219645606392426 
0.03319384191339382 
-0.001288902355446409 
0.005309899976835286 
0.03132139498659332 
0.07786193515109542 
-0.008424609508324424 
-0.003463413037403479 
-0.008424609508324424 
0.02806513118627715 
0.02806513118627715 
-0.003463413037403479 
-0.00348871520546808 
-0.007814826944202628 
0.003629379159599203 
0.003629379159599203 
0.04961852583926177 
0.003629379159599203 
0.02575899084201207 
0.006871607204988822 
0.004343484814487712 
0.003629379159599203 
0.003629379159599203 
0.003629379159599203 
0.003629379159599203 
0.003629379159599203 
0.003629379159599203 
0.003629379159599203 
0.006871607204988822 
0.003629379159599203 
0.003629379159599203 
0.003629379159599203 
0.002545212031286418 
-0.06811085905362244 
0.002545212031286418 
-0.03392088832180051 
0.001557757747000697 
0.008653844246740752 
0.03762411540108333 
0.03762411540108333 
0.003282026860106006 
0.008653844246740752 
0.02316054077714455 
0.002545212031286418 
0.008653844246740752 
0.008653844246740752 
0.05427611439329311 
0.06529144715823249 
0.00759307343231324 
-0.009501998531660521 
0.01265711246932331 
-0.009501998531660521 
0.004207485361761423 
0.004207485361761423 
0.004207485361761423 
0.004207485361761423 
0.01300759369764919 
-0.003622127407094279 
-0.008888758605349083 
-0.008888758605349083 
-0.0308651663206604 
0.01300759369764919 
-0.008888758605349083 
-0.009472191483276431 
-0.008888758605349083 
0.01386744945787602 
0.09434414488969964 
0.0308723021451505 
-0.004664900680432472 
0.0003428739128133679 
0.0308723021451505 
0.0003428739128133679 
-0.01480579261258683 
0.00464335299542734 
-0.01480579261258683 
0.008549289661540413 
0.001038078354680127 
0.01259535129320166 
-0.005435161079919759 
-0.01480579261258683 
0.001640846126891757 
-0.002325758209670205 
-0.002325758209670205 
0.008390104411540665 
-0.04087126998419499 
0.02306439508975149 
0.01155230998348477 
0.02306439508975149 
-0.002325758209670205 
0.008390104411540665 
0.02306439508975149 
-0.01335483662836941 
0.02306439508975149 
0.02418021002733266 
-0.0006332760964766111 
-0.0002087969758811013 
-0.0002087969758811013 
-0.0002087969758811013 
-0.0002087969758811013 
-0.0002087969758811013 
-0.1329687398883053 
0.006263563191737065 
-0.03829116496653372 
-0.005796205623728592 
0.009803345232641581 
-0.03431616886770494 
-0.746798061233465 
0.01023448972804841 
0.01974096870129122 
-0.002117170425431771 
-0.2124019730725679 
-0.002117170425431771 
-0.0042178955547339 
0.01880856718643263 
0.009030621468393781 
0.0442945861118107 
0.05542434043506424 
0.01880856718643263 
0.009030621468393781 
0.0009096743445060755 
0.007357970079571043 
0.04752543303934675 
0.0009096743445060755 
0.04752543303934675 
0.007154248725063666 
0.0009096743445060755 
0.002211715505193167 
-0.08124485447947702 
-0.001204103166842638 
0.002211715505193167 
-0.001204103166842638 
0.002211715505193167 
0.002211715505193167 
-0.001204103166842638 
-0.009916121643316352 
-0.003989703437763249 
-0.005731140602524541 
0.002211715505193167 
0.001518178195404594 
-0.007131778883344999 
-0.02749340920057831 
0.02144886571888462 
0.01801479483632449 
-0.007131778883344999 
-0.01918146159274239 
0.001963330078607389 
0.001963330078607389 
0.003543072125082777 
0.03212187349759223 
0.03212187349759223 
0.00476783329608332 
0.001963330078607389 
0.001963330078607389 
0.04951319707061771 
-0.0007689268508886166 
0.00125223532518636 
0.001963330078607389 
0.03212187349759223 
0.001963330078607389 
0.001963330078607389 
-0.001982277410542329 
0.001963330078607389 
0.03212187349759223 
0.001579742046475389 
0.04484172095699296 
0.001579742046475389 
0.001579742046475389 
0.001579742046475389 
0.001579742046475389 
0.001579742046475389 
0.001579742046475389 
0.001579742046475389 
0.001579742046475389 
-0.09981634518532871 
0.01241432717370568 
0.01241432717370568 
0.01241432717370568 
0.01241432717370568 
0.01241432717370568 
-0.1204002224196394 
0.01241432717370568 
0.01241432717370568 
0.001552245233547802 
0.01241432717370568 
-0.09981634518532871 
0.01241432717370568 
-0.09981634518532871 
-0.1204002224196394 
-0.09981634518532871 
0.06169760334898516 
-0.01062540365487417 
-0.01086208194015788 
-0.01086208194015788 
-0.01177897653875297 
-0.01177897653875297 
-0.01086208194015788 
-0.01086208194015788 
-0.01177897653875297 
-0.01086208194015788 
-0.01086208194015788 
-0.01568933028808556 
-0.01086208194015788 
0.003496595904952771 
0.0529949667958773 
-0.01086208194015788 
-0.006205722145494013 
0.01266674305536676 
0.05719668112836905 
-0.007672241086803485 
-0.007672241086803485 
-0.007672241086803485 
-0.007672241086803485 
-0.007672241086803485 
0.01779957453607381 
-0.007672241086803485 
0.0556844808608884 
-0.007672241086803485 
-0.007672241086803485 
0.0139784459122841 
-0.01001943373705583 
0.04260924488069853 
0.04260924488069853 
0.07700127567349831 
0.04260924488069853 
0.01284727001088405 
0.04260924488069853 
0.04260924488069853 
0.02282507812660041 
0.02282507812660041 
0.04260924488069853 
0.04260924488069853 
0.02107043769962599 
0.02107043769962599 
0.02107043769962599 
0.000645235467591601 
0.000645235467591601 
-0.01012635718183532 
0.02731018518695386 
0.02731018518695386 
0.000645235467591601 
0.04920764916685688 
0.02731018518695386 
0.02731018518695386 
-0.0001413101453247205 
-0.003405218319446084 
-0.0004963563578784073 
-0.0005523598650965257 
0.001804158067459569 
0.002451523476197397 
-0.0005523598650965257 
-0.0005523598650965257 
0.0004648493351542603 
0.06202371976536008 
0.0004648493351542603 
0.07697239399384484 
-0.002306467933781736 
0.0004648493351542603 
0.0004648493351542603 
0.0004648493351542603 
0.0001696708100813742 
0.0004648493351542603 
0.01181181224559403 
0.01181181224559403 
0.004188274225468779 
0.009010242213984864 
0.01181181224559403 
0.008226034313128992 
0.01181181224559403 
0.01181181224559403 
0.01181181224559403 
0.01181181224559403 
0.01181181224559403 
0.01764718973270823 
0.01181181224559403 
0.02876948888003069 
-0.01584584695079492 
0.000132672643080845 
-0.01584584695079492 
-0.01584584695079492 
-0.01584584695079492 
0.01551504858442787 
0.01551504858442787 
0.05115256049846107 
0.01551504858442787 
0.05115256049846107 
0.01667498350738373 
0.0247389849461939 
0.001900385160714979 
0.001900385160714979 
0.01493070756477359 
0.001900385160714979 
0.001900385160714979 
0.02103694772555237 
0.02737397679154685 
-0.03094761246076045 
0.02737397679154685 
-0.05582044351559628 
0.006242213839409078 
0.001641665194276613 
0.006242213839409078 
0.005698405795152211 
0.001641665194276613 
0.006242213839409078 
0.01009716467417739 
0.006242213839409078 
0.005024834377434036 
0.006242213839409078 
0.001641665194276613 
-0.004064630813694938 
-0.001844789549173782 
-0.001844789549173782 
-0.001844789549173782 
-0.01344004343436741 
-0.001844789549173782 
-0.001844789549173782 
-0.01376878051130604 
-0.01707829733680923 
0.02617246432146511 
0.0007973991655664701 
0.02142833430179798 
0.009708302854957739 
-0.01524985314730458 
0.02142833430179798 
0.07071600584849222 
0.0006113725937199743 
0.006141226284935502 
-0.0002906903328510595 
0.0006113725937199743 
0.003820847904269859 
0.07602796013599215 
0.0006113725937199743 
0.008097381861823759 
-0.01353628581013167 
-0.0002906903328510595 
0.002226419579355206 
0.07602796013599215 
0.07602796013599215 
0.003820847904269859 
0.003645083234678073 
0.003645083234678073 
0.008625174636828818 
0.007309595686351579 
0.003645083234678073 
0.003645083234678073 
0.003645083234678073 
0.00238731685237408 
0.01816595268442369 
0.003899221769615017 
0.00426734926290051 
0.01648721515169036 
0.00156603912956546 
0.01816595268442369 
0.00426734926290051 
0.007542161666982131 
0.01832266251419861 
0.00426734926290051 
0.004556091015160245 
0.03630244717512324 
0.002326675414681017 
0.002326675414681017 
-0.0009498543446790409 
0.005945259379182872 
0.03006004408180147 
-0.0009498543446790409 
-0.0009498543446790409 
0.0410372383676507 
0.201129589800022 
0.01763674023037397 
0.01806632871262864 
-0.01479305050460458 
0.0528520120931175 
0.01763674023037397 
0.201129589800022 
0.01520613624142136 
0.01806632871262864 
0.01763674023037397 
0.01806632871262864 
0.01806632871262864 
-0.01479305050460458 
0.01806632871262864 
0.01806632871262864 
-0.01479305050460458 
0.02692066994730087 
0.201129589800022 
0.01806632871262864 
0.01763674023037397 
0.001791374121032615 
0.003051255495217942 
0.02189723655698585 
-0.01102792844922615 
0.003051255495217942 
0.001791374121032615 
0.03432162106977586 
0.01860214676492491 
0.003051255495217942 
0.02863062570183651 
0.04504678480405401 
0.02393418245595432 
0.007997171349542313 
0.02010121031237335 
-0.005781945347305035 
0.0175443038366122 
-0.0345420371368747 
-0.005430714204356703 
0.006984499163545255 
0.02122718681729442 
-0.005781945347305035 
0.02122718681729442 
0.005338162633723369 
-0.005781945347305035 
0.06805131975577673 
0.0175443038366122 
-0.005781945347305035 
-0.005781945347305035 
-0.007055922730910148 
0.009330449828984322 
0.006069123994390809 
0.006069123994390809 
-0.005779713738549098 
0.009330449828984322 
0.006069123994390809 
-0.005614969929505078 
-0.005614969929505078 
-0.009676860154650163 
0.0001529369661834764 
0.0672401927994488 
0.0672401927994488 
-0.002269557595054556 
0.0001529369661834764 
0.0001529369661834764 
0.0001529369661834764 
0.001276450822032432 
-0.009692627051183914 
0.0672401927994488 
-0.005288379408135552 
0.0672401927994488 
0.02354791645310934 
0.001276450822032432 
0.001276450822032432 
-0.005229677325976166 
0.0008876404902340655 
0.001092107448571782 
0.001092107448571782 
0.001092107448571782 
-0.003768434724902039 
-0.002543496261302335 
-0.009439401495090352 
-0.003768434724902039 
-0.001187886008277586 
-0.001231246757262487 
0.02056440438451375 
-0.003528926319638811 
-0.001187886008277586 
-0.001187886008277586 
-0.01134127659340326 
0.008669545323702196 
-0.003768434724902039 
-0.001187886008277586 
-0.001187886008277586 
-0.001187886008277586 
-0.01070363861223713 
0.02399793927268573 
0.008479365762667465 
-0.08204938265274345 
0.008479365762667465 
-0.0001375840913599245 
0.02492491525885138 
0.06992430185170785 
0.02353195689290859 
0.007550280411353824 
0.06992430185170785 
0.04629758435772624 
0.04884150783626436 
0.05175697125223926 
0.05175697125223926 
0.05145423672342807 
0.04629758435772624 
0.2112100221443315 
0.002100968883478547 
-0.007896156577491912 
0.04459346476511999 
0.002100968883478547 
0.002100968883478547 
0.05042726598422344 
0.04282132907203757 
0.267017818188124 
0.002100968883478547 
0.001709012560348723 
0.02656272248068609 
0.001709012560348723 
0.03018385142866621 
0.01131756608285736 
0.002100968883478547 
-0.003357633520379559 
-0.006899102090059634 
-0.009714056977328885 
-0.003357633520379559 
0.04383631145682085 
0.03282116744207794 
0.07981914863910469 
0.07981914863910469 
-0.001016890588875027 
-0.0112546624053879 
0.002081669664472014 
0.2313083540653165 
0.002081669664472014 
-0.0003523749306968277 
0.1211888026833882 
0.004598546392029557 
0.002081669664472014 
0.007234694757699485 
0.002081669664472014 
0.002081669664472014 
-0.007323822732930765 
0.002081669664472014 
0.02140624415710823 
-0.0112546624053879 
0.004598546392029557 
0.002081669664472014 
-0.08026669409678149 
-0.08026669409678149 
-0.08026669409678149 
0.01187629864729185 
-0.08026669409678149 
0.01187629864729185 
-0.000216471686661037 
-0.000216471686661037 
-0.000216471686661037 
-0.000216471686661037 
-0.0009358994379289341 
0.01810203088024062 
0.03300059983582151 
0.01066106407471597 
-0.003449671343574564 
-0.003449671343574564 
-0.0009358994379289341 
0.003715539599375801 
-0.0009358994379289341 
0.02339905032516756 
0.0132553845358241 
-0.003449671343574564 
0.0132553845358241 
-0.002192655041459334 
-0.0006851026693712934 
-0.005665353450396072 
0.02105524100726902 
0.001287641252192736 
-0.0009069719584779514 
-0.002144442640882718 
0.0003140826737045601 
-0.0001035309558836701 
-0.0001035309558836701 
-0.0001035309558836701 
-0.0001035309558836701 
0.06577740245128094 
-0.0001035309558836701 
-0.0001035309558836701 
-0.01903339669414071 
0.0008445677715694204 
0.0008445677715694204 
0.01061295893296808 
0.04056574070575068 
0.04056574070575068 
-0.0004574903724672506 
-0.0004574903724672506 
-0.0004574903724672506 
-0.0004574903724672506 
-0.0004574903724672506 
-0.0004574903724672506 
0.04056574070575068 
-0.0004574903724672506 
-0.0004574903724672506 
0.002816791081045145 
0.01683509133172799 
0.02591521320250849 
0.04331318384139859 
0.002816791081045145 
0.002816791081045145 
0.004289427271548508 
0.002820086464492215 
0.08322214977662513 
0.0007440093355089578 
0.002816791081045145 
0.002820086464492215 
0.004289427271548508 
0.002816791081045145 
0.03768654203211323 
-0.01290748476653036 
-0.01290748476653036 
-0.01290748476653036 
-0.01290748476653036 
0.04274500804843115 
-0.0155779754306906 
-0.004306126401794293 
-0.000897919857093966 
-0.0001157810023179547 
-0.0001157810023179547 
0.01444392360346215 
-0.000897919857093966 
0.004589711501069335 
0.01269156073320235 
0.04153641716922956 
-0.0001157810023179547 
-0.000897919857093966 
0.04029733417874481 
0.04029733417874481 
0.008291988818139487 
0.04029733417874481 
0.006879041599662015 
0.04029733417874481 
0.04029733417874481 
0.04029733417874481 
-0.2523271810077511 
