solver_type L2R_L2LOSS_SVC
nr_class 2
label 1 -1
nr_feature 47799
bias -1
w
-0.00207327573983227 
-0.03013347222169058 
0.08047604511748141 
-0.02206569844590794 
-0.01115710482767765 
0.01814044930203897 
-0.03013347222169058 
-0.006869768398117372 
-0.0038033209368791 
0.01916199546421826 
-0.004610430244078902 
-0.01717606069271831 
0.01375516454495418 
0.001833290824879802 
0.6561814515374841 
-0.009284381454212887 
0.1422732389847353 
-0.0038033209368791 
-0.01458300702532119 
0.2658125018266255 
-0.01049907738974352 
0.001546013017689459 
-0.02014066944079581 
0.01828178651881083 
-0.01801033800759719 
-0.02126225353093706 
-0.323202141248693 
-0.01038523956455105 
-0.006761767284511598 
0.001759069319010697 
-0.02126225353093706 
-0.323202141248693 
-0.05655774134726937 
-0.110927600977231 
4.174024790461672e-05 
-0.02126225353093706 
-0.0320034816547821 
-0.02126225353093706 
0.03569888055036064 
-0.1425144383190778 
0.0126359206893664 
-0.01382174442542144 
0.0512915208960389 
-0.02330048661761617 
0.02981605873995676 
-0.02330048661761617 
0.02021479396342942 
-0.01308983546884129 
-0.01801925268876233 
-0.01791148288137552 
-0.6397973246641219 
-0.01325750914354604 
0.07304073812723648 
-0.01069995141776403 
-0.3650464449216383 
-0.02330048661761617 
-0.01308983546884129 
-0.005736777752347827 
-0.01069995141776403 
-0.007225785168590376 
0.01436306537645023 
0.0512915208960389 
-0.01693046493483975 
-0.01069995141776403 
0.006076088628994066 
0.005451502596444661 
-0.002021894183462096 
-0.002021894183462096 
-0.03120152299025772 
-0.002021894183462096 
-0.3075293234917906 
-0.03120152299025772 
-0.03120152299025772 
-0.002021894183462096 
-0.141218870635932 
-0.002021894183462096 
-0.03120152299025772 
-0.3075293234917906 
-0.007234978361619437 
0.01056059412384669 
-0.002021894183462096 
-0.002021894183462096 
-0.1306993376591449 
0.005935015275608453 
-0.002021894183462096 
0.0269926264031379 
-0.04233465428244976 
-0.002723320193968686 
0.01056059412384669 
-0.01374415949075438 
0.002214744831682594 
-0.03545024479624418 
-0.00442759789936408 
-0.04939384821258155 
-0.3206406978247587 
-0.1529876244250789 
-0.01710338050465822 
-0.03694634174357439 
0.0111967611743689 
-0.009105949493974452 
0.01362603834822012 
0.000131810835151693 
-0.005986698078816158 
0.009173801631591361 
-0.04939384821258155 
0.0002142012021406768 
-0.3206406978247587 
0.009173801631591361 
0.000131810835151693 
-0.04939384821258155 
-0.04939384821258155 
0.04475819565675664 
-0.005986698078816158 
-0.1402964386748974 
-0.0105871787932761 
-0.05074929106305975 
-0.04895595054539219 
-0.02437553729146352 
-0.04895595054539219 
-0.04895595054539219 
-0.02144284359032518 
-0.110166591538554 
-0.06750918561063211 
-0.02419346594283409 
-0.3380003319176481 
-0.08654927020043934 
0.009891070549335801 
-0.3494848970880458 
0.03755368137709326 
-0.01258576272508061 
-0.01522143889547302 
-0.07041401211983547 
0.009891070549335801 
-0.02547349979139928 
0.009891070549335801 
-0.01522143889547302 
-0.01258576272508061 
-0.002123138243816099 
-0.01522143889547302 
-0.01275132815292718 
-0.01522143889547302 
-0.01867258982908407 
0.006470435801883031 
0.008357343782870091 
-0.3494848970880458 
-0.06395238313495605 
-0.01258576272508061 
-0.03254113718993253 
-0.01275132815292718 
-0.004851526165164486 
-0.05890695138788829 
-0.31722256996287 
-0.01688874188421054 
-0.01688874188421054 
-0.003582192243925139 
-0.003582192243925139 
-0.002007239995291143 
-0.00972020995504686 
-0.003582192243925139 
-0.31722256996287 
-0.01165720674678804 
-0.01688874188421054 
-0.001699477584590796 
-0.1450437482436476 
-0.00972020995504686 
0.009600546765164631 
-0.00972020995504686 
-0.003582192243925139 
-0.00972020995504686 
-0.08074265165942682 
-0.01688874188421054 
-0.04608204705076389 
-0.03334066251984142 
-0.01810369511290704 
-0.3030035068726628 
-0.003237644494916315 
0.01503067992254518 
-0.003237644494916315 
-0.04182593096030116 
-0.07449455832454989 
-0.003237644494916315 
-0.003237644494916315 
0.01019181246994856 
-0.5457322016143669 
-0.0149144432798746 
-0.0009079807991725157 
-0.02220143469799752 
-0.01735548943634176 
-0.7321293124814411 
-0.06014060098564151 
-0.005732659223586305 
-0.04920605590814445 
-0.03885942050986126 
-0.0009079807991725157 
-0.05125058022919365 
-0.01735548943634176 
-0.03053704915235396 
-0.0009079807991725157 
-0.0009079807991725157 
-0.05460485065008781 
-0.03972083480092496 
-0.03885942050986126 
-0.01735548943634176 
0.006573262385804941 
-0.01735548943634176 
-0.02220143469799752 
-0.005732659223586305 
-0.008073413841039734 
-0.03343968153406658 
-0.008073413841039734 
-0.0003159758811035231 
-0.01265761766017553 
-0.01788861145267054 
-0.004402442499243097 
-0.4154055015532802 
-0.03364298480205929 
-0.02754739854237598 
-0.005134741282461108 
-0.008073413841039734 
0.02660749677836648 
-0.01265761766017553 
-0.01265761766017553 
-0.01788861145267054 
-0.003630510044707897 
0.0008125189272405646 
0.02660749677836648 
-0.01265761766017553 
0.02580439460281713 
-0.4154055015532802 
-0.06696464949824293 
-0.01788861145267054 
0.008231727969712279 
0.1076014735732354 
0.6135582117862721 
-0.002600757539736561 
0.003406746329122053 
0.3436171600241771 
0.005841354061113725 
0.1792698541424099 
-0.001492263703117563 
0.03642838444833676 
0.01878377952638743 
-0.00153498053011149 
0.003406746329122053 
0.003406746329122053 
0.003406746329122053 
-0.005939226899944866 
-0.005939226899944866 
0.003933177030024355 
0.00703204945917296 
-0.03799173697631558 
-0.002887660999355821 
0.002620937963822917 
-0.002296728956680709 
-0.002296728956680709 
-0.004470930534465192 
-0.0119511127601061 
-0.002887660999355821 
-0.004470930534465192 
-0.06583828253945768 
-0.01240747907223438 
-0.002296728956680709 
-0.002296728956680709 
-0.002296728956680709 
-0.01882357213428102 
-0.002296728956680709 
-0.002887660999355821 
-0.002296728956680709 
-0.004470930534465192 
-0.002296728956680709 
-0.002296728956680709 
-0.004470930534465192 
-0.1444738258521372 
-0.01613866588746696 
-0.02843386432910697 
0.04051680497666532 
-0.005838754843991563 
-0.005838754843991563 
0.09380417849960969 
-0.005838754843991563 
-0.03624841222958866 
-0.02780092217625075 
-0.0938483598168324 
-0.03018113757066688 
-0.005838754843991563 
-0.00814119964253689 
-0.0101503193191238 
0.000426661530789177 
-0.02963552664172044 
0.02084756622619913 
-0.05490990563273718 
-0.004631845515540999 
-0.2991981160745572 
0.002280659956032615 
-0.5573368988301989 
0.02104711738798161 
-0.03013707137080849 
-0.001262853030161526 
-0.02042814334083542 
-0.01960533806194901 
-0.01960533806194901 
-0.05494977922770318 
0.07269751534204154 
-0.005806410526579786 
-0.03013707137080849 
0.003895280399860597 
0.001090762029553947 
0.00160984620055506 
-0.0340332700650961 
-0.001262853030161526 
-0.04512610902644563 
0.002280659956032615 
0.02307011542555042 
-0.02554589465270719 
-0.00715127970523042 
-0.00715127970523042 
-0.002750622352508926 
-0.00715127970523042 
0.004122098057568459 
-0.00715127970523042 
-0.002821400828629513 
-0.1200652822119951 
-0.002821400828629513 
-2.015905994852104e-05 
-0.002821400828629513 
-0.004139237413147155 
-0.004139237413147155 
-0.02074806277103303 
-0.002821400828629513 
-0.008004360090019385 
-0.008004360090019385 
-0.005561735538589611 
-0.007685729380414456 
-0.01111704381712378 
-0.01269391581936132 
-0.03157343393736831 
-0.02490808165114875 
-0.07961032761283297 
-0.07961032761283297 
0.01693843288209319 
-0.01233359269326233 
-0.007685729380414456 
-0.01426767998458046 
-0.005561735538589611 
-0.008004360090019385 
-0.01233359269326233 
-0.005561735538589611 
-0.0371681111320501 
-0.0566878636700338 
-0.07961032761283297 
-0.0005056628821398611 
-0.01233359269326233 
-0.08659547034130773 
-0.05139123915461538 
-0.005255509010531477 
-0.001466556141287844 
0.02656536771744911 
-0.02566879243664158 
-0.0009516652784298908 
-0.05139123915461538 
-0.05139123915461538 
-0.02743029984198417 
-0.0955800846951587 
-0.005214690443936687 
0.04217293392455367 
-0.0129196184661573 
-0.001466556141287844 
-0.07309012425320016 
-0.009522830852965822 
-0.04095354751727932 
-0.05139123915461538 
-0.02566879243664158 
-0.05681135782724452 
-0.08339939282711399 
-0.01892878451249851 
-0.0009130597329736244 
-0.0009130597329736244 
-0.01280971656801191 
-0.01239942689754131 
0.01106286433020872 
-0.007239347097333837 
-0.0009130597329736244 
-0.006625096203694773 
0.008921816100338365 
-0.08107982237880615 
-0.08107982237880615 
-0.08107982237880615 
-0.08107982237880615 
0.02560875916585906 
0.009668517420706367 
-0.08107982237880615 
-0.08107982237880615 
-0.08107982237880615 
-0.01962550642114194 
-0.08107982237880615 
-0.08107982237880615 
-0.02753816484523142 
-0.0481508644260939 
-0.02779642580926628 
0.004694724206359214 
-0.001950069601645666 
-0.02779642580926628 
-0.01683800081818885 
-0.0481508644260939 
-0.1949257900525885 
-0.01760656813369494 
-0.01289704233557018 
-0.01289704233557018 
0.00697184583807451 
-0.01945548824774347 
-0.002215943364699185 
-0.01945548824774347 
-0.0317668896385527 
-0.01289704233557018 
-0.0004472953778141387 
-0.110611752741145 
-0.3244111960896532 
-0.01945548824774347 
-0.01612272822150878 
-0.01945548824774347 
-0.3244111960896532 
-0.09159149184455179 
0.0005369470466149733 
-0.002711590546338047 
0.0005369470466149733 
-0.01179783082463235 
-0.002925025598081947 
-0.01578651870481131 
0.000460777254909017 
-0.002925025598081947 
-0.01928376779829494 
-0.09102611464285876 
-0.002711590546338047 
-0.002711590546338047 
0.003005216180791909 
-0.002711590546338047 
-0.009094066446695314 
-0.01578651870481131 
-0.003510469614700969 
-0.025881488181268 
-0.01198981012589464 
0.0003291329375090137 
0.006456889549666704 
-0.03652711679555709 
-0.03447559264952319 
0.002043381796454325 
0.008706133166540248 
0.0003291329375090137 
-0.01198981012589464 
-0.025881488181268 
-0.01198981012589464 
-0.01198981012589464 
0.0003291329375090137 
0.0003291329375090137 
0.0003291329375090137 
-0.03447559264952319 
-0.01159637065619934 
-0.02218606631003889 
-0.297677041355099 
-0.02530993812628076 
-0.1345883245275352 
-0.0005771703022374551 
-0.04056474064538913 
-0.00383368619589896 
-0.01159637065619934 
-0.4713718603510454 
-0.003041128727613841 
-0.01617570274021251 
-0.06237626197824951 
-0.007809807283960257 
-0.03202200655873011 
-0.0005771703022374551 
-0.0135883684951503 
-0.01329525199815437 
-0.0185841790487036 
-0.004950137421037613 
-0.03339613135442016 
-0.03752231251742971 
-0.0005771703022374551 
-0.005074206908600668 
-0.005126525924530682 
-0.01252570412396456 
-0.1724911616454738 
-0.005126525924530682 
-0.005126525924530682 
-0.005126525924530682 
-0.02371450079936025 
-0.01252570412396456 
-0.005126525924530682 
-0.005126525924530682 
-0.01754317341076916 
-0.3472366929521045 
-0.01252570412396456 
-0.005126525924530682 
-0.3472366929521045 
-0.005126525924530682 
0.0001846654059240019 
-0.05543893896824818 
0.01267896547686373 
0.0001846654059240019 
-0.0245895638204427 
0.0001846654059240019 
-0.07278597087720766 
-0.004447545187831002 
0.01225408276719865 
-0.05296690266680952 
-0.02082090270432355 
-0.05296690266680952 
-0.005588968888801515 
-0.01339864151297115 
-0.004447545187831002 
-0.005588968888801515 
-0.003479012388876402 
-0.03693689779851755 
-0.006354639863294629 
-0.003479012388876402 
-0.007831180400854953 
-0.00420501426525722 
-0.007831180400854953 
0.009916431560726793 
0.006256484330878253 
-0.007831180400854953 
0.00714383877893995 
-0.003479012388876402 
-0.004206870301752756 
-0.007831180400854953 
-0.003479012388876402 
-0.003479012388876402 
-0.003479012388876402 
-0.001679169840727829 
-0.02630596769600925 
-0.005546759411902205 
-0.005224895487687975 
-0.01639628689187554 
-0.03694514221519226 
-0.01735277604353784 
0.005422006527259268 
0.005422006527259268 
-0.1304522741813165 
-0.02238695831952567 
0.003914682000182161 
0.002785353815430698 
-0.02308712490182001 
-0.02308712490182001 
-0.03694514221519226 
-0.01794558290080771 
-0.03694514221519226 
-0.001771862716267261 
0.0106861071249401 
-0.02555348231202797 
-0.05448245881095129 
-0.044681442603816 
-0.02737178825772289 
-0.0007260018763808157 
-0.02555348231202797 
-0.02555348231202797 
0.0106861071249401 
-0.0008378334845525563 
0.0106861071249401 
-0.0007260018763808157 
0.0002531260039233274 
0.0002531260039233274 
-0.006207583088110909 
0.002489702818557098 
-0.02336456314461821 
-0.0003689529962363032 
0.0002531260039233274 
-0.01967234517706268 
0.0002531260039233274 
-0.07071856504971702 
-0.006207583088110909 
-0.01348054896382692 
-0.01984329374519415 
-0.006630237811278118 
0.0002531260039233274 
0.002489702818557098 
-0.0124055771316217 
-0.0002041775907488648 
-0.02268759528150408 
-0.002635548416755033 
-0.0002041775907488648 
-0.02268759528150408 
-0.01208659076930857 
-0.0124055771316217 
-0.01479047229231843 
-0.01208659076930857 
-0.08972741604216196 
-0.02302595578156243 
-0.01208659076930857 
-0.002289028125338685 
-0.0002041775907488648 
-0.01476390202830948 
-0.01434716491463961 
-0.01398682292980028 
-0.6587098817697193 
-0.0124055771316217 
0.01121641347974787 
0.01121641347974787 
-0.04679435457406998 
0.01399012015286405 
0.009086986596505447 
0.003290978387254151 
-0.01547813998434217 
-0.021088893961875 
-0.05203156373736304 
0.01399012015286405 
-0.01547813998434217 
-0.5656717273707421 
0.008543584214887982 
0.008543584214887982 
0.01121641347974787 
-0.04710503430561277 
0.01399012015286405 
-0.01745313170491167 
-0.2786129697708399 
0.01121641347974787 
-0.007047424444704684 
-0.007149813474112767 
-0.001573638312681848 
-0.001573638312681848 
0.001024834935367177 
-0.001573638312681848 
0.03074702226904668 
-0.03517421099575177 
-0.001573638312681848 
0.001562765793079142 
-0.001573638312681848 
-0.001573638312681848 
-0.001573638312681848 
-0.001573638312681848 
0.0138846055753782 
-0.001573638312681848 
-0.02053251138331428 
0.001024834935367177 
-0.001573638312681848 
0.001024834935367177 
0.001024834935367177 
-0.01939090680797593 
-0.004750770519442041 
0.00928277468572733 
-0.004750770519442041 
-0.03277346131671393 
-0.01267032691732255 
0.02335413241934101 
0.02335413241934101 
-0.004750770519442041 
-0.004750770519442041 
-0.03277346131671393 
-0.01939090680797593 
0.00928277468572733 
0.02335413241934101 
0.0001004171481317443 
-0.02297043091541004 
-0.004750770519442041 
-0.07014794859722237 
-0.02297043091541004 
0.00928277468572733 
-0.03277346131671393 
-0.03277346131671393 
-0.0007593030974639021 
-0.0007593030974639021 
0.01119513043989788 
-0.0007593030974639021 
-0.0007593030974639021 
-0.06749588423306625 
0.01119513043989788 
-0.03050942034730693 
-0.0007593030974639021 
-0.002744005076045442 
-0.0007593030974639021 
0.01119513043989788 
-0.0007593030974639021 
-0.001382833378236337 
0.002109309436799784 
-0.0005858831438483686 
-0.0007493734779309706 
-0.0007593030974639021 
-0.018434677035988 
-0.0208147066810645 
0.03018781235021102 
0.00138711474943926 
0.00138711474943926 
0.0873837328659392 
2.303955706908431e-05 
0.00237264033122709 
0.00138711474943926 
-0.5256573139783763 
0.00237264033122709 
-0.3218602159256921 
0.0307596771391755 
-0.0671444038987415 
0.00138711474943926 
0.00237264033122709 
-0.0199344263234132 
-0.04545886072247049 
0.00138711474943926 
-0.04631681206291707 
0.006768943811755164 
0.001451930762980639 
0.001451930762980639 
-0.02923057291191593 
-0.001095935319320157 
-0.02923057291191593 
-0.01851213347592134 
-0.05075011016347306 
-0.01058360356028041 
-0.0256169201151555 
0.001451930762980639 
-0.01422728994909983 
-0.01801247595630344 
-0.1333135795890436 
-0.004948546074431619 
-0.02119878431931336 
-0.002159381539664845 
-0.002320143128117708 
6.770181012597221e-05 
-0.002320143128117708 
-0.002320143128117708 
-0.01422728994909983 
-0.01422728994909983 
-0.002320143128117708 
-0.02851176089975714 
0.002929770938105525 
-0.01422728994909983 
-0.02195691165317253 
-0.002159381539664845 
-0.01821808998168746 
-0.02961265993095445 
-0.002320143128117708 
-0.3681401081181012 
-0.5757054064200026 
0.01550344184625539 
-0.02178868199589239 
-0.006723964366150179 
-0.003786563372239082 
-0.02949959635883359 
0.07562096455180072 
3.728097447940318e-06 
-0.009141690682229775 
-0.02712976792928849 
-0.03705276483075459 
-0.003786563372239082 
-0.003786563372239082 
3.728097447940318e-06 
-0.01479636507665756 
-0.009266915924295535 
-0.03381476449078052 
-0.374105684065209 
-0.02955915314182075 
-0.5692692299187492 
0.007368558620014355 
3.728097447940318e-06 
-0.01084068625565074 
-0.0423103335934069 
-0.01084068625565074 
-0.01084068625565074 
-0.01084068625565074 
-0.01084068625565074 
-0.01084068625565074 
0.009016698964019276 
-0.01436519178195392 
-0.01076664990608404 
-0.001511020751348075 
0.02072129886141005 
-0.001511020751348075 
-0.01076664990608404 
-0.004486495402429867 
-0.01076664990608404 
-0.001511020751348075 
-0.004486495402429867 
-0.03515859220512395 
0.01804180241492082 
-0.001511020751348075 
-0.004486495402429867 
0.06345293208023206 
0.007443179602065168 
0.01879907623635215 
0.05079872377393865 
-0.05788567100578393 
0.02086770317905989 
-0.01076565947795009 
0.02086770317905989 
0.06849740812199991 
0.05079872377393865 
-0.06706888456634479 
0.02792733464510477 
0.8248743097255471 
0.02086770317905989 
-0.01279178454982972 
-0.001945251426659417 
0.02402698432852468 
0.009457393723460158 
-0.01125248400236814 
0.02792733464510477 
0.009570576862764042 
-0.03677929348779434 
-0.0001706335078429243 
-0.01378245860553355 
-0.0044439123469742 
-0.03295426954732866 
-0.0008716823193340834 
-0.009391519309963983 
-0.03199767333436844 
-0.05035369253924583 
-0.0001706335078429243 
-0.0001706335078429243 
-0.02583506592482878 
-0.03295426954732866 
-0.02761811026964421 
-0.09855509870993498 
-0.0112324842022851 
-0.006640370397618098 
-0.03295426954732866 
0.000525577210428557 
-0.0001706335078429243 
0.000525577210428557 
0.04088922021483044 
0.01346547800401258 
0.04014169334225125 
-0.06031384296691885 
0.04014169334225125 
-0.006574795777932371 
-0.006574795777932371 
-0.01585285176783502 
-0.04060479292939235 
-0.06927713098573644 
-0.006574795777932371 
-0.01870776387788463 
0.01778785159614849 
-0.006574795777932371 
0.03081262419096913 
-0.006574795777932371 
-0.006574795777932371 
-0.01577349198972802 
0.04088922021483044 
-0.006574795777932371 
-0.001133974772052769 
-0.0450830123669249 
-0.003809421906717624 
-0.002734906268686638 
-0.003809421906717624 
-0.003809421906717624 
-0.002734906268686638 
0.002382343767088718 
-0.02516187358077334 
-0.1066927692584483 
-0.003809421906717624 
-0.09073094022352104 
-0.0007227761998640641 
-0.002734906268686638 
0.0008646354164284919 
-0.007672886020170042 
0.02770682756729951 
0.0008361661018098564 
-0.02741383187358069 
-0.007672886020170042 
0.02770682756729951 
-0.02532759956063956 
-0.115587154610728 
-0.4376563651397521 
-0.02752555189149631 
-0.05797336670000285 
0.0008361661018098564 
-0.003344196282119447 
0.0008361661018098564 
-0.03269776382916693 
0.0008361661018098564 
-0.1432532959082087 
0.119379383413066 
0.02770682756729951 
-0.2764059815451005 
-0.03269776382916693 
-0.01215672873833408 
-0.01567793070344562 
-0.01215672873833408 
0.003207729302963835 
-0.03393284771316524 
-0.03638586524107075 
-0.02241957935361162 
0.0002005142168227764 
-0.01215672873833408 
0.003207729302963835 
-0.03638586524107075 
0.003207729302963835 
0.01332830434279089 
-0.03638586524107075 
-0.01567793070344562 
-0.02950496975731468 
-0.009910807725707916 
-0.03127715112866173 
0.0108622251927025 
-0.03638586524107075 
-0.0009286589970138872 
-0.0009286589970138872 
-0.0009286589970138872 
-0.0575271953826128 
-0.04006902882128185 
0.001192072581599139 
-0.0009286589970138872 
0.009503189389923139 
0.001954877034926324 
-0.0009286589970138872 
-0.007174266988535769 
-0.02720322646546552 
-0.0009286589970138872 
-0.03910973663872899 
-0.0009286589970138872 
-0.003754609637594917 
-0.003754609637594917 
-0.02720322646546552 
-0.4799661300432683 
0.004086919734893646 
-0.06252089992391865 
0.04025384088584834 
-0.02166256745548843 
-0.01804747613975095 
0.1067130685741259 
-0.02334837619509239 
-0.0348422070477996 
0.135800017795033 
-0.02034653607571067 
-0.02034653607571067 
-0.01804747613975095 
-0.01804747613975095 
-0.03194037603818833 
-0.02339176020856558 
-0.03757710261940925 
-0.00265948353415451 
-0.02334837619509239 
-0.02034653607571067 
-0.02339176020856558 
-0.02334837619509239 
-0.3284411946671004 
-0.02034653607571067 
-0.02339176020856558 
-0.005676716439449515 
-0.005856713682609966 
-0.005676716439449515 
-0.005676716439449515 
-0.005676716439449515 
-0.005676716439449515 
-0.005676716439449515 
-0.008888999874276882 
-0.02602664850268918 
-0.005676716439449515 
-0.03784071452191195 
-0.01808224600746217 
-0.005676716439449515 
-0.005676716439449515 
-0.005676716439449515 
-0.005676716439449515 
0.0006531295768867836 
-0.005856713682609966 
-0.02564413418428258 
-0.005856713682609966 
-0.00804260047190325 
-0.001333005809899065 
-0.02765592264034751 
-0.02932555011326247 
-0.01764768410353462 
-0.02108467766833873 
0.01329085687286054 
-0.01119834077033075 
0.003394735214484891 
-0.01764768410353462 
-0.00804260047190325 
-0.00804260047190325 
-0.01764768410353462 
-0.001333005809899065 
0.006561654449828115 
-0.002262316242502035 
-0.001333005809899065 
-0.02258184475914897 
-0.6077447353835103 
-0.0299503333009641 
0.02333048993471168 
-0.004590539211039199 
-0.002480419862452051 
-0.326834181576161 
0.00203878336883582 
0.08326326037664018 
-0.02694002460794526 
-0.01037196560790142 
0.000762230994666858 
-0.002480419862452051 
0.000762230994666858 
-0.002480419862452051 
-0.01037196560790142 
-0.01037196560790142 
-0.1478651666564539 
0.01448929473910843 
-0.08252182041336828 
-0.01120825671065194 
-0.0164088642350196 
-0.0003895722877293388 
0.02911048929291535 
-0.06193749015697397 
-0.0164088642350196 
-0.001589709142545771 
-0.0003895722877293388 
-0.005192154314257499 
-0.004405181263161263 
-0.003299659174556299 
-0.04922684871263703 
-0.004405181263161263 
-0.005046083389571818 
-0.003299659174556299 
-0.004405181263161263 
-0.02677759035365966 
-0.04572741787665911 
-0.01321268916546747 
-0.03287209418695526 
-0.003299659174556299 
-0.02334694583888646 
-0.005785951378322034 
-0.02084039596933056 
-0.003299659174556299 
-0.01672112777299449 
-0.003299659174556299 
-0.004076831944571285 
-0.004405181263161263 
-0.003299659174556299 
-0.003299659174556299 
-0.04347739795525585 
-0.02368418225375612 
-0.04272687804404655 
0.006229831267867947 
0.0005970320332696727 
-0.008048584432501693 
-0.004603602295763018 
-0.1428541456565935 
-0.06690948049445324 
-0.02368418225375612 
-0.01054326159093863 
-0.02531194621690387 
-0.007070283833505314 
-0.02368418225375612 
-0.02519456652815347 
0.0005970320332696727 
0.0005970320332696727 
-0.02368418225375612 
0.00270127618412194 
0.0002550231014378383 
-0.03335114838081379 
-0.3020958060946828 
-0.001781706322524701 
-0.01528273748893984 
-0.002381320730695831 
-0.1833448495290985 
-0.000573197834986181 
-0.000573197834986181 
-0.03335114838081379 
-0.3020958060946828 
-0.02696570189613126 
0.04617873903493094 
-0.009917152191974593 
-0.1286193393001734 
-0.006456186996582038 
0.0002550231014378383 
0.0002550231014378383 
-0.03050938205760906 
-0.001846288170973629 
-0.01922629971528653 
-0.04587960034728122 
-0.04864286128465449 
0.003768661116119152 
-0.0008282209364240178 
-0.03050938205760906 
-0.01729434383271283 
-0.05078032901451985 
-0.04864286128465449 
-0.0008282209364240178 
-0.01028188577048268 
-0.03050938205760906 
-0.009533822972867506 
0.001799757669243075 
0.004753529468232849 
0.001799757669243075 
0.001799757669243075 
0.002570701204555768 
0.001799757669243075 
0.001799757669243075 
0.001799757669243075 
-0.02492902045531728 
0.001799757669243075 
-0.147026112818655 
0.001799757669243075 
0.001799757669243075 
0.001799757669243075 
-0.00347769969843795 
-0.01490942372167785 
-0.02887206878938275 
0.05353827753175684 
-0.01490942372167785 
-0.02271168231192121 
-0.02271168231192121 
-0.02271168231192121 
-0.04283810221757382 
-0.01490942372167785 
-0.07644392798245438 
-0.02271168231192121 
-0.01490942372167785 
-0.02887206878938275 
-0.07644392798245438 
0.05242260312236842 
-0.04283810221757382 
-0.02271168231192121 
-0.02732069644777001 
-0.02271168231192121 
-0.001496573852109347 
-0.001496573852109347 
-0.004096939877463303 
-0.001496573852109347 
-0.005810504865671163 
-0.001496573852109347 
-0.008933705974518685 
0.0002195480929577456 
-0.01128191878945517 
-0.001496573852109347 
-0.00767340553383824 
0.01510935273409698 
-0.003592063024172943 
-0.01128191878945517 
-0.02256550009050065 
-0.008231057739946647 
-0.001496573852109347 
-0.01128191878945517 
-0.005384345651063273 
-0.0443042838081032 
-0.005384345651063273 
0.01026004510196257 
0.01026004510196257 
-0.005384345651063273 
-0.02169064386602133 
-0.03231690370343504 
0.001157699402372947 
-0.001965287411679882 
-0.001965287411679882 
-0.01245205773256827 
0.001157699402372947 
-0.03048529876834784 
0.01552269929317684 
-0.01302359742173317 
0.0275857725347482 
-0.002654856596197185 
-0.002654856596197185 
-0.01179384875234529 
-0.005436295101084205 
-0.06975233664237704 
-0.001613358781526931 
0.03058282515776228 
-0.01302359742173317 
-0.01495325956714923 
-0.001690603788509325 
-0.01592314262201577 
-0.01302359742173317 
-0.001613358781526931 
0.03058282515776228 
-0.001613358781526931 
-0.01950317216014922 
-0.01950317216014922 
-0.03568498719069051 
-0.01817615029138995 
-0.01876845819559218 
-0.008052219626096216 
-0.01766278158202625 
-0.03958818749241544 
-0.06072460953072625 
0.001569624237112796 
-0.0008397145854371064 
-0.02970177632586019 
0.001569624237112796 
-0.2465070692645585 
0.001569624237112796 
-3.044352882625377e-05 
0.0001608779260316119 
0.0008385261696886618 
0.0008385261696886618 
-0.0115928227510393 
0.0008385261696886618 
0.0001608779260316119 
-0.0057633859917626 
0.0001608779260316119 
-0.01310469481188206 
-0.07683444290354001 
0.0001608779260316119 
0.002283820241431488 
-0.02789981603521523 
-0.0057633859917626 
0.001120307042382974 
-0.004296085813404014 
0.001120307042382974 
-0.007674757227978819 
-0.007674757227978819 
0.001120307042382974 
-0.007674757227978819 
0.001120307042382974 
0.001120307042382974 
-0.004296085813404014 
-0.004296085813404014 
-0.007674757227978819 
0.001120307042382974 
0.001120307042382974 
0.001303800555133161 
0.001303800555133161 
-0.003671713455251195 
0.01538499922138052 
-0.09614880256317225 
-0.003671713455251195 
-0.002589331669268582 
0.001303800555133161 
0.0005165397173228324 
-0.04184988835063669 
0.01169250467289697 
-0.1345763130838981 
-0.008041263910553589 
0.001303800555133161 
0.0005165397173228324 
-0.06596820804881356 
-0.004373361746071221 
-0.003098059140131683 
0.004408158595457781 
0.004157073939779128 
-0.0008260500890319341 
-0.02858207320227757 
0.02649874776779012 
0.02649874776779012 
-0.003098059140131683 
-0.0547588592495393 
-0.04084768885927358 
0.004157073939779128 
-0.003098059140131683 
0.004157073939779128 
-0.01159095038238353 
-0.01159095038238353 
0.002886736673029969 
-0.009936847635386456 
-0.01549848571181343 
-0.009936847635386456 
-0.001103882897011012 
-0.001103882897011012 
-0.01039391798708088 
-0.01549848571181343 
-0.001103882897011012 
-0.01159095038238353 
-0.01159095038238353 
0.01747785729744273 
-0.009936847635386456 
-0.02092200139258407 
-0.03326796680686653 
-0.03326796680686653 
-0.01695424813878098 
-0.013131855403212 
-0.01218990570697479 
-0.01889433737409468 
0.001794713275840277 
-0.0578583363653225 
0.4045689403435984 
0.004322041748108696 
-0.01659696237541508 
0.01053102763629889 
0.6287687062431665 
0.01053102763629889 
-0.002052558036751671 
0.01053102763629889 
0.1678334488236668 
0.01053102763629889 
0.01590167241572746 
-0.002052558036751671 
-0.02277083696158483 
0.01053102763629889 
-0.002052558036751671 
0.01053102763629889 
0.005026417728065296 
0.003226384846954893 
0.0180406818561988 
0.0180406818561988 
0.0180406818561988 
0.005026417728065296 
-0.03756099498104176 
0.005026417728065296 
0.01961733103085523 
0.00810235686760624 
-0.002040108337656413 
0.00810235686760624 
0.0180406818561988 
-0.0007604746990049536 
-0.002831703182503656 
-0.03317314417857568 
0.003302180305965351 
-0.03415799546213413 
0.003302180305965351 
-0.0007604746990049536 
-0.0006440170040182768 
-0.0689330261005138 
-0.02346856874871174 
-0.002588558686612769 
-0.005975064982242305 
0.04252881066535402 
0.02964395448362437 
-0.005975064982242305 
-0.002588558686612769 
-0.002588558686612769 
-0.005975064982242305 
-0.002588558686612769 
-0.005975064982242305 
-0.002588558686612769 
-0.03415767582029344 
-0.002943211820070818 
-0.02987946445202782 
-0.03415767582029344 
-0.002473316927835548 
0.006266527382580432 
-0.01674340418473183 
-0.002473316927835548 
0.01641911522845625 
-0.03415767582029344 
-0.001056929317789801 
-0.001056929317789801 
0.02572594667296961 
-0.001056929317789801 
-0.1407402740360759 
-0.001056929317789801 
-0.0005677413597631343 
-0.137803177506203 
0.004978648199511071 
-0.1178887316595196 
0.01009846948239474 
-0.4220610820382356 
-0.0005677413597631343 
-0.07024151159001867 
-0.0005677413597631343 
-0.0005677413597631343 
-0.007683697197859531 
-0.09393045301630973 
-0.02942267552840327 
-0.026769689455876 
-0.01655445773420055 
-0.02942267552840327 
-0.003767760870165015 
-0.001068121390115124 
-0.2404972071825393 
-0.01031839582785436 
-0.01778723845111595 
-0.001581648218258039 
-0.01951066643964246 
-0.0009525848187080968 
-0.005289073177509792 
-0.006300629948435644 
-0.006300629948435644 
0.05462045152727681 
0.03382157934716143 
0.0003131000478355664 
0.0003131000478355664 
-0.01731563322312907 
0.0003131000478355664 
0.0003131000478355664 
-0.004550679706270434 
0.05462045152727681 
-0.0135819892211969 
-0.03552966254391067 
-0.04340495233298702 
0.0003131000478355664 
-0.07698936363114542 
-0.003739647855976534 
-0.003042521637060332 
-0.002861096305261865 
-0.007406233090848015 
-0.009351968119670144 
-0.003042521637060332 
0.003641135519632658 
-0.003042521637060332 
0.001515615890116491 
0.001515615890116491 
-0.04482755287027761 
0.001515615890116491 
0.001515615890116491 
-0.02667673492136674 
-0.04482755287027761 
-0.01446265870772496 
-0.01503968264834325 
-0.005920092644523482 
-0.06051845146848363 
-0.02551433181372978 
-0.01503968264834325 
-0.01503968264834325 
-0.009913029990911176 
-0.01503968264834325 
-0.01847249342656784 
-0.02391691757529093 
-0.7213457057426845 
-0.009913029990911176 
-0.1075236571459978 
0.003983908816374914 
-0.007696400943806536 
-0.0007854181907479104 
0.006537249487313257 
8.043053582673578e-05 
-0.04581585676187122 
-0.02071844800689465 
8.043053582673578e-05 
-0.0007854181907479104 
-0.002592886349533698 
0.003983908816374914 
-0.007911807842524684 
-0.04909011896317308 
0.01260428415129022 
-0.05569037720809782 
0.01260428415129022 
-0.009695286681551736 
0.01260428415129022 
-0.009695286681551736 
-0.003281093902276097 
-0.007712480307513659 
-0.002191972362167686 
-0.009695286681551736 
-0.005898443582119407 
-0.003281093902276097 
-0.007712480307513659 
-0.007911807842524684 
-0.001421278780002657 
0.0004826787927253679 
0.0002004301603776649 
-0.003179881260152815 
0.01159594110114197 
0.0002004301603776649 
-0.001419600478652344 
0.003940960817144495 
0.003359221013903837 
0.01963521450070568 
-0.003487391221980725 
0.2072369393477076 
0.025096787429694 
0.0009222034048273131 
0.025096787429694 
0.003940960817144495 
0.02739830688653185 
0.2072369393477076 
0.003359221013903837 
0.0009222034048273131 
0.8141969813187714 
0.003359221013903837 
0.0009222034048273131 
0.003940960817144495 
0.08662456552287422 
-0.004462000263920681 
-0.00145126134608972 
-0.007992126916699019 
-0.00145126134608972 
-0.00145126134608972 
-0.03606833346953878 
-0.001267247958086806 
0.05673158385116056 
0.2820638783849552 
-0.001267247958086806 
0.6448901944705484 
0.03573076100024528 
-0.001267247958086806 
-0.007987758257799097 
-0.007097815723066206 
0.05740430252698846 
0.0161528156907384 
0.05188028883848495 
0.0123193300807517 
0.0123193300807517 
0.0369622896541343 
-0.01251516308926693 
0.05740430252698846 
0.0123193300807517 
0.0123193300807517 
0.08550804473592412 
0.0123193300807517 
0.0123193300807517 
0.02857806966009696 
0.01261442945348079 
-0.001163358396142273 
-0.001163358396142273 
-0.02787131101055738 
-0.0004275191015281816 
0.007200274491792366 
-0.02555593604792112 
-0.001163358396142273 
-0.02555593604792112 
-0.001163358396142273 
-0.04144571626429302 
-0.001163358396142273 
-0.02737977206763629 
0.03104318568968824 
-0.001163358396142273 
0.03414545545804014 
-0.003952663016616176 
-0.003952663016616176 
-0.003952663016616176 
-0.009612253028494605 
-0.1576372485639672 
-0.001795062153805982 
-0.01810637628462669 
0.03414545545804014 
-0.01810637628462669 
-0.09745683911938247 
-0.05374995683082454 
-0.009175496311549309 
-0.01810637628462669 
-0.01398151416309563 
0.03414545545804014 
-0.01810637628462669 
-0.003952663016616176 
-0.003952663016616176 
-0.02770138599850852 
-0.001795062153805982 
-0.02702013277145425 
-0.02296427375259301 
-0.01333011505231513 
-0.03332796229978852 
-0.02123728844253159 
0.0006973238896673232 
-0.02702013277145425 
-0.01333011505231513 
-0.003867323957111002 
-0.0003098089810654341 
-0.01333011505231513 
-0.005845078575414764 
-0.01333011505231513 
-0.005845078575414764 
-0.005845078575414764 
-0.001263289458561745 
-0.001844340999417386 
-0.007380434157743324 
-0.008213987825625695 
-0.03091841475306308 
-0.003621471926613886 
-0.03463658415888043 
-0.001263289458561745 
-0.05277584168269308 
-0.008213987825625695 
-0.03091841475306308 
-0.001263289458561745 
-0.008213987825625695 
-0.008213987825625695 
0.02124151635763672 
-0.01557710924294455 
-0.03822992327484395 
-0.01873673219143851 
-0.01557710924294455 
-0.02422319514987284 
-0.03822992327484395 
-0.01557710924294455 
-0.01557710924294455 
-0.03822992327484395 
-0.01565889112331314 
-0.01565889112331314 
-0.03169786632039506 
-0.02655872145615472 
-0.009793073392559972 
-0.0268985952974676 
-0.002302223861457953 
-0.04653277494799633 
-0.0268985952974676 
-0.0268985952974676 
-0.009793073392559972 
0.01404471270647469 
0.0001569859879471567 
0.0437037712347176 
0.03829497654512473 
0.03829497654512473 
0.0001569859879471567 
0.0001569859879471567 
-0.05767336797122102 
-0.006139297756448096 
-0.009793073392559972 
0.01718394490169775 
-0.009793073392559972 
0.00320538558055481 
0.00320538558055481 
0.02247617564892858 
-0.006593140869414825 
-0.007524643205356947 
-0.01066217533941806 
-0.05296188325592583 
0.0007840679981061545 
-0.006593140869414825 
0.02247617564892858 
0.007369654608854399 
-0.006593140869414825 
-0.006593140869414825 
-0.001243646463562844 
-0.00670896906899877 
-0.006593140869414825 
-0.02243406023895232 
0.0007840679981061545 
0.02247617564892858 
-0.00670896906899877 
-0.01959517043035797 
0.02892841122497315 
0.2801957016545854 
0.1031718503608951 
-0.008204763494931443 
0.07112673298484441 
-0.04789218671098664 
0.03988207964426483 
0.04936871834837062 
-0.008204763494931443 
0.00422127787723439 
0.6130410468443148 
-0.008204763494931443 
-0.03158142808386277 
-0.01959517043035797 
-0.01519333896731421 
0.008974138453976247 
0.0001955926101944163 
-0.05381897125460508 
-0.04963896736510084 
0.01118198339266808 
-0.01569002868225534 
-0.009291787340394469 
-0.001785183905753424 
-0.07655911221701721 
-0.04963896736510084 
-0.02936621137606813 
-0.001785183905753424 
-0.05205247936968391 
0.01118198339266808 
-0.2756631555492847 
0.01177287899621653 
-0.5059567382130372 
0.01118198339266808 
-0.001785183905753424 
-0.03483014404998708 
-0.009046346537412583 
0.02505939620258918 
-0.009046346537412583 
-0.009046346537412583 
0.06504675837378898 
0.496016623360266 
0.1490245412067105 
-0.02127814627580297 
0.03018448851593695 
0.2593782443928506 
0.03018448851593695 
0.02505939620258918 
-0.02127814627580297 
0.004145651580656097 
-0.02127814627580297 
-0.02127814627580297 
-0.009046346537412583 
0.04411871462537952 
0.006253518706839305 
0.006253518706839305 
-0.001536515846608545 
0.006253518706839305 
-0.002542504708685265 
-0.001536515846608545 
0.01333479872524899 
-0.002542504708685265 
0.003702662619615641 
-0.04082352536665349 
-0.006626865107231809 
-0.003296281772946388 
0.06744450887632185 
-0.006626865107231809 
-0.04019493174875801 
-0.006626865107231809 
-0.006626865107231809 
-0.2446930868074937 
-0.01209808313307069 
-0.0204383247527998 
0.06744450887632185 
-0.006626865107231809 
-0.007150178076508829 
0.008493784165012244 
-0.04803496700304516 
0.06744450887632185 
0.07133271442707866 
0.09818392918061557 
-0.006718059677619907 
0.09500577541958219 
0.06794204628221448 
-0.006718059677619907 
0.06696417411652374 
-0.006718059677619907 
0.04898245423248943 
0.05060414126371483 
-0.006712960569059998 
-0.001463328377983053 
0.05060414126371483 
-0.0250154974038552 
0.05060414126371483 
-0.001463328377983053 
-0.006718059677619907 
-0.0247403981184523 
0.05060414126371483 
0.3973256915358422 
-0.0250154974038552 
0.03437607689333179 
0.02892124849670115 
-0.005484079006444013 
0.2910867021281623 
0.007019437013291153 
0.1857594255434403 
0.007019437013291153 
0.007019437013291153 
0.03437607689333179 
-0.01092681918864471 
0.02892124849670115 
0.5477015070782802 
-0.01761455780673219 
-0.006334202539142806 
0.02628282672369216 
0.006201072631010692 
0.0361735190748191 
0.006201072631010692 
-0.008033185354395348 
0.01000820332809181 
0.007668354404737469 
-0.01513544710329934 
0.007328134530656947 
0.01125698909024522 
0.007328134530656947 
-0.08799766473670773 
-0.03273522279446964 
-0.03619095452797613 
0.003035187890491612 
-0.06494961163416049 
0.008566971151803597 
0.00415575646317406 
0.01179351447143203 
0.01819056595951871 
0.0157815405080358 
0.008968197860906271 
-0.02536133029496523 
-0.02792557533653948 
0.004882405325959469 
0.02794405367529756 
-0.02536133029496523 
0.02794405367529756 
0.008566971151803597 
0.6157661478383013 
0.008566971151803597 
-0.01368415007374301 
0.30360418838198 
0.008566971151803597 
-0.01619401482974452 
-0.01619401482974452 
-0.02303557067002417 
-0.6660248997552785 
-0.03633317688073495 
-0.02090996614741402 
0.001518576476825468 
0.001518576476825468 
-0.01619401482974452 
0.001518576476825468 
-0.02303557067002417 
-0.01503887237650802 
-0.008453753797382604 
-0.02303557067002417 
-0.01503887237650802 
-0.02303557067002417 
0.005694583188518828 
-0.02303557067002417 
-0.02303557067002417 
-0.03419411196827397 
-0.02303557067002417 
0.008217965286018605 
0.009002095331021403 
-0.004633861695541581 
0.003007215086141058 
0.003250457050165514 
-0.02182874856720329 
0.003007215086141058 
0.05840919953844686 
-0.02782992216361563 
-0.017789155028251 
0.003007215086141058 
0.001355653672376529 
-0.01278069919001669 
-0.007558185342618517 
0.01669623274634326 
-0.007558185342618517 
-0.1247043873121746 
-0.5493227502429764 
-0.05398580263561347 
-0.04868887300666978 
0.04930792303517317 
-0.007558185342618517 
-0.02829047742366848 
-0.0357665649114201 
-0.0357665649114201 
-0.04320106021889845 
-0.05398580263561347 
-0.0218934753423317 
0.01273598425025239 
0.009893379942161325 
0.009893379942161325 
-0.003888823955764655 
-0.003888823955764655 
0.01937342917973022 
-0.003888823955764655 
-0.004708241047931976 
-0.03193544153087755 
0.01145327899001502 
-0.004708241047931976 
0.0101586288516356 
0.03202448260566861 
-0.02563888525594658 
-0.003888823955764655 
-0.0218934753423317 
-0.01459162492780623 
0.05382265974446569 
0.05382265974446569 
-0.01459162492780623 
0.01251874827539578 
-0.01459162492780623 
-0.01459162492780623 
0.01413881886948572 
-0.01351709443217442 
0.6910079957601506 
0.004150367999313271 
0.007553588806118755 
0.298218402545326 
0.1563562944413127 
-0.01351709443217442 
0.01205190237693324 
0.01205190237693324 
-0.01351709443217442 
-0.02065452704493621 
0.02101953709234872 
0.01413881886948572 
-0.01018669805529257 
0.007709830652371009 
-0.01063453643537565 
-0.0234862685695811 
-0.01063453643537565 
-0.02208614774418932 
-0.0234862685695811 
-0.01063453643537565 
-0.01063453643537565 
-0.01063453643537565 
-0.01063453643537565 
-0.02208614774418932 
-0.02001757679814382 
-0.01063453643537565 
-0.02208614774418932 
-0.0234862685695811 
-0.01063453643537565 
0.04091312758258837 
0.01009829466636502 
0.0007986793188203441 
0.01145502588680889 
0.0007986793188203441 
0.0007986793188203441 
-0.005012179769607667 
-0.006074810374905522 
-0.01285580806271015 
0.01009829466636502 
0.1798555216443037 
0.3699135212175084 
0.01145502588680889 
0.0007986793188203441 
-0.006074810374905522 
0.5502748721891119 
0.0007986793188203441 
-0.01082761043325504 
0.02284938569846102 
0.0007986793188203441 
-0.006074810374905522 
-0.01082780668301088 
0.01899277798391583 
0.01899277798391583 
0.01899277798391583 
0.0003680849611901084 
-0.002059692962891918 
0.002608540422909625 
-0.01881538040901328 
0.1040826513659155 
0.004899274269031739 
0.7294821025975921 
0.03143248254105516 
0.03143248254105516 
0.3423781263756148 
0.03143248254105516 
0.03143248254105516 
0.02732882977315287 
0.003533720810732807 
-0.01143762452399104 
-0.01143762452399104 
-0.01143762452399104 
0.01098620048732822 
-0.02127076566365107 
0.01104620524665555 
0.01104620524665555 
-0.008765390510670877 
0.01104620524665555 
-0.01143762452399104 
0.01104620524665555 
-0.01039879695141744 
-0.008765390510670877 
-0.001337396060484638 
-0.01228311751732914 
-0.01228311751732914 
-0.01984011184298886 
-0.04867918706375593 
-0.0081367924603121 
-0.01228311751732914 
-0.05630752072271628 
-0.01228311751732914 
0.01341890420616787 
0.05660717003414584 
0.01691459347227504 
-0.0379668622545694 
-0.001970230320760738 
-0.01984011184298886 
0.04815026264478309 
-0.01984011184298886 
0.008931336681254112 
0.008604599725213952 
-0.0266900481870391 
-0.0266900481870391 
-0.0266900481870391 
-0.06062242071762049 
-0.0266900481870391 
-0.0266900481870391 
-0.0266900481870391 
0.01084061708925066 
-0.00535916748317663 
0.03176339206683173 
-0.006967166956447439 
-0.00535916748317663 
-0.006967166956447439 
-0.006967166956447439 
-0.006967166956447439 
-0.00535916748317663 
-0.00535916748317663 
-0.00535916748317663 
-0.01252957181913609 
-0.00535916748317663 
-0.01171145835644722 
-0.00535916748317663 
-0.008067833468492472 
-0.008067833468492472 
-0.008067833468492472 
-0.00326176860335674 
-0.05161500683494023 
-0.02057407203883307 
0.01568821248439112 
-0.003729896625544106 
-0.00326176860335674 
-0.01797560812568406 
-0.005351967062598853 
-0.01973150761847523 
-0.001824347238278266 
-0.01760606564071054 
-0.05774321500238425 
0.002349676047283983 
0.06573290684242736 
-0.01760606564071054 
0.04227024753562127 
-0.01760606564071054 
0.002349676047283983 
-0.04999945351867625 
0.002349676047283983 
0.002349676047283983 
0.002349676047283983 
0.01226445170941437 
0.002349676047283983 
0.01034171770088707 
0.004029018617422428 
0.004029018617422428 
0.001264684346436455 
0.04747171993780778 
-0.001527896140876738 
0.01438246779273873 
0.004029018617422428 
0.004029018617422428 
0.1690017631373221 
0.004029018617422428 
0.01527499495545622 
0.004029018617422428 
7.961257743444743e-05 
-0.005489647104802856 
0.002893014219486823 
-0.005574199342041646 
-0.05656470326250698 
-0.02057302682800832 
-0.07100921728359355 
-0.02057302682800832 
-0.02057302682800832 
-0.2704770747631972 
-0.05234544425620734 
-0.003244154197548249 
0.02036888224997252 
-0.05234544425620734 
-0.07100921728359355 
-0.02057302682800832 
0.02036888224997252 
-0.05234544425620734 
-0.02057302682800832 
-0.01520873116206904 
-0.05234544425620734 
-0.001052127762497103 
-0.331683113511948 
-0.02806781538609619 
-0.003902203315474435 
-0.001052127762497103 
-0.001052127762497103 
-0.0829569552051671 
-0.05626226341870467 
0.01038908171687715 
-0.1733771204144418 
0.01038908171687715 
-0.331683113511948 
-0.001052127762497103 
0.0005886058311907654 
0.001828576295428411 
0.005289897847853196 
0.06149943964482624 
0.06149943964482624 
0.03797444536023253 
0.001828576295428411 
0.0005886058311907654 
-0.01215108217542351 
-8.220792428679125e-05 
0.008196914009714548 
0.0005886058311907654 
0.03010926206780075 
0.05642976151079017 
0.004613423795847401 
0.004613423795847401 
0.005668324861460499 
0.00345587037826189 
0.01117732111775617 
-0.002470737882799443 
-0.01056249943870515 
-0.03117557833067026 
-0.002470737882799443 
-0.01056249943870515 
-0.0188681923110456 
0.05362744326309593 
-0.01056249943870515 
-0.0492572892100163 
0.003761485876790051 
-0.01005122823358662 
-0.01796260394301287 
-0.003824897794956833 
0.02789791655378537 
0.0160487341486791 
-0.01056249943870515 
-0.009027850520592179 
-0.009027850520592179 
-0.007565926442693551 
-0.007565926442693551 
-0.005038726574622418 
-0.005038726574622418 
-0.005038726574622418 
-0.1445938374357804 
0.0139425954914691 
-0.007565926442693551 
-0.007565926442693551 
-0.009027850520592179 
-0.09795151681402546 
-0.009027850520592179 
-0.01544142509455382 
-0.008627834378052117 
0.0281398121995036 
0.0223800515263258 
0.001889317414458549 
-0.01353293693679852 
-0.01443116946585895 
-0.003735965223560807 
-0.03173230641549946 
-0.01322774377222542 
-0.0003162583552595284 
-0.01234031560516172 
-0.0422960518455424 
-0.02353156102875719 
-0.0128652662112473 
0.01346613985266673 
-0.003980716542448951 
-0.1528449216720563 
-0.2030883196715985 
-0.1342041288951627 
0.0244557549144024 
-0.05360714677699582 
-0.7891001938890773 
-0.0119361152927792 
-0.1001550087028514 
-0.01111766723184936 
-0.01491785138432815 
0.006222127591110519 
-0.004485452250049386 
-0.01212989814990156 
-0.004485452250049386 
-0.004485452250049386 
-0.01212989814990156 
0.006590502594501136 
-0.01694494508390562 
-0.01574187402514396 
-0.03130094308843686 
-0.004485452250049386 
0.01277783604871839 
-0.01212989814990156 
-0.004485452250049386 
-0.01574187402514396 
-0.03635124907394909 
0.006222127591110519 
-0.1194326728311367 
-0.1159003087943834 
-0.0116154379650312 
-0.0116154379650312 
-0.0116154379650312 
-0.01907279228539387 
-0.01081883687436357 
-0.02256146147186035 
-0.05861926415778881 
-0.0116154379650312 
-0.01397508215149423 
-0.01059548239030422 
-0.01907279228539387 
-0.2622121931690696 
-0.0199318283382068 
-0.009869356401501389 
-3.177873442809563e-05 
-0.004264926504469362 
-0.007993198949861252 
-0.0003554058232011943 
-0.004264926504469362 
-0.02106021725052871 
-3.177873442809563e-05 
-0.004470258689220914 
-0.01146861240327231 
-0.02294457845031332 
-0.004264926504469362 
-0.0231944420320293 
-0.004208592934658148 
-0.02151942430129347 
0.009628843453559636 
-0.0231944420320293 
-0.004208592934658148 
-0.05989685030963801 
-0.02151942430129347 
-0.02248688173788358 
0.002304073822169425 
-0.02335306863347213 
-0.004763352565334331 
-0.008144935420677277 
-0.004763352565334331 
0.002246070132140503 
-0.002592210015661727 
-0.01342426752319381 
-0.02797638390477686 
-0.02248688173788358 
0.0008726206989535879 
-0.01342426752319381 
-0.0272125472261967 
-0.002592210015661727 
-0.02950442134059878 
-0.01344059456198464 
-0.01081643513685569 
-0.01344059456198464 
-0.005069678134036074 
0.0076103112228205 
-0.005069678134036074 
-0.03977029918200164 
0.0076103112228205 
-0.005069678134036074 
-0.005069678134036074 
-0.009782402192038138 
-0.005069678134036074 
-0.005069678134036074 
-0.04458533168909192 
0.003457971123677779 
-0.04492028925271423 
0.002145872927789559 
0.003655677803788537 
-0.0611678260548115 
-0.0611678260548115 
-0.05504332800345812 
-0.05504332800345812 
-0.05504332800345812 
-0.338282694454432 
-0.09428588340751155 
-0.0611678260548115 
-0.1240160970357629 
0.001318803066416883 
0.007010961203532741 
0.001318803066416883 
0.001318803066416883 
-0.0479009406129333 
-0.02291222188323819 
0.001689245710356336 
0.001689245710356336 
0.001689245710356336 
-0.007318861325946609 
0.001318803066416883 
-0.00109044500532485 
-0.01846994092164463 
-0.001135032320408739 
0.0008538008909429215 
0.02056143104094018 
-0.01846994092164463 
0.0008538008909429215 
-0.00851744805891176 
-0.01689285072983891 
-0.003501233372887203 
-0.00851744805891176 
-0.01801414637570843 
-0.04982445198273765 
-0.00851744805891176 
0.001297559418101736 
-0.0005058277991379478 
0.00568961748196472 
-0.03618126500619279 
-0.02788576809042309 
0.02220928111617821 
0.0002853354467955943 
-0.009658334374848577 
0.03756225869647434 
-0.004087761053258992 
0.05117338376062036 
0.003176290845573892 
0.002547944071908808 
-0.06220405629684377 
0.03196935165418342 
0.02829405463387197 
0.001812320896680036 
0.002547944071908808 
0.02176868678604924 
0.01169717575329296 
0.007709478769173152 
0.005448637277241744 
0.07429938963874565 
0.0276612225462035 
-0.001555851340576728 
-0.0001927791464228894 
-0.0238538639428124 
-0.00910604128837234 
-0.01734569000963176 
-0.009177352288310934 
-0.01842849139381401 
-0.001555851340576728 
-0.124174237832933 
-0.001555851340576728 
-0.001555851340576728 
-0.001555851340576728 
-0.003707738716052837 
0.07317018740789566 
0.04273462512596859 
0.003678882169734248 
-0.03433791320439221 
0.003678882169734248 
-0.01068556004198291 
0.07317018740789566 
-0.01068556004198291 
-0.01068556004198291 
0.07317018740789566 
0.411869692512918 
0.06914899111240536 
0.001510970105034256 
0.001510970105034256 
0.00618991688272967 
0.00618991688272967 
0.00618991688272967 
0.03300812251728114 
0.00618991688272967 
0.00618991688272967 
-0.03138508204520699 
0.2630756431056347 
0.01130973377005341 
0.07895868357591808 
0.001510970105034256 
0.01764390194550357 
0.01764390194550357 
0.001510970105034256 
-0.003362677344685252 
0.4685252974564954 
0.0325632601473339 
0.00618991688272967 
0.07042281893683942 
0.007886881900285667 
0.03083002660176313 
0.04231972116351816 
-0.03607761062808316 
0.04930155193791859 
-0.04139459255327921 
-0.004842279684661237 
0.033311477702474 
-0.02001383017413294 
0.033311477702474 
0.03083002660176313 
-0.02001383017413294 
0.03083002660176313 
0.01605657379768947 
0.05667650221820614 
0.01648291984515031 
0.03476298868082691 
0.0358997463450175 
0.002954945193917317 
0.03476298868082691 
0.002954945193917317 
-0.0341826891380306 
0.003269024899099267 
0.01696370835135576 
0.002954945193917317 
-0.009638770898162008 
0.005577011644913152 
0.03476298868082691 
-0.07236786521719757 
0.01139386523230328 
0.09149227202830366 
0.01618163004724927 
0.007309477968022641 
0.03966661310977888 
0.04513834275691271 
0.02030571663392336 
0.04513834275691271 
0.04513834275691271 
0.02030571663392336 
0.02030571663392336 
0.02030571663392336 
0.09249040948070462 
0.02030571663392336 
-0.0005474036991094882 
0.002295676870155536 
-0.0005474036991094882 
-0.0005474036991094882 
0.003934507318624943 
-0.0006172347308640648 
-0.0005474036991094882 
0.03058548134594231 
0.004666250329787401 
-0.0005474036991094882 
-0.0006172347308640648 
0.007048849294447338 
-0.008245182759832066 
-0.006536769694524512 
-0.04130915016505628 
-0.002080721107916347 
0.001043989897314307 
-0.008245182759832066 
0.004279606542810113 
0.007048849294447338 
-0.00373552104834673 
0.006478390354247853 
0.0108563348943732 
-0.06224535769646257 
-0.0911038185178961 
-0.001999900734813557 
-0.03947473309370863 
-0.08068024260828853 
-0.08068024260828853 
0.02778330820325523 
-0.001999900734813557 
-0.003440498324262858 
-0.01150534573947846 
-0.08622230557664631 
-0.003440498324262858 
-0.02186718385014622 
0.06791408376573652 
0.023610881147031 
0.01055303905470801 
0.0689297210158462 
0.003557441634948551 
0.06791408376573652 
0.01079910015148763 
0.01055303905470801 
0.003557441634948551 
0.01055303905470801 
0.01079910015148763 
0.003557441634948551 
0.01442934713927198 
-0.009247216863661241 
0.2142529706570118 
-0.04326700065777877 
0.01053802150208177 
-0.002721916717724761 
0.01442934713927198 
0.5723281483590674 
0.03586533384003124 
0.4143992886647179 
-0.001146032238906333 
-0.003285714332244654 
0.03586533384003124 
-0.004509320801095699 
-0.008302905410247641 
0.03586533384003124 
0.02558384690352549 
0.002334932581356321 
0.02206708457786394 
-0.001743572694986017 
0.006166118337236231 
-0.005804834351044566 
0.002334932581356321 
-0.01445535537781164 
-0.02792717897351887 
-0.005804834351044566 
-0.004355892328022973 
-0.01719734279672683 
-0.004177347449075217 
-0.004355892328022973 
0.001136707723005295 
-0.005804834351044566 
0.0284689894422566 
-0.02083607775968069 
0.002975853323585252 
-0.03094071193073483 
0.02459336872258502 
-0.06466481151034412 
-0.0005160891429744287 
-0.0005160891429744287 
-0.0005160891429744287 
-0.0005160891429744287 
-0.02639619451900479 
0.08655887985470148 
0.03455578135629705 
-0.006801610085958316 
0.1596313147174148 
-0.06466481151034412 
-0.06547474476685018 
0.02459336872258502 
0.3686557229597665 
0.01509693049505241 
0.7128380627913585 
-0.002275257121291979 
0.01673595888799784 
0.004722831584361461 
0.01673595888799784 
0.006129863056844148 
-0.002275257121291979 
0.01673595888799784 
-0.002275257121291979 
0.002135610970468973 
-0.009969819647885191 
-0.009969819647885191 
0.01673595888799784 
0.002135610970468973 
-0.02319786641966782 
-0.01157471191496009 
0.002124179756647676 
-0.01277806710789043 
-0.005075614207826541 
-0.01921977788819037 
0.02387182365919544 
-0.01921977788819037 
-0.004697664710834379 
-0.004697664710834379 
-0.01398999687333558 
0.002804832494736128 
-0.01277806710789043 
0.01720502981889247 
0.01720502981889247 
-0.02850766888544153 
0.003139633708670308 
0.04544213372162303 
0.04544213372162303 
0.00756240489416916 
0.01315783825507605 
0.02441712690985655 
0.1060814926278954 
0.003139633708670308 
-0.04472332356498734 
-0.005657051456986926 
0.001482230976022277 
-0.004171139046816548 
0.000393364719320642 
-1.486453902178225e-05 
0.000393364719320642 
0.04013499886682877 
0.000393364719320642 
-0.005657051456986926 
-1.486453902178225e-05 
0.001482230976022277 
0.000393364719320642 
-0.01510432753598556 
-0.003488123582760475 
-0.1055993837256013 
0.002233264381879715 
0.002233264381879715 
0.002233264381879715 
0.002233264381879715 
0.002233264381879715 
-0.04367543181167848 
-0.004989450391960123 
-0.01155660397648687 
-0.022196963306041 
-0.022196963306041 
-0.05317753062218269 
0.002812552136874078 
-0.02495378789436024 
0.007345277917636637 
0.0005729813349859528 
-0.1106881282140929 
0.0005729813349859528 
0.0005729813349859528 
0.0005729813349859528 
0.0005729813349859528 
-0.05065157627411683 
-0.1106881282140929 
-0.05317753062218269 
-0.02113774841199444 
0.01787678707868442 
-0.02722492948409932 
-0.0006304726654316525 
-0.02299858962428014 
0.01787678707868442 
-0.01517748840004269 
0.02484337045097977 
-0.02036918773795925 
0.07289927911051967 
0.07289927911051967 
-0.07197809938283652 
-0.0001223518291674774 
-0.01742545510467263 
-0.02030458823406496 
-0.0001223518291674774 
-0.0005897112631129476 
-0.08628188819319449 
-0.001983648997975935 
0.006379183232552637 
-0.01177028845643793 
-0.01177028845643793 
-0.0669475320379741 
-0.01742545510467263 
-0.0201420186326117 
-0.01432320770580595 
0.3370923150089639 
0.01165539511462204 
0.3370923150089639 
0.01165539511462204 
0.01165539511462204 
0.01165539511462204 
0.001145233945012233 
0.0121926004419086 
0.01165539511462204 
0.08374667327867608 
0.1914815552219192 
-0.05497863288585241 
-0.002639044582663893 
-0.002639044582663893 
-0.001849851739348933 
0.002540376534534207 
0.0005728289390360772 
-0.002639044582663893 
0.0005728289390360772 
0.0005728289390360772 
0.0005728289390360772 
0.02600977403901134 
-0.1101200326666127 
0.4077943705032412 
-0.02018545187876542 
0.06859753336344358 
0.534637463934808 
0.005675062573403153 
0.03845071986805966 
0.005675062573403153 
0.005675062573403153 
0.1616161213401964 
-0.02002000858562687 
0.005675062573403153 
0.01091932690304553 
0.0007948162904785859 
-0.04534307963988295 
-0.02018545187876542 
0.04247877428711599 
0.04413610881364941 
-0.01731784319177298 
-0.02533073693320177 
0.007157641419218288 
0.007157641419218288 
-0.01027993625755329 
-0.04587285214260619 
-0.05166673896815657 
-0.01007631641054573 
-0.001402501681559569 
-0.01171568258566443 
-0.01778247024286595 
0.0734428493222134 
-0.04604716612002967 
-0.01778247024286595 
-0.03206313690386556 
-0.01550379969710615 
0.007157641419218288 
-0.04587285214260619 
-0.03684434519797998 
0.008179317690863611 
0.008179317690863611 
0.008179317690863611 
0.006380673736960114 
0.008379502984648063 
0.01218199834871672 
0.0237963945152565 
-0.04166776763235976 
0.01218199834871672 
0.01088962646385332 
0.002753733897267891 
0.007585642138295779 
0.01088962646385332 
-0.0530980779501289 
-0.04492504345692594 
0.02091808958478043 
0.007585642138295779 
0.01088962646385332 
-0.07207224745934657 
0.006112399079358519 
0.008405424914758059 
-0.001956929995953999 
0.01536901710521902 
-0.06997090320669372 
-0.01694802481900366 
-0.001889814830278641 
-0.2866936438826095 
-0.0186042273711677 
-0.02773521951975182 
-0.01347991269457867 
-0.08462913768711572 
-0.1721165081897891 
-0.03644328993615882 
-0.001889814830278641 
-0.2866936438826095 
0.0007255223065423796 
-0.001889814830278641 
-0.007201983479773235 
-0.01178101358374638 
-0.01178101358374638 
-0.01178101358374638 
-0.01178101358374638 
-0.01178101358374638 
-0.01178101358374638 
-0.01178101358374638 
-0.01178101358374638 
0.00992917221459046 
0.009519066551690368 
0.004251514057197495 
-0.006061436328199923 
-0.006061436328199923 
0.009716328731549408 
-0.02512624894118261 
-0.009826471390724487 
-0.006061436328199923 
0.02317103107390149 
0.003541977163170275 
-0.009200742769274017 
0.005866934419660363 
0.009508270595755736 
0.00136469778449769 
-0.01192142698999728 
0.00136469778449769 
0.00136469778449769 
-0.01192142698999728 
-0.006986706429999686 
0.00136469778449769 
0.00136469778449769 
-0.01192142698999728 
-0.01229155554047945 
-0.01192142698999728 
0.001542967215506159 
-0.01154457902678311 
-0.01387007900564018 
-0.01154457902678311 
-0.01387007900564018 
0.005843737241740994 
0.006555778811123332 
-0.01651227643378217 
-0.01387007900564018 
0.02094176758378655 
-0.0474936177568803 
0.0003938108223401009 
-0.03070573298034415 
-0.00892175104622368 
-0.01000318651139413 
0.02094176758378655 
0.0003938108223401009 
0.0003938108223401009 
-0.05085196405419415 
0.02094176758378655 
0.02094176758378655 
0.0003938108223401009 
-0.02177394987388599 
0.0007098186735891767 
0.003251608733639085 
0.0007098186735891767 
0.0007098186735891767 
0.0007098186735891767 
-0.007005730900123366 
0.01216502058943588 
-0.03091824718860391 
-0.01927331106471843 
-0.01765997029143004 
-0.1386534005322851 
-0.07050614602415363 
0.0005421749885034796 
-0.1386534005322851 
0.002861708833625462 
-0.01713695449470481 
-0.004568150236223155 
-0.004568150236223155 
-0.6773987306465545 
-0.004568150236223155 
-0.1411362114531212 
-0.1389307523515258 
0.02283522273424687 
0.0179968249307698 
-0.02203919591176498 
-0.002541120516766365 
-0.05543718404061858 
-0.01230144329685443 
-0.01464443961867893 
-0.08154711867449564 
-0.0001410525626624149 
-0.06458194799063398 
-0.01230144329685443 
-0.3773970721161442 
-0.05932623420164587 
-0.05408884499667096 
-0.05543718404061858 
-0.07356910837832563 
-0.02831738539400267 
-0.04927741117221696 
0.04145365750138705 
0.001843233724423767 
0.6106530452241073 
0.0504383424279003 
-0.03730518240253116 
0.04145365750138705 
0.04145365750138705 
0.01621621894712971 
0.04145365750138705 
0.0216118543287254 
0.001843233724423767 
0.001297271345585938 
0.4370997658221106 
-0.01108554836739792 
0.02046951546172691 
0.001843233724423767 
-0.0162256872242226 
0.001261281586656053 
0.001261281586656053 
0.001261281586656053 
-0.03693511202957786 
0.001261281586656053 
0.001261281586656053 
0.001486445020990177 
0.0193485620354925 
0.001261281586656053 
-0.005707126771918511 
-0.0162256872242226 
0.002132266712222894 
-0.0162256872242226 
0.001261281586656053 
0.1105022750507828 
0.008354773013894727 
0.004077627924911459 
0.02974298122929223 
0.008354773013894727 
0.004077627924911459 
-0.03925240165248806 
0.004119078353198634 
0.02974298122929223 
-0.01535448829901688 
0.008354773013894727 
0.02974298122929223 
0.02974298122929223 
0.02974298122929223 
0.004077627924911459 
-0.005940556590758004 
0.00837011725992191 
0.00837011725992191 
-0.005940556590758004 
-0.01416705124811594 
-0.01416705124811594 
-0.01416705124811594 
-0.01416705124811594 
0.03039390069362406 
-0.008305067674175451 
-0.01416705124811594 
0.0156392022477675 
0.01920951209252167 
0.03008790172410974 
-0.0009468831390281197 
-0.01416705124811594 
-0.01416705124811594 
0.001413209534125615 
0.009436479899978463 
0.02890170682038673 
-0.02874744905463806 
0.001924658921520202 
0.001413209534125615 
-0.02526470910479833 
0.001413209534125615 
0.001413209534125615 
0.03965837124023869 
0.009436479899978463 
0.1534234350740782 
0.001413209534125615 
0.001413209534125615 
0.0004009165573843898 
-0.005733044820852093 
-0.005733044820852093 
-0.005733044820852093 
-0.01133760595140098 
-0.005733044820852093 
-0.009705539636191619 
-0.005733044820852093 
-0.02471794151257346 
-0.005733044820852093 
-0.005733044820852093 
-0.009705539636191619 
-0.01712113042357389 
-0.04403234525793814 
-0.04403234525793814 
-0.005733044820852093 
-0.005733044820852093 
-0.009705539636191619 
-0.0002589928490910198 
-0.0002589928490910198 
-0.0002589928490910198 
-0.0002589928490910198 
-0.04627122541244466 
-0.0002589928490910198 
-0.0002589928490910198 
-0.0002589928490910198 
-0.01644273300934585 
-0.0002589928490910198 
-0.0002589928490910198 
-0.000522972631419788 
-0.01017771057683014 
-0.0002589928490910198 
-0.0002589928490910198 
-0.006221790118765247 
-0.01491490087037313 
-0.0764743001052174 
-0.0764743001052174 
-0.08267801313726415 
0.002533098771106778 
-0.0764743001052174 
0.03846690457454729 
0.000385898673593336 
0.002837716736436246 
0.002837716736436246 
-0.001242179583635408 
-0.01930971863404048 
-0.01395828823580544 
-0.008821183477526548 
-0.01395828823580544 
0.000385898673593336 
0.002218573656959542 
0.005258111791345632 
-0.01607162339437913 
0.005258111791345632 
-0.07783135194407269 
0.02161577660720626 
0.002444903140372617 
0.02161577660720626 
0.002444903140372617 
-0.02455730052806024 
-0.03935738855078739 
-0.002357172326822313 
0.002444903140372617 
0.002444903140372617 
-0.01831076398451651 
-0.014375785891726 
0.01808678680529433 
-0.014375785891726 
-0.00074050912051423 
-0.01608679929714819 
-0.01831076398451651 
-0.01608679929714819 
-0.01608679929714819 
-0.01608679929714819 
-0.0415174267413863 
0.01808678680529433 
-0.014375785891726 
0.01808678680529433 
0.005161902134475577 
-0.01514990395194137 
-0.003802176417902275 
0.002777897273923002 
0.003439342257898422 
-0.001164767312172021 
0.003439342257898422 
-0.09254985834674635 
0.002777897273923002 
0.003439342257898422 
-0.10214634353503 
-0.09254985834674635 
-0.09254985834674635 
0.003439342257898422 
0.02490975555533158 
0.003439342257898422 
0.001377680305690566 
-0.005842714385303436 
0.001377680305690566 
0.001078842659071213 
0.001377680305690566 
0.001078842659071213 
0.001377680305690566 
0.001078842659071213 
-0.007520508409925273 
-0.007520508409925273 
0.01897162685385167 
-0.007520508409925273 
0.01897162685385167 
0.01378795353622422 
-0.0214242239935788 
0.009787553095820207 
-0.007520508409925273 
-0.007520508409925273 
-0.007318743559970339 
-0.007520508409925273 
0.01779116837014842 
-0.007520508409925273 
-0.01038880385268128 
0.01396979715396895 
-0.1595430164221558 
-0.01171528814771206 
-0.006804677644812181 
-0.006804677644812181 
0.06743221581458496 
0.00263858726154052 
-0.01171528814771206 
0.001940934406106337 
0.003124057442878115 
-0.03540406363986057 
0.02963949623540447 
0.03925640181540425 
0.003124057442878115 
-0.008318730057549798 
0.003124057442878115 
0.02324299969746942 
-0.02690427575467875 
0.003124057442878115 
-0.02422459216751227 
-0.001500651472155697 
-0.0004514634771025694 
-0.01454281688611315 
0.02204145355848422 
-0.01454281688611315 
-0.01853201547162377 
0.04624476464339519 
-0.01454281688611315 
-0.01853201547162377 
0.004346284362879817 
-0.01853201547162377 
-0.01454281688611315 
0.006645317665475656 
-0.00922799145707134 
-0.01853201547162377 
-0.0526698514142944 
-0.0526698514142944 
-0.0526698514142944 
-0.03845102732945345 
-0.004434695365418169 
-0.004434695365418169 
-0.004434695365418169 
-0.001713856191437647 
-0.004434695365418169 
-0.004434695365418169 
-0.004434695365418169 
-0.0533457565511443 
-0.02341804080671325 
0.01906837907842193 
-0.002066411071082152 
0.01859023833498833 
0.01485003291687099 
-0.01009692793335569 
-0.01009692793335569 
-0.005601874274191058 
0.0092578726765265 
-0.01009692793335569 
0.0092578726765265 
-0.009844824339774311 
0.0092578726765265 
-0.01009692793335569 
0.02557286248019562 
-0.03319974422575317 
-0.003859520863000012 
-0.002142082059311876 
-0.002142082059311876 
0.02557286248019562 
-0.003859520863000012 
0.02557286248019562 
0.02557286248019562 
0.001745323879844415 
-0.0004567337800226515 
-0.003639003971776992 
-0.003859520863000012 
-0.02631506730606412 
0.03935475539184184 
-0.06731363382040642 
0.03935475539184184 
0.002501080268548778 
-0.01395724830059672 
-0.01910304167776012 
0.01752330906352819 
0.02937434974069148 
0.02426705596528354 
0.02426705596528354 
-0.04656070384915041 
0.03935475539184184 
0.02074555274944064 
0.02426705596528354 
-0.001300044304754499 
-0.01433432762670106 
-0.0004809212844901228 
-0.0004809212844901228 
-0.001300044304754499 
-0.0004809212844901228 
-0.002231487559165458 
-0.002231487559165458 
-0.002231487559165458 
-0.02300561404360877 
-0.002231487559165458 
0.04558541390689547 
0.003636299029189324 
0.01922285212662129 
0.01922285212662129 
-0.03480234011895073 
0.006775436254522327 
0.003381157929609994 
-0.01456388690707502 
0.01701003024273686 
0.006775436254522327 
0.01416276423100131 
0.0121074927189353 
-0.01192354697375091 
-0.1432665511510159 
0.06150761474734654 
-0.08482080620856108 
0.0121074927189353 
0.0121074927189353 
0.005428457383426838 
-0.08482080620856108 
-0.1216508711720144 
-0.04102749605489046 
0.01044533296828558 
-0.08297915583619048 
-0.01192354697375091 
-0.04541274947505984 
-0.01780139436237333 
0.0007654924783423783 
0.002849916754802007 
-0.004222098710511999 
0.0007654924783423783 
0.005561781523145366 
-0.008925883242538114 
-0.004477118666385854 
-0.01780139436237333 
-0.004698865924142211 
0.01243499423374202 
-0.004698865924142211 
0.0007654924783423783 
-0.01780139436237333 
0.0316001295928032 
-0.003399638185456762 
-0.01963992659607394 
0.01918318041258638 
-0.03974068200827616 
-0.04815857943779787 
-0.01963992659607394 
0.0316001295928032 
-0.003399638185456762 
-0.02100082285091539 
-0.007694519338599382 
-0.04114042055080302 
-0.02740244127675854 
-0.03427733615903415 
-0.003399638185456762 
-0.007694519338599382 
-0.03049572286356694 
-0.003399638185456762 
-0.01253241575924161 
0.008776870959128307 
-0.01253241575924161 
0.008776870959128307 
-0.01635353150995743 
0.0001468129073194237 
-0.01253241575924161 
-0.01253241575924161 
-0.001469840309405856 
0.001196945081849628 
0.01939125050378415 
-0.007169508112393671 
0.0001468129073194237 
-0.01821199178002943 
0.0001468129073194237 
-0.03148055736412491 
-0.07354634172831263 
-0.03130306763192296 
-0.03130306763192296 
-0.03130306763192296 
-0.03130306763192296 
-0.03259733653427834 
-0.03130306763192296 
-0.03130306763192296 
-0.03130306763192296 
-0.00693441861172857 
-0.02267892381726174 
0.004085607603059621 
-0.00693441861172857 
-0.00693441861172857 
0.05361609520541327 
-0.003341051231743748 
0.002252161788495043 
0.002252161788495043 
-0.008531616995184173 
-0.00693441861172857 
-0.01472872628477765 
-0.0003741279478096187 
-0.001767244223984771 
-0.0007462694124886364 
0.01119674645573746 
0.01119674645573746 
-0.008424879508269664 
-0.0002833498168307704 
-0.0007462694124886364 
-0.08074439002607793 
0.01119674645573746 
-0.0007462694124886364 
-0.0077778495375103 
0.0008162366490560948 
0.0008162366490560948 
0.0008162366490560948 
0.005344495457353902 
0.0008162366490560948 
-0.01534371993623444 
0.0008162366490560948 
0.0008162366490560948 
0.0184375463544325 
0.0064611017671609 
-0.0254370376051667 
-0.01616694435937458 
-0.009313239721277365 
-0.00225687384070979 
-0.02373553613000356 
-0.01090229094572907 
0.001744154750068023 
0.0064611017671609 
-0.01090229094572907 
-0.01616694435937458 
-0.01610737856756706 
-0.07403236020559756 
-0.009023824211768091 
-0.07348856412131322 
-0.003345014072586822 
0.05272676309605224 
-0.01941924090403725 
-0.004324458411277766 
-0.1285780396017937 
-0.003345014072586822 
-0.1131443404964873 
-0.07403236020559756 
0.01176061918891505 
-0.004324458411277766 
0.02081535889683984 
-0.07348856412131322 
-0.01055007777690685 
0.008998345226257982 
0.01176061918891505 
-0.01491262246035584 
-0.003345014072586822 
-0.07348856412131322 
-0.02645407669291917 
0.03588099972246137 
0.0003310509495842815 
-0.0007208761026667018 
-0.005541566447957209 
-0.0265081752156778 
0.02111052295893159 
-0.003656485115012458 
0.01352417034147054 
0.01070337053302898 
0.004105650178401398 
-0.0006982618427320299 
0.004511550467724657 
-0.02786488237968338 
-0.0006982618427320299 
0.004105650178401398 
-0.0006982618427320299 
-0.02786488237968338 
0.004105650178401398 
0.01406277145960776 
-0.02786488237968338 
0.003099182354985914 
0.01917161525583878 
0.01210947158421451 
0.002583084811164176 
-0.01969414811831945 
0.002583084811164176 
-0.001328087129738526 
-0.01885615693015437 
0.08057130693337983 
0.004937814333239582 
0.0163058493319072 
0.002583084811164176 
0.02287165046289695 
0.002583084811164176 
0.0163058493319072 
-0.01969414811831945 
-0.0003637652072697229 
0.01173056726754408 
-0.003051471642195267 
0.0003443169549907512 
0.04664301128842872 
-0.05288331569164432 
-0.01697230190805171 
-0.01551486850302061 
0.003208347032847777 
-0.009475036244183381 
0.0001112556474411659 
-0.005998894939998941 
-0.0129703078357768 
-0.03664941222001789 
-0.01321914176710384 
-0.03664941222001789 
-0.0129703078357768 
0.0002195264182405562 
-0.03402673296687971 
-0.002556577483062028 
-0.004946785748582832 
0.01403194636425443 
-0.05516193784670684 
0.0001174304318839694 
0.01403194636425443 
0.0001174304318839694 
-0.005607329328125942 
-0.006715430232022852 
0.0001174304318839694 
-0.006715430232022852 
0.0001174304318839694 
0.01403194636425443 
0.03294066523858795 
-0.001825256494704064 
0.0001174304318839694 
0.0001174304318839694 
0.02602959626021828 
0.1097724932787034 
0.02602959626021828 
0.02333810714115716 
0.02602959626021828 
0.01948553426964823 
0.01948553426964823 
0.04525203008554455 
0.02218132769020401 
0.02602959626021828 
0.0244018550726363 
0.003130894200335822 
0.02766381154894181 
-0.005654129226490483 
-0.004500104039014262 
0.0244018550726363 
-0.01873046582939858 
-0.03384099021605495 
0.008872438363175101 
-0.02227526538281362 
0.02766381154894181 
-0.0537211958638771 
-0.004034951754251013 
-0.03976066967483801 
-0.02489784028107228 
-0.01595111211381997 
-0.01595111211381997 
-0.06155444272157401 
-0.06155444272157401 
-0.1062962556781775 
-0.01595111211381997 
-0.06155444272157401 
-0.1250095012138183 
-0.003934611253062265 
-0.1447610896566958 
0.00939532565528761 
-0.01595111211381997 
-0.008041033761931528 
-0.003934611253062265 
0.07130828010586668 
-0.05983410282221092 
0.004524884562527511 
0.02344141244363257 
0.02547297822106406 
0.02350543062556593 
0.004524884562527511 
0.004524884562527511 
0.02547297822106406 
0.004524884562527511 
0.03138640730267981 
0.004524884562527511 
0.02547297822106406 
0.004524884562527511 
-0.003625234772149105 
0.02971841738576178 
-0.003625234772149105 
-0.01407084125738073 
-0.01407084125738073 
-0.01407084125738073 
-0.01407084125738073 
-0.01564700124350481 
-0.00357901079244934 
-0.007482614608467643 
-0.003625234772149105 
0.02971841738576178 
-0.003625234772149105 
-0.0453009618316681 
0.02971841738576178 
-0.003625234772149105 
-0.01564700124350481 
-0.003625234772149105 
-0.01634771524750384 
-0.01564700124350481 
0.01283974716529649 
0.03859154618895016 
-0.0002972802181668555 
0.05173820099083987 
-0.0002972802181668555 
0.001473653743415462 
-0.0002972802181668555 
-0.0335049948405408 
0.03328884374113915 
0.03507771293789275 
0.03461620508741448 
0.03507771293789275 
-0.02363843769281099 
0.03507771293789275 
0.03507771293789275 
0.03630025314495111 
0.011740683244991 
-0.0184248141030844 
0.03507771293789275 
0.0395044617434339 
0.005060087895619967 
0.005060087895619967 
0.005060087895619967 
0.05531174005109895 
0.001264457420815948 
0.001264457420815948 
0.02854708767931788 
0.005060087895619967 
0.00556734946411102 
0.005060087895619967 
0.005060087895619967 
-0.0008450942474964936 
-0.0009901355902080203 
-0.04021209771078597 
-0.04223308272623644 
-0.0009901355902080203 
0.001381686311459587 
0.007292431135748938 
-0.0009901355902080203 
0.00455267470504948 
0.0002432668227823677 
0.0002432668227823677 
0.0002432668227823677 
0.0002432668227823677 
0.0002432668227823677 
0.05646847563978052 
0.0002432668227823677 
-0.01336419483277538 
-0.01260837915298951 
0.05143810030069507 
0.0002432668227823677 
-0.04962694700667208 
-0.003318772034685166 
-0.01628763714330614 
-0.005707905786815776 
-0.003318772034685166 
-0.003318772034685166 
-0.0212178221471971 
0.06622259871332312 
-0.011364717798096 
-0.003318772034685166 
-0.008339469533252727 
-0.01074840573113568 
-0.007612363859083628 
-0.003849178590352087 
-0.01074840573113568 
-0.02320478257181893 
0.003432972427850905 
-0.0007470913554210532 
-0.04556173312860813 
-0.07652304191771112 
-0.006114450438656618 
-0.007382401516930152 
-0.0007470913554210532 
-0.008207185795220414 
-0.01713523945034022 
0.0001442759827855135 
-0.0005919533387029832 
0.0001442759827855135 
-0.05871706424074277 
-0.01716376194634339 
-0.0697700326368125 
-0.0005919533387029832 
-0.00201446749418363 
-0.0003102125137979066 
0.0001442759827855135 
0.0001442759827855135 
-0.04848527682985908 
-0.025226897593473 
0.02326790039817784 
0.02120335589169524 
0.02158991072648407 
0.02549856349765725 
0.02549856349765725 
0.02192386245662348 
0.02326790039817784 
0.02326790039817784 
0.02326790039817784 
0.02114288184127192 
0.1034122109967298 
-0.02036320072700554 
0.04527690933099904 
0.02326790039817784 
0.02326790039817784 
-0.003942066989235462 
-0.0004615078504782801 
-0.009331568847126572 
-0.0004615078504782801 
-0.0004615078504782801 
-0.003942066989235462 
-0.0004615078504782801 
-0.003942066989235462 
-0.00939721434760056 
-0.01745937736301084 
-0.0004615078504782801 
-0.009092130070089783 
-0.0004615078504782801 
-0.0004615078504782801 
0.0003408295273371376 
-0.002863379071145666 
-0.010755691852745 
0.001967547595498123 
0.001967547595498123 
0.2107408148405657 
0.001967547595498123 
0.02094809365853655 
0.02094809365853655 
0.02081935834761765 
0.001967547595498123 
0.443953541557706 
0.002811776314735812 
0.001967547595498123 
-0.00712172278248633 
0.443953541557706 
0.0001340437011835485 
-0.01490521614836172 
0.0001340437011835485 
-0.0005271283360810833 
-0.01490521614836172 
-0.001663664265385761 
0.0001340437011835485 
-0.01490521614836172 
-0.02536855907583176 
-0.008135452313727393 
-0.0006749771555826359 
0.0001340437011835485 
-0.0006997626036720131 
-0.009566829900940601 
-0.01681429906306539 
-0.003256402793192384 
-0.008695081785347626 
0.008525843593200178 
-0.008695081785347626 
0.007808934522010238 
-0.0006997626036720131 
-0.0006997626036720131 
-0.008695081785347626 
-0.02522892386407039 
-0.0006997626036720131 
-0.003256402793192384 
-0.00667314655640497 
-0.01020674030146706 
-0.00667314655640497 
-0.01135729642168065 
-0.00667314655640497 
-0.00667314655640497 
-0.00667314655640497 
-0.00667314655640497 
-0.01013996359131282 
-0.00667314655640497 
-0.00667314655640497 
0.01199940256394646 
-0.00667314655640497 
-0.008980728634406354 
-0.008904079756689491 
-0.0007433723336999688 
-0.0048633510823251 
-0.004783800754442066 
-0.001016429786455502 
-0.002100635875803496 
-0.004783800754442066 
-0.0006856252907720712 
-0.002100635875803496 
-0.002100635875803496 
0.001049336638743084 
-0.002100635875803496 
0.01898054606303842 
-0.07285224337955698 
-0.07285224337955698 
0.01898054606303842 
0.01898054606303842 
-0.07285224337955698 
0.01898054606303842 
-0.07285224337955698 
-0.002129192905063307 
-0.0381073269626423 
-0.002129192905063307 
-0.03632577948458909 
-0.002129192905063307 
-0.002129192905063307 
-0.001164354191721264 
-0.002129192905063307 
-0.02150251501176987 
-0.03632577948458909 
0.003197974589600389 
-0.002129192905063307 
-0.002129192905063307 
-0.002533594938415229 
-0.01386726852008351 
-0.00110544231330471 
-0.01584279393169258 
-0.002533594938415229 
-0.003223613957007953 
-0.002533594938415229 
-0.0362321630369062 
-0.01342310572195228 
-0.05168382466425711 
-0.002533594938415229 
-0.0362321630369062 
-0.004102668263061199 
-0.004915856466655114 
-0.02711536470739282 
-0.002533594938415229 
-0.004102668263061199 
-0.01230408824993667 
-0.002533594938415229 
-0.0103238222115664 
0.006192886403961613 
0.0009787240587733194 
0.006192886403961613 
0.006192886403961613 
0.006192886403961613 
0.0171801380505903 
0.0253392408826512 
0.007387327976478993 
-0.01816701614844955 
0.008345338617954532 
0.006668906145999418 
0.01088474275171318 
0.007387327976478993 
0.006182322410859552 
0.006182322410859552 
0.006182322410859552 
0.006182322410859552 
0.006182322410859552 
-0.01462525297590645 
-0.01741761263380501 
0.0005908956035484539 
0.0005908956035484539 
0.0003815984095872731 
0.0005908956035484539 
-0.01462525297590645 
-0.0003314402613059817 
0.0005908956035484539 
0.0005908956035484539 
0.0003815984095872731 
-0.0007081556934954748 
-0.0007081556934954748 
-0.0007081556934954748 
-0.01971351237721906 
0.001099487083621466 
-0.0007081556934954748 
-0.01971351237721906 
-0.0007081556934954748 
-0.0007081556934954748 
-0.01971351237721906 
-0.02804529254614572 
0.01022737417959086 
0.01022737417959086 
0.01437298522270594 
0.01022737417959086 
-0.01652307963524499 
0.01022737417959086 
0.005463345849242029 
0.01022737417959086 
-0.01652307963524499 
-0.007969455202672461 
-0.0527423097537375 
0.02403216212902536 
0.04349275086444527 
0.01597283141716685 
-0.07297107200362116 
-0.01836590234672798 
-0.007969455202672461 
-0.007969455202672461 
-0.07297107200362116 
-0.07297107200362116 
0.02865763002326583 
0.02865763002326583 
0.009390608650259539 
0.02403216212902536 
0.07560560494904946 
0.04349275086444527 
0.02403216212902536 
0.001677226762731785 
0.008463452342748385 
0.008463452342748385 
0.001050132174530207 
-0.01896914502640244 
0.01446813106256932 
0.01596453488142322 
0.003178972542483735 
-0.006022945763851149 
-0.03163043856557835 
-0.008748962853544706 
0.02974753461887228 
-0.00247278177605482 
-0.0328413802970982 
-0.00247278177605482 
-0.00247278177605482 
0.007082196097402141 
-0.005810027326138657 
-0.01083419759756629 
-0.0193804339667469 
-0.005810027326138657 
0.01740591147641876 
-0.02445990432505131 
-0.005810027326138657 
0.06334435019413709 
-0.0193804339667469 
0.002817940726574392 
-0.00162460637643354 
-0.02048147097550627 
0.02334783314498995 
-0.003835583648781347 
0.002817940726574392 
0.02535899977864813 
-0.00385765064662713 
0.005378790762139167 
-0.03856312448600389 
-0.02370850333817438 
-0.02370850333817438 
-0.02032784935046033 
-0.02370850333817438 
0.02437065350055147 
-0.02471530922624301 
-0.01178574793652329 
0.03822964218417847 
0.02927670305250214 
0.08031440039450648 
-0.01178574793652329 
-0.02471530922624301 
0.06259232023814243 
0.02927670305250214 
-0.01178574793652329 
0.08031440039450648 
-0.005139660902750146 
-0.005139660902750146 
0.01713631158432093 
-0.01452808565837928 
-0.005139660902750146 
-0.005139660902750146 
0.05391360979999145 
-0.03644404516678198 
0.05391360979999145 
0.003007250833473348 
-0.005139660902750146 
-0.005139660902750146 
-0.006184838246341715 
-0.05190784226505804 
-0.05190784226505804 
-0.03560641937852042 
-0.03560641937852042 
-0.03560641937852042 
-0.03949938228231412 
-0.03276679891498033 
-0.03560641937852042 
-0.01410743035529704 
-0.3674166313593523 
-0.03560641937852042 
-0.03560641937852042 
-0.05190784226505804 
-0.02381611935320417 
-0.004784988319896759 
-0.003208676699135113 
-0.005250064882775185 
-0.003208676699135113 
-0.003208676699135113 
-0.009357179630093469 
-0.00430391651971724 
-0.003208676699135113 
0.002781378433766298 
-0.003208676699135113 
-0.003208676699135113 
-0.003208676699135113 
-0.003208676699135113 
-0.003208676699135113 
0.006982873488768753 
-0.009347957282545833 
-0.0166038053637032 
-0.04816721558583841 
-0.009347957282545833 
-0.009347957282545833 
-0.009347957282545833 
-0.009347957282545833 
-0.03059880698603609 
-0.01827646256704659 
-0.04046025232409498 
-0.1813854767021377 
-0.04595784645575464 
-0.0756864075708647 
-0.009392219208909008 
-0.02335484932738843 
0.0435360219246685 
-0.01639686104954637 
-0.007495295737888901 
0.004086466618139572 
0.004086466618139572 
0.004086466618139572 
0.004086466618139572 
0.004086466618139572 
0.004086466618139572 
0.005953711236777568 
0.004086466618139572 
0.004086466618139572 
-0.005299271887506963 
0.004086466618139572 
0.004086466618139572 
-0.005299271887506963 
0.004086466618139572 
0.002178410084319893 
-0.02229822936501126 
-0.01699747479731815 
-0.02078444896492987 
-0.002792359657898579 
-0.00963099802233524 
-0.03993430538007219 
-0.00963099802233524 
-0.002792359657898579 
-0.3415606120856313 
-0.02229822936501126 
-0.3415606120856313 
-0.003908204495219876 
-0.002792359657898579 
-0.02229822936501126 
-0.1584130574353025 
-0.003908204495219876 
-0.01676436820290221 
-0.003087780447371972 
-0.03146825874023385 
-0.01544619976046535 
-0.04137486193068392 
-0.0044951437722401 
-0.003087780447371972 
-0.0044951437722401 
-0.03146825874023385 
-0.003087780447371972 
-0.0342066762848813 
-0.003087780447371972 
-0.0044951437722401 
-0.003087780447371972 
-0.003087780447371972 
-0.0044951437722401 
-0.01695542551779161 
-0.01695542551779161 
-0.007592153448787686 
-0.01695542551779161 
-0.007592153448787686 
-0.007592153448787686 
-0.007592153448787686 
-0.007592153448787686 
-0.007592153448787686 
-0.02691543228542433 
-0.002249146822222112 
-0.02691543228542433 
-0.002249146822222112 
-0.002249146822222112 
0.05093486332840247 
-0.0001101504813451256 
0.0003794258360535184 
-0.002249146822222112 
-0.007108542373722684 
0.00972839273175341 
-0.006818078585394083 
-0.006818078585394083 
-0.006818078585394083 
-0.04341909747472097 
-0.04341909747472097 
-0.006818078585394083 
-0.006818078585394083 
-0.04341909747472097 
-0.006401341471724198 
-0.01651131800384968 
-0.005653139171937262 
-0.04930931890307701 
0.002697082656948172 
-0.01651131800384968 
0.002697082656948172 
-0.0038332967409203 
-0.005653139171937262 
0.06978758644099452 
0.06978758644099452 
-0.004822973103419269 
-0.005879239079575303 
-0.005879239079575303 
-0.01264180269173498 
-0.005879239079575303 
-0.005879239079575303 
-0.005879239079575303 
-0.005879239079575303 
-0.0003827493854126384 
-0.005879239079575303 
-0.005879239079575303 
-0.02424559231471426 
-0.0380818419638252 
-0.005005491458596273 
-0.02670149059902678 
-0.01114548429291956 
-0.01262870385866401 
-0.005005491458596273 
-0.08045257800796543 
0.004670133981419444 
-0.02468368128919498 
0.000687628703453862 
0.000687628703453862 
-0.005005491458596273 
-0.0006523591954725638 
0.0395020025507722 
-0.008171610751765935 
-0.007549531751606301 
-0.008171610751765935 
-0.008171610751765935 
0.01725826462605836 
-0.01378341106478898 
-0.002649206888046022 
-0.05410736450892917 
-0.4149692628946569 
-0.002649206888046022 
-0.04234657760853979 
-0.0572624986644647 
-0.002649206888046022 
-0.1229919538713359 
-0.002649206888046022 
-0.01410862259716694 
-0.03454640604139549 
-0.005065019169697813 
0.01349766412324942 
0.001947203419691939 
0.001947203419691939 
0.001947203419691939 
0.00856312586492574 
0.009488497012874698 
0.00856312586492574 
-0.04228747294067914 
0.00856312586492574 
0.00856312586492574 
-0.05862127809877801 
0.00856312586492574 
0.00856312586492574 
0.00856312586492574 
0.00856312586492574 
0.00856312586492574 
0.00856312586492574 
0.00856312586492574 
0.00856312586492574 
0.002948323999965257 
-0.01459123899421619 
-0.02586262577673989 
-0.01459123899421619 
-0.01459123899421619 
-0.01459123899421619 
-0.3981024785196558 
-0.01459123899421619 
-0.01459123899421619 
-0.2859099180351229 
-0.001136535929304679 
-0.001136535929304679 
-0.03166380601018957 
-0.05723675658119691 
-0.03166380601018957 
-0.05845171606308751 
-0.03166380601018957 
-0.001136535929304679 
-0.02454350446404011 
-0.04206892111077068 
0.005124657159620387 
-0.04206892111077068 
-0.03533959191702249 
-0.02717556165882446 
0.00398051114908728 
-0.03533959191702249 
-0.03533959191702249 
-0.04206892111077068 
-0.002773143027254329 
0.003499809913660589 
0.02078090304031157 
0.003499809913660589 
-0.002773143027254329 
0.006727979499948982 
0.005117212528803352 
-0.03341404108100503 
0.006727979499948982 
-0.002773143027254329 
-0.01001920011160979 
-0.007206642772753359 
-0.00326312616219927 
-0.00645944067685064 
-0.00645944067685064 
-0.007206642772753359 
-0.01644605522491734 
0.00516091969323079 
-0.01723653262020838 
0.003595751654964147 
-0.01723653262020838 
0.003595751654964147 
0.01351330688425694 
0.004985736090105958 
-0.0514557788444831 
-0.0514557788444831 
-0.0514557788444831 
0.006111628752482406 
0.006111628752482406 
0.01073136264628625 
0.01231722850181188 
0.006111628752482406 
0.006111628752482406 
0.006111628752482406 
0.006111628752482406 
-0.0021751306572783 
-0.00166038727923323 
0.01073136264628625 
0.01073136264628625 
-0.01285895040086493 
0.006111628752482406 
0.01073136264628625 
-0.0003814531083190884 
-0.02751747065499164 
-0.001785416764703356 
0.002041170510180459 
0.002041170510180459 
-0.004954670392919284 
-0.004954670392919284 
-0.0003814531083190884 
-0.006212556418366706 
-0.04778561195558757 
-0.0003814531083190884 
-0.002112513474025936 
-0.02446219057518548 
0.004930853343140644 
-0.002112513474025936 
-0.002112513474025936 
-0.002112513474025936 
-0.002112513474025936 
-0.01802389577379808 
-0.002112513474025936 
-0.005581387231995777 
-0.002112513474025936 
-0.01802389577379808 
-0.01802389577379808 
-0.002112513474025936 
-0.01802389577379808 
-0.002112513474025936 
0.005781887737715822 
0.005781887737715822 
0.005457672524231515 
0.003217622871919941 
0.005687148640705423 
0.02531636889363599 
0.003217622871919941 
0.006498861679126482 
-0.02098080578436686 
-0.02221529033282277 
-0.01503498083911066 
-0.03241130972554542 
-0.01503498083911066 
-0.02628626058480509 
-0.02628626058480509 
-0.03241130972554542 
-0.01664119948667564 
-0.01555488940034361 
-0.0134985771132548 
-0.0134985771132548 
-0.06678187177471163 
-0.0134985771132548 
-0.02016714780910792 
-0.0234841545349622 
-0.01017770026451343 
-0.0134985771132548 
-0.0134985771132548 
-0.0134985771132548 
-0.0134985771132548 
-0.0134985771132548 
-0.0134985771132548 
-0.0134985771132548 
-0.0234841545349622 
-0.0134985771132548 
-0.0134985771132548 
-0.0134985771132548 
-0.004466323355131135 
-0.0162637187270979 
-0.004466323355131135 
-0.02864142016599711 
-0.0102324673443154 
-0.01572093532245462 
-0.006136430463351398 
-0.006136430463351398 
-0.007583050215602689 
-0.01572093532245462 
-0.03997963999959275 
-0.004466323355131135 
-0.01572093532245462 
-0.01572093532245462 
-0.07298684044529843 
-0.1635048324596941 
-0.0618166494843033 
0.01471185122512552 
-0.02088266184770418 
0.01471185122512552 
0.0009132665010902457 
0.0009132665010902457 
0.0009132665010902457 
0.0009132665010902457 
0.06292211920032098 
0.03175095019670338 
0.004107889740521727 
0.004107889740521727 
-0.01305625856456022 
0.06292211920032098 
0.004107889740521727 
-0.00112396306790649 
0.004107889740521727 
0.05676907820760389 
-0.02414232058648937 
-0.007818753401202782 
-0.01221680120367931 
-0.0004193680853892426 
-0.007818753401202782 
-0.0004193680853892426 
-0.0005683300042800266 
-0.01235851677113332 
-0.0005683300042800266 
-0.004615836787095621 
-0.0009110280138496388 
-0.002986539310408127 
-0.01499358116191036 
-0.0005683300042800266 
0.003978842438365482 
-0.004370966859356002 
-0.004370966859356002 
-0.00126805475235274 
0.00197842216218184 
-0.005204904219767394 
0.007525090754365763 
-0.005204904219767394 
-0.004370966859356002 
-0.00126805475235274 
-0.005204904219767394 
0.0128903172535314 
-0.005204904219767394 
-0.03409973724337485 
-0.005067451692605979 
-0.008590361643057641 
-0.008590361643057641 
-0.008590361643057641 
-0.008590361643057641 
-0.008590361643057641 
-0.09565059935452518 
-0.0060550997334467 
-0.04091175188505407 
0.01080417456086428 
0.02884710598225836 
-0.03464510003512396 
-0.4658626198639653 
0.02083272688881067 
0.02481081446815101 
-0.002296063795644915 
-0.12237323338119 
-0.002296063795644915 
-0.01000270769719521 
0.03269061617054534 
-0.01115335799007244 
0.005506221295386249 
-0.01773145726699636 
0.03269061617054534 
-0.01115335799007244 
-0.004311611751411597 
-0.004670152019194507 
0.003418819975225785 
-0.004311611751411597 
0.003418819975225785 
-0.003430629714954059 
-0.004311611751411597 
-0.001300791594498214 
-0.1007375583704302 
-0.006420981411387265 
-0.001300791594498214 
-0.006420981411387265 
-0.001300791594498214 
-0.001300791594498214 
-0.006420981411387265 
0.001856778410726073 
0.00570747360995783 
-0.01849503937165619 
-0.001300791594498214 
-0.02593559441637792 
-0.0009579578550896323 
-0.0670625844326177 
-0.04683230003010014 
-0.03082463698445687 
-0.0009579578550896323 
-0.05401284020082217 
0.01008251448162328 
0.01008251448162328 
0.01766151837551442 
-0.03657811889850503 
-0.03657811889850503 
0.02382649025870016 
0.01008251448162328 
0.01008251448162328 
0.01416596789723347 
-0.05972788160649255 
0.01095592794315939 
0.01008251448162328 
-0.03657811889850503 
0.01008251448162328 
0.01008251448162328 
-0.005034546705060694 
0.01008251448162328 
-0.03657811889850503 
0.007579003893891143 
-0.002815288422303072 
0.007579003893891143 
0.007579003893891143 
0.007579003893891143 
0.007579003893891143 
0.007579003893891143 
0.007579003893891143 
0.007579003893891143 
0.007579003893891143 
0.01379411932442627 
-0.00906090079271199 
-0.00906090079271199 
-0.00906090079271199 
-0.00906090079271199 
-0.00906090079271199 
-0.1079716129005593 
-0.00906090079271199 
-0.00906090079271199 
-0.0149451779261449 
-0.00906090079271199 
0.01379411932442627 
-0.00906090079271199 
0.01379411932442627 
-0.1079716129005593 
0.01379411932442627 
0.005282981438189164 
0.0004877132706429738 
-0.005884277133432901 
-0.005884277133432901 
-0.02468286392327104 
-0.02468286392327104 
-0.005884277133432901 
-0.005884277133432901 
-0.02468286392327104 
-0.005884277133432901 
-0.005884277133432901 
-0.005210044630473757 
-0.005884277133432901 
-0.02690349805585069 
0.003521553816037157 
-0.005884277133432901 
-0.04815034958656019 
0.0379667656403757 
-0.03033758484998319 
-0.0002350611213125416 
-0.0002350611213125416 
-0.0002350611213125416 
-0.0002350611213125416 
-0.0002350611213125416 
-0.02418633708562702 
-0.0002350611213125416 
0.03899326662316527 
-0.0002350611213125416 
-0.0002350611213125416 
0.004674016253474162 
-0.006332213114338841 
-0.04749563087933678 
-0.04749563087933678 
-0.09066109577510288 
-0.04749563087933678 
-0.02458778382805804 
-0.04749563087933678 
-0.04749563087933678 
-0.02779152100903131 
-0.02779152100903131 
-0.04749563087933678 
-0.04749563087933678 
-0.02619250153659754 
-0.02619250153659754 
-0.02619250153659754 
-0.0003619595060391288 
-0.0003619595060391288 
-0.00432891933971344 
-0.02381250057764072 
-0.02381250057764072 
-0.0003619595060391288 
-0.02429225370406708 
-0.02381250057764072 
-0.02381250057764072 
-0.0002543377338154379 
0.007999720346098639 
-0.003316177437046122 
-0.01286547395262528 
-0.03655597191889227 
-0.001036525695876149 
-0.01286547395262528 
-0.01286547395262528 
-0.005030375339085435 
-0.01898389146217951 
-0.005030375339085435 
-0.002016261496990703 
-0.005629105174062584 
-0.005030375339085435 
-0.005030375339085435 
-0.005030375339085435 
-0.005703541709752908 
-0.005030375339085435 
-0.01514392707576957 
-0.01514392707576957 
-0.0117265532047916 
-0.01728320806618196 
-0.01514392707576957 
-0.011644771324423 
-0.01514392707576957 
-0.01514392707576957 
-0.01514392707576957 
-0.01514392707576957 
-0.01514392707576957 
-0.03984435765374686 
-0.01514392707576957 
-0.05689566117149742 
0.002662582850422084 
0.05410619821206966 
0.002662582850422084 
0.002662582850422084 
0.002662582850422084 
-0.0008189614713882758 
-0.0008189614713882758 
-0.02973021362825124 
-0.0008189614713882758 
-0.02973021362825124 
0.02509894185038433 
0.005861505832810161 
-0.007524610617433293 
-0.007524610617433293 
-0.03925936160544767 
-0.007524610617433293 
-0.007524610617433293 
0.01917513621051075 
-0.01330217514226559 
-0.03757148362738869 
-0.01330217514226559 
0.09927191993543184 
-0.01320066623114827 
-0.001495455995006683 
-0.01320066623114827 
-0.01524105998674218 
-0.001495455995006683 
-0.01320066623114827 
-0.01749461413874719 
-0.01320066623114827 
0.009846364576114163 
-0.01320066623114827 
-0.001495455995006683 
-0.006253333220296793 
-0.00258280938546985 
-0.00258280938546985 
-0.00258280938546985 
-0.003739933873033378 
-0.00258280938546985 
-0.00258280938546985 
-0.0002697572763291175 
-0.00201259191258986 
0.02545728639529219 
-0.01892532517424944 
0.003333335517231343 
-0.01392348342941927 
-0.00979114438984118 
0.003333335517231343 
-0.0183361290881659 
-0.0001100553676807947 
0.01157204813911631 
0.004941763594806399 
-0.0001100553676807947 
-0.02466447271322119 
-0.0301261601228105 
-0.0001100553676807947 
-0.007528725251824504 
0.02221690138225949 
0.004941763594806399 
0.004734445508418592 
-0.0301261601228105 
-0.0301261601228105 
-0.02466447271322119 
-0.004887752327615472 
-0.004887752327615472 
0.04410972944723325 
-0.04042368354344388 
-0.004887752327615472 
-0.004887752327615472 
-0.004887752327615472 
-0.002434975751422467 
-0.03762867647099592 
-0.001631125949028183 
-0.003909946575347211 
0.04719695386319837 
-0.03026283208484028 
-0.03762867647099592 
-0.003909946575347211 
-0.002977627324851579 
-0.04231519825692932 
-0.003909946575347211 
-0.008520063251525625 
-0.02727972527696379 
0.003339816054813914 
0.003339816054813914 
-0.001575457640571126 
-0.04548195711866307 
0.01673987011081584 
-0.001575457640571126 
-0.001575457640571126 
-0.04241850495869805 
0.03413842235253631 
-0.07876788794590153 
-0.08915484923221643 
0.05681090568673821 
-0.1065142157054293 
-0.07876788794590153 
0.03413842235253631 
-0.124496725951269 
-0.08915484923221643 
-0.07876788794590153 
-0.08915484923221643 
-0.08915484923221643 
0.05681090568673821 
-0.08915484923221643 
-0.08915484923221643 
0.05681090568673821 
-0.09683184160918326 
0.03413842235253631 
-0.08915484923221643 
-0.07876788794590153 
-0.002159818945024678 
-0.004161220433015783 
-0.0003198770658398606 
0.01235157189261316 
-0.004161220433015783 
-0.002159818945024678 
-0.09496664968486984 
-0.01445892152992828 
-0.004161220433015783 
-0.0145538468291399 
-0.04682029611980831 
-0.0112220881327548 
-0.04699332009105433 
-0.1084635508115438 
-0.003272047324327547 
0.02773545201666873 
-0.000647133092147573 
-0.004929471844630301 
-0.01467658426843446 
-0.04766234765724906 
-0.003272047324327547 
-0.04766234765724906 
0.01907185018772374 
-0.003272047324327547 
-0.03472335728223883 
0.02773545201666873 
-0.003272047324327547 
-0.003272047324327547 
0.0002884972142985939 
-0.003152850867988852 
-0.002797805375562493 
-0.002797805375562493 
-0.004956843821224218 
-0.003152850867988852 
-0.002797805375562493 
-0.00514385605997605 
-0.00514385605997605 
0.007673615024116206 
0.004184946675192177 
-0.01083533438181852 
-0.01083533438181852 
-0.02667991343283742 
0.004184946675192177 
0.004184946675192177 
0.004184946675192177 
0.002571245331802084 
0.01154045102611701 
-0.01083533438181852 
-0.0138883605271067 
-0.01083533438181852 
0.03466060533978666 
0.002571245331802084 
0.002571245331802084 
-0.01364093069120306 
-0.005630557728594649 
-0.000518597584702947 
-0.000518597584702947 
-0.000518597584702947 
-0.01503521382901317 
0.008276298610571518 
-0.04041416842913281 
-0.01503521382901317 
-0.003745067599376303 
-0.0032785694269284 
0.001691886388753961 
-0.02489875858889087 
-0.003745067599376303 
-0.003745067599376303 
0.01016593482100021 
-0.00658152855723736 
-0.01503521382901317 
-0.003745067599376303 
-0.003745067599376303 
-0.003745067599376303 
0.005055042241734371 
-0.01686847870143053 
0.003208320245198194 
-0.05578540197369791 
0.003208320245198194 
-0.002792750105833687 
0.00236489235618785 
-0.04021409768226674 
-0.007883460166576017 
0.005304937945470693 
-0.04021409768226674 
-0.01045305956564694 
-0.04863185628787074 
-0.0114117462651041 
-0.0114117462651041 
-0.04774800807198631 
-0.01045305956564694 
0.3079245051634829 
0.0169821748067123 
0.03206090720498769 
-0.02869858738910987 
0.0169821748067123 
0.0169821748067123 
0.07818816468348033 
-0.03836794262795061 
0.5570357485528183 
0.0169821748067123 
0.01775413901689111 
-0.05046103382235639 
0.01775413901689111 
0.003789291271678158 
0.003470955483791736 
0.0169821748067123 
-0.0107711311549095 
-0.009160500173127684 
-0.001150813974022539 
-0.0107711311549095 
0.05308176546540277 
0.03715289331475696 
-0.03669539653406548 
-0.03669539653406548 
0.003892071216190856 
0.07783209278115469 
-0.04199389651498077 
-0.03261169028882963 
-0.04199389651498077 
-0.005496273662633153 
-0.3947052933391248 
-0.09832953723838636 
-0.04199389651498077 
-0.03676970337579503 
-0.04199389651498077 
-0.04199389651498077 
-0.04306989948395643 
-0.04199389651498077 
-0.02726023204341776 
0.07783209278115469 
-0.09832953723838636 
-0.04199389651498077 
-0.001325284354146738 
-0.001325284354146738 
-0.001325284354146738 
0.01986592383188972 
-0.001325284354146738 
0.01986592383188972 
0.0004296232174072377 
0.0004296232174072377 
0.0004296232174072377 
0.0004296232174072377 
-0.002234909123563325 
0.007122714591235894 
-0.05636820550770433 
-0.03229591052353342 
-0.004070207138736089 
-0.004070207138736089 
-0.002234909123563325 
-0.009238432356196143 
-0.002234909123563325 
-0.003508583827006688 
0.003532364036753461 
-0.004070207138736089 
0.003532364036753461 
-0.004460018106777404 
8.547090093351802e-05 
-0.003997106629918105 
-0.00378089255627927 
-0.002256559751208065 
-0.006930025474182515 
0.01022089207799035 
0.0007409493440123725 
0.005969710209521085 
0.005969710209521085 
0.005969710209521085 
0.005969710209521085 
-0.01707109064883625 
0.005969710209521085 
0.005969710209521085 
0.1028221728008112 
0.01196573661871401 
0.01196573661871401 
-0.002517294185786828 
-0.009980405651150355 
-0.009980405651150355 
-0.001920659759456301 
-0.001920659759456301 
-0.001920659759456301 
-0.001920659759456301 
-0.001920659759456301 
-0.001920659759456301 
-0.009980405651150355 
-0.001920659759456301 
-0.001920659759456301 
