solver_type L2R_L2LOSS_SVC
nr_class 2
label 1 -1
nr_feature 47799
bias -1
w
-0.05107774812787456 
-0.08182262703020654 
0.2033335256788586 
-0.06927596934335072 
-0.08774943455755976 
0.009532822597577041 
-0.08182262703020654 
0.006726271807079229 
0.01104532531682002 
0.1239681141588338 
0.04004762211465154 
-0.09647535803498426 
0.02639762340903175 
0.01439584975631053 
0.5928557697171702 
0.001399121650397904 
0.1729151550763315 
0.01104532531682002 
0.02890301996054274 
0.2448398339359863 
0.01601698165269333 
0.01722376870836961 
-0.0492791031603936 
0.009981326104194457 
-0.01477295694715653 
-0.05461499589233797 
-0.3854289049999506 
-0.006575207988872286 
-0.004745541332020836 
0.001938565758242311 
-0.05461499589233797 
-0.3854289049999506 
-0.1429250045296158 
-0.1463031941707548 
0.02923490612144296 
-0.05461499589233797 
0.04224411702284117 
-0.05461499589233797 
-0.02323567112145487 
-0.2017060611298997 
0.02652607401554558 
-0.04048677992781562 
-0.01011325402391211 
-0.03841665570796025 
0.03871634377756268 
-0.03841665570796025 
0.04899100158735311 
-0.08873647752532211 
-0.1350272831228184 
-0.07543894688103156 
-0.4297108081916493 
0.004227863426075525 
0.1619562421684286 
-0.07760752316475286 
0.1369762033932563 
-0.03841665570796025 
-0.08873647752532211 
-0.02649310752184362 
-0.07760752316475286 
-0.05597122625979696 
-0.02934681083303191 
-0.01011325402391211 
-0.09116036434132817 
-0.07760752316475286 
0.04500510891778371 
-0.07712826644924062 
-0.0008904723420555663 
-0.0008904723420555663 
-0.07336382771935313 
-0.0008904723420555663 
-0.3098195838372817 
-0.07336382771935313 
-0.07336382771935313 
-0.0008904723420555663 
-0.09074045951240438 
-0.0008904723420555663 
-0.07336382771935313 
-0.3098195838372817 
0.02447993580552041 
0.0003847488696743543 
-0.0008904723420555663 
-0.0008904723420555663 
-0.1106379796950151 
0.001066205746211052 
-0.0008904723420555663 
-0.03453679272329244 
-0.1182017904363728 
-0.08065330061392686 
0.0003847488696743543 
-0.01169158361273743 
-0.00689029417127815 
0.01182056575677277 
-0.06914294248352232 
0.04480842322042028 
-0.3679371812905474 
-0.1834154214459633 
-0.01295307221319179 
0.032897310292559 
-0.003780285148796168 
0.047623664000852 
-0.001093428738145368 
0.005197245086657799 
-0.01108231240325407 
-0.008339877236954502 
0.04480842322042028 
-0.01068163488930753 
-0.3679371812905474 
-0.008339877236954502 
0.005197245086657799 
0.04480842322042028 
0.04480842322042028 
0.01471930133914051 
-0.01108231240325407 
-0.1791704037070722 
0.0871653272295122 
-0.02259643764345292 
-0.03463527878809246 
-0.03871107235179372 
-0.03463527878809246 
-0.03463527878809246 
-0.04473112272452606 
-0.392119838285078 
-0.0504338142949696 
0.07866591194574754 
-0.2807213328792316 
-0.07193093620547485 
0.08259597439853615 
-0.3860001612343358 
-0.0009271526725393004 
0.04498873130223699 
-0.01369458156158856 
-0.07871292609194398 
0.08259597439853615 
-0.03211599333230984 
0.08259597439853615 
-0.01369458156158856 
0.04498873130223699 
-0.007676559994207562 
-0.01369458156158856 
-0.03145626334124497 
-0.01369458156158856 
-0.07423100810666405 
0.0398198562830181 
-0.04127641627005432 
-0.3860001612343358 
-0.1138105526117552 
0.04498873130223699 
-0.03179616271105898 
-0.03145626334124497 
0.03948865542306116 
-0.1429520389595394 
-0.3517388345210195 
0.003412316104399585 
0.003412316104399585 
-0.002048095091795937 
-0.002048095091795937 
-0.08317378450712487 
-0.01479060821937189 
-0.002048095091795937 
-0.3517388345210195 
-0.002367206891403963 
0.003412316104399585 
0.1217037795897563 
-0.2018049759931696 
-0.01479060821937189 
-0.01120526941402872 
-0.01479060821937189 
-0.002048095091795937 
-0.01479060821937189 
-0.09129964329729366 
0.003412316104399585 
-0.03456624207486678 
-0.03834481831612242 
-0.02524856083451557 
-0.3221085076292065 
-0.002416987968675242 
0.008077001948981628 
-0.002416987968675242 
0.08088726004544748 
-0.08691593137184295 
-0.002416987968675242 
-0.002416987968675242 
0.005034454757214151 
-0.5582799890457888 
-0.02811726381349038 
-0.0005344993424707501 
-0.06665715863742679 
-0.01547990271391379 
-0.7279607847970762 
-0.02513307088922617 
-0.004683517076882394 
-0.02965934228428405 
-0.03969988358831718 
-0.0005344993424707501 
-0.07403103221299784 
-0.01547990271391379 
-0.1359629022353928 
-0.0005344993424707501 
-0.0005344993424707501 
-0.07186216876796109 
0.09073266883914742 
-0.03969988358831718 
-0.01547990271391379 
0.0001601692354401517 
-0.01547990271391379 
-0.06665715863742679 
-0.004683517076882394 
-0.007108957370374087 
-0.02901550991670531 
-0.007108957370374087 
-0.003649724121319036 
0.015044703311077 
0.01384851319489576 
-0.01259266789214467 
-0.4699102647589422 
-0.03634171316036466 
0.003851601991758707 
0.05696917453312934 
-0.007108957370374087 
-0.01334076792332523 
0.015044703311077 
0.015044703311077 
0.01384851319489576 
-0.05828387396871381 
0.003329570945164893 
-0.01334076792332523 
0.015044703311077 
-0.01731475409821145 
-0.4699102647589422 
-0.1169511332506453 
0.01384851319489576 
-0.0003970309560932005 
0.2391474291228313 
0.5419063054379322 
-0.01356960365907018 
0.001601132828743376 
0.3019622614022253 
0.001931755156612947 
0.1871734582248541 
0.006678500752625593 
0.04255259770958547 
0.01257520096279426 
-0.03904908945631606 
0.001601132828743376 
0.001601132828743376 
0.001601132828743376 
-0.004918652638978323 
-0.004918652638978323 
0.003173631266047949 
-0.03518332433702952 
0.01689310713441122 
-0.01469191579134516 
-0.003392820455325452 
-0.0009822245676617113 
-0.0009822245676617113 
-0.01464924432413796 
-0.04993038439803295 
-0.01469191579134516 
-0.01464924432413796 
-0.1311118339164187 
-0.05449176527127657 
-0.0009822245676617113 
-0.0009822245676617113 
-0.0009822245676617113 
-0.1113318522002822 
-0.0009822245676617113 
-0.01469191579134516 
-0.0009822245676617113 
-0.01464924432413796 
-0.0009822245676617113 
-0.0009822245676617113 
-0.01464924432413796 
-0.2004906957023902 
0.01951754466607861 
-0.01231171867566041 
-0.01457539567216048 
0.08634899970085373 
0.08634899970085373 
0.2279815052858804 
0.08634899970085373 
0.01593463369933383 
0.1151721834517699 
-0.01819175380030075 
0.01349778955366423 
0.08634899970085373 
0.0430363861195572 
0.07236312104716791 
0.04514712518059383 
0.09409395802613879 
0.06175638920590409 
-0.0599600269560082 
0.008731324000792998 
-0.2975730894544923 
-0.003239382988843918 
-0.5914183785758262 
-0.001592828387817567 
-0.05330513679508131 
0.00476869416751214 
-0.03826796732012864 
-0.03385800838530919 
-0.03385800838530919 
-0.08843228934927136 
0.04910902681023371 
-0.01558695088433318 
-0.05330513679508131 
0.03375707413965056 
-0.0106764008438726 
-0.003475477401815784 
0.04893352487330761 
0.00476869416751214 
-0.01867397209005644 
-0.003239382988843918 
-0.005483423668200153 
-0.02470854435183852 
-0.03568670855066266 
-0.03568670855066266 
0.1233970346702736 
-0.03568670855066266 
0.02612482277578664 
-0.03568670855066266 
-0.02627170973703276 
-0.1147632362650054 
-0.02627170973703276 
0.03500885974599291 
-0.02627170973703276 
-0.02401190257689988 
-0.02401190257689988 
0.02739129440843859 
-0.02627170973703276 
0.002454818673119257 
0.002454818673119257 
-0.01436032832752122 
0.0002522555885059729 
0.007051888325530852 
-0.02276067631655287 
-0.08476755471135972 
-0.06207763383939472 
-0.06293232882141263 
-0.06293232882141263 
-0.02854068744204182 
0.01556191792743337 
0.0002522555885059729 
0.04024604829583703 
-0.01436032832752122 
0.002454818673119257 
0.01556191792743337 
-0.01436032832752122 
-0.02896901513826382 
-0.07286256698762443 
-0.06293232882141263 
0.003560235603548271 
0.01556191792743337 
-0.07478640387902381 
-0.06058062557579832 
-0.0268556824905108 
-0.0006475427972753638 
0.03540673951174959 
-0.04740319525405542 
-0.0001884731747534622 
-0.06058062557579832 
-0.06058062557579832 
0.01272453465977204 
-0.1762967939879005 
-0.02746208889448095 
-0.0004714580530483959 
0.01514198557999539 
-0.0006475427972753638 
-0.1485101404437685 
-0.006285580027860117 
0.04781684653857499 
-0.06058062557579832 
-0.04740319525405542 
0.003233610537518756 
-0.1164950922768948 
-0.06728707893298254 
0.05323119006396649 
0.05323119006396649 
0.04605006225797943 
-0.06729780832489632 
-0.04650786471784382 
-0.04592906231294093 
0.05323119006396649 
-0.05139908424762949 
-0.04812540330177496 
-0.08070866799920214 
-0.08070866799920214 
-0.08070866799920214 
-0.08070866799920214 
-0.01805109447210779 
-0.007591868994486628 
-0.08070866799920214 
-0.08070866799920214 
-0.08070866799920214 
-0.03774446551888051 
-0.08070866799920214 
-0.08070866799920214 
-0.02977340183483696 
-0.03426196092708403 
-0.03412244985745958 
0.04645374133805695 
-0.05824884157897241 
-0.03412244985745958 
-0.01134207111071809 
-0.03426196092708403 
-0.2818400661800376 
-0.01410298140388954 
-0.009844140312966293 
-0.009844140312966293 
-0.009837064868283984 
-0.03431131497250273 
-0.01221773527008467 
-0.03431131497250273 
-0.04238703864376318 
-0.009844140312966293 
-0.0002184725007169383 
-0.1357599350285758 
-0.3520396834719862 
-0.03431131497250273 
-0.02993762078788118 
-0.03431131497250273 
-0.3520396834719862 
-0.2607408476519449 
8.926469681080211e-05 
-0.01637511056866421 
8.926469681080211e-05 
-0.04869568446365428 
-0.01363220532106205 
0.015937484839589 
0.0002861073446407081 
-0.01363220532106205 
0.09608847735511256 
-0.1793490164485724 
-0.01637511056866421 
-0.01637511056866421 
0.04272423766440037 
-0.01637511056866421 
0.01507885880372282 
0.015937484839589 
-0.01448944717549776 
-0.07692207428057574 
-0.01111957793292021 
0.0005816425239754762 
-0.01273382064509371 
-0.1102167287432221 
-0.07828565702070336 
-0.008521695809200702 
0.01431852417033618 
0.0005816425239754762 
-0.01111957793292021 
-0.07692207428057574 
-0.01111957793292021 
-0.01111957793292021 
0.0005816425239754762 
0.0005816425239754762 
0.0005816425239754762 
-0.07828565702070336 
-0.07011454679906677 
0.08286662477049223 
-0.05451074596661368 
-0.002224421753452202 
-0.2382698908604131 
-0.01267508698590161 
-0.1769518031886656 
-0.01814536351848803 
-0.07011454679906677 
-0.2838817014124585 
0.04485757194306209 
-0.06180463863436166 
-0.1045601178533929 
-0.03027677157268568 
-0.01556574558157945 
-0.01267508698590161 
0.04587360923133335 
0.01275876373078442 
0.06394901797549292 
-0.02647274486987987 
-0.01990626991623881 
-0.06038386398588242 
-0.01267508698590161 
-0.02093665697351406 
-0.003437772443627533 
-0.006302239692384122 
-0.2310475878074671 
-0.003437772443627533 
-0.003437772443627533 
-0.003437772443627533 
0.02102823227908159 
-0.006302239692384122 
-0.003437772443627533 
-0.003437772443627533 
-0.02890604749211099 
-0.3862746883375032 
-0.006302239692384122 
-0.003437772443627533 
-0.3862746883375032 
-0.003437772443627533 
-0.01222425094775733 
-0.04772557506940707 
-0.01211541991146948 
-0.01222425094775733 
0.04046008319969543 
-0.01222425094775733 
-0.1998793766958953 
0.06468430005746938 
0.0321352576365647 
0.01866653842949471 
0.04349261440840777 
0.01866653842949471 
-0.01737708795695933 
0.02892492910025597 
0.06468430005746938 
-0.01737708795695933 
-0.001378880572382233 
-0.117124368122255 
-0.08476307215389924 
-0.001378880572382233 
-0.007374390312618157 
-0.001729165448548582 
-0.007374390312618157 
-0.05152418961443474 
-0.001968116971858924 
-0.007374390312618157 
0.001947304416401804 
-0.001378880572382233 
-0.05268248508998304 
-0.007374390312618157 
-0.001378880572382233 
-0.001378880572382233 
-0.001378880572382233 
-0.0754827222821659 
-0.09093412617587671 
-0.07944076119082079 
-0.05301890818516249 
-0.06524342682112622 
-0.04770877699998079 
-0.008874714483268086 
0.02056239526461338 
0.02056239526461338 
-0.1849352995508805 
-0.01109973494827655 
0.01164470840005099 
0.01393091423435992 
-0.05452465278593811 
-0.05452465278593811 
-0.04770877699998079 
0.07015304853814602 
-0.04770877699998079 
-0.03201305407394513 
0.02283645096244892 
-0.03842874169403695 
0.03029249006945083 
-0.04658837999643522 
-0.01945179124361401 
-0.0003502848761663499 
-0.03842874169403695 
-0.03842874169403695 
0.02283645096244892 
0.001012301805217474 
0.02283645096244892 
-0.0003502848761663499 
9.425840551024655e-05 
9.425840551024655e-05 
-0.02831612354413616 
0.0002589056338315268 
-0.06606018377459945 
0.00278888516112346 
9.425840551024655e-05 
-0.007285826941908562 
9.425840551024655e-05 
-0.2254194977951356 
-0.02831612354413616 
0.007260237664527816 
-0.02849650356411755 
-0.02492851764927266 
9.425840551024655e-05 
0.0002589056338315268 
-0.01755798351800323 
3.385440235411512e-05 
-0.05347937595208023 
-0.01259032079666849 
3.385440235411512e-05 
-0.05347937595208023 
-0.007576396150989421 
-0.01755798351800323 
-0.01502467512309162 
-0.007576396150989421 
-0.1034557252469268 
-0.07406218744970593 
-0.007576396150989421 
-0.109983722464168 
3.385440235411512e-05 
-0.0110319527833209 
-0.01511155735390153 
-0.06072616526596621 
-0.6382876131175779 
-0.01755798351800323 
-0.0157393757297175 
-0.0157393757297175 
-0.001400891709636196 
0.01413113630758609 
-0.01969873122824926 
0.08649441458667136 
0.09673795182760449 
-0.001912079356239224 
-0.06106711936956001 
0.01413113630758609 
0.09673795182760449 
-0.6394750992373628 
-0.01969365854747817 
-0.01969365854747817 
-0.0157393757297175 
-0.1121666803325676 
0.01413113630758609 
-0.04086959956678409 
-0.3417058290134969 
-0.0157393757297175 
-0.01408833488125706 
-0.04676274441658951 
0.002791185966462614 
0.002791185966462614 
0.01529300058160337 
0.002791185966462614 
0.01574139693691757 
-0.03129820990903068 
0.002791185966462614 
0.009400073779115271 
0.002791185966462614 
0.002791185966462614 
0.002791185966462614 
0.002791185966462614 
0.01802427689040654 
0.002791185966462614 
-0.06373825697879543 
0.01529300058160337 
0.002791185966462614 
0.01529300058160337 
0.01529300058160337 
-0.1016560844952909 
-0.01046877410998172 
0.009261203812907303 
-0.01046877410998172 
-0.07613150889745315 
0.05417337505045892 
-0.0001388545276139719 
-0.0001388545276139719 
-0.01046877410998172 
-0.01046877410998172 
-0.07613150889745315 
-0.1016560844952909 
0.009261203812907303 
-0.0001388545276139719 
-0.03267066141712817 
-0.101549665219919 
-0.01046877410998172 
-0.179551088919697 
-0.101549665219919 
0.009261203812907303 
-0.07613150889745315 
-0.07613150889745315 
-0.005264494403712249 
-0.005264494403712249 
0.005741922839141946 
-0.005264494403712249 
-0.005264494403712249 
-0.04922358471655345 
0.005741922839141946 
0.01840093569050378 
-0.005264494403712249 
-0.003492278757212036 
-0.005264494403712249 
0.005741922839141946 
-0.005264494403712249 
-0.003022931385470328 
-0.008963692715928669 
0.005728180045712657 
-0.004146822146591119 
-0.005264494403712249 
0.0305162061472391 
-0.0624307491589129 
0.01043295340096708 
-0.04483591629252053 
-0.04483591629252053 
0.1942005740829054 
0.004147537304500769 
-0.04678610184116692 
-0.04483591629252053 
-0.3379102204478823 
-0.04678610184116692 
0.03303267783227727 
0.0160959761987302 
-0.1343275257108733 
-0.04483591629252053 
-0.04678610184116692 
-0.04935290915399022 
-0.1139413457259368 
-0.04483591629252053 
0.1273259156013473 
-0.04142509016945045 
0.007168274952299404 
0.007168274952299404 
0.05094781305932984 
0.00537113549914852 
0.05094781305932984 
-0.05470337154531862 
-0.1500851049398471 
-0.01018905143810588 
-0.03269354023672352 
0.007168274952299404 
-0.009436178134889697 
-0.0326904998000356 
-0.01978814742371726 
-0.05328065712486208 
-0.1107291035796641 
-0.08192755075800316 
-0.007771176110837278 
-0.008805264357417525 
-0.007771176110837278 
-0.007771176110837278 
-0.009436178134889697 
-0.009436178134889697 
-0.007771176110837278 
-0.06503261820866313 
-0.07059202621028628 
-0.009436178134889697 
-0.03293926408057368 
-0.08192755075800316 
-0.1087716518233979 
-0.06159813512615434 
-0.007771176110837278 
-0.03638627570917416 
-0.389522244038309 
0.02893994770965605 
-0.04135643434344201 
-0.111343775564179 
-0.0398377752263811 
-0.04616733057691037 
0.2355099947694412 
-0.03831674138914537 
-0.08876541267823448 
-0.0985750419059261 
-0.004930863760498488 
-0.0398377752263811 
-0.0398377752263811 
-0.03831674138914537 
-0.004246551045838643 
-0.08835766930485481 
0.3531757920322232 
0.05375608951373474 
-0.02371967553964454 
-0.3601949253054118 
-0.04442526116630244 
-0.03831674138914537 
-0.001354306480798045 
-0.06346230046028388 
-0.001354306480798045 
-0.001354306480798045 
-0.001354306480798045 
-0.001354306480798045 
-0.001354306480798045 
0.01407125250116805 
-0.01701292106569176 
0.07697964282897439 
0.1391808773514295 
0.0601318441741952 
0.1391808773514295 
0.07697964282897439 
0.0796947599194585 
0.07697964282897439 
0.1391808773514295 
0.0796947599194585 
0.131957392011626 
0.1360191384066349 
0.1391808773514295 
0.0796947599194585 
0.224041486152277 
-0.01463906281686159 
0.09110367658196913 
0.05405459767489191 
-0.01145820637741081 
0.01567292636449883 
0.0872732079307169 
0.01567292636449883 
0.2514297957825813 
0.05405459767489191 
-0.1578023595188456 
-0.04873641407689823 
0.6450205299516291 
0.01567292636449883 
-0.03358908033915724 
0.0806644346060009 
0.04503321436718645 
-0.05236319705827288 
-0.03861563441429405 
-0.04873641407689823 
0.04176303754282138 
-0.05638043937523991 
0.0001829536177770473 
-0.004971098175879283 
0.01046544659106186 
-0.04533014997369689 
0.01602183732109911 
-0.03401930837968192 
-0.07030486981910541 
-0.08297290904089039 
0.0001829536177770473 
0.0001829536177770473 
-0.04720905111843678 
-0.04533014997369689 
-0.05303940099743308 
-0.06403012886902153 
-0.02622947104949173 
0.0160210275923637 
-0.04533014997369689 
0.008506820552453857 
0.0001829536177770473 
0.008506820552453857 
0.1310159712562463 
0.0006459143046800527 
0.1170790759012629 
0.05917014607959672 
0.1170790759012629 
0.01297179880883982 
0.01297179880883982 
0.08872192947371943 
-0.02706958443053381 
0.1530573136374472 
0.01297179880883982 
0.05607364395320929 
0.07426968299652856 
0.01297179880883982 
0.03053369650796075 
0.01297179880883982 
0.01297179880883982 
0.07442956429770346 
0.1310159712562463 
0.01297179880883982 
0.07561809534902754 
-0.06015836444654386 
-0.04389269402538671 
0.1851913329377263 
-0.04389269402538671 
-0.04389269402538671 
0.1851913329377263 
-0.07715731369363996 
0.240704404692814 
-0.06996025630414469 
-0.04389269402538671 
-0.1653526184464765 
-0.02827478592076631 
0.1851913329377263 
-0.009075567162739148 
0.1368737284185638 
0.001808669066555784 
0.01033754501294932 
0.07969823969021704 
0.1368737284185638 
0.001808669066555784 
-0.02885209492591493 
-0.02048745017461098 
-0.2819216662035489 
0.08683111947897548 
0.01701714909854556 
0.01033754501294932 
0.1223741398393565 
0.01033754501294932 
0.0814768849086506 
0.01033754501294932 
0.2886849070020511 
0.210281987649117 
0.001808669066555784 
-0.01935060722248855 
0.0814768849086506 
-0.02381027802920478 
-0.05100729981526984 
-0.02381027802920478 
-0.0001560773248089272 
0.007468996921319122 
-0.05681472091149399 
-0.0679007130957273 
0.0008512277220233384 
-0.02381027802920478 
-0.0001560773248089272 
-0.05681472091149399 
-0.0001560773248089272 
-0.0414183412455044 
-0.05681472091149399 
-0.05100729981526984 
-0.1913358276388041 
0.03679642969493447 
-0.1224489174797424 
0.002674739148387143 
-0.05681472091149399 
-0.001046130211017411 
-0.001046130211017411 
-0.001046130211017411 
-0.01232539437174078 
-0.03325639267348057 
0.009404319488557262 
-0.001046130211017411 
-0.004851045676133342 
0.1509950948692233 
-0.001046130211017411 
0.02068813664815233 
-0.03259803956979252 
-0.001046130211017411 
-0.0319928590605288 
-0.001046130211017411 
-0.002936763283814243 
-0.002936763283814243 
-0.03259803956979252 
-0.3079342826117611 
0.006013268885137452 
-0.03844328729204957 
-0.07035133333017239 
-0.002583731580071285 
-0.04876956070042906 
0.1111631192861539 
-0.01541598021245144 
-0.06387188660723254 
0.2026837185049317 
-0.03590968363447612 
-0.03590968363447612 
-0.04876956070042906 
-0.04876956070042906 
-0.09586892564506025 
-0.09465592536441569 
0.02628867885130561 
-0.02422636171171566 
-0.01541598021245144 
-0.03590968363447612 
-0.09465592536441569 
-0.01541598021245144 
-0.1016489932129265 
-0.03590968363447612 
-0.09465592536441569 
-0.02485919321272487 
-0.02935137215740219 
-0.02485919321272487 
-0.02485919321272487 
-0.02485919321272487 
-0.02485919321272487 
-0.02485919321272487 
-0.02700202412563226 
-0.01725678887522897 
-0.02485919321272487 
-0.2360479393429068 
-0.03375323124495214 
-0.02485919321272487 
-0.02485919321272487 
-0.02485919321272487 
-0.02485919321272487 
-0.01741612667703265 
-0.02935137215740219 
-0.1944268004531562 
-0.02935137215740219 
0.003216097691961659 
0.006441878062403796 
0.01879857674239034 
-0.01500704663093665 
-0.02075697085653768 
-0.01679831427660451 
0.08222356559284388 
-0.05781724997103017 
0.007263294550667623 
-0.02075697085653768 
0.003216097691961659 
0.003216097691961659 
-0.02075697085653768 
0.006441878062403796 
-0.02784767138271952 
0.004942737585055043 
0.006441878062403796 
-0.1406349556937303 
-0.3263205112132406 
-0.04783364206194371 
0.01695975758313947 
-0.03686294432913393 
-0.04558200369745991 
-0.02308721918478019 
-0.03778339433469008 
0.2292547367239357 
-0.106231558717183 
-0.04362476007350104 
-0.04003471074648693 
-0.04558200369745991 
-0.04003471074648693 
-0.04558200369745991 
-0.04362476007350104 
-0.04362476007350104 
0.3452181877402599 
-0.0275205334999896 
-0.01432293754228946 
-0.03508667713794407 
-0.06703483198710046 
-0.001830829436329923 
0.0662102908993511 
-0.07529715896782432 
-0.06703483198710046 
-0.004132582595270689 
-0.001830829436329923 
-0.01846604627989279 
-0.02288995772028864 
-0.02457967600212786 
-0.08317792477979803 
-0.02288995772028864 
-0.09793931518197369 
-0.02457967600212786 
-0.02288995772028864 
-0.07942093228691952 
0.006910488309259412 
-0.1091535553190147 
-0.03674793832244819 
-0.02457967600212786 
-0.008988690935021321 
-0.1163280946880599 
0.0259535358585723 
-0.02457967600212786 
0.08744846725793637 
-0.02457967600212786 
-0.09320184126599963 
-0.02288995772028864 
-0.02457967600212786 
-0.02457967600212786 
-0.2764262560310244 
0.005920098734974391 
0.03447639801825259 
-0.175649245219743 
-0.08861411299680662 
-0.1626581900571205 
-0.136934774741762 
0.3467616469277813 
-0.3328523677184864 
0.005920098734974391 
0.07271935543721238 
0.02409021026151509 
0.07313683666913084 
0.005920098734974391 
0.115944869494166 
-0.08861411299680662 
-0.08861411299680662 
0.005920098734974391 
-0.06512693491163556 
-0.01378081307129145 
-0.04816232787726576 
-0.3168452576663777 
0.03345049885904615 
-0.02048986860760309 
0.1455283731545062 
-0.1669432674461765 
-0.01396861831445577 
-0.01396861831445577 
-0.04816232787726576 
-0.3168452576663777 
-0.02073576655135927 
0.008120051408643133 
-0.01624581868572048 
-0.1520590772798576 
-0.05867337891864998 
-0.01378081307129145 
-0.01378081307129145 
-0.029188148577535 
-0.0001529336542081769 
-0.004328078207126634 
-0.06205886324393463 
-0.03742868391550198 
0.003032531208712335 
-0.0001878052431643158 
-0.029188148577535 
-0.003098650656516664 
-0.03786772402693712 
-0.03742868391550198 
-0.0001878052431643158 
-0.01244252052099198 
-0.029188148577535 
0.04715058908130852 
0.001683001544770453 
-0.0387503995489601 
0.001683001544770453 
0.001683001544770453 
0.001804982196788344 
0.001683001544770453 
0.001683001544770453 
0.001683001544770453 
-0.03144797275736963 
0.001683001544770453 
-0.1709333019930932 
0.001683001544770453 
0.001683001544770453 
0.001683001544770453 
-0.005626104844183526 
-0.01164309266253652 
0.07555575349506254 
0.1218633482646877 
-0.01164309266253652 
0.1038510284785275 
0.1038510284785275 
0.1038510284785275 
0.1878035684756854 
-0.01164309266253652 
-0.1164530184229143 
0.1038510284785275 
-0.01164309266253652 
0.07555575349506254 
-0.1164530184229143 
0.1210378709370015 
0.1878035684756854 
0.1038510284785275 
0.07633374612117409 
0.1038510284785275 
-0.0004810350818495551 
-0.0004810350818495551 
-0.008957930975607131 
-0.0004810350818495551 
-0.03017975503247726 
-0.0004810350818495551 
0.004250950397745371 
0.0007504185524996758 
-0.01473810793493583 
-0.0004810350818495551 
-0.01997787798046923 
0.01641876730887784 
0.01056573350153388 
-0.01473810793493583 
0.05128675061792298 
-0.0103125977443887 
-0.0004810350818495551 
-0.01473810793493583 
-0.005782736332916106 
0.04431693163549606 
-0.005782736332916106 
0.007352880074096456 
0.007352880074096456 
-0.005782736332916106 
0.03474554994857135 
0.09681166356894079 
0.005784896135728622 
0.008042395788786832 
0.008042395788786832 
-0.08886923880255083 
0.005784896135728622 
-0.1081406644901849 
0.04404567173041729 
-0.0005622774373508998 
0.04221377944686973 
-0.002082753105940212 
-0.002082753105940212 
0.006787896597255944 
-0.05461954795172442 
-0.08069249739087749 
0.0006006862510728177 
0.03946618942750728 
-0.0005622774373508998 
-0.01953441076842081 
0.006963426397596388 
-0.006193193623762579 
-0.0005622774373508998 
0.0006006862510728177 
0.03946618942750728 
0.0006006862510728177 
-0.02245119262384815 
-0.02245119262384815 
-0.04408349247099676 
-0.006300627473824837 
-0.02580566668598019 
0.1519388675392204 
-0.01878472758976482 
-0.04690985435260128 
-0.08898820812394263 
0.03495340353842167 
0.0034646499160258 
-0.03528577224351884 
0.03495340353842167 
-0.2878435260102425 
0.03495340353842167 
-0.02228094709608888 
0.0001214119518460655 
-0.04440537034439256 
-0.04440537034439256 
0.1564968780219707 
-0.04440537034439256 
0.0001214119518460655 
-0.04306538432845065 
0.0001214119518460655 
-0.07489343016709496 
-0.03165288026982757 
0.0001214119518460655 
0.0002601507742282818 
-0.07089096218164109 
-0.04306538432845065 
0.004150903808310541 
-0.02450690004538754 
0.004150903808310541 
-0.02499358789718342 
-0.02499358789718342 
0.004150903808310541 
-0.02499358789718342 
0.004150903808310541 
0.004150903808310541 
-0.02450690004538754 
-0.02450690004538754 
-0.02499358789718342 
0.004150903808310541 
0.004150903808310541 
-0.006101303663615683 
-0.006101303663615683 
0.06549517451899568 
-0.02865298264567164 
-0.1599436035965419 
0.06549517451899568 
0.0149550403788544 
-0.006101303663615683 
-0.00521398815026278 
-0.08622289313942441 
0.2502599517379854 
-0.1596645924138999 
0.009156004751611721 
-0.006101303663615683 
-0.00521398815026278 
-0.008002074130717522 
-0.02475303407518334 
-0.006311918111223304 
-0.1370419201474485 
-0.01565557204153864 
0.0005398337783381689 
-0.07353307310887192 
-0.06856013506768002 
-0.06856013506768002 
-0.006311918111223304 
-0.08151985423065421 
-0.06722796664122885 
-0.01565557204153864 
-0.006311918111223304 
-0.01565557204153864 
-0.01191159164990384 
-0.01191159164990384 
-0.05373338463980867 
0.1076928217801407 
-0.05790545866387217 
0.1076928217801407 
-0.002667652097462263 
-0.002667652097462263 
0.0396467075912796 
-0.05790545866387217 
-0.002667652097462263 
-0.01191159164990384 
-0.01191159164990384 
0.01371561225476323 
0.1076928217801407 
0.05242377066895586 
-0.126371067184827 
-0.126371067184827 
0.01757929600038672 
0.01031774878811312 
0.0182418471012603 
-0.1169295254745578 
-0.04698117696277074 
-0.09948205732750585 
0.3949973579212561 
-0.02078465209404277 
0.002059715388703981 
0.01668788843235498 
0.6250262542664304 
0.01668788843235498 
0.006560230074210347 
0.01668788843235498 
0.166782188217991 
0.01668788843235498 
0.01729758149429374 
0.006560230074210347 
-0.05346953203623209 
0.01668788843235498 
0.006560230074210347 
0.01668788843235498 
0.008360993511052456 
-0.1171943095498487 
0.03323955787650226 
0.03323955787650226 
0.03323955787650226 
0.008360993511052456 
0.04536783915872335 
0.008360993511052456 
-0.1113178452848266 
-0.06585284836710624 
0.007240187684541344 
-0.06585284836710624 
0.03323955787650226 
-0.001166373467924984 
-0.003083703170086799 
-0.03766272476641817 
0.1660972186340384 
0.008853918717695974 
0.1660972186340384 
-0.001166373467924984 
-0.001175969433885422 
-0.009640609798051985 
0.01428811127531067 
-0.1259770200255499 
-0.1605425003399182 
0.06136519462524936 
-0.06875232691411676 
-0.1605425003399182 
-0.1259770200255499 
-0.1259770200255499 
-0.1605425003399182 
-0.1259770200255499 
-0.1605425003399182 
-0.1259770200255499 
-0.04641557996718237 
0.009238335962249813 
0.005316347489318094 
-0.04641557996718237 
0.01184458944693823 
0.02049271465575907 
-0.03952305263795396 
0.01184458944693823 
0.01312774060849732 
-0.04641557996718237 
0.004855371284290444 
0.004855371284290444 
0.01069790541287113 
0.004855371284290444 
-0.3091239083389267 
0.004855371284290444 
0.003918721397526334 
-0.06102917140329252 
-0.0004063413116781389 
-0.1492079899307282 
0.07622132406828425 
-0.3679074977033551 
0.003918721397526334 
-0.1076238550271642 
0.003918721397526334 
0.003918721397526334 
-0.01144165386910096 
-0.1197723296347831 
-0.08045495728826618 
-0.01365132691296521 
-0.007668908894731498 
-0.08045495728826618 
-0.02052271178321054 
-0.0003586564132113064 
-0.247692613358176 
0.01431618937732139 
-0.01786721080107804 
0.001922820202418571 
-0.02926135923306879 
0.005247983702356624 
0.05218379596717306 
0.01693160647829911 
0.01693160647829911 
0.03087511506018635 
0.03006058276282932 
0.007532754025867007 
0.007532754025867007 
-0.120520663643725 
0.007532754025867007 
0.007532754025867007 
-0.004290104144734542 
0.03087511506018635 
-0.02635301145875379 
-0.08708696999052527 
0.06346395342572331 
0.007532754025867007 
-0.2617517950326477 
-0.003674600391694077 
-0.01007373502102092 
-0.009475473206172215 
-0.04377630833873181 
-0.00394205570021839 
-0.01007373502102092 
-0.07864382777586089 
-0.01007373502102092 
0.008995877473981072 
0.008995877473981072 
-0.04410093039543028 
0.008995877473981072 
0.008995877473981072 
-0.07248966430126219 
-0.04410093039543028 
-0.1029251560224088 
0.01473918877559329 
0.06993273830111404 
-0.09688380100013549 
-0.1789193929330358 
0.01473918877559329 
0.01473918877559329 
-0.08457387931688683 
0.01473918877559329 
-0.1012372708723942 
0.06172397905633044 
-0.4271949247129824 
-0.08457387931688683 
-0.1526799203331684 
0.002109854564264228 
0.01859399698820721 
0.006095440798535459 
0.02103611735323851 
0.0007951091494856725 
-0.06475013033500822 
0.09100225430810013 
0.0007951091494856725 
0.006095440798535459 
0.001403973844767533 
0.002109854564264228 
0.002968833643743377 
-0.002296323589437109 
-0.03773205059649859 
0.02152908637280725 
-0.03773205059649859 
-0.02664274892745454 
-0.03773205059649859 
-0.02664274892745454 
-0.008804271666745139 
-0.001297181839632698 
-0.00170810166750846 
-0.02664274892745454 
0.004373800897184486 
-0.008804271666745139 
-0.001297181839632698 
0.002968833643743377 
0.005137720841224688 
0.005314823503453516 
0.005264822642359917 
0.006381244631610408 
0.03174394987958311 
0.005264822642359917 
0.004077991450434023 
0.001499739614644764 
0.001261488600454375 
-0.08139078213674754 
0.0006623421876201297 
0.04139867339975845 
0.02847965095377184 
0.009679769171776573 
0.02847965095377184 
0.001499739614644764 
0.004541847509571711 
0.04139867339975845 
0.001261488600454375 
0.009679769171776573 
0.6494241161244722 
0.001261488600454375 
0.009679769171776573 
0.001499739614644764 
0.3417151520158693 
-0.009871064998578915 
0.001877170535696487 
-0.01014484742746365 
0.001877170535696487 
0.001877170535696487 
-0.0489266581731355 
-0.001202362128404102 
0.009452889029311014 
0.2845140465031679 
-0.001202362128404102 
0.5957049200748521 
0.02334792537758625 
-0.001202362128404102 
-0.03625298384918704 
-0.0126147279821824 
0.02522896844424673 
0.002940279285125502 
0.0205355669122945 
0.01076877350165158 
0.01076877350165158 
0.2489035517341876 
0.006813467283081626 
0.02522896844424673 
0.01076877350165158 
0.01076877350165158 
0.0766872042522655 
0.01076877350165158 
0.01076877350165158 
0.04066474924325914 
0.01044182348484805 
-0.0004271576713935813 
-0.0004271576713935813 
-0.07566482974443596 
-0.001239184886008723 
0.004919159946745867 
-0.02363894618255004 
-0.0004271576713935813 
-0.02363894618255004 
-0.0004271576713935813 
0.01994526669341372 
-0.0004271576713935813 
-0.01993975437021275 
0.1264351677680225 
-0.0004271576713935813 
0.1987840662234084 
0.04016092827737673 
0.04016092827737673 
0.04016092827737673 
-0.00642581210177736 
0.1769289385778672 
0.0435331358683037 
-0.0230050942878203 
0.1987840662234084 
-0.0230050942878203 
0.1891715475178801 
-0.003286182893373885 
0.03825231238565219 
-0.0230050942878203 
0.001249777739204902 
0.1987840662234084 
-0.0230050942878203 
0.04016092827737673 
0.04016092827737673 
-0.09228224346809097 
0.0435331358683037 
0.04606409481076157 
0.05230175830109105 
-0.01040352210386263 
-0.02741613067590946 
0.01008984340410428 
-0.002236574368590635 
0.04606409481076157 
-0.01040352210386263 
0.05940933177524411 
0.0001166564932685163 
-0.01040352210386263 
-0.05544164367533945 
-0.01040352210386263 
-0.05544164367533945 
-0.05544164367533945 
0.03868554598295313 
0.03862123848119252 
-0.005280823482651504 
-0.008372420611924756 
0.1810860735988724 
0.05443641917350911 
0.09075662410068293 
0.03868554598295313 
0.008199016305256105 
-0.008372420611924756 
0.1810860735988724 
0.03868554598295313 
-0.008372420611924756 
-0.008372420611924756 
0.1877533106370863 
-0.04343951519545591 
-0.1026150862640045 
-0.04343081474683785 
-0.04343951519545591 
-0.1050513917541686 
-0.1026150862640045 
-0.04343951519545591 
-0.04343951519545591 
-0.1026150862640045 
-0.04127115695504611 
-0.04127115695504611 
-0.05646110809729862 
-0.06977970425182752 
-0.04323848476287549 
-0.01039086422488269 
-0.01052662051256175 
-0.005631297791941329 
-0.01039086422488269 
-0.01039086422488269 
-0.04323848476287549 
-0.07989822680549501 
-0.001766856877370626 
0.09400746400581533 
0.01951485218518857 
0.01951485218518857 
-0.001766856877370626 
-0.001766856877370626 
-0.09966083274025979 
-0.01186546127643614 
-0.04323848476287549 
0.03579015419340227 
-0.04323848476287549 
-0.00184532367193004 
-0.00184532367193004 
-0.0009031311891123404 
-0.008852520043961644 
-0.0007895672311046365 
0.05145975787666487 
0.01991709093842202 
0.0233182400068104 
-0.008852520043961644 
-0.0009031311891123404 
0.01544783277144294 
-0.008852520043961644 
-0.008852520043961644 
0.007787449806791118 
-0.004244985506499373 
-0.008852520043961644 
-0.06708355399214484 
0.0233182400068104 
-0.0009031311891123404 
-0.004244985506499373 
-0.006465071439185606 
0.1017808335024683 
0.2454325860078204 
0.1578604321396765 
-0.004731531317173716 
-0.03094550899856124 
0.02602221338106403 
0.04250544585250853 
0.01891170370988318 
-0.004731531317173716 
0.002027768387688133 
0.5321107945307891 
-0.004731531317173716 
-0.0253482993802387 
-0.006465071439185606 
-0.01941801747843738 
0.004490242887745338 
-0.05176629448410958 
0.01415532504867721 
-0.1746187330272556 
-0.04208604692100323 
-0.02841605083936872 
-0.01496502417133493 
-0.03826941689801806 
0.1906402767778699 
-0.1746187330272556 
-0.05898937927631195 
-0.03826941689801806 
-0.191681422277769 
-0.04208604692100323 
0.0600661117687234 
-0.04134126754655888 
-0.3027588763151013 
-0.04208604692100323 
-0.03826941689801806 
-0.1543345013064472 
-0.02192692414125104 
0.005928536287999706 
-0.02192692414125104 
-0.02192692414125104 
0.02973208348710806 
0.4431148208271032 
0.2776869582694537 
-0.01197925600934359 
0.008381047598346163 
0.2531008761522179 
0.008381047598346163 
0.005928536287999706 
-0.01197925600934359 
-0.01301996252532817 
-0.01197925600934359 
-0.01197925600934359 
-0.02192692414125104 
0.01770402347315028 
-0.0313266058652389 
-0.0313266058652389 
-0.03057201372758357 
-0.0313266058652389 
-0.03306990780440115 
-0.03057201372758357 
-0.0041278134339352 
-0.03306990780440115 
-0.05209012011572731 
-0.02475299928453533 
-0.0001786488891681818 
-0.008529316180541745 
0.03469680768628857 
-0.0001786488891681818 
-0.04282968060916783 
-0.0001786488891681818 
-0.0001786488891681818 
-0.2634759248844514 
-0.002565840709748136 
-0.0444314461748103 
0.03469680768628857 
-0.0001786488891681818 
-0.002459901090997406 
-0.008847763348710116 
-0.1895756019235762 
0.03469680768628857 
0.006982840267833634 
0.04187098079488904 
0.01143044636874865 
0.0403729799779528 
0.09700921856572772 
0.01143044636874865 
0.1007052740285869 
0.01143044636874865 
0.248354471410623 
0.002079435685973748 
0.03054376806826564 
0.02838025320685127 
0.002079435685973748 
0.02076264270261433 
0.002079435685973748 
0.02838025320685127 
0.01143044636874865 
0.1074197252238476 
0.002079435685973748 
0.2651848110142792 
0.02076264270261433 
0.01414261226656855 
0.1267779923025126 
-0.008653235922110245 
0.3061729537065151 
0.004618520191141594 
0.2386780370979604 
0.004618520191141594 
0.004618520191141594 
0.01414261226656855 
-0.006766784159276635 
0.1267779923025126 
0.5226561848404844 
0.04617590974465579 
-0.05097222945336214 
-0.01021927742151771 
-0.004381004714888084 
-0.01846611426977777 
-0.004381004714888084 
0.02625266582659203 
-0.002007514575149826 
-0.01194865713421887 
-0.01111449966981687 
-0.008005348879076569 
-0.006683810739799935 
-0.008005348879076569 
0.08032286682611034 
0.1401236243493648 
-0.03543782965650716 
-0.003304317089741262 
-0.04875220102054117 
0.0579687471681675 
0.01338734662091379 
0.01450205096795495 
0.01230461966021511 
0.02278721362108865 
0.01840508612799283 
-0.04061037699901117 
-0.04303147025592793 
0.01395059248678008 
0.0374713786293278 
-0.04061037699901117 
0.0374713786293278 
0.0579687471681675 
0.5106180011166928 
0.0579687471681675 
-0.03010506160407189 
0.2515915657038809 
0.0579687471681675 
-0.0592318083672548 
-0.0592318083672548 
-0.03178481217297592 
-0.4671427343749806 
-0.07897680269253315 
-0.03315368570667027 
-0.035454551013291 
-0.035454551013291 
-0.0592318083672548 
-0.035454551013291 
-0.03178481217297592 
-0.01132127013350077 
-0.02962873359489008 
-0.03178481217297592 
-0.01132127013350077 
-0.03178481217297592 
-0.05164287391855275 
-0.03178481217297592 
-0.03178481217297592 
-0.00908857841929433 
-0.03178481217297592 
-0.04744183259239883 
-0.01721519657431229 
-0.00446989039484174 
-0.001007305046832267 
-0.0008087548734522044 
-0.1058979800365302 
-0.001007305046832267 
0.07755351053253196 
-0.01488963265990035 
0.03297268670275576 
-0.001007305046832267 
0.0009219124621133308 
-0.02582314606997393 
-0.05789511420496284 
0.02652244895824474 
-0.05789511420496284 
-0.1384538467331805 
-0.3845361208872316 
-0.1029590722804083 
-0.04448674111691773 
0.04795104311217358 
-0.05789511420496284 
-0.04934576853911222 
-0.07984015081216359 
-0.07984015081216359 
-0.08708367025956984 
-0.1029590722804083 
-0.0607995014697961 
-0.1008940432526215 
-0.04228302103630904 
-0.04228302103630904 
-0.01774915289681687 
-0.01774915289681687 
0.03138020432908606 
-0.01774915289681687 
-0.0196887803545553 
-0.01818793438433303 
0.006362837784330876 
-0.0196887803545553 
-0.1737629809390366 
0.09072768037959966 
-0.03474547833320627 
-0.01774915289681687 
-0.0607995014697961 
-0.01532733010068117 
-0.01462086485769635 
-0.01462086485769635 
-0.01532733010068117 
-0.04125059622616237 
-0.01532733010068117 
-0.01532733010068117 
0.05395308327357602 
-0.05482578478189075 
0.5555752479371743 
0.003092509084953866 
-0.01777535126433914 
0.291691311747603 
0.2051909167146153 
-0.05482578478189075 
0.007697364861286659 
0.007697364861286659 
-0.05482578478189075 
-0.02188536827437476 
0.05427940074596012 
0.05395308327357602 
0.02059190360588145 
-0.01129880112388039 
-0.01452849180885309 
-0.121660307960168 
-0.01452849180885309 
-0.04481729622359534 
-0.121660307960168 
-0.01452849180885309 
-0.01452849180885309 
-0.01452849180885309 
-0.01452849180885309 
-0.04481729622359534 
-0.03429170273460613 
-0.01452849180885309 
-0.04481729622359534 
-0.121660307960168 
-0.01452849180885309 
-0.1268367600966591 
0.01822384585510485 
0.004397739129132247 
-0.03749512620518182 
0.004397739129132247 
0.004397739129132247 
0.01061346483456226 
-0.005045705731955806 
-0.01190773204558478 
0.01822384585510485 
0.2271700239221935 
0.3683229338644182 
-0.03749512620518182 
0.004397739129132247 
-0.005045705731955806 
0.5198470437084273 
0.004397739129132247 
0.01042421951973068 
0.1362909804667111 
0.004397739129132247 
-0.005045705731955806 
-0.06499578944821456 
0.01122803760321141 
0.01122803760321141 
0.01122803760321141 
0.006876126161166429 
-0.05847862332258663 
0.008497900438743839 
-0.04172159546096127 
0.06481533086017228 
0.003200182208269369 
0.6867276073444438 
0.01893484948803465 
0.01893484948803465 
0.3050512152652666 
0.01893484948803465 
0.01893484948803465 
0.0163665426989702 
0.007785481342575441 
-0.01184998276188251 
-0.01184998276188251 
-0.01184998276188251 
-0.12556773257625 
-0.04422249112398293 
0.1872554302496113 
0.1872554302496113 
-0.03680587595347617 
0.1872554302496113 
-0.01184998276188251 
0.1872554302496113 
-0.03794162371076167 
-0.03680587595347617 
0.005863590079321783 
-0.003616644786937998 
-0.003616644786937998 
-0.02241852853669711 
-0.06199415851839937 
-0.0007332711741868172 
-0.003616644786937998 
-0.05966599572341886 
-0.003616644786937998 
-0.01558657571984365 
-0.003382743006097757 
-0.03727761186318427 
0.1112945056511037 
0.07536804565881489 
-0.02241852853669711 
0.01487739541385849 
-0.02241852853669711 
-0.02904645285139271 
0.01806050434629192 
-0.01528170645786645 
-0.01528170645786645 
-0.01528170645786645 
-0.06895960760504546 
-0.01528170645786645 
-0.01528170645786645 
-0.01528170645786645 
0.01758813952902731 
-0.001333218975926387 
-0.06029897999690871 
0.03708095584439802 
-0.001333218975926387 
0.03708095584439802 
0.03708095584439802 
0.03708095584439802 
-0.001333218975926387 
-0.001333218975926387 
-0.001333218975926387 
0.0007886832081521354 
-0.001333218975926387 
-0.01334783933218255 
-0.001333218975926387 
-0.007163271982524254 
-0.007163271982524254 
-0.007163271982524254 
-0.002212761266795205 
-0.1134939346958973 
-0.08066593675804584 
-0.005196678287318504 
-0.01119289845825694 
-0.002212761266795205 
-0.01831921794746455 
-0.008942891906219852 
-0.01201437550933789 
-0.001193226229265496 
-0.003448576818092196 
-0.1183381055716374 
-0.0007314135785393769 
0.02670164867792267 
-0.003448576818092196 
0.00719836322864225 
-0.003448576818092196 
-0.0007314135785393769 
-0.1235746616273339 
-0.0007314135785393769 
-0.0007314135785393769 
-0.0007314135785393769 
0.007746576056470348 
-0.0007314135785393769 
-0.03880399132923223 
0.002163180482286818 
0.002163180482286818 
0.0108688181936723 
0.09102926929677005 
0.01829989903539391 
0.001218932572726121 
0.002163180482286818 
0.002163180482286818 
0.1344951717290384 
0.002163180482286818 
-0.02607406482046422 
0.002163180482286818 
0.01543730469610794 
-0.007849340286355304 
0.0165118578942496 
-0.008626072597838964 
-0.02986310502366226 
-0.01338393838310326 
-0.07912234135597845 
-0.01338393838310326 
-0.01338393838310326 
-0.2748409609512858 
-0.058997142063885 
0.01873445797325854 
0.02993432555601378 
-0.058997142063885 
-0.07912234135597845 
-0.01338393838310326 
0.02993432555601378 
-0.058997142063885 
-0.01338393838310326 
-0.1022785380855391 
-0.058997142063885 
-0.0005511464221883881 
-0.3650053724273859 
-0.02599371766271262 
-0.0007676335411084608 
-0.0005511464221883881 
-0.0005511464221883881 
-0.1146111115601977 
-0.1107576843504152 
0.01074041226313927 
-0.1763950396536257 
0.01074041226313927 
-0.3650053724273859 
-0.0005511464221883881 
0.0006180347067213735 
0.0002835498230783033 
-0.0001011816646321096 
0.1256248572971877 
0.1256248572971877 
0.05544080041710706 
0.0002835498230783033 
0.0006180347067213735 
0.01312237699760635 
0.0003819402937495115 
0.01404140591175279 
0.0006180347067213735 
0.05997961269741157 
0.1161766836408529 
0.002700876456000134 
0.002700876456000134 
0.001015093412841197 
-0.001195682844484858 
-0.007668964992154942 
-0.04849678563769572 
-0.005175196508435765 
0.02821916870589584 
-0.04849678563769572 
-0.005175196508435765 
-0.01423840332735146 
0.04272417622971342 
-0.005175196508435765 
0.0862809661664482 
-0.006440798980836483 
-0.03017369149830451 
-0.1022233217403897 
-0.03516036711034298 
0.0149644924620517 
-0.06290211308956078 
-0.005175196508435765 
-0.01826691943164575 
-0.01826691943164575 
-0.002288473814820465 
-0.002288473814820465 
0.005088040497456417 
0.005088040497456417 
0.005088040497456417 
-0.1323708220180667 
-0.0009378210671360606 
-0.002288473814820465 
-0.002288473814820465 
-0.01826691943164575 
-0.1311361283477277 
-0.01826691943164575 
-0.04466391131907842 
0.01356235021036054 
0.01926282553608228 
-0.06117207614343993 
0.001267000032662839 
0.02223664776110205 
-0.07280483391645698 
0.02758504909679925 
0.01475489058371184 
-0.00382642146631508 
0.0021354094656645 
-0.03199345832402854 
-0.0942665299417037 
-0.00766156582344474 
-0.07269716800801664 
0.04972315719043111 
-0.003610226060734888 
-0.1633810279045743 
-0.2185096239535127 
-0.3012892043398858 
0.004611909223769873 
-0.07371607281632296 
-0.6209444651707011 
-0.006120360016836118 
-0.1703993268617505 
0.00248520093155108 
-0.03468298158929861 
0.01669096922634203 
-0.001798832413133787 
-0.01246689666163116 
-0.001798832413133787 
-0.001798832413133787 
-0.01246689666163116 
0.01217613207388724 
-0.01154795200347252 
-0.03616692829553571 
-0.08900042187074976 
-0.001798832413133787 
-0.01036942512490113 
-0.01246689666163116 
-0.001798832413133787 
-0.03616692829553571 
-0.006772256065212317 
0.01669096922634203 
-0.1398180673384569 
-0.2207597247201733 
-0.004831379608565454 
-0.004831379608565454 
-0.004831379608565454 
-0.001774751656793381 
0.0005449811930132145 
-0.01132286484108627 
-0.0662167144814511 
-0.004831379608565454 
-0.005681714470956526 
0.002906884818989179 
-0.001774751656793381 
-0.2627865301598158 
-0.00640585052011662 
0.004660371209731514 
0.005693921727107981 
-0.02619068231189144 
-0.001876341216284545 
0.001166571516398131 
-0.02619068231189144 
-0.008495004736646864 
0.005693921727107981 
-0.002107911655621787 
-0.002379667083646199 
-0.06282824943546997 
-0.02619068231189144 
-0.0473687114907345 
-0.02233627582963783 
-0.05361260364872066 
-0.01346618145391471 
-0.0473687114907345 
-0.02233627582963783 
-0.1088753360357734 
-0.05361260364872066 
-0.00408996303527677 
-0.02397394519506586 
-0.04195698075911015 
0.003448051354981463 
-2.040534864834241e-05 
0.003448051354981463 
0.001155283687636718 
-0.02680005648909883 
-0.005210458497929962 
-0.05416505722314748 
-0.00408996303527677 
0.007358437758974675 
-0.005210458497929962 
-0.05411375952350712 
-0.02680005648909883 
-0.01810920307065854 
0.01759380541266155 
0.01001069906695001 
0.01759380541266155 
-0.009448173656334812 
-0.0009815062127311331 
-0.009448173656334812 
0.03542719489411873 
-0.0009815062127311331 
-0.009448173656334812 
-0.009448173656334812 
-0.01087729190784944 
-0.009448173656334812 
-0.009448173656334812 
-0.03305765739311316 
-0.003835524381696427 
-0.03284097449981384 
0.004139717100522204 
0.005811213404809803 
-0.0679985418821013 
-0.0679985418821013 
-0.07022286113848436 
-0.07022286113848436 
-0.07022286113848436 
-0.3610021474796919 
-0.134815437465429 
-0.0679985418821013 
-0.2158358535778892 
-0.001238861330534968 
-0.003045052240626702 
-0.001238861330534968 
-0.001238861330534968 
-0.1011304057688445 
-0.01011073999624873 
0.001865387542949492 
0.001865387542949492 
0.001865387542949492 
-0.01248934309987861 
-0.001238861330534968 
-0.008537524128092871 
-0.003626782981374677 
-0.003786699945180156 
-0.001534713579261155 
0.02113360785625614 
-0.003626782981374677 
-0.001534713579261155 
-0.01596226603115464 
-0.0178471688956177 
-0.04916943019555405 
-0.01596226603115464 
-0.07487372452019311 
-0.02738160898728187 
-0.01596226603115464 
0.001898573378813551 
-0.00126475444144723 
0.003787157527153057 
-0.03166139507008948 
-0.03817371021119614 
-0.03342475875777975 
-0.001843440055959211 
-0.02143820004655414 
0.1615118678658925 
-0.01544648684913605 
0.02074948793549644 
0.04606185342430049 
0.00174552897473171 
-0.03928148212638146 
0.04170661584067052 
0.1798888099677715 
-0.003198276673829025 
0.00174552897473171 
0.05277252276403752 
0.007935425588259834 
0.008099961919101246 
0.04772181247457206 
0.04667036418468018 
0.04320855619571232 
-0.0006504419234710252 
0.0006489252697031167 
-0.08733201290224799 
-0.03031870574981091 
-0.05725409671716829 
-0.01093310852936086 
-0.004045207684623579 
-0.0006504419234710252 
-0.3020979157059323 
-0.0006504419234710252 
-0.0006504419234710252 
-0.0006504419234710252 
-0.002012281034894875 
0.2787857441101482 
0.005903909077460339 
0.0006560034200578236 
-0.04541297397612599 
0.0006560034200578236 
-0.05018487534141827 
0.2787857441101482 
-0.05018487534141827 
-0.05018487534141827 
0.2787857441101482 
0.06377809798379838 
0.1120961563354959 
0.01807909705717139 
0.01807909705717139 
0.002939265020229661 
0.002939265020229661 
0.002939265020229661 
0.01895215038059369 
0.002939265020229661 
0.002939265020229661 
-0.08558204495301634 
0.2141029178189065 
0.006235501109486573 
0.08068950610004057 
0.01807909705717139 
0.009181967090385669 
0.009181967090385669 
0.01807909705717139 
-0.05877189200396381 
0.3510691856708393 
0.06603937377852082 
0.002939265020229661 
0.1536304088947734 
0.06916132042233547 
0.01144851375059369 
0.02714386821188501 
-0.01537608305568569 
0.05347880211534339 
-0.07186983474492284 
0.07271261177910691 
0.009565223937080683 
-0.04132238270197143 
0.009565223937080683 
0.01144851375059369 
-0.04132238270197143 
0.01144851375059369 
-0.006947719455134163 
0.03960222578587978 
0.07110266960953922 
0.04940616142460433 
0.00910901293330452 
0.001113259317122188 
0.04940616142460433 
0.001113259317122188 
-0.02197429859262269 
-0.008641304480711997 
-0.05179955445670101 
0.001113259317122188 
-0.009456841550597273 
0.01722430303311469 
0.04940616142460433 
-0.03604327672838194 
-0.009685694176572291 
0.05098374684836138 
0.0008606456183258477 
0.007868232279084793 
0.02967557560985244 
0.03699447986121129 
0.00532413549802425 
0.03699447986121129 
0.03699447986121129 
0.00532413549802425 
0.00532413549802425 
0.00532413549802425 
0.05453743956943575 
0.00532413549802425 
0.005782767670397664 
-0.07084815164849312 
0.005782767670397664 
0.005782767670397664 
-0.06883363786409843 
0.009291469014151938 
0.005782767670397664 
0.105921011237472 
0.008981354025923278 
0.005782767670397664 
0.009291469014151938 
-0.01212971942576599 
-0.013606750461239 
-0.001485693734016546 
-0.08852746909485168 
-0.003733096215709872 
-0.002685473954396396 
-0.013606750461239 
-0.02625231682285896 
-0.01212971942576599 
-0.01621597388355807 
-0.007482149958926854 
0.03580113432320925 
-0.09163891644655099 
-0.1316461367673646 
-0.0163180794136381 
-0.06260045155623836 
-0.1324680702534224 
-0.1324680702534224 
-0.06021385530197161 
-0.0163180794136381 
-0.01791969716261438 
0.0289957632457126 
-0.2088653431899438 
-0.01791969716261438 
-0.02906060429072896 
0.1568286976775515 
0.06023355569424627 
0.03223585491191217 
0.140400602440761 
0.001797903103970344 
0.1568286976775515 
0.006871072819479104 
0.03223585491191217 
0.001797903103970344 
0.03223585491191217 
0.006871072819479104 
0.001797903103970344 
0.01634833015727979 
-0.09190069120129155 
0.2508845303838142 
-0.008953011798996494 
0.01457101049276789 
0.01389101703611898 
0.01634833015727979 
0.5673925805709938 
0.1242439081946963 
0.4223457511721272 
0.0130952777736257 
-0.01595640299951041 
0.1242439081946963 
-0.01951778766425508 
-0.06523393987184632 
0.1242439081946963 
0.04957791290139982 
-0.0009372805259454057 
0.03490685626174816 
0.0002601200734022559 
-6.534293785024703e-05 
0.002533236343188139 
-0.0009372805259454057 
-0.0602602951453445 
-0.05901803876279892 
0.002533236343188139 
-0.03484551664232791 
-0.06178281928019676 
-0.03716674351364397 
-0.03484551664232791 
-0.02180705813882083 
0.002533236343188139 
0.1178218397602336 
0.09380465192823469 
0.01957928753116231 
-0.06972778659086977 
0.02164413126302929 
-0.1180798924241554 
0.02331178683978678 
0.02331178683978678 
0.02331178683978678 
0.02331178683978678 
-0.06626773723726791 
0.07883743038318512 
0.03414045013652175 
0.06807122627475706 
0.2353759890152709 
-0.1180798924241554 
-0.1183901680982549 
0.02164413126302929 
0.3459890916888499 
-0.02278648507179642 
0.5916670503600766 
-0.04485769612377834 
0.06029244008086473 
0.03361583377274624 
0.06029244008086473 
0.01081865497824137 
-0.04485769612377834 
0.06029244008086473 
-0.04485769612377834 
0.01906501476768772 
-0.003707411225821565 
-0.003707411225821565 
0.06029244008086473 
0.01906501476768772 
-0.0989536230404285 
-0.05268370143476138 
0.03761447778718188 
-0.01756178781457407 
-0.03306606648341889 
-0.01682556005345705 
-0.02506448377975473 
-0.01682556005345705 
0.05223026450841294 
0.05223026450841294 
0.04704152462289528 
-0.0204209912607927 
-0.01756178781457407 
-0.04105593370123668 
-0.04105593370123668 
-0.08831584791718307 
0.0009811100284980237 
0.1960591141831823 
0.1960591141831823 
0.09205579799930201 
0.004476957458181526 
0.01821421492707246 
0.04591631356272775 
0.0009811100284980237 
-0.0916062115864477 
-0.00232055696561258 
-0.03501685197678355 
-0.04909392458466178 
-2.906573150675927e-05 
-0.0005610766190975876 
-2.906573150675927e-05 
0.03340457236736878 
-2.906573150675927e-05 
-0.00232055696561258 
-0.0005610766190975876 
-0.03501685197678355 
-2.906573150675927e-05 
-0.09700220617122809 
-0.003429290971751894 
-0.1506719154759222 
-0.001123570726796576 
-0.001123570726796576 
-0.001123570726796576 
-0.001123570726796576 
-0.001123570726796576 
0.02148302200851069 
-0.003661511590163681 
-0.0381070470053906 
-0.01943698961976639 
-0.01943698961976639 
-0.1025944565295765 
0.008445338692194793 
-0.02101125986799868 
0.0004079533338640752 
0.000991464720685523 
-0.1523673064421824 
0.000991464720685523 
0.000991464720685523 
0.000991464720685523 
0.000991464720685523 
-0.147894275893636 
-0.1523673064421824 
-0.1025944565295765 
-0.0437593138592004 
0.005162854919803547 
-0.03311380604603057 
0.03577099723877209 
-0.03224398786622134 
0.005162854919803547 
-0.03242248257315416 
0.01113991249375185 
-0.009555026675659344 
0.06550639394984835 
0.06550639394984835 
-0.04215233311116708 
-0.0005608943307532678 
0.1082619788830251 
0.0503687301290411 
-0.0005608943307532678 
-0.001355074455006969 
-0.08738851588125368 
-0.01174741205331176 
0.00857657119470067 
-0.003486324421167738 
-0.003486324421167738 
-0.02706858295132385 
0.1082619788830251 
-0.02422421685777396 
-0.02658601082164937 
0.265977041567023 
-0.003099244750066916 
0.265977041567023 
-0.003099244750066916 
-0.003099244750066916 
-0.003099244750066916 
-0.006437614880526715 
-0.005298713382111175 
-0.003099244750066916 
0.04874018260560781 
0.1512396634533735 
-0.0102011050624718 
-0.03478822899616112 
-0.03478822899616112 
0.002006256134615501 
0.01548546071355944 
0.009353237324448704 
-0.03478822899616112 
0.009353237324448704 
0.009353237324448704 
0.009353237324448704 
0.03486012363547734 
-0.2420939201145423 
0.4184196418991324 
-0.0150771521057391 
0.04317553904608051 
0.5393607200944961 
0.003490910567761732 
0.02309467565877481 
0.003490910567761732 
0.003490910567761732 
0.185504440020901 
-0.01282159456744652 
0.003490910567761732 
0.00642973276988813 
0.03325716779450689 
0.01986494228516575 
-0.0150771521057391 
0.03001465582699968 
0.03032045655753438 
-0.007565847789889947 
-0.002729863736990173 
-0.03288099060394035 
-0.03288099060394035 
-0.004582621914495608 
-0.1110810930213203 
-0.1009696446294747 
-0.02493092162429511 
0.002039373949709741 
-0.01446673125918746 
-0.007291083465987835 
-0.01903715079296638 
0.003417812101074052 
-0.007291083465987835 
0.03062997800672563 
0.001707153043035321 
-0.03288099060394035 
-0.1110810930213203 
0.05830681646935137 
-0.05295290965026483 
-0.05295290965026483 
-0.05295290965026483 
9.647964160467532e-05 
-3.875288176019443e-05 
0.001586869874323468 
0.005230682603657796 
0.02066646744734634 
0.001586869874323468 
-0.03789945722295179 
0.01520875888628949 
-0.01747305868155602 
-0.03789945722295179 
-0.02071325358395904 
-0.05107399350244961 
-0.003144664644954666 
-0.01747305868155602 
-0.03789945722295179 
-0.01222218042639257 
-0.0506463604930279 
0.0007046482652032448 
-0.01564578846591555 
0.001207385468506662 
-0.1087963517990698 
-0.00186451207676123 
0.001056248022587869 
-0.292846920462171 
-0.01733028953648999 
0.009036159725221102 
0.08786802200231257 
-0.1085446765875712 
-0.1823337728472538 
-0.008348243345530321 
0.001056248022587869 
-0.292846920462171 
-0.006587966500624458 
0.001056248022587869 
-0.004278797154755451 
-1.37427934291271e-05 
-1.37427934291271e-05 
-1.37427934291271e-05 
-1.37427934291271e-05 
-1.37427934291271e-05 
-1.37427934291271e-05 
-1.37427934291271e-05 
-1.37427934291271e-05 
-0.02603755844033204 
0.1007362694190333 
-0.01035110657959673 
-0.003194103471381375 
-0.003194103471381375 
-0.0294259400165013 
-0.01367186182247703 
0.002023098425149794 
-0.003194103471381375 
0.03528010443905299 
0.08244154859658896 
-0.02130992151223238 
-0.05228145413233891 
-0.02943251179587639 
-0.0006619451151410583 
0.1564625162910472 
-0.0006619451151410583 
-0.0006619451151410583 
0.1564625162910472 
-0.01588022773173914 
-0.0006619451151410583 
-0.0006619451151410583 
0.1564625162910472 
-0.03122521551387937 
0.1564625162910472 
-0.000430333170086331 
-0.005945969909922728 
-0.0191710607587941 
-0.005945969909922728 
-0.0191710607587941 
-0.0006313884019152662 
-0.0002926510260765648 
-0.03448837022345407 
-0.0191710607587941 
0.03452630311214649 
-0.05998163531641383 
0.001256114461197488 
-0.06345046212494448 
-0.05165181522262434 
-0.07138440782069271 
0.03452630311214649 
0.001256114461197488 
0.001256114461197488 
-0.06425934350688151 
0.03452630311214649 
0.03452630311214649 
0.001256114461197488 
-0.008035704414282927 
0.005990513588564821 
0.02070516249656379 
0.005990513588564821 
0.005990513588564821 
0.005990513588564821 
-0.03629286562658125 
0.01170255420545878 
0.02257371506976852 
-0.0715480387765052 
-0.0137612814169871 
-0.2185485119874093 
-0.03793798113608964 
-0.0006965585450819165 
-0.2185485119874093 
-0.09159746135841357 
-0.05788147276129971 
-0.003991096703447621 
-0.003991096703447621 
-0.5390441604262339 
-0.003991096703447621 
-0.2180978762877017 
-0.2167686626143276 
0.1440719638652347 
0.008208759244785355 
-0.09579122892792348 
-0.03855986096571874 
-0.06097276474755732 
-0.04193167580162242 
-0.04970330390795031 
-0.09660224640701963 
0.01134808620214184 
-0.05515757335665656 
-0.04193167580162242 
-0.4208543812247465 
-0.1294211358083042 
-0.06043524848039102 
-0.06097276474755732 
0.05426160181354785 
-0.0481012229930917 
-0.07508420808451531 
0.04751606241322839 
0.006160419719619819 
0.615745661668112 
0.09720314783456746 
-0.03115792440721005 
0.04751606241322839 
0.04751606241322839 
0.01112460898633099 
0.04751606241322839 
-0.03191525942954045 
0.006160419719619819 
0.001470859855573321 
0.4694509472927798 
0.01004628913586073 
0.01264670182432118 
0.006160419719619819 
-0.03254821962692614 
0.002357082404006572 
0.002357082404006572 
0.002357082404006572 
-0.0437527528957347 
0.002357082404006572 
0.002357082404006572 
0.002475835917096221 
-0.02113574492874451 
0.002357082404006572 
0.001763474165193171 
-0.03254821962692614 
0.03903218165959419 
-0.03254821962692614 
0.002357082404006572 
0.09837119851943658 
-0.01600626791092744 
0.04239299075239995 
0.006209628730625058 
-0.01600626791092744 
0.04239299075239995 
-0.1049066298517968 
0.0590207623228928 
0.006209628730625058 
-0.05894383248918914 
-0.01600626791092744 
0.006209628730625058 
0.006209628730625058 
0.006209628730625058 
0.04239299075239995 
0.009149464033470611 
-0.0003704232348108354 
-0.0003704232348108354 
0.009149464033470611 
-0.005444745822732742 
-0.005444745822732742 
-0.005444745822732742 
-0.005444745822732742 
0.01277959826217377 
-0.03508936134471764 
-0.005444745822732742 
-0.08359670558721152 
-0.005870055426597994 
0.02638662531170321 
-0.006176613878514464 
-0.005444745822732742 
-0.005444745822732742 
0.004986962857960871 
-0.01509329944078126 
0.06748514741234383 
-0.06723353939464639 
0.004574641403219397 
0.004986962857960871 
-0.04867490906702099 
0.004986962857960871 
0.004986962857960871 
0.06670973383689727 
-0.01509329944078126 
0.1821415311867753 
0.004986962857960871 
0.004986962857960871 
0.06361986721495035 
0.0748902551123154 
0.0748902551123154 
0.0748902551123154 
0.1303492361866036 
0.0748902551123154 
0.0400032007574071 
0.0748902551123154 
-0.04557522092756074 
0.0748902551123154 
0.0748902551123154 
0.0400032007574071 
0.03876256004985001 
0.01285520127083782 
0.01285520127083782 
0.0748902551123154 
0.0748902551123154 
0.0400032007574071 
0.0004692140981273471 
0.0004692140981273471 
0.0004692140981273471 
0.0004692140981273471 
-0.2839000385437558 
0.0004692140981273471 
0.0004692140981273471 
0.0004692140981273471 
-0.166269484819292 
0.0004692140981273471 
0.0004692140981273471 
0.0008817698800293153 
-0.00567628216444548 
0.0004692140981273471 
0.0004692140981273471 
0.003886510752228657 
-0.03997493156183951 
-0.1134534233758661 
-0.1134534233758661 
-0.116982882461835 
-0.01665621250841872 
-0.1134534233758661 
0.02686074799554609 
0.001536012050879304 
0.005199282820825633 
0.005199282820825633 
-0.02325273366803506 
-0.03914430473787374 
-0.02444392020329219 
-0.02595256803967812 
-0.02444392020329219 
0.001536012050879304 
-0.04895263475155848 
-0.001941374087082008 
-0.04393163100286883 
-0.001941374087082008 
-0.122818131257784 
0.02010705282632231 
-0.002084688558367456 
0.02010705282632231 
-0.002084688558367456 
-0.02854159188091488 
-0.09723424200192901 
-0.01270586965426364 
-0.002084688558367456 
-0.002084688558367456 
-0.06203277114378602 
-0.05720482233087344 
0.02185176041099611 
-0.05720482233087344 
0.01544555000445988 
-0.01335931292186121 
-0.06203277114378602 
-0.01335931292186121 
-0.01335931292186121 
-0.01335931292186121 
-0.1000129113298942 
0.02185176041099611 
-0.05720482233087344 
0.02185176041099611 
-0.01684053219707757 
-0.05391625941175517 
-0.002908364099019297 
-0.01827667668773502 
-0.01598069959214639 
-0.03332003479003028 
-0.01598069959214639 
-0.1721712105879941 
-0.01827667668773502 
-0.01598069959214639 
-0.03303603329875459 
-0.1721712105879941 
-0.1721712105879941 
-0.01598069959214639 
-0.02734027899203506 
-0.01598069959214639 
0.001054080754372197 
0.131222347721881 
0.001054080754372197 
0.008413692941692358 
0.001054080754372197 
0.008413692941692358 
0.001054080754372197 
0.008413692941692358 
-0.04076164306797286 
-0.04076164306797286 
0.09619699215176762 
-0.04076164306797286 
0.09619699215176762 
-0.03013517649599268 
-0.0530449925212339 
-0.05213867617428494 
-0.04076164306797286 
-0.04076164306797286 
0.02425838016381926 
-0.04076164306797286 
0.05582961401796218 
-0.04076164306797286 
0.001246993401195253 
0.009290050361234146 
-0.1461015234915649 
-0.0110108385222113 
-0.0009713912395453344 
-0.0009713912395453344 
0.05352681356737609 
0.007011786543062911 
-0.0110108385222113 
0.005757482213548547 
-0.01247864401471827 
-0.03302554015433325 
0.09795207174728578 
0.03741783209312828 
-0.01247864401471827 
-0.01441132039182939 
-0.01247864401471827 
-0.01121002964833132 
0.07670520515144506 
-0.01247864401471827 
0.07839649934135937 
-0.01080592469397607 
-0.02168682117392769 
-0.03761025858801196 
-0.01523765802102863 
-0.03761025858801196 
0.04213119417998221 
0.02674201227540605 
-0.03761025858801196 
0.04213119417998221 
-0.05052560429160725 
0.04213119417998221 
-0.03761025858801196 
-0.01148223236090789 
-0.03326668017418099 
0.04213119417998221 
-0.1263263578690721 
-0.1263263578690721 
-0.1263263578690721 
-0.000602388403270108 
-0.003193407253779233 
-0.003193407253779233 
-0.003193407253779233 
0.01694980396681676 
-0.003193407253779233 
-0.003193407253779233 
-0.003193407253779233 
-0.03239543652162864 
-0.05107649225583059 
-0.0120929430914702 
-0.0008149235348433993 
0.001873759648568758 
-0.020849795251297 
0.06598229093272573 
0.06598229093272573 
-0.04645107009263691 
-0.02832921721519053 
0.06598229093272573 
-0.02832921721519053 
-0.06048092985416455 
-0.02832921721519053 
0.06598229093272573 
0.02307879429908204 
-0.02985146382128243 
-0.001494473979197673 
0.003626981769479197 
0.003626981769479197 
0.02307879429908204 
-0.001494473979197673 
0.02307879429908204 
0.02307879429908204 
0.01739175015723032 
0.003115669089392866 
-0.005597901630742486 
-0.001494473979197673 
-0.05787524254301141 
0.02906605503865189 
-0.06984650156655729 
0.02906605503865189 
-0.01460391704821762 
0.0009291608487949091 
-0.06519610224758017 
0.01063581379202682 
0.02482248230879094 
0.0243375818318305 
0.0243375818318305 
-0.01083466772703343 
0.02906605503865189 
0.01646517841675001 
0.0243375818318305 
-0.02791682135759485 
0.01167053465757347 
0.01016761674827442 
0.01016761674827442 
-0.02791682135759485 
0.01016761674827442 
0.01152113194159429 
0.01152113194159429 
0.01152113194159429 
-0.03553225772531479 
0.01152113194159429 
0.03549529423666373 
0.007443599707671752 
0.01603075417262919 
0.01603075417262919 
0.05297406459666131 
0.004902085374547161 
0.008577212552033723 
-0.03856676004844205 
0.01800083728624848 
0.004902085374547161 
0.01009671484666212 
0.006922314827655898 
-0.01665665077236412 
-0.1283971022512784 
0.04523456438971871 
-0.08342130177371757 
0.006922314827655898 
0.006922314827655898 
0.02216515044222811 
-0.08342130177371757 
-0.1757606847287154 
-0.02512775759967465 
0.005482153904772973 
-0.06568348992182564 
-0.01665665077236412 
-0.04404089153773739 
-0.009545867791512347 
0.002914916494030779 
-0.001814119045424777 
0.004753655227016738 
0.002914916494030779 
0.001583167710907949 
0.002405438209615766 
0.0001878707396309155 
-0.009545867791512347 
-0.0007145735208305474 
-0.06884883260141297 
-0.0007145735208305474 
0.002914916494030779 
-0.009545867791512347 
0.03032971579869664 
-0.002042577060770838 
-0.01655333551584264 
0.02424826537274985 
0.006454032435343849 
-0.06943225332263872 
-0.01655333551584264 
0.03032971579869664 
-0.002042577060770838 
0.01389503634827525 
-0.03306703334389681 
-0.06951509150714319 
-0.1048124398716409 
-0.000225842953360166 
-0.002042577060770838 
-0.03306703334389681 
0.02498586391938457 
-0.002042577060770838 
-0.002202630376814205 
0.00376238857797557 
-0.002202630376814205 
0.00376238857797557 
-0.04729789446303564 
0.0005363966805065402 
-0.002202630376814205 
-0.002202630376814205 
-0.0001793880621566454 
0.002014128741272225 
0.04326627928104411 
-0.02144341247070355 
0.0005363966805065402 
-0.04259569180526952 
0.0005363966805065402 
-0.009706652943231902 
-0.0457626236163743 
-0.01027541916710769 
-0.01027541916710769 
-0.01027541916710769 
-0.01027541916710769 
-1.768621054378059e-05 
-0.01027541916710769 
-0.01027541916710769 
-0.01027541916710769 
0.003711461375982201 
-0.02057763489240561 
0.009478314606759675 
0.003711461375982201 
0.003711461375982201 
0.05026191527624226 
-0.01219531960856709 
0.008468883769098889 
0.008468883769098889 
0.00270990224703246 
0.003711461375982201 
0.007039947920956522 
-0.009167804910731594 
0.004771685822334493 
0.002473417425571385 
0.008144534224498089 
0.008144534224498089 
-0.01062541799527422 
0.00186432647472187 
0.002473417425571385 
-0.06137720345705728 
0.008144534224498089 
0.002473417425571385 
-0.01030361542047997 
6.782045136376328e-05 
6.782045136376328e-05 
6.782045136376328e-05 
0.002185577218195714 
6.782045136376328e-05 
-0.05344026150187073 
6.782045136376328e-05 
6.782045136376328e-05 
0.04578083289388693 
0.004388319873247154 
-0.06429839946645056 
-0.04132596615738707 
-0.03931179540788914 
-0.046556137446383 
-0.02835755410245511 
-0.001647816852137769 
0.001287195562513489 
0.004388319873247154 
-0.001647816852137769 
-0.04132596615738707 
0.0759196341311963 
-0.1398648314573743 
0.01388076192274569 
-0.1111232653529148 
-0.019629080928818 
0.04498158749684126 
0.06511368521497046 
-0.01592132839403193 
-0.1994855146943863 
-0.019629080928818 
-0.218809579417372 
-0.1398648314573743 
0.02882435991636569 
-0.01592132839403193 
0.0006363633832604208 
-0.1111232653529148 
-0.02098755493328683 
-0.01650438644944629 
0.02882435991636569 
-0.0232320861947139 
-0.019629080928818 
-0.1111232653529148 
0.007844003799792224 
0.06889414860756407 
-0.002428164921389985 
-0.005816836764974179 
-0.006215431136273044 
-0.04099546371277157 
0.03067498462577416 
-0.004594916182731849 
-0.00302620514890213 
0.001020513073132428 
-0.0002741751439535172 
-0.01839419275876886 
-0.01289682221465789 
-0.02146169602524671 
-0.01839419275876886 
-0.0002741751439535172 
-0.01839419275876886 
-0.02146169602524671 
-0.0002741751439535172 
-0.01330455300036758 
-0.02146169602524671 
0.007270263878918793 
0.0115851762086627 
-0.002760051558301813 
0.009269599133830606 
0.01201574091703192 
0.009269599133830606 
0.006155885684546431 
0.01210115466575679 
0.07988574424193204 
0.0129593931066381 
0.04998245975111267 
0.009269599133830606 
0.01853321315931579 
0.009269599133830606 
0.04998245975111267 
0.01201574091703192 
-0.04210012584035863 
-0.04537765591367784 
-0.02213911449426759 
0.0007874651002592628 
0.06802235258090009 
-0.05858796719149684 
-0.02855832449890002 
-0.02201867308729574 
-0.0001159765754430243 
-0.003528295008753422 
0.001100072685233103 
0.006058787211490045 
-0.001787307662773676 
-0.04797558940066939 
-0.001732714155748665 
-0.04797558940066939 
-0.001787307662773676 
0.0004622321986109191 
-0.001527016004144343 
-0.0004305458558976468 
-0.01678404413024856 
-0.0001789008689674406 
-0.06543954906697487 
0.005111329072334463 
-0.0001789008689674406 
0.005111329072334463 
0.001519630651170349 
-0.03538250702290013 
0.005111329072334463 
-0.03538250702290013 
0.005111329072334463 
-0.0001789008689674406 
0.009746469033129909 
0.05570206689545094 
0.005111329072334463 
0.005111329072334463 
0.01996312520968917 
0.08149740439393459 
0.01996312520968917 
0.03838134094138124 
0.01996312520968917 
0.02506407283135575 
0.02506407283135575 
0.0819291676711509 
0.03767170046461509 
0.01996312520968917 
0.00151113330163951 
-0.1078591613630523 
-0.02556175259606684 
-0.04798428841484247 
-0.0473888958470059 
0.00151113330163951 
-0.1139980627325077 
-0.0810744197000797 
0.0004058720706938514 
-0.06045475347160925 
-0.02556175259606684 
0.04663931987775766 
-0.004813992960351981 
-0.01205051837831697 
-0.04777471690189954 
-0.02899065873890114 
-0.02899065873890114 
-0.04336390986002062 
-0.04336390986002062 
-0.1097884150354237 
-0.02899065873890114 
-0.04336390986002062 
-0.2436797484861037 
-0.003358426253479109 
-0.2898114781701499 
0.08198466828301126 
-0.02899065873890114 
-0.01554402086850774 
-0.003358426253479109 
-0.001013225787465177 
-0.06006613193073321 
0.002678206733051058 
0.02052974975148888 
0.02074912140686234 
0.0146168980177516 
0.002678206733051058 
0.002678206733051058 
0.02074912140686234 
0.002678206733051058 
-0.0084349895909125 
0.002678206733051058 
0.02074912140686234 
0.002678206733051058 
-0.06904670147392807 
-0.04471946606276881 
-0.06904670147392807 
-0.04377783720282168 
-0.04377783720282168 
-0.04377783720282168 
-0.04377783720282168 
-0.02064802996014679 
-0.09195757240564256 
-0.01181699619112447 
-0.06904670147392807 
-0.04471946606276881 
-0.06904670147392807 
-0.1564204832613724 
-0.04471946606276881 
-0.06904670147392807 
-0.02064802996014679 
-0.06904670147392807 
0.04545740064313586 
-0.02064802996014679 
0.06949650242735507 
0.05111009507852013 
-0.007729830502505588 
0.04762922010986276 
-0.007729830502505588 
-0.007212219878838225 
-0.007729830502505588 
0.06579846046926041 
0.0380881571149578 
0.03916743908008278 
0.04249418578233254 
0.03916743908008278 
0.009017458724899102 
0.03916743908008278 
0.03916743908008278 
0.04082690720480023 
-0.01303736661472385 
0.02567653295074229 
0.03916743908008278 
0.04257745181299224 
0.005934039325967074 
0.005934039325967074 
0.005934039325967074 
0.005148938019902531 
-0.04212966279864695 
-0.04212966279864695 
0.02171790785597726 
0.005934039325967074 
0.007148715757779282 
0.005934039325967074 
0.005934039325967074 
-0.002725658613954785 
-0.000507243667869274 
0.03775802048434813 
0.04845667875042056 
-0.000507243667869274 
0.0007520326617646454 
-0.002044775454835313 
-0.000507243667869274 
0.0006182944377443812 
0.0008853106599372898 
0.0008853106599372898 
0.0008853106599372898 
0.0008853106599372898 
0.0008853106599372898 
0.04028463899037459 
0.0008853106599372898 
-0.04316291242637415 
-0.0422102104631118 
0.04011190266595474 
0.0008853106599372898 
-0.03931027891063847 
-0.01375024605695844 
-0.01445441726935027 
-0.0006776483533404973 
-0.01375024605695844 
-0.01375024605695844 
-0.0001312348494714353 
0.07527699981490098 
-0.0008490673327083332 
-0.01375024605695844 
0.05640950005401459 
-0.02017870255902771 
-0.02018344694525849 
0.009946169167132346 
-0.02017870255902771 
0.02760303091209729 
-0.008293718125050125 
0.006405373294424681 
-0.01208190419610971 
-0.06086479878557864 
-0.1177503759694204 
-0.02385103961880115 
0.006405373294424681 
0.001621632072483038 
-0.09547669337163821 
-0.0005538324006444269 
0.0007027390868931246 
-0.0005538324006444269 
-0.04490250206984198 
-0.08430380605186097 
-0.1370745064123092 
0.0007027390868931246 
0.007046301266601637 
0.000515070845343896 
-0.0005538324006444269 
-0.0005538324006444269 
-0.03766198840178035 
0.04772695792251105 
0.008558041563028813 
0.03538785402979949 
0.0117962880986471 
0.003945477195496312 
0.003945477195496312 
0.06350599664949788 
0.008558041563028813 
0.008558041563028813 
0.008558041563028813 
-0.005833765553173192 
0.100753423555004 
-0.08187581331989953 
-0.05561913429790535 
0.008558041563028813 
0.008558041563028813 
-0.003938707237784896 
0.003326746702249754 
-0.04131700515832643 
0.003326746702249754 
0.003326746702249754 
-0.003938707237784896 
0.003326746702249754 
-0.003938707237784896 
0.01905249645378421 
-0.02911021794717708 
0.003326746702249754 
0.02814097633156643 
0.003326746702249754 
0.003326746702249754 
0.0009037980337950678 
-0.0008467465743969482 
-0.04709726659189752 
0.006132223389110728 
0.006132223389110728 
0.2110613024785955 
0.006132223389110728 
0.01807091467381127 
0.01807091467381127 
0.02296072200514538 
0.006132223389110728 
0.4396271413378061 
-0.01172778675383287 
0.006132223389110728 
0.009703594815820045 
0.4396271413378061 
-0.00379283939441025 
-0.06869438989724008 
-0.00379283939441025 
-0.004509079690767828 
-0.06869438989724008 
-0.005472529766129769 
-0.00379283939441025 
-0.06869438989724008 
0.07434823430932927 
-0.06921327722020139 
-0.02282866456454334 
-0.00379283939441025 
-0.0002772779290035893 
0.04444692289154118 
0.007309554754895718 
-0.001996680493873052 
-0.0007068688051918386 
-0.03351093583651446 
-0.0007068688051918386 
0.009285675433378979 
-0.0002772779290035893 
-0.0002772779290035893 
-0.0007068688051918386 
-0.056511900759991 
-0.0002772779290035893 
-0.001996680493873052 
-0.001311245097512518 
0.003978607170817367 
-0.001311245097512518 
-0.07756915177802334 
-0.001311245097512518 
-0.001311245097512518 
-0.001311245097512518 
-0.001311245097512518 
0.009719470350909736 
-0.001311245097512518 
-0.001311245097512518 
0.01759736538354995 
-0.001311245097512518 
-0.02656661271343562 
-0.02594049469325888 
-0.0987527634522002 
-0.01174031116669873 
-0.0889624889946755 
-0.0270438632798994 
-0.09537161564399911 
-0.0889624889946755 
-0.03147449427296109 
-0.09537161564399911 
-0.09537161564399911 
-0.08260054625311453 
-0.09537161564399911 
0.01193869128470055 
-0.06917382374815828 
-0.06917382374815828 
0.01193869128470055 
0.01193869128470055 
-0.06917382374815828 
0.01193869128470055 
-0.06917382374815828 
-0.001214312708105946 
-0.03922680190594365 
-0.001214312708105946 
-0.06614289140587838 
-0.001214312708105946 
-0.001214312708105946 
0.001828043554635263 
-0.001214312708105946 
-0.03566188858490064 
-0.06614289140587838 
0.0002354348848722953 
-0.001214312708105946 
-0.001214312708105946 
-0.001044108339769702 
-0.02528181157869408 
0.02646017424907626 
-0.006018322464441273 
-0.001044108339769702 
-0.01043874806858325 
-0.001044108339769702 
-0.0920117489596378 
-0.03313841272334474 
-0.05688814400358573 
-0.001044108339769702 
-0.0920117489596378 
-0.005565248553421548 
-0.0003027381671667009 
-0.05648386943673707 
-0.001044108339769702 
-0.005565248553421548 
-0.006798519693445981 
-0.001044108339769702 
-0.02150208047819696 
0.004550500494324314 
-0.005356032682334745 
0.004550500494324314 
0.004550500494324314 
0.004550500494324314 
0.01219026976201685 
-0.04850594469612562 
0.005194629472114956 
-0.03236816688601937 
-0.01636930397609511 
0.01101231042350115 
0.01043157775483775 
0.005194629472114956 
0.004538504602678164 
0.004538504602678164 
0.004538504602678164 
0.004538504602678164 
0.004538504602678164 
-0.03109173714591228 
-0.06832802709948083 
0.0007447793744443457 
0.0007447793744443457 
0.007428547056395137 
0.0007447793744443457 
-0.03109173714591228 
0.003287014620492798 
0.0007447793744443457 
0.0007447793744443457 
0.007428547056395137 
-8.484855466757961e-05 
-8.484855466757961e-05 
-8.484855466757961e-05 
-0.06192482148589626 
0.01161218593115064 
-8.484855466757961e-05 
-0.06192482148589626 
-8.484855466757961e-05 
-8.484855466757961e-05 
-0.06192482148589626 
-0.0586797050005112 
0.005283438391539493 
0.005283438391539493 
0.00496418926671117 
0.005283438391539493 
0.01177817667096394 
0.005283438391539493 
-0.006679875388704015 
0.005283438391539493 
0.01177817667096394 
-0.008479633542096991 
0.04909830735922756 
-0.0005291382777180848 
0.03495958361695477 
-0.05671965318553335 
-0.1350395582508666 
-0.01219475800015956 
-0.008479633542096991 
-0.008479633542096991 
-0.1350395582508666 
-0.1350395582508666 
0.02571625742284045 
0.02571625742284045 
-0.09721638661019193 
-0.0005291382777180848 
0.09439460431732649 
0.03495958361695477 
-0.0005291382777180848 
-0.009228637357687858 
-0.003725957095976385 
-0.003725957095976385 
0.001477732060765688 
-0.05343798661065042 
-0.02820419828440411 
0.01684786599294739 
0.004443348370445511 
-0.0002873600246661656 
-0.008056955723034947 
-0.0001321155690026949 
-0.05590106322750119 
0.0001319723218434237 
-0.07951390773417759 
0.0001319723218434237 
0.0001319723218434237 
0.005944190407277975 
-0.001178654518652926 
0.07112175234317171 
-0.01120638589818416 
-0.001178654518652926 
0.005448788325200104 
0.01191682214467158 
-0.001178654518652926 
0.07641239590301718 
-0.01120638589818416 
-0.01116790421595005 
0.003116244345111506 
0.02252063429413607 
0.02927641888840107 
0.002343689928490432 
-0.01116790421595005 
0.02537128815532448 
0.002212283770770398 
0.01375008842285419 
-0.0190188806257928 
-0.01093792941514565 
-0.01093792941514565 
-0.01441792620530575 
-0.01093792941514565 
0.02657845665532237 
-0.001443827267043312 
-0.01707399538694671 
-0.04138304792806009 
0.02524322001810759 
0.05500269212704308 
-0.01707399538694671 
-0.001443827267043312 
0.04689878084747246 
0.02524322001810759 
-0.01707399538694671 
0.05500269212704308 
0.002960139915762395 
0.002960139915762395 
-0.03779881003088595 
-0.008571243469894827 
0.002960139915762395 
0.002960139915762395 
0.05150412124535723 
0.06501305597719506 
0.05150412124535723 
-0.009045630262178295 
0.002960139915762395 
0.002960139915762395 
-0.01440317274279671 
-0.06966128925634782 
-0.06966128925634782 
-0.02661439862989296 
-0.02661439862989296 
-0.02661439862989296 
-0.08211369654352059 
-0.03217423443645802 
-0.02661439862989296 
-0.01165609194952846 
-0.2371849415255393 
-0.02661439862989296 
-0.02661439862989296 
-0.06966128925634782 
-0.03212316034270801 
-0.00306929672659709 
-0.002114477692990755 
-0.02771164945432297 
-0.002114477692990755 
-0.002114477692990755 
-0.04348046106650924 
-0.02580714980613679 
-0.002114477692990755 
-0.03707737456572143 
-0.002114477692990755 
-0.002114477692990755 
-0.002114477692990755 
-0.002114477692990755 
-0.002114477692990755 
0.002847537017839108 
-0.00719569001815709 
-0.03668355136723901 
-0.1258307622779494 
-0.00719569001815709 
-0.00719569001815709 
-0.00719569001815709 
-0.00719569001815709 
-0.0378369195930179 
-0.005781769636736846 
-0.03209075833411398 
-0.3018091689193754 
-0.06502971236494831 
-0.05765779141018863 
-0.004121681564553802 
-0.02174453539853584 
0.05544117907147734 
-0.01605469274257947 
0.05193146071591446 
0.008942943770825626 
0.008942943770825626 
0.008942943770825626 
0.008942943770825626 
0.008942943770825626 
0.008942943770825626 
0.0117606862621641 
0.008942943770825626 
0.008942943770825626 
0.001575249451955847 
0.008942943770825626 
0.008942943770825626 
0.001575249451955847 
0.008942943770825626 
0.008540386311841966 
-0.04837916534761035 
0.03536797787641497 
0.04609694225038725 
-0.03723628995356852 
0.04181397791646566 
-0.0758335611557014 
0.04181397791646566 
-0.03723628995356852 
-0.3934916456854489 
-0.04837916534761035 
-0.3934916456854489 
-0.03803722598095741 
-0.03723628995356852 
-0.04837916534761035 
-0.1960544694494894 
-0.03803722598095741 
0.005277156231355937 
-0.03483756315815961 
0.007990390161656711 
-0.1351420920349043 
-0.02615097233296871 
-0.03622337393976044 
-0.03483756315815961 
-0.03622337393976044 
0.007990390161656711 
-0.03483756315815961 
0.002611877408649034 
-0.03483756315815961 
-0.03622337393976044 
-0.03483756315815961 
-0.03483756315815961 
-0.03622337393976044 
-0.0414782868659877 
-0.0414782868659877 
-0.04169709130361785 
-0.0414782868659877 
-0.04169709130361785 
-0.04169709130361785 
-0.04169709130361785 
-0.04169709130361785 
-0.04169709130361785 
-0.006458292575521584 
-5.22451973652404e-05 
-0.006458292575521584 
-5.22451973652404e-05 
-5.22451973652404e-05 
0.02472212601037343 
0.0007313580145466073 
0.01907559754687478 
-5.22451973652404e-05 
0.004789557059766344 
0.02651720792075472 
-0.003605395697853333 
-0.003605395697853333 
-0.003605395697853333 
-0.08515170672304531 
-0.08515170672304531 
-0.003605395697853333 
-0.003605395697853333 
-0.08515170672304531 
-0.007685000268433976 
-0.05885387796356794 
0.01128004119769029 
-0.03840536556606862 
0.002741100498257581 
-0.05885387796356794 
0.002741100498257581 
-0.001339742725134638 
0.01128004119769029 
0.06092503548478574 
0.06092503548478574 
-0.0006618903453800447 
-0.003512671814231652 
-0.003512671814231652 
0.0004735685825481412 
-0.003512671814231652 
-0.003512671814231652 
-0.003512671814231652 
-0.003512671814231652 
0.008016915017581824 
-0.003512671814231652 
-0.003512671814231652 
0.02199395128156699 
-0.05722526780493922 
-0.006006172475417937 
-0.05474355918819091 
0.01998362398718888 
-0.03180591994195252 
-0.006006172475417937 
0.001550285292654351 
-0.007996700411181869 
-0.05179803023983218 
0.02063672788993059 
0.02063672788993059 
-0.006006172475417937 
-0.003819205798969016 
-0.001258953076939674 
-0.006035129083816391 
-0.008729755839429608 
-0.006035129083816391 
-0.006035129083816391 
0.006852722920717346 
-0.01486132884923833 
-0.002089878845605108 
-0.04799157901941256 
-0.4087465058230191 
-0.002089878845605108 
-0.07286047750641772 
-0.09053559095639946 
-0.002089878845605108 
-0.1681553440613464 
-0.002089878845605108 
0.01632331923236842 
-0.03599271933430669 
0.01147094318200064 
0.02848951316413503 
-0.000171786511292109 
-0.000171786511292109 
-0.000171786511292109 
-0.000661946720288119 
-0.001639149166351752 
-0.000661946720288119 
-0.02451468266334982 
-0.000661946720288119 
-0.000661946720288119 
-0.05836521695284058 
-0.000661946720288119 
-0.000661946720288119 
-0.000661946720288119 
-0.000661946720288119 
-0.000661946720288119 
-0.000661946720288119 
-0.000661946720288119 
-0.000661946720288119 
0.05422826413670378 
-0.02630878738615886 
-0.02933767792547739 
-0.02630878738615886 
-0.02630878738615886 
-0.02630878738615886 
-0.1974387767760661 
-0.02630878738615886 
-0.02630878738615886 
-0.04862278632123739 
-0.0009634500753619409 
-0.0009634500753619409 
0.001719545749086756 
0.08327692569592252 
0.001719545749086756 
-0.06581899927096273 
0.001719545749086756 
-0.0009634500753619409 
-0.05948498185571059 
-0.02258660254295517 
-0.006299823068134219 
-0.02258660254295517 
-0.1093481391392337 
-0.05422743176939505 
-0.02410687953800023 
-0.1093481391392337 
-0.1093481391392337 
-0.02258660254295517 
-0.01079686712488803 
-0.0002309019566344143 
-0.002008724767886778 
-0.0002309019566344143 
-0.01079686712488803 
-0.0005115669449811421 
-0.001028237730399504 
0.05159827209822761 
-0.0005115669449811421 
-0.01079686712488803 
-0.0003853893328923252 
0.000873843779504041 
-0.005109184264987364 
0.001235868827456481 
0.001235868827456481 
0.000873843779504041 
-0.05867004234963306 
0.01674906488495948 
-0.06141828703368955 
0.008282360851946762 
-0.06141828703368955 
0.008282360851946762 
0.02024329320907469 
-0.007171815849764372 
-0.02905661624027129 
-0.02905661624027129 
-0.02905661624027129 
0.02015854364914495 
0.02015854364914495 
0.02055948640946748 
-0.01953808271978869 
0.02015854364914495 
0.02015854364914495 
0.02015854364914495 
0.02015854364914495 
-0.04377202709008917 
-0.05254294656246995 
0.02055948640946748 
0.02055948640946748 
-0.00315767286423748 
0.02015854364914495 
0.02055948640946748 
-0.01626170004360452 
-0.01605475234484894 
-0.1635583267912177 
-0.01566216035128745 
-0.01566216035128745 
-0.27424256628769 
-0.27424256628769 
-0.01626170004360452 
-0.03198454976292012 
-0.02392409966516884 
-0.01626170004360452 
-0.00154207592156309 
-0.02881334447741708 
0.0004264984354856176 
-0.00154207592156309 
-0.00154207592156309 
-0.00154207592156309 
-0.00154207592156309 
0.02117377485773786 
-0.00154207592156309 
0.01083490978995733 
-0.00154207592156309 
0.02117377485773786 
0.02117377485773786 
-0.00154207592156309 
0.02117377485773786 
-0.00154207592156309 
0.004841652685964613 
0.004841652685964613 
0.01242680111400745 
0.007554554202275642 
0.005108522916881154 
0.03559423538667173 
0.007554554202275642 
0.01445287253678137 
0.005897256826698525 
-0.001829095827217129 
-0.005492639737457844 
-0.01240213145490481 
-0.005492639737457844 
-0.0328446514196284 
-0.0328446514196284 
-0.01240213145490481 
-0.006270650549522342 
-0.006401578717861565 
-0.009943115384330788 
-0.009943115384330788 
-0.1005456319647718 
-0.009943115384330788 
0.05550049446368831 
-0.03723675903199231 
-0.004843873974189431 
-0.009943115384330788 
-0.009943115384330788 
-0.009943115384330788 
-0.009943115384330788 
-0.009943115384330788 
-0.009943115384330788 
-0.009943115384330788 
-0.03723675903199231 
-0.009943115384330788 
-0.009943115384330788 
-0.009943115384330788 
-0.003196716994024839 
-0.02087133172117286 
-0.003196716994024839 
-0.01408512768295069 
-0.007624839346663826 
-0.005426401726709613 
-0.03210490924012688 
-0.03210490924012688 
-0.005223269816054412 
-0.005426401726709613 
-0.1049320174457185 
-0.003196716994024839 
-0.005426401726709613 
-0.005426401726709613 
0.0183354189586513 
-0.168333588313346 
-0.06792118095399081 
0.01265763720328928 
-0.01342854401872612 
0.01265763720328928 
-0.0009137018901189729 
-0.0009137018901189729 
-0.0009137018901189729 
-0.0009137018901189729 
0.08795221362323409 
0.06328888600949309 
0.004625036412864485 
0.004625036412864485 
0.05815563959319985 
0.08795221362323409 
0.004625036412864485 
0.005434495445484021 
0.004625036412864485 
0.06461173019619551 
-0.01398287083197305 
-0.008799185462586375 
0.006537638071083728 
0.004631683909543119 
-0.008799185462586375 
0.004631683909543119 
0.001227552747105683 
0.03424515543544563 
0.001227552747105683 
0.0003750894405022403 
8.56521771593065e-05 
0.01445402437812968 
0.00185196789645925 
0.001227552747105683 
0.01352880038670708 
0.003844575447239359 
0.003844575447239359 
0.007802234159435885 
0.005804482197334032 
-0.07288084170430344 
0.08300540067912487 
-0.07288084170430344 
0.003844575447239359 
0.007802234159435885 
-0.07288084170430344 
0.01660960836403977 
-0.07288084170430344 
-0.007947745963909361 
0.003483934888642277 
-0.005333215854963627 
-0.005333215854963627 
-0.005333215854963627 
-0.005333215854963627 
-0.005333215854963627 
-0.09364345699565049 
-0.006788774883829734 
-0.04411297490581732 
-0.001673152682128344 
-0.00166308185901864 
-0.02065531993769679 
-0.4781925538855789 
0.03432792822458913 
-0.009787429240346311 
-0.001251816420865449 
-0.1442025893171163 
-0.001251816420865449 
-0.04515549045288668 
0.04025136564326853 
0.001914607718199443 
0.01967282414664476 
-0.0364086216268172 
0.04025136564326853 
0.001914607718199443 
-0.0439168214152279 
-0.03192164605368238 
-0.1162063340062429 
-0.0439168214152279 
-0.1162063340062429 
-0.03168017651181072 
-0.0439168214152279 
-0.01216585523188721 
-0.08851278877575157 
-0.0176669505501048 
-0.01216585523188721 
-0.0176669505501048 
-0.01216585523188721 
-0.01216585523188721 
-0.0176669505501048 
-0.01567103029864918 
0.04418831561904345 
-0.0413905756150446 
-0.01216585523188721 
0.04371457235930488 
0.009265304849797217 
-0.0967781619662081 
-0.07879422818815683 
-0.0612862090074963 
0.009265304849797217 
0.06494396122969286 
0.002514537540007507 
0.002514537540007507 
0.005214371911650589 
-0.04962058158561305 
-0.04962058158561305 
-0.003182815473456947 
0.002514537540007507 
0.002514537540007507 
0.09784509329658281 
0.03312057284179095 
0.000997928378167543 
0.002514537540007507 
-0.04962058158561305 
0.002514537540007507 
0.002514537540007507 
-0.002578883958970413 
0.002514537540007507 
-0.04962058158561305 
0.002699834371643079 
0.003807063794668495 
0.002699834371643079 
0.002699834371643079 
0.002699834371643079 
0.002699834371643079 
0.002699834371643079 
0.002699834371643079 
0.002699834371643079 
0.002699834371643079 
0.007515920956244928 
0.002428267488522783 
0.002428267488522783 
0.002428267488522783 
0.002428267488522783 
0.002428267488522783 
-0.137374851815525 
0.002428267488522783 
0.002428267488522783 
0.002150187502267992 
0.002428267488522783 
0.007515920956244928 
0.002428267488522783 
0.007515920956244928 
-0.137374851815525 
0.007515920956244928 
0.01370317805967867 
0.004016437573294516 
-0.0002780799862547939 
-0.0002780799862547939 
-0.03846623757405807 
-0.03846623757405807 
-0.0002780799862547939 
-0.0002780799862547939 
-0.03846623757405807 
-0.0002780799862547939 
-0.0002780799862547939 
-0.0004895644357054015 
-0.0002780799862547939 
-0.02417818017701187 
0.01487068120152151 
-0.0002780799862547939 
-0.06235693268537094 
-0.05881499180573328 
-0.01373604665224856 
0.002584165917281039 
0.002584165917281039 
0.002584165917281039 
0.002584165917281039 
0.002584165917281039 
0.01939186145227348 
0.002584165917281039 
0.08252505299598278 
0.002584165917281039 
0.002584165917281039 
0.007123210539043829 
-0.0874534793912158 
0.1544932037215893 
0.1544932037215893 
0.08428280480780391 
0.1544932037215893 
0.04392917182673256 
0.1544932037215893 
0.1544932037215893 
0.05609473408910042 
0.05609473408910042 
0.1544932037215893 
0.1544932037215893 
0.06189646779301571 
0.06189646779301571 
0.06189646779301571 
-0.0003766116338287519 
-0.0003766116338287519 
0.09044249196704904 
-0.03129512963666749 
-0.03129512963666749 
-0.0003766116338287519 
0.01966470403865153 
-0.03129512963666749 
-0.03129512963666749 
-0.00750589475595875 
-0.001453985567211592 
0.02947536186053484 
-0.06488704453113354 
-0.1086278514890699 
-0.0006838181785689953 
-0.06488704453113354 
-0.06488704453113354 
-0.0001727363244198469 
-0.1088739539600641 
-0.0001727363244198469 
0.03645105716014146 
0.05485601394731329 
-0.0001727363244198469 
-0.0001727363244198469 
-0.0001727363244198469 
-0.0005015834348735885 
-0.0001727363244198469 
0.0655992027450394 
0.0655992027450394 
0.1490251607846812 
0.2383181943574694 
0.0655992027450394 
0.1468568025442714 
0.0655992027450394 
0.0655992027450394 
0.0655992027450394 
0.0655992027450394 
0.0655992027450394 
0.04068536010177585 
0.0655992027450394 
0.02313421598123817 
0.003272022583921779 
0.08014062084440696 
0.003272022583921779 
0.003272022583921779 
0.003272022583921779 
-0.004350017313227398 
-0.004350017313227398 
-0.08102041611246026 
-0.004350017313227398 
-0.08102041611246026 
-0.01820390080224323 
-0.03791336516712721 
-0.002266332603170587 
-0.002266332603170587 
-0.05285460278962961 
-0.002266332603170587 
-0.002266332603170587 
-0.02216809556510221 
-0.05728053632384514 
0.02253738193925786 
-0.05728053632384514 
0.2289024017633264 
-0.002036771125843121 
-0.0006720156359822527 
-0.002036771125843121 
-0.00715819289101337 
-0.0006720156359822527 
-0.002036771125843121 
-0.008393526442750874 
-0.002036771125843121 
0.001294755369714256 
-0.002036771125843121 
-0.0006720156359822527 
-0.005235824354442897 
-0.001707164146524494 
-0.001707164146524494 
-0.001707164146524494 
-0.002423755881477457 
-0.001707164146524494 
-0.001707164146524494 
0.05164257272022829 
-0.02510545657692759 
0.02342496513664046 
-0.01300066871108892 
0.006913909069965455 
-0.01907933898973265 
-0.02684475896544464 
0.006913909069965455 
-0.04147251665336006 
0.0002971551848208576 
-0.002663136819465829 
-0.0001928690712331318 
0.0002971551848208576 
-0.02829737025707718 
-0.04363555423533157 
0.0002971551848208576 
-0.03388187326102558 
0.003625464339071579 
-0.0001928690712331318 
-0.005475165382190495 
-0.04363555423533157 
-0.04363555423533157 
-0.02829737025707718 
-0.01226617999573421 
-0.01226617999573421 
0.1486419382173234 
-0.01502070407188198 
-0.01226617999573421 
-0.01226617999573421 
-0.01226617999573421 
-0.0405297057186179 
0.02598249839674189 
-0.03615321465351676 
-0.06074599835296184 
-0.02253562590046004 
0.1064674098460503 
0.02598249839674189 
-0.06074599835296184 
0.03326387546031424 
0.03028390469277165 
-0.06074599835296184 
-0.04378218969068842 
0.02658089460959374 
-0.01598364129771105 
-0.01598364129771105 
-0.01950972811074209 
-0.02552401071793626 
-0.02254685662107058 
-0.01950972811074209 
-0.01950972811074209 
-0.02058909205581564 
0.0460051873856991 
0.005706513427503998 
0.01003065046697043 
0.1440667506929056 
-0.00839281488607121 
0.005706513427503998 
0.0460051873856991 
0.08372380551607159 
0.01003065046697043 
0.005706513427503998 
0.01003065046697043 
0.01003065046697043 
0.1440667506929056 
0.01003065046697043 
0.01003065046697043 
0.1440667506929056 
-0.006718067293487114 
0.0460051873856991 
0.01003065046697043 
0.005706513427503998 
-0.0005660567274808985 
-0.0009770219854623112 
0.0191676039321705 
0.009300088086901588 
-0.0009770219854623112 
-0.0005660567274808985 
-0.1595469295882558 
-0.02621732975746462 
-0.0009770219854623112 
-0.01336491196360015 
-0.01406450055296551 
-0.02478064730105033 
-0.06080400801660827 
-0.07225421495145082 
-0.005601074451182574 
0.004301578207630333 
0.06388493988360264 
-0.006800123309781489 
-0.01935028255882231 
-0.05793851841581225 
-0.005601074451182574 
-0.05793851841581225 
0.007269331999790514 
-0.005601074451182574 
-0.02130468581372508 
0.004301578207630333 
-0.005601074451182574 
-0.005601074451182574 
0.0007363190679454583 
-0.05037864705767926 
-0.05059730468801186 
-0.05059730468801186 
0.1038624442461534 
-0.05037864705767926 
-0.05059730468801186 
0.1032237351682548 
0.1032237351682548 
-0.005267376745156448 
-0.001296270538834734 
-0.03926967580877516 
-0.03926967580877516 
0.09201907571132859 
-0.001296270538834734 
-0.001296270538834734 
-0.001296270538834734 
-0.001234483516502136 
-0.001945259731632975 
-0.03926967580877516 
-0.02447531022470865 
-0.03926967580877516 
0.1060875825043632 
-0.001234483516502136 
-0.001234483516502136 
-0.02651673856378605 
0.003652729736452992 
0.0003097305309449282 
0.0003097305309449282 
0.0003097305309449282 
-0.02133179461173332 
0.004270723077596971 
-0.04184569571259952 
-0.02133179461173332 
0.002468876778306369 
0.007321634796333184 
-0.003302478276023112 
-0.03290274016061121 
0.002468876778306369 
0.002468876778306369 
-0.02197690064129974 
-0.0044061126415154 
-0.02133179461173332 
0.002468876778306369 
0.002468876778306369 
0.002468876778306369 
-0.0317365461013294 
-0.005059243825950278 
-0.0132331048304231 
-0.02202930007713745 
-0.0132331048304231 
0.008985171022696475 
0.001488867161389143 
0.001566426596237146 
-0.004940700126689211 
0.0002342220180768935 
0.001566426596237146 
-0.03801219151857345 
-0.08314105806350502 
-0.03545753551890102 
-0.03545753551890102 
0.01948612420341098 
-0.03801219151857345 
0.2496467083125288 
0.004083193093239615 
0.03452805124973558 
-0.06369894217079997 
0.004083193093239615 
0.004083193093239615 
0.04255767591228858 
-0.05866187145241077 
0.4922036538526659 
0.004083193093239615 
0.04369816609899066 
-0.08084871335003344 
0.04369816609899066 
0.00448667213429102 
-0.0448332052205178 
0.004083193093239615 
-0.05735289911684256 
-0.03148181547293135 
0.002064662457286215 
-0.05735289911684256 
0.1008943056241226 
0.05609901177591683 
-0.08919135643360933 
-0.08919135643360933 
-0.002661363210060471 
0.2117563164297479 
0.04913374137043854 
-0.0214285941539287 
0.04913374137043854 
0.03874756358443115 
-0.2861400083558875 
0.1698236084951809 
0.04913374137043854 
0.02808627637890449 
0.04913374137043854 
0.04913374137043854 
-0.002547954419167186 
0.04913374137043854 
0.02114417638154708 
0.2117563164297479 
0.1698236084951809 
0.04913374137043854 
0.0157648985125508 
0.0157648985125508 
0.0157648985125508 
0.002128485547706089 
0.0157648985125508 
0.002128485547706089 
0.0004154776182307568 
0.0004154776182307568 
0.0004154776182307568 
0.0004154776182307568 
-0.01301196182161777 
-0.049745455674509 
0.06878104684468639 
-0.0730728354392841 
-0.01471360244671217 
-0.01471360244671217 
-0.01301196182161777 
0.01352660882193787 
-0.01301196182161777 
-0.03943174349232174 
-0.08094165738171639 
-0.01471360244671217 
-0.08094165738171639 
0.003812785943476986 
0.0003947627365645789 
0.007633554941746825 
0.001009544724705538 
-0.02197389292086547 
-0.0005475197579510895 
0.01429820301867978 
0.001398940934412681 
6.12599752731654e-05 
6.12599752731654e-05 
6.12599752731654e-05 
6.12599752731654e-05 
-0.02581468611329159 
6.12599752731654e-05 
6.12599752731654e-05 
0.146266425442552 
0.003837437796884004 
0.003837437796884004 
-0.0819133889044923 
-0.004243572729860954 
-0.004243572729860954 
-0.001070356468543265 
-0.001070356468543265 
-0.001070356468543265 
-0.001070356468543265 
-0.001070356468543265 
-0.001070356468543265 
-0.004243572729860954 
-0.001070356468543265 
-0.001070356468543265 
0.1164329121126141 
0.1166737777264348 
-0.1694653329486435 
-0.008998708142131438 
0.1164329121126141 
0.1164329121126141 
0.114071309695342 
0.1164159460162074 
-0.07274587092882828 
0.1166689317078943 
0.1164329121126141 
0.1164159460162074 
0.114071309695342 
0.1164329121126141 
-0.00171357447334726 
0.001923000959955645 
0.001923000959955645 
0.001923000959955645 
0.001923000959955645 
-0.03541901613867555 
-0.003107725114923842 
0.01114258617625399 
-0.002752144942105893 
0.006805132202353448 
0.006805132202353448 
-0.01058318700906079 
-0.002752144942105893 
-0.002449263473833278 
-0.04367190570803647 
0.04242249612468424 
0.006805132202353448 
-0.002752144942105893 
0.003779731100497106 
0.003779731100497106 
0.004854535483752431 
0.003779731100497106 
0.006194670962773955 
0.003779731100497106 
0.003779731100497106 
0.003779731100497106 
-0.008791950115347563 
0.003779731100497106 
0.003779731100497106 
